{"class":"com.simiacryptus.mindseye.network.PipelineNetwork","id":"e1035fb9-1fe3-4846-a360-62290000005a","isFrozen":false,"name":"PipelineNetwork/e1035fb9-1fe3-4846-a360-62290000005a","inputs":["94273b4c-6657-419f-aa24-c99172ee5f4f"],"nodes":{"6de6f6ca-079b-4535-96d6-1313a83732b9":"e1035fb9-1fe3-4846-a360-62290000005e","2700381d-e15c-4e8b-bd1d-21adbe115f63":"e1035fb9-1fe3-4846-a360-62290000005f","81cc371c-9c62-49a3-b10c-9040f626c232":"e1035fb9-1fe3-4846-a360-622900000060"},"layers":{"e1035fb9-1fe3-4846-a360-62290000005e":{"class":"com.simiacryptus.mindseye.layers.java.MonitoringWrapperLayer","id":"e1035fb9-1fe3-4846-a360-62290000005e","isFrozen":false,"name":"BiasLayer/e1035fb9-1fe3-4846-a360-62290000005b","inner":{"class":"com.simiacryptus.mindseye.layers.java.BiasLayer","id":"e1035fb9-1fe3-4846-a360-62290000005b","isFrozen":false,"name":"BiasLayer/e1035fb9-1fe3-4846-a360-62290000005b","bias":[0.0,0.0,0.0,-1.9625309941581813E-27,0.0,0.0,0.0,0.0,-4.906327485395453E-28,0.0,1.9625309941581813E-27,0.0,-1.9625309941581813E-27,0.0,1.9625309941581813E-27,0.0,-1.9625309941581813E-27,0.0,0.0,0.0,0.0,0.0,0.0,0.0,0.0,0.0,0.0,-6.132909356744317E-29,0.0,0.0,2.4531637426977266E-28,9.812654970790906E-28,0.0,-1.9625309941581813E-27,0.0,0.0,0.0,1.9625309941581813E-27,0.0,1.9625309941581813E-27,0.0,0.0,4.906327485395453E-28,0.0,0.0,2.4531637426977266E-28,0.0,0.0,0.0,0.0,0.0,0.0,-1.9625309941581813E-27,0.0,0.0,-4.906327485395453E-28,1.9625309941581813E-27,0.0,0.0,9.812654970790906E-28,0.0,0.0,4.906327485395453E-28,0.0,-1.9625309941581813E-27,0.0,0.0,0.0,-3.9250619883163626E-27,0.0,0.0,0.0,-1.9625309941581813E-27,0.0,0.0,0.0,0.0,0.0,-9.812654970790906E-28,0.0,0.0,0.0,0.0,0.0,0.0,-3.9250619883163626E-27,1.9625309941581813E-27,0.0,9.812654970790906E-28,0.0,-4.906327485395453E-28,0.0,0.0,0.0,0.0,0.0,0.0,0.0,0.0,0.0,0.0,0.0,-9.812654970790906E-28,-2.4531637426977266E-28,0.0,0.0,0.0,1.9625309941581813E-27,0.0,1.9625309941581813E-27,4.906327485395453E-28,0.0,0.0,-3.9250619883163626E-27,0.0,1.9625309941581813E-27,0.0,-9.812654970790906E-28,0.0,0.0,9.812654970790906E-28,0.0,0.0,0.0,0.0,-2.4531637426977266E-28,0.0,-9.812654970790906E-28,0.0,1.9625309941581813E-27,0.0,0.0,0.0,0.0,0.0,0.0,0.0,0.0,-1.9625309941581813E-27,0.0,0.0,0.0,-3.9250619883163626E-27,0.0,0.0,0.0,-4.906327485395453E-28,-3.9250619883163626E-27,0.0,0.0,0.0,0.0,0.0,0.0,0.0,0.0,0.0,0.0,0.0,0.0,0.0,-1.9625309941581813E-27,0.0,-3.9250619883163626E-27,0.0,0.0,0.0,0.0,0.0,0.0,9.812654970790906E-28,3.9250619883163626E-27,0.0,4.906327485395453E-28,0.0,0.0,0.0,0.0,0.0,1.9625309941581813E-27,0.0,0.0,1.9625309941581813E-27,3.9250619883163626E-27,0.0,0.0,0.0,9.812654970790906E-28,0.0,0.0,-3.9250619883163626E-27,0.0,0.0,-3.9250619883163626E-27,0.0,-1.2265818713488633E-28,0.0,0.0,0.0,0.0,0.0,0.0,0.0,0.0,0.0,0.0,-3.9250619883163626E-27,-9.812654970790906E-28,0.0,0.0,7.850123976632725E-27,0.0,0.0,3.9250619883163626E-27,3.9250619883163626E-27,0.0,-1.9625309941581813E-27,0.0,-1.9625309941581813E-27,0.0,0.0,0.0,0.0,0.0,0.0,-9.812654970790906E-28,9.812654970790906E-28,0.0,-1.9625309941581813E-27,0.0,0.0,0.0,-3.9250619883163626E-27,0.0,-9.812654970790906E-28,0.0,0.0,0.0,-1.9625309941581813E-27,0.0,9.812654970790906E-28,0.0,0.0,0.0,0.0,0.0,0.0,-7.850123976632725E-27,0.0,-3.9250619883163626E-27,0.0,0.0,0.0,0.0,0.0,0.0,0.0,1.9625309941581813E-27,0.0,1.9625309941581813E-27,0.0,2.4531637426977266E-28,0.0,0.0,9.812654970790906E-28,-1.9625309941581813E-27,0.0,-3.9250619883163626E-27,-3.9250619883163626E-27,9.812654970790906E-28,0.0,4.906327485395453E-28,0.0,1.9625309941581813E-27,-6.132909356744317E-29,0.0,0.0,-7.850123976632725E-27,0.0,0.0,0.0,0.0,0.0,-9.812654970790906E-28,3.9250619883163626E-27,0.0,0.0,0.0,0.0,0.0,0.0,-1.9625309941581813E-27,0.0,0.0,0.0,0.0,0.0,0.0,0.0,0.0,0.0,0.0,0.0,0.0,0.0,0.0,0.0,0.0,0.0,-9.812654970790906E-28,0.0,0.0,0.0,1.9625309941581813E-27,0.0,0.0,0.0,0.0,0.0,0.0,0.0,-3.9250619883163626E-27,0.0,0.0,-1.9625309941581813E-27,-9.812654970790906E-28,0.0,0.0,0.0,7.850123976632725E-27,3.9250619883163626E-27,0.0,0.0,0.0,4.906327485395453E-28,0.0,0.0,-4.906327485395453E-28,9.812654970790906E-28,1.9625309941581813E-27,0.0,0.0,0.0,0.0,-3.9250619883163626E-27,0.0,1.9625309941581813E-27,0.0,0.0,0.0,0.0,3.9250619883163626E-27,0.0,0.0,0.0,1.9625309941581813E-27,0.0,0.0,3.9250619883163626E-27,0.0,0.0,0.0,0.0,0.0,-1.9625309941581813E-27,0.0,-4.906327485395453E-28,0.0,0.0,0.0,0.0,0.0,0.0,0.0,0.0,-1.9625309941581813E-27,0.0,3.9250619883163626E-27,0.0,3.9250619883163626E-27,0.0,3.9250619883163626E-27,0.0,0.0,0.0,0.0,-9.812654970790906E-28,0.0,0.0,0.0,0.0,0.0,0.0,0.0,0.0,9.812654970790906E-28,0.0,0.0,1.9625309941581813E-27,-3.9250619883163626E-27,0.0,0.0,0.0,1.9625309941581813E-27,0.0,7.850123976632725E-27,0.0,0.0,0.0,-9.812654970790906E-28,0.0,0.0,0.0,0.0,0.0,0.0,0.0,0.0,0.0,0.0,0.0,0.0,0.0,0.0,0.0,0.0,0.0,0.0,1.9625309941581813E-27,0.0,-6.132909356744317E-29,0.0,0.0,0.0,0.0,4.906327485395453E-28,0.0,0.0,0.0,0.0,0.0,-4.906327485395453E-28,0.0,0.0,1.9625309941581813E-27,0.0,0.0,0.0,0.0,0.0,0.0,0.0,0.0,0.0,-4.906327485395453E-28,2.4531637426977266E-28,3.9250619883163626E-27,0.0,0.0,0.0,0.0,-3.066454678372158E-29,0.0,-2.4531637426977266E-28,0.0,-3.833068347965198E-30,0.0,0.0,0.0,-2.4531637426977266E-28,0.0,0.0,2.4531637426977266E-28,0.0,-3.9250619883163626E-27,0.0,0.0,0.0,-1.9625309941581813E-27,0.0,-9.812654970790906E-28,0.0,0.0,3.9250619883163626E-27,0.0,7.850123976632725E-27,0.0,0.0,7.850123976632725E-27,0.0,0.0,0.0,0.0,0.0,0.0,0.0,0.0,-3.9250619883163626E-27,0.0,0.0,0.0,0.0,0.0,1.9625309941581813E-27,0.0,0.0,0.0,0.0,0.0,0.0,0.0,0.0,3.9250619883163626E-27,0.0,0.0,0.0,0.0,0.0,0.0,0.0,-3.9250619883163626E-27,3.9250619883163626E-27,0.0,0.0,0.0,1.9625309941581813E-27,4.906327485395453E-28,0.0,-1.9625309941581813E-27,0.0,0.0,0.0,1.9625309941581813E-27,0.0,0.0,0.0,-4.906327485395453E-28,0.0,4.906327485395453E-28,6.132909356744317E-29,0.0,0.0,0.0,0.0,0.0,0.0,0.0,0.0,0.0,1.9625309941581813E-27,0.0,0.0,0.0,0.0,-1.9625309941581813E-27,-3.9250619883163626E-27,-9.812654970790906E-28,0.0,-1.9625309941581813E-27,1.9625309941581813E-27,-9.812654970790906E-28,0.0,4.906327485395453E-28,0.0,1.9625309941581813E-27,0.0,0.0,0.0,0.0,0.0,9.812654970790906E-28,0.0,0.0,0.0,-1.9625309941581813E-27,0.0,4.906327485395453E-28,0.0,0.0,9.812654970790906E-28,0.0,0.0,0.0,4.906327485395453E-28,0.0,0.0,0.0,1.9625309941581813E-27,-9.812654970790906E-28,0.0,4.906327485395453E-28,-1.9625309941581813E-27,0.0,4.906327485395453E-28,0.0,0.0,0.0,0.0,-4.906327485395453E-28,0.0,-1.9625309941581813E-27,3.9250619883163626E-27,0.0,0.0,0.0,0.0,0.0,0.0,0.0,3.9250619883163626E-27,0.0,3.9250619883163626E-27,0.0,4.906327485395453E-28,0.0,0.0,0.0,2.4531637426977266E-28,9.812654970790906E-28,-3.9250619883163626E-27,0.0,-9.812654970790906E-28,0.0,9.812654970790906E-28,0.0,0.0,0.0,0.0,1.9625309941581813E-27,0.0,0.0,-3.9250619883163626E-27,0.0,0.0,0.0,0.0,0.0,0.0,0.0,0.0,0.0,0.0,1.9625309941581813E-27,0.0,-4.906327485395453E-28,0.0,0.0,0.0,0.0,0.0,4.906327485395453E-28,0.0,-1.9625309941581813E-27,-1.9625309941581813E-27,0.0,9.812654970790906E-28,0.0,0.0,0.0,0.0,0.0,0.0,4.906327485395453E-28,1.9625309941581813E-27,0.0,0.0,1.2265818713488633E-28,9.812654970790906E-28,-9.812654970790906E-28,0.0,0.0,0.0,0.0,4.906327485395453E-28,0.0,0.0,3.9250619883163626E-27,0.0,0.0,0.0,0.0,0.0,0.0,0.0,-3.9250619883163626E-27,0.0,0.0,4.906327485395453E-28,9.812654970790906E-28,0.0,0.0,3.9250619883163626E-27,1.9625309941581813E-27,0.0,0.0,0.0,-9.812654970790906E-28,-9.812654970790906E-28,0.0,0.0,-1.9625309941581813E-27,0.0,0.0,0.0,0.0,0.0,-3.9250619883163626E-27,0.0,0.0,1.9625309941581813E-27,-1.9625309941581813E-27,0.0,0.0,0.0,0.0,0.0,3.9250619883163626E-27,0.0,-1.9625309941581813E-27,0.0,0.0,0.0,0.0,0.0,0.0,0.0,1.9625309941581813E-27,0.0,0.0,0.0,0.0,3.9250619883163626E-27,0.0,9.812654970790906E-28,0.0,0.0,0.0,0.0,-1.9625309941581813E-27,1.9625309941581813E-27,-9.812654970790906E-28,-9.812654970790906E-28,0.0,0.0,9.812654970790906E-28,0.0,0.0,0.0,4.906327485395453E-28,0.0,0.0,0.0,0.0,0.0,0.0,0.0,0.0,0.0,0.0,0.0,-6.132909356744317E-29,0.0,0.0,0.0,1.9625309941581813E-27,0.0,0.0,0.0,0.0,-1.9625309941581813E-27,-1.9625309941581813E-27,0.0,0.0,0.0,0.0,0.0,0.0,0.0,0.0,0.0,0.0,-1.9625309941581813E-27,0.0,0.0]},"totalBatches":280,"totalItems":1400000,"recordSignalMetrics":true},"e1035fb9-1fe3-4846-a360-62290000005f":{"class":"com.simiacryptus.mindseye.layers.java.MonitoringWrapperLayer","id":"e1035fb9-1fe3-4846-a360-62290000005f","isFrozen":false,"name":"FullyConnectedLayer/e1035fb9-1fe3-4846-a360-62290000005c","inner":{"class":"com.simiacryptus.mindseye.layers.java.FullyConnectedLayer","id":"e1035fb9-1fe3-4846-a360-62290000005c","isFrozen":false,"name":"FullyConnectedLayer/e1035fb9-1fe3-4846-a360-62290000005c","outputDims":[10],"inputDims":[28,28,1],"weights":{"dimensions":[784,10],"data":[-7.164307311767876E-5,-2.036616789952412E-4,-3.9963345411621773E-5,5.32710182209784E-4,1.5729840242864613E-6,3.8723603989134343E-4,4.021542202996958E-4,-1.2359301181208822E-4,-2.0005150683467316E-4,5.2636944839331E-4,9.74638759097875E-5,-1.9150708573702351E-4,-2.033558005177269E-4,3.69756034150562E-4,2.211227580290326E-5,8.610275915196603E-5,2.8811977191308624E-5,3.922185460958012E-4,-3.5651680589507845E-4,-1.0402304194264629E-4,3.722652830629775E-5,4.1153659375151724E-4,-2.3928339799959814E-4,3.280274917913681E-4,5.1412800627388566E-5,2.675148785006673E-4,-2.6774429015692777E-4,-8.556711457330896E-5,-3.368543320578779E-4,-2.7602795703911823E-4,3.4785799327956686E-4,-2.69127434011352E-5,-4.99762340633933E-5,-2.975731873410408E-4,-1.6257544318278312E-4,3.720587991875139E-4,-2.621928186472388E-4,5.488325295911687E-4,3.2369937108255584E-4,-3.699719690139832E-4,1.2779557626605487E-5,-3.5572818679857485E-4,-4.0884250132409533E-4,-2.409808277369338E-4,4.553042998281191E-4,3.2887200012566436E-4,1.4395644022478005E-5,5.041181633288638E-4,-3.217990851454656E-4,-3.089815594174777E-4,2.005091549021732E-4,-3.2645870432694606E-4,1.9294227323886137E-5,-2.69352702853328E-4,-3.841989961055535E-4,3.8522197092192504E-4,-3.981586148185951E-4,-3.457193617610524E-4,2.727968230421813E-4,4.229036095835848E-4,-1.4544158369869336E-4,8.540961839325695E-5,-1.9299210171513855E-4,2.1351020568992034E-4,3.6609402201563885E-4,-1.1753570493692828E-4,2.4140207095622908E-4,1.0616788614660283E-4,1.519664893681319E-4,-2.6552589931369845E-4,-3.43853515779557E-4,5.071959686219871E-4,-4.1503057029480643E-4,3.476439110723456E-5,5.847083851089557E-5,-1.905378206982254E-4,-2.360594182785128E-4,1.0454850829625445E-4,-3.686910760759013E-4,-4.386152949567869E-4,1.4539029971713852E-4,2.5776623642473036E-4,1.0899483027685159E-4,-1.6241854930192461E-4,-2.317657286544476E-4,4.7819458674546014E-5,-3.239495883108458E-4,-4.0792858093654003E-4,-3.0891938046497674E-4,-1.1518986330304886E-4,1.1770141900942372E-4,-4.266507490099992E-4,5.363326947300517E-4,4.743787486178879E-4,3.6095430608131315E-4,-9.238203375609671E-5,1.0805376271740524E-4,-3.7864599560362796E-4,1.3670293261277338E-4,-1.6706855014765248E-4,-1.645901750067172E-4,-3.7995862566587475E-4,1.826236032357103E-4,1.2662047091195933E-4,7.977447996252402E-5,-1.5499589519330943E-4,4.455943673449218E-4,4.3107820150194105E-4,3.6547380631806944E-4,4.0972170117037327E-4,3.745993240941316E-4,3.823428308917925E-4,-4.4240659450427275E-4,9.784444640429296E-5,-3.178030577646965E-4,2.480323087005934E-4,-4.237630706671009E-5,-2.806626575733938E-4,1.3230274776147204E-4,-2.4932699493610173E-4,-2.1920988810857984E-4,-1.612558825716825E-4,4.934210712913435E-4,-4.158080394839488E-4,1.4376209435272818E-4,5.361406188005382E-4,-2.642415749886978E-4,-1.488945230641553E-5,5.8793780932214156E-5,2.8244546099304546E-5,8.762087622928933E-5,-1.0999954749637498E-5,-9.879213547569494E-5,-2.835497978191575E-4,2.1884224200921227E-4,-4.027886304297416E-4,-2.8104246513022184E-4,9.406917351718885E-5,-1.617811934167633E-4,-2.680407290078513E-4,3.262015356273325E-4,2.836764895399487E-4,2.476122064670099E-4,1.6204236874411087E-4,-4.3813245035765475E-4,-4.821608258820093E-5,-3.615134703426898E-5,3.431513065942529E-4,4.6157409876678384E-4,7.729423107753891E-5,-8.90105865183481E-5,-2.3708756260470425E-4,-4.328588527872021E-4,2.4682357895287606E-4,3.785982973243901E-5,5.252013039245294E-4,3.072145918601454E-4,2.2339736434245194E-5,5.39139591468049E-4,-1.9536364020264225E-4,-3.7663660783920845E-4,2.0016317117847276E-4,-1.4685099554151038E-5,-3.854422706893847E-4,-2.983432810713151E-4,4.5861214053528405E-4,-1.7514358838546858E-4,-2.4955581719098785E-5,-6.546420810220904E-5,5.110287899764792E-4,4.7107511784650697E-4,-3.330020449017669E-4,-5.952541218367136E-6,-2.8804849875664656E-4,-1.9628513196323966E-4,-4.0385835429870273E-4,3.549710587880267E-5,3.444404661968668E-4,7.09007676803765E-5,-4.224081264859843E-4,2.7382175058460076E-4,2.816024822814828E-4,-1.500313816250572E-4,-1.6216204779907734E-4,-7.46056824733375E-5,1.8651031539564324E-5,-4.006917377292077E-4,1.8164684441731034E-4,3.89544293110822E-4,5.304091711645591E-4,-1.270468698826071E-4,-2.8017775061905985E-4,-9.226657434882551E-5,-2.717457721478838E-4,5.21128250060426E-4,8.028375677542738E-5,1.432739771488543E-4,-1.0128296823317224E-4,4.60947467555471E-4,1.899733725943586E-4,-9.819158652708566E-5,-3.7172964683597704E-4,-2.1669985242587952E-5,3.528780785938868E-4,4.264994191885428E-4,1.281212455047015E-5,-2.441952421452544E-4,-4.250584250572027E-4,1.931429605065012E-4,1.0612757376434574E-4,2.0331217759776015E-4,-1.1069749653695755E-4,6.845967021607553E-5,-2.1805942449669265E-4,-1.6678570218763773E-4,-4.3790829522055724E-4,2.0556736400765058E-4,-9.511873662713671E-5,-2.822119989328002E-4,-4.001820422216557E-4,2.7464162839173795E-4,-7.101161162865804E-5,-1.2783394091983686E-4,6.128002671367977E-5,3.9262265273291836E-4,-4.383932882237879E-5,-9.388652029069539E-5,1.965156967697494E-4,9.751303345887414E-5,-2.9259924372848606E-4,2.5772197005895773E-4,-3.56107558936092E-4,-4.3551664160510124E-4,1.758587392566942E-4,-4.960146139948191E-5,3.1500562347525703E-4,-4.42107362327908E-4,-1.0045226769269461E-4,1.1504219206912764E-4,-1.0392967300378669E-4,7.683323995714642E-6,1.783560506477605E-5,1.7967189829244974E-4,3.400837017296736E-4,2.46498366425061E-4,1.1422431089071095E-5,-1.1194230523151145E-4,5.304140049188495E-4,-3.060695221118332E-4,-1.082681928581511E-4,5.367432841746147E-4,5.322830944096351E-4,3.337001289262734E-4,-2.9963679059216193E-4,8.905029621193162E-6,2.7228670695502474E-4,1.0138457613252689E-4,1.4782088141769573E-4,1.3245938101064453E-4,5.044163770760079E-4,-9.510937929536163E-5,2.179587095212649E-4,-1.0413795612990456E-4,-3.2108517813067555E-4,-4.064409805277813E-4,5.192754310814349E-4,4.1258541950700827E-4,2.200650055874392E-4,1.8224790698674227E-4,-5.563773839697933E-5,-2.5131651885147336E-4,-1.2987874929299909E-4,-3.042946114596318E-4,2.112646672226431E-4,-4.397991792322899E-4,5.233944187619441E-4,-4.245591447518872E-4,-1.3196515590027874E-4,3.8923358124508354E-4,1.9435659717812322E-4,5.01590170954348E-4,-3.8210662229212083E-4,5.626234881233205E-6,2.238082658368351E-5,-3.4865108771227235E-4,-3.9111394472882274E-4,3.4934194605178945E-4,3.8223985118630015E-6,3.709336587449857E-4,-3.680530414976642E-4,1.294155109093041E-4,1.2005490321211494E-4,-2.6510614044190613E-4,4.7025864879533737E-4,-3.1107417424790603E-4,-2.0613187499448588E-4,4.3461412534008585E-4,4.2102539310597247E-4,-3.485939471896323E-4,-1.9897874972687953E-4,-1.1767591758528845E-4,-4.213865588029931E-4,-2.2096810923669275E-5,4.3292153273647913E-4,5.8478057909267244E-5,2.1242804716739599E-4,4.610477243663758E-4,2.7175110190314974E-4,3.98754633329049E-4,-3.229090832879677E-4,1.759261808865736E-4,-3.319757942051292E-4,3.069482987350404E-4,-6.420069846923865E-5,2.1678024060575846E-4,-4.226251417622887E-4,3.794553912575027E-4,2.144961167189517E-4,-2.5892548023978454E-4,7.655237143649185E-6,1.2807953228745255E-4,-3.3031755037405926E-4,3.6580990200459366E-4,2.883126480111159E-5,5.090930280453532E-4,5.352552977970686E-4,1.9287269181613836E-4,1.1244710956428889E-4,3.4970299284278777E-4,1.3532914917715306E-4,-1.0846357399710044E-4,-1.5924638659543328E-4,1.6782165285881228E-4,4.4531912306407137E-4,5.5749339082467655E-5,5.409822497315396E-4,3.6643158435415243E-4,-2.075466501591598E-4,-1.0371697264303165E-4,-1.4194294168765837E-4,-4.3794608489558127E-4,5.4188377552164144E-5,1.6511200087723467E-4,-6.549089252726792E-5,-1.6661316314239608E-5,3.403679915359003E-4,-2.933911695229406E-4,1.1466240785827182E-4,4.96759880153418E-4,-3.1033523430089863E-4,-8.190618796647584E-5,-1.5356165360335414E-4,-2.847589811737042E-4,2.3113613763208488E-4,2.1326026533429596E-4,-2.15024166883509E-4,-7.680573382771216E-5,5.43521386033615E-4,-4.343331451661471E-4,1.7496932227482282E-4,3.448460218503134E-4,-3.3224358509511566E-5,-4.5613617046704185E-4,-3.2828746851792945E-4,-3.4934504773541467E-4,4.152414317331472E-5,8.837435396711566E-5,3.143350792617267E-4,-1.7283939082844674E-4,5.180138130374118E-4,3.7099562627644324E-4,-2.1246178786000774E-5,-1.0719635554782113E-4,-4.057707524361715E-4,4.908213472664074E-4,-3.308837199723314E-4,4.0756356999201035E-4,-3.315683663510337E-4,-5.9077055669902096E-5,5.037458042570429E-4,-1.9607947444081096E-4,3.5081549963866354E-4,-1.1955311231285701E-4,-5.319872493706949E-5,5.704347867428382E-5,-1.0743921933117647E-4,1.0832168865602177E-4,2.4328494169685927E-4,-8.621967626187671E-5,-1.423991092113846E-4,-5.7490321835488334E-5,2.643484292118804E-4,-5.770904344767423E-5,-1.807724812834912E-4,2.4657962356275116E-4,-1.6328930586300013E-4,-3.124426314994239E-4,-4.395284812793724E-4,1.6557890462240397E-4,-2.557429201282105E-4,2.1207573312161717E-5,4.908276262938281E-4,6.352058642623792E-6,-1.2476271270806616E-5,3.8420985802531664E-4,-2.8497003497182026E-4,-3.006926065530437E-4,5.055871799533926E-4,2.4748641706406454E-4,-1.7153162949466095E-4,2.939250868359456E-4,1.137833815439742E-4,8.514836571650655E-5,-1.242958967721371E-4,-3.446968722712572E-4,3.579527675068151E-4,3.161923719871303E-4,5.328252884845812E-4,-7.878213458145761E-5,3.6042667011146757E-4,-3.9593361388258084E-4,-4.2466256083765704E-4,-3.583284674500524E-4,3.3251786448251633E-4,1.7337318879020387E-4,1.0147966446349481E-4,-1.398314650354154E-4,9.321656535518568E-5,8.708601313331353E-5,4.310534114545105E-4,-1.9039563550242905E-4,4.357915380432017E-4,2.169195994514429E-4,5.405382460180209E-4,9.437126865094887E-5,1.3688149904392358E-4,8.321860583605231E-5,2.68592495774814E-4,-3.9964380261793715E-4,-2.391679044278357E-4,1.2677823340972725E-4,-4.892104355826631E-5,-3.2033902815884266E-4,-7.765454782727568E-5,1.5716103641180915E-4,-4.460297203618374E-4,8.537156177093369E-5,-1.0720475704976169E-5,4.7659009746759843E-4,2.5641330459701833E-4,5.243426962110811E-4,-1.4050970891089917E-4,7.335407995104869E-5,-3.147681083949971E-4,2.6085314646186436E-4,4.439349420874915E-4,-2.4813413743297706E-4,-3.1546695807982303E-4,3.5168881904659943E-4,3.057150629078749E-4,1.8231522338569837E-4,3.4401957613326977E-4,-2.067144633234242E-4,-2.9929952010776257E-4,1.5495727607638048E-4,-3.4142822476803514E-4,-2.1821042257714194E-4,6.699941345291137E-5,1.827805363945493E-4,5.22747367907697E-4,3.8000693316703893E-4,5.143823877280522E-4,5.373759444562431E-4,2.3930765890682644E-4,4.957081405338866E-6,-3.0250814804521492E-5,4.3730807567290866E-4,3.5359729930170406E-4,3.35603150338043E-4,6.077000444394388E-6,2.4548281065236353E-4,-1.0204547050042672E-4,1.0914693569477652E-4,-1.5676112900453577E-5,-2.7212558769470883E-4,1.4859502844441431E-4,5.545757820018818E-4,2.33166760883997E-4,3.724293405512003E-4,5.115218513349103E-4,4.3883685108039085E-4,-2.586445005625058E-4,3.4752395927765934E-4,-4.182023386767421E-4,4.7413186394581146E-4,-9.662902456282725E-5,-3.2554818287704174E-4,3.7381386901699093E-4,1.5417119005015854E-4,-1.2903012393772678E-4,3.78730652802592E-4,5.860021658769562E-5,3.0584367296401257E-4,2.5300204110786115E-4,-2.591149539563339E-4,-2.593183005236747E-4,-1.730697610565473E-4,1.2320072387709196E-4,-1.958598031965999E-4,2.3290461359469315E-4,1.2306009441738025E-4,3.8991958190782126E-4,4.846392797666176E-4,-6.955024175792294E-6,4.4362168104614147E-4,9.72652844660422E-5,1.6974874485344534E-4,4.980717997498562E-4,-1.5165531529223156E-4,-2.931483601921221E-4,1.2470442454851776E-4,1.8074532413790616E-4,2.3966819534734234E-4,-3.2013942902868003E-4,-3.526312395196422E-4,1.378986836485796E-6,4.1638051082089594E-4,2.466950075222398E-4,-2.8462813809580116E-4,-2.6592155575318893E-4,-3.9385438544321246E-4,-2.3099341437835102E-4,-1.0539189072558947E-4,-2.133843348285091E-4,8.580488472956722E-5,1.0761894651105609E-5,-2.4162943192932414E-4,4.92144889637003E-4,-1.301680139899046E-4,3.590686031179403E-4,-2.53405711644859E-4,-3.6137743796239434E-4,2.0541174920974908E-4,3.307090803889348E-4,-3.755566073130848E-4,-4.912565095470262E-5,-3.1608767062540894E-4,2.471824361802073E-4,4.483932413717649E-4,2.640786045912999E-4,-2.452723806790435E-4,-1.436766420969892E-4,1.0068478825070631E-4,-3.5879170840197934E-4,5.288287526491062E-4,-1.571146582817206E-4,-1.4208958951783307E-4,3.758672061171869E-4,2.0276677187533115E-4,-1.7027707149699594E-4,4.627257436506897E-4,-2.4532493992988555E-4,4.59971264887784E-4,1.8359607772877866E-4,-2.360286687023367E-4,-1.7148684753716788E-4,4.8614411442374537E-4,2.3046301991613255E-4,-7.094856486510188E-5,5.220185062233349E-4,4.140652568487798E-4,2.890032043177307E-4,3.571331917372303E-4,2.1204766355258992E-4,2.8080748912270583E-5,1.578007964611789E-4,4.5936632286170206E-4,-3.636329936463148E-4,4.8350813629134123E-4,5.65309780920148E-6,-5.8655999875832534E-5,-1.5701235368434924E-4,3.5670800040427895E-4,-2.5768010648507194E-4,-4.478946338456134E-4,-4.5147382187076095E-5,-3.7722545124040894E-4,-9.473663033115782E-5,-1.8964634586485102E-4,4.996290690246402E-4,9.006294467958493E-5,5.257899608198473E-4,3.1080217727239327E-4,-1.5773792017191552E-4,1.8494787125448693E-4,1.4919425392863377E-4,2.4464439355786763E-4,-3.2446945121045553E-4,3.0929575609741993E-4,1.4211363974988618E-4,-1.749089630818364E-4,1.980874678491232E-4,4.0736382582667456E-4,3.220758448288538E-4,-2.8631916194553466E-5,-9.169878261142745E-5,-1.579321115029308E-4,-2.0540124759810624E-4,-9.13671433680276E-5,2.0650736454821356E-4,1.313963584951911E-4,-4.5012566976800614E-5,9.609054636219656E-5,4.570832303896984E-4,-1.3290190990756735E-5,-5.0513048880675924E-5,4.8351012687104116E-4,1.0157499079629367E-4,1.8621617055645197E-4,-2.6503138419116005E-4,-4.027221846064598E-4,-4.1264445720966E-5,3.1223680599729974E-4,-3.673614200311621E-4,3.103506853336803E-5,-3.023028848393728E-4,8.867150589344594E-5,2.1059687217783108E-4,1.5380542486396792E-4,-2.0423787441424123E-4,-4.3542526087464884E-4,4.3825885498339514E-4,-4.1917344068134136E-4,-2.6206158389288745E-4,3.14004959065309E-26,3.023698243796637E-4,-3.6498007725479766E-4,-5.281955602355481E-5,-2.8175735411545543E-4,2.3776451515286376E-4,1.5112873061388674E-4,1.378480333992264E-4,-3.318871261804402E-4,-1.750285659112903E-4,4.618085368266262E-4,3.088534252010756E-4,-1.781368840251904E-4,2.2797873067314755E-5,6.428324453625417E-5,-2.0314958572013045E-4,3.538829731396389E-4,2.1756342606293384E-4,2.3166045118258965E-4,1.992530565096076E-4,2.4133848917387668E-4,-1.5593925537074212E-4,-1.0929871543183125E-4,3.643667566110769E-4,-3.3147392295228295E-4,-3.491208873876276E-5,-3.3084133936579915E-4,1.3520273057956907E-4,2.4924387940652407E-4,3.7698899621416235E-4,3.792942425509992E-4,5.340199306843552E-4,2.3808141463006838E-4,-4.0013601539127896E-4,1.962240739910998E-4,-3.295851339637158E-4,-1.9002772093430103E-4,-3.642525760136897E-5,1.484859166946498E-4,-2.027494093205679E-4,-1.6657568884768841E-4,2.1274993554881564E-6,-1.1724434069278155E-4,1.0542058943028761E-4,2.414660176545082E-4,3.791098958415853E-4,4.933389060868604E-4,-3.4866230761076614E-4,-2.762868909421436E-4,-2.2457543035096607E-4,1.0874789380792037E-4,2.5326846232285926E-4,2.9610195166077926E-4,-4.953401586547202E-5,-3.887811449214055E-4,-4.4956487149936026E-4,-3.7343367854031053E-4,-1.7852836368199154E-4,-8.123289722435191E-5,-3.141706550250445E-4,4.3116144382685797E-4,4.3095797514991913E-4,-1.2485537814562822E-4,5.287228684024746E-4,4.400120287528635E-4,-3.3669620795861906E-4,2.6418869925363377E-5,-3.129098358645909E-4,-2.2801600774532014E-4,4.634485041280304E-5,8.485944938040769E-5,3.2625057985434476E-4,7.345969333086083E-4,-2.9740887974886765E-4,-2.8390813139209814E-4,-2.548356524453699E-4,1.0880695860327575E-4,5.138452458207032E-4,1.256019836261236E-25,3.579264571321725E-4,3.109052428448202E-4,-4.368756646570924E-4,3.2153511979624586E-4,-2.547042781657255E-4,8.775672588094675E-5,9.618468958756867E-5,1.44879753628241E-4,3.9595157623139427E-4,1.256019836261236E-25,5.369284271044804E-4,-1.7077672205647178E-4,3.29209780732814E-4,6.367773076328089E-4,7.479536849058741E-5,-1.0158494133083581E-4,-2.483689778778505E-4,3.351079032993257E-4,6.919275424289185E-5,2.475055521597342E-4,1.8911471615693849E-4,4.3784473715669496E-4,1.2532106519908524E-4,6.79177994982139E-4,1.293966445166515E-4,4.2131438407493456E-4,-1.985096330132489E-4,4.587838229220866E-5,3.5538914286992353E-4,-1.8188889332234102E-4,1.824966594382891E-4,-1.2294252265246906E-4,-3.3467992438123806E-4,2.3715356586933708E-4,2.62940671650714E-4,4.0680659794689936E-4,-3.940852466536403E-4,2.8842141007069547E-4,-4.398024032720802E-4,4.586001416450667E-4,4.4026383642667855E-4,4.274578538029045E-4,4.94175771774396E-4,-1.464657165251451E-6,3.15595529057084E-4,1.629745522455036E-4,1.4329609241753164E-4,-3.2287149472470523E-4,5.325663899977716E-4,-4.96904871623187E-4,7.237185708896537E-5,-4.3079884942970944E-4,-2.2300901310309235E-4,2.4436993148406333E-5,-1.5802245791960817E-4,-4.208141398792482E-4,-2.776845534129496E-4,-2.588771729275245E-4,-1.3082782096051108E-4,-8.119125044670603E-5,4.407166927225397E-5,-1.583156921592861E-5,-4.255565493289791E-4,-2.911010053762653E-4,3.7427390267195747E-4,2.8919255036575912E-5,-4.479893910386082E-4,5.120091039114525E-4,-3.9265647852253726E-4,9.714552129758857E-5,-4.2241063393537296E-4,1.912862465011008E-4,5.399920416324457E-4,5.376781316033357E-4,1.1086642164761388E-4,2.6915831075762593E-4,-2.0105960725435174E-4,3.903538092220658E-4,-1.796659349214607E-5,4.960045610589757E-4,-2.6752146212052945E-4,2.770967739681403E-4,-9.350438526422606E-5,5.567052169597627E-4,1.5863149390671526E-4,1.4044282906130497E-4,4.711763995149658E-4,-8.924286627872699E-5,1.2130797444142864E-4,9.524890578064878E-5,5.253286606975467E-4,2.39281381165342E-4,-2.1074304049232664E-4,1.3551446627644163E-4,-1.8396927012873782E-4,4.0876995682196786E-4,-1.5029522953428925E-4,4.142662904824865E-4,2.270665517204434E-4,2.386713461676459E-4,-9.175902272430631E-5,-1.7783623228864758E-4,5.730435020688291E-5,-3.3123368622584975E-4,6.074420257921626E-5,-4.019997692950195E-4,-1.1942614323624984E-4,-2.3359048359618766E-4,2.0896349094538097E-4,4.873907919197969E-4,-2.431369738293307E-4,5.283490795444963E-4,3.1344575952488036E-4,-2.736334583589995E-4,4.671707635106696E-4,-6.448379866924109E-5,2.2873719331950598E-4,-8.315947633311394E-6,-1.841173006400127E-4,5.362827350608825E-4,3.468792802997814E-4,2.533915524675663E-4,-4.1776107560474393E-4,3.0365478288827026E-4,-2.3853590026281097E-4,-4.4038415800347537E-4,-2.6445299606864107E-4,2.293608036639226E-4,-8.745751036865607E-5,4.13011533249254E-5,1.0780936159342908E-4,-4.1194550595200315E-4,3.591299855187639E-4,-2.096839154734543E-4,-1.3671017736450353E-5,1.691114919213998E-4,-4.521526573745599E-5,-2.882372372471586E-4,-4.493887694932891E-5,4.1629826823446356E-4,5.025981251453069E-4,1.2017718505287267E-5,-3.9062389911316335E-5,1.1975284276771365E-4,3.7090003886903697E-4,-4.358752448736191E-4,-4.2706217100194196E-4,2.4166498700720358E-4,-1.8233843761588435E-4,3.78809959482661E-4,3.0099538140584866E-4,8.517222561630772E-5,-2.3566589085095553E-4,-1.1269434112590843E-4,2.728393094075457E-4,4.3853371033185677E-4,-2.852110331473317E-4,3.4546864077747744E-4,5.265406615291482E-4,-2.269953282359278E-4,-2.0049209919858013E-4,2.4732202008365345E-4,3.5307033789984686E-4,-3.4515719335971075E-4,2.0471802750855964E-4,-1.838051451342289E-4,3.7206811273525166E-4,-3.1101582903133516E-4,-1.611972938102483E-4,5.415340960612517E-4,-7.832891721442148E-5,2.2392760992013335E-4,-2.9929649958077985E-4,1.424666898536273E-4,-3.3806387245973005E-4,-3.909025410278535E-4,2.7759804031340116E-4,3.6769597333994286E-5,-3.729192226051971E-4,-4.2123812684337087E-4,4.031903854349731E-4,-5.463192105810471E-5,-4.0545951455398915E-4,1.2171802407389879E-4,3.51422361044805E-4,3.7150915838877124E-4,-1.7982789240143492E-4,4.314120151025195E-4,3.7389088377986373E-4,-3.025956322320181E-5,-1.3943667392320926E-4,-6.930867609879795E-5,4.532408352730658E-4,-3.3631528889927463E-4,4.3988404439375503E-4,4.636492513795128E-4,5.219200435556422E-4,8.812946348885516E-5,1.8818609555049768E-4,1.6857034794800028E-5,-8.589204742655479E-5,-2.4252962846106792E-4,-2.8493983129849513E-5,-5.5595138585417495E-6,-3.982757983553732E-4,3.9250619883163626E-27,1.706306437633571E-4,2.7666386186213575E-5,-2.606598739814685E-4,1.9683092484227185E-6,2.3534136258461863E-4,-1.4455473762393714E-4,-1.234201949921373E-4,4.6030353226533295E-4,-1.7556739713122621E-4,-4.1535981288721156E-4,-1.7602211551759315E-4,-4.8776622554394235E-4,9.113294270901669E-5,7.545724533530425E-6,5.33826909053263E-4,2.7154897089591264E-4,1.9972239094937362E-4,6.953705760432484E-4,1.1239997313237163E-4,1.6719939668018516E-4,4.4991048897489734E-4,-4.914473832552847E-5,1.8290127558587692E-4,2.453418016182826E-4,2.984369487322683E-4,-3.203598225234196E-4,-4.7352615963457194E-4,-1.3320216852755635E-4,3.14004959065309E-26,-1.6391493709779859E-4,-1.1765412583443157E-4,2.2272071165625452E-5,6.768491898855456E-5,6.099367570126587E-4,4.025479523841074E-4,-2.5467965392847756E-4,4.0236507444165625E-4,5.035296343750362E-4,-9.780359778420207E-5,3.06551056785784E-4,3.14004959065309E-26,-2.7860413167212145E-4,-2.956002890581187E-4,4.267936727643641E-4,-1.3673703588739156E-4,2.512039672522472E-25,1.256019836261236E-25,8.184714095271617E-4,2.08454603797082E-4,1.256019836261236E-25,-4.5031747388996714E-4,3.1323999475180137E-4,-3.713073911590091E-4,7.846098670687935E-4,4.7029018475348155E-4,2.0094379873218088E-4,-2.8150084333305374E-4,2.1427572633796386E-4,3.8141822655801666E-4,6.28009918130618E-26,-2.3650345167973937E-4,-2.2531707134256423E-4,3.9189107905203776E-4,8.101390425075473E-4,4.698991584816716E-4,-2.776684576721715E-4,1.5195879107212938E-4,9.079754962921211E-4,2.2777517232221527E-4,-5.006714769775527E-4,4.3205791659881834E-4,-3.762765625437474E-4,3.3495179516001764E-4,5.749637345044262E-4,6.008840545086004E-4,1.947353437255523E-4,-1.2182825290185117E-4,2.508280758169513E-4,-2.682705865343701E-4,3.722185479270533E-5,9.186090227267275E-5,-3.9299432077963395E-4,1.7515852175611685E-4,2.0514620264327235E-4,1.1972641408127644E-4,3.8416873618263484E-5,0.0,0.001155160930915258,3.019746312101076E-4,-5.854012187140484E-4,1.575703342607042E-4,-3.4012964993533574E-4,-1.905185548890327E-4,-1.805928647729254E-4,1.9029624486680707E-4,2.2641178687854968E-5,1.256019836261236E-25,8.345393992930234E-4,-2.431562834921398E-4,-3.0872190608937364E-4,-2.009608114896468E-4,1.3295827977749145E-4,1.4544806903692888E-4,1.851591541435796E-4,-2.930547035358911E-5,1.6739224672484453E-4,3.395437740204563E-4,0.001128360337164968,4.0979785377247106E-4,1.4143066654012903E-4,3.7505439519678046E-4,2.512039672522472E-25,-2.69341590143505E-4,1.8865655402910655E-4,1.9044200209006727E-4,-2.3519920867698905E-4,3.6039978304453266E-4,4.5945183417309815E-4,-2.9430897458370303E-4,3.14004959065309E-26,3.040299415824074E-4,1.9845876924408137E-4,-1.8388062254716227E-4,6.34619783444506E-5,3.409030143703102E-4,4.5947210057460235E-4,2.8919741284410335E-4,2.4039130557155326E-4,-2.1043003491156745E-4,-2.2704034064710047E-4,-4.2854066991826034E-4,1.256019836261236E-25,2.27024604938783E-4,1.0424917385078154E-6,-2.560746894334084E-4,-2.534166208209324E-4,1.4811975951564376E-4,4.6089286965290423E-4,5.127024919995995E-4,-3.892943699017315E-4,-5.41544336992755E-5,-2.9327795923117007E-4,2.1174452755048004E-4,4.1832219506487885E-4,4.185996282029567E-4,2.3393361707127385E-4,-2.45149957211429E-4,4.121223039166012E-4,4.7018008506611843E-4,-2.4920733473608156E-4,4.1166205751095794E-4,3.840220126517697E-4,5.166555348279018E-4,-2.2040383425156554E-4,2.837846535482221E-4,-4.4625177586331917E-4,9.27615194741214E-5,-1.1913954244759182E-4,-1.7465408505984537E-4,3.191751400210711E-4,3.0207183849337174E-4,-7.664544749513735E-5,-2.4253700022993717E-5,3.9649892477338955E-4,3.46279806272677E-4,-2.851878571910374E-4,-4.7239437408954586E-4,-2.913121167586468E-4,2.3476681655339597E-4,-9.545602679829954E-5,4.3687459866669263E-4,-3.2086158128654134E-4,4.706694181167262E-5,4.8686073230106265E-4,1.302298980337629E-4,4.402866285620673E-4,1.9470643228579576E-5,-2.619046737969264E-4,-4.016580472046514E-5,5.472449681348379E-4,1.9507195230799231E-4,-2.301199455935717E-4,-8.98730501233062E-5,-3.663519235539203E-4,-3.1407627952076704E-4,2.956736766578729E-4,1.5863531905003554E-4,1.3344993726200312E-4,2.701326276675575E-6,3.467844840856375E-4,-9.689276052082735E-5,3.319804124243185E-4,-2.795462952631935E-4,-4.1830960648956556E-4,-2.6817864861426814E-4,1.0726281507222052E-4,1.3139760282517593E-4,-4.399187410322632E-4,1.0774800337124064E-4,-3.316424752150115E-4,2.783034137571356E-4,-2.882391185074252E-4,4.4076067287397984E-4,-2.697094577110066E-4,5.448362092164636E-4,-1.157410936848241E-5,-1.7799485879308447E-4,-5.39006390245883E-6,5.369469907617898E-4,-4.170278760775026E-7,3.6236823176163973E-4,5.302426693438271E-4,-1.8322105432586218E-4,-4.342995832817397E-4,-2.0420218306884815E-4,5.5712703286237845E-5,5.194504456429195E-4,-4.1226845937625283E-4,5.390649522452382E-4,-3.320419840313188E-5,-2.8198571333207717E-4,-2.024089101320953E-5,4.2962013598155796E-4,2.3785525589156093E-4,4.620015982138685E-4,2.890636803095805E-4,4.839508115890819E-4,3.908517306686776E-4,-4.0790508699748026E-4,-1.1173081386092316E-4,3.463793926723626E-4,-3.2231279655840325E-5,3.476635546551149E-6,-1.977995398719654E-4,-2.2922755833640007E-4,4.9592606493901E-4,-1.7640632301327392E-4,3.9851998585319195E-4,-2.4957385606085594E-4,2.881281610217325E-4,3.126248147053059E-4,2.602200595063323E-4,1.5185730862295798E-4,-4.2205432506113176E-4,2.7470393750141797E-4,5.256173135292684E-4,-1.5262726925171135E-4,-2.1091598502848065E-4,-8.23579612260062E-5,-3.0099586527748944E-4,-1.9138268335975594E-4,4.854999200631673E-4,4.2704536132940306E-5,4.8110742301035053E-4,4.056176776367971E-4,-1.1716614689789556E-4,3.992480890463729E-4,5.346160917931854E-4,-1.915026002223601E-4,-1.9613791955883027E-4,1.0813071982860836E-4,2.430399857427265E-4,3.319373108553599E-4,-1.6042394517148023E-4,2.217485307281388E-4,-1.439996920697466E-4,-3.883436005513005E-4,-3.4474179460823354E-5,-3.0002523890819633E-4,-3.8786566069217336E-5,-2.951122113814561E-4,4.0019315280962354E-4,2.4911729142265395E-4,1.5683443044368095E-5,-7.95212436910081E-5,-5.296713502809211E-5,-2.9006930667314944E-4,3.635919996050535E-4,-3.658109037019003E-4,3.14004959065309E-26,1.4393387416843618E-4,-3.4283288369880847E-4,-4.663813310476707E-4,6.1857618040533E-4,7.055451614883916E-4,4.094491125429437E-4,7.675381479589424E-6,5.134991154399682E-4,4.336404102394179E-4,3.513034159245815E-4,-3.831780814587698E-4,8.992221470635587E-5,1.256019836261236E-25,4.974691219286766E-4,2.8223467048121105E-4,2.915479748929201E-4,7.397203324422922E-5,6.320876728562684E-4,-1.4128030203319143E-4,-2.8486054233401006E-4,4.702500165887146E-4,1.7332272932808887E-4,4.465670583653158E-4,0.001203457989381238,5.4549996964811036E-5,2.942468167628805E-4,1.2347751247190328E-4,3.358556125390457E-4,2.4803340560485065E-5,6.28009918130618E-26,1.3042577023232463E-4,1.256019836261236E-25,-3.2686464297024574E-4,0.001034246412011919,9.110338092011254E-5,1.5949683863193318E-4,2.512039672522472E-25,2.0500675272866096E-4,-4.707237758955857E-4,2.452043468272195E-4,2.584055618902286E-4,-1.5745973695751938E-4,4.7941936741451545E-5,0.0010705530053067229,4.57491488720146E-4,3.9805008963967734E-5,5.024079345044944E-25,-2.606688832904921E-4,1.1622709919378986E-4,3.0364002161129144E-6,2.3551810929098424E-4,-1.537515248830812E-4,-2.0067095847696518E-4,3.4016217379442376E-4,6.437358243136773E-5,-7.120560716586742E-4,5.024079345044944E-25,5.9346596934453864E-5,3.723793718587119E-5,-1.6941952760113628E-5,-5.06785269121448E-4,1.9228789854909643E-4,-1.6721106338327726E-4,2.872688516727214E-4,7.028113088950368E-4,-7.832016849837642E-4,-6.635846776059445E-4,-1.2152535714916448E-4,1.256019836261236E-25,-3.514211208194254E-4,2.512039672522472E-25,3.555410973740426E-4,-8.253199190999538E-5,5.601764803996332E-4,2.1875956163029933E-4,0.0,-3.14004959065309E-26,4.577270036101387E-4,2.512039672522472E-25,-1.5070862340970656E-4,-8.563824569032554E-4,-1.953212594913883E-4,-1.2418562639029902E-4,6.936359357212911E-4,1.0423675838814975E-4,-8.822985076801492E-4,-1.839480475019484E-4,4.399240630723392E-4,-5.807214969193616E-4,-2.2625012923943106E-5,5.024079345044944E-25,3.8227254021921833E-4,3.1049355648210135E-4,1.811364953236797E-4,1.193833586039651E-4,1.1412158283776026E-4,-6.361033031244087E-5,7.337999120789922E-4,-4.899868388113907E-4,4.2808399492084086E-4,-9.092454331506428E-4,1.9464244835510564E-4,-4.9048841340436605E-5,1.566843350892717E-4,-5.245345266155852E-5,-3.493881633620635E-4,6.781226568210674E-4,0.0010614878938457826,2.667002739334789E-4,-5.865956219894596E-4,2.512039672522472E-25,-3.086553454298576E-4,5.587360999951638E-4,-2.813007424249689E-4,-3.4256298914244566E-4,-5.207738344310249E-4,1.1846718545652097E-4,9.904552634865892E-4,8.218312352657724E-6,-2.4719693025297506E-4,-5.074013682301293E-4,-2.207728107705714E-4,3.769368719872077E-4,6.944464989039154E-5,-2.3045505360086579E-4,3.6953327740608363E-4,-3.6899835867234903E-4,8.400524568424743E-4,3.047475462325332E-4,-3.712261243151073E-4,-6.520335045680509E-4,-9.250462092262863E-5,5.369968509348304E-4,-3.852290560219809E-4,-6.165121955565432E-4,-3.059406977027712E-4,1.7425947454073444E-4,7.306690292254937E-4,8.024215991058084E-5,-3.7062116181044554E-4,-1.6303110076660207E-4,-3.611894224444355E-4,1.9576178754317818E-4,-4.242918408378718E-4,-3.410690155728593E-4,-1.1410028667853135E-4,5.024696234947959E-4,3.2866126747197166E-4,-2.7874565030797506E-4,6.186570721377871E-5,-1.8310229705747477E-4,1.4243338621091852E-4,1.9923299130198592E-4,-1.724696683678643E-4,-4.40558091532415E-4,5.61435178369832E-4,1.259876208565928E-4,4.307138586923171E-4,3.9974889558406617E-4,-3.7433841979129026E-4,3.142994673178594E-4,-3.419116789834889E-4,3.1914415408304556E-6,1.1938906556995499E-4,1.857121521786021E-4,1.659197271662594E-4,1.3890852228436702E-4,-2.2025341655546165E-4,1.6431078538625414E-4,-6.253086238913356E-5,-3.6765292974738596E-4,-2.3860057692185835E-4,-2.742819589512133E-4,2.094593979060023E-4,-3.240044761057908E-4,5.353408678556095E-4,-6.552218053486477E-5,-2.9754496951474134E-4,-4.452484378802945E-4,-2.922891062660486E-4,3.8138597394771245E-4,9.84675427282142E-5,3.1914239781558545E-4,-2.491420861729201E-4,3.047963140916979E-4,-1.3747854703745054E-4,1.5944951481142514E-4,-3.5775601933516745E-4,1.1259030105781826E-4,-1.9600789115120797E-4,-4.355728693594102E-4,-3.2870628136926367E-4,-1.9424161858844734E-4,1.393107471346211E-4,-1.0311604362302522E-4,2.1307749918067617E-4,3.1806621661760465E-4,-2.122725931868909E-4,2.7465194087762765E-4,-2.708131144840478E-4,4.76270634334031E-4,2.9265416559936494E-4,4.065631920720886E-5,5.44922967890207E-4,-5.5873362344974255E-5,-3.319264642195247E-4,-1.9030254185322987E-4,1.783977982610256E-4,-1.705204436203182E-4,2.4963373511462883E-5,-4.187825337919066E-4,-1.8702724427231248E-4,5.705457204184056E-5,2.6810634190727696E-4,3.4977156469363806E-4,4.810751339505282E-4,-1.582437610702055E-4,-2.9121759877039484E-4,4.937174009921144E-4,1.456032086612285E-4,1.368938676678197E-4,-1.73079839384797E-4,4.408741865331307E-4,3.2877212976169386E-4,-7.142218497632314E-5,1.7057994589294494E-4,4.610180545687815E-4,-2.5153266074459495E-4,2.5084776608843277E-4,-1.7979073344849775E-4,5.000867114312026E-4,2.0632631455829237E-4,-3.6598863561573515E-4,-2.7770921654997913E-4,3.832039983989409E-5,4.988601639990177E-4,1.5631629771149268E-4,2.0546269076153196E-4,-4.459029453035655E-5,1.444926081102231E-4,4.6131518109045254E-4,3.711345087646155E-4,2.5855056805200086E-4,-2.999180626674132E-4,1.8679852957777398E-4,4.219319206635985E-5,-4.379995202566077E-4,4.156031728257097E-4,2.996431172328221E-4,-4.296416289397526E-4,-2.6317612522687976E-4,2.594367464472403E-4,-2.317072916457543E-4,1.989991759018422E-4,1.61991604753054E-4,-7.661168574104458E-5,1.256019836261236E-25,-9.440941645594823E-5,-2.962405026675517E-4,-2.3617837210999557E-4,-1.5160486652965208E-4,-4.2382198686928167E-4,3.701206697424142E-4,5.523234560476146E-4,1.5981603229236116E-4,5.298043581259747E-4,-5.82210067224927E-4,2.751295950258452E-4,9.533025023733684E-5,-4.174720433157121E-4,-1.2617388499079057E-4,2.4188196699125763E-4,-2.1575454873659663E-4,6.033624648598045E-5,4.775124178232658E-4,3.7554885362258995E-4,9.401903415875106E-5,-1.5215980742806865E-4,3.873548807233726E-4,-4.4539664895612834E-4,1.4904377608055555E-4,2.4857513925377213E-5,1.391984974732504E-4,7.350453607303613E-4,8.397007480367827E-4,4.848522804178673E-4,-3.77131974307918E-4,3.501923885228628E-4,2.8917165713312267E-4,-3.629079260698485E-4,-5.138428492759237E-4,-4.1924145313177114E-4,1.256019836261236E-25,8.69438586329521E-4,2.548888023393843E-4,3.2309149044609033E-4,-5.200264757714298E-4,-2.4986178857573226E-4,2.96896838740075E-4,8.605816982760242E-5,-6.054521692373655E-4,1.256019836261236E-25,-4.710512022679815E-4,0.001271539191352487,6.518174538734648E-4,-4.119998392846511E-4,-8.229209846322526E-5,5.116551173908111E-5,9.175257193431905E-5,1.256019836261236E-25,-6.874254691511099E-4,3.1149277756382395E-4,3.210078777682343E-4,9.678591271942391E-4,8.68277756085879E-4,-2.1375254037422973E-4,2.316047335703545E-5,1.6511074803942548E-4,-5.583901372594669E-4,-1.2828301549136254E-4,2.512039672522472E-25,4.0267734435583773E-4,4.604143369755639E-4,6.598414892095929E-4,3.5006269113402636E-4,2.815281289704995E-4,5.651948246062247E-5,-3.448372815790344E-4,5.024079345044944E-25,6.031352334511369E-4,5.024079345044944E-25,1.4629301017555493E-4,4.540313133475555E-4,8.9710965221044E-4,8.99372863514097E-4,-6.122551274916644E-4,5.912190989340105E-5,-5.510337569171556E-4,-0.0011306615322808306,5.043089605232569E-4,5.024079345044944E-25,3.581684412779345E-4,1.0570611688157063E-4,0.0013152942784974,5.091263980302817E-4,-8.453476884431373E-4,-2.089043267447104E-4,1.9980562696359554E-4,-0.0012467479538927962,8.726339695459552E-4,-0.0013280312606978892,1.8394141526008936E-4,1.7627746024072733E-4,0.0014116982982482992,2.3895820318400437E-4,1.1646162229019355E-5,-2.2046576531486507E-4,1.234026480140109E-4,1.0048158690089888E-24,7.787229223972249E-4,5.024079345044944E-25,6.709376088732047E-4,5.748612092974971E-4,9.558596520899145E-4,4.514531481343905E-4,8.273418866939053E-5,2.6613245565060967E-4,-6.701447586381833E-5,-0.0010614092077997396,8.234660628729972E-4,-0.0013356725797911816,3.2766725467174313E-4,1.8070396921094224E-4,0.001260435354998333,1.256019836261236E-25,-6.28009918130618E-26,5.366260783066177E-4,-1.248402565456886E-5,5.024079345044944E-25,5.292319444868075E-4,0.0,6.399358214739179E-4,4.769855589694968E-4,-2.546727086329723E-5,2.2265341859924087E-4,-1.4623085369743684E-4,1.506954342285007E-4,5.509195223815658E-4,5.024079345044944E-25,8.929215454326043E-4,5.024079345044944E-25,3.0402479734050554E-4,1.0854308603837473E-4,3.945004093342088E-4,3.731311318843279E-5,1.3505178070140784E-4,7.544225637249928E-5,8.820712207718065E-4,5.024079345044944E-25,-2.790455820682618E-4,5.024079345044944E-25,-2.336252829712144E-4,8.833120074395132E-4,-2.421097755541815E-4,-3.602856560377778E-4,6.4265208765354E-4,-1.5158681519929236E-5,8.095058004645218E-4,2.512039672522472E-25,9.424795347947851E-6,-7.371912107923807E-4,-3.922254051470554E-4,2.3143214211769332E-4,3.046728048947122E-4,5.024079345044944E-25,2.7620558517096503E-4,4.8297730442213154E-4,1.1706817275977957E-4,-4.5274991310851405E-4,-1.9625309941581813E-27,2.512039672522472E-25,-2.2981637255867676E-4,2.4618752380554053E-4,-2.653799128073693E-4,5.024079345044944E-25,6.777839520482612E-4,3.445560251779934E-4,2.898001858556819E-4,-3.685565449781216E-4,-3.86536926493243E-4,-5.717122084050225E-4,1.4610845431358972E-4,-1.256019836261236E-25,-4.6490755007376207E-4,-3.4589193170160077E-4,-1.111821498306308E-4,0.0010135860782642609,3.1210028483493667E-4,-2.764634174964829E-4,2.094539872479453E-4,2.52813752121233E-4,1.256019836261236E-25,3.96281406388169E-4,-1.8631521155011878E-4,3.4439714549322584E-4,-1.177663809351655E-5,4.172251051570903E-4,-1.8114075845014814E-4,-1.0006085828035991E-4,-4.00663286992694E-4,3.6760651938869566E-4,9.152407661796025E-5,3.740579131119032E-4,-1.971671133700264E-4,2.848479023171649E-4,1.099325523576769E-4,3.2270042672851975E-5,-3.1314501289611546E-4,4.171542378646458E-4,-1.679417697824399E-5,3.774533586502861E-4,-2.5816081418913273E-4,-1.620810189366408E-4,-4.1051255417529867E-4,-3.237459622910631E-4,4.275775398034384E-5,4.5013649085767695E-4,1.0542327851997771E-4,-3.013189613652408E-4,-2.981983147415407E-4,9.565110875776427E-5,-3.2793661331411095E-4,5.662086914127316E-5,-3.989881028565572E-4,4.752621407335988E-4,-2.809355719302983E-4,-3.965838382810666E-4,4.0628929000466964E-4,4.8286482893792866E-4,3.0177625946416003E-4,-3.969256546847993E-4,2.2556542539920206E-4,-4.9169515861653026E-5,-3.729806928105927E-4,-2.793808848533222E-4,-2.4126579473253656E-4,4.706498460119453E-4,3.667766113746503E-4,-2.4003868039802306E-4,2.200911732210498E-4,-2.2414200987215733E-4,1.612018041815269E-4,1.912946407075446E-4,-2.7310425268919295E-4,4.7202170714653966E-4,-1.0422950918987712E-4,1.3643257959468775E-4,-1.5635441528997747E-4,-3.6820171013964394E-4,3.7856902389331066E-4,-9.092030400698447E-6,-1.4938850523287575E-4,-4.101628558849384E-4,-2.806380237194457E-4,4.2136651860832187E-4,-2.260787716083522E-4,-4.4519148425424884E-4,2.472652200019396E-4,-1.4061418519317008E-4,-3.430864808465035E-4,3.39218180533954E-4,-3.004462105997694E-4,-3.9157915306074325E-4,-4.530452050843374E-5,4.4260264699586384E-4,-2.452027337794233E-4,-2.2072064146213608E-4,-1.0287999210555955E-4,-2.4318870114303456E-4,2.8408656150612324E-4,-3.486299196673934E-4,-5.827140066447418E-5,2.7732693778045284E-4,-1.0955463348581936E-4,2.3172392408150728E-4,-2.4092290976770045E-5,9.527284371236845E-5,-2.6591873104066016E-4,4.7431368550987133E-4,-9.086173565456099E-5,2.2873656901741137E-4,4.4905049165715134E-4,-9.815006262642359E-5,2.9608964446017466E-4,4.993647927167847E-4,-7.743226557898727E-5,-5.792231820213038E-4,3.929500933795361E-4,6.16724463440221E-4,-2.980054712261027E-4,8.8279844887768E-5,-4.4160715365789115E-4,-2.87377567305155E-4,-8.422044184316766E-5,6.286003210708538E-4,6.645069273890288E-4,4.8507191929367156E-5,1.584509773363014E-5,-1.4115062577827755E-4,1.6332520655574476E-4,2.512039672522472E-25,2.427055241388271E-4,-3.7601848408837116E-4,3.593401183482023E-4,3.9458081195385187E-4,8.867415064313563E-5,1.1415957385662108E-4,-2.308282178580237E-4,-2.0127161081034286E-4,-1.9625309941581813E-27,2.512039672522472E-25,1.9514977610026837E-4,-3.531995147634529E-4,8.374316899902806E-4,0.001101242173909384,-9.065081211099326E-5,3.5736186652875657E-4,-1.5127379678743705E-4,-1.7881212140383347E-4,2.4406514919745665E-4,-7.123154109365218E-4,-4.390836020139368E-4,6.885547269199345E-5,8.13659981607797E-4,6.897899690455034E-4,-2.4560025934615095E-4,4.0266858835589875E-5,-4.0198657339711875E-4,-1.4708338557481318E-4,6.808250139694137E-5,0.0,4.1352571960521296E-5,-4.914738680244351E-4,5.066388278838152E-4,3.5218619110593033E-4,2.1506426052735224E-4,2.046387300005782E-4,1.159783444285248E-4,-1.535340223665093E-4,2.3078931202476065E-4,-0.0010499399824347327,3.0053428582793845E-4,6.28009918130618E-26,9.633185858635491E-4,7.640259533569571E-4,-6.060374351967725E-4,-1.703760769701048E-4,1.256019836261236E-25,2.0406007572024886E-4,4.9154778693323016E-5,1.256019836261236E-25,3.9316424137554113E-4,4.3558965491245115E-4,6.89973058516072E-4,3.156232302286259E-4,1.4114242143263477E-4,1.9203867581806696E-4,2.512039672522472E-25,-4.069939071535526E-4,3.279951361200178E-4,-4.471872499554377E-4,4.1627562729924144E-4,-2.228335178042602E-4,9.90992965387763E-4,7.934338941794702E-4,-9.644701949339913E-4,3.94755717949132E-4,-8.900445006245086E-4,5.024079345044944E-25,3.630218599440292E-4,5.61313451117475E-4,7.597104307555577E-4,5.119827762173144E-4,4.855150456399804E-4,9.100746295509646E-4,-0.0014303736633014261,3.387570964505219E-4,2.512039672522472E-25,5.024079345044944E-25,2.8767420043453737E-4,5.124581941874427E-4,9.034482757988479E-4,-4.600166948167263E-4,0.0010891017275786819,6.892432815691054E-4,1.0048158690089888E-24,2.0274584999123706E-4,2.0397152394899915E-4,5.024079345044944E-25,3.950985959250034E-4,6.625050057908412E-4,3.4774519803771155E-4,-5.763398650734006E-4,4.0994950203694473E-4,4.4012052389051545E-4,5.024079345044944E-25,4.124259653165738E-4,-3.156934417049531E-4,5.024079345044944E-25,6.375997489028956E-4,3.3825670551726E-4,7.729774376399141E-4,5.024079345044944E-25,3.005549110374961E-4,1.1330644707878144E-4,5.024079345044944E-25,4.441295552107387E-4,1.256019836261236E-25,0.0,5.190141741863967E-4,6.196839882996487E-4,4.6581820146603765E-4,-3.0318952748140473E-4,1.0752673997127063E-4,-5.1529209114480514E-5,0.0,3.681160062528099E-4,1.256019836261236E-25,-8.999814518320077E-4,1.6412468331894912E-4,-5.089698942301954E-4,8.103093328560626E-4,8.020495472483753E-4,2.986073386899941E-4,1.3535479694354587E-4,3.773963953280042E-4,7.795586150220991E-5,-7.518555468717361E-4,5.716023617116089E-5,3.487553246236445E-4,2.512039672522472E-25,4.4540882246511224E-4,9.282573872923432E-4,7.254581180558466E-5,1.2083788963984894E-4,-8.828514864914176E-5,1.1908075163734663E-4,7.850123976632725E-27,4.670540253267213E-5,8.816977441377694E-5,5.024079345044944E-25,3.5554613631339177E-4,2.0892409359916258E-4,-3.03842741125745E-4,2.479075088817252E-4,7.932616192340478E-4,0.0011732992526624004,9.504044475287308E-5,-5.916567981288487E-4,3.489409002566636E-4,5.024079345044944E-25,2.9238749265850136E-4,3.66246468142378E-4,2.1543970732575894E-4,5.486724955563278E-5,9.673569330078332E-4,6.381653917399327E-4,-5.401925121946328E-4,1.0385090154964217E-4,-3.018900946990446E-5,5.024079345044944E-25,-3.4464877508796497E-4,-1.9076754841791262E-4,-3.428900207192031E-4,2.512039672522472E-25,3.279153586842526E-4,0.0012263951047664769,3.1608570917025737E-4,6.28009918130618E-26,8.254850054231778E-5,-8.906510974206032E-4,2.512039672522472E-25,1.0105642586666617E-4,-1.6222787485825296E-4,-2.4803747659621773E-4,4.185489373520043E-4,6.453459676155206E-4,-4.399186740588679E-4,-3.02794634790878E-4,6.326746292342749E-5,2.512039672522472E-25,1.256019836261236E-25,-9.761568237939043E-5,3.3466934685087095E-4,3.1653406805325036E-4,2.8860786549677285E-4,4.8076098113435E-4,-4.208923184214699E-4,-5.664164705654794E-5,-2.452484694109592E-4,-2.9673396021265557E-4,-3.031165267786349E-4,-2.3615714308668277E-4,4.927577648459655E-4,-2.893536201639077E-4,-1.6797100666385815E-4,1.0630367725374125E-4,2.6324659637523334E-4,-4.429384856379354E-4,-1.0378560313453134E-4,1.4078157307253572E-4,-9.243435723527255E-5,1.496957976749112E-4,6.198068432108436E-5,-3.826224858635332E-5,4.781111628464886E-4,-2.4256407750882937E-4,-2.2864883117362022E-4,-1.7130723563735324E-4,-3.331183795867181E-4,3.0574130208618056E-4,-6.018274496058419E-5,-4.3635380522124656E-4,-2.4609566375983377E-4,-1.9948093271700113E-5,-2.1734667072694964E-4,-2.026021886482121E-4,-3.5556230660548007E-4,-1.951813199761982E-4,-6.462912500425428E-5,4.007626618244824E-4,-2.6433759951863966E-4,2.4114950973029377E-4,-2.576386449123063E-4,2.8692563997588337E-4,-9.650182435423044E-5,4.26726541272885E-4,-3.2566890687450695E-4,4.11426525573875E-4,-3.845165595487247E-4,5.015650184099493E-4,-4.154859690951954E-4,7.03042508879659E-5,5.238597872849799E-4,-9.091484608628967E-5,-3.115829692218154E-4,-2.057126928896028E-4,3.224404372846326E-4,4.946302583021786E-4,1.809572990337529E-4,4.560204679360816E-5,-1.4511200796153278E-4,2.2365677389958848E-4,-4.4440322747379214E-4,3.224408961069931E-4,-3.600163866863927E-4,3.14004959065309E-26,1.7774512781017944E-5,-1.6403543230661028E-4,-3.388667112770634E-4,1.466476479673205E-4,-4.3375293611224575E-4,4.579203612067743E-4,3.54680892562047E-4,-5.957252539786918E-5,-3.4815393484604587E-4,1.256019836261236E-25,3.561632003809265E-4,5.935076874542928E-4,-3.165609581197177E-4,-2.0238005037994083E-4,-5.124305183390429E-4,-4.931967850968871E-4,1.9338589368732322E-4,6.677367759930808E-4,-2.035943841921831E-4,-4.0197383936005316E-4,1.256019836261236E-25,5.0830281393468E-4,-1.3858305864184164E-4,-3.2550767689636714E-4,6.28009918130618E-26,3.516381884440764E-4,7.326001947053994E-4,8.527461628328761E-4,-5.06489587813352E-5,1.2753985268959618E-4,2.5588862298104854E-4,7.916286113971863E-6,-9.219909138504511E-5,0.0,1.256019836261236E-25,-3.77183324033691E-4,1.8369532462519486E-4,4.4572383517562134E-4,-1.3234503402546305E-4,3.7826788225344944E-4,-2.651570875495031E-4,7.594802352852706E-4,6.29772431503766E-5,-7.185835352971696E-4,3.14004959065309E-26,-5.090783941949607E-4,1.3102765986019535E-4,6.242702535546696E-4,8.883605215506812E-5,3.7320549399712737E-4,5.946742021717477E-5,3.4397505707788436E-4,-6.927124015594917E-5,-0.0010489104244234585,1.570024795326545E-26,-7.40414147988858E-4,2.2792668905543495E-5,6.336133021305056E-4,4.261550539518082E-4,-2.0528136860932324E-7,-5.529309888197558E-4,5.078792531555682E-4,1.8237818644251542E-4,5.024079345044944E-25,-1.4777047213326375E-4,-6.348954155741804E-4,7.716230025136472E-4,3.790355466949163E-4,-4.280413172050064E-4,1.208230339623554E-4,2.512039672522472E-25,7.988394656806897E-4,-4.584824404846933E-4,2.512039672522472E-25,3.7888366792889456E-6,-7.956530168771828E-4,-7.521067617925627E-5,3.402248517669344E-4,-8.245284933706264E-4,6.103808629089465E-4,2.512039672522472E-25,3.806727795196795E-4,1.7595627639612418E-4,9.712571509317823E-6,1.0985034840611222E-4,-6.108946782348546E-4,-7.781619124140726E-5,4.2198300833963455E-4,-8.936062634014154E-4,3.66771433032815E-4,0.0,4.809184342395812E-5,-3.6025930617412146E-4,4.5816359728374377E-4,2.1286191233263097E-5,1.3945518215240934E-4,8.15715730752575E-4,1.470672075653482E-4,1.0048158690089888E-24,3.3154865915419025E-4,5.024079345044944E-25,2.528510961662897E-4,7.490713633293449E-5,0.0014849136795712203,2.3727473583787858E-4,-3.717874021482006E-4,3.24153315147496E-4,3.033018768936981E-4,2.0096317380179776E-24,-2.3163522293365559E-4,2.512039672522472E-25,-4.550569062864314E-5,3.7660488862505E-4,0.002219933764381194,7.804817464614987E-5,5.024079345044944E-25,5.608448252807139E-4,9.252389619345752E-4,2.0096317380179776E-24,5.024079345044944E-25,1.256019836261236E-25,3.6319412510386233E-4,-1.2413845491520637E-4,0.00178932497551039,5.603855524904315E-4,5.024079345044944E-25,1.555141243176573E-4,2.083221539878127E-4,-0.0021970752569750638,1.8137754482966417E-4,1.256019836261236E-25,9.14748196155075E-5,5.314961388995761E-4,0.001540567090360001,9.268047846533732E-4,1.0232097065701536E-4,8.247642253051438E-5,8.00007933890699E-4,1.0048158690089888E-24,-5.11798826034058E-5,-0.0012128529484507066,1.7109269985571E-4,3.377512088558961E-4,0.0013603614972427,7.171240835807315E-4,-4.444596878366654E-4,4.401496600536054E-4,2.2655244488129216E-4,1.0048158690089888E-24,1.243779879096371E-4,5.024079345044944E-25,7.801200778416475E-5,5.157158818382317E-4,5.087059153200944E-4,7.338214022683951E-4,3.267689283097317E-4,1.792366364536634E-4,3.654647484004742E-4,2.0736717735918408E-4,6.355706939599984E-4,0.0,-7.036078575963762E-5,-1.2171410489132671E-4,-4.4855671545203574E-4,-6.28009918130618E-26,-1.48136988211011E-4,-9.215365883872506E-5,3.2508122689318156E-4,-1.5262341170624405E-4,6.392246738406505E-4,5.024079345044944E-25,-1.0699671577366362E-4,2.0908096705806728E-4,-4.1800963993002466E-4,2.559622664362357E-4,-5.57362522409592E-4,1.5130027981991473E-4,-7.029255032992384E-5,5.899017682735781E-4,5.759251072534015E-4,-7.63270345462576E-4,-3.77208043174674E-5,3.667868288822928E-4,2.512039672522472E-25,2.762127665036714E-4,6.659346374988386E-5,-3.458684533806075E-4,3.244317505337252E-4,3.4663792459362227E-4,7.104682243955455E-4,-5.495050790464009E-4,4.4576885617626246E-4,4.371481718799924E-4,1.0048158690089888E-24,1.6170771600313363E-4,-6.255517268807108E-4,-2.729894558913954E-4,2.512039672522472E-25,3.240491868623749E-4,0.0012405394346000963,-5.75320380520455E-4,-3.1439932724068896E-4,4.342448920027822E-4,5.024079345044944E-25,2.049604270113538E-4,-5.071349933101668E-4,3.226192244597139E-4,1.4763555293710354E-4,6.316348922386269E-5,0.0013133365174183562,-3.0289708511869995E-4,1.5053721738904558E-4,5.203517542512529E-4,5.024079345044944E-25,-4.4669168574443496E-4,1.0668997294229266E-4,7.3403525766934345E-6,1.228270230981517E-4,2.3714780707599392E-4,5.201758721754826E-4,-4.4522824158179633E-4,-4.7000244001185715E-4,-3.608531476292573E-4,1.7187143356124215E-4,3.395982560221302E-5,-2.7921727458196123E-4,2.857831262317538E-4,-4.396028085521605E-4,-3.8508601299169103E-4,6.0742739114813836E-5,3.646104029486543E-4,-2.498101377393615E-4,1.8165697533668475E-4,-3.1693062256973073E-4,-9.945658697060101E-5,4.6648553320733814E-4,-6.569117492145166E-5,5.237903621827878E-4,1.2590640130485896E-4,-6.385937546142675E-5,-7.519242240730456E-6,1.5930562993937615E-4,-4.2681646467227234E-4,2.0010575392806517E-4,3.6445642895054027E-4,8.487697466266228E-5,-3.696605456361457E-4,-4.389428847088784E-4,-3.9743360166540314E-4,2.3889776642388016E-4,1.1725908697323045E-4,2.853683651265163E-4,3.8746202800915536E-4,7.277090976736627E-5,2.993783942311281E-4,9.923327285591278E-5,1.3830629828308336E-4,4.463703697456435E-4,3.539226085897532E-4,2.148358490754029E-4,2.1775329359882003E-4,-6.129135099230458E-5,4.222127843859563E-5,-4.181331389022142E-4,1.9974159477078142E-4,2.022484903737265E-6,8.95181448571158E-6,3.001091569380987E-4,2.1615980119245095E-4,-1.170298936618192E-4,-4.36376730038812E-5,2.9043358618091575E-4,3.076448501081227E-5,5.258818616681728E-4,4.456868552566338E-4,-2.5851634433278936E-4,3.061893706940533E-4,2.2256689014862533E-4,2.912987630055884E-4,-2.87528306633015E-4,-2.0637053605079315E-5,5.426017767232684E-5,-1.1093486396734113E-4,3.924700135308882E-4,0.0,3.918169268527857E-4,1.0510747505356578E-4,2.844857915135313E-4,4.586453068420188E-4,1.256019836261236E-25,-2.0399854218436665E-4,1.6910464076355067E-4,-1.5555832325404447E-4,-2.6123629366518633E-4,1.7541525945719046E-4,1.256019836261236E-25,2.903078405599703E-4,8.827051209717705E-4,3.259844136813508E-5,2.460047887703127E-5,-2.3707000801390023E-4,-8.314750250030797E-6,-7.64628193133345E-5,1.4449366822137227E-5,3.1439671277473907E-4,-5.851331694732518E-4,2.270577831737509E-4,3.022508914425241E-4,3.4281414529167535E-5,5.275253369002865E-5,5.024079345044944E-25,-4.617280286343558E-5,-4.709504707037769E-5,-4.645241476540592E-4,-4.0840906031327124E-4,4.617720984254092E-5,1.7494352606720517E-4,3.465071833964619E-4,5.321530078242223E-4,2.611202199194936E-5,-4.5091698158678136E-4,9.87464341333342E-4,-1.2404883914565366E-4,2.512039672522472E-25,-1.5077425219135068E-4,2.5867630052059568E-5,6.868032435344039E-5,-4.699257314285469E-4,-3.582055875560269E-4,6.611119795551301E-4,2.1973468795672844E-4,4.4447303210345886E-4,3.8303123069045305E-4,-7.704440882387636E-4,4.256097185485105E-4,-7.77250347083145E-4,1.4132907994750114E-4,-1.570024795326545E-26,0.0,9.336015700801212E-5,-2.3773579047990344E-4,7.574714106486004E-4,2.6403611794458676E-4,7.726063436870556E-5,-8.668910959403411E-5,-8.401503633717808E-4,5.445587834559597E-4,-5.369727902175347E-4,1.3535331635523644E-5,-1.5178564627432665E-4,2.512039672522472E-25,9.219483058418745E-4,4.077175440536539E-4,-2.6485356034802434E-4,6.136152893219275E-5,2.512039672522472E-25,2.3566414944713724E-4,1.256019836261236E-25,-6.988608688862235E-4,8.098502022252501E-4,-7.798700311925889E-4,0.0012680335477807962,3.1734451289220045E-4,8.41900448721243E-4,6.469119471232577E-4,-4.437514644750984E-4,2.9858767640627025E-4,3.14004959065309E-26,5.024079345044944E-25,2.316185912289654E-4,-8.779884509969984E-4,0.0011649484418116978,6.252939520824793E-4,6.552665972882389E-4,6.200420998770336E-4,-3.8001336481010905E-4,7.761064517983259E-4,-5.084631191364321E-4,1.0048158690089888E-24,6.082508455254767E-4,5.024079345044944E-25,9.437581633236629E-4,3.300224904246869E-4,6.250892077395141E-4,-8.04829896115658E-6,4.645760967412626E-4,2.1819526512285883E-4,6.145096943578814E-4,0.0,1.0048158690089888E-24,-4.54308261184751E-4,9.706586459431093E-4,-2.573760468482203E-4,0.0015419025819441027,6.036890622702625E-4,-2.3769742024079253E-4,2.084748627885725E-4,6.395227348853912E-4,-0.0027476858343741697,1.0048158690089888E-24,-4.68900763232386E-4,0.0011570799519925587,-3.693299829721448E-4,0.001007777961169641,7.766358102364271E-4,0.0,7.98714726817613E-4,5.731701931095324E-4,1.0048158690089888E-24,-2.703614882885747E-4,-9.372614860480647E-4,9.380165577792601E-4,2.668659129648609E-4,7.278988772079398E-4,7.000784342573533E-4,1.6296668545610294E-4,3.980961692295156E-5,4.7197789135537357E-4,1.0048158690089888E-24,-8.529159905257558E-5,1.0048158690089888E-24,0.0011017335139583211,-5.707858957045043E-4,4.279763948800821E-4,1.799888119598072E-4,2.1018050673195603E-4,3.8301249388706694E-4,9.179179411707821E-5,2.512039672522472E-25,-2.4061648160864083E-4,-0.0019449396952445732,8.768828711679507E-4,-1.0048158690089888E-24,-4.15765302285995E-5,7.642829650245609E-4,5.900231835562152E-5,-6.205849043929335E-5,4.747942697425516E-4,-2.3422382351134365E-4,-1.0362886516004104E-4,-0.0017712042684757232,6.456502170550175E-4,-2.223103134937392E-4,-1.9329101827579305E-5,1.4947556877647578E-4,-4.246787233855768E-4,1.2414245686933944E-4,5.282767938671797E-4,-1.2742872298102383E-4,5.315179885853938E-4,0.0,4.451228207212234E-4,-1.380524880565012E-4,-3.2664411593122573E-4,4.243861911959909E-4,-6.108310868598175E-4,4.1655064532411946E-5,-1.0250299318570286E-4,1.1583852662444447E-6,1.5026563694484703E-4,5.024079345044944E-25,4.537007302579946E-5,5.312334917337163E-4,-5.868013746094121E-4,3.275402049570024E-4,5.024079345044944E-25,-7.964459304350472E-5,-2.3586108762217636E-4,7.82358317199135E-4,0.0011110952138466041,5.024079345044944E-25,4.8340178472654796E-4,7.870841884965131E-4,5.024079345044944E-25,1.9130528047644515E-5,5.024079345044944E-25,-3.303869707033672E-4,0.0,-1.6989441210193574E-4,0.0012673645721464572,2.512039672522472E-25,3.0238205859977495E-4,5.819984142495494E-6,5.024079345044944E-25,-2.8645249574693865E-4,-7.86629206390516E-4,2.512039672522472E-25,-6.554945971274739E-4,-3.637820967990288E-5,0.0015838931663405234,-1.7797780100522564E-4,2.1077926193004425E-4,3.588670648104255E-4,5.024079345044944E-25,1.256019836261236E-25,-5.628187290166962E-4,-5.265009631135232E-4,-1.4552670085890578E-4,4.023986024670597E-4,0.0012562501036731686,-2.6077869272610546E-4,6.28009918130618E-26,3.248733318927199E-4,1.256019836261236E-25,4.263678912943278E-4,2.6348558453875013E-4,1.2841823538238968E-4,6.963905398595019E-5,-4.6512245556303076E-4,1.530485274054183E-5,-3.2146093863151065E-4,-4.6218408922190903E-4,7.294336364463548E-5,3.466802889808341E-4,-3.425756533078289E-4,-1.268738453393342E-4,4.905234420833939E-4,-1.0496808990915125E-4,-3.644024549934994E-4,-3.553400635218785E-4,2.2732117145006763E-4,5.433648863471836E-4,-3.237420028573425E-4,3.4386101582350184E-4,2.113708546046946E-4,5.148139438940547E-4,2.9210892008901037E-4,7.481389237689299E-5,2.5838921790130793E-4,-3.6541440193570066E-5,3.0779913078441995E-4,1.984815128748724E-4,-2.6302170404182766E-4,-4.301167468880968E-4,-1.4162537660677207E-4,-1.6947556931947818E-4,3.8661875655698923E-4,-2.9612369675082216E-4,5.049657988235046E-4,1.1004642539883516E-4,1.4478326389579869E-4,-1.3928208201456518E-4,1.8264316116821768E-4,1.794318305049186E-4,2.059406712815267E-4,2.7926818078791025E-4,5.27076104919604E-4,-1.8081107505274368E-4,-2.8764627023338636E-4,-3.857663645905734E-4,2.9818341062354833E-4,1.7709149605997098E-5,1.9967969336480973E-5,-2.108926550063237E-4,-3.029696105017999E-4,-1.1119811755615523E-4,3.397414741942165E-4,1.1322225137490023E-4,3.9923994675792994E-4,-3.4678438757751033E-4,-1.2537389477569437E-4,5.854952661178221E-4,-8.409091926948073E-5,4.4324604409729407E-4,-2.477387084925846E-4,3.952328012895526E-4,-3.097713114093128E-4,1.0904866500219321E-4,-4.2083929187522E-4,-4.003270944527792E-4,-4.350582537579638E-4,6.618502176260322E-4,-2.097985160788384E-4,-3.659061751047282E-4,4.837400957927024E-4,0.0,6.514328973635481E-4,7.52320695811304E-4,1.681898062383798E-4,-2.409442172624373E-4,-4.8737413527680235E-4,5.583311143355554E-4,1.4895700199568952E-4,1.729636916591615E-4,-2.755042133763324E-4,2.1409887093684434E-4,2.61362992775031E-4,5.858945965673515E-4,2.883034124010113E-4,-4.8756583615250566E-4,2.3229390936897423E-4,8.575442686911039E-4,4.8527804737779315E-5,-1.369263738766914E-4,-2.3946204020385638E-4,6.28009918130618E-26,1.4097050406048758E-4,-4.87844106391461E-4,-3.745553393642132E-4,-1.4841876873373058E-4,5.024079345044944E-25,6.16497842318709E-4,8.073454742982072E-4,4.4509837733589837E-4,1.3034860974288318E-4,2.2004213329667202E-5,4.5794988721652933E-4,2.512039672522472E-25,3.9004121835390797E-4,2.642016505820858E-4,2.10316418693842E-4,1.1165230844253407E-4,5.768812687253238E-4,-2.13438663177757E-4,-7.16218140396534E-5,4.5685036059634466E-5,3.6542270365959463E-4,5.024079345044944E-25,4.010836651303839E-5,6.132587818768548E-4,9.21532733037031E-5,5.571410463960893E-4,9.391237848192819E-4,2.913370840125583E-4,5.654794735798728E-4,2.512039672522472E-25,-5.024079345044944E-25,1.0048158690089888E-24,4.277050205105987E-4,9.022025837922042E-4,2.7729736498711965E-4,7.929092272251112E-4,0.0010199844051993643,3.050070359361815E-4,-2.5163979002387564E-4,2.512039672522472E-25,0.0,1.0048158690089888E-24,-3.717307606808201E-4,5.31796096361101E-4,8.236656899459163E-5,5.097096467058988E-4,3.0564648230410607E-4,4.640772808196108E-4,6.66329048857943E-4,-6.803368610429175E-4,-1.421752303092881E-4,0.0,-5.820066130399886E-4,-3.955236402142459E-6,2.512039672522472E-25,5.09941633437569E-4,2.8967751507087496E-4,6.873912021110246E-4,7.630118755038809E-4,3.517549801544307E-4,-2.512039672522472E-25,-3.007590162682662E-4,5.024079345044944E-25,4.684998325125774E-4,-1.9910449756661548E-4,5.575218706198073E-4,1.878954379490477E-4,7.355142009797081E-4,7.53749556308488E-4,5.477491485897867E-4,4.0610062338362E-4,8.57562110973001E-4,-0.0019146467479822726,1.5699121349568794E-5,2.512039672522472E-25,9.425104580511736E-4,-6.011536631538537E-4,6.453843609756817E-5,1.8609174174496777E-5,8.561916993673484E-4,2.1829029158601922E-4,2.7394194763755576E-4,1.0048158690089888E-24,1.0048158690089888E-24,-7.796482818066807E-4,6.904757334453245E-4,-4.4647666473740337E-4,4.408689551494277E-4,8.590501979667211E-4,3.717558249356513E-4,4.6989157985249274E-4,4.358245385773775E-4,0.0,1.0048158690089888E-24,1.0048158690089888E-24,0.0014960586243101437,-5.446366123643143E-4,-7.850123976632725E-27,5.304867971599207E-4,-6.733883269391063E-5,1.3747529399197944E-4,4.8273549722224025E-4,1.256019836261236E-25,-4.312229190325671E-4,1.0048158690089888E-24,0.001102594687024451,3.1696659636068047E-4,1.2634693500303732E-4,6.931898546901763E-4,6.549321243805263E-5,6.716786767534971E-6,7.090254590254339E-4,5.138424175269589E-4,-6.64904171534023E-4,1.0048158690089888E-24,0.0013132990477794158,2.3712116876540152E-4,6.072072318789527E-4,6.77510431448915E-5,5.024079345044944E-25,-1.7045095962663583E-4,6.736545961184821E-4,-2.717346828079948E-4,0.0,-0.0013520291306199665,8.905433678254072E-4,2.515583691035729E-4,4.60287423340795E-4,8.896757576549286E-4,5.024079345044944E-25,-2.6777956627859167E-5,5.289445522358803E-4,-1.3933235359771265E-4,1.256019836261236E-25,-0.001034325608068481,0.0010741191992756757,4.1332195109827064E-4,5.979820805524995E-4,3.756852224071715E-4,5.024079345044944E-25,-1.6994789090110025E-4,-3.6379500133104193E-5,1.05581305102187E-6,4.7640011348790867E-4,-8.823110542727815E-4,2.4226912877720412E-5,6.681234701658327E-4,8.913690207901601E-5,2.164321629843544E-4,-7.676588771480683E-4,1.256019836261236E-25,2.1413272914084817E-4,-2.1276652464358354E-4,8.203761758859526E-4,5.024079345044944E-25,2.529834769373568E-4,8.283251820553881E-4,2.512039672522472E-25,5.589054736501409E-4,-6.413902608268174E-4,1.9487977007868175E-4,2.6683918764936555E-4,-1.9906807282159394E-4,7.536266349905536E-4,-5.434647896347557E-4,-3.6694282489372245E-5,2.8721045586798045E-4,5.024079345044944E-25,2.115905923272039E-4,5.024079345044944E-25,2.512039672522472E-25,-4.227543774815085E-4,3.30056767455881E-5,0.001192622509891336,-2.9574177335538556E-4,-2.3497058460578523E-4,-7.949536419762392E-5,-3.504790673816438E-4,-1.922434603289494E-4,-6.023087018460176E-4,1.0529896453408349E-5,3.1786485484014323E-4,2.512039672522472E-25,0.0012689525566687925,-5.008691965132864E-4,2.9342018892195357E-4,-3.255940531809673E-4,3.323735871753487E-4,-4.200828499874913E-4,-3.516106063250192E-4,-4.309226508852521E-4,4.816233927384316E-4,4.534888082701798E-4,-2.683999631508056E-4,3.676659598093445E-4,2.966924349449377E-4,2.251545848278687E-4,-2.8990203251101615E-4,5.917548549244651E-5,3.3095008423781995E-4,5.371446934356516E-4,7.388168614786972E-5,2.3111919505336778E-4,-1.330386668994622E-5,-4.139718819608395E-4,9.911929454219816E-5,-3.8816484097579685E-4,3.040229437783848E-4,-2.8054249412814064E-4,-2.7017827658693946E-5,5.039988298399808E-4,-1.633103124740284E-4,2.597991644228968E-4,-7.079900872335671E-5,1.9866129650510472E-4,-4.38810443308546E-4,-2.041100666473156E-5,4.1219772424131405E-4,-1.8282474051258777E-4,-1.0672925715025786E-4,1.2107575400440431E-4,-2.95066366256528E-4,1.6694942062468602E-5,-1.7001076156381058E-4,-3.0721136203750533E-4,-2.3428916363969922E-4,7.484614021113313E-5,-1.2128594220403193E-4,-1.2162751827067482E-4,-1.8843026118991053E-4,-3.183363102832475E-5,2.1985710688937374E-4,2.6484120606184525E-4,3.3608821841521437E-4,3.193618693568166E-4,1.910923416835208E-4,2.8104632332374236E-4,3.7006863628886137E-4,-3.22441040268204E-4,2.698580342391738E-4,-2.454106761958208E-4,1.1379395636235225E-4,1.2228233802723015E-4,4.039569757498571E-4,-4.7270695463203806E-4,4.31746378187493E-4,3.585504746183511E-4,3.6435124284985384E-4,1.1541485715239364E-4,-1.7921246192469084E-4,2.003011606564157E-4,-1.106534161643392E-4,-5.055680900977603E-4,-4.6393278227052257E-4,1.2251381557147059E-4,3.317695827211419E-4,6.316073900135436E-4,-4.0828781891757423E-4,3.671081868936807E-4,5.674130498563764E-5,4.761864791661682E-4,1.570024795326545E-26,2.504108294165964E-4,4.2215887400857976E-4,-2.2273349188083212E-4,6.716527934997516E-4,5.794893668211084E-5,2.0339849693677638E-4,-1.041287229262923E-4,-4.0771657932377496E-4,-6.0088958425425434E-5,1.256019836261236E-25,1.256019836261236E-25,5.476282450826729E-4,-2.395747015661505E-4,4.6155233791811526E-4,6.573858945851284E-4,2.0577644181893898E-4,4.3802452830185884E-5,-2.455916381105483E-4,-6.483066660693989E-4,5.024079345044944E-25,1.548362234090765E-4,6.356671351921419E-4,2.1787328541143512E-4,1.2037802714524538E-4,7.550205163209225E-5,7.541673668554676E-4,4.132874971471091E-5,-4.06364355493828E-4,-6.191605412587923E-4,5.024079345044944E-25,1.3937666362923813E-4,7.826028481878279E-4,1.325843601762197E-4,6.802879244108694E-4,9.736367319022898E-4,9.7209369060866E-4,-6.28009918130618E-26,-8.645228401826745E-4,2.512039672522472E-25,1.0048158690089888E-24,3.649959785515028E-4,0.001036616455751591,-1.7083908505998946E-4,3.601141849385552E-4,0.0010613481710008887,9.532990196972611E-4,3.9327149790113037E-4,2.512039672522472E-25,3.14004959065309E-26,1.0048158690089888E-24,6.926993037630471E-5,0.0012360967632549897,2.565829908376913E-4,2.7782724303030033E-4,8.932628779989104E-4,8.730533624416454E-4,5.031937534022935E-4,5.024079345044944E-25,-9.985953766193127E-4,-0.0016782896142102928,5.661325957724172E-4,7.696778497682263E-4,7.890119605662113E-5,2.8320949951578635E-4,5.676306896120235E-4,0.001130895436219665,2.227721145463811E-4,-8.286391633336621E-4,-9.179301365867153E-4,-0.0011719051547399422,3.1447458486405185E-4,8.181164521443878E-4,4.8288075280472056E-4,7.314009204553326E-4,8.335412683106346E-4,1.5562361388344222E-5,3.3368078525209413E-4,5.095383863350688E-4,5.024079345044944E-25,-8.963566391437854E-5,5.024079345044944E-25,1.570010544517734E-4,5.573353218466225E-5,4.069728571094283E-4,1.0512231685955074E-4,-4.3392442037066246E-4,2.1189361148186267E-5,0.0013809990255542529,6.28009918130618E-26,0.0010895195637262952,-0.0014163522886172174,3.7057424780022704E-4,2.0132312006937824E-4,0.0010111244330627594,1.1366966308387001E-4,2.0182914037879767E-4,1.872631460605866E-4,0.0016408642614352432,-3.0766845564954005E-4,0.0013067771975029728,5.024079345044944E-25,-8.003657766424759E-5,-0.0010513962298455836,0.0012736271241318507,0.0,-1.2228616459657334E-4,-1.1243292335847832E-4,4.327749113659182E-4,1.931899502411787E-4,8.625149659551135E-4,3.3306248040699274E-4,1.0048158690089888E-24,-0.0013107097814953005,0.0016069944401536336,-8.030435487281393E-4,-1.6712175442779476E-4,-1.2824317772180095E-4,2.775249220761469E-4,1.426169661162724E-4,7.625542873664727E-4,6.167227500655324E-4,1.0048158690089888E-24,-0.0013209860773209737,9.365263535366605E-4,-5.567987376473028E-4,2.2394469411865026E-4,5.828358314144033E-4,-9.01283202267978E-4,4.954364739585689E-4,2.961577246638836E-4,9.12299494663756E-5,1.0048158690089888E-24,1.0048158690089888E-24,9.076779749990244E-4,2.502624993491898E-4,1.4152036985568144E-4,9.811595573709542E-4,0.0,3.374673359534924E-4,6.153904502985507E-4,3.3743699195172826E-4,1.0048158690089888E-24,-0.0011275424050432477,5.080979088293606E-4,8.523552989320462E-4,7.146799595567113E-4,2.9017360246933014E-4,5.024079345044944E-25,1.353363295719864E-5,2.7011667601884305E-4,3.028228713480605E-4,-8.713942925469022E-4,2.512039672522472E-25,8.599048823586406E-4,1.2478625481258688E-4,1.64203469761524E-4,1.8958869554290382E-4,1.0048158690089888E-24,5.477438522413426E-4,3.187836860061751E-4,-1.3964321422836563E-4,2.512039672522472E-25,-6.262249868800324E-4,5.649210551038379E-4,7.980494658379881E-4,1.7826172379539027E-4,2.6230786476039554E-4,5.024079345044944E-25,-2.886010760575271E-4,-1.256019836261236E-25,-4.839407508251347E-4,-2.761512170671942E-4,7.585105086030568E-5,-1.847303616678932E-4,3.115264215827519E-4,-3.5426822309660323E-4,1.236500751197918E-4,-4.2911367575511604E-4,2.512039672522472E-25,-4.413566419840932E-4,0.0,2.9949325186785283E-5,2.1879772991284247E-4,-3.4916407940172413E-4,8.447058907691738E-4,-2.57767697195421E-4,1.7548513906270725E-4,-2.738470560449496E-4,3.3231357274839975E-4,-1.701205124750256E-4,-4.6857794034095394E-4,2.298553199416757E-4,-2.195656170542186E-4,-8.968999781122855E-5,3.7801132735611236E-4,1.256019836261236E-25,4.192144109288763E-4,-1.0865350147513123E-4,9.20558905394714E-5,4.5944910583907965E-4,-4.061107485821939E-4,5.181964412911862E-4,-7.964872055490881E-5,2.694502724969602E-4,1.642870383804632E-5,-3.9504332634586025E-4,-2.2108155236047085E-4,3.4306265842590217E-4,7.547571972739464E-5,9.956261569862328E-5,-3.223321769412566E-4,2.8153891384578573E-4,-7.135793600522031E-5,1.8610397455419336E-4,5.063524100167627E-4,1.6261860158079503E-4,-2.0567978185207452E-4,-4.267811712032518E-5,4.111541944199679E-4,1.3329897780803125E-4,2.4010899712310481E-4,-8.34793090988251E-5,1.9165382479496864E-4,9.9876259090703E-5,-4.274539665298335E-4,-1.8846767325683336E-4,-1.1837989118891631E-4,-9.688813844754534E-5,3.5177195581590566E-4,-8.390559060341377E-6,-1.6367257147035564E-4,4.735114521193229E-4,-4.307073136561412E-4,5.190638347400153E-4,4.358052323635847E-4,1.3927724026508465E-5,-4.8231070473454274E-5,-3.686730770331676E-4,7.989607545773688E-5,3.300640677039352E-4,-1.6440353302586908E-4,1.254818113310452E-4,1.710706168937245E-4,-1.1374982048984142E-4,-4.222880324089263E-4,-3.6439860926140844E-5,-3.7088055069035446E-4,2.4709532998939103E-4,-2.4307844345281525E-4,1.536125661126392E-4,-1.892631746217579E-4,3.410154757924779E-4,-8.512227190560267E-6,2.8349997133413047E-4,-6.769867587841239E-5,3.345041645929492E-4,-1.897809864263695E-4,-3.091612434376805E-5,-4.3350074936018926E-4,4.2666541237219364E-4,4.6274038647280006E-4,4.5356411725542515E-4,-2.3218225837540543E-4,4.336308251962255E-4,-4.2525411013336257E-4,-2.7937257985583604E-4,2.3471826946161865E-4,-4.1661694710148017E-5,4.210051821814513E-4,6.25253889262054E-5,1.5777058562098855E-4,-6.447674639501038E-5,-7.017498036568139E-5,-5.4353968971049224E-5,-1.2335880694053865E-4,1.2112156934148224E-4,-1.1235959918460176E-4,-2.58133123500496E-4,-5.331452780161778E-4,2.512039672522472E-25,1.2507819647191333E-6,-4.1885070108486216E-4,-2.7799993441246116E-4,3.917264838674699E-4,2.166126076555335E-4,-4.0953051384843984E-5,3.815701906037775E-4,-5.035208962431175E-4,-7.387365578287332E-4,-5.683983603085904E-4,1.216510899557874E-5,4.226776432601696E-4,-4.5345577881864284E-4,6.376314740592462E-4,1.6844188633850253E-4,0.0010006182630238447,-6.186578826972432E-5,-4.6741081590322847E-4,-8.86641863741551E-4,-0.0012602535041906576,5.85636770653906E-4,2.2126693277730444E-4,-1.5980148111914184E-4,5.57564041174956E-4,8.18329406470574E-4,6.614243098041416E-4,2.46557851703089E-4,-6.014978725894677E-4,-0.0012839704219943238,-0.0014823888617880115,8.425935645865938E-5,9.248982943129567E-4,1.412502428181765E-4,7.611476934722672E-5,9.451101067488322E-4,7.577090583237181E-4,3.8997619956693106E-4,0.0,1.0048158690089888E-24,1.0048158690089888E-24,0.0011012913191225126,6.938583037151784E-4,4.820354419249682E-4,4.4346128586426234E-5,5.781713619502099E-4,7.34768415714358E-4,5.90931095691721E-4,5.024079345044944E-25,1.0048158690089888E-24,-0.0016460533890344854,6.649552639223102E-4,0.0012196612651231222,7.461956196614134E-4,3.2974663912758498E-6,4.177154299359989E-4,2.977896464052718E-4,4.573029461875776E-4,1.0048158690089888E-24,1.0048158690089888E-24,0.0,0.0010351919900169777,0.0013880529156925286,1.0953079169226744E-4,5.733083486179863E-4,3.7434583494364167E-4,2.588194422090315E-4,5.308617556630815E-4,1.0048158690089888E-24,-0.0016481544975948865,1.7920460009289785E-4,-3.8288064922614326E-5,0.001355425631622328,2.20785089856153E-4,-1.9478172306217049E-4,2.917358527606427E-4,6.28009918130618E-26,1.3830371532257122E-4,6.888227942214367E-4,-0.0012534210428888721,3.0503695493891317E-4,5.024079345044944E-25,0.001333164607998354,7.065712291159117E-6,-2.670901056462992E-6,4.685650225826631E-4,-7.698487245099758E-4,2.512039672522472E-25,0.0020946897221706786,-0.001294719699346394,9.682375504174541E-4,1.0048158690089888E-24,4.258851417535703E-4,-5.918997734740507E-4,5.346889086097769E-4,3.857644768812418E-4,-3.33194107302292E-4,-0.0010261351000183856,0.0021149998666008087,1.0048158690089888E-24,0.0010155585410414351,-7.552295482892714E-4,4.6295759333211657E-4,1.0048158690089888E-24,5.423646700081463E-4,8.419085253951505E-5,6.046872965667605E-4,0.0,0.0011254976948223167,1.0048158690089888E-24,0.0012967517751376217,3.2752272724631575E-4,1.0048158690089888E-24,1.0048158690089888E-24,0.001441633315088796,2.6381430633564907E-5,-8.15226059240068E-5,0.0,6.954219439029311E-5,-3.2593218485791096E-4,0.0010805109017289465,5.542684343248449E-4,2.0096317380179776E-24,-0.001028929773549402,9.415184012181235E-4,-2.3956481823990533E-4,6.003623045313802E-4,4.3683045102882565E-4,9.531452661059107E-5,1.1746510097118988E-4,5.820792744550413E-4,4.4372338337231185E-4,2.0096317380179776E-24,-7.618868747687105E-4,0.001000794993554732,3.5842922977507734E-4,7.971485414354511E-4,1.0723204872189716E-4,5.024079345044944E-25,4.460082175071255E-4,6.3366390187305E-4,1.256019836261236E-25,-0.0018572780384104998,-3.4281608477053485E-4,4.595955256810598E-4,1.920715141721904E-4,6.09598965308748E-4,4.661729273632573E-4,-7.238076956613895E-4,-3.095365413305323E-4,1.7642857027939466E-4,2.3061699913299276E-4,1.0048158690089888E-24,-3.093470998081058E-4,1.665660621690231E-4,0.0010153721337487682,8.278394937810984E-4,3.174321541198404E-4,-4.941955427411476E-4,6.28009918130618E-26,3.14004959065309E-26,-4.6805804543559337E-4,-0.0014136527068316532,3.971302952664601E-4,4.388898019559959E-4,4.440036594295467E-4,6.240056863559714E-4,0.0010692535199811433,5.934137390414181E-7,9.06965773576669E-5,8.052093528078471E-5,6.232446436307366E-5,1.0048158690089888E-24,3.938784982441786E-4,-1.8402755166906947E-4,6.771034133136176E-4,4.4054545266898864E-4,0.0010328127451224643,4.9827382679959426E-5,-6.104788130307571E-4,1.256019836261236E-25,1.73277475489134E-4,-5.478101466189686E-4,2.3055797078313616E-4,4.396213281268022E-4,3.740853476916181E-5,6.780843762396704E-5,5.129766406973281E-4,-3.474674165705858E-4,2.772740406583499E-4,-2.8065974439159464E-4,-3.590594013587221E-4,4.6302931589802784E-4,-7.515853961055868E-5,-1.792923743014824E-4,6.849561984133058E-5,1.0625101408217577E-4,4.633137864055996E-4,3.173291481616502E-4,2.9248745398060763E-4,4.104515579231495E-5,-4.0279358833134304E-4,2.2374938902767027E-4,4.518289192826376E-4,5.094768097768532E-4,-1.9770894055619472E-4,4.619372316438991E-4,-1.1437586617827003E-4,2.0487495339081783E-4,3.064198350532637E-4,3.918183214351032E-4,-6.923302323487456E-5,1.0694168593516462E-4,4.6526953628019027E-4,-1.617902766886103E-4,1.886620584179331E-4,-3.6896086161593555E-4,3.7781804669410977E-4,-1.909694705720743E-4,-3.2799958788328056E-4,2.1191182268920822E-4,4.729300151153933E-4,-3.9810549397231227E-4,1.5344155554003892E-4,3.9904999670638166E-4,1.965853568630639E-4,-2.579794575981982E-5,-6.829852729212721E-5,2.1086961759125958E-4,-2.057005715261744E-4,5.23487461352345E-4,1.3230729488585845E-4,1.1164849486904162E-4,3.822074902912906E-5,4.8827453138006036E-4,7.006838339485466E-5,-4.2790775056400574E-4,5.008525955518942E-4,3.665374963127255E-5,3.501333735273571E-4,-5.1578486247582875E-5,1.821561598486142E-4,3.8126153196273366E-4,-2.544046214286972E-4,-1.0073820035022049E-4,7.360796420334937E-5,1.1365133742158277E-5,-1.5452897084988748E-4,-1.0511323418704235E-4,3.0502060575513457E-5,4.1912330127010074E-5,1.9026864326735345E-4,3.4481693421276895E-4,3.667749467965922E-4,-2.6217401731365697E-4,3.0607473566004827E-4,4.632821860198819E-4,-3.136406595857882E-4,-2.300496267944243E-4,-2.2291790405132025E-5,-4.744717848051264E-4,-3.8819300278718444E-4,-4.136202415755734E-4,8.665702718536382E-5,2.5186822935721116E-4,3.129531503936071E-4,1.8036296257424242E-4,2.1535567727152052E-4,4.1959713273909805E-4,3.878050758106562E-4,2.395582635581126E-4,-1.5162170304528895E-4,-3.452499211256018E-4,-1.8756275242006883E-4,2.67170065452169E-4,4.483641803468906E-4,6.613797114078099E-5,-2.484901455567536E-4,-3.0620866383397974E-4,-4.30216744477409E-4,9.920586852825794E-5,-5.414812549189529E-4,-3.922945198993987E-4,-1.958699341083671E-4,4.134144521767926E-4,2.954013465235444E-5,1.6501759698361513E-4,-6.69275510342083E-5,3.6976711330713197E-4,1.0048158690089888E-24,5.024079345044944E-25,-1.7101050573122288E-4,1.9167842994808883E-4,-2.1771840884311575E-8,-1.326163679572971E-4,2.8320948847837725E-4,1.736770154957565E-4,9.342426349093777E-5,-5.372836707461492E-4,-0.0013063271900178072,-9.608840356889366E-4,2.4177777984152636E-4,4.0266139436574455E-4,1.9448244493973843E-4,2.443707636484968E-5,4.1369840453351703E-4,9.298687225025313E-4,4.029679192065436E-4,-3.273782272894622E-4,1.0048158690089888E-24,-0.0012736967219040916,6.71759015950591E-4,5.446337551351105E-4,1.9928168174129505E-4,6.459592750006325E-4,1.6748397550897764E-4,3.4392272222955793E-4,-2.0746286542933217E-4,0.0,1.0048158690089888E-24,5.024079345044944E-25,0.0011256856030174775,7.342930968419053E-4,5.18716010929192E-4,4.269713753324921E-4,-2.0455187672047306E-5,6.004685281796622E-4,1.0661344396810632E-5,-0.0013228294338651836,-0.0015678301468285223,2.512039672522472E-25,0.001040076032179033,5.725347832824946E-4,1.8545780955817975E-4,-5.132717195767408E-4,1.736569515930955E-4,0.001001294730422774,6.43036829655623E-5,1.0048158690089888E-24,0.0,2.512039672522472E-25,0.0011063280708952716,0.001016302355670677,6.754477176793819E-4,6.28009918130618E-26,5.550910110203942E-4,5.038972717917397E-4,3.5522849031376905E-4,1.0048158690089888E-24,-0.001237724857572548,1.2279880573723626E-4,6.032448456344617E-4,0.0012112713302215047,7.712097969656554E-4,-0.0010275925002431808,4.6667520893585977E-4,-1.256019836261236E-25,-7.425943988523833E-4,2.897669166946622E-4,5.024079345044944E-25,0.0010636804714740623,5.024079345044944E-25,0.001347629611668214,6.251711040060358E-4,5.024079345044944E-25,8.3400201989624E-4,3.0891590803548317E-4,1.0048158690089888E-24,0.002188491228401543,5.024079345044944E-25,0.0012235628909958143,1.0048158690089888E-24,1.5765925603378593E-5,5.024079345044944E-25,-9.701128434792517E-4,4.46241650359249E-4,7.43466443117021E-4,-0.0016559374460034316,0.001923601405710587,-7.724408932460725E-4,6.584022850460587E-4,3.807084023736576E-4,-3.9384344533014245E-4,5.024079345044944E-25,-1.6782793173698263E-4,6.150489393050307E-4,2.850604577886251E-4,-0.001688677644883371,3.886144552078289E-4,5.024079345044944E-25,3.1443400045509293E-4,0.0011661559480338037,2.0096317380179776E-24,-1.8853054895576944E-4,5.60862864621788E-4,5.372426026226696E-4,0.0010463173421528314,2.512039672522472E-25,-5.633624165987723E-4,1.1548651745639727E-4,8.592533783290494E-4,7.49544223830002E-4,2.0096317380179776E-24,-5.228401346851361E-4,0.0015418027561780621,5.570816371372702E-4,5.005006217675379E-4,-6.012618094012803E-4,-7.886933099428232E-4,3.1638270525763737E-4,5.841638103580119E-4,4.1888560480512425E-4,2.0096317380179776E-24,5.5603854624927124E-5,0.0012912067407435915,2.9392016255410405E-4,0.0010480134485163326,1.4832233632531674E-4,-7.735957214952559E-4,7.830098601254519E-5,1.3591576518901834E-4,2.4963150395076577E-4,1.0048158690089888E-24,2.512039672522472E-25,8.573643975834024E-4,3.010219775661944E-4,7.787677057071333E-4,7.071030205638738E-4,2.2630307230209502E-4,2.2369540211361264E-4,6.28009918130618E-26,7.907008243873673E-5,-0.0012464383835992248,4.88478634164087E-4,2.3289350365366857E-4,7.240682427717567E-4,3.8046820461698006E-4,8.120942736776946E-4,3.035275200263976E-4,0.0,-6.352380119167937E-4,-3.472840449894025E-4,1.0048158690089888E-24,9.692062348280995E-5,-3.4570364971950485E-5,3.3739561009223643E-4,4.8782113083784305E-4,0.0012238615942656169,-5.678219611319927E-4,2.512039672522472E-25,1.256019836261236E-25,-2.3321405212189256E-4,2.0096317380179776E-24,3.2395215948478786E-4,3.2936450450183697E-4,8.267520675722658E-4,1.300180760805311E-4,6.588949251239707E-4,-2.091742483902854E-4,-3.8366705904704896E-4,3.5403811389958745E-4,2.5651102062677076E-4,1.0048158690089888E-24,5.05844504805964E-4,-4.053113582598754E-4,4.543747529219675E-5,-2.815285194374405E-4,4.911408302623733E-4,-4.7907634384679006E-4,3.188342477606258E-4,4.3194468030898734E-4,1.6061913797213692E-4,-6.34701702836669E-4,4.033940213540374E-4,1.7377271005492888E-4,-8.868984687943972E-5,4.5373399283481534E-4,3.1951471003781285E-4,1.8975979097370665E-4,3.2317007456675545E-4,2.884308879090472E-4,3.3792465625580656E-4,4.59483299876946E-4,2.159720556788179E-4,-3.788108122722976E-4,1.2024364422545843E-4,-3.8091775473937976E-4,5.43132353672164E-4,-3.699139287174855E-4,-1.7177028328521472E-4,-9.938636265424885E-5,3.0103898842489E-4,-1.9048051134073434E-5,-3.059217722917115E-5,-3.921109871892918E-4,-4.431251631851314E-4,-1.2396467826094175E-4,7.38028712609436E-5,-1.973498469201799E-4,4.363992006314747E-4,-3.0505469013926537E-4,-8.25115485871887E-5,-3.650214018985122E-6,1.6124833332628453E-4,4.2213949132429893E-4,1.567014206272316E-4,4.7925169084879796E-4,2.869472611699613E-4,-3.479882271622688E-4,-1.181961282833563E-4,6.754917474112692E-5,-5.872178752665441E-5,5.32439824920798E-4,2.5381366604888497E-4,-1.253864976776024E-4,-1.7947575409354156E-5,-1.0263324848240941E-5,1.0165366812509875E-4,4.041733254063457E-4,-4.241031006901199E-4,4.320717112319422E-4,4.445634731459507E-4,2.221304866430264E-4,-2.2897124501658492E-4,-1.396449710119698E-4,5.137379534051681E-4,5.092444251990488E-4,4.312217490706103E-4,7.12683355520414E-5,-1.183271345886956E-4,6.31992928281813E-5,4.8542645845399223E-4,-9.261810158551222E-5,1.2172670710229253E-5,4.461256573031386E-4,8.315384348091103E-5,-3.601832532287103E-4,-1.635848504192729E-4,2.585604156676851E-4,-2.500863653572292E-4,1.8303128640440985E-4,-3.8399842367956206E-4,4.9336981742589584E-5,-3.1152754390367587E-4,4.7403638055468676E-5,1.614080090602815E-4,1.6521630190489137E-4,-4.393317982183294E-4,-2.040752170040854E-4,-2.0975124759191173E-4,-4.984723657937121E-4,4.0561038671070804E-4,-2.3869180954530728E-4,-2.958948847482584E-4,6.894536778937293E-5,2.6961700062210446E-5,5.905462510651494E-4,5.225790099234871E-5,3.756722725202433E-4,-8.962803634626919E-4,-4.922095625089038E-4,6.117681692862455E-5,-4.3327811019506953E-4,-2.692641365734586E-4,-4.0220759659838416E-4,3.966994323765581E-4,3.745829162757397E-4,3.6713486302881364E-4,-2.9114086358773535E-4,0.0,3.4013212582408894E-7,1.6282198732515995E-4,-4.271323067034737E-6,2.775825191291193E-4,-6.803210510029899E-5,-3.2160943964892495E-4,8.614940091831278E-4,2.9840290599994954E-5,2.7649600617339425E-4,1.0048158690089888E-24,5.024079345044944E-25,0.0013199178557936617,-6.121339660247875E-5,2.4045837662903247E-4,-2.4850115688262634E-4,-3.14004959065309E-26,2.4612103196240454E-4,6.062594386522256E-4,-4.933444136204834E-4,1.0048158690089888E-24,1.256019836261236E-25,0.0016426479241483452,4.893336855857394E-4,1.6400344172171164E-4,-2.187682082481872E-4,1.256019836261236E-25,7.635125903373663E-4,5.936652562655493E-4,-0.0010355333900751035,-0.0012580894835108826,2.512039672522472E-25,9.216168756911798E-4,7.940939944784923E-4,4.112375602084903E-4,1.8179536636001288E-5,1.570024795326545E-26,5.447808117289467E-4,8.9216786672068E-4,1.0048158690089888E-24,5.024079345044944E-25,2.512039672522472E-25,0.0017041008566715833,0.001278318817815335,6.65959938433017E-4,-0.0010812568903521447,-1.256019836261236E-25,2.994627558235154E-4,4.3465542446433135E-4,1.0048158690089888E-24,2.512039672522472E-25,3.14004959065309E-26,0.001154216212979895,0.00141730481996625,6.764329199326884E-4,5.024079345044944E-25,7.485249963099905E-4,2.0740219466616332E-4,-8.671813475341424E-4,1.0048158690089888E-24,-8.941284853480755E-4,6.87918504381955E-4,1.581783144097992E-4,0.0013300899143612484,7.484461129522499E-4,-0.0017688053220018998,0.0010178965176753985,-1.0126352409739666E-4,0.0,0.001511611865993085,-6.110640065019492E-4,3.3896652782998307E-4,6.28009918130618E-26,3.7050589670152643E-4,-2.48381171686549E-4,1.0048158690089888E-24,0.0013634600680758092,1.2494163898281652E-4,-0.001739984458715001,0.002343914412789397,9.420791681377133E-5,8.731645404676189E-4,-6.28009918130618E-26,4.722347867752529E-6,3.716588825454338E-4,1.0048158690089888E-24,2.3938746082720745E-4,3.26878425823923E-4,2.0096317380179776E-24,0.001758307492785929,5.024079345044944E-25,5.569288200850175E-4,-1.6604753774841598E-4,5.024079345044944E-25,5.881930167585853E-4,-6.866443624106276E-4,6.276208695906602E-4,0.0011339227160423447,2.0096317380179776E-24,1.869586997690528E-4,5.024079345044944E-25,6.84309078842362E-4,8.744607993983422E-4,2.0096317380179776E-24,-7.455136259903062E-5,8.930672473524644E-4,4.567833155357067E-4,0.0013011379395265882,5.024079345044944E-25,-1.256019836261236E-25,2.512039672522472E-25,-3.7435762998585544E-4,0.001037253159904696,-0.0010383278980978096,4.80274121252856E-4,9.031918036069444E-4,4.37601879307671E-4,0.001341940435283393,3.14004959065309E-26,5.024079345044944E-25,8.731653662092317E-5,5.424272956544491E-4,7.206035569556682E-4,2.512039672522472E-25,4.2466693125372006E-4,8.844702813298455E-4,-4.0372799790875383E-4,0.0016513269039356133,2.6710189039819073E-4,-5.75156047870167E-4,4.290316321686189E-4,5.024079345044944E-25,2.5890255039082903E-4,-7.413375651530525E-4,-4.6328054773130497E-4,3.499936259141696E-4,4.812973782887881E-4,6.624871975938297E-4,4.0259719520516164E-4,-7.295382188756446E-4,-2.807140225826257E-4,-6.10888887212566E-4,2.3417390835320885E-4,0.0,4.7157440016638185E-4,9.904675429225755E-4,1.7664365709542502E-5,4.117551921524587E-4,3.5937154980908204E-4,-2.5545886871463096E-4,2.512039672522472E-25,-3.322617925402524E-4,-3.3862822965576E-4,0.0,2.4999094767416496E-4,-1.7485086642406283E-4,-1.4255449014845565E-4,2.694741062064239E-4,9.281295057584366E-4,-3.533133828997399E-4,9.89626491945508E-5,-4.453563788544745E-4,-5.431935831748667E-5,1.0048158690089888E-24,6.699050201391315E-4,-1.0484250090921254E-4,-6.471904693329706E-4,4.648039369861006E-4,4.95416183947253E-4,3.4962607528062555E-4,-7.03188414262599E-4,-4.429321606006198E-4,-2.6430397407533E-4,-7.766344959837045E-4,9.597130539887784E-4,4.2311077759740127E-4,-3.4180997552806696E-4,3.0986071369004377E-4,6.285457583085848E-4,4.716403030376238E-4,-4.25794349504388E-4,-3.0319375073804703E-4,-2.638386050359401E-4,2.1704641828697123E-4,6.203807738324784E-4,-2.0598028807485933E-5,1.4318612139409127E-4,1.9392524631449388E-4,1.490211344921503E-4,3.7903212290009056E-4,-1.2152417178301525E-5,-3.218595848597341E-4,6.912910776340795E-5,-6.346551121709779E-5,-1.1465228681105497E-4,-1.693177432278503E-4,2.64571884361332E-4,-4.2780258226262106E-4,5.524725338997744E-6,4.218623425521079E-4,-2.923640262759959E-4,-3.315225313369719E-4,-1.6804445890149206E-4,-1.8427294361031066E-4,-8.731587771748967E-5,1.6272217487961044E-5,-3.592631654657027E-4,3.1860827358653327E-4,3.5466034453997014E-4,9.323462335044764E-5,4.340280692959134E-4,-1.282303509938936E-4,4.654563936434834E-4,-2.921363268644069E-4,-6.760272971368459E-5,1.8211295756919582E-4,5.100773578305881E-4,3.316935768840645E-4,3.5784982686235553E-4,1.112508232099803E-4,5.0482702520443236E-5,4.865462777498038E-4,8.450944465074845E-5,5.031991445988358E-4,-3.249667762428095E-4,4.5210100053081975E-4,-2.4180044194180368E-4,-2.8060271137261784E-5,-1.104968846968682E-4,-1.4397441983095033E-4,7.36579222321023E-5,-1.7219279054734825E-4,-1.6809357106733474E-5,5.07300603427753E-4,-2.619222862306203E-4,2.5617112812608783E-4,3.120928232910138E-4,-5.6948777999734105E-5,3.4964401900251275E-4,4.2133836359780274E-4,-7.866379661913915E-5,-2.3431680658533637E-4,-1.3370888774501705E-4,4.837832812800786E-4,2.3682998209405927E-4,1.6649478651320756E-4,2.699440142068342E-4,-2.1115991059331645E-4,6.962811197703026E-5,-1.9625309941581813E-27,-1.4906157555550308E-4,1.9670135079450897E-4,-2.9953301364729265E-4,1.1392004218337044E-4,-4.2086613921081485E-4,-1.8747738111906832E-4,1.570024795326545E-26,2.280040751716041E-4,9.215636565515414E-5,-3.1195395006698305E-4,1.0425078902657502E-4,-1.3337280760455816E-4,4.405682118668087E-4,1.813646479580919E-4,4.440128222823382E-4,-8.849883264075008E-5,-4.629762160458595E-4,5.755881427966902E-4,6.285119819226071E-4,4.7092655000730146E-4,5.024079345044944E-25,1.256019836261236E-25,4.4546143255339016E-4,-1.9786066996244E-4,4.882768660150776E-4,5.603504994783561E-4,3.14004959065309E-26,3.6596428251975003E-4,1.899261736798929E-4,-1.520237505359731E-4,0.0,0.0,7.077211557934346E-4,1.2400309354493766E-4,-3.7324380362953915E-4,-2.4916417880599655E-4,1.7737826579139297E-4,8.888129406202358E-4,2.134665425704969E-4,-3.2831477636233186E-4,5.024079345044944E-25,-4.869300743052356E-4,7.391721457362197E-4,-1.4755424416296387E-4,8.429303062128252E-4,7.944696028014484E-5,-9.072893794256637E-4,5.346610829157157E-4,5.736658305030062E-4,-4.0602692657883355E-4,1.256019836261236E-25,1.256019836261236E-25,0.001077943057074355,7.979792799758595E-4,5.38562720272441E-4,-5.691487352107816E-4,5.024079345044944E-25,4.500501824083731E-4,7.004547098193157E-4,-0.0010361303753897663,-7.634140259039396E-4,-4.7516064450396194E-4,0.001204800975913889,7.639360359897059E-4,2.3914807004733456E-4,1.256019836261236E-25,5.024079345044944E-25,1.719315735984046E-4,8.555102687354139E-5,5.024079345044944E-25,-5.024079345044944E-25,-1.789597248909872E-4,0.0011165287877964814,9.939272988664129E-4,0.0010019757719250603,-0.001315117885523344,6.28009918130618E-26,2.1217553862471904E-4,4.6560454565972774E-4,2.0096317380179776E-24,-2.512039672522472E-25,6.906204047097212E-4,5.223542682210602E-4,0.0010366505423714135,4.075411328277303E-4,-0.001672889035798455,-8.027425249066352E-5,3.5724743099565235E-4,5.024079345044944E-25,1.0048158690089888E-24,-1.768243673895288E-4,8.857089939011978E-4,8.107486792084674E-4,8.127307458871528E-4,3.5086565790752523E-4,-0.0020534202747111083,6.084854353451035E-4,-1.7194957677309228E-4,1.0048158690089888E-24,0.001019668920695109,-5.024079345044944E-25,4.7857146828204667E-4,4.042196135615356E-4,3.716513674060844E-4,-1.5177152225760872E-4,-0.0021849342718126964,0.0014740598422916845,4.209289939390065E-4,0.0,0.002428341505388512,-1.7288706113193799E-4,4.95339755539675E-4,2.437548565109822E-4,-2.668547271936877E-4,1.14945397933854E-4,5.024079345044944E-25,4.959361252852947E-4,4.063347004038811E-4,-0.0021266473692081625,0.0015312487108926597,2.512039672522472E-25,-6.268360448999552E-5,6.184674793699853E-4,2.556778837111783E-5,3.262334723973754E-4,-6.28009918130618E-26,2.671275384991297E-4,6.130349512119397E-4,1.0048158690089888E-24,-4.832890605254029E-4,2.2957969677843E-6,4.0346733994176963E-4,0.001025431267541961,1.0048158690089888E-24,5.247528016468286E-4,2.9713990639780087E-4,4.520756679931438E-4,0.0014936817907639358,-0.0014695517191712281,-0.001130512099941055,-2.9582748985615355E-4,2.687007164268452E-4,0.0013625798018424607,1.0048158690089888E-24,1.853123362763218E-4,4.994642533705698E-4,7.76490431061617E-5,0.0011105378200889481,-6.28009918130618E-26,5.024079345044944E-25,2.5378922619775856E-5,-7.346520037686698E-5,7.443011268137101E-4,5.024079345044944E-25,4.284700451069497E-4,8.550517359204229E-4,-7.555924785155355E-4,7.712139239099694E-4,3.091771894627071E-4,5.024079345044944E-25,-4.364815912147843E-4,3.640368685073937E-4,5.76479633525052E-4,-5.171890709381836E-4,2.512039672522472E-25,0.0012743838608840308,-3.14004959065309E-26,4.952422800812685E-4,9.092661118405637E-5,0.0,6.28009918130618E-26,3.0073625542957654E-4,6.408763493665488E-4,-3.923312802256321E-4,5.455865766946346E-4,4.516447312200343E-4,5.024079345044944E-25,4.0474282798185624E-4,5.277731631577962E-4,1.256019836261236E-25,1.256019836261236E-25,1.256019836261236E-25,7.385537227070442E-4,-6.627640477639421E-4,8.204402577310687E-4,8.352263939094308E-5,5.024079345044944E-25,-3.8242089487527665E-4,5.028289705634383E-4,-2.5190345248202303E-4,-9.984714977929643E-4,3.1551518335757293E-4,5.804599185609454E-4,1.0048158690089888E-24,5.798790550795442E-4,1.1033554824782417E-4,3.0122795913081837E-5,-3.32369463597198E-4,0.001131258209265457,-2.61285508116532E-4,0.0,2.6009545953193025E-5,4.3287206927297966E-4,5.024079345044944E-25,6.2363015804156E-4,5.769005319458982E-4,2.512039672522472E-25,-4.860131263979818E-4,2.4078339808709758E-5,2.0189444296417916E-4,1.4594642431456587E-4,-3.108568538591683E-4,-4.3620675035442277E-4,1.658640277833914E-4,4.916034274434579E-4,-2.3225464187349895E-4,-2.883974848909694E-4,2.512039672522472E-25,1.392670908385423E-4,4.938984237305197E-4,1.6089466568693442E-4,-1.3431205936799255E-4,-5.5709063379803174E-5,-1.0128449658324633E-4,1.9500674633925468E-4,4.8756243366740226E-4,-3.711358137558494E-4,3.14004959065309E-26,2.931474892441987E-4,2.9246787242228673E-4,1.7291168971080522E-4,-3.669695733015601E-4,-2.6635869613181453E-4,-8.907218638030194E-5,-1.4603276087668624E-4,-3.2596351967382575E-4,-3.5441582933984887E-4,1.521883909791281E-4,4.236368715536607E-4,4.5054514190105216E-4,-2.653146094999842E-4,4.8086904268436904E-4,4.210519893624317E-4,4.562341057203984E-4,1.8898078270314857E-4,-3.5513664060378604E-4,-3.153117534373425E-4,6.413857142226266E-5,1.0060867863772521E-4,-3.575756768209126E-4,1.3780370052682108E-4,-1.7672585419551795E-4,-8.797204292607347E-5,5.108444205150766E-4,-8.743135513580296E-5,-9.403731501106765E-5,-3.670868489335794E-4,3.800610934189373E-4,5.116323877455038E-4,-3.506237796393906E-4,5.34452248019349E-4,-8.509437274307558E-5,-2.720115840691562E-4,-4.3479991964878533E-4,1.8733827730915502E-4,