{"class":"com.simiacryptus.mindseye.network.PipelineNetwork","id":"726894bb-9adc-4470-ac29-28e6a3328ac0","isFrozen":false,"name":"PipelineNetwork/726894bb-9adc-4470-ac29-28e6a3328ac0","inputs":["9ccac93f-d904-49e1-9c8c-90585e03ba84"],"nodes":{"1ade6db7-fb35-47c8-8f71-757b8a3b4daa":"0c5854b7-5e68-464b-8bdc-619288a9667d","79e48a2d-01c4-4e5c-9de6-3b23f4a41ab7":"222cdbb7-2b0e-4f9b-bfb0-cf884ef3aebc","717d98af-cb77-4a56-a716-cdcdc7215a67":"45a48dc2-9360-4612-95a0-f2da0802cbe8"},"layers":{"0c5854b7-5e68-464b-8bdc-619288a9667d":{"class":"com.simiacryptus.mindseye.layers.java.MonitoringWrapperLayer","id":"0c5854b7-5e68-464b-8bdc-619288a9667d","isFrozen":false,"name":"BiasLayer/a138bb53-ab8a-4491-86e5-92aa5e17b0cc","inner":{"class":"com.simiacryptus.mindseye.layers.java.BiasLayer","id":"a138bb53-ab8a-4491-86e5-92aa5e17b0cc","isFrozen":false,"name":"BiasLayer/a138bb53-ab8a-4491-86e5-92aa5e17b0cc","bias":[-1.3269058127163996E-11,-1.885186702418928E-12,7.358471401782035E-13,-4.0823778353200493E-10,6.318855445618449E-10,-2.2228194552843405E-12,4.913487890522397E-12,-5.416181581821026E-10,2.535344922964217E-10,-1.864661546689012E-11,-7.191470698299765E-11,1.6564808745334919E-12,-3.855321918887477E-9,9.765720120535263E-10,1.967480234190504E-11,4.98498633118156E-10,1.2721560520900193E-11,1.5365553328890565E-11,7.42015900122483E-10,1.7936628094174726E-11,2.5548163872960954E-9,4.813126097189608E-10,-4.9988963075465176E-11,-5.626556761981787E-11,-3.005994119196163E-12,-3.592044679791132E-11,-2.0589406855562136E-9,2.545161628436381E-10,1.490177555750103E-11,-1.8869421042801954E-11,-1.36429520789384E-11,-8.020277203816E-11,-1.9401507885468928E-11,-6.397558122114339E-11,-1.0284021353655798E-11,9.467533236386465E-12,-2.0438195696693457E-9,-2.8919831592057174E-12,-2.3282597058236464E-11,-1.2548975834294053E-9,6.566911924561385E-11,3.526681585169548E-11,3.155439012772803E-10,6.84008324639947E-10,2.015566250278065E-11,7.781542266839708E-10,6.221620935005537E-10,1.5177944505667847E-9,-2.7054477145017356E-11,6.777656900186454E-12,9.55660474015096E-10,-2.2885328498866384E-9,3.27525978550221E-12,1.3013715713035609E-11,1.3704011944909747E-10,4.7934175359447635E-11,2.436789527034067E-11,2.6920740145416074E-11,-8.472701997452375E-11,3.4274936527609577E-10,-1.542449587332181E-11,-1.2640144109795655E-9,-6.543811272401367E-10,1.9353006095538594E-10,-2.0169846655470536E-9,4.5656236308242625E-12,2.276662639426462E-12,1.7672536939222907E-11,-1.0903193910959876E-11,-1.2414921246183226E-9,6.253255601116358E-12,4.60412260242515E-11,-1.2511596309755404E-11,2.204878065116936E-11,-1.3423738625910831E-9,-1.0400431949226421E-12,-3.3661307809725203E-11,-1.3997979404754376E-9,1.319065647805721E-9,2.004759837760068E-11,2.5142256557776326E-9,5.593590831650832E-10,-1.5882141431465356E-9,-8.262447411191237E-10,2.7023248848930243E-11,1.78985656202413E-11,2.3113980226227934E-11,-1.3766041999804667E-11,-2.1138560149353874E-9,-5.870283582108018E-11,1.2183952246264684E-9,9.774468212065938E-12,-1.3900104456167817E-9,7.474525506475258E-10,-8.98048523101808E-10,-4.4222920845474496E-11,-4.5437405133297075E-12,5.872265129206676E-11,-3.258988665514091E-11,1.2521497413379795E-10,1.221314029268725E-11,5.209110041223904E-11,7.346432437351484E-12,-1.3546249965074251E-11,9.097876034087559E-12,-4.765119973277186E-10,5.65644395457955E-12,-3.783371611360351E-11,-1.3686333977468663E-11,-2.6383111547900585E-11,-6.1169348528704915E-12,-1.161259073707718E-9,-1.2720889258491606E-10,3.8339835685234375E-10,-2.9606879420041168E-12,7.433097698223987E-12,4.541329305994318E-10,2.557638349131296E-9,2.0391414965429197E-11,-4.1696824858670756E-11,-3.0500356825735427E-10,-8.459011024978305E-10,7.278288641211318E-10,-2.204424895819744E-11,2.5989821683347784E-11,1.9465884704008883E-12,6.040861610229364E-11,1.1303326130674487E-12,8.437528356146781E-12,2.645807444968447E-10,-4.0735087952938904E-11,-4.672364052789316E-12,-2.463758203257739E-11,-1.3350852704718421E-11,1.2871724828962675E-9,3.1520891930849256E-10,-2.1927446859669612E-11,5.418102073722474E-13,1.0065892459720929E-11,-4.97111265368015E-12,2.4615739029639203E-11,-2.009175380999554E-11,1.563446433963606E-9,-5.969855205821233E-10,-2.6150783557621878E-11,6.836001633755612E-11,-1.6768099295581427E-10,-1.3965427984634347E-11,-2.3185163102507642E-9,-1.9511421448983774E-9,2.3890358977916392E-11,-1.4447854820331062E-9,-8.36390867718184E-11,-9.242908842263105E-10,-2.875081453137327E-9,-4.191033359501052E-9,-2.838037968506508E-9,-4.59747675099301E-9,7.332849098988464E-10,1.5838141750816578E-9,3.9926235496984955E-10,9.308134261363568E-10,6.045913436694785E-10,9.032643775419399E-11,7.473529541362415E-10,-5.089135780950593E-10,6.676892185178399E-10,7.791615796554368E-12,1.547337707079521E-11,2.117230067200827E-11,-4.821945766616779E-10,1.4469126840633877E-11,9.328308770244027E-12,-2.4874218787472717E-11,-1.0118997326374278E-11,4.115633565428304E-12,-2.1930952991732197E-11,1.1162860569034953E-11,-2.0016913252391546E-11,-1.1600383297399417E-11,-9.397327058784228E-10,-1.939471637543387E-9,-1.980874728234908E-11,-5.9810560459512375E-9,-1.4684764873023303E-9,-7.588629514015047E-10,-3.774940185842195E-9,-3.312512486802125E-10,-7.71439494068165E-11,3.566318985783119E-12,-1.9179256253855693E-11,1.8159173922083125E-9,5.124457821485325E-11,9.581158799437489E-12,-1.1429278464878526E-9,-5.880895954411046E-11,1.5994880600396183E-9,-1.8900944010651443E-11,1.2899713798548254E-11,-1.2860043460065735E-9,2.5966508937510763E-11,-5.0126684557434524E-12,-7.261957744467353E-11,-2.598921433386126E-11,1.7325231203510854E-9,-6.329660154429314E-10,-2.689866670712578E-10,2.6080271144644256E-11,1.2814760924951655E-10,-1.6705285214510288E-11,-5.189725951804267E-12,-1.3323226853004616E-9,-1.3808296651230685E-9,-3.250756215630643E-10,7.671808674256747E-11,-8.160591450450389E-10,8.011868839171433E-10,1.2892006640487134E-10,-1.715423525510953E-9,5.5001052760154946E-9,1.7411856249219967E-11,-9.724304347551582E-13,-1.6601572711623526E-9,7.763070072100082E-12,-2.6670621099744695E-11,-1.0806425726383502E-11,-5.296663870180561E-10,-1.4694467669052573E-11,2.3036512174603883E-11,-8.059685166987188E-12,1.0050408500608185E-11,1.5906286763523804E-9,4.1816557384886907E-11,-2.4185627290803098E-11,4.098511982072409E-11,6.668375827065673E-13,5.575043289234454E-12,1.1015551942040148E-11,-3.314174019455475E-10,1.162979754147484E-9,1.0164584941404203E-11,1.527817464349221E-11,-3.038740650101475E-11,5.2655910747518344E-11,7.894037847095666E-11,1.6161471250074782E-11,3.2006420436331303E-10,-1.3187828556979049E-11,1.2856016288328105E-9,8.363237456183398E-11,-2.0476341873933834E-11,2.624137084709113E-11,-2.1058706688391131E-10,2.5418508033185586E-9,-9.910063504578505E-11,1.0387696637973908E-11,1.2045656336200766E-10,1.6751651332760854E-9,-9.817362078551508E-12,-2.9675596184130493E-11,-3.7190577210443173E-10,2.9849323180421387E-10,2.2507452784916277E-10,-1.0954336965856198E-10,8.852301203988773E-10,5.179282668703873E-10,9.77986351050537E-11,2.8899278118490193E-9,2.1107603796184206E-9,9.914683110513017E-10,-1.564719048791479E-11,-6.510851972592509E-10,-1.1345243273125815E-11,-1.617943669346989E-11,3.268118120380806E-11,2.054578206443141E-11,2.443520107001418E-11,4.6370883067568466E-10,-2.7407281324510845E-11,1.1664750802535558E-11,7.252321683483888E-11,-3.166585658370731E-10,-1.9445234750542426E-11,4.756007734120345E-11,3.268215859359859E-11,-1.6638689974749523E-11,2.547795656704488E-11,1.2527136980392888E-9,-8.323315758126228E-12,-1.1349881569624415E-9,-1.3897548320441774E-12,2.4764310550886524E-10,3.936109253182495E-10,1.1888451421044725E-9,8.030596427838481E-10,2.789977085454584E-9,4.2720049999242777E-10,1.6531175515938952E-10,-1.7763616959352498E-9,-1.1665953828744987E-9,-1.5940753643715136E-9,-8.796876597093879E-10,-1.5278688451027457E-10,-4.021155487815306E-10,-1.2832023574569173E-11,3.4197805492366334E-10,6.041240874069449E-10,-1.6326477644898517E-9,-1.340006784893862E-10,-1.0996318036277988E-11,8.531277984622583E-10,-2.4862437098229465E-12,1.179771167322288E-9,4.0766759735330815E-11,1.887892485569273E-11,4.490208702348604E-11,2.1431921218335161E-10,-1.3508001292123117E-10,-7.170405036891903E-11,1.6317188565100348E-10,-6.812193088005386E-12,-6.203366083965876E-12,1.4218224566227007E-9,1.389433107327524E-9,8.573765386653707E-10,-7.184563313990922E-12,-6.978422373799188E-11,-2.1247653846503267E-9,-2.396592377541885E-9,-3.5364599387089073E-9,-3.2107116973688453E-9,-3.271085681727505E-9,-2.0862291105641725E-11,-1.5323517008310467E-11,1.9562206900931576E-11,-2.3711131309872105E-9,6.641551544857365E-10,6.315807177771733E-11,1.8701236413683616E-12,-9.50027760261246E-10,1.1167833378002477E-9,3.176872146370473E-10,3.783150443539538E-10,-8.407672839642557E-12,-1.1665529533544543E-11,2.613683982681668E-11,3.1298647430593083E-10,1.0665766621546607E-11,-7.724381842880078E-10,-1.9152113872062532E-11,1.5087122875671468E-11,2.4504831912480372E-9,-2.1741047515952278E-9,-5.083773021289098E-10,-3.851352491877016E-10,-1.2471786887728726E-9,-1.2892849436023217E-9,-2.7790278688552737E-9,-5.153520449507202E-10,-2.1639781410639493E-10,-6.745094790154962E-10,1.0231034628924027E-11,-8.071778667321196E-12,-2.7257394804236263E-11,-8.371951492754523E-12,-4.055276640546239E-11,5.557658038202933E-11,-6.250535895337351E-13,-2.6462104437385433E-9,6.596739453845367E-12,-2.5194292787144982E-11,1.6422941133447457E-11,2.7895420577641237E-10,3.9626694458086016E-9,2.1170649922306224E-11,-2.504357251992749E-9,4.104148935786903E-10,-2.3150431054223166E-9,-1.0618831861027394E-9,-5.4606709611220065E-11,-1.6742670470600168E-9,6.76801673005759E-10,-1.0156774151837858E-9,-4.0887210758252935E-10,-4.832509275266477E-11,-9.885546162406023E-11,-3.208789698970709E-10,7.303740796746939E-12,-1.1666004699947268E-11,-2.2786554965874485E-9,-2.0871276478540946E-9,-2.607483235721526E-9,3.509417809306431E-10,-5.332370492674313E-11,-1.8035190270845341E-9,1.8006427146765446E-10,-1.6451058919774747E-9,-6.6796054963404284E-12,-7.123624958749087E-13,-4.2556614004399544E-10,9.636127931317287E-12,1.2670366750068689E-9,8.899618935855981E-11,-3.6567259846107963E-10,-2.662328964227826E-9,-1.4419461924869426E-10,-1.235668406433091E-10,4.256316092607306E-11,-1.9570952434764667E-10,-2.4754681733117473E-9,1.5686896408964712E-9,-9.570094250882682E-11,9.305030936915593E-12,-8.142910485302103E-10,8.347416780671229E-12,-1.7170331552153055E-9,-6.057033610566055E-10,6.224933318502079E-10,-1.4447878690294411E-11,1.7439097802337066E-11,-5.264780963753463E-10,-2.8930992932109586E-11,6.978429915603036E-10,1.6331779341069924E-11,3.33990368452042E-11,-2.231247733924805E-11,-1.7297535916639982E-11,-1.2629523187476093E-11,-8.427249085218043E-11,2.3114801514840073E-11,-9.239208161746557E-10,-7.869018299041641E-11,-1.9763382021957675E-9,-1.3220095559600251E-11,-2.448098867978695E-11,3.3951524086239025E-10,4.366308799045461E-12,7.467139908386858E-11,1.3649333764374335E-10,7.998354568582064E-10,8.725899678427105E-10,6.818812961969758E-11,1.0348181452820943E-9,-1.7707321608343486E-9,-6.85878166319238E-11,1.6894218615720691E-9,3.799358827879929E-12,1.724642437138677E-11,-1.612589095910119E-9,1.3932602041910741E-11,4.380408523688768E-11,1.902969594603584E-11,-1.5019986722819515E-11,1.2064894896912341E-11,-5.717945624663879E-10,-2.2594611229834444E-10,-6.241916747159412E-11,1.2508156643537633E-11,-1.151706825556643E-9,-4.609475292491949E-9,-2.2182192362181614E-9,-2.7789330295976987E-12,6.513716169924604E-11,1.0656211148873715E-9,-5.5471351537178975E-11,1.2915396209239726E-9,5.557427847620653E-10,1.4623357201533269E-10,2.2191874690099187E-11,4.960392203380885E-10,-1.2886636421965587E-9,2.1235938885027663E-11,1.3338599954762095E-11,1.5934242192248833E-11,-1.722687754132901E-11,-1.5742387954378434E-11,-1.9246961327663713E-9,1.0104279324886919E-9,7.132097548796378E-11,-6.826760377085921E-11,1.9402942892142803E-10,-1.6620562263556453E-11,-1.3706023796988987E-11,8.178701052606005E-10,6.545811728802224E-12,-3.232670999876251E-9,-8.053094591563133E-10,-7.456434699301921E-10,-1.1847684527966933E-9,-1.0781682852351028E-10,4.780403288246699E-11,1.2760294357895749E-11,-1.4881651873738927E-12,-3.501070542150164E-10,-1.987476182938455E-11,1.4245668491618903E-9,-1.817643262741821E-11,-1.832901070293223E-12,1.0127462323317733E-9,2.3677090285710268E-9,1.4895391476655154E-13,3.7931839962968256E-11,1.164499143528654E-9,1.656821726530534E-11,1.6360440456955292E-9,-2.2581743314529782E-11,-1.4745402096549105E-11,1.1906347955032962E-11,8.499060701104065E-11,-1.451296568809122E-9,-1.9102140113371486E-11,-2.0518890637057303E-9,-3.872840139657185E-10,-1.0999940174676585E-9,-1.6929646981803503E-9,-2.155675612633252E-9,-1.3568178432458641E-9,-2.5854538760507386E-11,2.720995096479036E-9,2.6025628703746734E-9,-2.9169637309571115E-12,5.800068574036852E-12,-2.7100396046635998E-11,-1.567190172906551E-11,-2.7444432416265147E-12,1.988990686049566E-9,6.958972497220224E-11,4.103550621141325E-11,-5.985410064209271E-11,1.2786993435725948E-12,9.738350812097955E-10,-4.120470054142533E-12,2.7602552549050454E-11,7.828579729229023E-12,8.618265025145617E-12,-1.5596465245108873E-9,-8.558131953903003E-12,-1.4438927931449894E-11,-2.2018134050456196E-11,1.9152193105822397E-11,-3.4555002112075126E-12,-1.9943639053311337E-9,-1.0433579980134575E-9,4.601686530118624E-11,1.3522382253849758E-9,1.7407248005416183E-9,3.3558782045808063E-9,4.523356364744284E-9,-4.704818268313174E-10,-2.4483949940881144E-11,5.499971650557845E-12,5.413818722906209E-12,-2.1155870037423727E-9,-1.8789509084812104E-10,-1.1769234707763297E-9,-8.112658243788218E-11,-9.153742350775297E-11,3.202885570420376E-11,6.71485574412826E-12,-2.6311319791726717E-11,6.547609775474247E-10,-1.0402523057910592E-11,-5.588433443772405E-12,2.746775290200484E-10,1.603130208573599E-11,3.232321510622127E-11,-2.7342293343260246E-10,3.355010446520334E-10,4.706688704573079E-11,-1.4505970867608672E-9,7.341890211667497E-10,-3.154485713897236E-11,2.6179103639632168E-11,2.755351450909712E-11,-1.5466478485618582E-11,4.418528854392954E-12,-2.1284083831869907E-11,7.729383889901562E-10,4.009714773059745E-11,-1.6346445856189013E-11,-1.9643207035377823E-9,1.414044400883086E-9,-1.7261010122098424E-9,1.854148368688782E-11,-1.3134895214374072E-11,2.651561409863549E-11,4.643142101778019E-12,-4.784752274621197E-11,1.984759642035832E-11,2.1014501015160217E-10,1.7601706568629384E-11,2.4975143236086018E-11,1.3339026067399965E-10,2.2778884414988952E-11,-2.6591575247665443E-11,-1.4853399933283092E-11,-1.929354239271932E-10,-8.999374304301684E-11,-1.3142326664095297E-9,2.227559232785173E-11,2.5581796918555377E-11,-2.5694219855553014E-11,-1.2224522937975585E-10,-2.0321179470710788E-11,5.931221359627223E-11,6.277019148977963E-12,-6.932029428637762E-10,1.2026854532474005E-11,-1.4901545494480398E-10,1.5270531125488886E-9,-1.07673479209833E-10,9.076990334130725E-11,2.6058768546082692E-12,2.51401552330862E-11,-1.0779517197525686E-9,-6.705395649205519E-10,-2.3816595071009146E-11,-2.5046427128424074E-11,-3.044034974341833E-13,-1.643621307539069E-11,-5.5620933879485905E-12,6.085469150785971E-11,6.762653578354547E-10,-2.2175992299498998E-12,2.450826060202044E-11,5.6691530118766985E-12,9.796073076299562E-11,-5.2757198071881096E-11,1.5448208144563918E-11,-1.291851995436248E-9,1.830330995373245E-12,-5.45176957283627E-11,1.368597849708625E-10,-2.3007160702297803E-11,-1.0339531194269403E-12,1.311660068569703E-11,-8.879261556960545E-12,8.284329651091009E-12,1.61596304769699E-11,-1.6171657872018597E-9,-1.0068292018075396E-9,-6.0120613859262535E-12,-2.207299366168657E-11,5.486707797003452E-11,1.1373331045729464E-9,2.911144896570572E-12,-1.5730226992212939E-9,4.930740482745872E-12,1.3098217652984696E-11,5.396190857943912E-12,8.727750206567695E-10,-9.740417769638257E-13,3.0605705435812016E-11,2.580888793139407E-11,-1.5120134712003307E-9,-1.3600801237752175E-11,-2.3110800860158346E-9,1.9788538193451227E-11,-3.4408392747336127E-9,5.836011188694525E-11,-4.700711881017279E-10,1.8120893237425137E-11,9.806531544362001E-10,5.630767574098133E-12,-4.762072291049126E-12,-3.902498391970076E-11,1.0780117339404974E-10,2.0853944002962066E-10,3.9063044313152736E-11,6.805601392284551E-11,1.482131636795402E-11,1.0515172641156466E-11,1.227884347235153E-11,1.0579596419421235E-11,1.226952684459284E-9,1.7883061409190045E-11,-2.7019052985414266E-11,-1.4804131333015434E-11,7.079010463305616E-11,-2.205346080781573E-13,1.1262125787555508E-11,7.188671261025571E-12,-2.4812023564496307E-11,-2.6999644021358022E-11,-2.1632087097266886E-11,-2.311204360887464E-9,-5.885408886159394E-10,-5.2020212160963154E-11,-6.638078234733668E-10,1.8822881599006025E-9,-7.430503569510327E-12,-3.119662258635528E-11,1.760238586740411E-11,2.4370329021571402E-11,-1.5088939480160992E-11,5.037468102548516E-13,1.3590666533324037E-10,-4.517621447025156E-11,1.782520393322329E-10,-5.797840825412904E-12,-1.1323774685380911E-12,-2.5568031133631515E-11,-8.242450947203945E-12,-1.107091409711556E-9,4.552114064487056E-10,4.788568404496571E-11,2.4974490024609566E-11,6.948649103693887E-10,1.53432690536677E-11,6.451392425426959E-10,5.548540995860556E-11,-8.184574522639422E-10,1.714329380934599E-9,1.5950513120062404E-9,-4.95121729480834E-10,4.838900550971508E-10,7.249091219829483E-10,-6.7573423574051374E-12,1.272488639268213E-9,2.6491832251425064E-11,9.410067248782288E-12,1.2583137800424485E-11,-2.9596646125714414E-12,1.2052010232238618E-10,-2.2039865842932007E-11,-3.400119285814793E-11,2.303966953849096E-12,-2.140067525616505E-11,-6.241042752211476E-11,-1.5178028328140098E-9,-3.3508443132470786E-11,-7.978778516705257E-10,1.3646863590141182E-12,-3.737619172379567E-12,1.623702847784123E-11,7.882611218262745E-10,-1.003617546873679E-11,-3.8400550720806645E-11,1.4503296470769765E-11,3.7941215904003637E-10,6.955981752869441E-12,-3.305773045910413E-10,-1.4972708814546444E-11,2.3732515190526206E-11,-2.640441402871145E-10,6.968005649994699E-11,8.487595958433439E-10,2.690946006426345E-11,-1.9195312985264864E-9,2.6898139638763067E-11,1.272011308168958E-9,-1.1756209613668012E-11,7.66891396225594E-12,1.437405138497882E-11,3.9018144447924595E-11,-2.013777085643414E-11,1.132287278451158E-9,5.13625809085503E-11,-1.0007070214879837E-11,2.617474895501392E-10,1.2444134856470386E-12,-1.078656312743663E-10,1.6494572691590503E-11,-6.524648888890931E-12,8.553843404063531E-10,-1.9407675912286473E-9,7.22559763488135E-10,-2.0424644194554028E-11,1.2575858482941026E-9,-2.128234338270519E-11,1.6513646154947958E-11,1.5642365073689135E-11,2.0337239311083987E-10,7.011748797509646E-10,-2.8286258900957044E-12,-1.867501885068915E-11,-1.4021476501503623E-11,-1.1761352789930018E-9,1.022432981555477E-11,6.615610423501507E-11,2.7622643140699897E-10,-1.513250451311056E-12,1.594746459453232E-11,4.6055374463619E-12]},"totalBatches":290,"totalItems":1450000,"recordSignalMetrics":true},"222cdbb7-2b0e-4f9b-bfb0-cf884ef3aebc":{"class":"com.simiacryptus.mindseye.layers.java.MonitoringWrapperLayer","id":"222cdbb7-2b0e-4f9b-bfb0-cf884ef3aebc","isFrozen":false,"name":"FullyConnectedLayer/fbea82c2-a42a-49f2-a8cd-dcc43abbec8a","inner":{"class":"com.simiacryptus.mindseye.layers.java.FullyConnectedLayer","id":"fbea82c2-a42a-49f2-a8cd-dcc43abbec8a","isFrozen":false,"name":"FullyConnectedLayer/fbea82c2-a42a-49f2-a8cd-dcc43abbec8a","outputDims":[10],"inputDims":[28,28,1],"weights":[[-4.6909743465814555E-8,-2.241958712971883E-4,-8.456560177757545E-8,-2.2121838160367086E-4,1.6771276494686812E-4,1.8160798533852036E-7,-2.660607473405528E-4,1.9132253762386959E-4,4.262683741409498E-5,-4.144987534040468E-5,1.7120612867806515E-5,1.3719682607647675E-4,-1.9679604057803142E-4,1.0271103698010637E-7,-8.214577483566582E-8,1.4647586566090992E-4,4.054270667102402E-4,-3.3270998626612926E-6,-5.7820164975550594E-5,1.1888224306573494E-7,2.292234464216281E-7,4.4656901893061344E-4,1.078743751117896E-4,2.753853552876078E-4,1.1347439129689974E-4,-7.142576636028974E-7,1.0494307498460014E-4,2.1719324709056816E-4,-1.1838441640826502E-7,4.4888163926294405E-4,-1.4763317446729365E-4,-5.730275814361825E-7,-3.180610944137125E-5,1.7238226339685378E-4,-2.370323772616721E-4,-2.3277544082770372E-4,-1.214787910383626E-7,-2.410503306582075E-4,-8.160692545025986E-8,4.228139394560216E-4,-8.845676717773952E-5,4.515531572817648E-4,2.924784809477349E-4,-2.9352968239144023E-4,3.087046037552962E-5,-3.1348399205776555E-5,8.753940374469155E-5,-3.053650967477651E-4,-2.621716478941409E-4,-7.215983286605584E-5,3.560466990573757E-4,2.4310410885908435E-4,3.8111036796106753E-4,-2.4198077266013057E-9,-3.279657416396545E-8,1.326600275107892E-7,-2.2096348496101337E-4,-2.5473895074235102E-8,-2.0967353601900144E-4,3.087090481216578E-5,2.4812269076898366E-4,-1.9018777002575448E-4,2.531257561549377E-4,-2.457557894316553E-5,-3.488253099505772E-4,-3.2559841691632294E-4,3.5269403024096874E-5,-5.2209975898027415E-5,-2.569748230577906E-4,-4.657454648842441E-5,3.249840964279627E-5,1.6097867930885845E-4,2.0719728924580372E-4,3.9777719067937966E-4,3.1914835788320555E-4,3.2126307302759E-5,2.8841691793151476E-4,-6.89446243666881E-5,3.935177793229767E-4,-1.899180958919139E-7,-3.624383334222809E-4,2.3759240196180549E-4,2.775734816125597E-4,1.0570169542048657E-4,1.7761492724612297E-4,2.0365779613067532E-4,7.501110815082857E-5,-1.8397369781248125E-8,-1.2792475672966964E-7,-5.423251889282488E-8,-3.215906880163475E-4,4.589595336115038E-4,-6.706426715320153E-5,4.9351824225080637E-8,-4.863295475845863E-5,-3.3934029040755953E-4,-2.4616202493493776E-4,3.1188472478349515E-5,-6.084215245681616E-5,1.7702572975148665E-4,-3.2393240227235714E-5,-1.148196806835502E-4,4.459084764181342E-4,4.296186938856422E-4,1.2463006576955566E-5,2.889168839573625E-4,3.346637891379316E-4,4.25263984750803E-8,1.5156537880705093E-4,2.0458240196564998E-7,7.99867829040598E-6,-6.362914705555963E-5,-2.9208805225830484E-5,-2.284829261251726E-4,1.9191229047766035E-4,-1.2541312580579972E-4,1.3713749018840784E-7,3.0221639686925166E-5,7.020505563520701E-5,3.87473609198591E-4,4.657893195380067E-4,-2.851622927614635E-4,-4.488765356458976E-5,2.0309100120334428E-4,2.4748141872095393E-4,-3.653278875319511E-4,4.499832347908777E-4,-3.62326958442873E-4,1.8569431526833496E-4,2.1137001686330157E-5,-2.0114335682419157E-4,1.5355666730642413E-4,3.4906751375634286E-5,-1.070701575160931E-6,1.570693038198328E-7,-4.835783791576838E-5,-3.199533684143501E-4,2.3587171117082464E-4,-2.9762243051813947E-4,3.3615457104837327E-4,-6.268495203368481E-6,-8.630544916338195E-8,4.3373233770930246E-4,-3.247087745631463E-4,2.772790478080583E-4,1.0287366773663108E-7,-4.59473436753433E-5,2.1346277604834596E-4,1.6649970233990693E-4,2.566844298337325E-5,4.093707463173028E-4,1.407473984551087E-4,2.1489910464927772E-4,-3.059461991432721E-5,2.7659932652911883E-4,8.141197851801921E-7,5.084928129898351E-9,4.602830413510331E-4,-1.5526620988167312E-4,-2.7828986733947165E-4,-3.4713128401199587E-4,7.930620253813676E-5,5.872855191639815E-6,2.4923061054999606E-4,3.540322788728367E-4,-9.026036321205087E-5,4.236553481111281E-4,2.8588207177571135E-4,1.521428197115192E-4,4.587457573271686E-4,2.2799657420467761E-7,3.491340217301398E-5,-5.178762430538449E-5,2.109659713729732E-4,1.0617067041336567E-4,1.1740212946998376E-5,1.860764773558202E-4,2.3983298228247497E-4,3.0050186998336497E-4,-2.8918249975258246E-5,-3.2212693267009247E-4,1.5725007403493603E-4,-4.680039689874413E-5,1.83599856741203E-7,-1.1342049039991014E-7,1.4167349539851126E-4,-2.4283433893803378E-5,-3.900675459661139E-5,-2.00936389451045E-4,4.329440610756395E-4,1.1177374666010161E-4,5.7106403578003974E-5,-3.9904454157192427E-5,-1.2810096195352117E-7,-3.153894650230225E-4,-1.570576691130102E-7,1.3231505954601288E-4,2.844310172143319E-8,1.8464013348433138E-4,-2.608634539459123E-7,1.719701186073164E-4,1.3600157375321412E-4,1.0215237425974189E-7,-2.3472580634945894E-4,1.027415673332136E-4,1.8169200089348427E-4,1.0889900410692853E-4,4.469851375299033E-4,-3.378097256308038E-4,2.4281489057993657E-5,5.3938478876662004E-8,-3.818457065951951E-5,-1.982175521516897E-5,1.5572269884423066E-7,4.867112263559455E-5,3.5715001352017796E-4,2.1999874657285226E-4,3.151725990604707E-8,-1.1975068553579433E-4,-2.6799603593184794E-4,4.3087268615804873E-4,3.965121313471222E-4,1.271164083029091E-4,5.454947164419269E-5,2.461756962637856E-4,-9.785405682828339E-8,4.5772034560857914E-4,1.3721389523311213E-4,3.5828459345541627E-4,-2.825071646793947E-4,-2.3042311550897816E-5,-1.631624084179272E-4,-4.8644402483450936E-5,-1.5751707762120902E-4,1.6324036605681514E-4,-1.8472164432874395E-4,3.10444135796538E-4,-2.922267925963638E-4,-3.838288472783783E-6,4.453097899470781E-4,-2.291217912950844E-4,7.125536790778605E-5,-3.6313278151710657E-4,-2.6045542984950763E-5,-1.8597552902290768E-4,-8.51892944832615E-5,-2.3180667191076443E-5,-7.522170476696408E-8,1.1974182859475999E-4,-1.1087183720561373E-7,1.8420032975679653E-4,3.0235636901491332E-5,2.502026310249477E-4,-3.8217209834170085E-8,-3.681337077733818E-4,2.7420412837604155E-5,-1.9885839910825526E-4,1.1079784322827542E-4,-1.1403296916728408E-7,-1.809651529381632E-4,2.779999956083099E-4,-2.0609233981634138E-4,4.0425150144927593E-4,-3.567303177223301E-4,-1.5247946252529962E-4,-1.586415921795057E-4,-1.023479079229809E-6,-2.7020933327523623E-5,3.5568640497868304E-4,3.337177438207685E-4,-1.8107228402447883E-4,3.564118052399667E-4,1.246100379977216E-4,-2.7206366295683674E-4,-1.6908148540136057E-5,-1.4233184291123868E-4,4.5402779517292595E-4,5.228835950082975E-6,-1.8531504656217057E-4,2.420798690275868E-4,-9.537942150012306E-5,1.6332640999438462E-4,-1.7347398060555994E-4,-1.347987936602003E-4,-1.000354389305267E-4,-4.920472837454194E-5,-2.9313234595208323E-5,3.676608298018532E-4,-4.643076234060429E-6,1.0831948814906451E-7,9.745758967801834E-5,7.409864237486291E-8,-8.360809250522732E-5,2.0442835560908275E-4,1.6598114089948283E-4,-9.981508628310019E-8,2.679226569517824E-4,-1.5713893110496104E-4,-1.2214300595939765E-4,-1.0193784975133453E-7,1.787550052835595E-4,1.1082314885312054E-7,5.838260440951327E-6,3.1345157611391706E-4,2.4270779520315746E-4,4.2908111419977685E-4,3.954062026537851E-4,-5.629072535539842E-8,-7.117516870737582E-8,2.0260389688559976E-4,2.7173058922583406E-4,-4.068288530584907E-7,-7.466634531273516E-5,2.597811280305134E-4,-2.5586178398763873E-5,2.585808471463991E-4,2.164966110436994E-4,-4.123238660028208E-5,3.4158300266692285E-4,-1.418648324588747E-4,-1.6342027363126582E-4,-2.7179602955159125E-4,-1.3013244178684212E-4,3.8544190767550836E-4,-2.3234227537231934E-4,2.445459445459834E-4,8.868863135947066E-8,2.5095558562853316E-4,2.668691970348659E-4,-2.742618974554662E-4,-1.0832432533553815E-4,-6.687135849126313E-5,-1.481871948248467E-4,1.5845114276096014E-4,6.06037887579725E-5,-1.1320648807921247E-7,2.4519489021537555E-4,-1.5686971718924245E-4,-9.713554204335439E-8,-2.725798707824626E-4,-9.373892994107108E-5,1.4041951559848461E-4,-7.800284245655188E-5,-5.3529339802124334E-8,2.1885708642897393E-4,-4.923548077182022E-5,-2.936131000581203E-4,1.859056639465573E-8,1.391842954834778E-4,-1.0299013712442111E-7,-3.1828528269865097E-4,-1.2527673900398877E-4,3.4889205052526584E-4,-1.3156412250284985E-4,-1.4179683636861013E-7,-3.5468592947947514E-4,-1.714883587602301E-4,1.367846465884646E-4,-2.2014092280100964E-4,-3.097066716776657E-4,1.1707464832665907E-4,1.0363965520901736E-8,2.3887757281090314E-4,1.855217018181869E-4,-3.315865596168401E-4,-1.2504153663852303E-4,3.068456232768844E-5,-3.6549394906533385E-4,2.2121209786965821E-4,7.857992058538466E-8,1.3465571312521105E-4,2.725767981032604E-4,-1.7489753653721838E-4,1.083279748097613E-6,4.0602808465172894E-4,-1.3917495727390954E-5,-1.322921797643087E-5,-1.72652392666321E-4,-1.9463810620120833E-4,8.41775880309244E-5,-1.0395990531401808E-6,-1.8534465407783358E-4,-6.467177932020867E-5,-2.5029958140151135E-4,-1.2737880504875577E-7,-4.224943575634171E-5,-6.388716192225742E-5,-7.057232866991857E-8,-1.2086706717850753E-5,1.1861456143251414E-4,-5.302215542876269E-7,1.7672991073163877E-4,3.2960583117983347E-4,-2.9960907751603406E-4,-2.6354822549276547E-4,-3.0781847682770754E-4,1.6203933629767247E-5,-3.357266832656376E-4,2.2465305119423668E-4,2.5154754689944784E-4,3.314712129257225E-4,4.819978011791552E-5,7.21914141220433E-5,1.8756128137308357E-4,3.4244740017654176E-4,3.536985803747652E-4,-2.273142862251559E-5,-1.7593315177358778E-4,-7.5316734674187306E-6,4.0428771578128334E-4,1.848349633714559E-4,4.302071271083657E-4,3.858052595751094E-8,-1.1937598847278966E-7,2.7655402883587166E-4,2.1416356356194517E-4,-1.5979074021329863E-4,1.6176867167457955E-4,3.4175216951999067E-4,1.3533955506693884E-4,3.174558741948546E-7,-1.559944555777772E-4,-2.9788955628201317E-5,-1.6588261293899563E-4,-2.395017558592674E-4,2.5421303704535204E-5,8.018899193658753E-5,-3.2397543936532874E-7,-3.65973260880262E-4,-1.794669000552052E-4,-6.692875050071859E-5,-1.070748728362419E-6,-5.851172759083633E-5,-3.3117940057760773E-4,2.4469558206003558E-5,4.483570406903076E-4,2.0900558505064016E-4,-2.1594325494156882E-4,-5.788400749441667E-5,-2.1988706802369927E-4,3.1442992709176004E-4,1.1974454336272813E-4,2.7483417702377764E-4,-1.3853089702844365E-4,-2.485109082942748E-4,3.737576070113228E-4,4.398752306490189E-5,-9.125199271129495E-5,3.1643165215494717E-4,-5.066939439821111E-7,-1.0482393374004872E-4,-1.4206519819192406E-4,-3.5666907262297734E-4,1.0810008177564887E-7,-1.7469030701881683E-4,2.1227414037547408E-4,-7.090311649257636E-5,-1.3934592123104448E-5,-3.170425030760425E-4,-1.6950096399539404E-4,-2.871737900782871E-4,-1.222266804601857E-4,1.4320004661705132E-4,-4.028200984663594E-5,3.065130469349652E-4,6.410980415064583E-5,7.009655312385791E-5,-8.557345318610163E-8,-2.5918834721743724E-4,-2.835261824846164E-4,3.6348792910252637E-4,4.360488843421548E-4,4.666323086710289E-4,-7.979387534158157E-5,2.164220284083416E-7,3.1486923759618894E-4,3.2372420437670724E-4,1.5467718922973863E-4,-1.4980368364625162E-4,-4.418102964530539E-7,-1.2937478998819131E-5,3.331991640373882E-6,-4.278737299626855E-7,4.215328909884239E-4,2.14482325884359E-4,9.184739771180858E-8,4.779742238198542E-4,3.242103041734301E-4,3.0978768885600317E-4,1.9480468564295365E-5,3.2715878267298727E-4,9.728945541722387E-5,1.6774419513148573E-4,2.180929713603672E-7,-1.7950230659584472E-4,-1.4041682654102893E-4,2.430539104145646E-4,1.2954920584071504E-4,9.42946502744724E-5,1.4240547943266896E-7,-2.5259348569962853E-4,-2.3972770386481148E-4,2.1430367417009639E-7,2.2657697602940555E-4,-2.837665929177902E-4,4.354127366209503E-4,-1.0770631887088814E-4,-9.537116243527334E-5,-3.267378096769347E-4,-3.127768103461963E-4,1.6656534616835309E-7,-2.3167391355456292E-4,3.069054619463942E-4,2.1616117571289335E-4,-1.4502104009241198E-4,1.3102968629535954E-8,1.641667822672033E-4,-1.4924653317060688E-4,4.0807894152363746E-4,3.277714617380992E-8,-1.780668546683954E-4,-2.13780737233225E-7,-1.6991576096450205E-4,1.0584037609983181E-4,2.473292106503176E-5,8.484350142197447E-5,3.183605147221535E-4,7.032924898683403E-8,6.382037264167741E-5,-7.59509373948762E-5,5.1982256386123796E-5,-3.6721128114464976E-4,4.420120057459713E-4,1.7303936238349698E-4,1.988355386293391E-4,3.8588285239420084E-4,-3.560063058424178E-5,2.542524454834322E-4,-3.489152485800178E-5,4.3584407008638343E-4,-2.542675831302212E-4,1.02185665336159E-4,3.946347659465151E-8,2.2983251859507285E-4,-3.0245712922330454E-4,1.945416969862267E-4,1.4217694416354638E-4,1.634842415865999E-4,-3.577955484952E-5,-3.626985992052822E-5,-4.300110037004503E-6,3.9549353854911564E-4,-1.00367227187644E-7,2.3298839792004322E-4,-6.192406185504412E-5,2.4325074915724354E-4,-2.1235274769943374E-4,3.295073075588997E-4,3.6126034431608093E-4,3.309610942228819E-9,5.247416731790536E-9,-1.1832034930209154E-4,7.0083617800468E-5,-9.419291702807524E-5,-1.456946202545909E-4,1.1762052342974067E-4,3.8097848490147306E-4,-2.8070165895598684E-4,9.385328034615697E-6,2.947219557458715E-4,-6.345641822460181E-5,6.359457111923494E-8,4.919066133585968E-5,3.20407811873944E-4,4.026339611686108E-4,-2.063273207860055E-4,-3.4835985910954464E-4,2.1761294388057592E-4,-3.126981505876898E-4,1.8087401932669057E-5,-3.104943768612334E-4,1.6854248634241414E-4,-3.249501345320713E-4,4.1459577280232845E-4,-1.2362737019651074E-7,-3.449833424765949E-4,-2.8079863726714567E-5,-2.559416057093574E-7,5.0482110491146406E-5,2.982884945890557E-4,3.5899243581202057E-4,1.2001357584423967E-4,2.0677154756110596E-7,3.4210053396384327E-4,3.822437035097337E-4,9.688952254259808E-6,-1.106528740754814E-4,-9.384114722707061E-8,-3.676241353746678E-4,7.655716846727287E-5,-3.188334171360787E-4,-1.0799008305191506E-4,-5.862808207316919E-6,4.049909971888494E-4,-4.0076319477505235E-5,8.850071388553898E-5,3.4228853663281246E-4,7.937173391317992E-6,5.4151005690550946E-5,-2.504486445619598E-4,7.26723920656753E-8,6.353585236593035E-7,-2.970977859429682E-4,2.0331240666493226E-4,-1.2487213534342716E-4,5.693910439442096E-7,-3.0721101679249903E-4,-1.2084580701057328E-4,4.1858320286720604E-4,3.242294311651186E-5,-2.5311408480101856E-4,-2.3265124795848413E-4,-1.0542068164219017E-4,-2.56661901065045E-4,-3.2114706765122824E-5,-1.2652730288745397E-4,1.630833166748148E-4,2.1294451994191636E-4,3.6924069076392155E-4,2.536564455547862E-4,1.323506529078903E-4,1.188529686836423E-7,1.507746682226108E-4,-1.6961275427692185E-4,-1.637893004618905E-4,3.675524383862122E-4,-1.2025214574425492E-4,3.287842273464579E-4,-3.103832444906161E-8,2.6986989476960623E-4,3.369226492039197E-4,4.44785405581009E-5,1.4695012327495244E-4,1.386051809932256E-4,-3.161414115534476E-4,-2.5665857801971974E-5,2.16534746015783E-4,-3.114358329416988E-4,2.6646976179396696E-4,4.551332537919429E-4,3.24077726863366E-5,1.6563566500379974E-4,-2.064398237912519E-7,2.1197177406861466E-4,6.339324178085641E-7,6.656782681186195E-5,4.157804810301489E-6,-2.0492474498673337E-5,-1.3548063909110965E-4,-1.0237638922487305E-6,3.4513931004594395E-4,-2.35431618792656E-7,3.280300776676934E-4,3.254059394593275E-4,-1.3384432961844022E-5,-7.893810617868246E-7,-1.3407516177083492E-4,1.4173390713580593E-4,-2.5788631815626867E-4,2.286634904698881E-4,-1.7268900238605415E-4,-3.5826588969198596E-4,3.615853806946399E-4,8.640989814575588E-5,-7.07500731592847E-6,-1.1598151251887813E-4,5.888470214050306E-4,4.408261766039545E-4,-1.6661393604790919E-4,1.8526506977660466E-4,1.7381448631015645E-4,-4.476822331473446E-5,-7.336840320430767E-7,-4.4321509381030926E-8,2.519247288777293E-4,1.54328185117538E-4,4.7998790881181825E-4,3.7370594413216286E-4,7.805330596072913E-5,3.3153339007683917E-4,8.64165733568129E-7,2.1897175578671518E-4,-3.6798414939492924E-5,1.2371779956025302E-4,8.011056554016887E-5,-3.160174576623991E-4,4.2177198858651347E-4,-1.825626092999619E-5,3.684992540939008E-4,-5.520972704434752E-5,-6.691744059435203E-5,4.1491329251798774E-4,3.435209272092243E-4,5.598546988087182E-5,-1.449067294809414E-4,-1.6370474665032938E-4,1.653863921668778E-4,7.736619443298436E-8,-8.189426585252675E-5,8.285518686885173E-6,-1.6246710500515313E-6,5.791218616400797E-5,-3.277677513903141E-8,2.2862490834941383E-4,-4.865126960926862E-7,-7.432640817222823E-5,4.4380796379149296E-4,6.776704179852213E-6,-1.1726843773462938E-4,4.03625189173689E-4,-6.772722965372485E-5,5.16423589388546E-7,4.0107855681035344E-4,-2.3691104081217696E-4,2.1518351103764753E-4,-3.45837944569856E-4,6.425687049349852E-4,-6.127457053346706E-7,-3.980574965289404E-4,-1.013635300327597E-4,7.031220896396428E-5,-2.7914288491782816E-4,-1.4633296008772194E-4,2.016475336381855E-4,2.0641967058609558E-4,-2.575080981620902E-4,4.3131421221241173E-4,-2.383476798519162E-4,-3.299195895422988E-4,-1.334891034710902E-4,-1.7230752895431285E-4,-2.4994815285990236E-4,1.641786755598291E-4,-2.0404905228835925E-4,8.045041987253254E-7,-1.891990811109264E-4,5.876319180759856E-4,-5.9345964510849886E-5,3.067607378711413E-4,-2.2689153327426503E-4,3.926355222495E-4,-1.0747669473078676E-8,3.522211230371017E-4,2.5818211184838003E-4,4.1436756573334506E-4,1.1258416699436944E-4,5.151643313009878E-4,2.535546517502187E-4,1.6842403406819856E-4,6.287010643739039E-8,-1.198127363167511E-6,-1.9275842969024642E-4,-1.7285435417083728E-4,4.6102379620825167E-7,2.822146403692429E-4,-1.511460236108514E-4,-1.8036531497219049E-4,-1.29844017246614E-4,-1.679500036258159E-4,-3.778992753896693E-4,4.4953346284910465E-4,-1.8460169850713823E-4,-2.5890503026284207E-4,3.8741476252092085E-4,-1.8767359818695712E-6,4.216202303228047E-4,3.239189465143134E-7,-3.58848051547605E-4,4.2561568752889857E-4,-9.009116231085877E-6,-3.2244042837042134E-4,-6.234895479366726E-6,3.630790781835006E-5,-3.227992543278941E-4],[2.3589761569986202E-4,4.487350949431689E-4,4.026282898405382E-4,-3.26444243002515E-4,-2.1546053920799683E-4,3.168908633453717E-4,4.6728002718640963E-4,-1.1274529041885808E-4,2.2609877708632697E-4,6.726013511278336E-5,-1.5733988536879636E-4,-7.587079906120385E-7,-6.541342359248503E-5,1.4554426796491455E-4,3.819801834610986E-5,-3.5202214149098215E-8,4.024357616803599E-4,4.5887799476962746E-4,3.5136753477233205E-4,2.2698365334872017E-4,3.3190950045149E-4,4.1352157990612656E-4,4.742777513252681E-4,2.3241694196317458E-4,-3.5899616316099854E-4,4.368903123780221E-4,-3.098617398884488E-4,2.1835276028840122E-4,2.3875188869100627E-4,4.429240535553577E-4,1.9160597972268955E-8,8.89001709386062E-5,1.970111359825928E-4,-2.672281356881149E-4,-3.2140881176116135E-4,-2.4498628054065336E-4,-1.597110212426155E-4,9.353960300732262E-8,-2.733545004314968E-4,4.074307546207051E-4,-1.3289348626583394E-4,-1.8692210124252718E-4,4.921324871291976E-9,-1.222945311324363E-4,3.196413258688926E-4,-1.6201094018685407E-7,-1.6491274568077808E-4,-2.500520118103519E-4,-9.685555711612088E-7,1.396468054920189E-4,2.0100851370635065E-4,-2.2613609249597905E-4,-4.093947273436707E-5,2.2560402664871204E-4,2.686734993902348E-4,4.704379952308964E-5,-5.1937397341846094E-8,-1.6290415233603697E-4,1.377666113009313E-4,2.608761570239909E-4,1.3249938353131028E-6,1.843172701625856E-4,-2.1926667659625848E-4,-3.6810488630082815E-4,1.0335346597679776E-7,1.2904417791559288E-4,1.6390161492730318E-4,-2.527141828225871E-4,1.1654786529926445E-5,4.303192167087155E-4,-2.3329256337075547E-4,-2.0151164134622321E-7,-1.4956484718366586E-4,3.850380096840364E-4,-3.471023257679601E-4,1.3737397825685257E-7,7.997084693163769E-5,3.1931926746060156E-4,2.627643449111003E-4,-1.6019428954470593E-6,-1.710339378055121E-4,3.0360242111697374E-4,-6.1273986332691E-6,-1.0306090206114323E-5,-1.222783377313407E-7,1.4390323725221884E-4,5.330787781769214E-5,-2.5467955711653184E-4,1.2977074679068625E-5,4.150016279480631E-4,4.5638842118520115E-4,1.5587155815344344E-4,2.4892558583287965E-4,-1.9845657627220972E-7,-5.662541174111251E-5,-1.0620467185510757E-4,3.8516686571914377E-4,-1.676317910134836E-4,2.0782220093379074E-4,3.81303375700678E-4,1.241412648503976E-4,-3.384924556017702E-4,-1.0427901985439275E-6,-1.075332796628471E-4,1.398393392077091E-4,-1.5923466296762425E-4,-9.802083299223464E-7,4.312978314053711E-4,-1.6100374100040964E-4,3.8578425726311486E-4,-6.528229713685225E-5,7.694050029357999E-5,-2.68961605295406E-4,5.5697119403306536E-5,4.512498690337459E-4,2.60416936467191E-7,8.439288314979634E-5,2.723214628288984E-4,7.426235141481163E-7,-2.803520049342186E-4,9.122367389890269E-7,2.2431719083509257E-4,1.3296402461052107E-4,2.1550562694181612E-4,-6.599287757713532E-5,2.9882637026549938E-5,-3.136155543329467E-5,-7.985151647700382E-5,3.1737405058921775E-4,2.4359626883709262E-4,3.937482128191372E-4,1.3170750192297045E-4,1.0831977231024022E-6,4.323415286412953E-4,3.370630003706465E-4,4.2389687200250774E-4,3.641360344466684E-4,3.0869484345897967E-4,9.552262153154751E-5,2.2959557171240597E-6,-3.655909868850665E-4,-3.6107886016630643E-4,-7.388713982101991E-5,-2.726967021526872E-4,1.4712887719911224E-4,3.7199660328687047E-4,-2.4699818521098024E-4,-1.1621009912543565E-5,-8.5069829529416E-5,1.7663279206530297E-4,-2.1263076899137126E-5,3.7689817043839237E-4,-1.411482156221384E-4,1.2523080080270696E-4,-8.689265020810494E-5,2.255572286107931E-5,2.998273591513843E-4,-1.1781748135154029E-4,8.462080769604583E-5,5.110651161897085E-5,-6.165051874392736E-5,1.9918032934668683E-4,5.774073889374079E-4,-3.177817959409871E-4,3.305936521687563E-4,-2.165307380445068E-4,-9.655087691193519E-5,7.070374951238471E-5,1.110713934908258E-4,-5.134387561971056E-7,-6.33133674151103E-5,-9.80596563827E-5,-1.2078900363227817E-4,-1.043207469988133E-4,-5.380625882422622E-5,-3.1528916388264645E-4,8.840883964685023E-5,7.176229960357164E-5,7.471186882705347E-4,-1.718923623433957E-4,1.2040621581289277E-4,-8.823314499406754E-7,3.3685445495854977E-4,-3.4215107492820303E-4,-1.8550892559517172E-4,1.0071281537670728E-4,-2.475034019257266E-4,3.343844594192914E-4,-4.593855668471853E-6,-1.131066521396409E-4,-2.656210627111328E-4,-8.145693454753831E-7,5.363186567137382E-4,2.1584719875429584E-4,1.7556706682598827E-4,-5.496577703222193E-8,-8.913968984903667E-5,-4.768669168716961E-5,3.196057045898308E-5,4.253234245520527E-4,-4.2217625606291693E-4,8.154891365388131E-5,1.9533843670139277E-4,1.1259004344575304E-4,5.2402133394133823E-5,3.5730168884689286E-5,-3.399361293527277E-4,-1.590449102351255E-4,3.880982166795452E-4,7.365517370260366E-5,1.7443290579186979E-4,-1.2212758681203161E-7,8.977815965048662E-5,-2.1968650816232266E-4,-4.4096914616580644E-4,3.1156988397371433E-5,-3.317964395213585E-4,3.749352561079627E-5,1.7666181626395483E-4,3.8871640093289506E-4,-2.4331258298956616E-4,1.1302024204481519E-4,0.0010203983263504237,-1.9666574864641553E-4,1.1727077061741037E-4,-2.866841489375269E-4,-1.4662134240044913E-4,-1.1695822652695445E-4,-2.3427509465026348E-7,4.1935880993727913E-4,1.1233281145597843E-4,1.337368148342653E-4,6.143566740793319E-4,3.5714204996730494E-4,-1.9273770141786545E-4,1.9435082981623906E-4,1.930875566033188E-4,-1.7625182224235606E-4,-1.6872717342869483E-4,-1.9469630029239152E-4,-3.323943500022571E-4,3.382904726676524E-4,2.2076199942894535E-4,-1.3741870621842E-6,-4.993306327867649E-5,6.872238256622276E-7,2.5052619325622054E-4,2.246437250009312E-4,-1.0118830710050287E-4,-4.3557486495715506E-7,-2.8489212515095494E-4,-5.064990050684856E-5,0.0010057418616542099,-2.2298035534001443E-5,5.04703462288532E-5,-4.2836662749718465E-4,-2.300685170598384E-6,-1.3213577562125713E-4,2.562233163140226E-4,1.723703867671378E-5,1.979788003939285E-4,-3.187593852519257E-4,4.945354454933946E-4,3.6792030502593603E-4,1.4239426577071693E-5,3.0306035604578467E-4,-3.3547045214755273E-4,4.544973617947315E-4,-1.6182247204702538E-6,4.83958482747347E-5,1.8885440612843348E-7,-2.6965693173564524E-4,2.2745220223109448E-4,-7.116337241747516E-7,3.8227173029326445E-4,6.981550269112516E-5,1.3153707081305096E-4,-6.085629842833559E-7,-9.469850684169512E-6,2.4931315134913047E-4,2.350896555727109E-4,1.8310888374682187E-4,-8.62177731248093E-5,8.840147029810083E-5,-9.036094262355776E-7,-3.6475594744156604E-4,-3.1044967557641916E-4,-3.009674468614529E-4,-2.0028972756778193E-4,2.94259581972349E-4,1.9198868459861877E-4,4.629312041551097E-4,1.6773334376918273E-4,1.9462748251798686E-4,2.748515443569435E-4,-2.0033426058099624E-4,-1.4226182407802693E-4,2.8798037811307944E-4,4.176106394984384E-4,4.073788412557838E-4,2.4937398475309916E-4,-2.013596305534096E-4,1.9327265948484914E-4,3.410891337245962E-4,-8.972658291448189E-5,-1.5252405066557015E-4,3.5203260921781666E-4,-1.7825098299059812E-4,2.0154946361392955E-6,-9.969068223758484E-5,2.7700529672364916E-4,8.971520931477018E-7,7.190285694423568E-7,4.2697667174102714E-4,-1.0669504514233942E-4,-1.4391041336888743E-5,2.2650334459935483E-7,-2.781355922937962E-4,3.77311313417696E-4,-9.849867204277601E-5,3.0077203027489087E-4,4.565509642986184E-4,-1.7543486800719208E-4,-8.458699903966562E-7,2.9607757007438733E-4,3.9169608545004865E-4,4.3567303464065317E-4,-9.159035158125854E-6,-3.241056942655211E-4,2.3027467618842154E-4,1.5541754578979845E-4,2.2524288567789675E-4,2.5381198036653025E-4,-3.4459302516804313E-4,3.9405645515812115E-4,-4.082702607828817E-8,4.1452551845070745E-4,3.970816497954652E-4,6.7194481320434E-8,-2.2515254836168478E-4,-1.017610507721929E-7,-3.3578702940865296E-4,2.6733972117258927E-4,2.80099468330956E-4,2.218402662508439E-4,4.1745501050330456E-4,-1.1593471934958221E-4,1.8953013896243028E-4,-2.5387376964101856E-4,1.256060078332623E-8,-4.513511615141486E-5,1.3187476358575745E-4,-9.685778342789389E-5,3.53360008577005E-4,-1.1590480838058492E-7,1.3366701444863691E-4,8.848722859659282E-5,-6.462534849091358E-6,2.2481201982207686E-4,-2.0224640979926876E-5,2.751591606539074E-4,-2.0379382356086953E-7,3.717452501910209E-4,1.6794074467318866E-5,1.8508028101523174E-4,-2.0112514872481025E-7,4.609989719978E-4,-5.868569191219328E-7,1.198517656090662E-7,-2.6022357854198056E-4,-3.216414353658114E-4,1.2880612803606152E-4,4.2025611943823945E-4,3.93893759128025E-4,-7.511849604541187E-8,3.5718779811839464E-5,-1.1320504688305645E-4,-1.7071279193541666E-4,-3.615993942947925E-4,1.457094525545612E-4,4.0688693830727023E-4,4.4294889458763046E-4,-1.3641218107676324E-4,-2.814088698159093E-7,-7.905304295314868E-5,4.834963798156168E-5,-2.160636847150215E-4,-1.4073302403338713E-4,2.6730530994175424E-4,3.2008210044176445E-5,2.9430264159095005E-4,3.343838125681761E-4,1.3963497420359813E-4,4.4346297861505134E-4,-3.4719126529458134E-4,8.108250124838707E-6,7.74402875459708E-7,1.326289937989043E-4,3.079035122996244E-4,-1.9521478579231007E-7,2.5296469009914363E-4,1.1200082936636394E-4,1.1885809346006356E-4,-2.808621182007185E-4,-8.559093727687723E-7,-1.0425631305396598E-4,-8.114965055221809E-7,-1.0533937207364317E-6,-7.709039038781085E-5,5.2566233729174955E-5,-1.6121014461966104E-4,3.4987575365724326E-4,1.9883568117785717E-4,2.6475081977216645E-4,2.9649602400770895E-4,2.3950044732304343E-4,-3.6931311824673514E-7,-3.021419386061493E-4,2.1325047124054749E-4,4.1128044629187865E-4,-1.408987508279058E-5,1.248416993109619E-4,1.3809695896081775E-5,-3.775390819737909E-5,1.9427857959016486E-4,1.4089126133599102E-4,3.297382958335641E-4,2.784515090685492E-4,1.4262415008474918E-4,5.072184452706482E-4,-4.788242837394354E-4,-2.3563325053406703E-4,-1.0804426560223042E-5,1.534958009701859E-4,2.1220859230569364E-4,1.9474437799948567E-4,2.2209623979137021E-4,2.692630644692428E-4,5.320414664171211E-4,1.0841838146523857E-4,1.633300419849385E-4,8.302330494177875E-5,-3.411769174873973E-7,-2.802835654535064E-7,-2.5237110574426684E-4,1.868602476357925E-4,-2.946448141320719E-4,3.0421021215938697E-4,5.563428375286923E-4,3.8873706255837656E-4,-2.4497963516533156E-4,-8.497559131237513E-5,-8.12683613116455E-6,-4.7423400100953845E-4,-1.3302404391703278E-4,-2.9554647290955607E-4,-9.228250656593561E-7,-9.718467419581105E-5,4.326699936297086E-4,1.9180510563723824E-4,-2.080063419771808E-5,1.5405954770641083E-4,-9.410715520149398E-6,-1.1456768916887621E-4,6.010788809535737E-8,8.151854223252367E-6,4.697586799773101E-4,8.725856214368033E-5,7.061432392257919E-4,5.407129011363366E-4,-3.382334589113164E-4,2.358592025902766E-4,5.226526405389247E-4,1.2646395844400656E-5,1.095598975548325E-4,-3.812972121798575E-4,-2.0089566956684062E-4,6.372951462424542E-4,8.386975320184035E-4,5.307475031029965E-4,4.4957511774597666E-5,1.6876147457088233E-5,2.8575200530797044E-4,-1.1808423482537299E-5,5.901081098771638E-5,-1.60348329367273E-4,-7.506723539410901E-5,9.319608746940202E-6,6.196006104382468E-4,4.3649226797294605E-4,-3.384905704216952E-4,-2.902010911653406E-4,2.9151306184514096E-4,-5.1164489602312516E-5,9.424764924291134E-6,-7.170131458576324E-4,2.0382133561361996E-4,4.18358652827572E-4,8.601165572314136E-4,5.771735200022288E-7,-4.3455624948166184E-5,4.342648999155526E-5,2.6431147558049545E-5,8.830314187438171E-5,-2.4025323731131428E-5,-1.7785979958879908E-4,2.5754024106169904E-4,8.831633634533423E-6,1.5282827789703268E-4,-3.2511091684087165E-4,-7.817225756627278E-5,1.1772993885771924E-4,8.954763969365736E-4,3.0355255419618432E-5,-1.4356653901533337E-4,-6.293231668971227E-4,1.4652817391367325E-4,-8.930195033481919E-7,-1.1754025997438465E-4,-3.0704390798249665E-4,-3.608193146217819E-4,3.782149476151887E-5,4.619260861684991E-4,-1.2233765716656604E-4,3.3320516434637994E-5,-4.843099334832859E-4,1.452259106143561E-4,7.979057419919787E-5,3.146424422518729E-4,-1.4066933112576654E-4,1.8155515933475887E-4,3.652483491655239E-4,4.309379919546235E-4,-1.2276463157136016E-4,5.131071716543303E-7,-1.040497294202826E-5,1.8403950122652975E-5,1.1122458010473946E-5,3.3327848952835123E-4,3.230211834750709E-7,2.732072757688346E-4,-6.647976480373155E-7,8.633176006193355E-4,-3.4699249193011764E-4,-2.778090427111453E-4,-4.0612148531242695E-5,-4.0595006746108695E-6,2.648301891110222E-4,-4.649391460547822E-4,-2.2645554770108644E-4,-1.440521418150184E-4,3.0572378738541076E-5,1.4775259348748866E-4,2.6727196864593427E-4,-6.644927093854733E-5,1.046547695271315E-4,-4.735887849872471E-5,5.284676535041959E-4,2.919346628293054E-4,-4.232300006519594E-4,2.720621945388317E-5,3.051223792747499E-4,1.5610258716411082E-4,-2.2303263570932535E-6,-7.265947482327337E-5,8.557543417805516E-5,2.9207303316539752E-5,-9.255320019971745E-5,-3.11050149862233E-5,-2.04864747961671E-4,4.50234266045363E-4,2.138209177306371E-4,4.896917716175982E-5,-3.646458366491821E-4,-3.059585011042367E-4,-2.843138463212905E-4,1.944107749438144E-5,2.799282668088457E-5,3.746276624961233E-4,3.1141415675943164E-4,4.800872514507773E-4,-1.689437867033463E-4,1.6662164114197096E-4,1.893278752961196E-4,-1.848075972308591E-4,-6.634652216618086E-5,1.1614913518162387E-5,-7.855691861865641E-7,4.249044621731125E-4,-1.8125408547608736E-4,1.0131687005947456E-4,2.7340410097456024E-4,4.7207731779923804E-4,-5.2364921096961E-5,9.030699539456385E-6,-1.527279726736449E-4,-1.0058488274916331E-7,3.8810666819567033E-4,2.6866284087547462E-5,3.9805122872029153E-4,2.1944608764970088E-4,-8.842391237323733E-5,4.3589808570630343E-4,2.507597162456214E-4,7.513796663444589E-8,5.1504654847896285E-8,3.841546367178903E-4,1.954195742117885E-4,-6.891462898402107E-5,-2.3184832107960886E-4,-1.2954071036286086E-4,-1.479561809607628E-4,-7.422346801857525E-7,-1.578383518663954E-4,3.251859493757753E-5,1.9422708168501782E-4,2.848244268835253E-4,-1.258073608174309E-4,-2.1357394616330689E-7,-7.655287365468184E-5,-6.551069901433254E-5,1.8216616940851497E-5,-8.658167218499059E-5,4.422755463308931E-4,2.086491305085786E-4,2.169930660337975E-4,-1.8665051852616386E-4,3.1278719585457504E-4,-8.514734871755596E-6,3.9193877065763486E-4,3.8516246385453614E-4,1.8745666300301687E-4,3.4951150913425444E-4,3.994898964307697E-4,1.7637015267031248E-4,1.5350784034567043E-4,-6.357102673709864E-5,2.492236717963004E-4,5.5025590064482263E-8,-4.7768045774068523E-5,-9.861315309473558E-5,3.163064358871296E-4,-1.8007497550656E-4,-2.755578699362838E-4,-3.68824246084032E-4,9.241084974573027E-5,3.67591057494643E-5,-2.3247419820644218E-4,1.4531540917648035E-4,-1.202090604220626E-4,-2.2952873378558088E-4,-2.359096381922926E-4,6.877796375093361E-6,7.003185154453616E-5,6.876189348380525E-5,4.343276357139906E-4,1.3672310529514096E-4,2.1891339166309087E-4,-1.2773905287441032E-6,1.4595677117627863E-4,1.2697274655904168E-6,-2.8944653295293987E-4,-7.327971500225387E-5,-7.515426268929438E-7,-9.212819628669004E-5,-9.799643135608107E-7,3.68905713430779E-4,1.4450388475474257E-4,3.60196538327284E-4,5.536517005012264E-4,8.538281760722913E-7,4.6918174442857234E-5,2.0301603815437046E-4,2.0507991129608302E-4,-3.306744902478945E-4,1.4097645604401507E-4,2.519971894102895E-4,1.391772159339035E-4,-1.6449412282319078E-5,-1.2060063701198043E-4,3.7850268288249666E-4,-2.869724696444404E-4,3.211344708914577E-5,7.032853721754669E-5,2.0427249794888931E-4,3.928286106779021E-4,1.0247531550217687E-4,-3.7013986802395243E-4,4.4901128211717877E-4,4.7483500204814925E-4,-1.2636331053369717E-4,8.964157973972603E-6,-3.1731044727849555E-4,-1.0505737868580791E-4,-1.8769094242247533E-5,-2.506440144697768E-4,-3.763956890160703E-4,-2.6446502469060814E-4,2.8354129270636804E-4,5.077853237355823E-4,6.244997887995315E-6,-3.691200627157378E-4,-4.079705165044879E-4,-3.5871782546391433E-4,2.320025333724546E-4,-3.3069186598395423E-4,-5.29562666286389E-4,-4.1374588974954474E-4,6.199977285378837E-4,7.017830224767983E-4,-2.5518791973384565E-4,-3.0126975713469815E-4,-1.3064077761372443E-4,-3.0238848799308984E-5,1.079612830821426E-4,-3.294124498530159E-4,1.1916897147924759E-4,-5.059925988038808E-5,5.303553606608831E-4,3.313270012656623E-4,1.3784573987652256E-4,-2.5481116464274957E-5,-1.893639903571506E-4,9.995443231623021E-6,-3.330069543263907E-4,-3.539289571366449E-4,-9.356903792836842E-5,-1.7287451747148333E-4,0.0010111124993852656,2.833638925740686E-4,-2.4146705445476062E-4,3.865181568277764E-5,-5.384963724996693E-4,-5.887736003604057E-4,2.9982494118747737E-4,-4.1277639120782536E-4,-1.9378962690665678E-4,2.179170795510085E-4,0.00109319628445676,4.365517685592088E-4,-5.036872578108995E-4,-2.0355142719313992E-4,2.8276127243008676E-4,-4.487725706458554E-4,7.317612472757196E-5,-3.5246168213920784E-4,4.290418460946619E-5,4.690443153532503E-4,5.055618290833298E-4,1.2810572368201673E-4,-1.7441672443525272E-4,1.78612072353103E-5,2.171784625480895E-4,-9.430906859773152E-4,4.4604109967067904E-4,-8.841893954436843E-5,3.938709648852975E-5,1.321465545736592E-4,8.071481522333683E-4,6.652846599236978E-4,-2.0727661289557462E-4,-1.167055543112281E-4,9.203147541329971E-5,-9.277605118121692E-4,5.454104225027805E-4,-9.052164591572587E-4,0.0010047858463559387,1.2318281722551477E-4,9.922410270952488E-4,2.1319293882530337E-4,9.509534765577394E-6,-1.4762344743684085E-4,-1.773504695281877E-4,-3.396390673291341E-4,8.594359925814452E-4,-3.566296273645638E-4,6.850867371253921E-4,-4.7460235623297765E-5,6.981240763384122E-4,5.953767947095932E-4,-4.0710655681050294E-4,3.4041090722127552E-6,5.034135701990204E-4,-2.582997745115723E-4],[6.137627732772958E-4,-9.576319123361225E-4,5.031665664873111E-5,-1.1935617811650477E-4,6.20099664797871E-4,3.1368995948227106E-4,2.8592930147099105E-4,-7.186207577354755E-5,6.057705555589764E-4,-6.874017356902485E-4,7.666911234225273E-4,-3.8896483626614194E-4,1.700217181472423E-4,4.0669620459504437E-4,4.8169711385192936E-4,2.2610961616998942E-5,3.837994763951177E-4,5.299027444027109E-4,7.637208382279737E-5,-6.546054272110211E-4,1.2104554496310069E-6,-9.830634312196708E-4,1.4690271419107897E-5,5.104449658585454E-4,-7.009228997138813E-5,-1.862893157027866E-5,2.271445806855881E-4,5.439459774655296E-4,4.130630298608683E-4,-7.204269916030466E-4,-2.2722058526861196E-4,-7.79635015103451E-4,-1.4544263988611192E-4,4.427374503421704E-4,1.7238730743780015E-4,-9.314412872233154E-5,2.968187786835354E-4,6.953688091066623E-4,2.1751156021137464E-4,-8.739291310629436E-5,3.011857007474745E-4,-6.722732057380206E-4,-3.011238755485102E-4,4.2894524927638677E-4,2.10409841372556E-4,2.2255664820806776E-4,9.456396326904471E-5,4.596622378025736E-4,5.807850282230292E-4,-6.4495028221781786E-6,-8.9423316413556E-5,8.707175237512265E-5,-3.837531054340331E-4,2.9729606763763606E-4,-3.426955623645224E-4,-1.9056156916053167E-4,1.1455475906872801E-4,7.772761800288867E-4,4.5072141437073335E-5,-1.1009026195540578E-5,2.7680821937818486E-4,-4.6834222809455064E-4,-3.782102609367653E-4,-1.5463564120535105E-4,1.3990821172986452E-4,-3.211745649799284E-5,6.396688572344706E-4,1.6851835631150335E-4,2.903473756583894E-4,-1.0218725643133915E-6,-1.4933127260832765E-4,-8.807480057199328E-5,2.716946035618564E-4,-2.530391675432758E-4,-3.3820285626790035E-4,6.107588535596078E-5,9.938883136979369E-5,1.8062186235036953E-4,2.0962834641124946E-4,4.096499750963375E-4,-4.122858485133082E-4,-4.0930489220385825E-4,-2.286838200178467E-6,-2.8464113091941954E-4,-1.007729546157757E-5,1.6054796898993149E-4,1.0739900523371611E-4,-2.9867603343282494E-5,-2.5965690887054223E-4,-6.9937832946635E-7,2.0354031721732738E-4,-1.3147218555819556E-4,1.0103708083655688E-4,-1.5099945409708263E-4,-3.4084814585528893E-4,-3.567442440719805E-4,-1.7389901390010322E-7,2.1798868152673873E-6,2.377201430046049E-4,3.544156617728659E-4,-3.599796935882014E-4,3.6692162446859715E-4,2.9579507306088298E-5,-1.5074352132178522E-4,3.101613203795576E-4,3.709858455051599E-4,8.126504992484609E-5,1.4812905244207368E-4,-1.7726898639522395E-4,-2.6415812575884167E-5,-9.164334681470502E-5,-3.201957659441412E-4,2.6851195696863555E-4,1.0595549748349556E-4,4.351861165191812E-4,1.584690442051271E-4,3.192548488076415E-4,-1.5399447651231988E-4,-2.715674198573426E-4,-9.18781742060395E-5,-2.31697841519788E-4,3.700543284595586E-4,-1.0776999611805887E-7,1.3784208387995697E-7,3.239643629577454E-4,3.590150603914723E-5,1.869876418658137E-4,-5.548686680966841E-5,1.135080684592951E-4,8.652215925623252E-5,-1.1372456251382976E-4,2.171321003892116E-9,-2.797439127755483E-4,-9.654542127227828E-8,-2.2603660124789022E-4,2.4039429051810293E-4,-2.5512513753708484E-4,-2.8392521240772333E-4,-2.838245627659066E-4,4.749557674127567E-5,1.285597244468E-4,3.990604031633575E-4,-1.7092102553857837E-4,1.585983709355299E-4,-3.7369752653610056E-4,3.343351037974817E-4,-7.703991007070317E-7,-2.221630283202752E-4,-2.3102174028028902E-5,-1.75181344409418E-4,-2.4481329449079105E-4,3.6201511715628916E-4,-1.6628424075318617E-6,2.5677154418422366E-8,-2.841890510614866E-4,2.8777727266420113E-4,-8.794546139853383E-5,-3.4839993816842673E-4,-1.031379323950884E-6,-3.060065530288496E-4,-3.496410528459774E-4,1.3372161755776754E-4,1.5844873715185545E-4,1.4669979704317156E-4,-1.7111337220023905E-4,9.812918141690207E-5,-3.356633162320088E-5,-2.0421549833526565E-4,2.9781021132342634E-4,-4.5806651318438915E-5,-2.3516534832933712E-4,1.8265950592240115E-5,1.1008789549391611E-4,-4.343860755535601E-4,-8.907428414369324E-5,4.1689008570101275E-4,6.354157066354788E-5,-4.7886687507248886E-4,1.7803849080058333E-5,5.169508663463672E-4,-3.7310785203407394E-5,-2.695599743191311E-4,-1.8306026417464896E-5,3.2440659944022663E-4,6.642059066707519E-4,7.749651175423112E-4,1.0173274487785141E-4,-1.6064823669384077E-4,-2.8703567751128703E-5,-2.728082231624748E-4,-4.1569387976807357E-4,-3.378938585746939E-5,6.08042020022478E-5,-4.1121552574512163E-4,4.1983146756211724E-4,5.342986748142645E-4,-3.936784635196708E-5,-2.0057928514377152E-5,1.3344099800523994E-4,5.8960053825406905E-5,-2.7432138506556695E-5,-2.1988484517102813E-4,-4.778711737784971E-4,-3.336155193876398E-4,2.504937624821588E-4,8.919447314143012E-4,2.3771880117335058E-4,2.1649943314874758E-7,-6.725631840036572E-5,9.522276336973609E-5,1.0713038647001213E-4,-3.146797971542891E-4,2.3472770392678598E-4,-1.0493110118553149E-4,7.648302890878225E-4,5.04809069886557E-4,-1.2993296484076937E-4,1.9934842129260127E-4,-2.3607911602141003E-7,3.0639306503119036E-4,-1.7502348468909103E-6,-2.1221969743613134E-4,-3.052680386152224E-4,-1.5164287464578894E-4,4.3658896721528824E-4,6.110177172631102E-4,-4.2475627066211965E-4,-2.6609603447209624E-7,-6.60021362173158E-5,-2.377823795223578E-4,-1.9324882431186036E-4,-3.95537245037278E-4,-2.1312720098325865E-4,2.0849481782274116E-6,8.142538308805693E-4,3.061067583607444E-4,-8.50396635207133E-5,-1.9996077999328606E-6,-5.43837921649474E-4,2.563355704695996E-5,5.186542307502887E-4,8.452972266684526E-6,6.133107088181283E-4,-2.764218528894546E-4,1.9254468634568946E-4,4.469508871654998E-4,-6.05300198910341E-4,1.8166505035705809E-4,-4.4852746176883855E-4,-8.93601593450101E-5,4.3027444023344797E-4,4.137475964568319E-5,2.1457394822699467E-4,2.124279139663116E-4,1.6780676826569902E-4,2.1118941794723238E-4,-8.186669984643598E-4,1.851070778923163E-4,-1.6374474857858776E-5,-3.7028419248213865E-4,1.3757227249813394E-5,4.3503104403725193E-4,2.5951630739970747E-4,-3.113692744467847E-4,6.054440116689205E-4,4.2022493247629634E-4,-5.66546637536095E-4,-3.9209116639837187E-4,-4.090872935078939E-4,-9.803455136237176E-4,5.24175529826258E-4,5.960486616398714E-4,6.669511488994723E-4,-3.0667507420233098E-6,1.1638622532375884E-4,4.446147316017344E-4,-4.511238985030622E-4,2.0166503155100097E-5,-2.7045224599104255E-4,-5.880966843999779E-4,3.1320117641564613E-4,4.223349835479121E-4,7.46308562623961E-4,-1.8396901525078637E-4,2.8383691055818255E-4,4.436331676826191E-5,-7.349287160919404E-4,-1.7777653240862387E-4,-2.6088030093735805E-4,-3.607269385750439E-4,-5.646207998347334E-7,2.868215378714483E-4,3.3963727086042356E-4,-1.8749629880106407E-4,1.8867216585949465E-4,3.0564392711971425E-4,-1.4979294438335908E-4,5.814732923779518E-6,-2.9752320514262284E-4,-6.789743875499578E-4,5.7039269716488E-4,-1.0487146556094467E-4,3.080419225621152E-4,1.5538945953388398E-4,4.205748220967393E-5,-9.501204660332407E-5,1.9358686604334206E-4,2.891553500309691E-4,-4.1008894987696026E-4,-3.010067311020573E-4,4.8747935950480686E-4,-1.5823052341848795E-4,-3.664604317075151E-8,1.014648300041826E-5,-3.2758452898083246E-4,9.207655387727773E-5,5.750874267372153E-4,1.306913455596945E-4,-3.0280941418914806E-4,-1.2010694038630662E-4,1.5197223058733653E-5,-4.0679279147353336E-4,-2.9717827012356136E-5,2.8291190502729085E-4,1.3576413547523704E-4,-2.8191671614205544E-4,4.2766190601320584E-4,1.9667101472282454E-4,-3.365099973777323E-4,-5.199026307265493E-4,1.0710942159981462E-4,-6.617793788876319E-4,4.4671710657418455E-4,4.437187323359327E-5,-6.652164070201737E-6,-3.6530751096946963E-4,2.9135572267133573E-4,4.3200307447724623E-4,-4.4499156019126994E-4,-4.767151752909726E-4,-2.6672221938356085E-5,-7.579211480745387E-4,3.939630095693658E-6,-2.922951314307715E-5,-5.8661166656472246E-5,-3.8514334948518494E-4,5.834670159027919E-5,6.670943349493918E-4,1.0767320844665982E-4,3.052598559381376E-4,-2.598843523051734E-4,8.982944053100928E-5,-9.996705587698819E-5,-2.2579520073029137E-4,-4.753953787897046E-7,-3.389520345544804E-5,-2.99209480007204E-4,7.696492991133302E-4,-6.19812070052975E-5,1.4370788875521E-5,2.2704529919743564E-4,2.1979962776191305E-4,-1.1274156049006523E-6,9.064561870364386E-6,9.478684076546612E-5,1.4737684636697402E-4,-6.7246690932456E-5,3.8291472418099386E-4,2.4239684650544078E-4,7.251356401634552E-5,-6.538130954170107E-7,-1.650431356996718E-4,1.0683603727376417E-6,-4.1222553891344675E-5,2.5118232577310063E-4,1.865766722632152E-4,3.3499544337736167E-4,-1.0748576618769783E-4,2.8279820287385596E-4,-1.4131205584303426E-4,3.1226842002448187E-4,-6.870726974735761E-5,3.4048641219252065E-4,-2.783187052115404E-4,7.879374696384413E-5,3.1501936374130583E-4,-1.0343594799858614E-4,-2.537449004075566E-4,-6.020615704620924E-7,-9.785193931593263E-6,-3.61709868274596E-4,-1.7091905210669993E-4,-3.385099963607357E-4,-1.3886497114627385E-7,-8.435882961276933E-5,2.5259732430003715E-5,8.822624958393196E-5,2.784109991592413E-4,-1.06075528991355E-4,-1.5352343384867595E-7,-2.787099357235217E-4,-4.0661270000399794E-5,-8.20465470503209E-5,2.0615263199297683E-4,4.3128365888096416E-5,2.826972068261436E-7,4.617234254082536E-4,-2.118612028185122E-8,-1.9896659906805368E-7,1.4325263118725916E-7,1.5781676235067274E-4,-2.637754819357309E-4,-3.459328921340315E-4,2.021655879127034E-4,-2.2333345540969112E-4,-6.61866147486096E-7,4.314239777749273E-4,4.261912466768611E-5,4.330556524127714E-4,2.4105008996203677E-4,4.5966478845397413E-4,1.694630122208907E-4,7.379046032921559E-5,-2.46739006508917E-4,-8.138500113540054E-5,3.9934906425523526E-4,2.2845290653086893E-4,-3.8242426073825826E-4,3.542387963702133E-4,-1.881055257648125E-4,-3.488452482898725E-5,1.6575664892089163E-4,-4.508262050473738E-7,1.3868124721878143E-4,5.726017458230406E-7,2.520571819278495E-4,-3.279245395233704E-4,-6.304327048109877E-6,-9.699181562541972E-5,-1.7003976948313024E-4,-2.9204943917140503E-4,-1.761053153495812E-4,-3.230349431291692E-4,-4.116156543463775E-4,-7.579530838485264E-5,9.552238180198227E-5,-1.9402001356038433E-4,1.438595548781786E-4,3.016792257734956E-4,2.249153567377606E-4,6.92613089789374E-7,-4.616233058916939E-4,-2.9594789640463468E-5,-2.1493992947266838E-5,1.3892602130566797E-4,5.298414447455711E-4,-9.692624643561043E-7,-5.822796224425521E-6,-3.645721028779452E-4,3.185671820406262E-4,1.4456159220141296E-4,-5.562321308959095E-4,-4.6252677382279395E-5,-2.715512720151916E-4,6.998369097546667E-4,1.3841613845319534E-4,-2.6811197945815913E-4,4.405152429925771E-5,2.6894316430342043E-4,6.019000040554855E-4,1.1215523927160542E-4,5.1584788971569743E-5,-4.436402857644793E-6,-4.492325325071515E-4,3.246777054770257E-4,3.119894948685285E-4,2.8509228170620326E-4,4.266193070897864E-4,-2.2692287799259495E-4,6.228818711334443E-4,-2.9181454282987794E-4,-7.630784759995821E-4,-1.1320545958981184E-6,-4.622754235735967E-4,9.112065196781282E-5,6.043530746444322E-4,-8.005176835058706E-5,-3.878645307007118E-5,-2.4175500446443554E-4,5.262456466118147E-4,2.7141376827378235E-4,-6.203718802282815E-4,6.806496268570269E-7,-4.421270516828683E-4,1.874572275524628E-4,1.3216363480112259E-4,-2.0437273675884405E-5,1.145842532995034E-4,-4.885151677146646E-4,1.4779515304303028E-4,2.2445763178753948E-4,1.3991863547785176E-4,2.36483952434674E-4,-5.857377609295564E-5,4.268818641573341E-4,1.6901913072079275E-5,-7.092442697116307E-4,5.520539452941091E-4,7.242743147071796E-5,2.18736175629121E-4,1.5741228097445475E-4,1.7345841287989133E-4,-2.727455959659501E-7,-5.949126122250413E-4,5.628587166314468E-4,5.779064552519057E-5,-7.591486056593785E-4,4.069093221251202E-4,-2.5722208058282534E-4,5.295975008628417E-4,1.4813197968715892E-4,4.176847145452285E-4,5.953555882085162E-4,1.93538955140413E-4,-8.308278483126415E-5,1.2230697372377132E-4,-5.63362523057139E-4,-7.03749647463183E-5,-4.078528494731831E-4,1.0093165430056635E-5,-3.2574764611347705E-4,3.9502864842444387E-4,-3.387435525733694E-5,-2.2713911602899236E-4,-2.489144532455417E-4,5.209171111396365E-5,-0.0011407409364851788,-3.3596172691165003E-4,-1.2400662510575746E-4,2.6015830069893804E-6,-2.9786145635755343E-4,0.0011322407365432806,6.541124395108018E-4,-2.4183762048710978E-4,4.004181546190639E-4,6.111334070862602E-4,-0.001681516339781618,-9.288867645799657E-5,-2.0856844898702859E-4,2.4880009653811976E-6,-5.999827230725862E-7,0.00122876475154555,7.505783529652012E-4,-5.42618499780234E-4,1.9696733081663612E-4,5.212287167816781E-5,-0.0013784513719373782,-2.1116259576583168E-5,-4.8390967390318345E-4,2.052462141607852E-4,2.913641375417714E-4,0.0010570761027832208,4.564107706917129E-4,-4.108761904226816E-4,3.633738597977252E-4,5.323879555300792E-4,-2.00817710623001E-4,-3.2153745340343095E-4,-7.292231290617112E-4,-1.6774280880855988E-5,-1.566347584971376E-4,4.6877292367200857E-4,5.835837395435424E-4,-2.4529115427531465E-6,-6.075197765217329E-5,4.0997370920034147E-4,1.6339919357959194E-4,3.3217942474267174E-4,-3.880872838469482E-4,2.0431932596171864E-4,3.1338056063659485E-7,2.678532892922764E-4,7.003209611997795E-4,2.360166448930115E-4,-1.7508203202332644E-4,3.984227456460669E-4,-3.9970591746482735E-4,1.7985275756182267E-4,-7.849456368257616E-4,-9.579586214518368E-5,3.2527879692479316E-4,8.58734071768231E-5,3.062894936159671E-4,-7.46570426069721E-5,6.178285447942911E-7,1.4971938974307498E-4,4.7680494589782225E-4,7.211174368491062E-4,-7.229186193396549E-4,1.1236451468839693E-4,4.4212470255199184E-5,-3.8945254809308647E-4,-2.1538677199286582E-4,-1.40484435832045E-4,-3.179938343144618E-6,6.411431969490289E-6,1.636418293066989E-4,8.418351249356618E-4,3.3289363378623916E-5,1.4556312051179073E-4,4.3679759505417987E-4,-5.86075595818656E-4,4.802678884644964E-4,5.5590425072403284E-6,-4.346205581835461E-4,1.4048508819590978E-4,2.8809532421213804E-5,3.739168627454459E-4,-3.0381370441459957E-4,-3.697810965917877E-4,4.4729288764780006E-4,-3.4208492506648846E-4,-9.307328807772665E-5,-7.64333172619054E-6,-5.071992643668077E-4,-4.983579405382368E-4,5.819828283623726E-4,0.0012281234554666772,-9.184351599630384E-5,1.1641077991714769E-4,-1.925608776535498E-4,-6.465475488808155E-4,-6.9086918517922E-5,7.827550848879794E-7,-4.3114876113222844E-4,-1.0226917272480745E-5,3.2167363507917373E-4,4.992958301294301E-4,2.5909470864491735E-4,-1.0295299722456245E-4,5.012651551595455E-4,-8.646490897997687E-6,-4.536122843300023E-4,-3.3141835056674E-4,1.134113495704545E-4,1.7647143483237284E-4,4.03094334867635E-4,6.368966975235948E-4,-3.4643631904341825E-4,-3.248620115738969E-4,1.2727081208392178E-4,1.9655960389058143E-4,3.2629697401698703E-4,8.744176566444357E-6,-2.3118765091321246E-4,2.2163773670495326E-4,7.452704665511583E-7,7.384813565333243E-7,7.545150430854412E-5,-7.065313143588965E-5,4.2784932667715923E-4,1.507741514949327E-5,-3.102034596142863E-4,3.311234902552339E-8,1.0317940126408832E-4,-7.282220644287842E-8,-1.6192843794452248E-4,1.1348384240653006E-4,-3.473970949331086E-4,4.3506061275086575E-4,1.5700817835892392E-7,2.8961539264372814E-4,-3.2143709654712196E-4,3.318532722790195E-4,-1.823492394568259E-6,-2.179802515724742E-4,-1.2175999185215501E-4,2.4997079739729204E-4,1.1817621643558024E-7,2.855283001784663E-4,4.5681953909553565E-4,-6.312297886745143E-7,2.2820999362828482E-4,-2.3679586593933143E-4,-8.545774803690163E-8,-3.1895213225753734E-4,-2.6989774412423282E-5,-1.8332143877143473E-4,1.6556113989679103E-4,-1.05133657033446E-4,-8.805203285466551E-7,5.464941800631823E-7,-2.037488497957066E-4,-2.1719762647679264E-4,1.7008023068166455E-4,7.918215882731686E-5,2.431960481970555E-4,-2.480679563000291E-4,3.9706535142169393E-4,1.2838079308402818E-4,1.9871392402364505E-4,3.8966859446221154E-7,3.2753926834360765E-4,8.712558944901849E-5,1.635386769768265E-4,-1.5263679592233902E-4,2.3626433610753715E-4,-8.490506580261946E-7,1.565254597055609E-4,1.3690409595083014E-5,9.739933072149333E-5,-3.1047233101575425E-4,-3.3035142144315576E-4,-3.791673814527365E-5,9.925822540678908E-7,5.774317710653385E-4,-2.772654897549159E-4,-1.562197770021063E-4,-7.48649196585082E-5,5.656519558248058E-4,-2.875246014107903E-4,3.0237213087455335E-4,3.737999031529198E-4,2.720779830384131E-4,3.6747921287261725E-4,5.4384482030248466E-5,1.388454649977334E-4,-4.0149458349909026E-4,-1.6355856430088892E-6,7.072488537678456E-4,7.692660790646194E-7,-1.0627006220476851E-4,-3.258277485112493E-4,2.3532682964260183E-4,-1.6887332441888528E-4,3.805062183154354E-4,9.423057247145079E-5,-7.186087638222087E-5,-7.38272772965214E-5,2.916843750969552E-4,3.5976961131293887E-4,-1.301611362443557E-4,-4.481957072044316E-4,-1.536302227266482E-5,4.291081693809046E-4,4.758751929958891E-4,2.1456755697262493E-4,3.3925482293882374E-4,1.5372131069720984E-6,1.8610321757883742E-4,-2.308353352200159E-4,-2.763769356440662E-4,-3.148405488748073E-4,-3.0008821023558665E-4,3.169833241706246E-7,6.705229327024654E-5,-1.4087552845413724E-4,2.3029063305685647E-4,-3.6611543883154654E-4,5.171902834359089E-4,2.8535193669638185E-5,5.950346092765421E-7,-2.9945660780944354E-5,-4.784015384699942E-4,2.473172054048836E-4,-2.3552012132466006E-4,2.0746385543478688E-4,2.717663362558228E-4,3.2457196299649114E-5,7.415255875077662E-4,4.7705266438924235E-4,1.810513769475302E-5,-6.64824010404937E-5,-4.6930929884566274E-4,1.0091768460683113E-4,-1.8033319733355214E-6,-4.0600102535558336E-5,3.2415461807654513E-4,7.849565971108569E-5,0.0010165701142837546,2.9597537343119864E-4,-2.7638966425154416E-4,1.8482743542430012E-4,-3.607621996132372E-4],[1.041769563506624E-4,-4.233917169801157E-4,-4.936084649616891E-4,3.309551826247544E-4,-1.0407577946158428E-4,4.941642371116715E-4,1.8606926315512602E-4,-2.95144442465532E-5,6.743014678716142E-5,-3.417895796306523E-4,-4.668293704989959E-5,-1.5380708165238037E-5,-8.1024235804197E-4,4.934034315168968E-6,-5.814410209852273E-5,3.246631678610001E-4,2.851919762522677E-5,3.8591212314460186E-5,2.2842034895930962E-4,-2.336045677314927E-5,4.416318684294997E-6,1.9145328390146807E-4,-3.169168185060258E-4,1.39338452607285E-4,-6.22353628880109E-4,4.999893452474887E-4,3.0710889434993667E-4,8.363907100389477E-4,2.5076987064259667E-4,5.521431894972902E-4,4.5679371183170837E-4,1.7028681010103016E-4,-0.0014456216713741126,-3.4165244182508185E-4,-2.1226092235623802E-4,5.503906295522475E-4,2.642497896594605E-4,8.898285500303514E-4,2.5808386933038463E-4,2.309122610245881E-4,4.450061316400607E-5,1.4990300697025806E-4,-0.0011246677070294677,2.568225382131418E-5,-5.20891484434221E-4,5.94480803066682E-4,-2.6943310802172093E-4,0.0010956271933730943,8.09664883221238E-4,-1.469458866228683E-4,-8.852454221818659E-5,5.327967044012595E-4,-6.566552398496672E-4,-2.8246304163334905E-4,-3.361451166792131E-4,7.484208553814798E-4,-2.8018405336117404E-4,5.420393439816738E-4,2.42587747239707E-4,-7.268622410250614E-5,1.596308500008944E-4,1.3142310002160654E-4,-4.318920760138541E-4,-1.3725490264827005E-4,-4.952506968521284E-4,0.0011237960704103692,-7.176463830730352E-5,5.671883841207906E-4,4.806221901925743E-4,-1.6758580721824658E-4,3.52414599303448E-4,1.5240480920682495E-4,-6.125654874246283E-5,3.256932872764354E-5,-5.621604383741491E-4,3.898668933273577E-4,4.326952792181178E-7,3.0395003851577427E-4,5.737435360220302E-4,-1.5071006751827753E-7,-1.7863110903527235E-5,5.179241513285193E-4,-9.182225469671163E-5,1.6641019156399298E-5,-7.274179681274144E-4,3.661644253433287E-4,-1.5208358680064642E-4,-1.3557411253055653E-4,6.001305411551556E-4,1.0352675673936048E-4,-1.3710540748583885E-4,-1.8748576444337244E-4,-2.919316053677112E-4,6.810434730137955E-4,-2.8621220106023665E-4,5.837719841008427E-5,2.1091971356764806E-4,3.12291218213022E-4,-7.522683364873223E-5,1.7236963067046186E-4,5.603125557098734E-5,3.474823459870965E-4,3.3037444019833214E-4,2.998381222963969E-4,-7.281838017247801E-4,6.160293893231407E-5,1.4743461535084778E-4,-9.465166516242191E-6,-9.122151230100045E-5,-5.15285480921872E-6,1.4935480363965684E-4,1.7519225427764702E-4,3.286326089323968E-4,0.0010484818630794913,-1.5369059629363817E-4,2.619113929093389E-4,5.657041498718137E-4,-3.6489768183394373E-4,2.615812135270179E-4,-4.086900531785072E-4,-2.867488305318408E-4,5.135167861145306E-5,1.0101507828927955E-4,0.0013416421767102366,1.434765892636947E-4,-7.801605657656396E-6,7.750040209725779E-4,-3.3726576924392486E-4,5.423070041888095E-7,-5.261227416283698E-5,2.6510730431312764E-4,-4.232895953001614E-4,2.25528983550009E-4,9.670895583366864E-4,-8.063631875003909E-5,2.231473870316808E-4,1.6405691256917576E-4,-2.5993310209468E-4,-2.0019188904472867E-5,3.549506447247187E-4,1.170255575121893E-4,-4.6732573569921395E-5,-2.3614529702276323E-4,8.401787457793234E-4,-2.22948654583706E-6,-3.5476483633536515E-4,1.9667510623497624E-4,-2.1713971679369297E-5,-3.379483760865799E-4,1.2496450413664148E-4,3.199291165186112E-4,-5.206200433999093E-7,-8.607468893251498E-5,-1.0287158942365525E-4,3.379378269090352E-4,-2.6348943232017622E-8,-9.485642589677789E-7,-3.238662926506397E-4,1.597812036697084E-4,-3.109156147270829E-4,3.6254991695128014E-4,-1.6828783519149507E-4,-1.692765147509575E-4,-1.1716889582446372E-4,-2.744834045980507E-4,-1.3541161880193227E-4,-4.179422412550461E-5,2.6790019788018062E-5,3.5077125510992976E-4,2.7057084767839046E-4,2.0931577781750546E-4,-1.0827277418001695E-7,2.472620261271755E-4,-2.500590427030018E-4,3.7484149161606415E-4,2.6132299929430993E-4,3.498878540818221E-4,-1.5768985879302183E-4,-2.1617529959282075E-4,3.0993424789040784E-4,2.1035907011403784E-4,2.912909625639423E-4,-1.0090910696934558E-4,1.0441474781371726E-4,2.0292224573960324E-8,4.697303766842348E-4,-3.358660710012708E-4,-2.4973582205775445E-4,4.1707497567591774E-4,-3.3817029842675395E-4,4.2778505315843045E-5,-2.096246373318337E-7,4.206707787238792E-4,-1.1153835081080891E-4,-3.963919480075731E-5,4.2546843661158475E-4,9.749078693247562E-5,-1.330168788246293E-6,3.96995517666849E-4,-1.166621347198609E-4,-1.6360465216324355E-4,4.1624885786966547E-4,3.776237835164947E-4,-1.9294501507512542E-4,-1.3192874894300585E-4,4.5291087030553836E-6,-1.5497219628404928E-4,3.0493109980303793E-7,6.180781102209438E-7,8.304363804464138E-5,2.5759465165924007E-4,3.5445965094984535E-4,2.3848011865170944E-5,-3.737668440742653E-4,2.1786614631326328E-4,3.238467886098532E-4,-3.4522285259149047E-4,1.2067348501358741E-4,-3.606455947843086E-4,2.22878017344821E-4,4.1018713137633484E-4,1.2649862794482772E-5,-1.2879786263296107E-4,-3.7620231545103345E-6,5.770185686907788E-8,5.370049139132426E-4,-1.51198416438295E-4,-1.012692509742196E-4,-3.258149160908065E-4,-6.684401079569222E-6,-1.097574672952205E-6,3.0052833861964274E-4,3.553292392336919E-6,1.2844308051869598E-7,-2.748707848042816E-5,6.519988247886087E-4,4.086546034639905E-4,2.3232315545612122E-4,2.0324059594546427E-4,1.2158022179225822E-4,-6.755531006708935E-5,-1.7609780621881358E-7,5.198780875237159E-6,-2.2510426942768233E-6,-3.003235951890254E-4,5.196409338365007E-4,5.239733767643293E-4,-3.9343375555498056E-4,-1.3836910693006832E-4,-3.9868947322198507E-4,-1.47981067791027E-4,-2.745993296765783E-4,1.7735561855964247E-4,9.296125342968443E-5,2.3325627354614593E-4,8.218830025740357E-4,7.048120088297321E-4,1.830504960588943E-4,-3.716410996961622E-5,-3.112610401551843E-4,-1.8025995991196277E-4,-1.5680985121604104E-4,-4.669565813659476E-4,8.378262476742065E-4,-1.587375345797346E-4,6.55664434092859E-4,3.5758587401545344E-4,7.17972817412102E-5,-2.1234681909534285E-4,-2.3075895453709334E-4,3.8278141602102685E-5,-2.501098166795176E-4,3.8632950263861304E-5,3.058207580164506E-4,-1.0219833668740876E-5,9.527207165257547E-4,1.7346515110093348E-4,4.841222566889166E-4,-2.2723809605382158E-8,-5.902073320921691E-4,-4.972506561351518E-4,-9.315339596374172E-4,6.267885057085003E-5,4.2310196021130354E-4,-1.8862221157609136E-4,5.234302953752723E-4,5.7988562197289E-4,7.308852753624622E-4,9.267220197436586E-5,-3.644786516127164E-4,-3.793287208748887E-4,-9.134313378118162E-4,-5.541600146045413E-4,5.376145835165664E-4,1.827884156861409E-4,5.573601284853698E-4,9.680030310356458E-5,4.6209728730304965E-5,9.22477331668792E-5,1.291998265779842E-4,-4.3073878709397784E-4,-2.614006100347922E-4,-4.7667011634418933E-4,-1.552540320141685E-4,-3.6662399468497594E-4,5.964979248045361E-4,-1.38316166793949E-4,2.3785474295248083E-4,2.993492918799172E-4,4.2192415889444633E-4,6.262645087019023E-5,6.590539091457873E-5,-0.0010789192046156998,-2.91135282540799E-4,1.222842321462425E-4,0.0010071764852391972,-1.6978623246843497E-4,2.0027816834066497E-4,1.6920148004861326E-4,4.2161251595764296E-4,7.71742848926732E-5,6.076022466367819E-4,-4.342110006433565E-4,2.329756954981586E-5,-5.687379813251623E-4,7.746285181774205E-4,-5.260574714338877E-4,-2.0410056317082811E-4,-1.2616804980971732E-4,5.629009683537871E-4,-1.4790460638517598E-4,1.7129741955164126E-4,-3.4724626853666144E-4,-2.596792899668756E-4,-6.722378882882881E-4,0.0010616087754937375,-1.7790878737029776E-4,2.996788804028794E-4,1.9097350139909167E-4,-2.4477273139293738E-5,8.272875039440642E-6,1.6242547477240675E-4,2.1247479886710318E-4,-5.00389940976066E-4,-0.0013552120343482234,6.431426850991792E-4,-7.061209366486907E-4,-5.008289739482962E-6,3.063309517534154E-4,-1.915105773464056E-4,6.65001102666877E-7,2.2057271115428462E-4,-1.9876946303612746E-4,-2.6680873413401893E-4,-6.776257276665897E-4,0.0010513455652707267,6.94984849662577E-5,-1.6803538224702556E-6,2.2277476621456458E-4,-2.0755948896590933E-4,1.2395206345116377E-4,3.1313475884872834E-4,3.715565877056181E-4,-3.155884801433371E-4,-0.0011052915197597077,9.120819181772063E-4,3.6475718006623536E-4,8.25039737324447E-5,4.5115913467560115E-4,-8.535808483634522E-5,-3.9517667863546966E-4,3.4493365612897316E-4,-7.069256496184199E-5,8.682870246431235E-5,-4.462533686968125E-4,5.075738136042878E-4,3.157866878452298E-4,-1.2491639776707528E-4,4.6434762784507697E-4,-5.243240718681188E-6,1.8329685265670368E-4,1.1134215752727908E-4,-4.6269872464659663E-4,5.777190235928696E-4,-3.813167045253528E-4,-1.0853641348387407E-4,2.1281770832557608E-4,-4.322181400527612E-4,4.429930522297444E-4,-5.348700795081985E-4,-1.1676155594357135E-4,-1.7577480967481644E-4,1.7930728200946447E-4,9.386698400676238E-4,-2.2360813625353512E-4,3.800947137004204E-4,3.5095935543317597E-4,-3.3143145376934944E-4,1.3466058811466587E-4,-3.5129010699284284E-4,1.4537157929179283E-4,-1.307812906336605E-5,2.455219401312142E-4,8.841232208636464E-4,-1.1031837578157157E-7,-3.933928951211136E-4,1.8518051970134184E-4,-5.563943094980611E-4,2.403720488603683E-4,-1.7674513277729257E-4,1.6140614327103087E-4,-2.1710206331402444E-5,-3.836281387639895E-5,6.147051502599828E-4,-9.970296473011103E-5,-2.8328408768014653E-4,-5.3316107083223774E-5,-2.6367002710734954E-5,-2.3889499487963171E-4,2.008929165732031E-4,2.802435522140138E-4,-3.702127448129028E-4,1.1947496047851782E-4,2.065251440140336E-4,2.188802852966649E-4,3.509682994055261E-4,-1.6153352257324827E-5,9.468406144117526E-5,4.1920586866611947E-4,-3.148659245230744E-7,-2.0008978534427258E-4,1.1572971393832113E-4,-3.175215653243958E-4,4.724048076716509E-4,-4.092942415595793E-5,2.3713108673904402E-4,2.5628361997947536E-4,2.428974563379949E-5,4.289571412844553E-4,8.154719272236386E-7,3.974290518114504E-4,1.0869066934761537E-4,-2.4241819548395267E-5,-4.3759575639461945E-5,1.4187741161981576E-4,1.3902530594334982E-5,-3.7289272544953285E-4,-1.3214033279391728E-4,2.2688566412616517E-5,3.7996780343800747E-4,-4.0217777722916E-9,3.8857906278216646E-4,-2.312527558586062E-4,-1.4292746853677881E-4,-5.906926341911573E-5,-4.7140897632135796E-5,-1.4197129374969914E-4,2.008183791932676E-4,-3.134217657523467E-5,-1.0757261555966049E-4,2.2635249468212766E-5,4.9173817770344874E-5,-1.1162838053562968E-4,-1.4569508892780497E-4,5.44955794694996E-5,-2.678094956864265E-4,6.0140939978125925E-5,-1.0976725713794402E-4,-1.912732835023036E-4,2.7222753837533926E-4,2.346371436392431E-4,1.9748032738149576E-4,-1.3190032925458115E-4,1.78459274591503E-4,-2.892251625088439E-4,1.6824946939530632E-4,-3.925727697994522E-7,3.658733717514396E-4,-2.450709965654946E-4,-1.0313528780756118E-6,2.1536411333947136E-7,-6.961535494763301E-7,-2.5109269009319804E-4,3.911107092576484E-4,-2.6047917286039894E-4,1.4350193118794649E-5,7.1777104842008E-7,-3.0625171870348513E-7,1.782671221530082E-5,1.8341555062483585E-4,3.4652275779321586E-4,4.104380934288629E-6,-2.168834150027861E-4,3.858790921041404E-4,-2.051811711993663E-4,-9.887508705762319E-6,3.715696400086972E-4,-3.4060044478102666E-4,-1.3525220716170786E-7,-1.6657109245449286E-4,4.6469136292923387E-7,-2.0229367889025243E-4,1.4515275334336228E-4,-7.694982262873938E-5,2.3346586852645282E-7,4.986452740307554E-4,4.75563693235027E-5,-2.4687966416934325E-4,3.553753589690237E-4,1.458659935416444E-4,-1.9282334447089339E-4,5.741357143398189E-7,2.6775491278522494E-4,-2.831236104654028E-4,1.6519154813881035E-4,4.3723905988819344E-4,-1.958109993409954E-5,9.166065265236634E-5,1.0574728042039608E-4,8.961995212175245E-5,-1.798905182917756E-4,-5.941201169671736E-4,-3.400769402415826E-5,1.594337784585579E-4,1.6510488528911958E-4,8.118976586002841E-4,6.953962203817257E-5,3.4919914034477477E-4,-5.0456753977544705E-5,-5.4459626824486144E-5,-1.990908766786948E-4,-6.920051030039514E-4,-3.1603805779198223E-6,2.6290393665776777E-4,3.0570361473869457E-4,4.7574877315260365E-5,2.724493010071524E-4,4.167651885218607E-4,-9.79308230933365E-5,-6.664017125694384E-4,-9.199553383650507E-5,-7.07608900925645E-4,-5.6988851055152265E-5,3.6280293316501657E-4,5.749834565836969E-5,3.3719697179311706E-4,8.029130663246106E-4,6.785638964118501E-4,4.7347608697255494E-4,-3.278695335445495E-4,-2.318974409250202E-4,-5.985988914563275E-4,6.526566003177282E-4,5.916891743799558E-4,-2.792797344230343E-4,3.9267397476055646E-4,3.944954743774339E-4,3.1508274855426236E-4,5.814861953747271E-4,-3.390190013697401E-4,-8.27040652259003E-5,-6.600045692319753E-4,5.8671466539373E-4,9.466924433738407E-4,1.2970001145585095E-4,3.498098358088326E-4,2.1937316432166847E-4,8.684171984082202E-4,3.1148436520478184E-4,-4.4529933588741523E-4,-0.0010012856881677868,-3.5580879935819524E-4,2.0098382883193617E-6,8.295114665126899E-4,2.508352047922178E-4,4.801578962400739E-4,1.1392299300743851E-4,2.2994637591612493E-5,1.769982886332703E-4,1.6355561989690414E-4,-2.7668979278853E-4,-3.8953667000103464E-4,-1.9220252849162217E-4,4.0701911140602774E-4,6.477569080321966E-4,5.313425109863733E-4,-5.234830878614305E-5,-2.0095110082528586E-5,-6.775284637824602E-5,0.0010468009387402226,-2.805937422115886E-4,7.331437464040036E-4,-6.392675685051208E-4,2.960461162645133E-4,-1.2137050690186534E-4,2.1012319882137928E-4,-1.4249038225944377E-4,-9.214993693365683E-6,-3.173898927461006E-4,0.0013643809056236693,1.6614907600017833E-6,5.293318351350465E-4,-7.941829047525918E-4,-7.989997445558063E-5,-3.8232554806959875E-4,0.001068891074579387,-2.801847311752594E-4,-1.2508210224030698E-5,5.148941639558032E-5,6.433541162583328E-4,-9.67211665063201E-7,0.0011188466404888106,7.133960618026421E-7,-1.2875251956732885E-4,-0.0012492712081862934,0.0014441730530993942,-1.2840984659219274E-4,-1.1995474476173739E-4,2.8365456392420523E-5,2.504052138079609E-4,-2.626162698261635E-5,3.677790688682795E-4,2.9332299276586647E-4,-1.8299463435160566E-5,-0.0010267943745574438,8.141435056799705E-4,-1.0253454078964396E-4,1.0830663200959565E-4,5.506798037907769E-5,-4.1228660862078207E-4,3.364596743042842E-4,5.743569581356825E-4,-5.9074590285926845E-5,-7.128754503761358E-4,-7.197673169829313E-4,5.571606005935123E-4,3.691539524331312E-5,-7.275919435783222E-5,3.7774770848663774E-4,-1.1359840435835822E-4,3.5056952722509514E-4,1.9165005794985273E-4,4.0494184681042806E-4,-4.4223186944516556E-4,-4.3362830601068123E-4,8.496072552831596E-4,5.195570925202776E-4,4.993943125662681E-4,2.761986471947178E-4,-7.116400319785007E-4,-2.218863507137407E-4,3.209073669427241E-5,3.0493301166592307E-4,-4.382127066050497E-4,-5.979195495329609E-4,1.170476062023038E-4,1.5678379781047105E-4,1.3546498599909567E-4,2.85661555290255E-4,-1.1011717890106004E-4,1.586896771725625E-4,2.478056336404838E-4,-1.3564384590714475E-4,-3.703432788575842E-5,-1.8443438184854226E-4,-6.063637002372246E-5,3.588045520610451E-4,5.46386908496899E-6,1.9383070701921453E-4,-3.951575276303421E-4,-6.968830316765325E-5,-4.805798607285365E-4,-2.57825526064789E-4,-2.948104088330634E-4,-1.2203485132657821E-4,7.544980077933507E-5,1.627944119815442E-4,-2.451913370782742E-4,1.4428136561637288E-4,-3.400339849167158E-4,6.869630526345382E-5,2.603764298208737E-4,-2.2424951988157915E-4,1.2777472515033354E-4,-2.2646313924258617E-4,4.660558026359322E-5,2.89809678068241E-4,1.2250780555779494E-5,3.258733947261863E-4,-4.1412267941147554E-4,3.1807034633785666E-4,-2.3306912174480234E-4,-3.678664645267287E-4,4.173955130217721E-4,-7.314165133053248E-6,1.8898758335998404E-4,7.83000100664832E-5,2.828731477963319E-4,-1.838036698268865E-4,-1.0538689423700077E-6,1.6905835645178078E-4,1.1192018352130686E-4,-2.794414880709585E-4,4.368707157808183E-4,-9.572011409802986E-7,1.3435507588654703E-4,-1.0774342195184284E-4,-2.704302871337793E-5,8.375767647102723E-7,-2.6137078399323456E-4,2.1704603624813208E-4,-2.8590771541827964E-4,3.285337528597759E-4,2.576378461768332E-4,-1.9534865926802955E-4,-1.8583448959835327E-4,-3.2464482957784854E-4,-1.113577368360386E-4,3.2078518001756566E-4,1.9978531930137143E-4,6.784386814453084E-5,-1.5444120565417596E-7,-3.599054906441817E-4,-3.2623469658745705E-4,-1.9979942984160617E-4,3.802291510352089E-7,2.765131296439436E-4,2.2553274251510975E-4,3.71619530631568E-5,-1.6021749623008042E-7,3.591336132335217E-4,2.1592377680815505E-4,-1.4472489546902647E-5,1.7106625468967204E-4,1.2250158667726787E-4,2.995926698437033E-4,4.355666419731175E-4,3.3932184790755825E-4,-2.687315400298211E-7,4.212498558425234E-4,4.175221697368315E-5,1.5303177395908075E-4,1.6747892660966973E-4,3.153172790281194E-4,-2.3254777155631994E-4,-1.3337087099769113E-4,-3.69336679814034E-7,3.3006955765816184E-4,-3.5885216796858305E-4,6.546069892122824E-5,-1.0965299534768302E-4,2.737392602649208E-4,-2.64113349666955E-4,-4.86582959226227E-6,-3.543393838093147E-5,4.278293005916745E-4,-2.7931393344658554E-4,1.5308087570165655E-4,2.830452759189563E-8,-3.674423796061055E-4,1.8373359096214495E-7,1.4920941319203584E-4,-5.417799232786931E-5,4.101915007229713E-5,2.7012557894680295E-4,-1.8609793320482822E-4,-1.3073512820028688E-4,-1.485235548431562E-4,1.6168775088477971E-4,3.2969321382523144E-4,-1.2689438838320668E-4,-5.598631879511914E-7,3.546327854947032E-7,3.8307060198773495E-4,-4.475313615152345E-5,3.020239514860554E-4,-2.6975437921548625E-5,-1.3350554262298942E-4,4.601577281669853E-5,1.5840295784051584E-7,-5.795561299210351E-5,-2.617449357442335E-6,3.689063030504375E-4,-1.6850126794838405E-5],[1.1997224155971972E-6,1.0405343047680866E-4,-3.1858306796861755E-4,5.481263446078457E-4,2.4537298549591075E-7,2.4458103018382637E-4,-1.3129828931034284E-4,5.0305449088661685E-5,-2.4120583451374164E-4,5.160457674597048E-4,-1.5214379064124877E-4,1.7887857214538122E-4,1.7179001500309407E-4,6.359205748141913E-4,7.777136249700368E-7,-5.881709990883552E-6,-6.848407382136919E-4,-2.287997687600836E-4,8.933371718189239E-5,-4.077734978632865E-5,-6.406255102117473E-5,1.933018085491352E-4,4.086134999450648E-5,8.5660324146408E-4,3.164321179339635E-5,8.054519784985628E-7,-6.489930868664747E-4,-0.0011257471230026923,1.9019778692110198E-4,2.0773642790251852E-4,9.2841332227816E-6,6.116428719695054E-6,1.043871219612288E-4,6.589824551510774E-4,3.959440992602089E-4,-5.242809508250145E-4,-7.60333974848918E-4,-8.023039636407147E-4,1.0795755086564751E-4,3.4671289489959496E-4,-2.475147918074222E-4,4.6206352822772396E-4,6.465629677284444E-4,3.6120788043375357E-4,2.2161296846977418E-4,-5.234757432266802E-4,-6.042582707584947E-4,-0.0013385920802358995,2.517102503707432E-4,8.166674019557728E-4,3.5675813271301597E-4,-7.177389125157672E-5,6.141432973130213E-4,6.803544096166197E-4,3.647481362096245E-4,-3.0238950645871765E-4,-5.448703345693331E-4,-7.365718972893163E-4,6.088882523638111E-4,0.001279529096027873,-6.092693567069489E-5,-1.0298566641016181E-4,6.126797361005238E-4,-3.009762480229366E-5,-8.336674285514053E-5,-4.460661297703041E-4,-7.637274063796982E-4,2.276370075145347E-4,3.2701890925924544E-5,0.0010956137134213609,5.319729356116971E-5,3.7678736274329716E-4,5.89269612609427E-4,2.1770864501350915E-4,4.888895177427927E-7,2.9178991723468435E-4,-0.001209543803340337,4.939168429720477E-4,-5.151352740761089E-5,4.90020487590958E-4,3.232671743462731E-4,1.3681291315254963E-4,4.363946761848225E-4,-7.70200840539542E-4,-8.500116523532013E-5,0.0015314839300834776,-8.362503091930432E-4,5.603854958687417E-4,-8.3298159356488E-4,1.3909732990825694E-4,-3.918704045319585E-4,-2.4528217575304194E-4,-1.9558349802375536E-4,-1.5276153081026354E-5,-3.599110457233159E-4,0.001003094480432062,-3.2064558511561914E-4,4.7685806824758053E-4,-1.3656176243771476E-6,-2.3218940045899474E-4,-2.681237804424087E-4,4.9215081536150975E-5,-4.527461207619112E-4,-3.962171211450106E-4,-9.99509818749454E-4,5.072913839860221E-4,-1.896599380821694E-4,7.83765435249699E-4,4.611640973364329E-4,-3.1779134805352116E-4,-6.514737878613078E-4,5.809637607344542E-4,-4.1797628631967177E-4,4.274839444367188E-4,-3.209893527677436E-4,3.1661297398960704E-5,-2.5721575286231758E-5,4.5925221822399096E-4,8.648283701412408E-4,-8.979820036377985E-4,-3.401596730781541E-4,0.001002888218502878,-2.9080544784056546E-4,2.3853283425268602E-4,-6.532418912451012E-6,-1.3299216334094193E-6,-3.865781178905037E-7,1.8124220874866758E-5,2.128715104481937E-4,-5.138360412222068E-4,-3.83996997861033E-4,3.9445271847532117E-4,-3.3426427804991283E-6,9.342847130952932E-4,1.3032873354711884E-5,-8.127768160610436E-4,-1.8645271031684702E-4,2.607908273486493E-4,-1.7846704043135474E-4,-6.449042734058204E-4,-4.64600249627835E-4,7.851083149911058E-4,4.0373409808544276E-4,3.552251223724873E-4,7.328796951034764E-4,-1.4356543360185504E-4,3.680058633280156E-4,-4.8591220264329856E-5,-4.866646746935196E-4,-8.00371105251111E-4,-3.934644762249223E-4,6.179011306643882E-4,4.394860478502224E-4,1.7475626431965327E-4,8.320809702821493E-4,-3.3538024611801375E-4,-6.353415153723273E-6,-2.950907724127228E-4,-6.988037146107421E-5,-3.4689587946616326E-4,-2.437905797132645E-4,2.6125567742659464E-4,8.166217508289394E-4,2.3630293246297354E-4,5.157268061078985E-4,-4.5764614724699875E-4,-3.7941468750398933E-6,7.685423489495835E-8,-4.1012912851914006E-5,-7.81775738274594E-4,2.757205532003974E-6,1.846763754296803E-5,4.3457873738914565E-4,-1.006133842133002E-4,7.824715764354487E-4,-2.6052792862551E-4,9.588121679936444E-5,-6.731484707372354E-5,-4.997905347268019E-4,-8.216662505174273E-5,-1.5888241929199934E-4,-7.413192988641712E-5,7.371079029367763E-4,2.1117255533801562E-4,2.849109973906787E-4,5.874633147226069E-6,-1.8081850218696355E-4,2.613879913907335E-4,-7.478084719269932E-5,-7.377565783392308E-5,4.3836237588456016E-4,-6.431797327396775E-7,1.0033020778766885E-4,-3.9889024007455583E-4,-3.877834723921903E-4,2.445468182908485E-4,4.1978589623188845E-4,3.408464408874771E-4,-8.704502246035798E-8,4.0542619937356625E-6,-7.920709947684751E-5,-2.843324418702843E-5,3.489092498547747E-5,2.710216859257909E-4,-5.166842766853312E-7,1.8159769127208518E-4,-5.4031081410915564E-5,4.1700740735586014E-4,8.233865106674385E-5,1.5030162155314184E-6,-2.0729517621444313E-4,-2.71676706145501E-4,8.407261469850945E-7,4.3554371665832974E-5,1.847181020870139E-4,-3.1148471770245346E-4,1.2302121520496628E-5,1.2241931058706152E-4,2.3735606516792619E-4,-2.163578974140252E-4,3.1856998552992546E-4,-3.1233428743607965E-4,2.560225149764929E-4,-1.0811063991938371E-5,4.319618922478827E-4,3.0576523687647904E-4,-3.355876282912278E-4,-1.5516862625880245E-4,-1.438818291968435E-4,4.045699658570907E-4,-1.5889964762570157E-4,9.357182049739301E-5,-1.4958594335327378E-7,-2.850696707887104E-8,6.429139442027633E-5,1.1858657120254729E-7,8.016263846801294E-5,-3.385794856011303E-4,-1.369639941466447E-4,-9.227205495273341E-7,3.731002617946055E-4,3.717743026468715E-7,1.302902315299418E-7,-2.743802506493058E-4,4.188443136520348E-4,1.5733676538711951E-4,-2.341518304743004E-4,-1.7157081923925755E-4,7.733721260703482E-5,-3.060336033568213E-4,2.943700335693597E-5,-2.502669446927311E-4,-4.098848222776623E-5,-3.050966948967029E-4,1.9535780805824817E-4,-2.8101474383268013E-4,4.088329157423036E-4,2.6509139138874304E-4,-1.542820056230373E-4,-2.475622357263259E-4,2.612481673232743E-4,1.8484705263412747E-4,3.888990891356626E-5,5.455604921830793E-7,-2.3388085107487814E-4,2.739766256657927E-4,-1.4150990957941044E-4,2.560480608092706E-4,-5.688598896919399E-7,2.555007169758679E-4,-1.6508835861793738E-4,2.0904125729270313E-4,-8.460456086544825E-5,-2.503412461716859E-4,-5.369372896278688E-7,-2.0545210249174945E-4,-2.9861037649784963E-5,-2.9941619940045107E-5,-2.1111182974600754E-4,3.8777109257204955E-4,2.2564377306156066E-4,9.859608902465761E-6,-2.6879572290892E-4,6.466352542256015E-4,1.1083538485411465E-4,3.3366618837519634E-4,-4.3396404358752764E-4,-2.3826501449807997E-4,-3.0757540392445376E-4,-2.2168629640019805E-4,4.513685180202978E-4,4.323408138033853E-4,-2.0589477729507423E-4,2.2829675062990828E-4,2.9951600133722454E-4,-1.5303345116052044E-4,-3.2466629305712375E-4,-5.255409666142484E-4,5.85298039264887E-4,7.241763465244212E-4,-1.5881086835208588E-4,1.5773411509560167E-4,3.880408249280552E-4,7.613719952021699E-4,4.790334171363552E-6,-6.119646390821228E-4,-9.701940892723745E-4,-5.780247615622533E-4,6.229070013381762E-4,4.3416152426395497E-4,3.5506840505547695E-4,-2.775242548238453E-4,3.1066066461312987E-4,4.4076989413092553E-4,4.569212182534048E-4,-6.069100989354894E-4,-0.0012863494225665822,-0.001074524003030894,6.845243998936507E-4,4.663205319339613E-4,-3.12951292168964E-5,-7.535107124283111E-5,3.322151415423958E-5,6.051705020699276E-4,-4.9927959382246164E-5,-3.70359845433677E-4,-8.207498293094389E-4,-1.2276667554484154E-4,6.229390737112169E-4,0.001029966739849249,1.4771461144956577E-4,-1.0373741378765047E-4,1.491257499871616E-4,4.8418987597553467E-4,6.395623621144626E-4,-4.069575875190552E-4,-7.067743700671842E-4,-3.434306314499061E-4,0.00111900201289,9.78066879067216E-4,2.583687990788336E-4,-2.3121456846099246E-4,2.6285902960166557E-4,1.1308246207998109E-4,3.735839556009758E-4,-1.1775623333179306E-4,-9.711657126536294E-4,3.915718558225647E-4,1.126124505072203E-4,0.0010700356802631275,3.1331096038342E-4,-5.33536339728543E-4,7.425766860893176E-4,-2.147655141860189E-5,-1.4627135770281104E-4,5.437318224814696E-4,-6.467767356025744E-4,3.6310703987224563E-4,-5.37797609380052E-4,8.054102378445413E-4,-9.785602487205389E-5,-6.293881217795434E-4,3.178515542868431E-4,-3.871964300295758E-4,-5.772200584832172E-4,0.0018598169715551953,-6.912724893143748E-4,0.0012401438185555217,-7.2988364812713E-4,6.65026712289658E-4,-4.2928926387484125E-5,-3.824829536952786E-4,4.590341879034642E-4,3.7686232543567496E-5,-0.001162027412171586,0.001807808127534093,-1.7479827855586475E-4,5.385146960564471E-4,2.828918975528521E-4,1.4413422452159072E-4,-7.545721823750095E-4,2.3816955357855478E-4,1.3388816586862255E-4,3.130841322165522E-5,-6.186072824886098E-4,7.65677274316838E-5,-9.238682685582218E-5,6.965673120330787E-4,2.726857272759232E-4,-6.779369172955948E-4,-1.4905756152375332E-5,1.9541032148654973E-4,1.012482532384687E-4,6.144655239892688E-4,-9.323424607689784E-4,-4.021146525120558E-4,1.892236792740609E-4,2.672231991178698E-4,3.580668339919916E-4,-9.491719750912891E-4,-2.2545512929377342E-4,5.159655651494783E-4,-4.762443428241014E-5,4.8768967813875026E-4,-2.693213948542742E-4,-6.500839314239381E-4,-2.2019845711712876E-5,4.527605467015212E-4,4.2228039790009935E-4,-5.821965488511568E-4,-2.0137064806773568E-4,7.364487574224281E-4,2.7390428798877177E-5,0.001154430038804633,3.472707336410015E-4,-3.287323103004331E-4,-1.8674149097801594E-5,-3.965937401123864E-4,2.8154022763842427E-4,-8.938133698518788E-4,-2.1651295509680443E-5,5.948315058134249E-4,2.6754526263410305E-4,7.167502269797622E-4,3.4492446642587756E-4,-7.608650846358725E-6,2.9103319533931265E-4,-1.139567134849758E-4,9.068760344040967E-5,-6.912768655693712E-4,4.125785733360842E-7,1.4270056308668132E-5,1.9939414984563973E-4,6.475219441383088E-4,2.3173936263907652E-4,-7.527949657478715E-7,-3.8914736335212053E-4,1.1364889606671171E-4,2.1834112427501526E-4,-7.443404832178633E-4,4.310727146267918E-4,3.9476288735103385E-5,5.879280565542452E-4,4.7849170489809855E-4,4.535673492137975E-4,-3.6443056946273994E-4,-5.964280459282606E-4,-3.7298229864257356E-4,-3.7128484402803913E-4,-9.414659728548204E-4,1.3780303165018674E-4,1.6951583707987822E-4,-8.53139019448909E-5,5.936369881057044E-5,6.806695287273156E-4,-2.902996032613414E-4,-1.9452624892480377E-4,-4.4360902770441903E-4,-4.538649925803596E-5,-9.459010147480582E-7,2.1446459912227616E-4,-2.8611747854821626E-4,2.8641372921194664E-4,-8.46659447273352E-7,3.0200654655605184E-4,-9.570942212710944E-8,2.9894431593454306E-4,-2.1027077689358723E-4,5.739109362247195E-5,-2.52310162420765E-4,1.0224519956312154E-4,2.0267548590490462E-4,4.7702507856303456E-4,-3.5862315990491534E-4,3.9502615746907677E-4,-2.974680344534516E-4,9.73121494286877E-7,2.3722069270406287E-4,3.494598397700008E-4,2.525428903423985E-7,-3.401450743044957E-4,4.906300321304917E-7,-1.3727718784818906E-4,1.7537398844069216E-4,-2.2022246685293842E-4,3.9573268498611534E-4,3.3745427608703425E-4,4.690725231183939E-8,-1.0042575731909398E-4,1.5915297514805345E-4,3.118376487730464E-4,7.815543337097321E-5,1.7555958983333722E-4,1.626316331625804E-4,1.0517542015367908E-6,-2.7853304478320218E-5,-1.0526173884453503E-7,1.9673686637145497E-5,2.5003735122906E-4,-2.0724979269322368E-4,2.1057410995379275E-4,-1.871880498899974E-4,-3.2686101798436157E-4,3.6653872524363947E-4,2.033257233153137E-4,-2.2252072973787095E-7,-3.1747273915798613E-4,3.164645598095086E-4,3.348563160657529E-5,2.585264799343291E-4,-7.23516734950043E-5,-2.780460437040995E-4,-1.0144387965330384E-7,4.56203703332321E-4,-4.9634611517222245E-8,1.3997331176318232E-4,1.0746001011702715E-7,-3.6198787741236415E-4,1.5577203564398797E-5,-3.3147660435137454E-4,-2.070845727954096E-4,2.741851060964733E-4,2.3182016409713057E-7,-3.23711966697689E-5,3.5638493356677386E-4,1.74717732265182E-4,-1.3331153739326965E-8,3.517866557070965E-4,-2.2057436801599568E-4,2.526573000597181E-4,-1.9733848297022984E-4,-2.995669123548043E-4,-3.753787560271247E-5,-9.951439504718666E-7,-1.601202450952793E-4,3.0004436132346444E-4,2.6579576410739106E-4,-2.1786731037843025E-7,1.2202816892513937E-4,1.0753978143128093E-4,-1.3569512958382733E-4,-6.236890780215139E-5,-2.142680312398672E-5,8.972536064318115E-7,9.263238983439757E-5,9.476335062307677E-5,3.2223643492307054E-4,9.864347155912189E-7,-1.961499447116446E-4,-3.6220625711306734E-4,-9.957044759722827E-7,-1.4905472391205072E-4,3.472268469842687E-4,4.590846339398107E-4,-2.7634433942027545E-4,-1.603387534672717E-4,-1.8857756740368805E-4,