{"class":"com.simiacryptus.mindseye.network.PipelineNetwork","id":"3cc8990a-29bd-4377-9ee9-86380000005b","isFrozen":false,"name":"PipelineNetwork/3cc8990a-29bd-4377-9ee9-86380000005b","inputs":["bb66e4df-4181-4b29-9f27-6a340e6e4bb9"],"nodes":{"86371210-c921-442a-93dc-b60d58d92db3":"3cc8990a-29bd-4377-9ee9-86380000005f","77930a1e-c99d-46e5-90e4-e8eb4de5699b":"3cc8990a-29bd-4377-9ee9-863800000060","3bab3bf3-08cd-4796-97cd-48a93ff6eb76":"3cc8990a-29bd-4377-9ee9-863800000061"},"layers":{"3cc8990a-29bd-4377-9ee9-86380000005f":{"class":"com.simiacryptus.mindseye.layers.java.MonitoringWrapperLayer","id":"3cc8990a-29bd-4377-9ee9-86380000005f","isFrozen":false,"name":"BiasLayer/3cc8990a-29bd-4377-9ee9-86380000005c","inner":{"class":"com.simiacryptus.mindseye.layers.java.BiasLayer","id":"3cc8990a-29bd-4377-9ee9-86380000005c","isFrozen":false,"name":"BiasLayer/3cc8990a-29bd-4377-9ee9-86380000005c","bias":[2.246231169566951E-9,-9.788259762470097E-9,2.637371110088284E-9,-6.923315930929576E-9,-6.789321047310976E-9,-3.5129859928123632E-9,-2.6820308043861905E-9,-1.968636660654162E-9,4.297149241819789E-9,3.8579039107959756E-9,8.108968376311994E-10,3.2831612286722113E-9,-9.35236905750509E-9,7.65152006220722E-9,-2.0502087871833858E-9,3.837528088159369E-9,4.596754130472618E-9,-2.4611051281017963E-9,2.3405571630222865E-9,-8.21948701984589E-9,5.6811270307837305E-9,-2.112477075385101E-9,-6.906419268889408E-9,-4.047110114492122E-9,-6.515027973601322E-9,7.869675652557633E-10,2.1632522777383577E-9,2.9709897798821253E-9,-3.0473022401733598E-9,-3.3026061679621328E-9,1.0290352461815146E-8,-6.565526258104939E-9,-2.070017529818771E-9,5.679786944424495E-10,4.429841615894803E-9,-7.680453229755846E-11,-2.2284127895925238E-9,6.068995078006431E-9,2.7168883559126316E-9,-7.071738776496634E-10,-3.2953150401837557E-9,8.194865215497948E-9,9.603530057228148E-10,8.932181556377072E-9,7.62120493431745E-9,2.6062071238269663E-10,2.8361617190612824E-9,2.5044528282681662E-9,4.185483535619845E-9,8.363805079518769E-9,3.0962721370583486E-9,1.0166474514254959E-9,-2.4798926746657457E-9,3.364444447344377E-9,3.769711999214447E-10,4.194304424926373E-9,2.724071850439606E-9,-6.827419683438011E-9,1.8408965676776116E-9,3.74555179217326E-9,-7.629701380570275E-9,3.4180415283615317E-9,4.333242466497025E-9,-7.679960230781696E-9,-6.777542667582287E-9,6.654818465849268E-10,-4.929728043571462E-9,2.3286299293154535E-10,-8.715273429776477E-9,-6.732677665668085E-9,5.757010082377336E-10,-2.999749923778198E-9,1.4932724825789732E-9,7.271880764850927E-9,5.005568521766571E-9,7.890885856400669E-9,-5.083134753686083E-9,5.535678824312756E-9,3.975895762285037E-9,-1.8955389389555133E-10,5.340769617643681E-10,7.700836669392954E-9,6.987799103094229E-9,4.1669202360434294E-9,-3.1156067347648526E-9,4.585913408123341E-9,3.985716417124826E-9,3.457531494413095E-10,8.502367980692111E-9,1.3641693522870285E-9,3.7288084712458784E-9,-5.7205366618076715E-9,-4.12274431419071E-9,-1.4912748925208664E-9,-1.5499294769645663E-10,-8.40899821750155E-9,5.813009144372844E-9,-3.4314262671736245E-9,7.095671942237494E-9,-8.686202739983364E-9,-3.4109157475653133E-9,1.8126745275944653E-9,-2.5531559120247153E-10,2.7902429445462797E-9,1.529430086539855E-9,-2.4978721687021207E-9,-4.636359029852531E-9,1.78435475794334E-10,3.964170516187739E-9,-2.12089399910957E-9,-6.672625951433248E-9,6.914135503906153E-9,5.126456688613445E-9,1.3300714441355515E-9,-3.901178370132263E-10,-1.8424840758954967E-9,1.0245190395367922E-8,7.093814744816555E-9,6.1591757467388286E-9,4.4503151331779514E-10,-1.964540544378778E-9,4.928601100215942E-9,5.893990482757549E-9,7.072536123473718E-10,8.884804054529834E-9,-1.0440070179240902E-8,-1.1964167184413547E-9,3.650297542767429E-10,-5.308717277278652E-9,8.590814832313656E-9,-7.444331654568558E-9,8.923524536442014E-9,3.145685649767033E-9,-2.414347015008269E-9,6.6284308323004945E-9,1.8438862705339799E-9,8.42440796872146E-9,2.739799877810243E-9,3.8985394034502575E-9,-3.738153893246611E-9,7.2721649014667E-9,-1.8564745063247771E-9,2.9369362387052086E-9,2.9955805960300764E-9,3.589291101108227E-9,4.6859137237128E-9,6.828750589317861E-9,3.4856868010191084E-9,-5.480239622681955E-9,-5.369353152916988E-9,-6.275714764094293E-9,-1.6766421200943146E-9,3.2309525963737137E-9,-4.888703257888652E-9,-8.194012916135484E-9,-1.025222032591375E-8,-6.647142008901271E-9,-6.8552711720478E-9,3.4844344648118343E-9,-1.2084175156733995E-9,9.24863844189456E-10,1.1921948918999643E-8,1.482931330171038E-8,6.724908493505707E-9,3.262594658446202E-9,-4.620643233718414E-9,-2.474341346614237E-9,1.336922554931247E-10,-6.002493385804476E-9,1.2943292517192316E-9,3.1317655948089822E-9,-6.09495893892303E-10,-4.00421851051315E-9,-2.0618435492815435E-9,2.0263705904487573E-9,3.5928096541873545E-10,3.1565103427825485E-9,5.665656859150885E-9,1.99317394712486E-9,-2.3851198788739123E-9,-2.851821553774323E-9,-1.7133915457890798E-9,-5.114636977821426E-9,-9.960491643220428E-10,-1.1321372939781499E-8,-9.992607944866317E-9,1.8692043484924806E-9,1.0240457681517651E-8,-3.2823832205999337E-9,5.051439027448535E-9,6.171062723253418E-9,1.1595056849173542E-8,7.322026278152121E-9,-7.456025775857735E-9,-3.938993493598833E-9,-8.162226808256154E-9,-5.857127143572754E-9,4.903372165421452E-9,-8.165642288828473E-9,-3.5973283987534694E-11,5.283262969963023E-10,4.796307164064144E-9,3.2428546594071964E-9,5.114884218584739E-9,-5.1910821056846115E-9,-1.5342251429943273E-9,-1.0716965643159814E-9,4.9823937136407E-9,-4.109817985252145E-9,-3.195998535733442E-9,-4.463933131469487E-9,-4.408655373859991E-9,-3.6179863781116255E-9,-1.1363460533399858E-8,1.905753188235236E-9,-2.8403920884786446E-10,6.742872397797632E-9,-1.914346389138575E-9,-1.3585051302232899E-9,7.525233278196978E-9,8.182128007281933E-9,1.2558110759977342E-8,-4.572627864040664E-9,3.0965387738785476E-9,1.9040167739384357E-9,-8.346848044163676E-9,-4.0112200334239115E-10,3.061515352054078E-10,-7.828789084752327E-9,-2.139301344759048E-9,1.3823486559288816E-9,6.506665542165382E-9,-4.5495794956985147E-10,2.9217260017022587E-9,6.806455655323464E-10,3.723729491867795E-9,-7.929277192580921E-10,-2.003667755283836E-9,-8.875676626228588E-9,1.378681832582263E-9,-1.4002181513319229E-9,3.829193673554917E-9,4.577262889427562E-9,3.848590314809888E-9,4.906538798666295E-9,6.6444602427326865E-9,8.437717759212388E-9,5.191314911584958E-9,2.9876922433334867E-9,1.465206860625192E-8,5.57114631060763E-9,-6.321857993314111E-9,3.3154679207805026E-9,7.994687915378604E-9,2.2401263907574365E-10,-9.439229185231765E-10,-6.641350986920555E-9,-7.680364963600085E-9,2.8680451620426197E-9,5.851946975232815E-10,5.69548979365505E-9,2.52993383958906E-10,-4.032825667934155E-9,5.06256148184089E-9,5.468509883551873E-9,7.583930897228882E-9,1.2611966207182467E-8,5.8677188531764825E-9,1.111626543326491E-8,2.173867963564287E-10,-5.11136736396511E-9,-3.0998986892869717E-9,-8.657108843433247E-9,-4.608876935906125E-9,-1.2095118373671855E-9,-3.2445561542279317E-9,1.3110510560390486E-8,7.749866074693869E-9,3.6266395850998154E-9,-9.34108893591948E-9,-5.334084583310307E-9,3.0887801730799424E-9,-2.3281313855251205E-9,-6.626417990631008E-10,9.672869347894004E-10,-4.140195987306881E-9,4.632985796783936E-9,-7.167706501043732E-9,-1.8636912633380456E-9,-2.8403452018098013E-11,-9.09222639863698E-10,9.615617395925631E-9,-5.760945009433619E-10,5.736544700932567E-9,9.389414742282593E-9,1.6132071328587044E-8,1.3544164693326027E-8,5.974000305005557E-9,-6.477010743231458E-9,-1.1399473029492955E-8,-7.035637065815524E-9,-6.801586041837807E-9,-6.001389166804676E-9,-2.401589825127667E-9,6.97187071166494E-9,2.1147266935941553E-9,-2.987111323028125E-9,7.838251551184055E-9,-2.349931387123904E-9,-1.1007098415881703E-8,2.01858213306857E-9,-6.523879777854341E-10,-4.064750032257219E-9,-3.569742032429388E-9,3.904699063872691E-10,5.895295277152931E-9,2.1647946787226417E-9,-2.934143279224378E-9,1.939543130563584E-9,1.60755402330823E-9,-3.941015550283265E-9,1.9421940088026496E-9,1.163879212834771E-8,1.2590288965609873E-8,-6.964259434036421E-9,-1.8371498348196496E-9,-5.594013665091338E-9,-1.287979454380593E-8,-2.1070149919707435E-8,-1.2951940987314893E-8,-1.8495923578845893E-8,-1.6677722316721835E-8,-1.3352477357948051E-8,-2.479785749387362E-9,-6.491580594029768E-9,-4.147284152167793E-9,-1.939424886979632E-9,-1.704127712604913E-9,-6.8240071034459925E-9,-2.862186659922576E-9,4.287295729920322E-9,8.060460380533967E-10,6.70371475517235E-10,-6.970988303153503E-9,-9.002527199149802E-9,3.3231897101750456E-9,5.355421795819008E-9,1.5315450710603305E-9,5.627403198238523E-9,-9.37390275134172E-9,1.8623834112827468E-9,-5.477234371191247E-9,2.5817851343794307E-10,-5.3005536429637624E-9,1.5795729290196383E-9,-1.4758555442384226E-8,-2.667654025070864E-9,-9.510071033464414E-9,-4.943793925291565E-9,-5.905690984500144E-9,-3.738530056320942E-9,-4.5257984760407844E-9,3.938900370788795E-9,-3.147859688238953E-9,-2.3709113039348458E-11,8.005342364046618E-10,-5.795789280356079E-9,4.448693315691881E-9,4.829400206281405E-9,-3.43694422718075E-9,1.4035764088304828E-9,1.3324621969205575E-8,6.723294958550171E-9,4.68069345316249E-9,2.9838705585725207E-9,-6.232159401823352E-9,-7.455377215158418E-9,-6.9915701672781645E-9,6.6716545605452765E-9,-7.300636837712874E-9,-8.293805371163972E-9,-5.872666420783284E-9,-4.6578943989727026E-9,-6.78819704918869E-10,-2.5055678601113514E-9,1.4681732556158333E-9,-6.771277379123735E-9,1.0047809019584054E-8,-4.19262532723927E-9,6.531715836162274E-9,5.386994899706144E-10,1.5643288938468805E-9,-6.412682658496461E-10,-3.9792671236632237E-10,5.490787724003279E-9,-1.2084517853326367E-9,1.3103566142129175E-9,-7.425846706822118E-9,-5.6018085714631544E-9,5.825349406594007E-9,2.0926367922618777E-9,4.645639251684024E-9,5.945581884629231E-9,2.5456753558381237E-9,-6.72527671022525E-9,-1.207395992242459E-8,-3.3410111395797397E-9,-3.7507454960013964E-9,4.8207746848434603E-11,-9.994209163058066E-9,2.621570995127085E-9,5.44908413289264E-9,3.490014407189545E-10,-6.145469133868654E-9,-5.652691577966439E-9,-2.0315728725783513E-9,2.6713668397522758E-11,-5.093379748554848E-9,2.4274411298312894E-9,3.3877792032276383E-9,-3.3880540114868232E-9,-6.306889686268394E-9,4.604592736225749E-9,-2.442215098822425E-9,3.5773289229402046E-9,9.49949432004528E-9,1.4779434453859572E-9,-8.77164518778828E-9,3.6899638634839195E-9,4.673235812972714E-9,-7.868497453987663E-9,-4.107935635187907E-9,-2.0964300571273054E-8,-1.2410890112460459E-9,-6.1578219576287865E-9,-5.448820382404053E-9,-5.989970718086938E-9,8.079978298178731E-10,-2.8192732485923546E-9,1.0870075816075532E-8,1.929422605719541E-9,1.7119278411579294E-9,-9.570281256232258E-10,2.3769393578611915E-10,3.4745460489969725E-9,9.849743656704187E-9,-2.850960158674051E-9,5.5716808231633106E-9,-2.2722320370642083E-9,-5.853042164697169E-9,-1.382029344432161E-9,-3.6666992360132584E-9,7.289075040745512E-9,5.401631125166435E-9,-3.5875675170356043E-9,4.82195746175141E-9,-6.594675934535815E-9,-8.161727860699383E-9,-1.3356474495763377E-8,-9.987183766333404E-9,-9.343538447022999E-9,-3.323936498749457E-9,-2.2045763949767823E-9,5.4813952172256035E-9,-7.62498545334879E-9,-2.866337231743886E-9,-1.670924525796881E-9,6.5060360422822944E-9,4.682486547730643E-9,3.5161374712152205E-9,3.7646874408146645E-9,1.4281073503304115E-10,-5.374840313173705E-9,-7.0136939238549575E-9,2.048355261266647E-9,2.0163122167301085E-10,1.7755969278429743E-10,7.952674174313068E-9,2.975743228698562E-9,5.335587744614139E-9,-1.6913193489081393E-9,6.959575289237077E-10,1.8341395542676058E-9,-1.5050614672176906E-9,-6.233061432853719E-9,-2.2845796740621336E-8,-2.3929892555283293E-8,-1.1860506885439142E-8,-3.0861155433814768E-9,-6.280145054127235E-9,2.894695224704638E-9,3.1558417964521056E-9,-1.2997337411095058E-9,-3.019621447843778E-9,1.275039314332653E-8,1.6119408401101488E-9,3.343035833564758E-9,2.9432057736242656E-9,-1.0286777058998492E-8,6.26145309589103E-9,7.25032077574771E-9,2.3309073135438527E-9,8.488829078237274E-9,-9.349206368896478E-9,8.505732368812918E-9,-9.245058872177148E-9,8.127766937003328E-9,-9.696973230450362E-10,5.31605881108376E-9,-5.598936116688844E-10,2.8233070081690923E-9,-2.609658431182059E-9,-1.5510100157191868E-9,-1.5222237058622318E-8,-8.991256396605764E-9,-1.1192215004594256E-8,-9.842762887780576E-10,3.52203775484633E-9,7.4128643217197434E-9,6.696538150589232E-9,4.524220229460734E-9,-5.138123983920965E-10,-6.300421400878512E-10,-5.817230232502948E-9,-2.414027356062601E-9,1.2589570705494189E-9,3.4512973748940128E-9,-5.136331137599222E-10,3.2683174624785694E-9,-1.715781905126269E-9,5.225170799110802E-9,-6.0965362966273516E-9,2.379265488970143E-9,1.4793843298857177E-9,-8.948952264851105E-10,9.425572319769955E-9,-1.1276352194836545E-11,1.6435881412900007E-9,-1.0265565678985355E-9,-3.5242574729013746E-9,-5.654766015295701E-9,-5.655242793371404E-9,-9.180887279855512E-9,-5.5387262976835324E-9,-5.886629473992121E-9,6.873040675693561E-9,9.204505087936959E-9,4.695396300256481E-9,2.68743114583205E-9,-8.175634192696984E-9,1.0398012677783273E-8,-1.747458900956967E-9,-4.015242525474225E-9,2.890247350670472E-9,1.0731939151799886E-9,4.846664826382584E-9,-5.745991919579846E-9,2.2116769006792127E-9,-3.1351047643373693E-9,-9.654525319882367E-10,-3.184622966811915E-9,-1.1940458159957223E-9,-2.0992141523460405E-9,1.0834434171929248E-9,5.140037255965883E-10,-4.194566458653873E-9,1.1812877223097586E-10,1.0611207971212376E-9,-2.8652954850001655E-9,-1.1501743162551443E-9,6.0203287549659135E-9,-1.890538391106495E-9,7.548883633983891E-9,6.686348418441271E-9,9.860665992434987E-9,3.712645429856844E-9,2.3743459388812873E-9,-2.0137652731513807E-9,-1.1503759434537589E-10,-8.65818268982361E-10,-4.651016801249435E-9,-2.4160199712750313E-9,-3.1197768007465578E-9,5.028918697855977E-9,-3.1009493734641896E-10,-6.271425178361314E-9,-4.991125658668379E-9,6.1229049709498586E-9,-2.0294512377173657E-9,-2.2160244478086908E-9,6.267090931515589E-9,8.41399664601626E-9,-5.801836406563454E-9,-3.914440235406131E-9,-4.787055969198164E-9,4.284667208489964E-9,2.1364805570861505E-9,1.4511101744648611E-9,1.1354517222948758E-8,1.4341959780709214E-10,-3.99039896796387E-9,-6.867694702445958E-10,5.947800057672203E-9,-6.5179240038109665E-9,3.7056250268209072E-9,4.033062980540232E-9,-4.134826310940909E-11,-4.677179626522758E-9,2.342012484666228E-9,4.98323575503183E-10,-1.572669186496234E-9,-4.516916653785135E-9,8.671222467106551E-9,4.277964271825405E-9,3.071021289253872E-9,-1.1026838410803399E-8,-4.7001004610341324E-9,-4.868387498948427E-9,-1.0834443554267857E-9,4.827281934017126E-10,-5.626732080635611E-9,-2.582253089982424E-9,-4.139197158688668E-9,2.4639596254167E-9,2.1821909633236403E-9,-5.789815528289426E-9,4.3384299521812904E-9,-2.0809602120915702E-10,-1.4224943962805322E-9,-1.1240908414542783E-8,3.582104695197682E-9,-1.3601841520888083E-9,-4.477731667565834E-9,7.533901453915144E-9,-3.2360679894920523E-9,-2.5708048187659965E-9,5.631621369566802E-9,-1.4609819034349046E-8,7.678648028242946E-9,-1.2338382898096722E-10,-2.1046661005782483E-10,1.866829400449064E-9,1.8484288884483651E-9,4.927209577661242E-10,-4.46612437943395E-9,-2.216978960157869E-9,-1.3340344797937637E-9,-4.440080954140759E-9,5.849389034046043E-9,5.7448146022634085E-9,-1.379929974678523E-9,-2.9900237434679774E-10,1.9293353407891388E-9,2.72344076849984E-9,-6.190420078694704E-9,-1.2085376392265713E-9,-1.2550364988915803E-8,-6.050954117382103E-9,-1.1863069111627298E-8,1.74229032447672E-9,-8.065538668485292E-10,-3.995665592163962E-9,-6.185662195682387E-10,-9.169949538560802E-9,-1.8228754423369525E-9,-2.0406343821533375E-9,5.990965736491388E-9,-1.674012620161623E-10,-4.035362925315327E-9,-8.11021125867851E-9,7.02005749428794E-9,1.1391690239099919E-8,-6.239564019198926E-9,4.121377057293261E-9,-7.361446014294927E-9,4.355416919209879E-9,5.478386746439691E-10,6.860191078371211E-9,1.2572525765952362E-9,-3.1631719236411264E-9,1.052068018132758E-8,-3.415712920634074E-9,6.891108454318542E-10,5.293320223497773E-9,-2.7777942125223687E-9,5.4664696409214065E-9,-2.7177785842686254E-9,9.253030990637367E-10,-1.4392697794423742E-9,-5.425144778591461E-9,-3.120426537083644E-9,2.374293080951434E-9,5.758603648542737E-9,-7.933407951966728E-11,3.8220877741581135E-9,1.24904109718189E-9,3.881366300732572E-9,6.1743143189116745E-9,-7.3225563050909605E-9,5.879842404338058E-9,5.983656690524551E-10,-1.0110467271055526E-9,-4.378670236059639E-9,1.8506759233640719E-9,2.439711931997671E-9,-6.328998299788339E-9,2.769589365243724E-9,2.854181887799992E-9,4.748541303377722E-9,2.010671650641219E-9,3.4002070954666632E-9,5.101808288144246E-9,6.415344909291618E-9,7.949651183435227E-9,3.120151180583242E-9,5.927263848380644E-10,-5.311329400724671E-10,-2.3400905217399804E-9,4.149046644746993E-9,-8.345729504031965E-9,2.4244084745391796E-9,-5.0568293874673365E-9,9.77860319878591E-9,5.315686378981428E-9,-6.639260116326966E-9,-4.851389162572524E-9,-1.7007256645519266E-9,8.19940283228942E-9,-1.7810319210693444E-10,-7.525680192090967E-9,-3.506287676028024E-9,5.556531820316131E-9,7.803743511550844E-9,-9.384784887224176E-10,-1.9845227893597464E-9,2.214974343900403E-9,-1.1403530471389328E-9,-5.296797186790594E-9,6.676878035525619E-9,-1.4287414751558109E-9,2.9942295238219204E-9,-3.593854140093286E-9,-1.1494937461850994E-9,2.557233922061052E-12,-8.665070213271993E-10,3.4746293091358333E-9,6.101437335941491E-9,5.260910667450226E-9,5.855671342248633E-10,-1.3236038553841958E-9,-7.011505731972176E-9,-5.076687620932998E-9,-1.021368011508681E-9,-2.971776743329571E-10,6.504752780123031E-9,-8.03424513910982E-9,4.117033870493051E-9,-4.579666392284801E-9,2.9353595084488992E-9,4.7484413467076894E-9,1.8615769155794788E-9,9.873920092167712E-9,9.159339397291574E-10,-9.591940753061097E-10,-1.2795137797927333E-9,-6.749898074938362E-9,4.189418995405123E-9,1.9394791305531725E-9,-3.6107619796589023E-9,-2.691853779227411E-9,9.876069507070024E-9,3.4490413544594865E-9,-4.551937144171245E-9,-3.755819345952738E-9,6.357507770509405E-9,-5.409650739167623E-9,8.027389898462485E-9,8.956108951959465E-9,2.4010441455293588E-9,7.481977359600935E-9,-1.197736919330706E-9,1.0534249812681301E-8,-4.469314064754351E-9,-8.16946532134799E-10]},"totalBatches":370,"totalItems":1850000,"recordSignalMetrics":true},"3cc8990a-29bd-4377-9ee9-863800000060":{"class":"com.simiacryptus.mindseye.layers.java.MonitoringWrapperLayer","id":"3cc8990a-29bd-4377-9ee9-863800000060","isFrozen":false,"name":"FullyConnectedLayer/3cc8990a-29bd-4377-9ee9-86380000005d","inner":{"class":"com.simiacryptus.mindseye.layers.java.FullyConnectedLayer","id":"3cc8990a-29bd-4377-9ee9-86380000005d","isFrozen":false,"name":"FullyConnectedLayer/3cc8990a-29bd-4377-9ee9-86380000005d","outputDims":[10],"inputDims":[28,28,1],"weights":{"dimensions":[784,10],"data":[-1.071107254552093E-4,2.3864858268988744E-4,-1.761609648349202E-4,-9.579853542894252E-5,3.733327617930409E-4,3.53655197684102E-4,1.9366670141233162E-4,3.75822403871239E-4,4.0339012357271966E-4,-1.3861605404744763E-5,-1.7931213647054558E-4,1.2333680407062818E-4,-2.116681779988181E-4,-2.1066270370964098E-4,3.6713018546566346E-4,-4.4687133076219617E-4,5.143942070847621E-4,2.4189300066045885E-4,4.813142277590606E-4,5.081623608713848E-4,6.95716343150264E-7,3.426018932346488E-4,2.45480508498409E-5,-1.0990176515971593E-4,3.112961258777587E-4,4.231682677722878E-4,1.7479490480201075E-4,2.6096216827831413E-4,4.365399670572033E-4,-1.9482764279835224E-4,4.897374838813995E-4,1.1458114581976272E-4,3.6938213251522906E-4,5.260491755946573E-4,2.888842899881912E-4,-4.2226277283758827E-4,5.363559518934109E-4,1.748755775213063E-4,-8.644025885855675E-6,5.167498874150191E-4,-1.0685306426421897E-5,-3.9809527465712127E-4,-9.673109586314256E-5,2.5695547441558354E-4,4.102821656568348E-5,2.7632900036336186E-5,-7.84411570045223E-5,-1.953100265361524E-4,3.171390915180334E-4,5.013943021262946E-5,2.3483080161748997E-4,5.464399183651062E-4,-3.5331846797522447E-4,3.1973732477212326E-4,3.1400666350325475E-4,-2.768602033322512E-4,-2.7077311132770663E-4,8.104704551122514E-5,2.656999432093579E-4,-1.6987152157107527E-4,1.0012912834340599E-4,-2.322301935987791E-5,-3.6904359770308554E-4,3.074568057800672E-4,1.5719185926952377E-4,-7.223765157014963E-5,-3.1584766000599554E-5,-3.5762943795426E-4,-5.278223345668949E-5,-5.834009895541026E-5,1.7382500742358853E-4,-4.126662438451811E-4,4.7297172828253485E-4,5.09458283785072E-5,-2.486839908749584E-4,-1.9795780911426483E-4,2.4657814888215976E-4,5.062152203874054E-4,3.9778485238752266E-5,-1.7090638650472554E-4,3.0067388736721557E-4,-1.4681676653894614E-5,5.46211572087889E-4,-1.0845740361823907E-4,2.8382079371750687E-4,2.3599113298581524E-4,-3.6275065842015266E-4,-3.9646083436875644E-4,-3.779840687839113E-4,3.8107286010874756E-4,-4.2424315002053114E-4,-2.1354301466795854E-4,4.614399731240689E-4,-8.692683381318889E-5,3.600651311160142E-4,4.599106777386994E-4,-4.745644273594791E-5,5.297097862143919E-4,3.610539200052883E-4,-6.60392606950007E-6,-1.0589386609698188E-4,2.9369238442767336E-4,-2.1882628822708866E-4,-3.9129988189502327E-4,1.3285628355232316E-4,1.1986200454410283E-4,2.8433660792138917E-4,1.470201375354631E-4,1.690846040582535E-4,5.051368686659521E-4,3.989120647999405E-4,4.081986716489281E-4,-4.036606339038723E-4,8.195992124665782E-5,8.395121899496788E-5,2.0326389914859916E-4,-1.834599114394342E-4,1.548201503518222E-4,8.361882700345202E-5,-3.9531458472480234E-4,2.3864986907553974E-4,3.1431163204650867E-4,-1.920817031044072E-4,5.360079762103151E-4,-2.213005720134947E-4,-3.428317922122367E-4,2.2978326104264787E-4,-3.541009193559229E-5,4.672444658683341E-4,-2.2472054885500125E-4,3.627900984430969E-4,2.224093582565589E-4,3.648858744258211E-5,-1.9790043447833242E-4,5.18800784777323E-4,3.6136629790560303E-4,-3.6718724988567345E-4,4.419000169169978E-4,4.783936403691725E-5,-2.3685814710238456E-4,2.792553205401229E-4,2.3872922297732426E-4,2.635074734467228E-5,-2.4593825273636603E-4,3.692107665361969E-5,9.238135697339229E-5,-1.057501942277698E-4,5.295565587194323E-4,5.148671503410195E-4,2.0817736551202793E-4,-4.2945212399287264E-4,3.9400880595812587E-4,-6.222559219706402E-5,1.1000031441798453E-4,9.752996950567861E-5,-1.621512515798554E-4,-2.724047422448256E-4,4.6958072568456614E-4,-5.8373901040302075E-5,2.2481597319010354E-4,4.3742355580835435E-5,-3.850158083369023E-4,4.258115773862104E-4,-7.102175075529687E-5,5.143349116568239E-4,2.177156548136865E-4,1.8655263385350122E-4,1.6451698489136694E-4,-2.104370690291419E-4,-1.6298561430111064E-4,-1.5788376633214097E-4,6.932826093754318E-5,-2.6605732204664173E-4,1.460039807922103E-4,4.991031045555831E-4,7.237932421447946E-5,-2.447031070183949E-4,1.4516297178079906E-4,4.4326089649864323E-4,-2.4386510462897E-4,2.3985495816936138E-4,5.232680009299818E-4,3.1000688269654995E-4,-3.873120292349642E-4,-2.3380767022051032E-4,-2.0946810239062935E-5,-2.1606905102998592E-4,-2.3085396721651962E-4,-3.011220492314527E-5,2.630356971681832E-5,-1.0690849756184986E-5,-4.805356175010812E-5,3.478818159015089E-4,1.34794959128633E-4,-1.3585060570162196E-4,-3.919394828917247E-4,4.0216824728641997E-4,-3.7404563938023364E-4,1.8013417024817063E-4,-1.4716168071696046E-4,1.2250068355457567E-5,3.607309867642276E-4,1.9717048052323864E-5,3.5467156374832366E-4,-4.068273050082561E-4,1.4682362508881453E-4,-4.1287693396187464E-4,3.484438344880264E-5,-3.7223105153710027E-4,3.8526986465558806E-4,4.1970692938006433E-4,5.255004257249116E-4,-2.047632022011953E-4,4.6084712054960585E-4,4.8021557933029883E-4,9.891647073371153E-5,-2.727677273240273E-4,-3.469961780884757E-4,1.8550856347656185E-4,-1.5813518472872838E-4,-1.1206181224327981E-5,-1.9008103182155053E-4,-8.758768670069942E-5,-3.345893522173488E-4,3.4076923378754595E-4,-4.109204804224455E-4,-2.972944012424356E-4,-2.9689233844981448E-5,2.808194087312509E-4,1.4365618326522142E-4,1.7158665712249923E-4,-3.062899208072687E-4,9.877493356073203E-5,5.49912087210274E-4,3.4106627641967963E-4,-5.76041489266427E-5,-2.3394821973136604E-4,5.572800493544824E-5,1.2095885051055214E-4,-1.682701397706869E-4,-1.4236385781465051E-6,6.890632693994408E-5,3.2363931535325693E-4,3.755643098399924E-4,2.0486388103148526E-5,-3.647381548488211E-4,-1.3507526385823907E-4,2.13605306983035E-4,3.3764534601757573E-4,-9.744802302307427E-5,-8.928647072576202E-5,5.1484491411831836E-6,-9.18879834743772E-5,3.333620665791135E-4,-3.528196725644065E-4,2.7899541884578513E-4,-4.385911939981894E-4,2.8124454359920086E-4,2.2166843076445414E-4,1.125173272103263E-4,-4.080688829275302E-5,2.659948052695946E-4,-3.068288141299041E-4,2.0915987403415784E-4,3.3652653267442255E-4,-3.564651140535382E-4,-3.7960445044225974E-4,3.301903107490718E-4,-2.609794141850368E-4,2.793689081816408E-4,-4.410320779393171E-4,-2.611614375968423E-4,-3.032019126249179E-4,1.8106619150576471E-4,4.538169431615428E-4,-2.1571881750665636E-4,3.729249757181741E-4,4.9082276458764E-4,-3.8959381535342094E-4,4.34751268548797E-4,-4.448426612118773E-4,-2.4301987103794625E-4,-4.4472918862913476E-4,3.427112905485014E-4,-2.978400640613463E-4,1.1396335064270185E-4,-2.0975974462292791E-4,-4.3471983387581765E-4,5.270944068623369E-5,1.3496676065777592E-4,-1.0465529097607302E-4,-1.1988897420047184E-5,-3.8476038689574525E-4,-1.8960095565274233E-4,-2.9764105267539526E-4,-1.6155788214507826E-4,4.4199205501928393E-4,5.9232040669148704E-5,4.364813112714666E-5,5.303955797117189E-4,1.3371544373496475E-4,3.3065863332049165E-4,2.1475056232867298E-4,-2.657622456870251E-4,3.1156338295066396E-4,1.108995448631329E-4,4.052354319462481E-5,4.67099483011484E-4,-4.3089142536752346E-4,1.4877929849029504E-4,-1.9928607795904494E-4,3.623098299399091E-4,-1.9449175935975152E-4,3.193798054622048E-5,-3.4374111076649174E-4,-2.0605363297651066E-4,3.0317059215787765E-4,1.3377980728254075E-4,4.4241221135170875E-4,4.367555443472815E-4,3.31158749530742E-4,-2.2791145784025076E-4,5.19174520012375E-4,3.1785261690213916E-4,1.4191150936405757E-4,4.0235934020712335E-4,-5.9499895901706893E-5,-3.325624727636995E-4,1.4513945795079867E-4,2.9945766023705593E-4,3.434322208005581E-4,-9.78610437886054E-5,-2.9911121062374327E-5,1.5521760416905197E-4,-1.624556376230739E-5,3.189389589608525E-5,1.56044651514855E-4,-1.7566513988006882E-4,-2.9194894688289944E-4,3.075403632223801E-4,-1.4342351183660126E-4,-4.514615892700393E-5,-2.9762353263756324E-4,8.765423205256901E-5,2.171216618389861E-4,4.254641337359889E-4,-4.121069130386756E-5,3.589488308065834E-5,2.4538477115339815E-5,-1.5883746160945126E-4,6.124281129634061E-5,2.544010739556369E-4,-2.097063761497783E-4,-3.6353763352102935E-4,1.664709252472833E-4,1.6444501566110998E-4,5.483839894105741E-4,-3.729530507437433E-4,4.45300870909201E-5,2.988898101818875E-4,1.4301789082437128E-4,-3.79175562944945E-4,1.3070023813403967E-4,2.7390831800682793E-5,-2.5008548994689435E-4,3.068627697957216E-4,-2.89602094663767E-4,6.396074516948539E-5,2.3196558785636563E-4,4.6108657369762433E-4,2.0597912165952074E-4,3.3165075014936897E-6,4.830559797440198E-4,-3.31813359280408E-4,5.966452460669098E-5,2.3812114565327763E-4,4.125178574907367E-4,2.551123840766207E-4,-1.823158747555028E-4,-1.4677841098929978E-7,5.331600847947682E-4,1.9192694698387508E-4,-2.8862642456031263E-4,2.5887018613438456E-4,-3.181345416962025E-4,2.8339472673232706E-4,3.114730297932359E-4,1.5958014556364844E-4,-3.495880074210845E-6,-2.523477936765105E-4,-3.4905759295340236E-4,-3.5292068649105796E-4,1.843625724470787E-4,-2.9059380114057853E-4,-1.2032464145953282E-4,3.9207467025075395E-4,-2.1457901526630277E-4,3.8484144207873524E-4,5.213067867560488E-4,2.5980499981478064E-4,-5.983550819488722E-5,-2.0564295611032413E-4,-4.1625423378168446E-4,-3.185501200083685E-4,-4.30930391914273E-5,8.561759551149834E-5,4.214252514822397E-4,-3.7127739250427316E-4,3.157820831750045E-5,5.078277858585907E-4,-7.488576703391373E-5,1.395610624895613E-4,-9.429207682936172E-5,2.241175920351845E-4,-9.332135013680586E-5,2.7529015430163394E-4,-6.611457407986429E-5,-8.654303881511367E-5,-4.114970200047682E-4,-2.5185625108405986E-4,2.2971070637543316E-4,-3.4765342605693275E-4,1.5161430436573246E-4,-9.07936155776702E-5,-7.876281989690257E-5,2.0611840376685665E-4,5.833115719606667E-4,5.012318863394984E-4,1.0920628429670682E-4,-3.808466716464924E-5,1.9092568154826313E-5,-2.7887020909964284E-4,5.017740801306586E-4,-4.25644980890239E-5,9.620499278298832E-6,5.028576441220261E-4,-2.632478603643036E-4,-4.1730488354167793E-4,-4.1736619160692164E-4,-4.2516131105895297E-4,3.4755154066305613E-4,4.116840513505253E-4,1.697018008045207E-4,-9.838814840679706E-5,-1.5732365163309065E-4,3.347075920048582E-4,2.202172738403619E-4,-3.0340299232166845E-4,-2.9708711589246107E-4,-3.87276367277343E-4,-8.57859788191032E-5,3.67303476941405E-4,5.207972485880848E-4,2.2796350460821489E-4,-1.4062297147598697E-4,-3.2308809249152607E-4,2.1296500119698315E-4,-1.3847259419960168E-4,-2.0979770509845451E-4,-2.4009336433036553E-4,-1.9980687618247807E-4,-1.588656282949698E-4,3.8027256731324675E-4,4.6020912888836417E-4,-1.5054990420362564E-4,4.0593077904490024E-4,6.039283335323348E-5,3.6222441369564883E-4,1.6538228784266582E-4,-1.976790768256553E-4,2.2621246196883764E-4,1.636858823017826E-5,7.870156906695781E-5,1.797231299743256E-4,1.9339489982879015E-4,4.855144288821161E-4,4.82000323892012E-4,-3.7412910848831366E-4,-1.7056695625827784E-4,5.34762563318146E-4,1.1261397864810407E-4,4.8800603191221964E-4,-3.6622575038564595E-4,7.373526369607815E-5,-1.484371949689548E-4,4.799219868208179E-4,4.534354699644892E-4,1.4150467080501807E-4,1.6981901064365174E-4,4.8861683879546084E-5,-8.670290470871313E-5,-2.0918765754803675E-4,-2.9893259410733203E-4,-8.957111998234298E-5,4.5283413321971103E-4,5.260901105080223E-4,8.557751626475521E-5,3.138635868163633E-4,-1.0885577038720947E-4,-3.6010695333859905E-4,4.7520588919201323E-4,2.058180763321941E-4,4.6771979259405766E-5,-4.3123404755699606E-4,-2.534158523967448E-4,-1.7342816926433434E-4,-1.4018747879152474E-4,3.97750901787679E-4,-1.9120931828121493E-4,2.9500224029781164E-4,-4.320979508351667E-4,4.144355124317524E-4,-1.2771043379632778E-4,1.0631617541334722E-4,-1.6358100938518362E-4,-1.1686700762486316E-4,5.495184111273035E-4,-2.1422454761477883E-4,-1.4793546815452117E-4,9.150278577956116E-5,-3.1291424014641726E-4,3.6287777457073996E-4,4.63339163640923E-4,5.720984175667172E-5,-5.5267144159504095E-5,-4.45984074792628E-4,2.1275209783854645E-4,-2.3774863618416007E-4,-1.7951586989698072E-4,4.819738754489893E-4,3.0917227722511903E-4,-2.9106383491581784E-4,-8.738440225522001E-5,-1.304962411440321E-4,-5.7835754617168385E-5,2.522182566258426E-4,5.1899878780396764E-5,-7.506701255192111E-5,-1.6601766710698957E-4,-3.1915187756392224E-4,2.7856564357554267E-4,-5.290340902664266E-5,-9.998648553430001E-5,5.238327160764913E-4,-2.7002076819012587E-4,3.006144052433107E-6,3.498398792586344E-4,-1.8241628071431773E-4,-2.9954656486467146E-4,-1.8094373706184402E-4,-2.2451977952563996E-4,5.469246925259832E-4,1.7721376538734935E-4,5.346585650909247E-4,4.063296426173179E-4,4.3188374223104966E-4,5.475693128943843E-4,-1.96185293680076E-4,-4.4366457004948975E-5,3.565346084986888E-4,-1.1558948603350008E-4,3.1987681488533426E-4,-4.112258549211411E-5,2.746733641882951E-4,3.557970598758782E-4,2.3238497128391054E-4,-4.0705766954668334E-4,3.8822393880463406E-4,1.6618754879808162E-4,4.59279593339753E-4,4.319358896296177E-4,-2.6030610720612773E-4,1.2205873963626584E-4,5.076517672984039E-4,2.7842964101673965E-4,4.709692057173969E-4,1.0750993411361016E-4,-2.6287861326415655E-4,5.147506405572057E-4,3.854471703079895E-4,-4.1010850575111797E-4,-2.2589237225360346E-4,7.504076250190111E-5,-2.3190390482182333E-4,-2.70814063333028E-4,-7.79272531900655E-5,4.616716735076209E-4,4.884979429051345E-4,-1.0972910331923829E-4,3.6720946164356687E-4,-4.4977395036382214E-4,1.4496105570317434E-4,-1.7031670266514005E-4,3.257083415527022E-4,-5.1906138624887456E-5,4.8777297473155944E-4,-2.3393374595379374E-4,-1.0554768331948968E-4,1.3997247745608973E-4,-4.0553880993167845E-5,4.5045808741397253E-4,-4.3624774289787404E-4,4.517602141255116E-4,4.9844698785803804E-5,-2.2967760072753254E-4,-1.4898326214059902E-4,2.90749281734654E-4,-3.0258203566935633E-4,3.986746894463463E-5,4.495644016258484E-4,3.5598000095404765E-4,-1.3279090256637878E-5,-3.9004920130640135E-4,-2.204909811288953E-4,-3.428823368922971E-4,-1.1482282543920525E-4,-2.9968566345661186E-4,-5.4009721182226246E-5,-3.2731783747133765E-4,-4.049288006736437E-4,1.8137710014658269E-4,-4.0947565093215173E-4,-2.0185767537543163E-4,-9.38219043219549E-5,2.4937213528167614E-4,1.4647830045556458E-4,-1.4257643810067528E-4,2.1812943864327116E-4,-1.9966705243880912E-4,-3.778435422240479E-4,-1.578776627723931E-4,3.471599234655142E-4,4.76593878082427E-4,3.8098319977574005E-4,-4.3378974427829445E-4,-2.472417535985526E-5,2.202855317095492E-4,-2.2926431942020195E-4,5.203288696906446E-4,2.1795604983659375E-4,-4.3873894732033143E-4,2.3012758232514955E-4,2.758181299372809E-4,1.950121176126687E-4,-3.062129962170433E-4,-2.9050041250211733E-4,8.421392423835387E-5,-1.731619601285041E-7,4.0739746103705466E-4,2.413219543694107E-5,1.4865777487017736E-4,3.6518700578072654E-4,2.2968656754817734E-4,-1.475207808008628E-4,3.731726772287529E-4,1.2083518519563277E-4,4.0404279596025205E-4,-1.2134711846256516E-4,2.3582228559381716E-4,-4.205604807651219E-4,-2.499210119406218E-4,4.930656408091498E-4,-6.991862963211605E-5,3.867534877193439E-4,-2.7239061832487233E-4,-1.3435667432151975E-5,5.986975730527973E-4,3.1332628912925797E-4,4.759666547713514E-4,3.9043289026790276E-4,1.6391671063682785E-4,8.665409563831876E-5,1.875438049292206E-4,-4.302221873464487E-4,1.5751992033725102E-4,-2.2341977259839017E-4,4.3106558407659493E-4,3.3651753454804834E-4,-1.704383885125174E-5,5.0476940696120984E-5,-1.7326036830937102E-4,-2.7134480769450966E-4,3.4573539668938616E-4,1.5743542775582776E-4,-5.036624310107933E-4,-2.0640485360457045E-4,-7.053628517664931E-5,-1.4345704211452082E-4,4.0344406763814897E-4,-5.510439010860792E-5,4.0430522134337216E-4,6.242289078584378E-5,2.5205299790881174E-4,-4.7494652379818626E-5,-9.919167199452125E-6,-1.9137226653497596E-4,6.958562056391063E-4,-1.5385436646805285E-4,1.8084198953408098E-4,2.7743143325414834E-4,-3.1475276520573776E-4,-3.05838236557743E-4,3.981242691822951E-4,3.225507788204502E-4,1.0047518782985707E-4,8.489197130798071E-5,1.4236974538190262E-4,5.169882119951219E-4,1.2439584450539527E-4,6.171308767787512E-6,-2.2961753846800323E-4,4.184538949574124E-4,-4.49492733507883E-5,4.0889505264949153E-4,-3.755155953009655E-4,2.501493125913631E-4,5.442224481231103E-4,-3.3139948737998854E-4,3.032648207087912E-4,2.497898975209114E-4,-1.2783803220245434E-4,5.14096795766017E-4,4.59878586412395E-4,3.473771825069925E-4,1.2877426593452533E-4,-4.307935723718944E-4,3.693275887370686E-4,4.037279303958384E-4,-2.1775240226523253E-4,2.210361317676741E-4,-2.791780189308046E-4,3.9023810932079623E-4,-2.570251715424637E-5,-3.2180917666626614E-4,2.0882782659890128E-4,3.9838893335831474E-4,2.0882142357566067E-4,2.473885632021469E-4,4.452854296651871E-6,3.18363990780608E-4,-4.721531918650536E-4,-2.106995851260411E-4,-2.1974393258989582E-4,-4.500636345641468E-4,-2.1244372602604577E-4,1.6159800541448756E-4,3.2771519829299597E-4,-9.180543791833963E-5,-3.207806757267824E-4,7.645033988002636E-5,2.902975280868492E-4,3.788083642222978E-4,-3.1075748210676076E-4,3.001423657361761E-4,-4.2079888704824503E-4,1.7961786685266647E-4,1.8173008484803513E-4,4.047137001896754E-4,-4.449908138124066E-4,1.7150314025714844E-4,-1.833052529997502E-4,-1.6888492645645187E-4,-1.862471575638994E-4,9.737317094115422E-5,3.5131459359772076E-4,-3.5757138758408456E-4,1.8960562667982338E-4,-7.493945641918406E-5,6.240962684287019E-5,-1.0254257215111534E-4,7.507293547497278E-5,-2.9859867563282385E-4,-1.982930481473487E-4,-2.78812169453977E-4,-1.8046958888036466E-4,1.9700618702805613E-4,-2.5762636226414273E-4,5.075405043858448E-4,-1.34547103969303E-4,-6.717341269003547E-5,3.9983297138373504E-5,-3.511503713524363E-4,5.068161740346929E-4,2.09292417855572E-4,1.2332117719696776E-4,7.5810512255733E-5,4.399810106526662E-4,1.9122881172097466E-4,-4.111802497963353E-4,2.064204044248554E-4,-1.1213498425238901E-5,-4.175471515343007E-4,5.215903502595905E-4,-2.9489573773997717E-4,4.478793984205487E-4,3.7348868769033567E-4,-1.9155973127016706E-4,4.519232133658054E-4,3.9854125466346683E-4,5.237576266321813E-4,-8.312848444617704E-5,4.143799384365088E-4,4.198480938901374E-4,4.4560321794036496E-4,2.3836496515639154E-5,-2.2202467888278308E-4,-2.265819751557056E-4,5.493136206828345E-4,2.6190310280662334E-5,5.180874218742796E-4,-2.569223940768855E-4,-5.07911094091019E-5,2.2998372103952684E-4,3.1422663701884877E-4,1.8045115273597675E-6,1.6669360597531397E-4,-3.364129873931904E-4,4.924609623413787E-4,-3.423922188589168E-4,3.136429119857221E-4,8.098459594180107E-5,-3.697231258892592E-5,2.846621905898681E-4,-4.393756210594687E-4,-1.981449569887909E-4,2.0998941818025559E-4,-1.3855680734995704E-4,-2.9198485232354807E-4,-4.3616737852366505E-4,6.371452675713764E-5,2.4188018266566242E-4,4.3529370366406843E-4,-6.17728534795731E-5,2.628383230051347E-4,-1.7704706787617772E-4,-1.7202755156798708E-4,-2.263651780717983E-4,-9.093147404196158E-5,-3.6955171554423473E-4,-3.739596642298035E-4,1.2796166996481887E-4,2.4239880572407812E-4,2.4760248989864805E-4,4.824271524871191E-4,-2.9612144691346256E-4,7.141671032662686E-5,-2.1136589555099884E-4,3.5679399496571675E-4,3.860850115599737E-4,2.8982667544146684E-4,3.234323048964035E-4,4.923971290182179E-4,-2.065906858652243E-4,-4.608110542351354E-5,2.1623340498074504E-4,1.0864865226684842E-4,-2.0821234785577887E-4,4.105122218281477E-4,-5.533313047095109E-5,4.304047250116557E-4,4.0987232399866084E-4,4.983076852515674E-4,-2.4942947710436395E-4,-3.030929136499589E-4,-2.2516892514427812E-4,2.4137714500816818E-4,3.3918491277037374E-4,-3.1013455559254544E-4,-1.8316495510815975E-4,4.012492068658669E-5,1.464526660062896E-4,-1.5069582027801045E-4,-3.7938315027140796E-5,-7.884812063121258E-5,1.2352318276009908E-4,1.1941692950134825E-5,-2.2286227351839505E-4,4.3323422481070424E-4,1.3948664792327417E-4,-7.263870182186403E-5,2.11928438025996E-4,-7.582974106669859E-5,-7.78940108097687E-5,-2.695375548037633E-4,1.8742481427850674E-4,5.353958487791946E-4,4.270544148732525E-4,-2.10906812015432E-4,-3.8023609579460304E-4,-1.4446800955767895E-4,4.2953514254901257E-4,4.543148279202942E-4,1.3002596417413683E-4,-2.888330781206121E-4,2.31707926931849E-4,-2.920674746984871E-4,5.238196038277705E-4,2.6402949104796557E-4,-1.504154345109927E-4,3.6292070028789676E-5,-2.7197867157739946E-4,-1.4812613303704871E-4,-1.3205860651863263E-4,1.7754429020352895E-4,1.6648406799686622E-4,-5.0488679573764444E-5,-1.2851242357131534E-4,-1.1306900422201399E-4,-4.1095156091510506E-4,2.577586688181319E-6,6.752896459466272E-5,2.3845825906277556E-4,1.1638911351582069E-4,1.2459594872394196E-4,4.4079543752385624E-4,1.1718828359449775E-5,4.2724554672643803E-4,-4.037096765813979E-5,5.225846904202895E-4,-7.576903333838018E-5,4.07153891155121E-4,-2.520881962886118E-4,1.2523947315734552E-5,-7.472072482130568E-5,1.5133777187974358E-4,3.0285834472746645E-5,2.919397125045556E-4,5.21451282396651E-4,3.952459945922132E-4,8.782094444328256E-5,-3.402140069152727E-5,2.5540162825004737E-6,4.6422769352859924E-4,2.853915277903317E-4,1.1074021719332966E-4,2.394182153693304E-4,4.951587981719337E-4,4.373871562975498E-4,4.61133529560688E-4,-9.994336623750822E-5,3.2732218114372346E-4,-2.578723518139956E-4,2.390095291920977E-4,-3.648199046982773E-4,-3.063241008952066E-4,8.154840621522827E-6,6.364460041793774E-4,1.8448151088605583E-4,5.0210560964364826E-5,-3.6623216271131445E-4,3.7681611268765584E-4,-1.1967509102800791E-4,5.856164104848921E-4,5.281114692084202E-4,-2.27391109775189E-4,-4.510852004329438E-4,-1.0639709111166864E-4,1.9793593129843287E-4,2.594996686370287E-4,-2.5872040793936248E-5,-2.779936429132385E-4,2.8501738364470757E-4,7.253817528412896E-4,4.927557600035586E-4,5.705395462554599E-6,1.5386863918745154E-4,-2.9646303130826993E-6,-2.991202667582054E-5,-2.726379705755432E-4,1.0670271231899792E-4,-3.370987562223125E-4,2.788780249854273E-4,8.013159887585206E-4,6.179889759075836E-4,-3.462043375221042E-5,-4.288043081215397E-4,7.813000963573226E-4,2.937598687369011E-4,8.052526453429323E-5,-7.167828597250051E-5,2.184136272696912E-4,-1.0371819964669224E-4,1.9834252909470965E-4,1.5461085851917831E-4,-4.1417641130848503E-4,4.4058436372803727E-4,5.565685640818484E-4,3.798204794124621E-4,-2.5217661063035504E-4,-3.1224395628885927E-4,-4.1606078234548565E-4,9.13369057837898E-5,1.4775802333922108E-4,5.324115182524818E-4,-1.9913984630319382E-4,-4.182525503860974E-4,5.585560939598822E-4,-2.639904244392144E-4,1.6024123887067128E-4,-1.507509442761299E-4,-6.058326832089597E-4,-2.0341804983614977E-4,-1.933690671811831E-4,1.0736606657695004E-4,-6.242190048093314E-4,-3.1538176169808015E-4,6.807333048709862E-4,-1.1779379132554943E-4,-2.826535799345105E-4,2.5627506589984185E-5,1.2018651966673262E-4,-1.9895304016579685E-4,1.5624147826641592E-4,4.974691358130717E-4,2.8875550106558454E-5,2.0945894001584315E-4,7.778663475786813E-4,-1.2770671030768125E-5,-3.842844233810043E-4,2.691508616738358E-4,-5.4339428882780916E-5,-4.3755966331977884E-4,8.16280412537628E-5,5.121166865425456E-4,-4.2742482420613073E-4,4.009094045650916E-5,8.951874916316957E-4,-4.0593594566941274E-4,-4.6949587972387524E-4,-1.8153855969348296E-4,-2.844901304375038E-4,-1.7197681120647837E-5,-3.7862183210656306E-4,-1.5118235182775728E-4,-2.867069726846136E-4,3.632676894625882E-4,0.0012629797895887707,1.0477529690683683E-4,8.920242243411163E-5,-1.0248152209855529E-4,-4.1237565583167476E-4,3.316226203961375E-4,2.7683954911529904E-4,2.8092699533946935E-4,5.6459316444148184E-5,-2.9322626933067896E-4,6.636927544013804E-4,2.2463787058289592E-4,-2.332735252482187E-4,3.0555187505420443E-4,-3.1490712963739496E-4,-4.7702265279961494E-4,-6.069667645338479E-4,-8.614452776860843E-5,-8.42567246340637E-5,1.5992208972719034E-4,5.734151567620042E-4,2.998885147053057E-4,1.9229788386686817E-4,1.8653913668971887E-4,-1.6264566881734894E-4,1.0048610335567497E-4,3.586717907027846E-5,1.7506314707504926E-4,5.40723189234921E-4,-3.8652343200368407E-4,-2.052948951420264E-4,-3.912745139551098E-4,-1.0016746547454678E-4,3.538438508301806E-4,-8.717212318732706E-5,-7.252467865399521E-5,4.306297613857098E-6,2.3263493987497733E-4,5.43189236700033E-4,2.460164898704799E-4,6.358470716709378E-4,-3.245010075799764E-4,-5.118784994826851E-5,3.0867702173864294E-4,-4.150094865374974E-4,-4.1723331850957053E-4,-3.670365144169654E-4,1.0822467836490156E-4,3.4761692063645024E-4,2.7735385633823815E-4,-2.230692871699266E-4,3.045819195400126E-5,-1.3732779164071356E-4,1.3223191265639996E-4,-8.732643036951845E-5,2.745027385879733E-4,4.8232211023720465E-4,7.088770088030875E-5,4.1706444569555347E-4,-3.556266468486971E-4,3.201169294830602E-4,-7.300697883078221E-5,-1.5747531355471077E-5,-1.8771317937133581E-4,-2.877587825541662E-4,-1.9996889959197147E-4,1.487664342484554E-4,4.0190682231422474E-4,3.5295645853622963E-4,-3.321643372354525E-4,2.4009455876890216E-4,1.9868934164775988E-4,2.1725030733685027E-4,3.2611696000820357E-4,1.1435292647358525E-4,3.462084438825088E-4,-7.381725099278264E-5,-3.0316690570176327E-4,1.673725494277089E-4,1.860456124854176E-4,1.8804953687310338E-4,4.927842052399936E-4,-1.1680835546032121E-4,1.3016477028740227E-4,-8.385880955200327E-5,3.4064521104910423E-4,-2.522185531856189E-4,-8.950654200351844E-5,4.0379209845611954E-4,3.327879417152588E-4,-4.590295643279612E-5,2.2068505671946515E-4,1.1810715350014483E-4,-1.5468555166304437E-4,2.633286762867346E-4,2.8825002794335107E-4,-3.5378255556416723E-4,6.827972309160286E-5,1.120119089340888E-4,-8.7530656983426E-5,9.661859685901107E-5,-2.9389205616976114E-4,-3.3114200524374157E-4,1.752325937863613E-4,-1.3185307761229726E-4,-5.2053866261378945E-5,5.028999473697755E-4,3.135804755634195E-4,4.553148446768332E-5,-1.0500103520562533E-4,-1.010186156507543E-4,-4.007491694000471E-4,-2.9770961148115505E-4,3.104692237924147E-4,4.8178653340666237E-4,2.168145830933766E-4,-6.862837965834111E-5,-1.726980019235181E-5,3.108718083707189E-5,2.2283259920193312E-4,7.927530404468559E-5,3.56969062774425E-4,4.7745102357078193E-4,-5.0353633772130585E-5,-2.1863998617216196E-4,-1.9257857230168645E-4,8.788821675954744E-6,-6.612093133319466E-5,2.2133760111060942E-4,4.2209747232700874E-4,-3.680348003018913E-4,2.87511194792737E-4,-2.8883953050960016E-4,-2.8168233964094276E-4,1.8958734190989966E-4,-3.13095465222341E-4,-1.1674716186219899E-4,3.438883798498904E-4,1.0409374540250907E-4,3.023031742292817E-4,1.1171096729383495E-4,5.374739360991522E-4,-3.6197521005198324E-4,1.2919452301481539E-4,-1.437517964220116E-4,1.8146233540528928E-4,-1.4356469107136267E-4,1.126201990250178E-5,5.442533193769639E-5,1.0526372590806135E-4,-1.4390209436074958E-4,-2.2343061751368352E-4,-3.1390727624319384E-4,-3.9180781145428087E-4,2.8557917764657963E-4,7.483290878771628E-5,3.797155613643323E-4,-2.0646818383443283E-4,-7.4776632641623E-5,2.883642485638325E-4,-1.1961137219329479E-5,7.165154501503341E-5,3.7818956628018336E-4,-2.7755917915030557E-4,-4.758669654517554E-4,-5.837243721215546E-4,1.1349701060758632E-4,2.2657798241661928E-5,-1.3528042497218523E-4,-5.126391835540647E-4,1.9775616841017447E-4,2.955240480758322E-4,-5.71872021856228E-5,-4.019123831166375E-4,1.9783526193172261E-4,-2.5668175828159126E-5,8.872781913100502E-4,5.067163545682254E-4,-3.9417255952674816E-4,2.4432175437875367E-4,-2.531886882638335E-4,3.939728717052566E-5,-3.279232489053027E-5,-2.6599084683768675E-4,1.9286757337317234E-4,-4.326092507171357E-4,8.88928278641029E-4,4.5741710180713087E-4,-2.2140504738704666E-4,2.930164814873504E-4,1.767557347471262E-5,-2.3017228940022246E-4,-3.805996713343226E-4,8.367399136979234E-5,2.40849776598738E-4,1.8644360727051496E-4,0.001014058331866813,3.4502041713207294E-4,7.413628543842925E-7,-3.8303832927548095E-4,4.976694084586815E-4,2.4444103791610626E-4,-1.6757808888749257E-4,3.9084276712299444E-5,-5.960174974975282E-4,1.487217110590575E-4,5.931763237656966E-4,4.2133457274489176E-4,-8.163724326055327E-5,-7.980001288902004E-6,-4.695387298146922E-4,6.523791383572228E-5,-3.958656982135865E-4,-3.882122170131156E-4,8.232881046946758E-5,2.81994342600165E-4,8.194950247720097E-4,8.58232305739958E-4,-8.143466595091195E-4,-5.13733953998052E-4,-4.4021757535912294E-4,-6.350902218366738E-4,4.3957562409890525E-4,-4.3349393098249706E-4,6.94070093085188E-5,-2.9982313254160874E-5,9.211571858000927E-4,2.3666523776676472E-4,-4.620158613476892E-4,-6.027439092407625E-4,1.3221926444908694E-4,-7.43544591126627E-5,-2.443199848675087E-4,-1.9718668521983765E-4,1.8250110377712114E-5,8.930183812682587E-4,0.0010003975748974511,8.256868384449648E-4,1.1612297067229604E-4,3.947500412840409E-4,-2.1350796147315588E-4,-5.683479670019373E-4,3.14720723566331E-4,-4.378394081680728E-4,9.554128775071285E-5,-1.3352115653558125E-5,7.245802307237745E-4,-1.536130706750593E-4,-6.513274774491277E-4,-2.3117598285482007E-4,5.931514892009778E-4,-1.898085827204805E-4,1.0680615715857928E-4,-6.070025291312866E-4,3.48431185950183E-4,7.40727476566274E-4,1.2372526872204636E-4,-7.153671957843235E-5,-6.783283365845895E-4,4.013320442602558E-4,6.646584364667781E-4,-4.8432924343244687E-5,-2.2554946010765973E-4,-9.440631976598776E-4,1.1654124257429341E-4,-9.349417196800918E-5,1.2615938936868804E-4,-9.429120386951149E-5,2.132882302724039E-4,-2.9033049806148804E-4,0.0012590857001987823,-5.992667779906098E-4,1.409797404197297E-5,6.969854706086661E-5,2.079639214197512E-4,6.17281124656421E-4,5.678422855689885E-5,-1.3851431423748692E-4,3.7442045258692815E-4,2.590888928404656E-4,7.158629269188806E-4,-2.7203666429797655E-5,-4.691141462565275E-4,-1.4395874723616745E-5,4.604038617876696E-4,6.443982802622685E-4,-1.864392526653134E-4,2.6506290145341413E-4,4.349216892635814E-4,-8.263594392768108E-5,6.083175670884199E-4,4.0040822270268013E-4,-3.3914067621579634E-4,1.8006558228385672E-4,1.732030564102093E-4,7.135356034929283E-4,-3.007688215557849E-5,1.3355942250852643E-4,-1.6301065726402605E-4,4.6840758320512353E-5,9.619445239539944E-4,-2.1701655170842444E-4,-1.2312435404492173E-4,3.548757121898711E-4,1.221691354437973E-4,-2.1086979826362274E-4,-1.9254382786447737E-5,1.1669585996598176E-4,2.4043901112992257E-4,4.990298846079589E-4,7.140663820611533E-4,3.941633112856024E-4,-4.0286518575164597E-4,1.818251118792797E-4,1.0856733812989471E-4,-9.021419874634513E-5,1.9975016062708233E-4,2.2070492706172977E-4,4.8601480403533587E-4,1.907412192551073E-4,4.7666335240837925E-5,-1.9198403718164356E-4,-2.442418287815396E-4,3.87607540238139E-5,2.671067919740517E-4,-6.927880114035306E-5,-6.450423435708623E-5,3.9712353888986317E-4,2.258012844879753E-4,5.332806702525455E-4,5.179567205679886E-4,2.3543926732288314E-4,-4.3091805966063214E-4,2.1141459694648963E-4,7.383661387770277E-5,-1.145581109913456E-5,5.295647297322448E-4,-1.88476151436391E-4,1.5724993443687836E-4,8.359008034045346E-5,1.0148935093680607E-4,3.4174852287171547E-7,8.447992652584018E-6,-4.0965961851297737E-4,4.2917219069909683E-4,4.151348556164E-4,4.880397036215728E-4,-3.803016325917547E-4,-3.7257067437804496E-4,1.4473276549713642E-4,-4.2822452330866674E-4,1.9744745239214887E-4,8.965292047335933E-5,-1.7673014717088266E-4,-1.3344438579834082E-4,-4.294753378547331E-4,-3.521943743349628E-4,1.279581929347209E-4,2.7435128354581225E-4,-4.0467590556854724E-4,3.7543481723286174E-4,5.22973548040024E-4,5.896951326402124E-5,-3.1486227700189875E-4,1.3098190790069835E-4,2.9332057371163854E-4,3.308570726087422E-4,-3.738174742009829E-4,2.9388910182946227E-4,3.8464457436295565E-4,2.490336706487423E-4,-4.490607280016696E-5,-9.869573738634761E-5,-3.054820026750579E-4,-1.0574128835353074E-4,1.6065976018817929E-4,-3.782725804773548E-4,3.0923071093482557E-4,7.54041580890962E-5,1.3044617781391771E-4,-3.3860873972928657E-4,-6.247472305953027E-5,2.6881159658037666E-4,4.714960079500622E-5,3.527673139997047E-4,3.9593698708665373E-4,-3.740652618127092E-4,-2.3840873164291632E-4,9.828606977720242E-5,5.135846811534726E-4,3.6835621543210463E-4,2.0422089847362682E-4,3.9705472068014537E-4,-3.6734438637964987E-4,-2.478468521339316E-4,2.6617323820910465E-4,9.86711629052906E-5,1.7843689026031517E-4,4.1435965606032005E-4,2.468411315048891E-4,-1.0943347336657518E-4,3.241065561169154E-4,2.157017006621688E-4,7.629867586940755E-5,-1.6318328084325285E-4,3.021226511891713E-4,3.2542146416857115E-4,-2.771458768221644E-4,4.6073533256527153E-4,-9.914164043155389E-5,4.8189424718985085E-4,1.5140133022394656E-4,-1.4439892161311152E-4,-1.4833689228907745E-5,1.7442954675379123E-4,-1.9341550813679618E-4,5.290009457415983E-4,4.329690384730456E-5,-2.484569331210405E-4,3.877714157121584E-4,-3.038447437886836E-4,5.606226882264384E-4,1.1908168572313545E-4,-1.5788396526489942E-5,-1.909115368341881E-5,1.1522714159868815E-4,-1.8627441521142435E-4,8.090966664602956E-5,4.354990172173797E-4,2.313047263843036E-4,-3.450334569930571E-4,-7.003865500620388E-5,-3.3772874040467076E-4,1.5285982133307998E-4,2.2205193564000085E-4,3.615485503651135E-4,6.205293800989805E-4,3.3340065344634383E-4,-2.9847406174636883E-4,-2.9181128478231584E-4,3.312084251674477E-4,4.46767032628016E-4,-3.8478629902176105E-4,3.949375702874467E-4,-1.1625312792694139E-4,1.9045719748449308E-4,4.7743810517111347E-4,1.3119886156182724E-4,2.7048150118606527E-5,-3.8319425294717845E-4,-3.888372461476654E-4,8.200459783937656E-6,2.2493673985364676E-4,3.6318027179068154E-4,-1.2536350759800532E-4,2.1191667543554282E-4,4.5897407833504886E-4,5.75247735392932E-4,4.2499217012604055E-4,-1.8524852838323422E-4,1.3605539599493581E-4,4.2526094757343796E-5,4.246489437658265E-4,-4.229252080392547E-4,-6.034682179893418E-4,-1.0827301741132058E-4,9.027249725790773E-4,7.299521276650246E-4,-6.0906045818414224E-5,-8.788588222917402E-5,2.55830805728904E-6,-6.522735047438247E-5,4.210744675437781E-4,-1.1838789219753028E-4,1.525529482971468E-4,4.2908617257531354E-4,9.461148663473029E-4,6.770402305260192E-4,-1.9563712818300045E-4,-2.0722091164638144E-4,1.2456883564732744E-4,-4.177120832854257E-4,-1.0799642801488702E-4,-5.2533323221902504E-5,2.077391139506327E-4,3.4991152031934816E-4,5.033956659721263E-4,4.468547259512798E-4,-9.38839316397421E-5,5.267293033779305E-4,-2.0947068257247552E-4,-7.928560093270263E-4,1.143433087080673E-5,-8.446653801323086E-4,4.950559345698859E-4,2.757803347841263E-4,0.001065163359314732,1.1488284831331437E-4,5.109504135740184E-6,-2.4039026372301982E-4,-5.453426181399525E-4,-1.997657959055094E-4,3.81125334282881E-4,-3.1095426690864314E-4,8.533115178605464E-4,1.2700104692589724E-4,0.0013735374605626008,-9.074313544987202E-5,-2.970547250831352E-4,-9.89408044723185E-5,-5.109464239176641E-4,-5.282708203867579E-4,5.25294036518447E-4,-6.368894350906501E-4,6.380609348958046E-4,4.660383902275726E-4,6.655602785341306E-4,1.8761939426028743E-4,-5.36032223440072E-4,-3.0288557515751376E-4,-1.2039548117833543E-4,-7.59420642004797E-4,3.561463255353591E-4,-6.931773314284343E-4,8.314649651310073E-4,-2.1206894197993805E-4,0.0010961050347876172,4.440760499881558E-4,-6.69083388227745E-6,1.9562395806060098E-4,-1.4647964978679423E-4,-4.4955522229831287E-4,4.5730534069555914E-4,-0.0012101169307314784,5.547024046746115E-4,6.597250811706235E-5,0.0013894503218387182,2.018046350742041E-4,-3.506594505642509E-4,5.848052753364395E-4,-6.615163912855306E-6,-9.633273793305642E-4,7.557103284547789E-4,-8.115513989299572E-4,1.968099734688208E-4,3.03418904662995E-4,3.802090191607613E-4,-2.326292288879365E-5,1.9542888564357477E-4,5.367496322354346E-4,5.613153959578515E-4,-5.306620542196557E-4,2.0078702665120147E-4,-0.0011140540468671711,3.3076405793702084E-4,8.282650903971317E-5,-2.933449357431343E-5,-5.583545833045234E-4,3.6937667544121206E-5,4.2576118016426874E-4,6.967245757853629E-4,-5.545292724410027E-4,2.9395695015584577E-4,-8.747862009772254E-4,3.76512764904406E-4,3.113442116075035E-4,3.0926725867161967E-4,-3.46388681477436E-4,2.3667485995423733E-4,7.622389351191283E-5,8.572454198543906E-4,-6.230538630959244E-4,-1.92018889785232E-4,-8.500742711142046E-4,-3.1629139949438913E-4,6.760592069181167E-4,-5.538628288648615E-4,-7.621637177299919E-4,8.890727588954628E-4,8.702207978976862E-4,3.6891491844068513E-4,1.1446124140718548E-4,1.0175143127012407E-4,-8.305162414625845E-4,1.0721231740780798E-4,6.385180938813442E-4,-1.0339661129493921E-5,-2.1626614728619366E-4,7.244155575004544E-4,8.713012868895808E-4,4.453996669882885E-4,-4.241914155962215E-4,-5.992592394030095E-4,-6.173153199665907E-4,2.01337886145999E-4,-2.253853734243469E-5,-5.456915144279963E-5,-3.686267641192075E-4,3.8839278195805185E-4,4.644744324944322E-4,6.117052385120503E-4,3.673199809597246E-4,-2.6971409115895473E-4,-4.1043625757628216E-4,-7.256418409707112E-5,1.0805805600955065E-4,1.1599841311634526E-4,-5.11755233193059E-4,4.916242189823784E-7,6.054748214701258E-4,6.919443926909652E-4,4.6712703933755704E-4,3.363687693231786E-4,1.8797171640315793E-6,2.093823048053555E-5,-3.84150516811623E-4,-1.3388872927249664E-4,3.6630006692214443E-4,6.494553296141955E-6,4.6453865877944887E-4,3.7007232915531817E-4,-2.4377289722276902E-4,3.335836448051703E-4,2.0597145867131197E-4,-2.63366125681691E-4,1.1582483031408334E-4,3.1123312857239037E-4,5.299977396446903E-4,-1.7142332249484293E-4,1.2637860240861744E-4,1.7615414057506548E-4,4.96035552143516E-4,4.5116312262647297E-4,2.7921801476442552E-5,-4.3202785749599747E-4,-3.8420380162961355E-4,-2.450822645833969E-4,2.4487932217770144E-4,1.3965005129510882E-4,1.8136322161952406E-4,-1.5965739085874593E-4,-2.3443635042897542E-4,-1.4479232007216943E-4,4.1678642685457923E-4,-1.448536109097736E-4,-5.395366603860357E-5,-9.386168776501753E-7,-2.35001995702801E-4,-4.1159269384011217E-4,-1.917869195677099E-4,-3.8138427578496915E-4,-3.1243712923323115E-4,2.239232876085699E-4,2.9702386677731745E-4,6.265453585286223E-5,-1.8530083457915072E-4,-4.000521564559731E-4,2.843810160190697E-4,-5.236892002539519E-5,4.986239188689731E-4,4.357568926044457E-4,5.244329681643224E-4,3.4061780266632835E-4,-1.883012702766507E-4,3.6379166519892597E-4,5.276585007630045E-4,4.359207727651829E-4,2.3029372163125482E-4,1.2260377527086619E-4,-2.5013482044423463E-4,-4.193031627534728E-4,-2.1018769184922683E-4,-4.3019479942511607E-4,2.4292171571255777E-4,-1.9515382849873345E-4,-4.930670833110437E-5,5.283786662300508E-4,-6.346168992593213E-5,3.024678105751456E-4,3.3644385620753225E-4,2.8094489659730605E-5,3.6358965794586164E-5,4.628356906817199E-4,-1.7555260838239764E-4,-1.8723203003321684E-4,-4.340765849862131E-4,-4.2474015012215355E-5,-1.128193854871374E-5,-3.598707494110999E-4,-3.128647143337887E-4,9.88129309759076E-5,-3.4303768896797694E-4,-2.542067147918232E-4,3.4324188993066637E-4,1.6892720392377492E-4,-2.9614932619416234E-4,-5.0758409611816204E-5,5.361281834609548E-4,2.2163586351800518E-4,-1.6413257070494917E-4,4.073302936547399E-4,4.7561720419824014E-4,4.601147549804038E-5,-4.4115076541775475E-4,7.13903135416484E-5,3.732848705353836E-4,4.763702855676985E-4,7.180832292144868E-4,-2.568195352525802E-4,-6.01707234857694E-4,8.23262411386024E-6,7.314140645005923E-7,-5.317878075560213E-4,-5.562424922882107E-4,2.3547589546145219E-4,-5.27756962076605E-4,8.949549349920584E-4,5.568836394139175E-4,3.334338051033695E-4,-3.3773568581975383E-4,4.064220774494534E-4,2.995700177987283E-4,-6.346326649786299E-4,1.1539155142264063E-4,-1.6838603452262328E-4,-1.0410044060706298E-6,5.884547295642284E-4,9.473029990624168E-4,3.325115209215673E-4,4.867731719866356E-4,1.889447433238736E-4,1.1677276783868498E-4,-2.8737860665418755E-5,-3.2561174007133826E-4,-4.700840434810739E-5,-5.0034621580463E-4,7.600708926414767E-4,9.170451970079155E-4,9.064135231788297E-5,4.1756829483662234E-4,3.453839060800903E-4,5.440684295842165E-4,-2.539856986401713E-4,6.890897719573469E-5,-2.6833223079151023E-4,-6.504448080345084E-4,4.523609872520378E-4,3.8351321869041423E-4,-3.551197771391598E-4,1.5386512563375442E-4,-4.29492347307077E-4,3.336839960009024E-4,-1.0627501959748984E-4,-8.909002054145794E-6,1.5388110609337952E-4,-7.284335469242253E-4,5.046753131624298E-4,4.061377765688825E-4,-1.659448423238075E-4,2.8402198838034726E-4,-8.466990316254238E-4,3.3675523962953014E-5,8.811925590253739E-5,2.4147705900819453E-6,-3.961086970802284E-5,-1.8543889080820754E-4,4.453299626055915E-4,0.0010351139385946185,-4.733131040278218E-4,3.422548247190708E-4,-2.9099126687143884E-4,-4.7350779019475047E-4,2.4046490629117074E-4,-2.9632910611761563E-4,3.779211627953434E-4,-4.706095732990091E-4,4.6123048336334775E-4,3.8585807348276137E-4,-6.890942419113776E-4,2.998755494341978E-4,-2.111449174849975E-4,-6.631045045002885E-4,1.8793954277734483E-4,-6.786715954647018E-5,1.690750161428763E-4,-2.0889152258260412E-4,1.663777303081955E-4,1.7880849765512086E-4,-0.001151143342129785,2.2422006584644304E-4,-5.899382611714415E-4,-6.685089035430948E-4,3.032799726202902E-4,8.083887993593241E-4,3.84385557692012E-4,5.5794888926122125E-5,8.701450546714782E-4,7.616602298423135E-4,-5.127493901351966E-4,2.651304319896487E-4,-3.604029562730821E-5,-4.6829567311830743E-4,3.4809799124527636E-4,7.014197705442637E-5,6.605137889137781E-4,-5.54066428899578E-4,2.1374530198058439E-4,7.116139051394443E-4,-6.518533151350729E-4,-2.078020106435835E-5,-1.9365911578821555E-4,-6.625928387278758E-4,4.4757114819089067E-4,6.824041004446608E-4,8.481214947399965E-4,-1.5980645135343105E-4,2.734842440743036E-4,4.068502521756102E-4,-3.121928297286584E-4,-3.8302689595242976E-5,-5.526859393695322E-4,-5.499843909620507E-4,4.147677821592134E-4,4.844571425799295E-4,6.598254694580297E-4,-5.577292164560368E-4,3.979051240422776E-7,4.081378978816092E-4,-2.255365410114558E-4,6.894095657332553E-4,3.9218095648395E-4,-2.4391522224314157E-4,-9.893741710391299E-5,-2.120423282974111E-5,5.238718463824145E-4,5.807021264326856E-4,3.329560163847666E-4,2.3169962886498882E-4,2.3638747990716553E-4,7.176823070131156E-4,-1.1278730159355364E-4,-2.902378529366157E-4,-1.0760919506913323E-4,-2.2771891173792777E-4,1.6897079857043724E-4,1.642216185402954E-4,4.3987290659560335E-5,-4.011422652720809E-5,5.462464167788446E-4,-1.2725135355177043E-4,1.0966160047167529E-4,-2.8003717576307566E-4,2.748352063133154E-4,-3.89229609374247E-4,4.7928861026545587E-4,7.618387952106757E-4,-5.381738929671245E-4,-3.936784035958324E-4,7.949714671795771E-4,6.381999464710428E-4,-2.769325675234915E-4,-3.788153848190014E-4,3.245144208028996E-4,-4.491966291760473E-4,7.70141341605273E-5,1.6159363907992274E-4,-3.6295962529858406E-4,8.518426377397094E-5,6.473679674603191E-4,0.0010331353724428649,-2.495280969171204E-4,-1.1194776729470327E-4,3.9993109381871903E-4,-7.856214903306856E-4,-3.3360267943364927E-4,7.401858253481084E-5,-1.1837972175961773E-4,-2.1083555443988605E-4,2.605811002726887E-4,8.889773001362523E-4,-4.0320822739066024E-4,-3.6982844657909656E-4,-2.745587815212642E-4,-3.859708124484482E-4,2.80070894376221E-4,4.763545933950093E-6,1.277379959970501E-4,1.7444681806461673E-4,7.202764950942341E-4,0.0012359811273620416,1.1273859291992957E-5,-4.729336955236325E-4,7.381381841170687E-5,-5.517818131957093E-4,-3.1150115004762607E-4,-9.80557342753184E-5,-3.756549667795282E-4,9.284710246612315E-5,4.008373464892296E-4,4.024857520817489E-5,2.5557908333562695E-4,-3.8943813915993226E-4,3.4962007932322586E-4,2.9100381399457836E-4,2.8614622306748314E-4,4.404134734438872E-4,-1.3303954055526613E-4,2.740169244825611E-4,1.559676627233555E-4,6.965709653800395E-6,3.2340580628027277E-4,-1.3817511000700832E-4,2.1626177503856675E-4,2.1426203391794655E-4,-3.1578763071611875E-4,-2.9491511584848947E-4,2.00473810392267E-4,4.668065004375294E-4,3.2994970851637687E-4,-2.078246107435993E-4,3.1707140938252055E-4,2.8125833949483133E-4,5.388448626205356E-4,-3.8549132558508554E-4,-1.3003119749740544E-4,-8.439351756082317E-5,4.815628770501886E-4,4.4387429511540577E-4,-3.642941475381518E-4,-2.55694700379204E-4,4.818812645225047E-4,-3.5864561142930036E-4,-4.5526874940934134E-5,1.262202035081235E-4,-1.0044447144298085E-4,3.039537596413233E-4,4.7077874551365985E-4,8.328250306276352E-5,2.2944491907747977E-4,3.179983185791885E-4,3.386659921799108E-4,1.5264134368830055E-4,4.73265163296622E-5,-2.6281255258155567E-4,2.646398854257561E-4,-3.201862345918505E-4,4.765103772034314E-4,5.8299618369109734E-5,2.9653015438173746E-4,-6.524794705839073E-5,2.2118722208676396E-4,1.3897104344643042E-6,4.5734825840986577E-4,-1.301623012335299E-4,-1.3615442174291732E-4,-2.2191730255889818E-4,2.598970043469354E-5,4.127783568273243E-4,-4.190458875033417E-4,-1.7096264620162382E-4,-4.1222444107375704E-4,5.464113503583695E-4,-3.5701327449261434E-5,1.3220129069812684E-4,-1.373224334891094E-4,2.3779693302921302E-4,1.4098150799368153E-4,2.0363597866935272E-4,3.900201725691463E-4,1.797621342082069E-4,4.423687629113087E-4,2.7041137063663024E-4,3.115606175778678E-4,2.0395557552416448E-4,-2.999100970041665E-4,3.529977875935607E-4,1.7128109502337737E-4,7.679727324137604E-4,6.741292915929434E-4,-2.843462737762372E-4,-4.567728739082044E-4,-2.656363186072827E-5,-4.5709941716226695E-4,-4.3276671637049315E-4,-4.2559081182676016E-4,-5.252181385705547E-4,5.379346899817828E-4,0.0010862229852767775,1.413916397573468E-4,-2.564768495758967E-4,-5.821072837750023E-4,2.915602298536509E-4,-5.331790748392749E-4,-6.570149617535422E-4,-5.669860624660817E-4,-7.127194736375092E-4,8.028131495831089E-4,-9.659294678702126E-7,9.920533301078547E-5,3.8818610922642847E-4,-3.0653141874330953E-4,6.766560492214265E-4,8.616739024163241E-5,-4.984075497054815E-4,1.901432080144679E-4,-2.2706594291451134E-4,5.096446149154949E-4,6.797640726540324E-4,1.6855800053499682E-4,-1.2576384621883677E-4,-2.5885796094139593E-4,8.630265422586348E-4,5.690529841248889E-4,-8.884404110282085E-4,-5.916348429872742E-4,-7.676375733276897E-4,2.9677477673372376E-4,1.581745296183313E-4,-8.787293842222856E-5,4.217320854205422E-4,-8.704081370071834E-5,7.69509934838908E-4,6.36150839888053E-4,-4.812242787843839E-4,-3.918078329658747E-5,-3.3794439887159793E-4,-2.9002262700504417E-5,2.2022751330114522E-4,-6.288430182328212E-4,7.520076290422183E-4,-8.082187016486209E-5,7.581870149662527E-4,6.839157820222651E-4,-5.8072579116426006E-5,1.2180130850071789E-5,-6.503555006242526E-4,5.148192520785039E-4,3.8860266878354497E-4,-8.450605784243371E-4,8.430305882953559E-4,-2.3495894443366065E-4,6.679760849924704E-4,8.250906187431118E-5,4.863701863515284E-4,-1.31518980480466E-4,-5.437041823534319E-4,2.077669730831058E-4,9.220618085500179E-4,-0.0010814806153725933,3.266561767445064E-4,-4.784908720302202E-4,-3.981877064396071E-5,1.9618777469743637E-4,8.994781977058154E-4,1.0237582151290921E-4,-3.612001954322155E-4,-3.1349738665768757E-4,6.689504746116809E-4,-0.0012062367618666105,1.977786327215684E-4,-7.19093472039058E-4,7.727050493120863E-5,1.3622023354748319E-4,9.858295052844709E-4,2.29883188512059E-4,-8.688232340533784E-5,1.0287029027233549E-4,1.7162160993656109E-4,-0.0011426830533071003,-1.0875979457654553E-4,-8.067286951393287E-4,-1.2542104279110632E-4,-1.1084032378771496E-4,0.0012718453010605601,4.402413852364251E-4,-6.717393748141921E-4,-5.596438565985488E-6,6.485248671144339E-4,-0.0016159122172804078,4.260734117932935E-4,-5.638327598888823E-4,-1.288770586294166E-4,1.3701388072989213E-4,0.00216056859588715,4.98346013182583E-4,-4.980785428318927E-4,-3.588029514424111E-4,2.9427498886023173E-4,-0.001391196993841,-3.4009375844991515E-4,-8.148730572346597E-4,3.3506695192921603E-4,-1.6932858805327462E-4,0.001133538476129527,8.106304549373471E-4,-6.964815012588725E-4,2.1342655417884538E-4,4.7906503805828936E-4,-0.00108234665069493,-2.264322703787834E-4,-3.613819351342041E-4,-9.086218841319661E-5,-5.450290372153524E-5,0.0010371368283114387,0.001042415194109435,2.129843656859551E-4,1.2543414896663962E-4,6.480736591832032E-4,-3.661664964716191E-4,6.972655006897857E-4,-2.2064489887194097E-4,5.309554641100858E-4,2.9110288883859854E-4,9.280367886563916E-4,2.7919471603824955E-4,-2.8750698503748423E-4,4.52412833499446E-5,8.248942532587174E-4,-6.641260881432181E-4,4.039023341714065E-4,-0.0011688787075912503,5.605543035540784E-4,3.278407493386463E-4,5.294407276866963E-4,6.39091686123771E-5,6.015506792425205E-4,-3.6604480993178645E-4,6.885140919097439E-4,2.5471031793479606E-4,5.831263951841467E-4,-5.191332015161454E-4,-1.3019017363871641E-4,1.979276588171792E-4,-6.119733587126234E-4,3.9467925980553195E-4,-1.3106829229800703E-4,-5.0811402987314254E-6,-1.289333109089699E-4,-1.955635947908098E-4,-3.573707014497096E-5,-6.206355454953386E-4,3.7551169089032247E-4,4.575021296756399E-4,-5.629665878307456E-4,6.833555745853861E-4,-5.369219080088665E-4,-1.8065666974162522E-5,-3.07986648885968E-4,6.101074479083201E-4,5.973133757584441E-4,-3.342176021235649E-4,3.543735528944652E-5,6.593878665688513E-4,-5.505768402934078E-4,2.644113385810645E-4,-1.2845342553822892E-4,8.840320415595172E-5,-5.894683248783437E-4,5.91224553984264E-4,0.0012773593696220713,-1.3411975258690906E-4,-2.8483688078778327E-4,4.7312035693275657E-4,-7.630264627435658E-4,3.196636000589269E-4,-5.185769163251494E-4,-4.527967081199877E-4,-1.823911102844473E-4,3.5827218098717615E-5,0.0011535808759938156,3.731474143355722E-5,1.1120145715132021E-4,-6.481470114101673E-5,-5.619821263456352E-4,-3.43978891864039E-4,1.1882027620755275E-4,-4.351548779715061E-4,-3.0474027120892415E-4,-3.356831803948356E-4,0.0011969747447128911,4.056828721222226E-4,-6.954219659250431E-5,-3.866169285301216E-4,1.9000167336721003E-4,-3.273491666376132E-4,1.272422413344883E-5,4.164405555505813E-4,-3.5613773570278707E-4,-3.3348495959736917E-4,3.982332900285029E-5,1.9999455578597686E-4,5.06416729017045E-5,5.106818881146575E-4,-4.1180545734342827E-4,2.139551364348981E-4,1.61863544278307E-4,2.0680903466836612E-4,-3.431619187140283E-4,3.8532849353992057E-4,-1.0899134919581068E-4,2.2973849839187538E-4,-4.4382871610610893E-4,-4.195847460051327E-4,7.620653721908634E-5,2.585811171490435E-4,-4.49416352355804E-4,4.2564196021130753E-4,2.9069911814085317E-4,-4.465491018464309E-4,2.624809686157463E-4,3.837848470981887E-4,4.2752784894524166E-4,-1.859483376426766E-4,2.687628264952071E-4,-4.458549042643709E-5,-2.4396332755121015E-4,3.2993896663713763E-4,5.300144999987379E-4,-1.0020858235085549E-4,-1.5282920389732098E-4,-2.2206753867246782E-4,9.577281406614909E-6,3.581256700372737E-4,3.2033051975898993E-4,2.4619231489532797E-4,1.849395362151226E-4,6.092125810831297E-4,2.200880722171066E-4,3.0790206256495493E-4,8.941318620380778E-5,2.5057743452450116E-4,2.522097709293656E-4,9.117658426282673E-5,4.67303797717979E-4,8.108006210930997E-5,1.043468616210125E-4,8.882028400889406E-5,-1.8480211024142715E-4,8.432648276430308E-5,-1.3843579543248533E-4,-7.2138135776787175E-9,5.228581077297722E-4,1.4850018554226808E-4,4.6570063468068335E-5,-2.0361960598062241E-4,-1.4619721510173778E-4,3.4860485203957043E-4,6.06131754807161E-4,9.839476814890499E-5,-1.8695393130149126E-4,-9.181602695515296E-6,-1.4298608098600173E-4,4.2872746928257775E-4,-2.795358955442243E-4,1.52496159262502E-4,-2.8959219043874884E-4,4.561956122756835E-6,7.418956989293545E-4,-3.3247391505305396E-4,1.3830089334476147E-4,-4.828477377051247E-5,2.4327043497576254E-4,1.4107101787755522E-4,-2.7608740267531735E-4,-2.1371193016029398E-4,-1.125971024695513E-4,3.484124162347833E-4,2.452931785946392E-4,4.356554306661003E-4,-5.71944408003855E-4,-7.492684005141916E-4,4.791231184046718E-4,-2.586696855124139E-4,-6.855062332953644E-5,-1.2191077012773967E-4,-3.8149374868973385E-4,4.2096915447043133E-4,-7.440016450894362E-5,-3.7965080235382697E-4,1.8426136005478624E-4,-3.8499056365668257E-4,9.241841229011808E-4,1.5214269670476953E-4,-7.336427200392637E-4,-2.986063701841761E-4,-5.838973037052328E-4,4.579405325645832E-4,1.1219339350753175E-5,-4.4143667820047524E-4,1.1324547618536555E-5,-5.23914889444667E-4,5.275078148910898E-4,2.838041942079916E-4,-4.966165888107683E-4,-9.949614977178014E-5,-5.521080742166806E-4,-3.011643044439307E-5,1.464263317357832E-4,-5.897446091874297E-4,2.679664541702164E-4,-2.5244633585431135E-4,7.903692676643174E-4,2.23547111067604E-4,-5.595627276877664E-4,2.4013300890121027E-4,-3.845670718952508E-4,2.461422484020494E-4,2.2402578109555535E-4,-1.2171373032648365E-4,6.247292041836908E-4,-3.561925385242777E-5,0.0010689185132039818,5.78886940210017E-4,5.167766842798167E-4,-3.7514762059958194E-5,-2.5761064866948246E-4,7.387894092554239E-4,-1.480811128487219E-4,-5.466820782886419E-4,3.312942881348523E-4,-1.834961873239404E-4,0.0011920250393058739,3.214550399830515E-4,3.6440752192788055E-4,6.168611286715468E-4,-3.6529329060474035E-4,7.071946787361889E-4,-3.82547300895042E-4,-6.830036431767533E-4,1.380874307571056E-4,-3.9993699792278064E-4,5.252918499591417E-4,2.4239703637089888E-4,2.685546458345537E-4,1.8442649844182803E-4,-2.0713941508627084E-4,-5.791758084482059E-5,-2.1778044576373578E-4,-4.526486330643058E-4,-3.9358189469828133E-4,-2.978139930052784E-4,5.504140525725563E-4,-6.064585187964663E-5,4.337782140462457E-4,6.512654308976924E-4,-2.186798004026951E-4,4.921654435712158E-4,5.846694291131416E-4,-0.0016071846979356437,-6.898582399842265E-4,-5.408090327612648E-5,8.355906734945885E-5,-2.739941687175816E-4,6.854642765389914E-4,2.872084439927881E-4,2.3436001496627415E-4,6.760106725421915E-5,2.7905213361492014E-4,-0.0016511317519292148,-3.914124377752339E-4,-6.638850549151821E-4,0.0010915333960869152,-1.0186489415322858E-5,9.657518873442493E-4,9.05387206171718E-4,-2.3582845978389977E-4,-5.972458754599463E-5,3.224115659658219E-4,-0.0012397183658086571,-2.3504091959363336E-4,-0.0010417113992436612,0.0010175392413703799,3.673320578443544E-4,5.033008807632558E-4,0.0010644542906786203,8.956337942806817E-5,3.450503294489448E-4,7.73761544776544E-4,-7.232228622700745E-4,-1.3279067716804067E-4,-8.872514733087812E-4,0.0010342540153823246,-2.626297851611832E-4,2.1051315197185972E-4,9.093889596708011E-4,3.9603732368195056E-4,-4.678213935084093E-6,1.484332491645673E-4,-7.708839207240351E-4,-3.5123948205340543E-4,-0.0015923953913573063,8.017100632853014E-4,-1.0079203750663328E-4,-6.1442048973314E-5,1.3910950716256154E-4,1.1810252510181919E-4,2.3971560767124808E-4,3.991331512871233E-4,1.5454161445007078E-4,-2.2484394655206312E-5,-9.954023237042032E-4,4.0880940157166865E-4,6.267378258360454E-5,3.148861308669175E-4,2.0477626662837633E-5,-1.48871568487996E-4,3.6297127484291375E-5,8.100655673816949E-4,-1.871540748366923E-4,3.646109649349891E-4,-8.923507475094436E-4,4.96288502083238E-4,6.195431768303931E-5,-6.126335419928176E-4,-1.1416386069583033E-5,-2.348688958306208E-4,-4.302426584892908E-5,4.830685192318853E-4,2.684505384649494E-4,9.0482192830952E-4,-8.76233026613621E-4,-2.8664843030042295E-5,4.4543406146633005E-5,3.6951086981345643E-4,-8.404984631900524E-5,-7.541624566653545E-4,4.351990413188855E-5,-5.157886942800734E-4,-3.8994661167820387E-4,0.0011043813868990124,-1.1403610934358396E-4,4.5394920117049475E-4,5.076635877311275E-4,-7.420944025302172E-4,5.257080645867137E-4,-3.823331284227539E-4,-6.988638916663847E-4,2.1913178532783313E-4,5.022047051696937E-4,0.0014818803620707658,-4.410309198077218E-4,3.0571397273862163E-4,6.491774012743754E-4,-5.951507841257075E-4,-3.0499176666020592E-5,-3.3926759825036345E-4,-4.3671348870413595E-4,-4.6077582852578706E-4,-1.515318698788896E-4,0.0014344409532408397,2.5360382833854224E-6,6.594695918097802E-6,4.586439765792574E-4,-1.2284768455911026E-4,-3.527809978338519E-4,1.9366344471631112E-4,-1.510810932835455E-4,3.3868115523990474E-5,9.54573688545506E-6,0.001272725284670418,-3.180580586867117E-4,-1.6129695581183588E-4,-4.6524166060202027E-4,-6.225599392953762E-4,2.2136536636334925E-4,2.615735458262822E-4,2.9513302851575865E-4,-2.5126344578513775E-4,-1.7602221833287304E-4,6.260576758302997E-4,1.6675859426622353E-4,2.838916423595185E-4,8.345624362075196E-5,2.2353441398390624E-5,1.2741875199780625E-4,5.142713376080942E-4,-1.6981402949058254E-4,1.9690492742091025E-4,-3.959099038119999E-4,-2.746003293018605E-4,4.3958708953091655E-4,-3.696538193256599E-4,2.7987968676057004E-4,-4.275140703059275E-4,-1.6798557297422766E-5,3.702807929094181E-4,3.40479367458437E-4,-6.483378957052151E-5,-1.1978146041737478E-4,3.05783046689804E-4,2.539231359582392E-4,1.452913441930548E-4,2.2098984888156866E-4,-3.852721051715715E-4,4.1059946619539445E-4,-2.2260693383194634E-4,5.385594370771421E-4,-2.0547091816525278E-4,2.5184527225249946E-4,4.960995810172068E-4,-4.054012012698502E-4,-1.674962572134975E-4,-4.369255058294139E-4,3.040168739613866E-4,7.384155700656813E-5,1.7631941277080148E-4,-2.7968386248616937E-4,-2.504447588476955E-4,-3.330169236088001E-4,4.5646942637203526E-4,-2.5001040582948894E-4,7.660490769261729E-5,5.178205656423545E-4,-1.681097209630148E-4,-1.0183692027667067E-4,1.8220297122314386E-4,5.415338502627222E-4,-1.5440889909772203E-4,4.855935191269036E-4,-4.7738453239178715E-4,-4.571366327127595E-4,5.459643888206375E-4,5.128189706970941E-5,1.9082694082159216E-4,2.7806727153735917E-4,-2.752681538720905E-4,-6.700708426043053E-6,-1.7058484063889743E-4,4.038478798508359E-4,-4.468298546916404E-4,3.1953660529238787E-4,6.570661316959029E-4,3.976271407350656E-4,-6.37627581970583E-5,2.1343646162063737E-4,-4.2775325692079205E-5,-1.3526754525017835E-4,2.5496853521940954E-4,-5.209262173197094E-4,-2.8252793654267336E-4,-1.7386902509452716E-5,2.7594288091931286E-4,5.38355567321114E-4,-4.905962155016913E-4,-2.781127352347293E-4,-3.220002361352798E-4,3.0576896337125884E-4,-1.6918219756128174E-5,-3.180838625476289E-4,3.272744104500099E-4,1.0529468925403045E-4,7.043351707250985E-4,4.903048245235458E-4,1.0386278876917986E-5,-3.747616723024598E-4,1.098149420199025E-4,-1.6742929621975036E-4,-3.283227862556278E-4,-5.172215904904606E-4,3.735801405563633E-5,1.7450977868674623E-4,3.688144356098118E-4,5.071219019122077E-4,-1.3482408841468922E-4,1.2782766150420285E-4,-4.560649714801706E-4,-2.53885636313098E-4,-7.951836629046602E-5,4.675524813791778E-4,5.253657966247926E-4,5.483855841260343E-5,5.379812614295099E-4,3.368718182150767E-4,-2.071423392183224E-4,2.1946687416726627E-4,-9.332255745151738E-4,1.533589734757949E-4,-8.987183837452365E-4,4.2998804356433026E-5,6.817417451780787E-4,8.298195634453626E-5,2.3037934580643588E-4,6.216020691611849E-4,1.1402491563337717E-4,-4.292648811340731E-4,-0.0010439588193329398,5.632307051966619E-4,-7.737794993744599E-4,-2.407821684248278E-4,3.9103244640913744E-4,-2.541723590546679E-4,2.866277644883862E-4,6.544167242316757E-4,2.0790835999048005E-4,-3.9963054529770515E-4,-3.4875684200385616E-4,-1.2317497013432101E-5,-8.88252836981208E-4,-5.655611374027722E-4,9.571922197881075E-4,-3.868975623318383E-4,4.954750970866378E-4,5.432287025780624E-4,-2.6753189736086254E-4,5.342925623746283E-4,-2.977703618557166E-4,-2.3878100190408055E-4,-9.714821012469199E-4,-2.484356016885221E-4,8.274344264813584E-4,-2.898443647147441E-5,6.167637702421016E-4,3.953595509963402E-5,7.830049728725112E-4,4.3646644909815254E-4,1.0688020159225967E-4,2.776300918927717E-4,-6.41195803820822E-4,-9.216748574073031E-4,4.2416194765380704E-4,-8.339030302744525E-4,9.91430958414277E-4,-8.049159782758629E-5,4.651082319288236E-4,-2.3425917667533335E-5,0.0013106026767865967,1.1910851638779349E-4,6.47459461792399E-4,-0.0012496382576640884,-1.9327687759656642E-4,-4.7788699148205744E-5,0.0014620251706861168,-6.494939658196445E-4,4.2764501067365753E-4,2.788454742247697E-4,8.014028811707382E-4,7.486400427160789E-4,6.559011747081018E-4,-0.0011155802263427112,-9.879773507694238E-4,-9.585116441693154E-4,0.0010136010956930586,-7.772072158317356E-4,3.265740899491486E-4,3.4345063650420885E-4,6.133989101714631E-4,7.225802382117706E-4,0.0012391764478157014,-3.92419453211445E-4,-1.6413737139035813E-4,-0.0011921537528524662,0.0015087257114355702,-4.552987896194826E-4,3.094786538662851E-4,5.257606713723711E-4,-3.8802146857179774E-4,4.217003175981724E-5,5.222134780987658E-4,3.5837914873934764E-5,-4.830772744512568E-4,-0.0017400602193460598,9.239304534683369E-4,-1.6803944903385167E-4,-3.9895299211171834E-5,9.991744195453653E-4,1.1851954447316631E-4,2.5880641060247687E-4,2.3729713901279067E-4,1.7250418830264556E-4,-5.467546383289522E-4,-0.0012397240435378992,6.95148109211628E-4,-9.68851106047082E-7,3.1363687741318264E-4,9.265962276603731E-4,-6.914602977829401E-4,2.922253542681074E-4,5.948721034805451E-4,-1.1316648468811596E-4,6.503545413454452E-5,-0.0011243433869138812,8.604863430132061E-4,1.8418338300115063E-4,4.087654976458447E-4,7.098619312697944E-4,-8.348506173420828E-4,9.122519941105751E-5,2.3470144004130873E-4,-4.174499251218706E-4,3.938196836951167E-4,-0.0010656700745467315,3.6128923750566795E-4,7.672879775590349E-4,2.669918828281296E-4,2.9612809087832325E-4,-7.160766237818781E-4,-5.511708596850912E-4,4.730656239341328E-4,-5.8410360950244714E-5,8.855481024418621E-4,-8.330556919009354E-4,1.1954539195628269E-4,8.062674406894114E-4,-1.4735553705609223E-4,4.72270633646829E-4,-5.3046274325757165E-5,-3.1277010613770624E-4,1.575946904356191E-4,-3.9645927111481565E-4,9.424071802786517E-4,-6.260043542503651E-4,-1.1877284900075043E-4,5.851556597478322E-4,9.050874042999859E-5,5.409552962397951E-4,-5.689560315775956E-4,6.612835950007295E-6,-3.5445162470702904E-4,2.1716949885876926E-4,0.0012482620703524652,-4.730968684261618E-4,-1.2332716653327055E-4,8.421126903718487E-4,-3.8362899872343995E-4,-1.0241015411815571E-4,-6.842803850347998E-5,-6.260611184596375E-4,-1.5297427822154707E-4,2.4887799089952015E-4,0.001783023002650325,-6.317613274973111E-4,2.0010216754609689E-4,-4.6703162092398196E-5,-5.5140837433766914E-5,2.58740732206451E-4,1.5063675701593328E-4,3.779835219228761E-4,-2.451996856003237E-4,7.963468367493999E-5,0.0013012027706899372,-4.946889523105775E-4,-1.5537593422641955E-4,1.160325070901962E-5,-2.510376580060252E-4,1.4380211938489583E-4,3.3655138041222937E-4,9.215018210302307E-5,-8.728035443368975E-5,-1.152015520869335E-4,9.016161899582918E-5,-4.4812001147372793E-4,2.6558341238928495E-4,-1.8322429137101619E-6,-2.829854391009677E-4,2.599489646366894E-4,9.943234102510893E-5,-1.366683600231235E-4,-4.095948751248565E-5,-4.0440202160143824E-4,-3.3647103532127664E-4,-2.3108155400080463E-4,-3.601908706757815E-4,3.5065519666872824E-4,-2.2858302837029508E-5,-4.2420863996157985E-4,-2.9765663801370457E-4,6.1825220047565E-5,-4.023648339074406E-4,1.3903450064671734E-4,3.2700436132172985E-4,5.37834707500265E-4,-4.297438194742879E-4,4.9776380013101E-4,5.049787095152319E-4,-1.7878770347814682E-4,9.538699944474387E-5,-2.0921536590910382E-5,1.082468022325683E-4,-2.420948902518185E-5,2.481514013982438E-4,-1.0216902377285252E-4,-3.425981082676055E-4,-1.90268844658226E-4,2.1867093823625496E-4,-3.7672184548440433E-4,-8.186829649241323E-6,1.4149301097016824E-5,1.7868980768526847E-5,-4.578092171883943E-4,-1.637406689230543E-4,4.569982437556454E-4,-6.188780195020227E-6,-4.785208520556816E-5,2.2284767698701715E-4,1.5707391276133896E-4,1.806258494203118E-4,-9.055786299579784E-5,-6.3658731504426456E-6,-4.980930582383549E-7,1.348956206195258E-4,2.6159182834938364E-4,6.663718743578988E-4,3.4727256044410674E-4,3.382131686752042E-4,1.1789862888467573E-4,-3.324249782971803E-4,-2.0322633677871362E-4,1.6431465466800304E-4,-2.9674543998250123E-4,-3.798297345753965E-4,3.395124997906374E-4,8.509267874242542E-4,-2.7684947906108574E-4,-2.58946003064769E-4,-2.2020779100857914E-5,1.4478259897776876E-4,7.043869688416305E-5,7.750084231830606E-5,-4.073396722779462E-4,-4.5387386888717557E-4,-5.959677287839508E-4,8.537341556787756E-4,5.179061039200914E-4,-1.54294026204416E-4,-3.2960218153862644E-4,-2.559875903486045E-4,3.7162695140886706E-4,-7.90299937937472E-5,-4.0674792603428577E-4,5.531761541599203E-4,-1.1771268598288699E-4,1.3128410203141088E-5,1.3321995093274486E-4,6.689149782680492E-4,3.8427592083468764E-4,-4.3742681326692856E-4,-1.462084421756123E-5,-5.7631217392823E-4,4.256406320798182E-4,4.2475515411731404E-4,-2.1831667273811562E-4,3.242874316137184E-4,0.0011085075521078112,6.446284058994532E-4,-3.412674519118617E-5,-5.672431020025339E-4,-4.1556185748537573E-4,-0.0011006016060976927,4.1498233932358615E-4,8.148225307433197E-4,2.950717440039476E-4,2.1318409945709967E-4,8.462298290068558E-4,8.541784075077616E-4,1.4775443689284823E-4,-1.4498217740559837E-4,9.450497304832548E-5,-7.616239253007851E-4,2.0271697527477945E-4,2.815680287312743E-4,8.156158777797969E-5,4.364307055866227E-4,3.270258827802283E-4,5.531932896723038E-4,2.637449604153413E-4,-9.253981317762866E-4,-1.8860245946738984E-4,-0.001168316586913816,5.156339759240579E-4,7.963521816831456E-4,-1.0506738657299307E-4,6.724838425167333E-4,8.981518734132182E-4,4.377272583894356E-4,2.460144517331064E-4,-3.972715119186825E-4,-4.892964498243428E-4,-0.0011302843823331184,-1.867589367460203E-4,0.0011025261884064436,-2.9986417969078694E-4,3.729699098355269E-4,1.5214491370112843E-4,-4.022001148440137E-6,3.406396913143991E-4,-1.2233553492613453E-4,-7.290545860024105E-4,-9.083393267730294E-4,6.523508188431283E-4,6.879853403906003E-4,1.2032745834265126E-4,2.528226142232254E-4,4.067909416572907E-4,3.265632789545429E-4,-1.474178611688973E-4,5.433564572644207E-4,-8.841880229976452E-4,-4.6664938210480556E-4,-2.7759835201487417E-4,3.7642129457712907E-4,-1.1675730760772238E-4,8.570845228360658E-4,-1.1012248254537508E-5,2.8216447899761282E-5,5.651688592278767E-4,0.0012632568558990154,-4.4754993700526044E-5,8.36407180671164E-4,-0.0015351961424276688,3.9489964795917757E-4,-1.9818856595619922E-4,9.814909831844442E-4,-2.666205129978517E-4,-2.918911746762698E-4,-2.3468602154053995E-4,0.001503129126814208,1.5448007612955817E-4,9.755747480183663E-4,-5.331517498257056E-4,2.3465823106760166E-4,-8.424839435908105E-4,9.413625405839172E-4,-8.043075788087576E-4,3.28340090176576E-4,-2.448908364415617E-4,8.906024705090865E-4,-3.606019316544037E-4,7.287595118603644E-4,1.798279399829988E-5,-8.332821088942423E-4,-0.0016108146764975604,0.0015676703907999434,-0.0010969925090992911,1.2263386539474163E-4,1.0996074024476202E-4,5.554274692242461E-4,-1.8305605531236292E-4,7.821254111512827E-4,2.3096656240905323E-4,-8.001130468591418E-4,-0.0015294363364062825,0.0013830221155399954,-5.152507873704624E-4,2.3365142532034584E-4,1.4459125199528788E-4,-3.1428997927764155E-4,-3.859757307579998E-5,5.464821578206185E-4,2.918500464270127E-4,-0.0010389230554852969,-0.001174883661767372,0.001438936754521614,1.9391120786067275E-4,3.1015286736451973E-4,7.480357362059284E-4,-3.385964721037325E-4,1.9794380885915043E-4,9.673401441447203E-4,-2.6087693862771516E-4,-5.247576340346724E-4,-6.034960503338656E-4,0.0010251299664486512,8.002125430395701E-4,2.318052670864886E-4,4.228924760622259E-4,-7.49022774239279E-4,3.976324407942136E-5,2.8221926357330733E-4,-1.9663917721469854E-5,-5.26009299988015E-4,-4.905219152243082E-4,1.552982503797639E-4,-1.1957496105688923E-4,1.478818548910966E-4,7.786030401261828E-4,-2.4226243196887132E-4,-3.322737601275935E-4,5.790989308732084E-4,-5.24928515660899E-4,-1.7247189055157917E-4,-6.037348112624671E-4,4.15373143689991E-4,4.283051847491024E-4,-7.602265822473081E-5,9.888311992211425E-4,-5.571071515291492E-4,-2.2712175720294287E-4,3.820840277752793E-5,5.884586490957997E-5,2.3260649785970697E-4,-2.0749443198929908E-4,6.530038783308463E-4,5.668647214289108E-4,1.7978034682204666E-4,2.342200479181254E-4,-4.1965035259663866E-4,-3.8958372887519944E-4,-2.831811361109761E-4,-2.95985698422001E-4,6.137085018423443E-4,2.265932351453402E-5,4.369846362889481E-4,6.326400106702822E-4,-2.7068710705778417E-4,7.289268234772779E-4,-1.1312642194135771E-4,1.956220734824916E-4,-4.336776034976615E-4,-4.4352705333308863E-4,0.0012813796267472945,-3.4381502641037565E-4,-5.31740653774861E-4,-7.222305521767778E-6,-3.150567956491728E-4,-2.6295532297458874E-4,-2.685608436172342E-4,2.79291128983405E-4,1.9407893024217518E-4,1.9274426575652267E-4,6.970633246285482E-4,-2.9404767183236917E-4,-2.0631628476666834E-4,9.818388030090748E-5,-5.136894469778527E-4,6.553324573465673E-5,-1.0371081944454E-4,3.6455855197086654E-4,-2.9063767160622734E-4,2.781793814994671E-4,5.544289356942025E-5,-4.895649302496665E-4,4.7735587377974593E-4,4.2436365271523833E-4,4.0146675417082443E-4,4.6141142897228847E-4,2.9502934808520028E-5,-4.1921215191663907E-4,-8.642673767150094E-5,-1.6818822876034007E-4,3.842359287602065E-4,-2.8704866201707417E-4,5.106442480372805E-4,-2.297691482219786E-4,5.56524012190595E-5,1.0677823654085198E-4,-3.7539579247840223E-4,-1.19221825859882E-4,4.964231918072154E-4,-2.5003153517856694E-4,4.900330995223047E-4,-4.1092232512872644E-4,2.9893138297112476E-4,4.188554044964979E-4,3.1618874547573595E-4,-1.2801626965292298E-5,-2.3611329544275444E-4,3.9485021816319874E-5,-1.605295090775781E-4,-4.2074675431950676E-4,-3.710631248059886E-4,1.7589566588422474E-4,-6.23661516634856E-5,5.01030960526635E-4,-6.442812098174364E-5,4.7212002694762314E-4,1.3418860780445614E-4,2.980944258206626E-4,2.312068920322149E-4,3.743541538311746E-5,3.873383808855864E-4,1.2119682406939002E-4,3.084900935425428E-5,-2.937748376706219E-5,3.9076041002283934E-4,-1.1474307390322032E-4,-3.8253672099795795E-4,1.5333906959266472E-4,5.541456662543051E-4,-4.697864454581473E-4,-7.760660351100945E-5,-9.232779687812178E-5,5.833846008193236E-4,-7.99333693533376E-5,-1.4395752730614548E-4,-6.2387484126948405E-6,8.99339071503811E-5,1.853171184097576E-4,-1.041701961364441E-4,-5.5138562317045886E-5,-2.479012493101747E-4,-3.480287114866276E-5,6.768864547601201E-4,3.7149028932098154E-4,8.323985603826942E-5,1.9515252418694144E-4,9.816946377741108E-5,-1.2960902173520932E-4,-4.325450113024723E-4,-3.5344887749334575E-4,2.293135847482631E-4,1.3563920094242373E-4,1.1901719732145613E-4,6.141728009358801E-4,7.098271167676575E-6,2.548047668180173E-4,7.246627319916217E-5,-4.1041547085007325E-4,-4.1576705329316816E-4,4.815078012065625E-4,-1.6861844839925747E-4,1.6175093997238842E-4,3.1771673531886586E-4,3.949395726215151E-5,4.783654107977193E-4,4.3847442552736845E-4,3.2328791377661087E-4,-6.39465926513044E-4,-6.935277384861796E-4,2.7428151001497906E-4,6.00467447630763E-4,2.312843479790752E-4,4.603417835716486E-4,3.527198175260058E-4,7.936130474365464E-4,1.7927098994953953E-4,-3.731893837754412E-4,-0.0012810505495394417,-9.800972737394862E-4,7.913417977839973E-4,7.348185527533405E-4,1.798590694157347E-4,1.0332238677362215E-4,3.9985627294211864E-4,4.1652554115584117E-4,-5.476540828010515E-4,-3.6530223051988445E-4,-0.0011981963307322945,-0.0011180323764063012,1.8140545748516804E-4,4.594019514094325E-4,4.122977038332671E-4,4.953507754080469E-4,9.796757021477307E-4,4.525247685348532E-4,-5.125350540255461E-5,-9.356557523995993E-4,-0.0012975947495178514,-0.0012444095494749594,8.31379291557284E-4,5.884662088904968E-4,-6.76705901125419E-5,-1.2452304914480517E-4,1.583783781566391E-4,8.687962413499277E-4,-1.0875778423302837E-4,-9.793171793509641E-4,-0.0011813783896799234,-0.0012459298016757254,5.754221097114593E-4,6.556214937358417E-4,2.4364773065643235E-4,1.0583939529282546E-4,2.62522970019247E-4,7.834878342251741E-5,1.9225983630113195E-5,-6.607053987008367E-4,-0.0016497733649608293,2.2413681084677335E-5,3.0493824885297863E-4,0.0010527116730918763,4.2417094353278806E-4,-3.2169670573127174E-5,7.117514402109136E-4,-2.242351600082456E-4,-3.835188631109234E-4,6.434790326766532E-4,-0.0017980925930106873,5.110319797400385E-4,-0.001134164733973209,7.358209871062678E-4,3.597741433262788E-5,-2.9565513545157745E-4,2.967236335012867E-4,-3.953514619511058E-4,-0.0010560182576706038,0.0019824465873163415,-7.723500290702245E-4,8.430733093434984E-4,-6.046440710093368E-4,3.4341979040486317E-4,-3.079066081823212E-4,1.0521498678152365E-4,-1.898304102359426E-4,1.5505795191059567E-5,-0.0012458626453532753,0.002256652173075246,-0.0010281953724225403,6.577085372564559E-4,-6.428063463849145E-4,-2.184400413049303E-4,-9.044907012540092E-4,0.0010431331611340262,-5.160971036847273E-4,-1.569686345322954E-4,-7.137492152734343E-4,4.420189193669031E-4,2.0771144690634463E-4,1.941129423615842E-4,0.0011485893919429954,-7.360246041264108E-4,-5.530580152247926E-4,9.570392270595894E-4,4.569058686850817E-5,6.611734394150844E-4,-0.0010260087272358938,-3.0879722201671554E-4,-1.539854185113234E-4,9.232591654503805E-4,5.905550346314224E-4,-5.777917809347781E-4,-5.437195040839446E-4,7.023569595684928E-4,-4.576940401492139E-4,8.449133520269781E-4,1.9071993021924872E-4,-7.13236419356572E-4,1.0712501679360393E-4,8.006492780429778E-4,-1.0145098913470725E-4,-6.94385843789702E-4,-9.6301137192452E-4,0.001319443263833686,2.68927934147882E-5,6.638914994183985E-4,3.3500848265747917E-4,-7.103230580649472E-4,3.6810103891475333E-4,1.5611733624967212E-4,-1.6128584505584008E-4,-0.001113668183794905,-4.377230653472642E-4,7.609002079500615E-4,4.0346642233284264E-4,6.699226864651401E-4,9.914353185999085E-4,-3.8345674291291175E-4,8.267653332435708E-5,8.384610715258025E-5,-1.7925893034739378E-4,-0.0012484896132765467,-4.621565954442442E-4,7.695342725200933E-5,7.777846706136271E-4,0.0010933288000717861,9.95515846853133E-4,1.0969954739090293E-4,-2.0214158138277848E-4,-7.450954692016617E-5,-5.062667030803048E-4,-0.0012233914063440288,-5.1551626361590214E-5,3.929689543694614E-4,4.459795628499576E-4,5.009993176016326E-4,6.919634575087816E-4,-5.086415239340035E-4,-3.068067107171094E-4,-2.755854000247904E-4,-5.462212571512735E-4,-8.881834384452813E-4,-5.2109866983132786E-5,-3.1436779747697456E-4,8.685158021783876E-4,4.159447003204912E-4,9.391266938701494E-4,5.576102170831342E-5,-7.012419939864073E-4,1.1839861479344701E-4,1.788943737740267E-4,-7.32868430453386E-4,4.8641032405749205E-4,-3.9739668460782405E-4,8.695133729674874E-4,-1.8273545327132128E-4,1.9955157749755942E-4,-4.740287178780619E-4,-2.6348496873579643E-6,-8.812165793220357E-5,2.0198157859653492E-5,-3.83911399232513E-4,-3.751596060854441E-4,-8.265259760295083E-5,8.362353897348011E-4,2.0682713033444729E-4,4.857417325371281E-5,4.6480785683462953E-4,-1.2265505155417458E-4,-1.6221127696751417E-5,4.1756200577933774E-4,3.3366561958032457E-4,5.315487780362402E-4,-1.5190313111948704E-4,5.328565039929272E-4,-1.2329019680865585E-5,-1.843303206681529E-4,-2.3393360853725723E-5,2.2383269738455807E-4,3.435869354826011E-4,4.045322807314391E-4,-2.081889462110101E-4,-1.9364291221799873E-4,1.2106836432424097E-4,3.864655900204303E-4,2.774627757862468E-4,-1.460917304289699E-4,-4.0355122780779806E-4,1.0468261935831462E-4,-9.10120526654587E-5,3.7516913334692157E-4,7.256963081608467E-5,3.722857774398027E-4,-2.0398137615623463E-4,1.684817574136138E-4,2.481432467301092E-4,4.1617436947799325E-5,4.825456702709073E-4,1.2757500889542912E-4,1.0661403394731166E-4,8.816138068920624E-5,4.768267875811573E-5,2.85727315261249E-4,1.2717088482074544E-4,3.060030639780181E-4,3.0430488468470595E-4,5.272427832750163E-4,-1.6041957398216518E-4,1.0366483357786071E-5,3.3035596059635556E-4,2.4930380885559217E-5,1.8344291931788792E-4,3.1621151584270254E-4,-2.927506989099909E-4,-1.605727075527791E-4,4.52095795808148E-4,1.4859097467601336E-4,-3.572077171603903E-4,5.464207534851347E-4,2.2292775467024325E-4,2.357490818138943E-4,-2.152410222254427E-4,2.0411336167868235E-4,5.105819553615904E-4,4.325466904012946E-4,-3.190535131609422E-4,-4.093439754045269E-4,-6.23709275366465E-5,5.6752317062421844E-5,-1.9613141505517772E-4,-8.108102415759832E-5,-4.378618727241338E-4,-1.3487691130216099E-4,7.730142584592494E-4,2.6236153701395746E-4,-4.5512055274812076E-4,-5.717721187222186E-4,1.7386972762106668E-5,-5.230149192381692E-4,-1.1562639115610172E-4,-4.294970644734016E-4,5.033513598447733E-4,-4.4075432820819545E-4,2.2932199141157978E-4,6.643783002897496E-6,4.2477691335504776E-4,-3.2293340936205377E-4,-3.0776569001875805E-4,-8.608571399368917E-4,-1.9939283926003409E-4,3.884280608535649E-4,-9.045278800063273E-5,-5.290274772971787E-4,7.431737092295579E-4,4.7551421324440166E-5,2.8264070791907006E-4,2.2309637793191818E-4,-3.032092038005419E-4,-0.0014649945568238002,-9.410386657286634E-4,-1.2758333019654197E-4,7.39718659765238E-4,-5.032859968495761E-5,-7.338920375090181E-5,3.084025729665563E-4,4.5323141099723897E-4,1.8156193399829212E-4,1.849115426787454E-4,-0.0011309532582404827,-2.731508532606398E-4,3.091343942319891E-4,3.25978802262691E-4,6.890850925910172E-4,-4.487727391742159E-5,7.275990940594743E-4,4.663061731481058E-4,-9.861696007614106E-5,-5.963688825834224E-4,-0.0012242546170696104,-3.90422678238334E-4,0.0010679620332992232,4.087172281473278E-4,5.877922059049278E-4,-3.2961926482194195E-4,6.749349076036963E-4,0.001002929023515432,-3.421737301610293E-6,-5.540189025229686E-4,-0.0015556614238746685,-7.670877832457008E-4,3.2216695365841095E-4,3.347502648500934E-4,1.4576305492336873E-4,8.17143087797336E-5,4.380060951580662E-5,6.478540222867E-4,1.4980585605897797E-4,-6.009193538792995E-4,-0.0018449287472766913,-5.863471228467737E-4,0.0015446292605543522,8.17121163727823E-4,2.3394093487445918E-4,-8.627339632989218E-4,-1.8192662887265413E-4,4.730358115095705E-4,-4.659987718300483E-5,-6.494768313139436E-4,-0.0016095559795046986,3.886150549606764E-5,5.985407274800525E-4,0.0011027894628941985,6.179796913577898E-4,-6.360993337911059E-4,2.0456317098391445E-4,1.1406370546396986E-4,5.273106879716032E-4,-5.940042258041997E-4,-0.0016970468271185722,3.7601404897120994E-4,0.0011014692618085227,0.0017969657944208236,6.12501447715837E-4,-9.510572460349676E-4,3.5683315711686604E-4,1.2972827558147706E-4,-5.378241019813739E-4,5.058025753121911E-4,-0.001323128433359056,6.87556274669152E-4,-2.6940918475923663E-4,8.273956555006684E-4,1.61704294121043E-5,-0.0011654694836038199,0.001401337151270213,2.517396022366355E-4,-9.741483182135544E-4,0.002218277300320084,-7.683224439887458E-4,7.231652633825606E-4,-0.0010598115806717196,6.234144591095667E-4,-6.690663838043137E-4,-4.513635052093526E-4,8.726541598237115E-4,-7.539886585554578E-5,-0.0011488737736192471,0.001591261832796576,-6.21577153765817E-4,2.977091375299273E-4,1.7809073584014156E-4,-4.6675854017397885E-4,-4.97302658400674E-4,-4.5885956252967305E-5,5.307683150400796E-4,2.201259823810585E-4,-0.0011470609501551632,4.2471176820351315E-4,-9.015142983843416E-4,6.209210546697469E-4,8.127476322330905E-4,-6.647475918699743E-4,2.4549885575488854E-5,0.0013446350617999268,-2.815845431997674E-4,7.775200753918806E-4,-7.47569370753067E-4,2.1418814871984785E-4,-5.952879185352868E-4,-7.752045940865256E-5,7.084690687363005E-4,-9.742132682765137E-4,-5.081837461196977E-4,0.0011463059978420037,-1.592917858881531E-4,0.0012483763724233554,-7.219649494287475E-5,-7.676110215211182E-6,1.7290513187357914E-4,1.4542766347675515E-4,4.887384472574861E-4,-3.624924055570215E-4,-5.831273922258935E-4,8.376366817933128E-4,-1.8315945682684126E-4,8.894090399695331E-4,-6.712658176651854E-5,-6.337684196349251E-4,-1.6131756296722014E-4,4.6431875892436066E-4,4.6495721982161084E-4,-0.0012298412265399693,9.411084859848488E-5,2.865480694160668E-4,1.7802078591659047E-4,0.001033314723781555,3.160572025543771E-4,1.4310688963178902E-4,2.664764187740826E-4,-3.240349136138137E-5,-5.002627138876545E-6,-8.204276410297981E-4,-5.031796191257973E-4,3.152596568356288E-4,1.5035238815101984E-4,5.956848478749365E-4,5.938477787048918E-4,1.769464739046151E-4,2.447478308946841E-4,-4.1946734995924764E-4,-1.7568588026246388E-4,-9.647297593645802E-4,3.53426190795076E-4,3.030417027467771E-4,5.965891192676653E-4,3.925435812130708E-4,0.0010261970188727915,-1.2711402714950875E-4,-9.782126247644733E-5,-5.942440132447518E-4,-8.527227256385151E-5,-0.0010248724295139804,8.276021666554688E-4,2.9723836076878026E-4,-2.7454017683428793E-5,9.474827507902303E-5,8.178503030413887E-4,2.8576105879408385E-4,-5.587888726128324E-4,-4.393647129561966E-4,-4.7008763561104774E-4,-8.488884858024729E-4,4.2171903242885336E-4,-1.3027525067787505E-5,6.457742067890121E-5,4.4719467066133825E-4,5.718873177901176E-5,4.4738783254868753E-4,9.603179447529386E-5,3.6694549302207025E-4,-5.041885478579422E-4,-2.2760831200690511E-4,1.844489438044725E-5,8.232217857610612E-5,5.922447248683398E-4,-4.54810411431648E-4,5.4727081088602595E-5,4.9847790263186445E-6,3.541781728737236E-4,7.964467878492899E-5,3.290435759247364E-4,-3.2585793287225046E-4,-4.4014659752718436E-5,-4.514573676860504E-4,-2.8604831741964713E-5,2.65991677025749E-4,4.0305643165481963E-4,-4.4848324532326524E-4,4.856468538972989E-4,2.583537895304059E-4,-1.838416064141608E-4,4.939918964772097E-4,1.9780535783660655E-4,-2.2289103796422054E-4,-2.411255414628044E-4,-4.286391957968164E-4,3.3045956943780733E-5,-3.62428750872726E-4,-4.2000583041425883E-4,6.166322288785253E-5,7.937696897679372E-5,-2.8919231952660924E-4,3.613930231817335E-4,3.757831998163849E-4,-8.264092287848358E-6,-1.144609276964691E-4,4.2142783680960516E-4,-1.404683659920122E-4,3.1007196657863195E-4,-4.128064293856515E-4,1.452124756488618E-4,1.1052730893861846E-4,4.746041476277599E-4,-3.626171148937872E-5,-7.511882587515259E-5,4.577538089179249E-4,1.2264203013659985E-4,3.4738081330932163E-4,-3.8576267467611413E-4,-1.0420332964245816E-4,3.25819685198377E-4,4.0098690018818575E-4,3.942631782198503E-4,1.043449429194398E-4,3.083388449719103E-4,2.928774295023921E-4,3.0591916088984396E-4,1.6354233106183108E-4,-1.4198430524351143E-4,-5.071514241694079E-5,2.4118380087413013E-4,-1.0012847261330125E-4,1.9397587815240063E-4,5.317630175216245E-4,5.302060897577568E-4,2.4324910818468055E-4,4.85095902473758E-5,-3.009684634538996E-4,1.592877888941822E-4,4.462380001510891E-4,-2.9449574376225554E-4,3.9372204561551884E-4,-2.224981920941582E-4,-1.2459793049568834E-4,-4.2972809433320796E-4,3.3034996181552904E-4,-5.433171612276157E-4,3.521428036236256E-4,-6.337078186677519E-4,-3.19344501889918E-5,4.983335377811415E-4,4.455771536593928E-4,3.323945970665506E-4,8.926293739264228E-5,-8.431672470714836E-5,6.989352431773179E-4,3.785731721534661E-4,-3.245885092750071E-4,-0.001087833515569803,-3.858556448193791E-4,9.340232599174041E-5,5.781784412286191E-4,-2.3279064328232877E-4,-5.3061764362137426E-5,3.2948089460400453E-4,7.758826381607826E-4,6.78552907711011E-4,-2.741502658986061E-4,-0.0013306552535795842,-1.933381753799396E-4,5.208468660107231E-4,6.351771073495112E-4,-2.0988638909344272E-4,8.051638098379239E-5,-5.5487174852017386E-5,7.42333466060412E-4,2.1165038665831555E-4,-1.854459463824863E-5,-0.0010220217973414564,-8.812389850980874E-4,5.575491727668289E-4,5.17093828667776E-4,-8.236266528892796E-5,1.8503384095293714E-4,-6.968434928878361E-4,1.8162265442823295E-4,5.636933835788857E-4,4.960979884345858E-5,-0.0010103723714386175,-7.297815378336878E-4,0.0014130287595547318,1.958210544744184E-4,2.781692349611408E-4,2.4940877930331107E-4,