{
  "class": "com.simiacryptus.mindseye.network.PipelineNetwork",
  "id": "fc6365cf-c0d1-4e35-bbe5-2070b19fb6ee",
  "isFrozen": false,
  "name": "PipelineNetwork/fc6365cf-c0d1-4e35-bbe5-2070b19fb6ee",
  "inputs": [
    "857f38b1-d8d7-4b7f-9226-a0824ede0d03"
  ],
  "nodes": {
    "00949687-356a-4b23-b8d0-fc64e9c72066": "911c652d-4be0-4e78-9bd6-029eb61978d5",
    "9481c582-db44-4d8d-acda-bd67733b63ea": "2d2c7141-3c22-41c6-88c5-dd76d9f0389e",
    "57671b36-ce0c-4eb5-ad87-f7600d0037ce": "f3604b9f-ddc3-4fdc-bc4d-2ace4bb38b83"
  },
  "layers": {
    "911c652d-4be0-4e78-9bd6-029eb61978d5": {
      "class": "com.simiacryptus.mindseye.layers.java.FullyConnectedLayer",
      "id": "911c652d-4be0-4e78-9bd6-029eb61978d5",
      "isFrozen": false,
      "name": "FullyConnectedLayer/911c652d-4be0-4e78-9bd6-029eb61978d5",
      "outputDims": [
        10
      ],
      "inputDims": [
        5,
        5,
        3
      ],
      "weights": [
        [
          -0.097,
          -0.0144,
          0.069,
          -0.0872,
          0.027,
          -0.056400000000000006,
          0.029,
          0.0918,
          -0.0142,
          0.023,
          0.0356,
          0.0874,
          0.0926,
          0.049400000000000006,
          -0.038,
          0.003,
          -0.06620000000000001,
          -0.0592,
          0.0162,
          0.0078000000000000005,
          0.0022,
          0.0892,
          0.0966,
          -0.079,
          0.0994,
          -0.0626,
          -0.0072,
          0.08880000000000002,
          0.0238,
          -0.075,
          0.09440000000000001,
          0.0826,
          0.0826,
          0.032,
          -0.022400000000000003,
          0.08360000000000001,
          0.0884,
          0.0814,
          -0.057800000000000004,
          -0.0762,
          -0.03,
          -0.0582,
          -0.059,
          -0.0172,
          0.0654,
          0.047200000000000006,
          -0.0396,
          0.0468,
          0.0158,
          -0.0694,
          0.0496,
          0.051800000000000006,
          -0.0342,
          -0.0898,
          0.037,
          0.014,
          0.0274,
          0.09480000000000001,
          0.040400000000000005,
          -0.021,
          -0.005600000000000001,
          -0.0164,
          0.0814,
          -0.0364,
          0.028200000000000003,
          -0.049800000000000004,
          -0.018600000000000002,
          -0.055,
          0.026600000000000002,
          -0.037200000000000004,
          -0.045200000000000004,
          0.024200000000000003,
          0.0412,
          -0.014600000000000002,
          -0.049400000000000006
        ],
        [
          0.0308,
          0.07940000000000001,
          0.0862,
          -0.014600000000000002,
          0.0178,
          0.0454,
          -0.05240000000000001,
          0.0898,
          -0.06080000000000001,
          0.0412,
          -0.0308,
          0.0664,
          0.044800000000000006,
          0.0884,
          -0.0646,
          0.04580000000000001,
          0.024,
          -0.08860000000000001,
          0.07680000000000001,
          0.008400000000000001,
          -0.09880000000000001,
          -0.0874,
          0.0596,
          0.0286,
          0.028200000000000003,
          0.0316,
          0.095,
          -0.08180000000000001,
          -0.096,
          0.07379999999999999,
          0.0114,
          -0.007600000000000001,
          0.09280000000000001,
          0.0356,
          -0.0568,
          0.025200000000000004,
          0.010600000000000002,
          0.08,
          0.0668,
          -0.0666,
          0.0344,
          -0.0946,
          -0.0088,
          -0.07160000000000001,
          0.0936,
          0.056600000000000004,
          0.0104,
          -0.051800000000000006,
          -0.05140000000000001,
          -0.054,
          -0.0936,
          -0.02,
          -0.011600000000000001,
          0.014,
          0.009800000000000001,
          0.08680000000000002,
          0.056,
          0.0626,
          -0.0512,
          -0.0446,
          0.0568,
          0.014600000000000002,
          -0.0614,
          -0.04580000000000001,
          0.0302,
          0.0386,
          -0.09140000000000001,
          0.007,
          0.0238,
          -0.08860000000000001,
          -0.09680000000000001,
          0.0164,
          0.05940000000000001,
          0.0704,
          -0.004200000000000001
        ],
        [
          0.0644,
          -0.049,
          -0.0734,
          0.025400000000000002,
          0.0772,
          0.055,
          -0.09860000000000001,
          0.014,
          0.054200000000000005,
          0.07680000000000001,
          -0.09980000000000001,
          0.007,
          -0.002,
          0.062200000000000005,
          0.055400000000000005,
          -0.067,
          -0.09,
          0.03780000000000001,
          -0.018600000000000002,
          -0.0144,
          -0.047,
          -0.004600000000000001,
          -0.002,
          0.0522,
          -0.013,
          0.0834,
          -0.028200000000000003,
          0.0992,
          -0.006,
          -0.0026,
          0.0976,
          -0.0648,
          0.08880000000000002,
          -0.0966,
          0.0248,
          0.0356,
          0.035,
          -0.09440000000000001,
          0.1,
          0.024200000000000003,
          -0.0246,
          -0.003,
          -0.08860000000000001,
          -0.062200000000000005,
          0.095,
          -0.049400000000000006,
          -0.088,
          0.06720000000000001,
          -0.081,
          0.077,
          0.056,
          -0.0054,
          0.0228,
          -0.0182,
          -0.0952,
          -0.084,
          0.0028000000000000004,
          0.016,
          0.08660000000000001,
          -0.023600000000000003,
          0.0166,
          0.0834,
          0.0028000000000000004,
          0.030400000000000003,
          -0.0496,
          0.07980000000000001,
          0.085,
          -0.0334,
          -0.0194,
          0.0854,
          0.057,
          0.014,
          0.059800000000000006,
          0.08280000000000001,
          -0.06380000000000001
        ],
        [
          -0.09620000000000001,
          -0.056,
          0.0806,
          -0.07940000000000001,
          -0.058800000000000005,
          -0.0198,
          -0.0208,
          0.07680000000000001,
          -0.028200000000000003,
          0.02,
          -0.011,
          -0.044800000000000006,
          -0.022,
          0.0016,
          -0.0284,
          -0.0936,
          -0.0332,
          0.044800000000000006,
          -0.0936,
          0.0684,
          -0.0062,
          -0.008400000000000001,
          -0.026600000000000002,
          -0.043,
          -0.08860000000000001,
          -0.08860000000000001,
          0.039400000000000004,
          0.047200000000000006,
          -0.04340000000000001,
          -0.027,
          -0.0698,
          -0.04340000000000001,
          -0.0596,
          0.061200000000000004,
          -0.021400000000000002,
          0.1,
          0.018400000000000003,
          0.048400000000000006,
          -0.06960000000000001,
          -0.0596,
          -0.073,
          -0.0482,
          0.0082,
          0.09620000000000001,
          0.0722,
          0.0064,
          0.0724,
          0.0154,
          0.01,
          0.0316,
          -0.022200000000000004,
          -0.0316,
          -0.0322,
          0.0994,
          -0.0678,
          -0.020200000000000003,
          -0.0936,
          2.0E-4,
          -0.0366,
          0.009600000000000001,
          -0.061,
          -0.056,
          -0.09140000000000001,
          -0.051,
          0.024200000000000003,
          0.0258,
          0.086,
          -0.0912,
          0.036,
          -0.0218,
          0.094,
          -0.0078000000000000005,
          0.0456,
          0.068,
          -0.0926
        ],
        [
          0.082,
          -0.0692,
          0.06180000000000001,
          -0.018600000000000002,
          -0.0586,
          -0.07780000000000001,
          -0.08080000000000001,
          -0.013800000000000002,
          0.018400000000000003,
          0.059800000000000006,
          -0.0728,
          -0.022400000000000003,
          -0.004200000000000001,
          -0.05740000000000001,
          -0.0044,
          -0.09140000000000001,
          0.08280000000000001,
          -0.09060000000000001,
          0.068,
          -0.0616,
          0.034,
          -0.073,
          -0.0036,
          0.0356,
          0.099,
          -0.0872,
          0.0582,
          0.07160000000000001,
          0.09680000000000001,
          -0.08,
          -0.0316,
          0.093,
          -0.0446,
          0.038,
          -0.067,
          0.019,
          0.0654,
          -0.0772,
          -0.0782,
          -0.0354,
          -0.0682,
          -0.001,
          -0.0616,
          -0.05380000000000001,
          -0.0482,
          -0.0862,
          0.025400000000000002,
          -0.014,
          -0.0596,
          -0.048400000000000006,
          -0.0926,
          0.07160000000000001,
          -0.06420000000000001,
          -0.09240000000000001,
          0.081,
          -0.078,
          -0.018600000000000002,
          -0.004200000000000001,
          -0.0898,
          0.0648,
          -0.05280000000000001,
          0.06180000000000001,
          -0.0852,
          -0.0256,
          0.09960000000000001,
          0.099,
          0.0396,
          0.044800000000000006,
          0.0466,
          -0.0416,
          0.056600000000000004,
          -0.032600000000000004,
          0.0322,
          0.0654,
          0.0626
        ],
        [
          0.074,
          0.0162,
          -0.0248,
          0.025200000000000004,
          0.027,
          0.09480000000000001,
          0.0604,
          -0.041,
          0.068,
          0.08780000000000002,
          0.074,
          -0.055,
          -0.0124,
          -0.0674,
          0.0176,
          -0.0088,
          0.0218,
          0.0154,
          0.0122,
          0.0026,
          -0.0256,
          0.045200000000000004,
          -0.078,
          0.0492,
          0.07,
          -0.04240000000000001,
          -0.035,
          -0.051800000000000006,
          0.031400000000000004,
          0.0208,
          -0.0018,
          0.0426,
          0.028200000000000003,
          0.061,
          -0.086,
          0.07460000000000001,
          0.09160000000000001,
          0.0992,
          0.0874,
          -0.0176,
          0.0432,
          0.07440000000000001,
          0.0188,
          -0.0946,
          0.006600000000000001,
          0.0162,
          0.009800000000000001,
          0.052,
          -0.0388,
          0.036,
          0.07440000000000001,
          -0.06180000000000001,
          0.061,
          0.0678,
          0.046,
          -0.0244,
          -0.056,
          -0.0058000000000000005,
          0.027200000000000002,
          -0.07579999999999999,
          0.0018,
          0.084,
          -0.021,
          -0.031,
          0.07,
          -0.0562,
          0.0842,
          -0.054400000000000004,
          0.0102,
          -0.05140000000000001,
          -0.029200000000000004,
          0.04,
          0.0128,
          0.06280000000000001,
          -0.0952
        ],
        [
          0.0772,
          -0.047200000000000006,
          -0.0732,
          0.0482,
          0.057800000000000004,
          0.0688,
          -0.07560000000000001,
          -0.035800000000000005,
          -0.042800000000000005,
          -0.0902,
          -0.09040000000000001,
          0.0724,
          0.0606,
          0.055400000000000005,
          -0.025400000000000002,
          0.037399999999999996,
          0.07940000000000001,
          -0.04340000000000001,
          0.0048000000000000004,
          0.0708,
          -0.05280000000000001,
          0.076,
          -0.0018,
          0.04340000000000001,
          -0.0298,
          0.0526,
          0.057,
          -0.027800000000000002,
          -0.0694,
          -0.0134,
          -0.05140000000000001,
          -0.09140000000000001,
          0.0562,
          -0.092,
          0.0732,
          -0.079,
          0.0078000000000000005,
          0.06860000000000001,
          -0.0776,
          0.029400000000000003,
          -0.07379999999999999,
          -0.0874,
          0.013,
          -0.08080000000000001,
          0.028200000000000003,
          0.0068000000000000005,
          -0.0012000000000000001,
          0.0786,
          -0.022200000000000004,
          -0.091,
          0.0422,
          0.097,
          -0.0724,
          -0.0446,
          -0.0386,
          -0.08660000000000001,
          -0.0364,
          0.0814,
          0.09720000000000001,
          0.027600000000000003,
          -0.0946,
          0.0692,
          0.0946,
          0.073,
          0.0714,
          -0.0164,
          0.092,
          -0.1,
          -0.0684,
          -0.07160000000000001,
          -0.0082,
          -0.0034000000000000002,
          -0.06520000000000001,
          -0.09960000000000001,
          -0.0332
        ],
        [
          0.0412,
          -0.05040000000000001,
          0.0014000000000000002,
          -0.037,
          -0.030400000000000003,
          0.084,
          0.04440000000000001,
          0.0296,
          0.0344,
          -0.004200000000000001,
          0.015,
          0.0288,
          -0.07460000000000001,
          0.019600000000000003,
          -0.0526,
          -0.04440000000000001,
          -0.011,
          -0.097,
          0.0166,
          -0.0054,
          0.015,
          -0.093,
          -0.063,
          -0.0072,
          0.0546,
          0.0078000000000000005,
          0.046400000000000004,
          -0.0852,
          -0.025200000000000004,
          0.0684,
          0.0568,
          0.0258,
          0.030400000000000003,
          -0.0816,
          -0.0356,
          -0.045,
          0.0082,
          -0.09980000000000001,
          0.030400000000000003,
          0.072,
          -0.022400000000000003,
          -0.0994,
          0.0122,
          0.08660000000000001,
          -0.03,
          -0.08880000000000002,
          0.08960000000000001,
          -0.027200000000000002,
          0.0034000000000000002,
          -0.037,
          -0.0908,
          0.0844,
          0.07540000000000001,
          -0.0616,
          -0.0516,
          0.0522,
          0.0206,
          0.0964,
          -0.094,
          0.0172,
          -0.09980000000000001,
          0.013800000000000002,
          -0.033800000000000004,
          0.017,
          0.0826,
          0.0902,
          0.09,
          0.055600000000000004,
          0.0558,
          0.0616,
          -0.0162,
          -0.06280000000000001,
          -0.0078000000000000005,
          0.08380000000000001,
          0.07880000000000001
        ],
        [
          -0.0234,
          0.0596,
          0.046400000000000004,
          -0.043800000000000006,
          -0.0246,
          -0.0352,
          0.042,
          -0.0704,
          -0.0048000000000000004,
          0.058,
          0.0516,
          0.0058000000000000005,
          -0.054,
          0.056,
          -0.0974,
          0.0724,
          -0.014,
          0.028200000000000003,
          -0.09280000000000001,
          -0.09480000000000001,
          -0.0468,
          0.0992,
          -0.0854,
          0.0732,
          -0.021400000000000002,
          0.06280000000000001,
          0.05280000000000001,
          0.09,
          -0.0432,
          0.055400000000000005,
          -0.049800000000000004,
          0.0952,
          -0.0668,
          -0.0496,
          -0.0776,
          0.09620000000000001,
          0.086,
          0.047400000000000005,
          -0.0402,
          -0.0246,
          0.0936,
          0.019600000000000003,
          -0.0194,
          -0.018,
          -6.000000000000001E-4,
          -0.034,
          -0.062,
          -0.07880000000000001,
          0.06080000000000001,
          -0.049800000000000004,
          -0.09960000000000001,
          -0.0722,
          -0.0536,
          -0.08460000000000001,
          -0.027,
          -0.08560000000000001,
          0.027,
          0.028,
          -0.06380000000000001,
          -0.0908,
          0.059,
          -0.09280000000000001,
          -0.009,
          -0.007600000000000001,
          0.09780000000000001,
          0.0036,
          -0.0086,
          -0.02,
          0.087,
          0.065,
          0.024,
          0.009200000000000002,
          -0.0702,
          -0.0308,
          -0.06620000000000001
        ],
        [
          -0.029,
          0.060200000000000004,
          0.0718,
          0.0786,
          -0.0614,
          -0.014600000000000002,
          0.0268,
          0.0094,
          -0.0256,
          -0.08880000000000002,
          0.0572,
          -0.09380000000000001,
          0.09,
          -0.029400000000000003,
          -0.0446,
          0.07540000000000001,
          0.018400000000000003,
          -0.051800000000000006,
          -0.0286,
          0.0654,
          -0.0732,
          0.08280000000000001,
          0.06080000000000001,
          0.08360000000000001,
          -0.0022,
          -0.0946,
          -0.045,
          -0.09440000000000001,
          0.0322,
          -0.0908,
          0.059800000000000006,
          -0.007,
          0.019200000000000002,
          0.0582,
          0.09140000000000001,
          -0.08960000000000001,
          0.0048000000000000004,
          6.000000000000001E-4,
          0.0176,
          0.056400000000000006,
          0.028200000000000003,
          -0.0692,
          0.044800000000000006,
          0.032,
          -0.015200000000000002,
          0.0606,
          0.0592,
          4.0E-4,
          0.039200000000000006,
          -0.009,
          0.08560000000000001,
          0.0248,
          -0.022600000000000002,
          0.0082,
          0.09580000000000001,
          0.07780000000000001,
          0.056,
          0.0216,
          0.041400000000000006,
          0.064,
          0.004600000000000001,
          0.0256,
          -0.053,
          -0.024,
          -0.0722,
          0.0134,
          0.08560000000000001,
          -0.0366,
          0.09140000000000001,
          0.020200000000000003,
          0.0366,
          -0.0762,
          0.047200000000000006,
          0.068,
          -0.0346
        ]
      ]
    },
    "2d2c7141-3c22-41c6-88c5-dd76d9f0389e": {
      "class": "com.simiacryptus.mindseye.layers.java.BiasLayer",
      "id": "2d2c7141-3c22-41c6-88c5-dd76d9f0389e",
      "isFrozen": false,
      "name": "BiasLayer/2d2c7141-3c22-41c6-88c5-dd76d9f0389e",
      "bias": [
        0.0,
        0.0,
        0.0,
        0.0,
        0.0,
        0.0,
        0.0,
        0.0,
        0.0,
        0.0
      ]
    },
    "f3604b9f-ddc3-4fdc-bc4d-2ace4bb38b83": {
      "class": "com.simiacryptus.mindseye.layers.java.ReLuActivationLayer",
      "id": "f3604b9f-ddc3-4fdc-bc4d-2ace4bb38b83",
      "isFrozen": true,
      "name": "ReLuActivationLayer/f3604b9f-ddc3-4fdc-bc4d-2ace4bb38b83",
      "weights": [
        1.0
      ]
    }
  },
  "links": {
    "00949687-356a-4b23-b8d0-fc64e9c72066": [
      "857f38b1-d8d7-4b7f-9226-a0824ede0d03"
    ],
    "9481c582-db44-4d8d-acda-bd67733b63ea": [
      "00949687-356a-4b23-b8d0-fc64e9c72066"
    ],
    "57671b36-ce0c-4eb5-ad87-f7600d0037ce": [
      "9481c582-db44-4d8d-acda-bd67733b63ea"
    ]
  },
  "labels": {},
  "head": "57671b36-ce0c-4eb5-ad87-f7600d0037ce"
}