{
  "class": "com.simiacryptus.mindseye.network.PipelineNetwork",
  "id": "8f63cad7-d703-427b-8b98-df4784f2e8aa",
  "isFrozen": false,
  "name": "PipelineNetwork/8f63cad7-d703-427b-8b98-df4784f2e8aa",
  "inputs": [
    "d7e4f83b-55ea-4ac7-b318-574a8c415f2b"
  ],
  "nodes": {
    "61e11d78-bd0b-4e5b-baa2-acba73ecdfb0": "06ea4878-7c21-4759-8126-fa75206eeda7",
    "d6f88f1e-850f-4487-a25d-0c0e9e2a4156": "74361429-c453-455e-8e56-d6642c85f067",
    "04e77fea-736e-4e1a-baaf-0ab69d2354fa": "1b9be5ba-10b2-4cb6-910c-53b878d56156"
  },
  "layers": {
    "06ea4878-7c21-4759-8126-fa75206eeda7": {
      "class": "com.simiacryptus.mindseye.layers.java.FullyConnectedLayer",
      "id": "06ea4878-7c21-4759-8126-fa75206eeda7",
      "isFrozen": false,
      "name": "FullyConnectedLayer/06ea4878-7c21-4759-8126-fa75206eeda7",
      "outputDims": [
        4,
        4,
        2
      ],
      "inputDims": [
        5,
        5,
        3
      ],
      "weights": [
        [
          0.08220000000000001,
          0.04240000000000001,
          -0.0024000000000000002,
          -0.062,
          4.0E-4,
          -0.023600000000000003,
          0.08080000000000001,
          0.038,
          -0.031,
          -0.0558,
          -0.09580000000000001,
          -0.08880000000000002,
          -0.07560000000000001,
          -0.059,
          -0.05040000000000001,
          -0.026200000000000005,
          -0.06860000000000001,
          0.027600000000000003,
          -0.09580000000000001,
          0.030400000000000003,
          -0.09880000000000001,
          -0.006,
          -0.0296,
          0.0872,
          0.051,
          -0.05140000000000001,
          0.006600000000000001,
          -0.041800000000000004,
          0.0248,
          0.019600000000000003,
          0.0666,
          0.0284,
          0.083,
          0.018,
          -0.09580000000000001,
          -0.0596,
          -0.0658,
          -0.0074,
          -0.0204,
          0.025,
          -0.07460000000000001,
          0.04340000000000001,
          0.0402,
          0.066,
          -0.0864,
          -0.0188,
          -0.038,
          0.0694,
          -0.08080000000000001,
          -0.081,
          -0.0782,
          -0.046200000000000005,
          -0.009600000000000001,
          -0.054400000000000004,
          -0.0416,
          0.07660000000000002,
          -0.0476,
          0.0288,
          -0.009600000000000001,
          0.07360000000000001,
          -0.023,
          0.018600000000000002,
          0.087,
          -0.023200000000000002,
          -0.0984,
          -0.07880000000000001,
          -0.0188,
          -0.07460000000000001,
          -0.08860000000000001,
          -0.009,
          0.07560000000000001,
          0.062,
          -0.008400000000000001,
          0.032600000000000004,
          -0.0386
        ],
        [
          -0.062,
          0.0182,
          0.02,
          0.0028000000000000004,
          0.0366,
          0.0296,
          -0.0732,
          -0.0134,
          0.065,
          0.010600000000000002,
          0.064,
          0.0952,
          -0.0548,
          0.0522,
          0.08460000000000001,
          0.0364,
          -0.092,
          0.0882,
          -0.06620000000000001,
          -0.09580000000000001,
          0.08580000000000002,
          0.0852,
          0.028,
          0.0178,
          -0.0984,
          0.013,
          0.0478,
          -0.069,
          2.0E-4,
          0.06420000000000001,
          -4.0E-4,
          -0.06860000000000001,
          0.0648,
          -0.061200000000000004,
          -0.013800000000000002,
          0.008400000000000001,
          -0.09480000000000001,
          0.04440000000000001,
          0.082,
          -0.0572,
          -0.0942,
          0.013,
          0.015600000000000001,
          0.046400000000000004,
          0.0884,
          -0.006600000000000001,
          0.02,
          -0.037399999999999996,
          0.05140000000000001,
          -0.0644,
          0.0354,
          0.027800000000000002,
          -0.07479999999999999,
          -0.0482,
          0.021,
          -0.0062,
          0.010600000000000002,
          0.015,
          0.0656,
          0.0026,
          -0.05040000000000001,
          -0.07,
          0.0734,
          0.026,
          -0.07640000000000001,
          -0.093,
          0.04580000000000001,
          0.086,
          0.062400000000000004,
          -0.0502,
          -0.019200000000000002,
          0.09860000000000001,
          0.0114,
          0.077,
          -0.034800000000000005
        ],
        [
          0.08180000000000001,
          -0.0712,
          0.097,
          0.015600000000000001,
          2.0E-4,
          0.0456,
          -0.0284,
          0.0546,
          0.017,
          0.0666,
          -0.025400000000000002,
          0.095,
          0.0166,
          0.0936,
          0.0862,
          -0.0688,
          -0.007,
          0.0258,
          -0.0034000000000000002,
          -0.0094,
          -0.094,
          -0.0476,
          -0.09140000000000001,
          -0.0932,
          -0.0088,
          0.08220000000000001,
          -0.0964,
          -0.062400000000000004,
          0.052,
          -0.0956,
          -0.027600000000000003,
          -0.0284,
          0.0218,
          -0.0296,
          0.0364,
          -0.0318,
          0.051800000000000006,
          0.0064,
          -0.031400000000000004,
          0.0712,
          -0.027600000000000003,
          8.0E-4,
          -0.010600000000000002,
          -0.0688,
          -0.0568,
          0.06420000000000001,
          -0.076,
          0.07780000000000001,
          -0.029400000000000003,
          -0.023200000000000002,
          0.0248,
          0.0246,
          -0.0466,
          -0.0328,
          0.009800000000000001,
          -0.005,
          0.0398,
          -0.008400000000000001,
          -0.05240000000000001,
          0.0206,
          -0.0114,
          0.027200000000000002,
          -0.0966,
          -0.004200000000000001,
          0.004200000000000001,
          -0.044800000000000006,
          -0.047,
          0.07379999999999999,
          0.05840000000000001,
          -0.011200000000000002,
          0.0942,
          -0.0994,
          0.09160000000000001,
          0.07560000000000001,
          0.07660000000000002
        ],
        [
          -0.09280000000000001,
          0.0446,
          -0.0044,
          0.0416,
          -0.021,
          -0.0776,
          0.029200000000000004,
          -0.09780000000000001,
          -0.0044,
          0.0298,
          0.0522,
          -0.075,
          0.024,
          -0.0016,
          0.07740000000000001,
          -0.0862,
          -0.0048000000000000004,
          -0.0718,
          -0.027800000000000002,
          0.0516,
          -0.0492,
          -0.0762,
          -0.0796,
          -0.026,
          0.0568,
          0.041,
          0.0862,
          -0.0238,
          -0.07379999999999999,
          0.0478,
          -0.0826,
          -0.0966,
          -0.099,
          0.07780000000000001,
          0.093,
          -0.0666,
          0.009800000000000001,
          0.0256,
          0.040600000000000004,
          -0.0806,
          -0.054,
          0.0354,
          0.036800000000000006,
          0.031200000000000002,
          -0.055600000000000004,
          0.0966,
          -0.059,
          -0.0124,
          0.037,
          -0.0492,
          0.098,
          0.074,
          -0.016800000000000002,
          -0.0182,
          -0.0328,
          0.0148,
          0.0016,
          0.013800000000000002,
          -0.09540000000000001,
          0.013,
          -0.0974,
          -0.09580000000000001,
          0.0054,
          0.06340000000000001,
          0.041400000000000006,
          0.0728,
          0.0512,
          -0.0426,
          0.0804,
          -0.09820000000000001,
          0.003,
          0.09980000000000001,
          -0.021200000000000004,
          -0.0052,
          -0.023600000000000003
        ],
        [
          -0.0526,
          0.029,
          -0.022200000000000004,
          -0.0328,
          0.05240000000000001,
          0.0476,
          0.019,
          -0.046200000000000005,
          0.0154,
          -0.0408,
          -0.05140000000000001,
          0.042,
          -0.018600000000000002,
          -0.01,
          0.0258,
          -0.08580000000000002,
          0.0234,
          -0.0466,
          -0.0946,
          0.0114,
          0.067,
          0.0332,
          0.025,
          0.1,
          -0.022,
          -0.0974,
          0.050800000000000005,
          0.0074,
          0.045200000000000004,
          0.047400000000000005,
          0.0352,
          -0.0028000000000000004,
          -0.026600000000000002,
          0.0108,
          0.0162,
          -0.092,
          0.0034000000000000002,
          -0.061200000000000004,
          0.0586,
          -0.072,
          0.0596,
          0.0122,
          -0.06760000000000001,
          0.07980000000000001,
          -0.026600000000000002,
          -0.0108,
          0.0984,
          -0.06340000000000001,
          0.0952,
          -0.0506,
          0.008400000000000001,
          0.0964,
          -0.039,
          0.0586,
          0.04,
          0.0682,
          -0.0476,
          -0.0296,
          0.0052,
          -0.0228,
          0.0346,
          -0.011,
          0.0062,
          0.055200000000000006,
          0.0534,
          -0.014,
          -0.0994,
          0.055,
          -0.0572,
          0.022200000000000004,
          0.0898,
          -0.0694,
          -0.09380000000000001,
          -0.08880000000000002,
          -0.033
        ],
        [
          0.09860000000000001,
          0.029200000000000004,
          0.0874,
          0.0044,
          0.0522,
          0.079,
          -0.056,
          -0.0814,
          0.023600000000000003,
          0.056600000000000004,
          0.0804,
          -0.06760000000000001,
          0.051800000000000006,
          0.0128,
          -0.016800000000000002,
          -0.0442,
          0.07940000000000001,
          0.038200000000000005,
          0.0502,
          -0.0124,
          -0.006,
          0.0854,
          0.065,
          -0.030600000000000002,
          0.019,
          -0.08020000000000001,
          0.0884,
          -0.09720000000000001,
          -0.0814,
          0.0248,
          0.0164,
          -0.025400000000000002,
          -0.07640000000000001,
          0.0526,
          0.062200000000000005,
          0.0804,
          0.095,
          -0.0122,
          0.07940000000000001,
          0.09580000000000001,
          0.0062,
          -0.0218,
          -0.045,
          -0.098,
          -0.061200000000000004,
          -0.0258,
          0.0792,
          -0.056600000000000004,
          0.0694,
          -0.0892,
          -0.0786,
          -0.0356,
          -0.0512,
          -0.025200000000000004,
          0.0296,
          -0.0436,
          -0.0334,
          0.0992,
          -0.08760000000000001,
          0.030600000000000002,
          0.039400000000000004,
          0.050800000000000005,
          0.0548,
          -0.07740000000000001,
          0.05740000000000001,
          0.08760000000000001,
          -0.0218,
          -0.0636,
          0.0824,
          -0.003,
          -0.0388,
          -0.05940000000000001,
          -0.09540000000000001,
          -0.04440000000000001,
          0.004
        ],
        [
          -0.037200000000000004,
          0.025200000000000004,
          -0.0718,
          0.0674,
          -0.09480000000000001,
          0.04340000000000001,
          -0.0398,
          0.009200000000000002,
          -0.0734,
          -0.034800000000000005,
          -0.0734,
          -0.0178,
          -0.04340000000000001,
          0.0734,
          -0.0476,
          -0.06760000000000001,
          0.031200000000000002,
          -0.09680000000000001,
          0.022,
          0.048600000000000004,
          0.07260000000000001,
          -0.0322,
          0.0454,
          -0.053,
          0.0268,
          -0.0712,
          -0.0036,
          0.014,
          -0.082,
          -0.05380000000000001,
          0.060200000000000004,
          -0.071,
          -0.055600000000000004,
          -0.0604,
          0.0468,
          -0.029400000000000003,
          0.0568,
          -0.07360000000000001,
          -6.000000000000001E-4,
          -0.002,
          -0.0128,
          0.0496,
          0.002,
          0.0964,
          0.06720000000000001,
          -0.0206,
          0.026200000000000005,
          0.0284,
          0.066,
          0.066,
          0.07780000000000001,
          -0.0018,
          -0.055,
          0.095,
          0.0606,
          -0.0302,
          0.031,
          -0.0806,
          -0.08120000000000001,
          0.0148,
          0.0636,
          0.0248,
          0.0844,
          0.009600000000000001,
          0.058,
          -0.06380000000000001,
          -0.0646,
          -0.025200000000000004,
          -0.0582,
          -0.0244,
          -0.075,
          -0.0568,
          -0.08660000000000001,
          -0.08560000000000001,
          -0.0974
        ],
        [
          -0.0918,
          -0.0782,
          0.056400000000000006,
          0.0216,
          -0.0586,
          0.0632,
          -0.076,
          0.07260000000000001,
          0.0344,
          0.062200000000000005,
          2.0E-4,
          -0.056,
          -0.0796,
          -0.07060000000000001,
          0.06340000000000001,
          -0.05280000000000001,
          -0.09040000000000001,
          0.020200000000000003,
          -0.026600000000000002,
          -0.024,
          0.030600000000000002,
          0.0412,
          -0.092,
          0.0284,
          -0.03780000000000001,
          -0.0054,
          -0.083,
          -0.062400000000000004,
          -0.07,
          0.0164,
          -0.0724,
          -0.08020000000000001,
          -0.038,
          -0.0284,
          0.07740000000000001,
          -0.017,
          0.0044,
          0.09340000000000001,
          -0.030400000000000003,
          -0.08660000000000001,
          -0.019600000000000003,
          -0.08220000000000001,
          -0.0562,
          0.059,
          -0.056600000000000004,
          0.0614,
          -0.0572,
          0.0648,
          0.026200000000000005,
          0.006600000000000001,
          0.014,
          0.0742,
          -0.08860000000000001,
          0.0246,
          -0.0674,
          -0.084,
          0.06340000000000001,
          0.043,
          0.0586,
          0.0128,
          -0.048,
          0.0918,
          -0.0546,
          0.018400000000000003,
          -0.0288,
          -0.09620000000000001,
          0.0088,
          0.0682,
          -0.0912,
          -0.0668,
          -0.0674,
          0.059800000000000006,
          0.0606,
          0.06,
          0.039200000000000006
        ],
        [
          0.0258,
          -0.09480000000000001,
          0.028200000000000003,
          0.016800000000000002,
          0.0692,
          -0.049,
          0.0182,
          -0.0122,
          0.0932,
          0.053,
          -0.07260000000000001,
          -0.0912,
          -0.0362,
          -0.08940000000000001,
          0.06860000000000001,
          0.009600000000000001,
          0.06080000000000001,
          -0.018,
          -0.021200000000000004,
          -0.040400000000000005,
          -0.032600000000000004,
          0.045200000000000004,
          -0.0882,
          -0.0016,
          -0.051800000000000006,
          0.034800000000000005,
          -6.000000000000001E-4,
          0.08480000000000001,
          0.027800000000000002,
          -0.05280000000000001,
          0.07060000000000001,
          0.0956,
          -0.0562,
          0.0052,
          -0.081,
          0.07479999999999999,
          0.041400000000000006,
          -0.0488,
          -0.081,
          0.041800000000000004,
          0.009600000000000001,
          0.09540000000000001,
          -0.0496,
          -0.020200000000000003,
          -0.0936,
          -0.0522,
          0.0094,
          0.0522,
          -0.023,
          0.062,
          0.06380000000000001,
          -0.009600000000000001,
          -0.0606,
          0.077,
          -0.0984,
          -0.035800000000000005,
          0.0882,
          0.011,
          -0.0188,
          0.004200000000000001,
          0.022,
          0.0534,
          -0.036,
          0.0852,
          0.0872,
          -0.029200000000000004,
          0.0548,
          0.09480000000000001,
          -0.08960000000000001,
          -0.026400000000000003,
          -2.0E-4,
          0.001,
          -0.0902,
          2.0E-4,
          -0.045
        ],
        [
          -0.08120000000000001,
          -0.0714,
          -0.07880000000000001,
          0.0352,
          0.06280000000000001,
          0.0722,
          -0.0144,
          0.0308,
          -0.0572,
          -0.0596,
          -0.09580000000000001,
          0.062200000000000005,
          0.082,
          0.0208,
          -0.0172,
          -0.023200000000000002,
          -0.08180000000000001,
          -0.0346,
          -0.0408,
          -0.0546,
          -0.019,
          -0.044800000000000006,
          -0.0694,
          0.027800000000000002,
          0.0206,
          -0.0496,
          -0.0354,
          -0.06860000000000001,
          -0.0572,
          0.02,
          0.045200000000000004,
          -0.08280000000000001,
          0.035800000000000005,
          -0.03,
          -0.07060000000000001,
          0.0536,
          0.0422,
          0.0646,
          0.09860000000000001,
          -0.011200000000000002,
          0.0974,
          0.0942,
          0.06760000000000001,
          -0.076,
          -0.0032,
          -0.0234,
          -0.07260000000000001,
          0.066,
          0.044,
          0.0342,
          0.037200000000000004,
          0.038,
          -0.062,
          -0.022600000000000002,
          -0.023200000000000002,
          0.0682,
          0.0548,
          -0.0864,
          0.056400000000000006,
          0.0872,
          0.071,
          -0.09540000000000001,
          -0.09820000000000001,
          0.056600000000000004,
          -0.009800000000000001,
          0.06860000000000001,
          0.0502,
          0.0308,
          0.098,
          -0.0824,
          0.0246,
          -0.0682,
          0.019200000000000002,
          -0.054400000000000004,
          -0.023600000000000003
        ],
        [
          -0.079,
          -0.0086,
          0.0318,
          0.0534,
          0.038200000000000005,
          0.0516,
          -0.0796,
          0.0502,
          0.09880000000000001,
          0.0742,
          -0.0134,
          0.005,
          0.048600000000000004,
          0.0614,
          0.09380000000000001,
          0.016,
          -0.0032,
          0.0712,
          -0.004,
          -0.007,
          0.079,
          0.0644,
          -0.0166,
          -0.041,
          -0.099,
          -0.054200000000000005,
          -0.0698,
          0.081,
          -0.08560000000000001,
          -0.0144,
          0.0018,
          -0.093,
          0.038200000000000005,
          -0.0346,
          0.07940000000000001,
          -0.0884,
          -0.0592,
          0.07560000000000001,
          -0.06380000000000001,
          0.005600000000000001,
          0.093,
          0.0512,
          -0.07640000000000001,
          -0.035800000000000005,
          -0.064,
          0.0296,
          0.0128,
          0.029400000000000003,
          0.076,
          -0.0162,
          0.0366,
          -0.0512,
          -0.0912,
          0.0816,
          0.018400000000000003,
          0.049,
          0.05040000000000001,
          0.0018,
          -0.009600000000000001,
          -0.0786,
          -0.06,
          -0.066,
          -0.0684,
          0.0722,
          -0.064,
          -0.0536,
          -0.049,
          0.0786,
          0.0386,
          -0.097,
          0.0398,
          -0.0248,
          0.08680000000000002,
          0.0344,
          0.0154
        ],
        [
          0.0502,
          -0.023600000000000003,
          0.0586,
          -0.0824,
          -0.0596,
          0.026200000000000005,
          0.0162,
          0.0436,
          -0.040400000000000005,
          -0.0826,
          0.05040000000000001,
          -0.08760000000000001,
          -0.09980000000000001,
          0.0032,
          0.023200000000000002,
          0.057,
          0.009200000000000002,
          0.0942,
          0.020200000000000003,
          0.0198,
          -0.019,
          -0.0626,
          -0.0284,
          0.0432,
          0.0412,
          0.048,
          0.024,
          -4.0E-4,
          0.026600000000000002,
          -0.006,
          0.0216,
          -0.0016,
          0.09040000000000001,
          0.046,
          -0.0674,
          -0.08220000000000001,
          -0.051800000000000006,
          0.049400000000000006,
          -0.08,
          0.0128,
          4.0E-4,
          -0.0864,
          -0.0762,
          0.009800000000000001,
          -0.0148,
          0.0256,
          0.046400000000000004,
          -0.09160000000000001,
          0.0674,
          0.045200000000000004,
          -0.07740000000000001,
          0.0036,
          0.022,
          -0.0352,
          0.037,
          -0.026600000000000002,
          0.08940000000000001,
          -0.063,
          -0.0074,
          0.040400000000000005,
          0.0834,
          -0.040400000000000005,
          0.063,
          0.0256,
          0.08960000000000001,
          0.053,
          0.0244,
          -0.0562,
          -0.079,
          0.030600000000000002,
          -0.0344,
          0.068,
          0.0342,
          -0.088,
          -0.0048000000000000004
        ],
        [
          -0.06420000000000001,
          -0.0688,
          0.0892,
          0.0412,
          -0.0632,
          -0.09340000000000001,
          0.06180000000000001,
          0.08860000000000001,
          0.0298,
          0.047,
          0.0674,
          -0.060200000000000004,
          -0.09960000000000001,
          0.007,
          0.06520000000000001,
          0.022,
          0.061,
          0.09280000000000001,
          -0.0468,
          0.06860000000000001,
          0.0488,
          0.08120000000000001,
          0.0536,
          -0.034,
          0.0166,
          -0.0792,
          -0.043800000000000006,
          0.095,
          -0.010600000000000002,
          0.0396,
          0.0506,
          0.09980000000000001,
          0.026200000000000005,
          0.0172,
          -0.0344,
          0.09380000000000001,
          -0.011800000000000001,
          -0.0732,
          0.0074,
          -0.045,
          0.030600000000000002,
          -0.0752,
          0.032600000000000004,
          0.047,
          -0.0386,
          0.08760000000000001,
          -0.08580000000000002,
          0.074,
          -0.046200000000000005,
          -0.0332,
          -0.088,
          0.0936,
          0.058800000000000005,
          0.0238,
          0.0268,
          0.0308,
          0.043800000000000006,
          -0.05240000000000001,
          0.0658,
          -0.07640000000000001,
          0.0692,
          -0.08180000000000001,
          -0.071,
          0.050800000000000005,
          -0.0576,
          -0.055200000000000006,
          -0.026,
          -0.047200000000000006,
          0.0834,
          -0.012,
          0.007600000000000001,
          -0.08860000000000001,
          0.0208,
          -0.044800000000000006,
          -0.029400000000000003
        ],
        [
          0.0124,
          -0.0182,
          0.088,
          0.067,
          -0.04580000000000001,
          0.072,
          0.0426,
          0.0352,
          -0.08860000000000001,
          -0.0216,
          -0.009,
          -0.0094,
          0.0816,
          -0.0682,
          0.09240000000000001,
          -0.0432,
          -0.0616,
          -0.09780000000000001,
          0.06860000000000001,
          0.0296,
          0.0478,
          -0.08180000000000001,
          -0.06420000000000001,
          -0.077,
          0.088,
          0.04,
          0.05940000000000001,
          -0.049,
          0.043,
          -0.0492,
          -0.035,
          -0.0352,
          0.0324,
          0.0102,
          0.0826,
          -0.08860000000000001,
          0.0668,
          -0.032,
          0.0722,
          -2.0E-4,
          0.056,
          0.0604,
          0.0026,
          0.0512,
          0.0816,
          0.09960000000000001,
          -0.0976,
          -0.0526,
          -0.0166,
          0.036800000000000006,
          -0.0796,
          0.001,
          0.023200000000000002,
          0.0,
          -0.0936,
          -0.0048000000000000004,
          0.0942,
          0.0238,
          -0.0258,
          0.0482,
          0.0546,
          0.047,
          -0.029,
          0.0546,
          0.0732,
          0.09620000000000001,
          -0.09780000000000001,
          -0.0898,
          0.058800000000000005,
          0.09060000000000001,
          -0.0516,
          0.042,
          0.0364,
          0.051,
          -0.0318
        ],
        [
          0.0256,
          0.0698,
          0.011600000000000001,
          -0.016800000000000002,
          -0.051,
          0.024200000000000003,
          0.018400000000000003,
          0.044800000000000006,
          -0.0012000000000000001,
          -0.011200000000000002,
          -0.0654,
          -0.0216,
          -0.022600000000000002,
          -0.025200000000000004,
          0.062200000000000005,
          -0.027200000000000002,
          -0.07680000000000001,
          -0.0148,
          -0.049,
          -0.097,
          -0.08020000000000001,
          -0.0054,
          -0.08580000000000002,
          -0.0842,
          -0.072,
          0.08780000000000002,
          -0.0014000000000000002,
          -0.011600000000000001,
          -0.048400000000000006,
          0.062400000000000004,
          0.032600000000000004,
          0.0388,
          -0.040400000000000005,
          -0.0356,
          -0.0154,
          0.09,
          -0.043,
          0.058,
          -0.005600000000000001,
          0.07840000000000001,
          -0.046200000000000005,
          0.040400000000000005,
          0.0614,
          -0.022,
          -0.058800000000000005,
          0.08580000000000002,
          -0.093,
          -0.07940000000000001,
          0.0526,
          0.09880000000000001,
          -0.005,
          -0.089,
          0.0234,
          0.038200000000000005,
          -0.0832,
          0.0482,
          0.0576,
          -0.018600000000000002,
          -0.0488,
          -0.025200000000000004,
          0.0172,
          -0.08860000000000001,
          0.021,
          0.073,
          0.06960000000000001,
          0.08380000000000001,
          -0.005,
          -0.0932,
          0.031200000000000002,
          0.027800000000000002,
          0.093,
          -0.0334,
          0.033800000000000004,
          0.016800000000000002,
          -0.023
        ],
        [
          -0.0234,
          0.0596,
          0.0664,
          -0.0422,
          0.09140000000000001,
          -0.0284,
          -0.0596,
          0.012600000000000002,
          0.0176,
          -0.07540000000000001,
          -0.013800000000000002,
          0.018400000000000003,
          -0.0178,
          -0.038200000000000005,
          0.044800000000000006,
          0.047400000000000005,
          -0.0346,
          0.06,
          -0.006,
          0.0016,
          -0.0142,
          0.0534,
          0.0322,
          0.049800000000000004,
          -0.0546,
          -0.0884,
          0.062400000000000004,
          -0.0238,
          0.055600000000000004,
          -0.0604,
          0.0074,
          -0.026,
          0.06180000000000001,
          -0.05940000000000001,
          0.0678,
          0.009,
          0.09680000000000001,
          -0.030400000000000003,
          0.07540000000000001,
          0.042800000000000005,
          0.013600000000000001,
          0.023200000000000002,
          -0.0902,
          -0.010600000000000002,
          -0.0362,
          0.08580000000000002,
          0.0712,
          0.068,
          -0.09060000000000001,
          0.0596,
          0.091,
          0.055,
          -2.0E-4,
          -0.0576,
          0.07980000000000001,
          0.05,
          -0.043800000000000006,
          -0.015600000000000001,
          -0.0316,
          -0.07940000000000001,
          0.027800000000000002,
          -0.039400000000000004,
          0.0492,
          -0.0054,
          -0.0412,
          0.0284,
          0.06760000000000001,
          0.0816,
          -0.09980000000000001,
          -0.0318,
          -0.0568,
          0.0558,
          -0.023,
          0.02,
          -0.0208
        ],
        [
          0.077,
          -0.0274,
          -0.019200000000000002,
          -0.061,
          -0.0376,
          -0.07680000000000001,
          -0.0124,
          0.086,
          0.069,
          0.0654,
          -0.037,
          -0.0054,
          -0.049400000000000006,
          -0.0882,
          0.0248,
          0.0834,
          0.009800000000000001,
          0.0362,
          -0.0834,
          -0.07680000000000001,
          -0.0844,
          -0.0668,
          -0.07,
          0.0274,
          -0.07680000000000001,
          0.08660000000000001,
          -0.05740000000000001,
          0.0806,
          -0.021400000000000002,
          0.0942,
          0.0162,
          -0.0322,
          -0.073,
          -0.0984,
          0.086,
          -0.0572,
          -0.0714,
          -0.09780000000000001,
          0.0684,
          -0.0344,
          0.08880000000000002,
          -0.029,
          0.059,
          0.0874,
          0.08180000000000001,
          -0.074,
          -0.0752,
          -0.071,
          -0.0568,
          -0.07840000000000001,
          -0.0516,
          -0.020200000000000003,
          0.010600000000000002,
          -0.0246,
          -0.05040000000000001,
          0.026400000000000003,
          0.0526,
          0.0446,
          -0.0018,
          0.054400000000000004,
          -0.06420000000000001,
          -0.0064,
          0.0172,
          -0.0134,
          0.0026,
          0.03,
          -0.0268,
          0.013600000000000001,
          -0.026600000000000002,
          0.0228,
          -0.048400000000000006,
          -0.0102,
          0.059,
          -0.052,
          0.038
        ],
        [
          0.0656,
          -0.029400000000000003,
          -0.0396,
          -0.0208,
          -0.08180000000000001,
          0.0902,
          0.0296,
          -0.07980000000000001,
          -0.0032,
          -0.069,
          0.03,
          0.0034000000000000002,
          0.022,
          -0.095,
          -0.07880000000000001,
          0.017,
          -0.032,
          0.0328,
          -0.0664,
          -0.016800000000000002,
          -0.07440000000000001,
          0.0234,
          -0.0752,
          -0.03780000000000001,
          0.015600000000000001,
          -0.0796,
          -0.0388,
          -0.08120000000000001,
          -0.049400000000000006,
          0.0502,
          0.0064,
          0.05840000000000001,
          0.0376,
          0.0898,
          -0.04240000000000001,
          -0.07460000000000001,
          -0.024,
          0.066,
          0.0582,
          0.0512,
          -0.023,
          -0.011200000000000002,
          -0.007600000000000001,
          -0.027200000000000002,
          -0.0626,
          0.039400000000000004,
          -0.04580000000000001,
          0.07680000000000001,
          0.0796,
          0.0296,
          0.0124,
          0.005,
          0.013600000000000001,
          0.015600000000000001,
          0.0776,
          0.0842,
          0.09720000000000001,
          -0.0162,
          0.025200000000000004,
          0.034,
          0.083,
          -0.09820000000000001,
          -0.0722,
          -0.06960000000000001,
          -0.09240000000000001,
          0.008400000000000001,
          0.0776,
          0.08220000000000001,
          -0.0318,
          0.08480000000000001,
          0.0704,
          -0.030400000000000003,
          -0.0422,
          0.0208,
          -0.059
        ],
        [
          0.012600000000000002,
          -0.011200000000000002,
          -0.0512,
          0.012600000000000002,
          0.04240000000000001,
          0.049800000000000004,
          -0.034800000000000005,
          -0.082,
          -0.0034000000000000002,
          0.0668,
          0.07880000000000001,
          -0.04,
          0.0238,
          -0.0826,
          0.0546,
          -0.0536,
          0.07379999999999999,
          0.0678,
          -0.0688,
          -0.0124,
          0.0984,
          0.020200000000000003,
          0.069,
          -0.0334,
          0.0114,
          0.0772,
          0.025200000000000004,
          -0.0274,
          0.009,
          -0.091,
          -0.018400000000000003,
          -0.0074,
          0.009600000000000001,
          0.0842,
          0.053,
          -0.023,
          0.05280000000000001,
          0.0874,
          -0.0204,
          0.052,
          -0.0074,
          -0.0102,
          0.0942,
          0.003,
          0.09380000000000001,
          0.09980000000000001,
          -0.09240000000000001,
          0.076,
          -0.043800000000000006,
          0.037200000000000004,
          0.039400000000000004,
          -0.039400000000000004,
          0.0844,
          -0.0942,
          -0.0038000000000000004,
          -0.037200000000000004,
          -0.009800000000000001,
          0.07560000000000001,
          -0.0366,
          0.0102,
          6.000000000000001E-4,
          0.0412,
          -0.04580000000000001,
          -0.005,
          0.042800000000000005,
          -0.0104,
          -0.0234,
          0.0102,
          0.0058000000000000005,
          0.026400000000000003,
          -0.0682,
          0.02,
          0.0324,
          -0.0862,
          0.077
        ],
        [
          -0.026,
          -0.003,
          0.053200000000000004,
          0.0088,
          -0.08280000000000001,
          0.0398,
          -0.091,
          0.0898,
          0.08220000000000001,
          -0.007600000000000001,
          -0.08180000000000001,
          0.0436,
          0.061200000000000004,
          0.011200000000000002,
          -0.0492,
          0.0616,
          -0.06280000000000001,
          -0.0454,
          -0.0022,
          0.0324,
          -0.057800000000000004,
          -0.0102,
          -0.0476,
          -0.012,
          -0.051,
          -0.004,
          -0.087,
          -0.0128,
          -0.05,
          -0.059,
          -0.0026,
          0.0048000000000000004,
          -0.014600000000000002,
          -0.046,
          -0.0176,
          -0.0164,
          -0.0134,
          -0.0976,
          -0.0086,
          0.003,
          0.030400000000000003,
          0.0142,
          -0.033800000000000004,
          -0.011800000000000001,
          0.07360000000000001,
          -0.099,
          -0.035,
          0.07740000000000001,
          0.09820000000000001,
          -0.0596,
          0.023600000000000003,
          0.045,
          -0.022200000000000004,
          0.09,
          0.039200000000000006,
          -0.072,
          -0.016800000000000002,
          -0.0616,
          0.07160000000000001,
          0.018600000000000002,
          0.0698,
          0.0154,
          0.0316,
          0.0386,
          -0.0892,
          0.030400000000000003,
          0.0604,
          0.007600000000000001,
          -0.0966,
          -0.05,
          -0.072,
          -2.0E-4,
          0.081,
          0.0014000000000000002,
          -0.0014000000000000002
        ],
        [
          -0.0442,
          -0.003,
          0.08560000000000001,
          0.0734,
          0.08280000000000001,
          0.0658,
          0.0576,
          -0.048,
          -0.08780000000000002,
          -0.05740000000000001,
          0.0478,
          -0.059800000000000006,
          -0.057,
          -0.0654,
          -0.074,
          0.0522,
          0.055600000000000004,
          0.0188,
          -0.05940000000000001,
          0.022200000000000004,
          0.09780000000000001,
          -0.035,
          0.0208,
          -0.06180000000000001,
          -0.009600000000000001,
          0.009600000000000001,
          0.009200000000000002,
          0.0786,
          -0.0604,
          -0.0108,
          -0.006,
          0.0038000000000000004,
          0.0258,
          -0.09880000000000001,
          0.0478,
          -0.0182,
          0.07260000000000001,
          0.09960000000000001,
          0.037399999999999996,
          -0.005600000000000001,
          -0.09620000000000001,
          0.0134,
          0.0302,
          -0.009800000000000001,
          0.039200000000000006,
          -0.029,
          -0.0234,
          -0.08680000000000002,
          -0.0422,
          -0.0416,
          0.0714,
          0.005600000000000001,
          0.074,
          -0.0318,
          0.0646,
          0.0468,
          0.0082,
          0.018,
          0.023200000000000002,
          0.033,
          0.006600000000000001,
          -0.0034000000000000002,
          0.062200000000000005,
          0.09240000000000001,
          -0.050800000000000005,
          -0.07360000000000001,
          0.0854,
          0.049400000000000006,
          -0.072,
          -8.0E-4,
          -0.001,
          -0.0058000000000000005,
          0.0142,
          -0.06380000000000001,
          -0.025200000000000004
        ],
        [
          -0.008400000000000001,
          0.0814,
          -0.046200000000000005,
          0.013600000000000001,
          0.046200000000000005,
          0.062200000000000005,
          0.027800000000000002,
          -0.0388,
          0.0432,
          0.0032,
          -0.08460000000000001,
          0.060200000000000004,
          -0.0318,
          -0.002,
          -0.0992,
          0.0568,
          -0.04580000000000001,
          -0.0362,
          0.005,
          -6.000000000000001E-4,
          0.0456,
          0.059,
          0.0446,
          0.0946,
          0.06420000000000001,
          0.06180000000000001,
          0.051800000000000006,
          0.032600000000000004,
          0.053,
          0.1,
          0.033,
          -0.044,
          0.07640000000000001,
          -0.0412,
          -0.012,
          0.027800000000000002,
          -0.0044,
          -0.0332,
          0.06420000000000001,
          -0.009800000000000001,
          -0.0488,
          0.0014000000000000002,
          0.0786,
          -0.007,
          -0.064,
          0.049800000000000004,
          0.006,
          -0.0796,
          -0.0268,
          0.0094,
          -0.0028000000000000004,
          0.048,
          0.06860000000000001,
          0.0194,
          0.0742,
          -0.08,
          0.057800000000000004,
          -0.022200000000000004,
          0.0286,
          0.0526,
          -0.065,
          0.0166,
          0.039400000000000004,
          0.04440000000000001,
          0.0088,
          -0.0154,
          -0.079,
          0.09780000000000001,
          -0.0842,
          0.0154,
          -0.08220000000000001,
          0.046400000000000004,
          0.09060000000000001,
          0.0506,
          -0.0366
        ],
        [
          -0.0562,
          -0.0964,
          -0.012600000000000002,
          0.034,
          0.0984,
          -0.07479999999999999,
          -0.058,
          -0.08660000000000001,
          0.015,
          0.07940000000000001,
          0.06180000000000001,
          0.037,
          0.08480000000000001,
          0.085,
          -0.0626,
          -0.011800000000000001,
          0.0154,
          -0.041800000000000004,
          -0.049400000000000006,
          -0.08660000000000001,
          0.0396,
          -0.09140000000000001,
          -0.0244,
          -0.05380000000000001,
          0.009200000000000002,
          0.05280000000000001,
          0.0956,
          0.0122,
          -0.07579999999999999,
          0.0728,
          -0.06960000000000001,
          0.036800000000000006,
          -0.015200000000000002,
          -0.062400000000000004,
          0.029400000000000003,
          0.009600000000000001,
          0.0908,
          -0.0062,
          -0.08360000000000001,
          0.07,
          -0.08220000000000001,
          -0.0078000000000000005,
          0.049400000000000006,
          0.0134,
          0.0502,
          -0.08660000000000001,
          -0.09060000000000001,
          -0.040400000000000005,
          0.052,
          -0.0992,
          -0.0408,
          0.056400000000000006,
          0.0664,
          0.053200000000000004,
          0.055200000000000006,
          -0.023600000000000003,
          0.018,
          0.0834,
          0.035800000000000005,
          0.0884,
          -0.002,
          0.08580000000000002,
          -0.0082,
          0.023200000000000002,
          -0.09780000000000001,
          0.09480000000000001,
          -0.029400000000000003,
          -0.0882,
          0.0234,
          0.013200000000000002,
          0.0882,
          0.0012000000000000001,
          0.09,
          0.0984,
          0.029
        ],
        [
          8.0E-4,
          -0.0994,
          -0.031200000000000002,
          -0.035,
          -0.07479999999999999,
          -0.023,
          0.018,
          -0.043,
          -0.0796,
          0.05040000000000001,
          -0.009600000000000001,
          0.016,
          0.03,
          0.037200000000000004,
          -0.039,
          0.0298,
          0.030600000000000002,
          -0.0656,
          0.05040000000000001,
          -0.0992,
          0.07460000000000001,
          0.0082,
          0.07,
          -2.0E-4,
          -0.0476,
          -0.059800000000000006,
          0.0492,
          -0.09620000000000001,
          0.0466,
          -0.0762,
          -0.0898,
          0.0596,
          0.0122,
          -0.005,
          0.012,
          0.013800000000000002,
          0.0268,
          -0.0466,
          -0.0012000000000000001,
          -0.0902,
          -0.011800000000000001,
          -0.0936,
          0.0854,
          -0.0216,
          -0.0402,
          -0.05740000000000001,
          -0.0874,
          0.051,
          0.09820000000000001,
          0.0488,
          0.0062,
          0.097,
          -0.0782,
          0.015600000000000001,
          0.028200000000000003,
          0.07680000000000001,
          0.037399999999999996,
          -0.09780000000000001,
          -0.071,
          -0.0572,
          -0.07,
          -0.033800000000000004,
          0.022,
          0.019200000000000002,
          0.017400000000000002,
          -0.05940000000000001,
          0.09440000000000001,
          -0.062,
          0.0388,
          -0.0244,
          -0.063,
          -0.0352,
          -0.044800000000000006,
          0.08780000000000002,
          0.07
        ],
        [
          -0.09880000000000001,
          -0.09440000000000001,
          0.08560000000000001,
          0.044800000000000006,
          -0.053200000000000004,
          -0.0698,
          -0.0966,
          0.078,
          0.007600000000000001,
          -0.09620000000000001,
          -0.025,
          0.055200000000000006,
          0.027600000000000003,
          0.0416,
          0.039,
          0.0724,
          0.091,
          0.033800000000000004,
          -0.062200000000000005,
          0.0158,
          -0.0926,
          -0.056600000000000004,
          -0.0724,
          0.0288,
          -0.05940000000000001,
          0.038400000000000004,
          0.0248,
          -0.0698,
          0.024200000000000003,
          0.063,
          0.0012000000000000001,
          0.07840000000000001,
          -0.018600000000000002,
          0.035800000000000005,
          0.0274,
          -0.016,
          -0.0844,
          -0.0558,
          0.031200000000000002,
          0.0342,
          -0.007600000000000001,
          -0.0734,
          -0.019200000000000002,
          -0.011200000000000002,
          -0.091,
          0.0834,
          0.0176,
          0.052,
          0.042800000000000005,
          0.0246,
          0.08220000000000001,
          -0.0308,
          0.039,
          -0.001,
          0.08580000000000002,
          0.08220000000000001,
          0.0432,
          0.060200000000000004,
          -0.010600000000000002,
          0.0114,
          0.0604,
          -0.09160000000000001,
          -0.0466,
          -0.033800000000000004,
          0.05740000000000001,
          -0.0658,
          -0.0882,
          0.08860000000000001,
          0.08360000000000001,
          0.0208,
          0.0786,
          0.0188,
          0.0946,
          0.0354,
          0.0396
        ],
        [
          -0.0918,
          0.006600000000000001,
          0.098,
          -0.0456,
          0.011800000000000001,
          0.074,
          0.072,
          -0.007600000000000001,
          0.0162,
          0.0946,
          -0.097,
          0.0614,
          0.0082,
          0.0522,
          -0.0582,
          -0.07479999999999999,
          -0.0194,
          0.016800000000000002,
          -0.0026,
          0.068,
          0.004,
          -0.0946,
          -0.002,
          -0.07060000000000001,
          0.0068000000000000005,
          0.0144,
          0.0816,
          0.07880000000000001,
          -0.0074,
          -0.08760000000000001,
          -0.05240000000000001,
          -0.012600000000000002,
          -0.09960000000000001,
          -0.0496,
          0.0512,
          0.011,
          0.09860000000000001,
          -0.0646,
          -0.073,
          0.019600000000000003,
          -0.069,
          -0.093,
          -0.08220000000000001,
          0.027,
          0.0698,
          0.0206,
          0.0614,
          -0.027,
          -0.011200000000000002,
          0.0054,
          -0.0742,
          0.057800000000000004,
          -0.081,
          -0.096,
          -0.0692,
          -0.035,
          -0.07940000000000001,
          0.010600000000000002,
          -0.027600000000000003,
          -0.0064,
          0.0666,
          -0.0776,
          0.0816,
          -0.009800000000000001,
          -0.025400000000000002,
          0.025400000000000002,
          0.0216,
          -0.0466,
          -0.072,
          0.062400000000000004,
          -0.0104,
          -0.0122,
          0.09680000000000001,
          -0.0258,
          -0.0862
        ],
        [
          -0.0832,
          0.038400000000000004,
          -0.0256,
          -0.085,
          -0.009600000000000001,
          -0.07460000000000001,
          -0.08780000000000002,
          -0.0334,
          0.026400000000000003,
          0.09720000000000001,
          0.07579999999999999,
          -0.058,
          -0.072,
          -0.0088,
          -0.031400000000000004,
          0.024200000000000003,
          -0.09620000000000001,
          0.0742,
          -0.0088,
          0.0684,
          0.0228,
          0.08380000000000001,
          -0.025200000000000004,
          -0.038400000000000004,
          -0.087,
          0.097,
          -0.023,
          0.0792,
          -0.088,
          0.0834,
          -0.0936,
          0.021200000000000004,
          -0.0656,
          -0.0546,
          -0.006,
          -0.0248,
          -0.08860000000000001,
          0.0568,
          -0.08180000000000001,
          0.074,
          -0.0708,
          -0.0694,
          -0.0614,
          0.0154,
          0.092,
          0.0674,
          0.054,
          -0.089,
          0.065,
          -0.08940000000000001,
          -0.022600000000000002,
          -0.037399999999999996,
          0.0134,
          0.0826,
          0.059,
          -0.0082,
          0.04340000000000001,
          0.0966,
          -0.0094,
          -0.063,
          0.08660000000000001,
          0.057,
          0.033800000000000004,
          0.018400000000000003,
          -0.030400000000000003,
          0.004600000000000001,
          -0.011800000000000001,
          0.0952,
          0.0258,
          0.054400000000000004,
          0.022,
          -0.027600000000000003,
          -0.006,
          -0.08560000000000001,
          0.006600000000000001
        ],
        [
          0.0804,
          -0.09380000000000001,
          0.0088,
          -0.013800000000000002,
          0.0592,
          -0.0786,
          -0.0342,
          0.0826,
          -0.0674,
          -0.0344,
          -0.057,
          0.0016,
          -0.044800000000000006,
          0.030600000000000002,
          -0.0026,
          0.083,
          -0.0072,
          0.0012000000000000001,
          -0.0694,
          0.030600000000000002,
          -0.019200000000000002,
          0.0122,
          -0.095,
          -0.09540000000000001,
          0.0762,
          -0.06720000000000001,
          0.08680000000000002,
          -0.0752,
          -0.0974,
          -0.0976,
          0.047,
          -0.08280000000000001,
          -0.018400000000000003,
          0.05940000000000001,
          0.011800000000000001,
          0.06860000000000001,
          -0.082,
          0.0912,
          -0.0682,
          0.031,
          -0.0692,
          -0.0536,
          0.06380000000000001,
          -0.045,
          -0.0872,
          0.0666,
          -0.062,
          -0.07540000000000001,
          0.0288,
          0.0854,
          -0.0078000000000000005,
          -0.08940000000000001,
          -0.09160000000000001,
          0.002,
          -0.009,
          0.007,
          -0.05140000000000001,
          0.09340000000000001,
          0.008400000000000001,
          0.0102,
          -0.003,
          0.026,
          -0.0992,
          -0.038,
          0.064,
          -0.07440000000000001,
          -0.08780000000000002,
          -0.0022,
          -0.019600000000000003,
          0.0734,
          -0.0882,
          0.060200000000000004,
          0.0244,
          0.09340000000000001,
          -0.0258
        ],
        [
          0.095,
          0.09820000000000001,
          0.0072,
          -0.0654,
          0.0302,
          -0.07460000000000001,
          -0.0884,
          0.0288,
          -0.015600000000000001,
          0.011600000000000001,
          0.0234,
          0.0036,
          0.062400000000000004,
          0.0108,
          -0.08560000000000001,
          0.0036,
          -0.062400000000000004,
          0.0364,
          0.06960000000000001,
          0.033800000000000004,
          -0.091,
          0.09540000000000001,
          0.0052,
          0.09720000000000001,
          0.09780000000000001,
          -0.0732,
          0.0576,
          -0.0966,
          0.076,
          -0.065,
          -0.054200000000000005,
          -0.0844,
          0.0018,
          -0.0548,
          0.048,
          0.0244,
          0.0974,
          0.091,
          0.07640000000000001,
          0.0386,
          -0.015,
          -0.0142,
          -0.019,
          0.071,
          -0.0364,
          -0.022400000000000003,
          0.0496,
          0.032600000000000004,
          0.0864,
          0.0946,
          0.08120000000000001,
          -0.0698,
          -0.0658,
          0.034800000000000005,
          -0.088,
          0.0064,
          -0.08940000000000001,
          -0.0718,
          0.07880000000000001,
          -0.054200000000000005,
          0.031400000000000004,
          -0.0558,
          -0.0456,
          0.0826,
          0.0616,
          0.0342,
          0.0964,
          0.022400000000000003,
          -0.005600000000000001,
          -0.06380000000000001,
          -0.036,
          0.0322,
          0.018,
          0.07560000000000001,
          0.09820000000000001
        ],
        [
          -0.002,
          -0.0658,
          0.039400000000000004,
          -0.058800000000000005,
          -0.0442,
          -0.0032,
          0.011200000000000002,
          -0.0942,
          -0.037399999999999996,
          0.035800000000000005,
          0.026200000000000005,
          0.0752,
          0.030600000000000002,
          0.046400000000000004,
          -0.0246,
          -0.06380000000000001,
          0.0872,
          -0.0478,
          -0.0018,
          -0.0826,
          -0.05740000000000001,
          0.010600000000000002,
          0.09380000000000001,
          0.0078000000000000005,
          -0.0546,
          0.08280000000000001,
          0.027800000000000002,
          0.051,
          -0.0172,
          -0.0548,
          -0.032600000000000004,
          0.059,
          -0.0078000000000000005,
          -0.071,
          0.036800000000000006,
          0.067,
          0.0074,
          0.059800000000000006,
          -0.027,
          0.0994,
          -0.062200000000000005,
          -0.0604,
          0.086,
          -0.0412,
          -0.0064,
          0.06620000000000001,
          -0.023,
          -0.04340000000000001,
          -0.087,
          -0.085,
          -0.045200000000000004,
          0.015600000000000001,
          -0.0776,
          -0.07579999999999999,
          0.0054,
          -0.06,
          0.063,
          -0.0852,
          -0.0884,
          -0.08180000000000001,
          -0.040600000000000004,
          0.059800000000000006,
          -0.0946,
          0.06080000000000001,
          0.068,
          0.06620000000000001,
          0.0346,
          0.0014000000000000002,
          -0.05240000000000001,
          -0.0228,
          0.07440000000000001,
          0.089,
          -0.07640000000000001,
          -0.07740000000000001,
          0.081
        ],
        [
          -0.043800000000000006,
          0.0912,
          -0.0772,
          0.09040000000000001,
          0.056600000000000004,
          -4.0E-4,
          0.0022,
          0.006600000000000001,
          -0.0058000000000000005,
          -0.077,
          -0.07379999999999999,
          0.058800000000000005,
          -0.0062,
          0.062,
          0.0926,
          -0.05840000000000001,
          -0.0244,
          -0.0796,
          -0.055,
          -0.022600000000000002,
          -0.0976,
          -0.0884,
          -0.019600000000000003,
          0.0258,
          -0.089,
          -0.0366,
          -0.037200000000000004,
          0.003,
          -0.021200000000000004,
          -0.0268,
          0.09160000000000001,
          0.08780000000000002,
          0.05,
          0.0704,
          0.033600000000000005,
          -0.06620000000000001,
          -0.041400000000000006,
          0.076,
          -0.07360000000000001,
          0.013600000000000001,
          0.0176,
          0.041,
          0.061,
          0.026400000000000003,
          -0.0956,
          0.0142,
          -0.023600000000000003,
          -0.037399999999999996,
          0.0228,
          0.022200000000000004,
          0.048400000000000006,
          0.05040000000000001,
          0.017400000000000002,
          -0.0422,
          0.0416,
          0.026400000000000003,
          -0.093,
          -4.0E-4,
          0.0244,
          0.068,
          0.0942,
          -0.02,
          0.022200000000000004,
          0.0874,
          -0.011,
          -0.006600000000000001,
          0.0124,
          0.022,
          -0.043,
          0.0586,
          -0.010600000000000002,
          -0.021200000000000004,
          0.056400000000000006,
          0.029400000000000003,
          0.0446
        ],
        [
          -0.0478,
          0.0172,
          0.041400000000000006,
          0.06,
          0.0762,
          -0.0248,
          0.0516,
          0.0016,
          0.0426,
          0.0344,
          0.027200000000000002,
          -0.08780000000000002,
          -0.022400000000000003,
          -0.056600000000000004,
          0.0286,
          -0.067,
          0.0024000000000000002,
          -0.07740000000000001,
          -0.0908,
          -0.0568,
          0.0362,
          -0.0142,
          -0.0086,
          0.09040000000000001,
          0.0072,
          -0.099,
          -0.035,
          -0.031400000000000004,
          0.0258,
          -0.0178,
          0.0256,
          0.0492,
          -0.021400000000000002,
          -0.08180000000000001,
          0.052,
          0.088,
          -0.0776,
          -0.06860000000000001,
          -0.0526,
          -0.05240000000000001,
          0.023600000000000003,
          -0.061,
          -0.08960000000000001,
          -0.046,
          -0.03,
          0.0362,
          -0.011600000000000001,
          -0.017,
          0.010600000000000002,
          -0.0376,
          -0.022200000000000004,
          -0.0814,
          0.0284,
          0.0228,
          -0.029400000000000003,
          -0.038,
          -0.0668,
          0.0388,
          0.0356,
          0.07680000000000001,
          -0.0188,
          0.08,
          0.0128,
          0.058,
          -0.031,
          -0.011600000000000001,
          0.0488,
          0.08380000000000001,
          0.0324,
          0.049800000000000004,
          0.0604,
          -0.0324,
          -0.0158,
          -0.0124,
          0.0198
        ]
      ]
    },
    "74361429-c453-455e-8e56-d6642c85f067": {
      "class": "com.simiacryptus.mindseye.layers.java.BiasLayer",
      "id": "74361429-c453-455e-8e56-d6642c85f067",
      "isFrozen": false,
      "name": "BiasLayer/74361429-c453-455e-8e56-d6642c85f067",
      "bias": [
        0.0,
        0.0,
        0.0,
        0.0,
        0.0,
        0.0,
        0.0,
        0.0,
        0.0,
        0.0,
        0.0,
        0.0,
        0.0,
        0.0,
        0.0,
        0.0,
        0.0,
        0.0,
        0.0,
        0.0,
        0.0,
        0.0,
        0.0,
        0.0,
        0.0,
        0.0,
        0.0,
        0.0,
        0.0,
        0.0,
        0.0,
        0.0
      ]
    },
    "1b9be5ba-10b2-4cb6-910c-53b878d56156": {
      "class": "com.simiacryptus.mindseye.layers.java.ReLuActivationLayer",
      "id": "1b9be5ba-10b2-4cb6-910c-53b878d56156",
      "isFrozen": true,
      "name": "ReLuActivationLayer/1b9be5ba-10b2-4cb6-910c-53b878d56156",
      "weights": [
        1.0
      ]
    }
  },
  "links": {
    "61e11d78-bd0b-4e5b-baa2-acba73ecdfb0": [
      "d7e4f83b-55ea-4ac7-b318-574a8c415f2b"
    ],
    "d6f88f1e-850f-4487-a25d-0c0e9e2a4156": [
      "61e11d78-bd0b-4e5b-baa2-acba73ecdfb0"
    ],
    "04e77fea-736e-4e1a-baaf-0ab69d2354fa": [
      "d6f88f1e-850f-4487-a25d-0c0e9e2a4156"
    ]
  },
  "labels": {},
  "head": "04e77fea-736e-4e1a-baaf-0ab69d2354fa"
}