{
  "class": "com.simiacryptus.mindseye.network.PipelineNetwork",
  "id": "846eae24-b54e-4107-8e15-5b0f109baf7f",
  "isFrozen": false,
  "name": "PipelineNetwork/846eae24-b54e-4107-8e15-5b0f109baf7f",
  "inputs": [
    "1a77a744-c5ad-446f-9eb9-3ee30d46adc8"
  ],
  "nodes": {
    "f8a5d5c0-d725-4827-a375-b3de704646db": "0f6cb3f5-0c69-443c-ac09-4019274cbeca",
    "29b4a65b-f986-48f7-a6a8-71a100dab7a9": "56ce2226-2df8-421c-b9b8-65ef35695297",
    "75ffd142-f240-44d9-9e56-eb6af4e0ac4f": "74731c30-91ef-4858-9edb-eab676d3011f",
    "f46dc0bf-ad43-4dc4-a6a5-4c12e6cba3ad": "50466ee2-835d-41e7-8cbf-ccc5d85a4d80",
    "ca3ce839-ab0f-46af-b30c-a02d2f3ba76d": "a513e39a-fb5c-4d90-b332-349506de5b48",
    "5a3fc99d-c5ce-4376-8190-a3b1e869e57d": "c8535e65-b4ef-4303-b280-778dfb644cdb",
    "ee01942d-821d-4c26-9553-9bbee63eb56b": "56eebbc1-0e5c-47d9-ac5d-cc8b824cf2cd",
    "59e1cbf4-a27b-409b-bf66-cb4695c3d546": "611f274d-44da-4f4a-bb3b-5f10c3378a94",
    "97f70bcf-b671-4631-9f2d-7515fda61225": "a6f351a0-6104-4113-b982-8d6d584ba86b"
  },
  "layers": {
    "0f6cb3f5-0c69-443c-ac09-4019274cbeca": {
      "class": "com.simiacryptus.mindseye.layers.java.FullyConnectedLayer",
      "id": "0f6cb3f5-0c69-443c-ac09-4019274cbeca",
      "isFrozen": false,
      "name": "FullyConnectedLayer/0f6cb3f5-0c69-443c-ac09-4019274cbeca",
      "outputDims": [
        4,
        4,
        2
      ],
      "inputDims": [
        5,
        5,
        3
      ],
      "weights": [
        [
          0.061,
          0.0994,
          0.0334,
          0.09540000000000001,
          0.0086,
          -0.022,
          -0.0734,
          0.0966,
          -0.08360000000000001,
          0.0256,
          0.0698,
          0.095,
          -0.06520000000000001,
          -0.007,
          0.0976,
          0.07680000000000001,
          0.0534,
          0.0816,
          -0.066,
          0.029,
          0.088,
          0.004200000000000001,
          -0.0328,
          0.0352,
          0.0826,
          0.020200000000000003,
          -0.071,
          0.0834,
          0.0834,
          -0.0688,
          -0.0898,
          -0.0546,
          -0.058800000000000005,
          0.0796,
          -0.0308,
          -0.008400000000000001,
          0.003,
          -0.013200000000000002,
          0.023200000000000002,
          -0.0918,
          -0.0956,
          -0.0966,
          0.07479999999999999,
          -0.05,
          0.0732,
          0.035,
          0.085,
          -0.055400000000000005,
          0.06340000000000001,
          0.053,
          0.047400000000000005,
          0.0512,
          -0.0506,
          0.045200000000000004,
          -0.0194,
          0.055,
          -0.0054,
          -0.049800000000000004,
          0.09240000000000001,
          0.049800000000000004,
          -0.026200000000000005,
          0.0806,
          -0.06760000000000001,
          0.019,
          -0.052,
          0.042,
          0.0852,
          -0.0284,
          0.004,
          -0.082,
          -0.09280000000000001,
          0.022200000000000004,
          -0.08360000000000001,
          -0.0356,
          0.0162
        ],
        [
          0.025400000000000002,
          0.0742,
          0.0692,
          -0.0364,
          -0.05740000000000001,
          -0.023600000000000003,
          0.048600000000000004,
          -0.08480000000000001,
          -0.0026,
          0.0902,
          -0.0678,
          -0.061200000000000004,
          -0.0078000000000000005,
          0.0052,
          0.073,
          -0.018600000000000002,
          0.050800000000000005,
          -0.0668,
          0.035,
          0.0656,
          -0.0296,
          -0.04580000000000001,
          -0.0238,
          -0.009800000000000001,
          0.07840000000000001,
          -0.0666,
          0.0492,
          -0.051800000000000006,
          -0.0646,
          -0.035,
          -0.0522,
          -0.0496,
          0.0656,
          -0.0704,
          0.0078000000000000005,
          -0.0722,
          0.0496,
          0.046200000000000005,
          -0.033800000000000004,
          0.049,
          0.016800000000000002,
          -0.016800000000000002,
          0.0208,
          -0.058,
          -0.011,
          -0.042,
          -0.004,
          -0.06520000000000001,
          0.09140000000000001,
          0.0992,
          0.014,
          -0.058800000000000005,
          -0.0724,
          -0.031200000000000002,
          -0.095,
          0.0094,
          0.039200000000000006,
          -0.047400000000000005,
          0.0412,
          0.025200000000000004,
          -0.08860000000000001,
          0.0122,
          -0.0258,
          0.011600000000000001,
          0.08,
          0.0664,
          -0.0234,
          -0.09160000000000001,
          0.08960000000000001,
          0.0122,
          -0.0644,
          0.026600000000000002,
          0.0158,
          -0.059,
          0.0408
        ],
        [
          -0.04340000000000001,
          -0.0468,
          -0.02,
          0.09440000000000001,
          0.056400000000000006,
          0.0804,
          -0.0496,
          0.0922,
          0.06,
          0.0804,
          -0.021400000000000002,
          -0.098,
          0.094,
          0.038200000000000005,
          0.039200000000000006,
          0.0492,
          -0.0912,
          0.0248,
          -0.041400000000000006,
          0.07840000000000001,
          0.0104,
          -0.047,
          -0.0086,
          0.021,
          -0.013800000000000002,
          0.023600000000000003,
          0.0658,
          -0.014,
          0.022600000000000002,
          0.0058000000000000005,
          -0.015200000000000002,
          0.04580000000000001,
          -0.0182,
          -0.0926,
          0.037,
          0.030400000000000003,
          0.0204,
          0.015,
          -0.0366,
          0.076,
          -0.0732,
          0.044800000000000006,
          0.0238,
          -0.07460000000000001,
          0.0038000000000000004,
          -0.046,
          -0.0148,
          -0.0558,
          -0.0078000000000000005,
          0.0162,
          -0.06420000000000001,
          -0.0984,
          0.0062,
          0.0122,
          -0.08380000000000001,
          0.0722,
          -0.0668,
          0.0536,
          0.068,
          0.038400000000000004,
          -0.0674,
          -0.07479999999999999,
          -0.035,
          0.082,
          0.0158,
          -0.0674,
          0.053200000000000004,
          -0.0022,
          -0.074,
          0.0546,
          0.0974,
          0.032600000000000004,
          -0.0992,
          -0.038200000000000005,
          -0.0814
        ],
        [
          0.0496,
          0.0354,
          0.0842,
          0.05040000000000001,
          -0.0396,
          -0.07940000000000001,
          0.009,
          0.038200000000000005,
          0.0534,
          0.0884,
          0.073,
          -0.0942,
          0.08940000000000001,
          0.006600000000000001,
          0.0364,
          -0.05740000000000001,
          0.0402,
          0.005600000000000001,
          0.026200000000000005,
          -0.0952,
          -0.005600000000000001,
          -0.0974,
          0.08020000000000001,
          0.077,
          0.067,
          -0.06620000000000001,
          -0.0062,
          -0.05380000000000001,
          0.0604,
          -0.0124,
          0.061200000000000004,
          -0.047,
          -0.040400000000000005,
          -0.05140000000000001,
          0.06340000000000001,
          0.0712,
          4.0E-4,
          0.0028000000000000004,
          0.003,
          0.0844,
          0.018600000000000002,
          -0.0844,
          0.013800000000000002,
          0.09780000000000001,
          0.015,
          0.0806,
          -0.032600000000000004,
          -0.022400000000000003,
          0.041800000000000004,
          0.0432,
          -0.008,
          -0.0108,
          -0.005600000000000001,
          -0.09540000000000001,
          0.0062,
          0.072,
          0.0762,
          -0.043,
          -0.0786,
          -0.09480000000000001,
          -0.07940000000000001,
          0.0246,
          -0.09540000000000001,
          -0.0124,
          -0.0942,
          -0.031400000000000004,
          -0.0704,
          0.07980000000000001,
          0.047400000000000005,
          -0.0994,
          0.03,
          0.0562,
          -0.0102,
          0.004600000000000001,
          -0.013800000000000002
        ],
        [
          0.0782,
          -0.0396,
          -0.09620000000000001,
          0.091,
          -0.07540000000000001,
          0.027800000000000002,
          0.0466,
          -2.0E-4,
          -0.076,
          0.048600000000000004,
          0.033,
          -0.0724,
          0.040400000000000005,
          -0.0188,
          0.0872,
          0.09380000000000001,
          0.08460000000000001,
          0.0248,
          -0.016800000000000002,
          -0.020200000000000003,
          -0.08380000000000001,
          -0.0074,
          0.016800000000000002,
          0.002,
          -0.017400000000000002,
          0.0526,
          0.006600000000000001,
          -0.096,
          0.085,
          -0.0614,
          0.0654,
          -0.0286,
          0.009200000000000002,
          -0.0074,
          0.0694,
          0.074,
          -0.0402,
          0.040400000000000005,
          -0.0614,
          -0.0966,
          -0.06080000000000001,
          -0.0142,
          0.0824,
          -0.09,
          0.016,
          0.008400000000000001,
          -0.044,
          -0.06340000000000001,
          0.06720000000000001,
          0.0334,
          -0.08280000000000001,
          -0.021400000000000002,
          0.027800000000000002,
          -0.022,
          -0.0702,
          0.0442,
          0.0194,
          -0.0946,
          -0.0416,
          -0.033800000000000004,
          -0.06720000000000001,
          -0.041,
          -0.0892,
          -0.09440000000000001,
          0.091,
          -0.026,
          -0.011200000000000002,
          -0.0548,
          0.057800000000000004,
          -0.058,
          0.008400000000000001,
          -0.06280000000000001,
          0.0698,
          0.0166,
          0.029400000000000003
        ],
        [
          0.0204,
          -0.08880000000000002,
          0.0228,
          -0.043,
          -0.0074,
          -0.030600000000000002,
          -0.0332,
          -0.046,
          0.0244,
          -0.021,
          -0.062400000000000004,
          0.030600000000000002,
          0.0956,
          0.08660000000000001,
          0.07060000000000001,
          -0.085,
          -0.0586,
          -0.0432,
          0.044,
          0.0154,
          0.0178,
          0.056600000000000004,
          0.07980000000000001,
          -0.07980000000000001,
          0.076,
          -0.0244,
          -0.027,
          -0.0088,
          -0.018,
          0.011200000000000002,
          -0.06520000000000001,
          -0.0718,
          -0.005600000000000001,
          0.0446,
          -0.09480000000000001,
          0.0974,
          -0.063,
          0.0142,
          0.0034000000000000002,
          -0.0882,
          -0.0582,
          0.0466,
          -0.089,
          0.0268,
          -0.08180000000000001,
          -0.0408,
          0.06280000000000001,
          -0.0288,
          0.015200000000000002,
          -0.0432,
          -0.091,
          0.072,
          0.08080000000000001,
          -0.038200000000000005,
          0.0512,
          -0.04580000000000001,
          0.092,
          0.093,
          -0.08960000000000001,
          0.09280000000000001,
          -0.0616,
          -0.0182,
          -0.017,
          0.0796,
          -0.030400000000000003,
          0.0572,
          0.0632,
          0.0318,
          -0.018,
          0.0626,
          0.065,
          -0.08960000000000001,
          0.0228,
          0.07980000000000001,
          0.0656
        ],
        [
          0.07,
          0.064,
          -0.08880000000000002,
          0.0352,
          -0.0284,
          -0.017400000000000002,
          -0.08460000000000001,
          0.07880000000000001,
          -0.0288,
          -0.083,
          0.08180000000000001,
          -0.0562,
          -0.0158,
          -0.0516,
          -0.002,
          0.07579999999999999,
          0.07640000000000001,
          4.0E-4,
          0.0478,
          0.0334,
          0.0626,
          0.005,
          0.07980000000000001,
          -0.0952,
          0.0782,
          -0.0966,
          0.09040000000000001,
          0.023,
          0.046400000000000004,
          0.032600000000000004,
          0.0024000000000000002,
          -0.0032,
          -0.049,
          0.0228,
          -0.02,
          -0.055,
          0.019,
          0.095,
          0.0022,
          0.0656,
          -0.016800000000000002,
          -0.09440000000000001,
          0.05040000000000001,
          -0.040600000000000004,
          0.0674,
          0.056400000000000006,
          0.1,
          0.055200000000000006,
          -0.027,
          0.0206,
          0.058,
          0.08940000000000001,
          0.0,
          0.013,
          0.0016,
          0.014,
          -0.08660000000000001,
          -0.06380000000000001,
          0.057800000000000004,
          0.08880000000000002,
          -0.026200000000000005,
          -0.036800000000000006,
          -0.044800000000000006,
          0.08760000000000001,
          -0.0568,
          0.049800000000000004,
          -0.019600000000000003,
          0.09540000000000001,
          0.076,
          -0.0708,
          0.0284,
          -0.041400000000000006,
          -0.0114,
          -0.093,
          -0.09
        ],
        [
          -0.012,
          -0.0592,
          -0.025200000000000004,
          0.0022,
          -0.0864,
          -0.031400000000000004,
          0.0166,
          -0.0142,
          -0.0018,
          0.0688,
          0.0068000000000000005,
          0.018600000000000002,
          0.0286,
          0.0512,
          -0.0546,
          0.06960000000000001,
          0.0534,
          -0.0952,
          0.0992,
          -0.026400000000000003,
          -0.030600000000000002,
          -0.0182,
          0.04440000000000001,
          0.08660000000000001,
          0.0172,
          0.0142,
          0.09780000000000001,
          0.056,
          0.0204,
          0.0942,
          -0.0302,
          -0.0246,
          0.06180000000000001,
          0.0966,
          -0.028200000000000003,
          0.002,
          0.0684,
          -0.057,
          0.0324,
          0.009,
          -0.09240000000000001,
          0.019200000000000002,
          -0.057800000000000004,
          0.014600000000000002,
          0.0332,
          -0.056,
          0.0296,
          -0.011600000000000001,
          -0.0892,
          -0.0436,
          0.0984,
          -0.034,
          -0.040400000000000005,
          0.0408,
          -0.093,
          0.021400000000000002,
          -0.0102,
          -0.0606,
          -0.049,
          -0.0526,
          0.091,
          0.0206,
          0.031400000000000004,
          0.0682,
          0.0352,
          -0.0432,
          0.031,
          0.0722,
          0.08660000000000001,
          -0.0482,
          -0.097,
          0.0936,
          0.0908,
          0.008400000000000001,
          0.0842
        ],
        [
          0.08220000000000001,
          -0.0892,
          0.045200000000000004,
          -0.0206,
          0.007600000000000001,
          0.08080000000000001,
          -0.077,
          0.0256,
          -0.08080000000000001,
          -0.09060000000000001,
          -0.09980000000000001,
          0.0396,
          -0.0576,
          0.0052,
          0.056600000000000004,
          0.036,
          -0.092,
          0.0832,
          -0.0044,
          0.0772,
          0.0668,
          0.063,
          -0.029200000000000004,
          -0.006600000000000001,
          0.030400000000000003,
          0.057,
          0.0614,
          -0.07160000000000001,
          -0.07880000000000001,
          -0.093,
          -0.018600000000000002,
          -0.0632,
          -0.06080000000000001,
          -0.08280000000000001,
          -0.0826,
          0.07579999999999999,
          0.0198,
          0.007,
          0.027200000000000002,
          -0.023,
          0.06720000000000001,
          -0.0036,
          -0.022200000000000004,
          0.0526,
          -0.011200000000000002,
          0.0482,
          -0.0108,
          -0.0632,
          0.05280000000000001,
          -0.07940000000000001,
          0.023200000000000002,
          -0.08780000000000002,
          0.054,
          -0.0946,
          0.062,
          -0.0892,
          -0.033,
          -4.0E-4,
          -0.0128,
          -0.01,
          -0.0742,
          0.08760000000000001,
          -0.06520000000000001,
          0.0102,
          -0.015600000000000001,
          0.0534,
          0.022600000000000002,
          0.084,
          -0.016800000000000002,
          0.004600000000000001,
          0.029400000000000003,
          -0.0208,
          0.0094,
          0.0094,
          0.09680000000000001
        ],
        [
          -0.0362,
          -0.0516,
          -0.019,
          -0.0606,
          0.012600000000000002,
          0.003,
          0.018,
          -0.044800000000000006,
          -0.0956,
          -0.0208,
          -0.0044,
          -0.0742,
          -0.059,
          0.058,
          0.007600000000000001,
          -0.08380000000000001,
          -0.054400000000000004,
          0.056,
          0.0698,
          0.055200000000000006,
          -0.06,
          0.0296,
          -0.0562,
          -0.045200000000000004,
          -0.0606,
          -0.0734,
          -6.000000000000001E-4,
          -0.032600000000000004,
          0.0198,
          -0.029,
          0.013600000000000001,
          -0.0082,
          -0.008,
          -0.0874,
          0.09280000000000001,
          -0.086,
          0.0678,
          0.05380000000000001,
          -0.028,
          0.005600000000000001,
          0.034800000000000005,
          0.08,
          -0.0014000000000000002,
          0.042,
          0.084,
          -0.039400000000000004,
          -0.061,
          -0.005600000000000001,
          -0.08280000000000001,
          -0.035800000000000005,
          -0.0412,
          0.0626,
          -0.04240000000000001,
          -0.06520000000000001,
          -0.07360000000000001,
          -0.041400000000000006,
          -0.07160000000000001,
          0.0162,
          -0.041400000000000006,
          -0.065,
          0.0244,
          -0.0234,
          0.09160000000000001,
          0.0546,
          -0.09040000000000001,
          -0.0142,
          0.09480000000000001,
          0.041800000000000004,
          0.08680000000000002,
          -0.0698,
          -0.0354,
          -0.07440000000000001,
          -0.0328,
          -0.09160000000000001,
          -0.062200000000000005
        ],
        [
          -0.07740000000000001,
          0.0976,
          0.0558,
          -0.0966,
          -0.0346,
          -0.032,
          0.0572,
          0.004,
          -0.0586,
          0.0734,
          0.084,
          0.09580000000000001,
          0.0248,
          -0.0068000000000000005,
          0.03,
          0.09280000000000001,
          -0.0058000000000000005,
          -0.0722,
          0.0502,
          0.011,
          -0.082,
          -0.0032,
          -0.0664,
          -0.087,
          0.022600000000000002,
          0.0482,
          0.0412,
          0.06760000000000001,
          0.0526,
          -0.034,
          0.017400000000000002,
          -0.0068000000000000005,
          -0.07640000000000001,
          0.037,
          0.09480000000000001,
          -0.028200000000000003,
          0.053,
          -0.0058000000000000005,
          -0.0516,
          0.0832,
          -0.023200000000000002,
          0.0148,
          -0.07980000000000001,
          -0.0718,
          -0.0296,
          0.0026,
          0.025400000000000002,
          0.006600000000000001,
          0.043,
          -6.000000000000001E-4,
          0.0218,
          0.04,
          0.038400000000000004,
          0.07880000000000001,
          -0.03780000000000001,
          0.047200000000000006,
          -0.082,
          0.08960000000000001,
          0.0926,
          0.0176,
          0.06080000000000001,
          -0.04,
          -0.0872,
          0.010600000000000002,
          -0.016800000000000002,
          -0.0012000000000000001,
          0.041800000000000004,
          -0.037399999999999996,
          0.004600000000000001,
          0.04240000000000001,
          -0.0742,
          0.0534,
          -0.026,
          0.0666,
          0.0656
        ],
        [
          0.0782,
          0.043800000000000006,
          0.0658,
          0.0658,
          0.05380000000000001,
          -0.07660000000000002,
          -0.094,
          0.04580000000000001,
          0.0626,
          -0.0376,
          0.06380000000000001,
          -0.004200000000000001,
          0.013800000000000002,
          0.062400000000000004,
          0.0592,
          -0.0884,
          0.0432,
          0.027200000000000002,
          0.07680000000000001,
          -0.013800000000000002,
          -0.0346,
          0.021400000000000002,
          0.07780000000000001,
          -0.0318,
          -0.095,
          0.09240000000000001,
          -0.0194,
          -0.0402,
          0.030400000000000003,
          0.0134,
          0.0568,
          -0.0862,
          -0.01,
          -0.0516,
          -0.0476,
          -0.0596,
          -0.042,
          0.0442,
          0.01,
          -0.0344,
          0.0104,
          -0.008,
          -0.081,
          0.043,
          0.073,
          -0.0684,
          0.06280000000000001,
          0.0344,
          0.09680000000000001,
          0.06280000000000001,
          0.0702,
          -0.026400000000000003,
          0.008400000000000001,
          -0.08860000000000001,
          -0.0956,
          -0.043800000000000006,
          0.023200000000000002,
          -0.0534,
          -0.0398,
          -0.055400000000000005,
          -0.05280000000000001,
          0.097,
          -0.09440000000000001,
          -0.0124,
          0.078,
          0.0442,
          -0.085,
          0.08180000000000001,
          0.0432,
          -0.06420000000000001,
          8.0E-4,
          -0.0942,
          0.029400000000000003,
          0.036800000000000006,
          -0.0412
        ],
        [
          -0.0688,
          0.058800000000000005,
          0.0086,
          0.025400000000000002,
          0.04580000000000001,
          -6.000000000000001E-4,
          -0.0028000000000000004,
          0.0884,
          0.055400000000000005,
          0.09280000000000001,
          0.0864,
          0.056,
          -0.014,
          -0.028,
          -0.0402,
          -0.046400000000000004,
          0.07060000000000001,
          -0.055600000000000004,
          -0.0874,
          0.033,
          -0.05240000000000001,
          -0.039200000000000006,
          -0.0388,
          0.0664,
          0.0054,
          0.055,
          0.009200000000000002,
          0.09280000000000001,
          -0.0992,
          -0.010600000000000002,
          -0.0724,
          2.0E-4,
          -0.004600000000000001,
          0.07680000000000001,
          0.08120000000000001,
          0.06420000000000001,
          -0.053200000000000004,
          0.005600000000000001,
          0.0012000000000000001,
          0.09880000000000001,
          -0.0064,
          0.019200000000000002,
          -6.000000000000001E-4,
          -0.0286,
          -0.0356,
          -0.079,
          -0.0898,
          0.092,
          0.008,
          -0.0412,
          0.0062,
          -0.07579999999999999,
          0.0606,
          0.0198,
          -0.0216,
          -0.0872,
          0.0124,
          -0.022200000000000004,
          -0.047,
          0.07579999999999999,
          -0.05240000000000001,
          -0.046200000000000005,
          0.0238,
          -0.0568,
          -0.0322,
          -0.0844,
          -0.085,
          -0.0454,
          0.041400000000000006,
          0.024,
          -0.050800000000000005,
          -0.0558,
          0.022600000000000002,
          0.004,
          -0.0064
        ],
        [
          -0.0734,
          -0.09980000000000001,
          -0.0228,
          -0.007600000000000001,
          0.091,
          -0.054400000000000004,
          0.0826,
          0.049400000000000006,
          0.0316,
          -0.0908,
          0.0308,
          -0.0104,
          -0.068,
          -0.0068000000000000005,
          0.058800000000000005,
          0.0792,
          0.0416,
          0.040400000000000005,
          -0.053,
          -0.001,
          0.0286,
          -0.061,
          0.028,
          0.05240000000000001,
          0.0614,
          -0.0936,
          0.0154,
          -0.0396,
          0.0734,
          -0.0974,
          0.07980000000000001,
          -0.0678,
          -0.0088,
          0.0402,
          -0.0908,
          0.0148,
          0.037200000000000004,
          -0.08,
          0.09380000000000001,
          -0.008,
          -0.038400000000000004,
          -0.056,
          0.09880000000000001,
          -0.0692,
          -0.0022,
          0.0376,
          -0.088,
          0.05380000000000001,
          0.09620000000000001,
          0.0446,
          -0.022,
          -0.048600000000000004,
          -0.062200000000000005,
          -0.049400000000000006,
          0.0732,
          0.045,
          0.0044,
          0.0398,
          -0.085,
          0.062,
          -0.056,
          0.08880000000000002,
          -0.05380000000000001,
          0.0864,
          0.054,
          -0.034800000000000005,
          0.093,
          -0.08180000000000001,
          0.08,
          -0.08940000000000001,
          -0.0454,
          -0.015600000000000001,
          -0.0742,
          -0.0352,
          0.0506
        ],
        [
          0.026,
          -0.0396,
          -0.04580000000000001,
          0.0268,
          -0.069,
          -0.040600000000000004,
          0.0536,
          0.015,
          -0.0728,
          0.088,
          -0.0902,
          -0.052,
          -0.07579999999999999,
          0.011200000000000002,
          0.09780000000000001,
          0.0762,
          -0.044800000000000006,
          -0.008400000000000001,
          0.0854,
          0.0442,
          -0.053200000000000004,
          -0.056400000000000006,
          -0.09540000000000001,
          0.0492,
          -0.0734,
          -0.0526,
          0.013800000000000002,
          -0.0134,
          0.001,
          -0.035,
          -0.061200000000000004,
          -0.093,
          0.020200000000000003,
          0.045,
          -0.058,
          -0.055600000000000004,
          0.032600000000000004,
          -0.0284,
          -0.081,
          0.0026,
          -0.08860000000000001,
          -0.0898,
          0.019,
          0.08120000000000001,
          0.0632,
          0.0148,
          -0.09240000000000001,
          -0.0898,
          0.08860000000000001,
          -0.040400000000000005,
          -0.0142,
          -0.08220000000000001,
          0.0352,
          0.0684,
          -0.08480000000000001,
          -0.0712,
          0.003,
          -0.0832,
          -0.001,
          0.074,
          -0.041,
          0.07360000000000001,
          0.075,
          0.0512,
          -0.0356,
          0.041400000000000006,
          0.0898,
          0.0718,
          0.044800000000000006,
          0.0918,
          0.055600000000000004,
          -0.014,
          0.0024000000000000002,
          0.0346,
          -0.0604
        ],
        [
          -0.0534,
          0.015600000000000001,
          -0.0144,
          -0.039200000000000006,
          -0.056,
          0.052,
          0.0688,
          -0.0704,
          0.09680000000000001,
          0.06380000000000001,
          -0.086,
          -0.031,
          -0.004600000000000001,
          -0.03780000000000001,
          -0.0826,
          0.09820000000000001,
          0.011600000000000001,
          0.0974,
          0.045,
          -0.0234,
          -0.0946,
          0.0606,
          -0.0296,
          -0.014600000000000002,
          0.08480000000000001,
          0.0936,
          -0.056,
          -0.011,
          0.034,
          -0.004200000000000001,
          -0.056,
          -0.0176,
          -0.003,
          0.0656,
          -0.0446,
          0.0258,
          0.0596,
          0.014,
          -0.009600000000000001,
          -0.0674,
          -0.06280000000000001,
          -0.0936,
          -0.0922,
          0.0864,
          -0.034800000000000005,
          0.09680000000000001,
          0.011,
          -0.0172,
          -0.06180000000000001,
          0.07460000000000001,
          0.0234,
          0.054400000000000004,
          0.088,
          -0.055,
          0.03,
          -0.041800000000000004,
          -0.004,
          0.0288,
          0.0762,
          -0.045,
          -0.0356,
          0.049,
          -0.078,
          0.082,
          -0.0422,
          -0.0568,
          -0.024200000000000003,
          -0.06380000000000001,
          0.0674,
          0.013200000000000002,
          -0.08220000000000001,
          -0.078,
          -0.0852,
          -0.015200000000000002,
          0.026400000000000003
        ],
        [
          0.022600000000000002,
          0.029400000000000003,
          0.004200000000000001,
          0.0964,
          -0.058800000000000005,
          -0.0832,
          -0.087,
          0.0218,
          0.07460000000000001,
          0.0026,
          0.027800000000000002,
          -0.06,
          -0.095,
          -0.0708,
          0.097,
          -0.0656,
          -0.003,
          0.095,
          -0.005,
          0.023,
          -0.0984,
          0.026200000000000005,
          -0.04,
          -0.037200000000000004,
          0.06180000000000001,
          0.05040000000000001,
          -0.0354,
          -0.040400000000000005,
          0.018400000000000003,
          0.021200000000000004,
          0.0922,
          0.020200000000000003,
          0.030400000000000003,
          0.0026,
          0.072,
          -0.055,
          0.028200000000000003,
          -0.0034000000000000002,
          0.085,
          0.0898,
          -0.0952,
          -0.0402,
          0.07640000000000001,
          0.0824,
          -0.064,
          -0.054,
          0.0208,
          0.0164,
          -0.038400000000000004,
          0.018,
          0.0688,
          -0.0088,
          0.006,
          0.0248,
          -0.0496,
          0.0068000000000000005,
          0.084,
          -0.026400000000000003,
          0.078,
          0.0064,
          -0.0932,
          0.014,
          -0.0268,
          -0.0446,
          -0.083,
          0.09780000000000001,
          0.08580000000000002,
          -0.0026,
          -0.048400000000000006,
          6.000000000000001E-4,
          0.0074,
          0.009600000000000001,
          0.0162,
          -0.039,
          -0.0332
        ],
        [
          -0.0558,
          0.08,
          -0.0114,
          -0.0482,
          0.0182,
          0.0134,
          -0.07579999999999999,
          -0.08680000000000002,
          0.0026,
          -0.042,
          -0.054400000000000004,
          -0.0966,
          -0.001,
          -0.0898,
          0.0302,
          -0.0984,
          0.0366,
          -0.07780000000000001,
          0.059,
          -0.06760000000000001,
          0.0388,
          -0.08380000000000001,
          -0.0468,
          -0.0178,
          0.041800000000000004,
          0.0316,
          -0.0296,
          -0.031,
          -0.0148,
          0.06280000000000001,
          -0.0104,
          0.0172,
          -0.0328,
          -0.09240000000000001,
          0.0198,
          -0.08480000000000001,
          -0.0456,
          0.08220000000000001,
          0.010600000000000002,
          -0.06340000000000001,
          -0.033,
          0.0752,
          -0.0882,
          -0.0102,
          -0.078,
          0.021,
          0.032600000000000004,
          -0.07060000000000001,
          0.01,
          0.050800000000000005,
          0.08580000000000002,
          0.009800000000000001,
          -0.0912,
          -0.0592,
          0.06420000000000001,
          0.09140000000000001,
          0.08480000000000001,
          -0.07260000000000001,
          0.09680000000000001,
          -0.08360000000000001,
          -0.07,
          -0.017,
          0.05740000000000001,
          -0.0296,
          0.0936,
          0.048600000000000004,
          -0.0432,
          -0.09160000000000001,
          -0.081,
          -0.08180000000000001,
          0.0422,
          0.08960000000000001,
          -0.023,
          0.0258,
          0.045
        ],
        [
          0.0956,
          -0.049400000000000006,
          0.0548,
          0.0712,
          0.0032,
          0.065,
          -0.05240000000000001,
          -0.07680000000000001,
          0.013200000000000002,
          0.0398,
          0.0718,
          0.0902,
          -0.0124,
          -0.0674,
          -0.0134,
          -0.0298,
          -0.0346,
          0.0188,
          -0.0396,
          -0.0364,
          -0.040400000000000005,
          0.058,
          -0.067,
          0.081,
          -0.033600000000000005,
          -0.0366,
          -0.046200000000000005,
          -0.0964,
          0.093,
          0.0218,
          -0.039,
          0.094,
          -0.0048000000000000004,
          0.0912,
          -0.094,
          0.012,
          0.0476,
          -0.019200000000000002,
          0.0408,
          0.0656,
          0.008400000000000001,
          0.09140000000000001,
          0.047400000000000005,
          0.087,
          0.0274,
          0.0684,
          -0.055600000000000004,
          0.0632,
          -0.003,
          -0.055,
          0.0194,
          -0.095,
          0.082,
          -0.084,
          -0.026400000000000003,
          0.0516,
          -0.08460000000000001,
          0.08780000000000002,
          0.0546,
          0.09980000000000001,
          -0.082,
          0.09440000000000001,
          -0.015200000000000002,
          0.06960000000000001,
          -0.09160000000000001,
          0.0248,
          0.075,
          0.07560000000000001,
          -0.034800000000000005,
          -0.062200000000000005,
          0.053,
          0.08660000000000001,
          -0.0482,
          0.08560000000000001,
          -0.0526
        ],
        [
          -0.0094,
          0.005600000000000001,
          0.03780000000000001,
          0.07579999999999999,
          0.062200000000000005,
          0.07880000000000001,
          0.08080000000000001,
          0.08020000000000001,
          0.013200000000000002,
          0.0734,
          0.021,
          0.023200000000000002,
          0.019200000000000002,
          -0.0426,
          0.0826,
          -0.004600000000000001,
          0.06620000000000001,
          0.0796,
          0.07460000000000001,
          -0.0974,
          -0.0344,
          0.0238,
          0.0048000000000000004,
          0.032600000000000004,
          0.06520000000000001,
          -0.08020000000000001,
          -0.048,
          -0.0268,
          -0.0482,
          -0.0708,
          0.09860000000000001,
          0.031200000000000002,
          0.049400000000000006,
          0.004200000000000001,
          -0.049400000000000006,
          0.039,
          -0.0922,
          0.06620000000000001,
          -0.006600000000000001,
          0.009200000000000002,
          0.016800000000000002,
          -0.051800000000000006,
          -0.0032,
          0.0926,
          -0.09620000000000001,
          0.0814,
          0.046400000000000004,
          0.038400000000000004,
          0.031200000000000002,
          -0.076,
          -0.0632,
          -0.0922,
          0.0094,
          -0.08760000000000001,
          0.0964,
          0.0718,
          0.087,
          -0.055200000000000006,
          0.079,
          0.08940000000000001,
          0.010600000000000002,
          -0.037399999999999996,
          -0.0034000000000000002,
          0.0964,
          0.0568,
          0.041400000000000006,
          0.085,
          -0.038,
          -0.021,
          -0.0864,
          0.022600000000000002,
          -0.048,
          0.01,
          -0.05840000000000001,
          0.056400000000000006
        ],
        [
          0.0048000000000000004,
          -0.0432,
          -0.0648,
          0.085,
          0.0208,
          -0.06620000000000001,
          -0.033600000000000005,
          8.0E-4,
          -0.004,
          0.0322,
          0.039,
          -0.026600000000000002,
          -0.085,
          0.09480000000000001,
          -0.0922,
          -0.038,
          -0.009,
          -0.06860000000000001,
          -0.08480000000000001,
          0.026400000000000003,
          -0.0316,
          -0.006,
          0.075,
          -0.0882,
          -0.0332,
          -0.0666,
          0.07379999999999999,
          -0.0534,
          0.0678,
          -0.0534,
          -0.040600000000000004,
          0.0082,
          -0.06720000000000001,
          -0.0684,
          -0.085,
          0.09140000000000001,
          -0.0124,
          -0.046200000000000005,
          0.059,
          -0.050800000000000005,
          -0.05140000000000001,
          -0.014600000000000002,
          -0.004600000000000001,
          0.033,
          0.0054,
          -0.0926,
          -0.0324,
          -0.0668,
          -0.04340000000000001,
          -0.067,
          0.08460000000000001,
          0.09140000000000001,
          -0.06760000000000001,
          0.074,
          -0.07,
          0.047,
          -0.041800000000000004,
          0.046400000000000004,
          -0.064,
          0.0182,
          -0.048600000000000004,
          -0.06620000000000001,
          0.0198,
          -0.027,
          0.031200000000000002,
          0.054400000000000004,
          0.0198,
          0.037,
          -0.034800000000000005,
          -0.0386,
          -0.011800000000000001,
          -0.040400000000000005,
          0.0216,
          0.037399999999999996,
          0.026
        ],
        [
          -0.08480000000000001,
          -0.0616,
          -0.08960000000000001,
          0.011800000000000001,
          0.0332,
          -0.06080000000000001,
          0.013200000000000002,
          0.07160000000000001,
          0.0208,
          -0.042800000000000005,
          -0.08560000000000001,
          -0.07,
          -0.026,
          -0.029,
          -0.0728,
          -0.0162,
          0.055200000000000006,
          -0.063,
          0.0478,
          0.031,
          -8.0E-4,
          -0.0362,
          -0.027800000000000002,
          -0.08660000000000001,
          -0.0782,
          0.0094,
          -0.0258,
          -0.09820000000000001,
          0.0058000000000000005,
          0.0902,
          0.0732,
          0.08220000000000001,
          -0.058,
          0.0922,
          0.044,
          0.0644,
          0.0082,
          -0.046,
          -0.031,
          0.06180000000000001,
          -2.0E-4,
          0.011,
          -0.029,
          -0.0356,
          0.0332,
          0.07060000000000001,
          -0.07940000000000001,
          0.0654,
          -0.014600000000000002,
          -0.06760000000000001,
          0.0718,
          -0.010600000000000002,
          -0.0352,
          -0.049,
          -0.0636,
          -0.08,
          -0.0506,
          -0.09820000000000001,
          0.09,
          0.025400000000000002,
          -0.022600000000000002,
          0.004600000000000001,
          -0.034800000000000005,
          0.0442,
          0.035800000000000005,
          -0.0688,
          0.0834,
          -0.096,
          0.0436,
          -0.064,
          -0.0422,
          0.02,
          -0.09720000000000001,
          -0.06860000000000001,
          0.09780000000000001
        ],
        [
          -0.09780000000000001,
          0.0346,
          -0.008400000000000001,
          0.022600000000000002,
          0.0334,
          -0.07660000000000002,
          0.016,
          0.013200000000000002,
          0.07479999999999999,
          0.06,
          -0.071,
          0.0942,
          -0.08380000000000001,
          0.0014000000000000002,
          0.0826,
          -0.029200000000000004,
          -0.09480000000000001,
          -0.0806,
          0.0762,
          0.0476,
          -0.065,
          -0.0776,
          -0.09380000000000001,
          0.0742,
          0.0466,
          -0.061,
          0.09860000000000001,
          -0.06080000000000001,
          0.039,
          -0.091,
          0.0644,
          -0.0572,
          -0.011600000000000001,
          0.0298,
          0.07840000000000001,
          0.0684,
          -0.042,
          0.09680000000000001,
          -0.0356,
          0.09780000000000001,
          -0.013800000000000002,
          0.02,
          0.0346,
          -0.079,
          0.051800000000000006,
          -0.0776,
          -0.062400000000000004,
          -0.09680000000000001,
          0.0844,
          -0.004200000000000001,
          -0.06420000000000001,
          -0.022600000000000002,
          -0.06960000000000001,
          -0.010600000000000002,
          0.07479999999999999,
          -0.08380000000000001,
          0.034,
          0.0496,
          0.0328,
          -0.046400000000000004,
          0.059800000000000006,
          0.055,
          -0.031,
          -0.017,
          -0.068,
          0.08220000000000001,
          -0.0102,
          -0.0308,
          0.0206,
          0.0018,
          -0.0712,
          -0.0054,
          -0.07840000000000001,
          0.031200000000000002,
          -0.051
        ],
        [
          -0.018600000000000002,
          0.087,
          0.06280000000000001,
          -0.049,
          -0.07640000000000001,
          -0.011800000000000001,
          -0.0734,
          -0.09980000000000001,
          0.01,
          -0.0562,
          0.0342,
          0.027200000000000002,
          -0.029,
          0.0884,
          -0.005,
          -0.009,
          -0.07479999999999999,
          -0.057,
          0.025,
          -0.0162,
          -0.035800000000000005,
          -0.055200000000000006,
          -0.0708,
          0.07980000000000001,
          -0.0908,
          0.046200000000000005,
          -0.0932,
          0.06720000000000001,
          0.0632,
          -0.0952,
          -0.0194,
          4.0E-4,
          0.0616,
          0.053,
          0.09540000000000001,
          -0.019,
          -0.022600000000000002,
          -0.0488,
          0.0516,
          0.0732,
          0.07940000000000001,
          -0.031400000000000004,
          0.0476,
          -0.012,
          0.058,
          -0.09880000000000001,
          0.0854,
          0.03780000000000001,
          -0.06340000000000001,
          0.0482,
          0.063,
          0.050800000000000005,
          0.0688,
          0.09160000000000001,
          0.026400000000000003,
          0.0616,
          -0.0166,
          0.09860000000000001,
          -0.022400000000000003,
          0.0512,
          -0.015600000000000001,
          0.0546,
          0.055,
          -0.0082,
          -0.0586,
          0.0668,
          -0.018400000000000003,
          -0.022200000000000004,
          0.01,
          -0.0626,
          0.061200000000000004,
          0.0646,
          -0.088,
          -0.009,
          0.0492
        ],
        [
          -0.049,
          0.0,
          0.0646,
          -0.0776,
          -0.0086,
          -0.022400000000000003,
          0.037399999999999996,
          -0.088,
          -0.06380000000000001,
          0.029200000000000004,
          -0.0658,
          0.015,
          -0.040400000000000005,
          0.05140000000000001,
          -0.0296,
          0.046400000000000004,
          0.05240000000000001,
          0.0882,
          -0.0752,
          0.008,
          0.06420000000000001,
          -0.029,
          0.048,
          0.0902,
          0.053200000000000004,
          0.0164,
          0.049400000000000006,
          -0.079,
          0.068,
          -0.0034000000000000002,
          0.0864,
          -0.0422,
          -0.0346,
          -0.0892,
          -0.047200000000000006,
          -0.0284,
          -0.0016,
          -0.0128,
          0.0344,
          0.049400000000000006,
          -0.051800000000000006,
          0.0606,
          0.046400000000000004,
          0.012,
          -0.09340000000000001,
          -0.005,
          0.048,
          0.08780000000000002,
          0.0386,
          0.09,
          0.075,
          -0.089,
          -0.0678,
          -0.062400000000000004,
          0.0244,
          -2.0E-4,
          -0.039200000000000006,
          -0.0334,
          0.0388,
          -0.098,
          -0.06960000000000001,
          0.0722,
          -0.096,
          -0.0016,
          -0.027200000000000002,
          0.039400000000000004,
          -0.0024000000000000002,
          0.0302,
          0.05840000000000001,
          0.015,
          0.0408,
          -0.0412,
          0.029400000000000003,
          0.07379999999999999,
          -0.0964
        ],
        [
          -0.07740000000000001,
          0.08760000000000001,
          -0.0864,
          0.033,
          0.062400000000000004,
          -0.04580000000000001,
          0.08560000000000001,
          0.0016,
          -0.09580000000000001,
          -0.0074,
          0.038,
          0.0586,
          -0.072,
          -0.08480000000000001,
          -0.040600000000000004,
          0.08940000000000001,
          0.0344,
          -0.0416,
          0.024,
          0.0522,
          -0.08960000000000001,
          -0.0182,
          0.081,
          0.0362,
          0.033600000000000005,
          -0.033800000000000004,
          0.0572,
          0.0606,
          -0.0124,
          -0.0536,
          -0.09960000000000001,
          0.0038000000000000004,
          0.037200000000000004,
          0.07640000000000001,
          0.005,
          -0.039400000000000004,
          -0.098,
          -0.0402,
          -0.0014000000000000002,
          -0.0596,
          0.006,
          6.000000000000001E-4,
          -0.058,
          0.0992,
          -0.0626,
          -0.0734,
          -0.004600000000000001,
          0.067,
          0.0482,
          0.026600000000000002,
          0.037,
          -0.024200000000000003,
          0.0478,
          -0.003,
          -0.009600000000000001,
          -0.0682,
          0.097,
          0.046,
          -0.09580000000000001,
          0.07460000000000001,
          -0.09620000000000001,
          0.027200000000000002,
          -0.0356,
          0.0646,
          0.0296,
          0.078,
          -0.026200000000000005,
          0.0124,
          0.073,
          -0.0682,
          0.0206,
          -0.084,
          -0.0248,
          -0.05840000000000001,
          0.08680000000000002
        ],
        [
          -0.041800000000000004,
          0.09160000000000001,
          0.08080000000000001,
          -0.022600000000000002,
          -6.000000000000001E-4,
          0.0034000000000000002,
          0.033,
          0.0782,
          -0.0142,
          0.015200000000000002,
          -0.0256,
          -0.052,
          0.07840000000000001,
          -0.0964,
          0.0298,
          0.07540000000000001,
          0.0012000000000000001,
          -0.055200000000000006,
          0.061,
          0.0568,
          -0.0258,
          -0.055600000000000004,
          0.029400000000000003,
          -0.0228,
          -0.040400000000000005,
          -0.05140000000000001,
          0.09440000000000001,
          0.05,
          0.07740000000000001,
          0.063,
          -0.0782,
          0.0402,
          0.038200000000000005,
          -0.0176,
          -0.094,
          0.05280000000000001,
          -0.035800000000000005,
          -0.0322,
          0.084,
          0.0582,
          -0.0034000000000000002,
          0.0048000000000000004,
          -0.009,
          0.0048000000000000004,
          -0.0562,
          0.085,
          0.08660000000000001,
          0.0526,
          -0.032600000000000004,
          -0.0724,
          0.0386,
          6.000000000000001E-4,
          0.0432,
          -0.04440000000000001,
          -0.0322,
          0.036,
          -0.047,
          -0.017400000000000002,
          -0.0468,
          -0.005,
          0.081,
          0.09680000000000001,
          0.056400000000000006,
          0.085,
          -0.026600000000000002,
          -0.007,
          -0.015200000000000002,
          0.08360000000000001,
          0.004200000000000001,
          -0.07060000000000001,
          -0.05280000000000001,
          0.055,
          0.0344,
          0.0354,
          -0.0248
        ],
        [
          0.0646,
          0.0478,
          0.0742,
          0.08960000000000001,
          0.0772,
          0.041800000000000004,
          -0.0022,
          -0.07560000000000001,
          0.04580000000000001,
          0.030600000000000002,
          0.054400000000000004,
          0.034,
          -0.05840000000000001,
          -0.05840000000000001,
          -0.07360000000000001,
          0.088,
          -0.0318,
          0.028,
          -0.0496,
          0.037,
          0.0412,
          0.0308,
          0.0402,
          -0.083,
          0.072,
          -0.0932,
          -0.069,
          0.026,
          0.0862,
          0.09280000000000001,
          0.0248,
          -0.0698,
          -0.0994,
          -0.042,
          -0.0592,
          -0.0154,
          0.08940000000000001,
          8.0E-4,
          0.08080000000000001,
          -0.011200000000000002,
          0.0284,
          0.018400000000000003,
          -0.018,
          -0.010600000000000002,
          -0.07379999999999999,
          -0.0172,
          0.0604,
          0.074,
          -0.0898,
          -0.08940000000000001,
          -0.0028000000000000004,
          -0.046200000000000005,
          -0.025200000000000004,
          -0.0702,
          0.0666,
          0.05740000000000001,
          -0.05,
          0.0426,
          -0.0902,
          -0.0614,
          -0.018600000000000002,
          -0.031200000000000002,
          -0.06180000000000001,
          0.052,
          -0.08580000000000002,
          0.057800000000000004,
          0.0694,
          -0.014600000000000002,
          0.0728,
          0.069,
          0.0094,
          0.008,
          0.0376,
          0.02,
          0.045200000000000004
        ],
        [
          0.0742,
          0.0772,
          -0.079,
          -0.08480000000000001,
          -0.0028000000000000004,
          0.0114,
          -0.013,
          0.049800000000000004,
          -0.029400000000000003,
          0.0506,
          -0.026400000000000003,
          0.022200000000000004,
          -0.07060000000000001,
          0.09580000000000001,
          -0.005600000000000001,
          -0.0912,
          -0.0376,
          -0.034,
          -0.0974,
          0.0718,
          0.0568,
          -0.0698,
          -0.0476,
          -0.0684,
          -0.0698,
          0.011,
          0.004,
          0.0596,
          0.0128,
          -0.039,
          0.007,
          -0.0534,
          -0.05040000000000001,
          -0.05940000000000001,
          -0.0408,
          0.0086,
          0.062,
          0.0204,
          0.0218,
          0.013,
          -0.0344,
          -0.0432,
          -0.019600000000000003,
          0.07560000000000001,
          -0.0288,
          0.093,
          -0.09160000000000001,
          0.0216,
          -0.0442,
          -0.08780000000000002,
          -0.033,
          0.0302,
          -0.0806,
          -0.022600000000000002,
          0.0592,
          0.0024000000000000002,
          0.0522,
          -0.0022,
          0.0516,
          0.08460000000000001,
          -0.09380000000000001,
          -0.044,
          0.0356,
          0.042,
          0.0036,
          0.062200000000000005,
          -0.086,
          -0.038400000000000004,
          0.068,
          0.009600000000000001,
          -0.0546,
          0.06520000000000001,
          -0.067,
          -0.0376,
          -0.0658
        ],
        [
          0.0376,
          -0.05240000000000001,
          0.040600000000000004,
          0.06960000000000001,
          -0.06720000000000001,
          0.0752,
          -0.018400000000000003,
          -0.06340000000000001,
          0.05280000000000001,
          0.0732,
          -0.029,
          0.0826,
          -0.079,
          -0.0426,
          0.052,
          0.014600000000000002,
          0.0884,
          0.0244,
          0.09140000000000001,
          -0.0244,
          -0.0436,
          -0.047400000000000005,
          0.0158,
          0.0154,
          -0.034800000000000005,
          -0.0702,
          0.0834,
          0.032600000000000004,
          -0.0048000000000000004,
          -0.050800000000000005,
          -0.099,
          -0.08560000000000001,
          -0.04240000000000001,
          -0.048400000000000006,
          0.0576,
          -0.0104,
          -0.009,
          -0.015200000000000002,
          0.0074,
          -0.0364,
          0.0178,
          0.005,
          0.0082,
          -0.09580000000000001,
          0.0656,
          -0.0516,
          0.0966,
          -0.0976,
          -0.08480000000000001,
          0.063,
          0.0648,
          -0.042,
          0.0936,
          0.0134,
          -0.0102,
          4.0E-4,
          0.0014000000000000002,
          -0.056,
          0.0714,
          -0.005,
          0.038400000000000004,
          -0.084,
          -0.07980000000000001,
          -0.041800000000000004,
          -0.0352,
          -0.074,
          0.06520000000000001,
          0.0568,
          0.030400000000000003,
          0.0526,
          0.045200000000000004,
          -0.047,
          -0.0104,
          -0.0188,
          0.0834
        ],
        [
          -0.015200000000000002,
          0.0376,
          0.0722,
          -0.026200000000000005,
          0.0902,
          0.08460000000000001,
          0.037399999999999996,
          0.081,
          -0.07660000000000002,
          -0.056,
          -0.046200000000000005,
          0.011,
          0.0258,
          0.0688,
          -0.08660000000000001,
          -0.039200000000000006,
          -0.0658,
          -0.0426,
          -0.0918,
          0.019,
          0.01,
          -0.0216,
          0.092,
          -0.061,
          0.05,
          0.07560000000000001,
          0.020200000000000003,
          0.0942,
          -0.0398,
          0.030600000000000002,
          0.036,
          0.06960000000000001,
          0.04340000000000001,
          -0.0832,
          -0.0356,
          0.022600000000000002,
          0.009600000000000001,
          0.0466,
          -0.0902,
          0.0204,
          -0.09060000000000001,
          0.07740000000000001,
          -0.0732,
          -0.074,
          -0.03780000000000001,
          -0.015200000000000002,
          -0.05240000000000001,
          0.06860000000000001,
          -0.018,
          -0.002,
          0.055600000000000004,
          -0.026400000000000003,
          -0.0078000000000000005,
          -0.027600000000000003,
          -0.0122,
          -0.084,
          0.07740000000000001,
          0.0898,
          0.0068000000000000005,
          -0.07579999999999999,
          0.0032,
          -0.06180000000000001,
          -0.074,
          -0.08180000000000001,
          0.064,
          0.0244,
          -0.04340000000000001,
          0.057,
          -8.0E-4,
          -0.051800000000000006,
          0.0228,
          -0.077,
          -0.011,
          0.0234,
          4.0E-4
        ],
        [
          0.07540000000000001,
          -0.0786,
          -0.072,
          -6.000000000000001E-4,
          -0.0966,
          -0.013200000000000002,
          0.0274,
          -0.08220000000000001,
          0.062400000000000004,
          -0.0546,
          0.0742,
          0.0492,
          -0.0216,
          0.05840000000000001,
          -0.0258,
          -0.0648,
          -0.015,
          -0.025400000000000002,
          0.0086,
          -0.046,
          -0.0094,
          0.05940000000000001,
          0.0688,
          -0.05140000000000001,
          -0.0078000000000000005,
          0.019600000000000003,
          -0.029200000000000004,
          -0.026400000000000003,
          -0.0086,
          0.0512,
          0.0816,
          0.006,
          0.0194,
          0.0144,
          0.0408,
          0.074,
          -0.036800000000000006,
          -0.05940000000000001,
          0.0558,
          0.07460000000000001,
          -0.0506,
          0.0714,
          -0.0902,
          -0.011800000000000001,
          -0.0568,
          0.033600000000000005,
          0.027200000000000002,
          0.0204,
          -0.0072,
          0.0664,
          -0.07780000000000001,
          0.047,
          -0.035,
          0.0352,
          0.0664,
          -0.019200000000000002,
          -0.09960000000000001,
          0.0898,
          -0.09440000000000001,
          -0.06620000000000001,
          0.0526,
          0.0516,
          -0.011800000000000001,
          -0.0992,
          0.059,
          -0.0442,
          -0.04240000000000001,
          -0.038200000000000005,
          -0.05240000000000001,
          0.0128,
          -0.07740000000000001,
          0.064,
          -0.0188,
          0.0036,
          0.011600000000000001
        ]
      ]
    },
    "56ce2226-2df8-421c-b9b8-65ef35695297": {
      "class": "com.simiacryptus.mindseye.layers.java.BiasLayer",
      "id": "56ce2226-2df8-421c-b9b8-65ef35695297",
      "isFrozen": false,
      "name": "BiasLayer/56ce2226-2df8-421c-b9b8-65ef35695297",
      "bias": [
        0.0,
        0.0,
        0.0,
        0.0,
        0.0,
        0.0,
        0.0,
        0.0,
        0.0,
        0.0,
        0.0,
        0.0,
        0.0,
        0.0,
        0.0,
        0.0,
        0.0,
        0.0,
        0.0,
        0.0,
        0.0,
        0.0,
        0.0,
        0.0,
        0.0,
        0.0,
        0.0,
        0.0,
        0.0,
        0.0,
        0.0,
        0.0
      ]
    },
    "74731c30-91ef-4858-9edb-eab676d3011f": {
      "class": "com.simiacryptus.mindseye.layers.java.ReLuActivationLayer",
      "id": "74731c30-91ef-4858-9edb-eab676d3011f",
      "isFrozen": true,
      "name": "ReLuActivationLayer/74731c30-91ef-4858-9edb-eab676d3011f",
      "weights": [
        1.0
      ]
    },
    "50466ee2-835d-41e7-8cbf-ccc5d85a4d80": {
      "class": "com.simiacryptus.mindseye.layers.java.FullyConnectedLayer",
      "id": "50466ee2-835d-41e7-8cbf-ccc5d85a4d80",
      "isFrozen": false,
      "name": "FullyConnectedLayer/50466ee2-835d-41e7-8cbf-ccc5d85a4d80",
      "outputDims": [
        3,
        3,
        1
      ],
      "inputDims": [
        4,
        4,
        2
      ],
      "weights": [
        [
          0.025200000000000004,
          -0.0664,
          0.006,
          -0.0256,
          -0.041400000000000006,
          -0.031400000000000004,
          -0.09060000000000001,
          -0.0442,
          0.04240000000000001,
          0.0922,
          0.0078000000000000005,
          -0.0526,
          0.0734,
          0.0562,
          0.04,
          -0.0344,
          0.0582,
          0.0526,
          0.08940000000000001,
          0.086,
          0.033800000000000004,
          0.009800000000000001,
          -0.0068000000000000005,
          0.047,
          -0.07540000000000001,
          0.0238,
          0.033600000000000005,
          0.004,
          0.0412,
          0.06520000000000001,
          0.0666,
          -0.05280000000000001
        ],
        [
          -0.0572,
          -0.08480000000000001,
          -0.0018,
          -0.055,
          -0.031400000000000004,
          -0.0064,
          0.06380000000000001,
          0.0512,
          -0.062200000000000005,
          0.0692,
          0.0158,
          -0.0094,
          0.06860000000000001,
          0.0028000000000000004,
          0.0636,
          -0.0412,
          -0.022200000000000004,
          0.0188,
          0.05240000000000001,
          -0.08120000000000001,
          0.0356,
          0.0994,
          0.098,
          -0.0182,
          0.051800000000000006,
          0.016,
          -0.0032,
          -0.0402,
          0.013200000000000002,
          0.08880000000000002,
          -0.029,
          0.0892
        ],
        [
          0.05040000000000001,
          -0.0068000000000000005,
          0.0366,
          0.0398,
          -0.06340000000000001,
          -0.07460000000000001,
          -0.0172,
          -0.0522,
          -0.0668,
          -0.0456,
          0.0148,
          0.0402,
          0.08,
          0.0806,
          -0.020200000000000003,
          -0.0014000000000000002,
          0.009800000000000001,
          0.047,
          -0.0718,
          0.063,
          0.07940000000000001,
          0.0412,
          0.0286,
          -0.019,
          -0.041800000000000004,
          -0.009600000000000001,
          0.0018,
          0.047,
          -0.0976,
          -0.049,
          0.0572,
          0.0014000000000000002
        ],
        [
          -0.0562,
          0.007,
          -0.03,
          -0.0328,
          -0.074,
          -0.08860000000000001,
          0.054,
          -0.07440000000000001,
          -0.09280000000000001,
          0.0572,
          0.08460000000000001,
          0.0654,
          -0.0742,
          0.08880000000000002,
          0.064,
          -0.0172,
          -0.043,
          0.042,
          -0.036800000000000006,
          -0.0198,
          -0.07740000000000001,
          -0.0714,
          0.0804,
          0.07680000000000001,
          -0.04580000000000001,
          0.0064,
          0.0824,
          0.0966,
          0.025400000000000002,
          0.038200000000000005,
          -0.015200000000000002,
          -0.036800000000000006
        ],
        [
          -0.0516,
          -0.031200000000000002,
          -0.058,
          0.07379999999999999,
          -0.0912,
          -0.0072,
          -0.0946,
          -0.015,
          0.058800000000000005,
          0.055200000000000006,
          0.08560000000000001,
          0.0182,
          -0.07260000000000001,
          -0.015,
          -0.08760000000000001,
          0.0446,
          -0.08760000000000001,
          0.05840000000000001,
          -0.0016,
          -0.022,
          -0.031,
          -0.031,
          -0.042800000000000005,
          -0.042800000000000005,
          -0.0614,
          0.0576,
          -0.09720000000000001,
          0.015200000000000002,
          -0.0586,
          0.0074,
          0.0234,
          0.061200000000000004
        ],
        [
          0.05380000000000001,
          0.016800000000000002,
          -0.07579999999999999,
          0.06760000000000001,
          -0.0082,
          0.027600000000000003,
          -0.081,
          0.0908,
          -0.09820000000000001,
          0.09340000000000001,
          -0.0546,
          0.023,
          0.074,
          -0.0884,
          0.032,
          0.030400000000000003,
          0.012,
          -0.021200000000000004,
          -0.008400000000000001,
          0.0426,
          -0.0028000000000000004,
          0.0688,
          -0.08480000000000001,
          -0.0068000000000000005,
          0.032,
          0.0028000000000000004,
          -0.034800000000000005,
          0.0346,
          0.0398,
          0.033600000000000005,
          0.047,
          0.0208
        ],
        [
          -0.043,
          -0.0082,
          -0.0654,
          0.03,
          0.07160000000000001,
          -0.0052,
          -0.052,
          -0.05040000000000001,
          0.067,
          0.037399999999999996,
          -0.0912,
          0.055200000000000006,
          0.029200000000000004,
          0.08380000000000001,
          0.0884,
          -0.036800000000000006,
          0.0148,
          -0.0824,
          -0.061,
          0.0124,
          0.052,
          -0.088,
          -0.0806,
          0.0172,
          0.08,
          -0.0682,
          -0.011,
          -0.020200000000000003,
          -0.075,
          0.0792,
          -0.004,
          -0.041
        ],
        [
          -0.0308,
          -0.0036,
          -0.015200000000000002,
          0.028,
          0.021,
          -0.021,
          0.0166,
          0.019200000000000002,
          0.08,
          -0.08120000000000001,
          0.0178,
          0.0734,
          -0.0502,
          0.05240000000000001,
          0.0586,
          -0.009,
          0.036800000000000006,
          -0.0034000000000000002,
          -0.086,
          0.037,
          -0.040400000000000005,
          0.005,
          0.08360000000000001,
          0.08780000000000002,
          -0.0082,
          0.0204,
          -0.029400000000000003,
          0.0898,
          -0.0446,
          -0.057800000000000004,
          0.0732,
          -0.0656
        ],
        [
          -0.053,
          -0.0864,
          -0.0158,
          -0.0142,
          -0.0408,
          -0.08480000000000001,
          -0.0062,
          -0.037,
          0.07880000000000001,
          -0.073,
          0.09680000000000001,
          0.099,
          -0.0324,
          -0.0936,
          -0.09820000000000001,
          0.0644,
          -0.0946,
          0.0658,
          -0.097,
          -0.0086,
          0.060200000000000004,
          -0.0854,
          0.011600000000000001,
          -0.023200000000000002,
          -0.011,
          -0.0022,
          -0.0582,
          -0.0148,
          0.0658,
          0.07379999999999999,
          -0.042800000000000005,
          0.04580000000000001
        ]
      ]
    },
    "a513e39a-fb5c-4d90-b332-349506de5b48": {
      "class": "com.simiacryptus.mindseye.layers.java.BiasLayer",
      "id": "a513e39a-fb5c-4d90-b332-349506de5b48",
      "isFrozen": false,
      "name": "BiasLayer/a513e39a-fb5c-4d90-b332-349506de5b48",
      "bias": [
        0.0,
        0.0,
        0.0,
        0.0,
        0.0,
        0.0,
        0.0,
        0.0,
        0.0
      ]
    },
    "c8535e65-b4ef-4303-b280-778dfb644cdb": {
      "class": "com.simiacryptus.mindseye.layers.java.ReLuActivationLayer",
      "id": "c8535e65-b4ef-4303-b280-778dfb644cdb",
      "isFrozen": true,
      "name": "ReLuActivationLayer/c8535e65-b4ef-4303-b280-778dfb644cdb",
      "weights": [
        1.0
      ]
    },
    "56eebbc1-0e5c-47d9-ac5d-cc8b824cf2cd": {
      "class": "com.simiacryptus.mindseye.layers.java.FullyConnectedLayer",
      "id": "56eebbc1-0e5c-47d9-ac5d-cc8b824cf2cd",
      "isFrozen": false,
      "name": "FullyConnectedLayer/56eebbc1-0e5c-47d9-ac5d-cc8b824cf2cd",
      "outputDims": [
        2,
        2,
        1
      ],
      "inputDims": [
        3,
        3,
        1
      ],
      "weights": [
        [
          -0.096,
          0.0604,
          -0.0172,
          -0.009800000000000001,
          0.07660000000000002,
          0.0976,
          -0.0932,
          -0.0718,
          0.0468
        ],
        [
          0.096,
          2.0E-4,
          -0.0468,
          -0.020200000000000003,
          0.055,
          0.0298,
          0.0376,
          0.030600000000000002,
          0.0198
        ],
        [
          -0.08180000000000001,
          -0.025200000000000004,
          -0.07940000000000001,
          0.08680000000000002,
          -0.045200000000000004,
          -0.0512,
          -0.095,
          -0.026600000000000002,
          -0.026600000000000002
        ],
        [
          0.09480000000000001,
          0.09820000000000001,
          -0.041800000000000004,
          0.0614,
          0.007600000000000001,
          0.09240000000000001,
          0.06380000000000001,
          0.09240000000000001,
          -0.0752
        ]
      ]
    },
    "611f274d-44da-4f4a-bb3b-5f10c3378a94": {
      "class": "com.simiacryptus.mindseye.layers.java.BiasLayer",
      "id": "611f274d-44da-4f4a-bb3b-5f10c3378a94",
      "isFrozen": false,
      "name": "BiasLayer/611f274d-44da-4f4a-bb3b-5f10c3378a94",
      "bias": [
        0.0,
        0.0,
        0.0,
        0.0
      ]
    },
    "a6f351a0-6104-4113-b982-8d6d584ba86b": {
      "class": "com.simiacryptus.mindseye.layers.java.ReLuActivationLayer",
      "id": "a6f351a0-6104-4113-b982-8d6d584ba86b",
      "isFrozen": true,
      "name": "ReLuActivationLayer/a6f351a0-6104-4113-b982-8d6d584ba86b",
      "weights": [
        1.0
      ]
    }
  },
  "links": {
    "f8a5d5c0-d725-4827-a375-b3de704646db": [
      "1a77a744-c5ad-446f-9eb9-3ee30d46adc8"
    ],
    "29b4a65b-f986-48f7-a6a8-71a100dab7a9": [
      "f8a5d5c0-d725-4827-a375-b3de704646db"
    ],
    "75ffd142-f240-44d9-9e56-eb6af4e0ac4f": [
      "29b4a65b-f986-48f7-a6a8-71a100dab7a9"
    ],
    "f46dc0bf-ad43-4dc4-a6a5-4c12e6cba3ad": [
      "75ffd142-f240-44d9-9e56-eb6af4e0ac4f"
    ],
    "ca3ce839-ab0f-46af-b30c-a02d2f3ba76d": [
      "f46dc0bf-ad43-4dc4-a6a5-4c12e6cba3ad"
    ],
    "5a3fc99d-c5ce-4376-8190-a3b1e869e57d": [
      "ca3ce839-ab0f-46af-b30c-a02d2f3ba76d"
    ],
    "ee01942d-821d-4c26-9553-9bbee63eb56b": [
      "5a3fc99d-c5ce-4376-8190-a3b1e869e57d"
    ],
    "59e1cbf4-a27b-409b-bf66-cb4695c3d546": [
      "ee01942d-821d-4c26-9553-9bbee63eb56b"
    ],
    "97f70bcf-b671-4631-9f2d-7515fda61225": [
      "59e1cbf4-a27b-409b-bf66-cb4695c3d546"
    ]
  },
  "labels": {},
  "head": "97f70bcf-b671-4631-9f2d-7515fda61225"
}