{
  "class": "com.simiacryptus.mindseye.network.PipelineNetwork",
  "id": "97306fa8-3e70-4728-ade2-b64f49b7c85f",
  "isFrozen": false,
  "name": "PipelineNetwork/97306fa8-3e70-4728-ade2-b64f49b7c85f",
  "inputs": [
    "54793066-e7ce-4583-873a-982b1ce4910b"
  ],
  "nodes": {
    "d4b1a654-6b94-4210-8957-e3741a07e158": "e9d2096b-dc12-4a1a-880a-146a430f7f65",
    "6e317756-0d79-48c5-b316-38cd7b938207": "e4fddbbb-5894-4862-a0f5-54960c749754",
    "74624bff-5afb-4f9d-8759-974f9cb9edf2": "9971174c-7e35-42b4-b570-f4f8cca677b3",
    "36e6eed9-e927-4cdf-92df-a81f43c204c9": "1efe8841-6c8e-4399-a87b-27f93e9a9821",
    "b25ea433-252d-4e9f-977f-062dcf5df0f7": "a707be8c-3b09-447a-a7e0-221862741a1d",
    "3e387eb1-14ca-408a-bac4-270c1b082e26": "db4cab82-6df3-4219-a01f-ef3f050f944c",
    "772438b1-5b5d-4b14-8ce7-5026e841cbe5": "884a39b9-d187-4676-b9b7-4ef06c0709b5",
    "1f641b1a-d1f1-47dd-a1f5-7a2f23a1557d": "4da37ca6-9f9f-4b19-ae71-a3f62b674b09",
    "fa37e804-cb05-4bc7-bd44-bbbdf19fec06": "5e181d45-f0e8-4e5e-be5b-36c43a2b966d",
    "53e9ef5c-bd78-4fb2-b768-aa55fdea30ce": "3c4ec073-797a-4be1-abc3-19fbdd9bc603",
    "d7ba48c3-927c-40bf-a0f8-4607f98d286f": "65a17564-0f3f-4f2a-a0d2-cd3fbc6e6bb5",
    "b6348a7d-1e49-47b8-b1da-953c1648579e": "2e39123d-a502-4d19-895a-376dbba297dc"
  },
  "layers": {
    "e9d2096b-dc12-4a1a-880a-146a430f7f65": {
      "class": "com.simiacryptus.mindseye.layers.java.FullyConnectedLayer",
      "id": "e9d2096b-dc12-4a1a-880a-146a430f7f65",
      "isFrozen": false,
      "name": "FullyConnectedLayer/e9d2096b-dc12-4a1a-880a-146a430f7f65",
      "outputDims": [
        4,
        4,
        2
      ],
      "inputDims": [
        5,
        5,
        3
      ],
      "weights": [
        [
          -0.0922,
          -0.061,
          0.0684,
          0.06280000000000001,
          0.06420000000000001,
          -0.0694,
          -0.07680000000000001,
          -0.07740000000000001,
          0.0626,
          0.086,
          0.08460000000000001,
          0.0534,
          -0.07440000000000001,
          0.015,
          0.038200000000000005,
          0.072,
          0.073,
          -0.069,
          0.08220000000000001,
          -0.0058000000000000005,
          -0.086,
          -0.0854,
          -0.030600000000000002,
          0.0688,
          -0.071,
          -0.0238,
          0.0128,
          0.029400000000000003,
          0.016800000000000002,
          -0.042800000000000005,
          0.005,
          0.09380000000000001,
          0.042800000000000005,
          -0.0776,
          0.0172,
          0.027800000000000002,
          0.042,
          -0.04580000000000001,
          -0.030400000000000003,
          -0.0322,
          -0.041800000000000004,
          0.05240000000000001,
          0.0408,
          -0.039,
          -0.0234,
          0.07660000000000002,
          0.0364,
          -0.07440000000000001,
          -0.048400000000000006,
          0.024200000000000003,
          0.0668,
          -0.041,
          -0.009800000000000001,
          0.0728,
          -0.0496,
          -0.08280000000000001,
          0.0614,
          -0.0342,
          0.0268,
          -0.0776,
          0.092,
          -0.0018,
          0.0104,
          0.0426,
          0.014600000000000002,
          -0.0796,
          0.09380000000000001,
          0.0492,
          0.04440000000000001,
          0.08680000000000002,
          0.084,
          -0.052,
          0.0352,
          -0.0018,
          -0.0036
        ],
        [
          0.0018,
          6.000000000000001E-4,
          0.08280000000000001,
          -0.083,
          0.083,
          0.0792,
          -0.05940000000000001,
          0.08480000000000001,
          0.006600000000000001,
          0.0068000000000000005,
          0.0512,
          -0.0832,
          -0.0644,
          0.011200000000000002,
          0.008,
          -0.003,
          -0.027600000000000003,
          0.048600000000000004,
          0.0974,
          -0.0636,
          -0.0558,
          0.0052,
          -0.0102,
          0.089,
          0.0268,
          0.0216,
          0.09340000000000001,
          0.0864,
          -0.0238,
          0.09960000000000001,
          0.095,
          -0.019600000000000003,
          0.083,
          0.09960000000000001,
          0.058,
          -0.05740000000000001,
          -0.030400000000000003,
          0.0844,
          0.0576,
          0.0568,
          0.006,
          -0.0842,
          0.094,
          -0.0834,
          0.040400000000000005,
          0.07880000000000001,
          -0.053,
          -0.06720000000000001,
          -0.0898,
          0.06960000000000001,
          -0.0964,
          0.0506,
          0.026600000000000002,
          -0.041,
          -0.07160000000000001,
          -0.0258,
          0.0148,
          -0.07540000000000001,
          0.032600000000000004,
          0.0144,
          -0.07360000000000001,
          0.027600000000000003,
          -0.062200000000000005,
          0.0752,
          -0.056400000000000006,
          -0.0918,
          0.0354,
          -0.071,
          -0.057800000000000004,
          -0.038,
          0.09680000000000001,
          -0.053,
          -0.0014000000000000002,
          -0.0204,
          0.0036
        ],
        [
          0.0466,
          -0.09380000000000001,
          -0.0024000000000000002,
          0.011200000000000002,
          0.0804,
          0.04440000000000001,
          0.041,
          0.005600000000000001,
          0.0714,
          -0.0648,
          0.07980000000000001,
          -0.014600000000000002,
          0.011600000000000001,
          0.0844,
          0.0302,
          0.084,
          0.062200000000000005,
          0.001,
          -0.027200000000000002,
          -0.0704,
          -0.074,
          -0.0742,
          -0.0324,
          -0.002,
          0.026400000000000003,
          0.09,
          -0.0366,
          -0.0616,
          -0.07479999999999999,
          0.0154,
          0.0038000000000000004,
          -0.0522,
          0.024200000000000003,
          -0.0134,
          0.022200000000000004,
          0.0032,
          0.032,
          0.0884,
          0.08780000000000002,
          0.0844,
          0.021400000000000002,
          -0.01,
          -0.037399999999999996,
          0.017400000000000002,
          0.049,
          -0.0658,
          -0.06080000000000001,
          -0.0082,
          -0.08940000000000001,
          0.0284,
          0.0122,
          -0.0388,
          -0.06620000000000001,
          0.095,
          0.0296,
          0.0456,
          -0.031200000000000002,
          -0.0714,
          0.091,
          0.0082,
          -0.061,
          0.0728,
          -0.0742,
          0.06960000000000001,
          -0.048400000000000006,
          -0.06380000000000001,
          -0.0964,
          0.020200000000000003,
          -0.0648,
          0.0586,
          0.06620000000000001,
          -0.07740000000000001,
          0.05140000000000001,
          0.05280000000000001,
          0.069
        ],
        [
          -0.0862,
          -0.017400000000000002,
          0.0028000000000000004,
          -0.004200000000000001,
          0.0018,
          0.0882,
          0.0824,
          -0.027200000000000002,
          -0.047400000000000005,
          0.0558,
          -0.020200000000000003,
          0.0436,
          0.009,
          -0.007600000000000001,
          -0.032600000000000004,
          0.0478,
          -0.0718,
          0.0684,
          -0.026200000000000005,
          0.0166,
          -0.05,
          0.094,
          0.05280000000000001,
          0.058800000000000005,
          0.04,
          0.0354,
          0.1,
          0.012600000000000002,
          0.085,
          -0.0558,
          -0.09480000000000001,
          -0.0478,
          -0.06960000000000001,
          -0.0234,
          0.05040000000000001,
          0.0122,
          0.055,
          -0.0656,
          -0.0446,
          0.0872,
          -0.050800000000000005,
          -0.048600000000000004,
          0.0626,
          0.036,
          0.0318,
          -0.072,
          0.0356,
          -0.07060000000000001,
          -0.0782,
          -0.05240000000000001,
          -0.09680000000000001,
          -0.004600000000000001,
          0.0992,
          -0.09440000000000001,
          0.09440000000000001,
          0.060200000000000004,
          0.009200000000000002,
          -0.07360000000000001,
          -0.0918,
          -0.0142,
          0.0442,
          -0.0496,
          0.0596,
          -0.0436,
          0.0164,
          -0.0714,
          -0.0844,
          0.056600000000000004,
          0.0526,
          0.019,
          -0.079,
          -0.04340000000000001,
          -0.0416,
          0.0178,
          -0.077
        ],
        [
          0.07360000000000001,
          0.0918,
          0.023200000000000002,
          0.0204,
          0.07260000000000001,
          -0.07379999999999999,
          -0.051,
          0.0806,
          -0.07160000000000001,
          0.0496,
          0.025400000000000002,
          0.0412,
          0.08180000000000001,
          -0.0926,
          -0.0732,
          0.056600000000000004,
          0.041800000000000004,
          0.0698,
          0.077,
          0.0852,
          -0.031400000000000004,
          -0.0108,
          0.04,
          -0.029,
          0.072,
          0.001,
          0.0446,
          -0.038200000000000005,
          -0.0582,
          6.000000000000001E-4,
          0.007600000000000001,
          -0.08,
          -0.0824,
          -0.0614,
          0.0342,
          -0.067,
          -0.097,
          -0.0194,
          0.0342,
          -0.024200000000000003,
          0.0346,
          -0.0028000000000000004,
          -0.09860000000000001,
          -0.034,
          0.0148,
          0.0408,
          -0.0964,
          0.0692,
          -0.016,
          0.0476,
          -0.06960000000000001,
          -0.07479999999999999,
          0.066,
          0.047400000000000005,
          0.0478,
          -0.047,
          0.091,
          -0.0038000000000000004,
          0.0898,
          0.0332,
          0.021200000000000004,
          0.092,
          -0.09980000000000001,
          0.09780000000000001,
          0.0208,
          0.068,
          0.038200000000000005,
          -0.015600000000000001,
          -0.06860000000000001,
          -0.07460000000000001,
          0.0576,
          -0.037200000000000004,
          0.0182,
          -0.07640000000000001,
          0.0086
        ],
        [
          -0.0034000000000000002,
          -0.0198,
          0.07379999999999999,
          0.07379999999999999,
          -0.0952,
          -0.05840000000000001,
          -0.042,
          -0.055600000000000004,
          0.03780000000000001,
          0.0636,
          -0.034800000000000005,
          -0.036800000000000006,
          -0.022,
          0.06420000000000001,
          -0.0446,
          -0.0762,
          0.0966,
          -0.06760000000000001,
          -0.025,
          0.087,
          -0.0882,
          0.012,
          0.016800000000000002,
          0.061,
          0.0572,
          0.005600000000000001,
          -0.0926,
          0.06760000000000001,
          0.035800000000000005,
          -0.042800000000000005,
          -0.008400000000000001,
          -0.0852,
          -0.041800000000000004,
          -0.09580000000000001,
          0.006600000000000001,
          0.046400000000000004,
          -0.0576,
          -4.0E-4,
          0.019600000000000003,
          0.091,
          -0.01,
          -0.053,
          -0.054200000000000005,
          -0.0114,
          -0.06380000000000001,
          -0.083,
          -0.051800000000000006,
          0.038200000000000005,
          -0.0724,
          -0.0354,
          -0.021,
          0.08180000000000001,
          -0.0204,
          -0.0908,
          0.0274,
          -0.0842,
          -0.07440000000000001,
          0.097,
          0.096,
          -0.0992,
          0.087,
          0.026200000000000005,
          -0.047200000000000006,
          0.038400000000000004,
          0.06380000000000001,
          0.0842,
          0.08080000000000001,
          0.06760000000000001,
          -0.0238,
          0.014600000000000002,
          -0.027200000000000002,
          0.0456,
          0.069,
          0.018600000000000002,
          0.0142
        ],
        [
          -0.030600000000000002,
          -0.09880000000000001,
          -0.091,
          0.051800000000000006,
          0.08560000000000001,
          0.004200000000000001,
          0.07,
          -0.0352,
          0.09680000000000001,
          -0.0108,
          0.04440000000000001,
          -0.084,
          0.0036,
          0.0782,
          -0.0354,
          0.079,
          0.0704,
          -0.067,
          0.083,
          -0.012600000000000002,
          0.004,
          0.0068000000000000005,
          -0.07940000000000001,
          0.0396,
          -0.0244,
          -0.09480000000000001,
          0.081,
          -0.004600000000000001,
          -0.048600000000000004,
          0.062,
          0.0284,
          0.076,
          -0.0356,
          -0.0922,
          -0.07579999999999999,
          -0.0976,
          0.031,
          -0.046,
          0.0128,
          0.0032,
          0.0984,
          0.039200000000000006,
          0.0722,
          -0.0148,
          -0.0194,
          -0.015200000000000002,
          0.07640000000000001,
          0.08480000000000001,
          -0.0198,
          0.0476,
          -0.027,
          0.04440000000000001,
          0.07780000000000001,
          0.057800000000000004,
          0.08680000000000002,
          0.0334,
          -0.0892,
          0.079,
          -0.018,
          -0.045200000000000004,
          0.033,
          0.0062,
          0.0386,
          0.042,
          0.0328,
          -0.0932,
          -0.058800000000000005,
          -0.0442,
          0.0198,
          -0.06620000000000001,
          -0.019200000000000002,
          0.062200000000000005,
          0.059,
          0.007600000000000001,
          -0.046
        ],
        [
          -0.0786,
          0.004200000000000001,
          -0.0606,
          0.037399999999999996,
          -0.0722,
          0.0874,
          -0.04340000000000001,
          -0.0512,
          -0.0874,
          0.06380000000000001,
          -0.0864,
          -0.07780000000000001,
          6.000000000000001E-4,
          -0.019200000000000002,
          -0.029,
          0.055400000000000005,
          -0.0522,
          -0.0814,
          -0.049800000000000004,
          0.08660000000000001,
          0.094,
          -0.09540000000000001,
          0.0772,
          -0.06960000000000001,
          0.015,
          0.07379999999999999,
          0.0984,
          -0.009200000000000002,
          0.0412,
          0.046,
          -0.0718,
          0.0712,
          -0.0908,
          -0.031,
          -0.054,
          -0.0412,
          0.0816,
          -0.046400000000000004,
          0.079,
          -0.08120000000000001,
          0.08360000000000001,
          -0.0734,
          0.0762,
          0.0024000000000000002,
          -0.0158,
          0.008400000000000001,
          -0.0918,
          0.0456,
          0.08,
          0.039400000000000004,
          0.016,
          -0.082,
          -0.0728,
          -0.023600000000000003,
          -0.0364,
          -0.037,
          -0.0908,
          -0.0038000000000000004,
          -0.0416,
          0.067,
          -0.06720000000000001,
          0.071,
          0.044,
          -0.009,
          -0.0028000000000000004,
          0.09720000000000001,
          -0.0088,
          -0.0952,
          0.095,
          -0.0022,
          -0.030400000000000003,
          0.0742,
          -0.028200000000000003,
          -0.039400000000000004,
          0.011800000000000001
        ],
        [
          -0.0422,
          -0.08780000000000002,
          -0.09960000000000001,
          0.08480000000000001,
          0.022200000000000004,
          -0.0862,
          -0.057800000000000004,
          -0.0824,
          -0.0128,
          -0.0722,
          -0.09280000000000001,
          -0.062400000000000004,
          -0.049,
          0.0844,
          0.046400000000000004,
          -0.0724,
          0.015,
          0.013,
          0.078,
          -0.098,
          -0.05840000000000001,
          0.009800000000000001,
          -0.009600000000000001,
          -0.08,
          0.0018,
          0.0334,
          -0.0356,
          0.054400000000000004,
          -0.067,
          -0.052,
          0.002,
          -0.016800000000000002,
          -0.055200000000000006,
          0.0804,
          0.0512,
          0.047400000000000005,
          -0.040400000000000005,
          0.07540000000000001,
          -0.029,
          0.08020000000000001,
          0.01,
          -0.0062,
          0.0506,
          -0.0492,
          -0.014600000000000002,
          0.0964,
          -0.0572,
          0.08480000000000001,
          -0.0792,
          0.0328,
          0.0166,
          0.072,
          -0.08560000000000001,
          0.007600000000000001,
          -0.0548,
          0.09340000000000001,
          -0.042800000000000005,
          0.055,
          0.0482,
          -0.042800000000000005,
          0.0604,
          -0.0356,
          0.0656,
          0.0362,
          0.099,
          -0.0296,
          0.0018,
          -0.06,
          -0.0646,
          -0.036800000000000006,
          0.0014000000000000002,
          0.044,
          0.07560000000000001,
          -0.018600000000000002,
          -0.0674
        ],
        [
          -0.0402,
          0.058,
          -0.0158,
          0.026,
          0.0582,
          0.05740000000000001,
          -0.0044,
          -0.06420000000000001,
          0.0456,
          0.055,
          0.0772,
          0.08680000000000002,
          -0.0142,
          -0.0288,
          0.017400000000000002,
          0.09720000000000001,
          -0.0694,
          0.08480000000000001,
          -0.066,
          0.0852,
          -0.075,
          0.0284,
          -0.026400000000000003,
          0.056600000000000004,
          0.0108,
          -0.037399999999999996,
          0.08580000000000002,
          0.0732,
          0.0922,
          4.0E-4,
          0.06380000000000001,
          0.046,
          -0.08580000000000002,
          -0.015200000000000002,
          -0.07940000000000001,
          0.0244,
          0.0158,
          4.0E-4,
          0.0502,
          0.045200000000000004,
          -0.07980000000000001,
          -0.0492,
          -0.09580000000000001,
          -0.056,
          0.0436,
          -0.07980000000000001,
          -0.084,
          0.036800000000000006,
          0.0198,
          0.0984,
          0.09160000000000001,
          0.030600000000000002,
          -0.027200000000000002,
          -0.0454,
          -0.0974,
          -0.0596,
          0.09,
          -0.08860000000000001,
          0.018600000000000002,
          -0.0454,
          -0.09820000000000001,
          -0.0058000000000000005,
          0.0398,
          -0.08280000000000001,
          -0.0912,
          0.0064,
          -0.0884,
          -0.0228,
          0.053,
          -0.08020000000000001,
          -0.0682,
          -0.006600000000000001,
          -0.011200000000000002,
          -0.044800000000000006,
          0.0018
        ],
        [
          -0.0658,
          -0.0176,
          -0.07980000000000001,
          -0.09780000000000001,
          -0.0114,
          0.011,
          0.066,
          -0.047,
          -0.0492,
          -0.0102,
          0.0122,
          -0.021200000000000004,
          0.08080000000000001,
          0.0678,
          0.021,
          0.05,
          -0.016,
          -0.069,
          -0.048400000000000006,
          -0.0258,
          0.084,
          -0.0476,
          -0.0692,
          0.0912,
          -0.0142,
          0.0328,
          -0.06520000000000001,
          0.0496,
          -0.049800000000000004,
          0.029200000000000004,
          0.0796,
          0.0122,
          -0.0478,
          -0.015600000000000001,
          -0.014,
          0.009200000000000002,
          -0.07660000000000002,
          0.020200000000000003,
          0.0806,
          -0.0892,
          0.049,
          -0.092,
          0.031,
          -0.0842,
          -0.0854,
          0.0918,
          -0.0256,
          0.0412,
          0.0522,
          -0.07660000000000002,
          0.07360000000000001,
          -0.013,
          -0.056,
          0.0648,
          -0.026200000000000005,
          0.023,
          0.0446,
          0.05280000000000001,
          -0.027600000000000003,
          0.032,
          0.048600000000000004,
          0.097,
          -0.0286,
          -0.023600000000000003,
          -0.0298,
          0.042,
          -0.06860000000000001,
          0.04340000000000001,
          -0.0892,
          -0.0194,
          0.0994,
          0.030400000000000003,
          -0.059800000000000006,
          -0.0674,
          0.063
        ],
        [
          0.033,
          0.0572,
          0.0102,
          -0.074,
          -0.043800000000000006,
          -0.0178,
          -0.036800000000000006,
          0.09280000000000001,
          -0.0562,
          0.0094,
          0.0994,
          0.0088,
          0.025,
          0.038,
          -0.0666,
          -0.029200000000000004,
          -0.002,
          -0.07840000000000001,
          0.08360000000000001,
          0.029400000000000003,
          -0.0568,
          0.09960000000000001,
          0.04440000000000001,
          -0.0436,
          -0.0976,
          -0.09060000000000001,
          -0.0246,
          0.0772,
          -0.055600000000000004,
          0.07940000000000001,
          0.0704,
          0.043800000000000006,
          0.0036,
          0.029400000000000003,
          -0.08220000000000001,
          0.0284,
          0.034800000000000005,
          -0.0324,
          -0.09860000000000001,
          -0.013200000000000002,
          0.0054,
          -0.0952,
          0.0124,
          0.09880000000000001,
          0.07560000000000001,
          -0.09620000000000001,
          0.027600000000000003,
          0.0864,
          -0.0172,
          0.0908,
          0.015600000000000001,
          -0.041800000000000004,
          -0.018600000000000002,
          -0.07160000000000001,
          -0.037399999999999996,
          0.083,
          -0.041,
          0.0682,
          0.062200000000000005,
          0.084,
          -0.0366,
          0.0678,
          -0.07540000000000001,
          0.011600000000000001,
          -0.0478,
          -0.022200000000000004,
          0.019600000000000003,
          0.038400000000000004,
          0.0426,
          0.016800000000000002,
          -0.05280000000000001,
          -0.0684,
          0.039400000000000004,
          0.0032,
          0.087
        ],
        [
          0.011,
          -0.0844,
          0.0206,
          0.0286,
          0.054,
          -0.0238,
          -0.07640000000000001,
          -0.058800000000000005,
          -0.047,
          0.06,
          0.0376,
          -0.0772,
          0.08940000000000001,
          -0.0616,
          0.0064,
          -0.0586,
          -0.0664,
          -0.012600000000000002,
          0.07579999999999999,
          -0.027600000000000003,
          0.0656,
          0.081,
          -0.0502,
          -0.029,
          0.0644,
          -0.07780000000000001,
          -0.0966,
          0.0198,
          0.050800000000000005,
          -0.0016,
          -0.011600000000000001,
          0.0014000000000000002,
          -0.08560000000000001,
          -0.0792,
          0.0362,
          -0.0456,
          -0.0016,
          0.0476,
          0.08660000000000001,
          0.06760000000000001,
          -0.061200000000000004,
          -0.0258,
          0.072,
          -0.038400000000000004,
          -0.05240000000000001,
          -0.0804,
          -0.019,
          -0.006,
          0.0068000000000000005,
          -0.071,
          0.0164,
          0.0668,
          -0.0024000000000000002,
          0.0456,
          -0.0654,
          0.025400000000000002,
          -0.011600000000000001,
          -0.0356,
          0.05280000000000001,
          -0.0718,
          -0.005600000000000001,
          0.0164,
          -0.013600000000000001,
          0.07160000000000001,
          -0.033,
          -0.06080000000000001,
          -0.015600000000000001,
          -0.085,
          -0.0048000000000000004,
          0.062400000000000004,
          0.0734,
          -0.0786,
          -0.015600000000000001,
          -0.0356,
          0.0806
        ],
        [
          0.0022,
          -0.0704,
          0.09340000000000001,
          -0.0994,
          0.0142,
          -0.044,
          0.0094,
          -0.001,
          0.009600000000000001,
          0.066,
          -0.0692,
          -0.031,
          -0.0816,
          0.013,
          -0.07260000000000001,
          0.071,
          0.027,
          0.07640000000000001,
          -0.0898,
          -0.0396,
          0.057800000000000004,
          0.0704,
          0.0036,
          -0.040400000000000005,
          0.094,
          -0.047200000000000006,
          0.0068000000000000005,
          -0.0468,
          -0.0388,
          -0.0296,
          -0.006600000000000001,
          -0.0246,
          -0.08960000000000001,
          -0.0898,
          -0.0172,
          0.056600000000000004,
          0.027800000000000002,
          0.040600000000000004,
          -0.0704,
          0.0728,
          -0.0964,
          -0.07940000000000001,
          0.0274,
          0.0058000000000000005,
          -0.0786,
          0.030600000000000002,
          0.0956,
          -0.039200000000000006,
          -0.0936,
          -0.06380000000000001,
          0.0328,
          -0.0898,
          -0.0342,
          0.033600000000000005,
          -0.046,
          0.041,
          -0.014600000000000002,
          0.049400000000000006,
          -0.0926,
          -0.036800000000000006,
          0.007600000000000001,
          -0.040400000000000005,
          -0.040600000000000004,
          -0.0942,
          0.0148,
          0.0872,
          -0.017,
          -0.0234,
          0.057800000000000004,
          -0.0124,
          0.0346,
          -0.0148,
          0.032,
          -0.011200000000000002,
          0.0172
        ],
        [
          0.018,
          -0.0712,
          -0.038400000000000004,
          -0.029,
          -0.08780000000000002,
          -0.014,
          0.07479999999999999,
          -0.054,
          -0.055600000000000004,
          -0.043,
          -0.0852,
          0.0036,
          -0.037,
          0.098,
          -0.011800000000000001,
          -0.0052,
          -0.055200000000000006,
          -0.0176,
          0.011200000000000002,
          -0.0284,
          0.025400000000000002,
          -0.016,
          -0.0502,
          0.07740000000000001,
          0.05240000000000001,
          -0.0824,
          -0.07660000000000002,
          -0.003,
          -0.0548,
          0.058,
          -0.040400000000000005,
          0.07640000000000001,
          -0.0864,
          -0.083,
          0.0016,
          0.0596,
          0.09040000000000001,
          0.043800000000000006,
          -0.09880000000000001,
          0.061,
          0.0708,
          0.0176,
          0.020200000000000003,
          -0.018400000000000003,
          -0.0898,
          -0.08,
          0.0342,
          -0.0344,
          -0.0606,
          0.08120000000000001,
          -0.023,
          -0.0028000000000000004,
          0.0534,
          0.087,
          -0.0626,
          0.030600000000000002,
          -0.0776,
          0.079,
          0.0342,
          -0.0148,
          0.074,
          0.021200000000000004,
          -0.031200000000000002,
          0.0054,
          0.09440000000000001,
          -0.0432,
          -0.08860000000000001,
          0.0654,
          -0.0854,
          -0.032600000000000004,
          0.08680000000000002,
          -0.018,
          0.0692,
          0.08580000000000002,
          -0.08
        ],
        [
          -0.046200000000000005,
          -0.0398,
          0.09040000000000001,
          0.026200000000000005,
          0.09440000000000001,
          -0.036,
          0.051800000000000006,
          0.0158,
          -0.07560000000000001,
          -0.06720000000000001,
          -0.07680000000000001,
          0.0718,
          0.07740000000000001,
          -0.0198,
          0.025,
          -0.091,
          -0.016,
          0.020200000000000003,
          0.0596,
          -0.0586,
          0.044,
          -0.05380000000000001,
          -0.0792,
          0.0946,
          0.0432,
          0.0898,
          0.009600000000000001,
          0.08280000000000001,
          -0.0256,
          0.07660000000000002,
          0.0572,
          0.049400000000000006,
          -0.09440000000000001,
          0.0742,
          0.062400000000000004,
          0.07540000000000001,
          -0.0918,
          0.0974,
          0.0052,
          0.07640000000000001,
          -0.0408,
          0.0636,
          0.038200000000000005,
          -0.08120000000000001,
          -0.07680000000000001,
          -0.0366,
          -0.0068000000000000005,
          0.0932,
          0.055200000000000006,
          -0.071,
          0.06180000000000001,
          0.097,
          0.09,
          -0.06420000000000001,
          0.082,
          -0.0122,
          0.07660000000000002,
          -0.0476,
          0.0658,
          0.0318,
          6.000000000000001E-4,
          -0.064,
          0.045,
          -4.0E-4,
          0.09340000000000001,
          0.0366,
          0.0258,
          -0.0376,
          -0.0918,
          -0.040400000000000005,
          -0.0582,
          -0.015200000000000002,
          -0.088,
          0.0102,
          0.0064
        ],
        [
          -0.056600000000000004,
          0.013200000000000002,
          -0.0016,
          8.0E-4,
          -0.08280000000000001,
          0.0674,
          -0.08180000000000001,
          -0.09160000000000001,
          0.048,
          0.0,
          0.06380000000000001,
          -0.0054,
          -0.06280000000000001,
          -0.011,
          -0.09880000000000001,
          0.055400000000000005,
          0.068,
          0.07640000000000001,
          0.004,
          -0.009200000000000002,
          0.0058000000000000005,
          0.035800000000000005,
          -0.09140000000000001,
          -0.07060000000000001,
          -0.0206,
          -0.0488,
          -0.002,
          -0.07460000000000001,
          0.048400000000000006,
          -0.017,
          0.0994,
          -0.0526,
          -0.0534,
          0.06,
          0.021400000000000002,
          -0.0884,
          -0.07640000000000001,
          0.091,
          -0.038400000000000004,
          -0.0668,
          0.047400000000000005,
          -0.050800000000000005,
          0.0346,
          -0.0024000000000000002,
          -0.0122,
          0.025,
          0.0582,
          -0.0354,
          0.0386,
          0.04580000000000001,
          -0.0912,
          0.0468,
          0.010600000000000002,
          -0.044,
          0.0668,
          0.0216,
          0.0238,
          0.010600000000000002,
          -0.060200000000000004,
          -0.07940000000000001,
          -0.06420000000000001,
          -0.0018,
          -0.0012000000000000001,
          -0.041400000000000006,
          0.0796,
          0.063,
          0.013200000000000002,
          0.0108,
          0.040600000000000004,
          0.02,
          0.0298,
          -0.006,
          0.011,
          -0.0244,
          0.026200000000000005
        ],
        [
          0.056400000000000006,
          -0.034800000000000005,
          0.039400000000000004,
          -0.031200000000000002,
          0.011200000000000002,
          0.015,
          -0.05740000000000001,
          0.064,
          -0.071,
          -0.078,
          -0.0568,
          -0.038400000000000004,
          0.0572,
          -0.097,
          0.06620000000000001,
          0.0302,
          -0.012,
          -0.0386,
          -0.050800000000000005,
          0.089,
          0.08760000000000001,
          0.0814,
          -0.0074,
          -0.0082,
          -0.09780000000000001,
          -0.06720000000000001,
          0.0842,
          -0.03780000000000001,
          0.0446,
          -0.09340000000000001,
          -0.0892,
          -0.028200000000000003,
          -0.06860000000000001,
          -0.004,
          -0.04580000000000001,
          -0.018600000000000002,
          0.08780000000000002,
          -0.0386,
          0.0332,
          0.09280000000000001,
          0.0412,
          0.022600000000000002,
          -0.08960000000000001,
          -0.0936,
          0.07579999999999999,
          -0.0162,
          -0.0078000000000000005,
          -0.004,
          -0.08760000000000001,
          -0.038,
          0.05280000000000001,
          -0.003,
          -0.030600000000000002,
          -0.0334,
          -0.0632,
          0.0816,
          -0.0478,
          -0.055400000000000005,
          -2.0E-4,
          -0.056,
          0.011600000000000001,
          -0.08940000000000001,
          -0.0946,
          -0.0668,
          0.0682,
          -0.0028000000000000004,
          0.041,
          0.0402,
          -0.025,
          -0.09480000000000001,
          0.0032,
          -0.081,
          -0.04,
          0.0114,
          0.023
        ],
        [
          -0.0592,
          -0.028200000000000003,
          -0.0912,
          -0.0824,
          0.03,
          0.043,
          0.08780000000000002,
          0.0346,
          -0.009200000000000002,
          -0.0596,
          -0.012,
          0.0122,
          -0.0188,
          -0.013200000000000002,
          0.0398,
          -0.0086,
          -0.069,
          -0.0682,
          -0.004,
          -0.008400000000000001,
          -0.0596,
          0.028,
          -0.0772,
          -0.06280000000000001,
          -0.0122,
          -0.012,
          -0.0992,
          -0.0952,
          0.041400000000000006,
          0.0646,
          -0.056,
          0.06760000000000001,
          -0.0468,
          0.09160000000000001,
          0.0648,
          0.08580000000000002,
          -0.0648,
          0.0416,
          0.08,
          0.09440000000000001,
          0.034800000000000005,
          -0.013600000000000001,
          0.042,
          0.016800000000000002,
          0.0586,
          -0.039200000000000006,
          0.0148,
          0.05,
          -0.030600000000000002,
          -0.0912,
          0.0166,
          -0.063,
          0.0918,
          -0.0064,
          0.08080000000000001,
          0.005,
          -0.09240000000000001,
          -0.04440000000000001,
          0.012600000000000002,
          -0.058,
          0.0874,
          -0.0702,
          0.08360000000000001,
          0.0028000000000000004,
          -0.0024000000000000002,
          0.0352,
          0.047,
          0.0952,
          0.049400000000000006,
          -0.085,
          0.0684,
          0.0666,
          -0.0122,
          -0.0658,
          0.0834
        ],
        [
          -0.0974,
          -0.09680000000000001,
          0.0058000000000000005,
          -0.04340000000000001,
          0.049400000000000006,
          0.0604,
          0.0752,
          0.066,
          -0.0154,
          0.011,
          -0.0644,
          0.031400000000000004,
          -0.0688,
          0.086,
          0.036800000000000006,
          0.0028000000000000004,
          -0.0734,
          -0.0814,
          -0.008400000000000001,
          0.061,
          0.031,
          0.0804,
          0.017400000000000002,
          0.043800000000000006,
          0.032,
          -0.07,
          -0.009,
          -0.1,
          -0.0688,
          0.0148,
          -0.05740000000000001,
          -0.0468,
          0.0718,
          -0.004,
          2.0E-4,
          0.002,
          0.004600000000000001,
          0.0018,
          0.0014000000000000002,
          -0.08120000000000001,
          -0.08880000000000002,
          -0.062,
          -0.0034000000000000002,
          -0.06180000000000001,
          0.0324,
          0.09340000000000001,
          0.0548,
          0.0344,
          -0.0592,
          -0.009600000000000001,
          -0.0506,
          0.009200000000000002,
          0.053200000000000004,
          0.0052,
          0.018400000000000003,
          0.0526,
          -0.03780000000000001,
          0.0772,
          0.0352,
          -0.089,
          0.09440000000000001,
          -0.07379999999999999,
          0.0318,
          0.019,
          0.040400000000000005,
          0.039200000000000006,
          -0.005,
          -0.0188,
          0.021,
          -0.0572,
          0.058800000000000005,
          -0.021400000000000002,
          0.0082,
          0.05380000000000001,
          0.07680000000000001
        ],
        [
          0.0572,
          -0.0546,
          0.054200000000000005,
          -0.0422,
          -0.041800000000000004,
          -0.031200000000000002,
          -0.051800000000000006,
          0.04240000000000001,
          -0.049400000000000006,
          -0.034800000000000005,
          0.0436,
          0.0854,
          -0.03,
          -0.047,
          0.097,
          0.09580000000000001,
          -0.0356,
          0.049800000000000004,
          -0.019600000000000003,
          -0.0074,
          -0.09780000000000001,
          0.0036,
          0.051,
          -0.044,
          -0.0854,
          -0.1,
          0.07160000000000001,
          0.035,
          0.08380000000000001,
          -0.092,
          -0.055400000000000005,
          -0.097,
          4.0E-4,
          0.0492,
          -0.0206,
          -0.0664,
          -0.051800000000000006,
          -0.0488,
          0.072,
          -0.06860000000000001,
          -0.053200000000000004,
          -0.0328,
          0.0194,
          0.019600000000000003,
          -0.09060000000000001,
          -0.067,
          0.040600000000000004,
          0.0656,
          -0.038400000000000004,
          -0.0286,
          0.0974,
          -0.04580000000000001,
          -0.05940000000000001,
          0.098,
          0.010600000000000002,
          0.08860000000000001,
          -0.05380000000000001,
          0.09280000000000001,
          -0.06,
          0.0616,
          -0.028200000000000003,
          -0.0296,
          -0.0732,
          -0.08080000000000001,
          0.0034000000000000002,
          0.004600000000000001,
          0.0994,
          -0.041,
          -0.04440000000000001,
          0.0476,
          0.0636,
          0.05240000000000001,
          -0.0718,
          0.0708,
          -0.033
        ],
        [
          -0.0626,
          0.093,
          -0.07379999999999999,
          -0.09240000000000001,
          -0.0728,
          0.0694,
          0.0162,
          0.0572,
          0.0712,
          -0.062400000000000004,
          -0.048,
          0.005600000000000001,
          0.026200000000000005,
          -0.0536,
          0.0144,
          -0.047,
          -0.07740000000000001,
          -0.09240000000000001,
          0.07,
          0.0014000000000000002,
          -0.0668,
          0.06080000000000001,
          -0.074,
          0.0094,
          0.033,
          0.07740000000000001,
          -0.0274,
          -0.0036,
          0.04,
          -0.039200000000000006,
          -0.088,
          0.029,
          0.07940000000000001,
          0.051800000000000006,
          -0.087,
          -0.011800000000000001,
          -0.09540000000000001,
          0.085,
          0.047,
          0.0976,
          0.0806,
          -0.0936,
          -0.08460000000000001,
          -0.025400000000000002,
          0.04340000000000001,
          0.0204,
          0.002,
          0.053,
          -0.0762,
          -0.0026,
          0.0596,
          -0.07479999999999999,
          -0.047200000000000006,
          -0.0436,
          -0.0328,
          0.053,
          0.048,
          0.006,
          -0.013600000000000001,
          -0.0022,
          0.023200000000000002,
          -0.07780000000000001,
          -0.012,
          0.0476,
          -0.03780000000000001,
          0.029200000000000004,
          0.0176,
          0.025400000000000002,
          0.045200000000000004,
          0.047200000000000006,
          -0.06960000000000001,
          8.0E-4,
          -0.06760000000000001,
          -0.018400000000000003,
          -0.066
        ],
        [
          0.09240000000000001,
          0.055,
          -0.031200000000000002,
          0.027600000000000003,
          0.039400000000000004,
          -0.0244,
          0.0918,
          -0.036,
          0.042,
          -0.0936,
          -0.0302,
          0.0124,
          -0.0852,
          -0.067,
          0.044800000000000006,
          0.0248,
          -0.0636,
          0.0852,
          0.0976,
          0.036,
          -0.0902,
          0.096,
          -0.033,
          -0.0718,
          -0.0454,
          0.072,
          -0.073,
          -0.0308,
          -0.0572,
          -0.0722,
          -0.0144,
          0.0912,
          -0.0284,
          -0.0044,
          0.028,
          0.0332,
          -0.054,
          0.0412,
          0.0688,
          0.08360000000000001,
          0.015,
          0.084,
          0.054400000000000004,
          0.004,
          0.0814,
          0.0568,
          0.0882,
          -0.022200000000000004,
          -0.0646,
          0.097,
          0.0522,
          0.037399999999999996,
          0.08080000000000001,
          -0.092,
          0.0142,
          -0.0558,
          -0.047400000000000005,
          -0.079,
          -0.0546,
          0.037200000000000004,
          -0.0176,
          -0.08360000000000001,
          -0.047400000000000005,
          0.0068000000000000005,
          -0.0038000000000000004,
          0.06420000000000001,
          0.056400000000000006,
          0.0992,
          0.09280000000000001,
          -0.067,
          0.045,
          0.078,
          0.0054,
          -0.07740000000000001,
          -0.009600000000000001
        ],
        [
          0.0654,
          0.05240000000000001,
          -0.09860000000000001,
          -0.012,
          0.0826,
          0.0864,
          0.0044,
          -0.033600000000000005,
          -0.0206,
          -0.06280000000000001,
          -0.047200000000000006,
          -0.09820000000000001,
          -0.0936,
          0.0412,
          -0.0322,
          -0.039,
          -0.08580000000000002,
          0.063,
          -0.098,
          0.08480000000000001,
          -0.08880000000000002,
          0.05940000000000001,
          0.0964,
          0.091,
          -0.012600000000000002,
          -0.034,
          0.07740000000000001,
          -0.0582,
          -0.07780000000000001,
          -0.092,
          -0.0932,
          0.045,
          0.0158,
          -0.057,
          -8.0E-4,
          -0.07060000000000001,
          0.0834,
          -0.056,
          0.05280000000000001,
          0.030600000000000002,
          0.08460000000000001,
          0.0512,
          0.034800000000000005,
          0.005,
          0.0674,
          0.039200000000000006,
          -0.072,
          -0.001,
          0.0604,
          0.0734,
          -0.0636,
          -0.002,
          0.0582,
          0.062,
          -0.0666,
          -0.007600000000000001,
          -0.0832,
          -0.050800000000000005,
          0.041,
          0.018600000000000002,
          -6.000000000000001E-4,
          0.044,
          0.018,
          -0.047400000000000005,
          -0.0078000000000000005,
          0.022,
          -0.0346,
          0.0646,
          0.054,
          0.0086,
          -0.052,
          -0.019,
          -0.051,
          -0.097,
          0.07840000000000001
        ],
        [
          -0.08680000000000002,
          0.025,
          0.062200000000000005,
          -0.031400000000000004,
          0.0976,
          0.09380000000000001,
          -0.0038000000000000004,
          -0.08360000000000001,
          0.019600000000000003,
          0.088,
          -0.030400000000000003,
          0.07880000000000001,
          -0.0732,
          0.094,
          -0.053,
          -0.083,
          -0.0426,
          0.05380000000000001,
          -0.051800000000000006,
          -0.054400000000000004,
          0.001,
          -0.038400000000000004,
          -0.094,
          -0.046400000000000004,
          0.0176,
          0.08360000000000001,
          0.092,
          -0.017400000000000002,
          -0.092,
          0.0606,
          -0.09480000000000001,
          -0.07360000000000001,
          -0.0892,
          0.057,
          -0.0094,
          0.025400000000000002,
          0.018,
          0.0824,
          0.040600000000000004,
          -0.0332,
          0.030600000000000002,
          -0.097,
          -0.089,
          -0.06080000000000001,
          -0.06420000000000001,
          -0.09540000000000001,
          0.041,
          -0.049,
          0.048600000000000004,
          0.0932,
          0.0402,
          0.0158,
          0.0426,
          -0.04440000000000001,
          -0.078,
          -0.097,
          0.0656,
          -0.0456,
          -0.098,
          0.064,
          0.0454,
          -0.0974,
          -0.0476,
          -0.0064,
          0.06380000000000001,
          -0.0204,
          -0.0172,
          -0.013200000000000002,
          0.0786,
          0.0158,
          -0.06380000000000001,
          -0.009600000000000001,
          8.0E-4,
          -0.06860000000000001,
          -0.055200000000000006
        ],
        [
          0.0918,
          0.07980000000000001,
          -0.0722,
          -0.0682,
          0.0124,
          -0.009600000000000001,
          -0.0234,
          -0.043,
          -0.06860000000000001,
          -0.08280000000000001,
          2.0E-4,
          -0.07980000000000001,
          0.064,
          0.05740000000000001,
          0.0048000000000000004,
          0.0376,
          -0.0332,
          -0.0044,
          0.07640000000000001,
          -0.06860000000000001,
          0.08020000000000001,
          -0.0446,
          0.0842,
          -0.09720000000000001,
          -0.0048000000000000004,
          -0.05940000000000001,
          -0.0796,
          -0.016,
          0.055,
          -0.0488,
          -0.0842,
          -0.038,
          -0.0134,
          0.0714,
          0.029400000000000003,
          -0.013600000000000001,
          -0.0614,
          0.098,
          0.0796,
          -0.0468,
          0.01,
          -0.09480000000000001,
          0.055600000000000004,
          -0.0178,
          0.04240000000000001,
          -0.068,
          0.03,
          -0.0014000000000000002,
          -0.0328,
          0.0114,
          -0.022400000000000003,
          0.0682,
          -0.0926,
          0.06340000000000001,
          -0.09960000000000001,
          -0.0592,
          -0.0422,
          -0.07460000000000001,
          0.0546,
          0.008,
          0.08780000000000002,
          0.0014000000000000002,
          -0.019200000000000002,
          -6.000000000000001E-4,
          -0.0442,
          0.07940000000000001,
          0.054400000000000004,
          0.0052,
          -0.0512,
          -0.0094,
          -0.0194,
          0.042800000000000005,
          -0.08080000000000001,
          -0.0468,
          0.0936
        ],
        [
          -0.051800000000000006,
          -0.0322,
          -0.008,
          0.050800000000000005,
          0.08180000000000001,
          0.022600000000000002,
          -0.0582,
          -0.0054,
          0.09340000000000001,
          -0.061200000000000004,
          -0.091,
          -0.06,
          0.047,
          0.050800000000000005,
          -0.09540000000000001,
          -0.034800000000000005,
          0.026400000000000003,
          0.0026,
          -0.06,
          -0.08,
          -0.07980000000000001,
          -0.022400000000000003,
          -0.0892,
          0.04580000000000001,
          -0.0626,
          -0.03,
          -0.0296,
          0.08180000000000001,
          0.056600000000000004,
          -0.0718,
          0.094,
          -0.0432,
          0.035,
          -0.013800000000000002,
          -0.0502,
          -0.026,
          0.069,
          0.0288,
          -0.07540000000000001,
          0.0468,
          -0.014600000000000002,
          0.0148,
          -0.0246,
          -0.0874,
          -0.0158,
          0.0606,
          -0.057800000000000004,
          -0.027200000000000002,
          -0.009600000000000001,
          0.027,
          0.0534,
          0.0526,
          -0.09580000000000001,
          -0.062200000000000005,
          -0.055600000000000004,
          -0.09620000000000001,
          0.021,
          0.0596,
          0.07579999999999999,
          0.026200000000000005,
          0.046400000000000004,
          0.004200000000000001,
          -0.033800000000000004,
          0.08380000000000001,
          -0.0678,
          -0.01,
          0.0386,
          0.07840000000000001,
          0.09780000000000001,
          -0.09540000000000001,
          0.06760000000000001,
          -0.0122,
          0.05040000000000001,
          0.046200000000000005,
          -0.0026
        ],
        [
          0.0698,
          0.0534,
          -0.0308,
          0.046400000000000004,
          0.08180000000000001,
          0.06620000000000001,
          0.09960000000000001,
          0.0468,
          0.06080000000000001,
          0.08760000000000001,
          -0.0994,
          0.075,
          0.055400000000000005,
          0.0286,
          -0.058,
          -0.0792,
          -0.035,
          -0.088,
          0.0436,
          0.07579999999999999,
          -0.0832,
          0.025400000000000002,
          -0.047400000000000005,
          -0.049400000000000006,
          0.0328,
          -0.0862,
          0.07880000000000001,
          -0.085,
          0.0796,
          -0.044800000000000006,
          -0.0732,
          0.0912,
          -0.09580000000000001,
          0.065,
          0.027800000000000002,
          0.022,
          -0.0694,
          0.0714,
          -0.0548,
          -0.0162,
          0.08280000000000001,
          -0.0606,
          -0.005600000000000001,
          0.007,
          -0.0562,
          -0.0912,
          -0.0322,
          -0.0712,
          0.0604,
          0.09720000000000001,
          -0.0752,
          0.006,
          -0.0078000000000000005,
          -0.047,
          -0.09240000000000001,
          0.0534,
          -0.07,
          -0.0466,
          0.079,
          0.063,
          -0.062200000000000005,
          -0.0946,
          -0.078,
          0.0882,
          -0.06620000000000001,
          -0.075,
          0.09160000000000001,
          0.08460000000000001,
          0.09440000000000001,
          0.09160000000000001,
          -0.096,
          0.0308,
          -0.09680000000000001,
          -0.0188,
          -0.019
        ],
        [
          0.025200000000000004,
          0.0468,
          -0.010600000000000002,
          -0.07479999999999999,
          0.035,
          -0.045200000000000004,
          0.05140000000000001,
          0.0952,
          0.09860000000000001,
          0.0038000000000000004,
          0.07880000000000001,
          -0.0402,
          0.0072,
          -0.0502,
          0.0902,
          -0.0922,
          0.0776,
          0.09480000000000001,
          0.0318,
          0.07660000000000002,
          0.07940000000000001,
          0.0166,
          0.039400000000000004,
          0.0036,
          0.047,
          -0.09540000000000001,
          -0.0044,
          -0.0018,
          0.0322,
          -0.0862,
          0.049400000000000006,
          0.06420000000000001,
          0.0286,
          0.05240000000000001,
          -0.033,
          -0.0422,
          -0.039,
          -0.0154,
          -0.0088,
          0.026200000000000005,
          -0.05840000000000001,
          -0.008400000000000001,
          -0.03780000000000001,
          -0.019,
          0.0244,
          -0.08480000000000001,
          0.031200000000000002,
          0.0912,
          -0.0034000000000000002,
          0.082,
          0.08960000000000001,
          8.0E-4,
          -0.0572,
          0.0604,
          -0.009200000000000002,
          -0.0234,
          -0.09620000000000001,
          0.0352,
          -0.0708,
          -0.041800000000000004,
          -0.0014000000000000002,
          0.0018,
          -0.0492,
          0.061200000000000004,
          -0.053,
          0.07360000000000001,
          0.09440000000000001,
          0.0328,
          -0.037,
          -0.022200000000000004,
          0.08220000000000001,
          0.005600000000000001,
          -0.09280000000000001,
          -0.0248,
          -0.046400000000000004
        ],
        [
          0.06860000000000001,
          0.04580000000000001,
          0.025400000000000002,
          -0.031400000000000004,
          0.0946,
          0.0844,
          -0.036800000000000006,
          -0.025,
          -0.08680000000000002,
          0.012600000000000002,
          0.07260000000000001,
          -0.009600000000000001,
          -0.05040000000000001,
          0.0064,
          0.057,
          0.0596,
          0.026400000000000003,
          -0.0422,
          -0.024200000000000003,
          0.0792,
          -0.06720000000000001,
          0.0664,
          0.0028000000000000004,
          0.0206,
          0.057800000000000004,
          0.0468,
          0.09620000000000001,
          0.047400000000000005,
          0.069,
          -0.0198,
          -0.077,
          -0.0656,
          0.06720000000000001,
          -0.0604,
          0.004600000000000001,
          -0.08480000000000001,
          -0.0862,
          -0.0946,
          0.0218,
          -0.018400000000000003,
          -0.0692,
          -0.046,
          -0.09980000000000001,
          -0.0526,
          -0.0908,
          0.047400000000000005,
          -0.0694,
          0.047200000000000006,
          -0.07640000000000001,
          -0.011200000000000002,
          -0.07260000000000001,
          0.08560000000000001,
          0.0496,
          0.008,
          -0.0814,
          -0.0158,
          -0.093,
          0.0416,
          0.081,
          -0.028200000000000003,
          0.0104,
          0.04240000000000001,
          -0.022400000000000003,
          0.0604,
          -4.0E-4,
          0.004600000000000001,
          0.041,
          0.013200000000000002,
          -0.057,
          0.030600000000000002,
          0.054400000000000004,
          -0.0354,
          0.06,
          0.07780000000000001,
          -0.07160000000000001
        ],
        [
          -0.089,
          0.0178,
          -0.0506,
          0.053,
          0.0016,
          -0.0936,
          0.039200000000000006,
          0.048,
          -0.0328,
          0.08380000000000001,
          -0.018400000000000003,
          0.0124,
          -0.054200000000000005,
          -0.045,
          0.03780000000000001,
          0.0346,
          0.0216,
          -0.08860000000000001,
          -8.0E-4,
          -0.0284,
          -0.0302,
          -0.008400000000000001,
          0.023,
          -0.018,
          -0.0466,
          0.035800000000000005,
          -0.0664,
          -0.0478,
          -0.041,
          0.0636,
          0.08360000000000001,
          0.09820000000000001,
          0.003,
          0.06520000000000001,
          -0.0862,
          -0.0684,
          0.066,
          0.08760000000000001,
          0.093,
          0.048,
          -0.0408,
          -0.09040000000000001,
          0.0244,
          0.079,
          -0.02,
          -0.087,
          0.0114,
          -0.09540000000000001,
          0.0058000000000000005,
          -0.022600000000000002,
          0.043,
          0.056,
          0.056400000000000006,
          -0.0796,
          -0.08760000000000001,
          0.064,
          -0.055,
          -0.0844,
          0.07479999999999999,
          -0.025200000000000004,
          0.06380000000000001,
          -0.032,
          -0.09980000000000001,
          -0.034,
          -0.054,
          -0.069,
          0.0288,
          -0.0596,
          0.0164,
          -0.0052,
          -0.0606,
          0.07640000000000001,
          0.044800000000000006,
          0.0014000000000000002,
          0.06520000000000001
        ],
        [
          -0.0412,
          -0.047,
          -0.061,
          -0.0234,
          0.08780000000000002,
          -0.0576,
          -0.014600000000000002,
          0.0946,
          -0.0704,
          0.0994,
          0.073,
          -0.0258,
          -0.08660000000000001,
          -0.0194,
          0.009600000000000001,
          -0.0468,
          0.0072,
          -0.08,
          -0.0058000000000000005,
          -0.0342,
          -0.074,
          0.07560000000000001,
          0.026200000000000005,
          -0.09620000000000001,
          0.07460000000000001,
          0.044,
          0.039200000000000006,
          0.0128,
          -0.0834,
          -0.0144,
          0.038400000000000004,
          0.022600000000000002,
          -0.0586,
          0.0416,
          -0.0534,
          -0.09440000000000001,
          0.022,
          0.018400000000000003,
          -0.0786,
          0.0284,
          -0.09280000000000001,
          -0.087,
          -0.0044,
          0.0176,
          0.0678,
          0.0182,
          0.0182,
          0.09240000000000001,
          -0.0666,
          0.0974,
          0.0198,
          -0.062200000000000005,
          0.09680000000000001,
          0.053,
          -0.08360000000000001,
          -0.0124,
          -0.0632,
          0.025400000000000002,
          0.07479999999999999,
          0.06420000000000001,
          -0.07980000000000001,
          -0.049400000000000006,
          -0.086,
          0.087,
          -0.027,
          0.088,
          -0.0104,
          -0.0034000000000000002,
          -0.012,
          0.079,
          -0.07540000000000001,
          -0.0288,
          -0.07260000000000001,
          -0.058800000000000005,
          0.078
        ]
      ]
    },
    "e4fddbbb-5894-4862-a0f5-54960c749754": {
      "class": "com.simiacryptus.mindseye.layers.java.BiasLayer",
      "id": "e4fddbbb-5894-4862-a0f5-54960c749754",
      "isFrozen": false,
      "name": "BiasLayer/e4fddbbb-5894-4862-a0f5-54960c749754",
      "bias": [
        0.0,
        0.0,
        0.0,
        0.0,
        0.0,
        0.0,
        0.0,
        0.0,
        0.0,
        0.0,
        0.0,
        0.0,
        0.0,
        0.0,
        0.0,
        0.0,
        0.0,
        0.0,
        0.0,
        0.0,
        0.0,
        0.0,
        0.0,
        0.0,
        0.0,
        0.0,
        0.0,
        0.0,
        0.0,
        0.0,
        0.0,
        0.0
      ]
    },
    "9971174c-7e35-42b4-b570-f4f8cca677b3": {
      "class": "com.simiacryptus.mindseye.layers.java.ReLuActivationLayer",
      "id": "9971174c-7e35-42b4-b570-f4f8cca677b3",
      "isFrozen": true,
      "name": "ReLuActivationLayer/9971174c-7e35-42b4-b570-f4f8cca677b3",
      "weights": [
        1.0
      ]
    },
    "1efe8841-6c8e-4399-a87b-27f93e9a9821": {
      "class": "com.simiacryptus.mindseye.layers.java.FullyConnectedLayer",
      "id": "1efe8841-6c8e-4399-a87b-27f93e9a9821",
      "isFrozen": false,
      "name": "FullyConnectedLayer/1efe8841-6c8e-4399-a87b-27f93e9a9821",
      "outputDims": [
        3,
        3,
        1
      ],
      "inputDims": [
        4,
        4,
        2
      ],
      "weights": [
        [
          -0.0234,
          0.0324,
          -0.045,
          -0.08360000000000001,
          -0.0956,
          -0.0094,
          0.056400000000000006,
          0.058800000000000005,
          0.0842,
          0.008400000000000001,
          0.022200000000000004,
          0.028200000000000003,
          0.0068000000000000005,
          0.024,
          0.0082,
          -0.016,
          0.0454,
          -0.038,
          0.04,
          0.0772,
          0.0536,
          0.0994,
          4.0E-4,
          -0.07479999999999999,
          0.0176,
          0.0398,
          8.0E-4,
          0.032600000000000004,
          0.0548,
          0.018600000000000002,
          0.01,
          -0.07540000000000001
        ],
        [
          -0.024,
          -0.0562,
          -0.09,
          0.044,
          -0.016800000000000002,
          0.0012000000000000001,
          -0.0974,
          -0.004,
          0.06620000000000001,
          -0.0248,
          -0.05040000000000001,
          -0.049800000000000004,
          0.06380000000000001,
          0.044800000000000006,
          0.0206,
          -0.0898,
          0.028,
          0.049400000000000006,
          0.043,
          -0.06720000000000001,
          0.054400000000000004,
          -0.0864,
          0.06720000000000001,
          0.0586,
          0.078,
          -0.0548,
          0.0728,
          -0.06340000000000001,
          -0.017400000000000002,
          0.0258,
          0.0316,
          0.023600000000000003
        ],
        [
          0.084,
          0.0926,
          -0.0176,
          0.036,
          -0.018600000000000002,
          -0.0332,
          -0.012600000000000002,
          0.015200000000000002,
          -0.009200000000000002,
          0.0206,
          -0.0048000000000000004,
          0.09140000000000001,
          0.0678,
          0.015200000000000002,
          0.0068000000000000005,
          0.0874,
          0.062,
          0.0104,
          0.049,
          -0.05740000000000001,
          -0.0124,
          -0.043800000000000006,
          0.08880000000000002,
          0.0284,
          -0.0592,
          -0.0206,
          -0.044800000000000006,
          0.0258,
          -0.050800000000000005,
          0.0122,
          -0.036,
          0.08780000000000002
        ],
        [
          -0.026200000000000005,
          -0.0496,
          -0.0256,
          -0.008400000000000001,
          -0.0804,
          0.08940000000000001,
          -0.04240000000000001,
          0.0478,
          0.0678,
          -0.0234,
          -0.0922,
          0.0842,
          0.0776,
          0.08660000000000001,
          0.0992,
          -0.081,
          -0.0482,
          0.0946,
          0.0496,
          0.0792,
          -0.056,
          -0.0396,
          0.0658,
          0.0104,
          -0.0036,
          0.07479999999999999,
          -0.029400000000000003,
          0.058,
          0.0862,
          0.054400000000000004,
          -0.066,
          0.099
        ],
        [
          -0.0176,
          -0.082,
          0.0352,
          -0.09980000000000001,
          -0.07460000000000001,
          0.0128,
          -0.07840000000000001,
          0.0942,
          -0.020200000000000003,
          -0.004,
          -0.044,
          -0.0412,
          0.07260000000000001,
          -0.0762,
          0.0094,
          -0.0902,
          0.092,
          0.031200000000000002,
          0.0974,
          -0.004600000000000001,
          -0.0386,
          0.0526,
          -0.0014000000000000002,
          -0.0572,
          0.0536,
          0.08180000000000001,
          0.099,
          -0.0048000000000000004,
          0.0872,
          0.008,
          0.0606,
          -0.0478
        ],
        [
          0.06760000000000001,
          0.029,
          0.023600000000000003,
          -0.083,
          -0.037399999999999996,
          0.0388,
          -0.0734,
          0.0332,
          0.07560000000000001,
          -0.0238,
          0.051800000000000006,
          0.025,
          -0.084,
          0.083,
          -0.08760000000000001,
          -4.0E-4,
          -0.099,
          -0.09680000000000001,
          0.0178,
          -0.0038000000000000004,
          -0.031,
          0.09,
          -0.0034000000000000002,
          -0.056,
          -0.093,
          -0.0024000000000000002,
          0.0362,
          -0.0234,
          0.089,
          0.06860000000000001,
          0.091,
          -0.09160000000000001
        ],
        [
          0.036,
          0.07740000000000001,
          0.0502,
          0.07379999999999999,
          0.06860000000000001,
          0.050800000000000005,
          -0.004600000000000001,
          0.09860000000000001,
          -0.049400000000000006,
          0.0832,
          0.002,
          -0.009,
          0.0208,
          0.0166,
          -0.0604,
          -0.0854,
          -0.0182,
          0.0708,
          0.018,
          0.009800000000000001,
          -0.054,
          -0.0912,
          -0.039400000000000004,
          -0.0884,
          0.06960000000000001,
          -0.09580000000000001,
          -0.08480000000000001,
          0.045200000000000004,
          0.0322,
          -0.07980000000000001,
          0.0522,
          0.0356
        ],
        [
          8.0E-4,
          -0.0644,
          0.0704,
          -0.062,
          -0.09,
          -0.019600000000000003,
          0.09620000000000001,
          0.062,
          0.052,
          -0.0026,
          0.057,
          -0.086,
          0.011200000000000002,
          0.099,
          -0.0586,
          0.09620000000000001,
          -0.0296,
          -0.0842,
          -0.0964,
          0.013200000000000002,
          -0.0158,
          -0.037,
          0.004200000000000001,
          -0.0952,
          0.031400000000000004,
          -0.0476,
          -0.0936,
          -0.08680000000000002,
          0.0674,
          -0.0804,
          -0.0216,
          -0.0562
        ],
        [
          -0.011600000000000001,
          0.047400000000000005,
          -0.0964,
          0.067,
          0.0946,
          0.0058000000000000005,
          0.0068000000000000005,
          -0.0032,
          -0.092,
          8.0E-4,
          0.049800000000000004,
          -0.0028000000000000004,
          0.05240000000000001,
          -2.0E-4,
          -0.013600000000000001,
          -0.0328,
          -0.0082,
          -0.088,
          -0.039200000000000006,
          -0.018400000000000003,
          0.037399999999999996,
          0.0922,
          -0.027200000000000002,
          -0.0364,
          0.019200000000000002,
          0.05280000000000001,
          -0.0208,
          0.029400000000000003,
          -0.087,
          -0.027800000000000002,
          0.08,
          0.0
        ]
      ]
    },
    "a707be8c-3b09-447a-a7e0-221862741a1d": {
      "class": "com.simiacryptus.mindseye.layers.java.BiasLayer",
      "id": "a707be8c-3b09-447a-a7e0-221862741a1d",
      "isFrozen": false,
      "name": "BiasLayer/a707be8c-3b09-447a-a7e0-221862741a1d",
      "bias": [
        0.0,
        0.0,
        0.0,
        0.0,
        0.0,
        0.0,
        0.0,
        0.0,
        0.0
      ]
    },
    "db4cab82-6df3-4219-a01f-ef3f050f944c": {
      "class": "com.simiacryptus.mindseye.layers.java.ReLuActivationLayer",
      "id": "db4cab82-6df3-4219-a01f-ef3f050f944c",
      "isFrozen": true,
      "name": "ReLuActivationLayer/db4cab82-6df3-4219-a01f-ef3f050f944c",
      "weights": [
        1.0
      ]
    },
    "884a39b9-d187-4676-b9b7-4ef06c0709b5": {
      "class": "com.simiacryptus.mindseye.layers.java.FullyConnectedLayer",
      "id": "884a39b9-d187-4676-b9b7-4ef06c0709b5",
      "isFrozen": false,
      "name": "FullyConnectedLayer/884a39b9-d187-4676-b9b7-4ef06c0709b5",
      "outputDims": [
        2,
        2,
        1
      ],
      "inputDims": [
        3,
        3,
        1
      ],
      "weights": [
        [
          0.013800000000000002,
          0.001,
          -0.06620000000000001,
          -0.0908,
          -0.0396,
          -0.06860000000000001,
          -0.0024000000000000002,
          0.048400000000000006,
          -0.0718
        ],
        [
          0.062400000000000004,
          -0.029200000000000004,
          -0.049400000000000006,
          0.0882,
          -0.06520000000000001,
          -0.0692,
          -0.0048000000000000004,
          -0.0094,
          -0.0694
        ],
        [
          0.0522,
          0.044800000000000006,
          -0.0956,
          -0.09440000000000001,
          -0.059800000000000006,
          -0.0354,
          0.0396,
          -0.039,
          -0.0526
        ],
        [
          -0.053,
          0.024,
          0.031400000000000004,
          0.023200000000000002,
          0.09960000000000001,
          0.054,
          -0.029400000000000003,
          -0.0344,
          0.0216
        ]
      ]
    },
    "4da37ca6-9f9f-4b19-ae71-a3f62b674b09": {
      "class": "com.simiacryptus.mindseye.layers.java.BiasLayer",
      "id": "4da37ca6-9f9f-4b19-ae71-a3f62b674b09",
      "isFrozen": false,
      "name": "BiasLayer/4da37ca6-9f9f-4b19-ae71-a3f62b674b09",
      "bias": [
        0.0,
        0.0,
        0.0,
        0.0
      ]
    },
    "5e181d45-f0e8-4e5e-be5b-36c43a2b966d": {
      "class": "com.simiacryptus.mindseye.layers.java.ReLuActivationLayer",
      "id": "5e181d45-f0e8-4e5e-be5b-36c43a2b966d",
      "isFrozen": true,
      "name": "ReLuActivationLayer/5e181d45-f0e8-4e5e-be5b-36c43a2b966d",
      "weights": [
        1.0
      ]
    },
    "3c4ec073-797a-4be1-abc3-19fbdd9bc603": {
      "class": "com.simiacryptus.mindseye.layers.java.FullyConnectedLayer",
      "id": "3c4ec073-797a-4be1-abc3-19fbdd9bc603",
      "isFrozen": false,
      "name": "FullyConnectedLayer/3c4ec073-797a-4be1-abc3-19fbdd9bc603",
      "outputDims": [
        2,
        2,
        1
      ],
      "inputDims": [
        2,
        2,
        1
      ],
      "weights": [
        [
          0.048,
          0.030600000000000002,
          0.018400000000000003,
          0.058
        ],
        [
          0.0164,
          0.0936,
          0.0128,
          -0.012600000000000002
        ],
        [
          0.0918,
          0.06,
          -0.0496,
          0.0206
        ],
        [
          0.0094,
          -0.002,
          0.099,
          0.0606
        ]
      ]
    },
    "65a17564-0f3f-4f2a-a0d2-cd3fbc6e6bb5": {
      "class": "com.simiacryptus.mindseye.layers.java.BiasLayer",
      "id": "65a17564-0f3f-4f2a-a0d2-cd3fbc6e6bb5",
      "isFrozen": false,
      "name": "BiasLayer/65a17564-0f3f-4f2a-a0d2-cd3fbc6e6bb5",
      "bias": [
        0.0,
        0.0,
        0.0,
        0.0
      ]
    },
    "2e39123d-a502-4d19-895a-376dbba297dc": {
      "class": "com.simiacryptus.mindseye.layers.java.ReLuActivationLayer",
      "id": "2e39123d-a502-4d19-895a-376dbba297dc",
      "isFrozen": true,
      "name": "ReLuActivationLayer/2e39123d-a502-4d19-895a-376dbba297dc",
      "weights": [
        1.0
      ]
    }
  },
  "links": {
    "d4b1a654-6b94-4210-8957-e3741a07e158": [
      "54793066-e7ce-4583-873a-982b1ce4910b"
    ],
    "6e317756-0d79-48c5-b316-38cd7b938207": [
      "d4b1a654-6b94-4210-8957-e3741a07e158"
    ],
    "74624bff-5afb-4f9d-8759-974f9cb9edf2": [
      "6e317756-0d79-48c5-b316-38cd7b938207"
    ],
    "36e6eed9-e927-4cdf-92df-a81f43c204c9": [
      "74624bff-5afb-4f9d-8759-974f9cb9edf2"
    ],
    "b25ea433-252d-4e9f-977f-062dcf5df0f7": [
      "36e6eed9-e927-4cdf-92df-a81f43c204c9"
    ],
    "3e387eb1-14ca-408a-bac4-270c1b082e26": [
      "b25ea433-252d-4e9f-977f-062dcf5df0f7"
    ],
    "772438b1-5b5d-4b14-8ce7-5026e841cbe5": [
      "3e387eb1-14ca-408a-bac4-270c1b082e26"
    ],
    "1f641b1a-d1f1-47dd-a1f5-7a2f23a1557d": [
      "772438b1-5b5d-4b14-8ce7-5026e841cbe5"
    ],
    "fa37e804-cb05-4bc7-bd44-bbbdf19fec06": [
      "1f641b1a-d1f1-47dd-a1f5-7a2f23a1557d"
    ],
    "53e9ef5c-bd78-4fb2-b768-aa55fdea30ce": [
      "fa37e804-cb05-4bc7-bd44-bbbdf19fec06"
    ],
    "d7ba48c3-927c-40bf-a0f8-4607f98d286f": [
      "53e9ef5c-bd78-4fb2-b768-aa55fdea30ce"
    ],
    "b6348a7d-1e49-47b8-b1da-953c1648579e": [
      "d7ba48c3-927c-40bf-a0f8-4607f98d286f"
    ]
  },
  "labels": {},
  "head": "b6348a7d-1e49-47b8-b1da-953c1648579e"
}