{"class":"com.simiacryptus.mindseye.network.PipelineNetwork","id":"2c1675cd-1e30-4c41-989a-70dc5bd18084","isFrozen":false,"name":"PipelineNetwork/2c1675cd-1e30-4c41-989a-70dc5bd18084","inputs":["ff86f897-6dba-47bc-b3f8-4f5e3b689c06"],"nodes":{"c9c6ef2e-19e0-4003-93e5-b0f4d1cbf594":"26823223-0472-41cd-bde4-d618dd24ecba","8a07764d-ae5b-4e2c-a819-77f75f73f3ce":"f0bf3ed8-9135-4602-bfbf-ec683494f62e","4f0d3c05-460d-4096-b3a5-27c7c84d21e0":"5f76c71f-0124-411e-90b9-c6848fda6ad9"},"layers":{"26823223-0472-41cd-bde4-d618dd24ecba":{"class":"com.simiacryptus.mindseye.layers.java.MonitoringWrapperLayer","id":"26823223-0472-41cd-bde4-d618dd24ecba","isFrozen":false,"name":"BiasLayer/dda81bdf-6ca9-4332-befa-23537cb3edcb","inner":{"class":"com.simiacryptus.mindseye.layers.java.BiasLayer","id":"dda81bdf-6ca9-4332-befa-23537cb3edcb","isFrozen":false,"name":"BiasLayer/dda81bdf-6ca9-4332-befa-23537cb3edcb","bias":[-1.3385808423133644E-9,-2.2115553436795708E-9,1.6259198717064233E-9,-3.6434946238997673E-10,1.7345010313753098E-9,1.9676207520910486E-9,7.77649249750678E-10,1.4444743264866198E-9,-3.6607015220154756E-10,-8.516003980802372E-10,-5.468791651826815E-10,-1.4368424075610637E-9,-2.014908480380491E-9,6.650518252548999E-10,1.1766178774984926E-9,-1.2292220254786719E-9,-1.1208108399190424E-9,1.0929635950008221E-9,-3.462599871822089E-10,-1.1307226673173762E-9,2.678369070186178E-9,7.124376190340713E-10,-1.1350982134067535E-10,-8.545958117439972E-10,8.04128527199391E-10,-1.529208501630197E-10,-8.710413378122819E-10,-1.0152772731534857E-9,1.9168370507360874E-9,1.4452083832724366E-9,-4.5174581929974116E-10,7.56131291132011E-10,4.0730869307076696E-10,5.186435137709055E-10,-1.2578505249082176E-9,1.21947558680051E-9,-9.345008544512517E-10,-9.97074735361617E-10,1.197263796727581E-9,-6.835507177670867E-10,1.4995024370578943E-10,-4.5265483551177966E-10,2.6759303429585915E-9,2.211720051472321E-9,5.907126086934885E-10,-1.400391026676601E-9,1.1807850276697555E-9,8.813246862848828E-11,-2.442906625183019E-10,6.576648063345986E-10,6.01449852315541E-10,-1.414083069812826E-10,7.968672681198301E-10,1.5490531544921444E-9,-9.678856904764115E-10,-1.1196758088040372E-9,7.332911974872304E-10,-1.2979979512189855E-9,4.3417830416733326E-10,2.648828559762626E-10,8.853327614172008E-10,1.672778564000182E-9,6.707802880402968E-10,-9.37514327942626E-10,9.76710081394265E-10,1.8096434155323657E-10,9.931489852706706E-10,-4.412897932161004E-10,-1.7739628607671315E-9,5.968027784755345E-10,-2.4290947179156403E-10,-7.094913151434856E-10,-1.062192742582763E-10,1.6683158167616913E-10,2.668528451067664E-10,-2.2836194565154683E-9,4.852949401870412E-10,4.912713322285734E-10,-3.1140372944713047E-10,2.8781586374799257E-9,-4.987345355310996E-10,-1.0309083757721175E-9,2.816765531487146E-10,-1.7758135758118428E-9,-2.146365616917643E-9,-9.403892401183692E-10,-6.217324702642259E-10,1.7227906497877333E-9,2.215564530326549E-9,-1.4376498157667687E-9,-3.63613494800082E-10,-1.3978669554702985E-9,1.963534482767196E-9,1.0012465910352971E-9,4.5574150971809176E-10,-1.2134963390344972E-9,-6.953078956990731E-10,4.1902251188570206E-10,1.3995978071058755E-9,5.523747225269337E-10,7.443912668926528E-10,1.0919914333867142E-9,-1.0015923675149876E-9,8.921049737659112E-10,-1.0789958269502135E-9,7.01458187718171E-10,-1.5032158950192317E-9,1.9547061038461646E-9,3.8328230726128466E-10,3.942725218414576E-10,-5.3510984423655E-10,1.6698468615595693E-9,6.902730644228896E-10,4.4572644974775357E-10,-1.1204815386039196E-9,-3.9634205287489096E-10,-1.621384822218914E-9,-4.942116540881592E-10,2.1683138831143605E-9,-9.992241910800428E-11,-1.452061267720604E-9,-5.6003718883240156E-11,2.393085423880327E-10,-1.034508569550301E-9,-1.8911002222406594E-9,-1.6091443501547606E-9,4.71534939159181E-10,6.533644416077012E-10,2.966345680036396E-10,-7.253771234932213E-10,1.3931529133777352E-9,6.599097684915997E-10,1.94433971644364E-10,1.4524440184597849E-9,4.5022330242400423E-10,-8.252412726958602E-11,-2.035919501967358E-10,-1.296180347203878E-9,-8.002727709780818E-10,-2.5922441145344186E-10,-2.1209824200830655E-10,9.45425985507586E-10,6.493893146213188E-11,-9.962443957206876E-10,-3.431833829652107E-10,-3.604772363025066E-10,2.482420288393636E-10,-1.8325582831663853E-9,-2.4788231617257737E-10,-2.0264022810408734E-9,5.524897136823722E-10,1.8296139274755792E-9,-1.6339369949948936E-9,-2.7147392750334825E-9,-1.6738217391039316E-9,-3.4091889181218735E-10,-2.4118056636939986E-9,-6.50505251447127E-10,-1.2877260727081938E-9,-1.8339570696181533E-9,-3.745066029001785E-10,1.3860246700357562E-9,3.2493525611185407E-10,-3.231619642717675E-10,1.0000165368816332E-9,-1.2543876827311397E-9,2.0102830465375848E-10,1.396047124844486E-9,-1.3493438300352153E-9,6.455947716031156E-10,3.388753067451101E-11,-8.516796392176785E-10,-2.3495838403264863E-9,-1.0945587897772001E-9,-4.989036389447917E-10,-2.44864074583622E-9,-1.5914365392264078E-10,8.042241405686176E-10,-2.3798852810817423E-9,-1.5339498925842373E-9,-9.359557470870066E-10,-1.0225464958076887E-9,-2.5524945592712326E-9,-1.134431743332147E-9,-1.7238159873576808E-9,-3.582475556435768E-9,1.9015213449032009E-10,-4.802880572581728E-10,-1.0349427431830685E-9,-5.643840241128769E-10,8.464303604312616E-10,-2.8582694252962543E-10,9.243541748029918E-10,1.6739604232540012E-9,3.217447726749861E-10,1.5453387264388584E-10,5.383620389092423E-10,-1.4900780044358996E-9,-6.462225164171175E-11,-1.8442712087089606E-9,4.937881018341024E-10,6.144826902343123E-10,1.1393970734622743E-9,1.2177943347340023E-9,1.1235637643314523E-9,-1.8028447127610007E-9,-2.105116288243448E-9,-1.2755071090241523E-9,-3.3650865035836174E-9,-9.207056992153438E-10,-2.968480347030898E-10,-6.776578869324824E-10,-1.4181766134400774E-9,8.110629884945493E-10,4.356541435375857E-10,-4.023166201395598E-10,4.9458653277462363E-11,-6.129653722875385E-10,-1.0665545958955716E-9,1.376965776248779E-9,-1.2887524569302734E-10,1.3671441291925148E-10,1.0268966714798254E-9,1.0175857869761497E-9,-1.5314106582120024E-9,6.44689507676928E-10,2.4581564952298474E-10,1.0601284035279345E-9,-8.183718052208746E-10,3.0998836913799473E-10,-9.260114447689732E-10,-9.006131440597776E-10,-6.836431622176499E-10,-5.118480110417767E-10,-1.0681086352424518E-9,-1.514627839249363E-9,-1.0047029175892493E-9,-1.964985523641724E-9,-5.768571574357546E-10,-1.3431785826995591E-9,-2.172496070263259E-9,-8.724666008958068E-10,-1.7904300268292047E-9,-2.2228099596576638E-9,-2.317233018349917E-9,1.288582386907782E-10,7.410574899931492E-10,-6.683676720989154E-10,-1.0320154511947097E-9,-1.1159903296564876E-9,-3.317920556477233E-10,-2.7210464734091817E-10,-3.6498488793460315E-10,9.941327695189352E-10,1.0491312787667227E-9,1.0592672659468766E-10,1.791406061389257E-10,2.6394732185108944E-10,-5.671408552307076E-10,-1.901804515091511E-9,3.6177351899281367E-10,-9.54003278215666E-10,-2.3638313279368015E-9,-1.890557877742711E-9,-2.7357693982123272E-9,-8.163868200950742E-10,1.1544922241721227E-10,1.6628712285166042E-9,-6.792703333872948E-10,1.4405798463418158E-9,-1.95940656843273E-9,-3.2411322480285877E-9,-3.290996822922176E-9,-2.7801128211646992E-9,-7.03271467829337E-10,-3.7824515709258873E-10,-5.370645339308041E-10,-5.903876554875896E-10,-3.140111539026861E-10,2.0526330914546872E-10,-1.9249984602676675E-10,-7.200497836708865E-10,9.194456796389058E-11,1.304476704504571E-9,1.3501159495818352E-9,-1.8952957194176717E-9,1.0247107886148946E-9,-1.5466399846538797E-9,6.604992948575693E-11,-6.600513735313526E-10,-4.738023040788698E-10,-1.3560925395550477E-9,-6.515236410258743E-11,-1.1151210360069796E-9,1.0936358796906671E-9,-3.982717134123669E-10,1.2215911512792173E-9,-1.867851333918354E-9,-1.6972800112523556E-9,-3.524755662077314E-9,-3.388596347227079E-9,-1.105514217551455E-9,-9.704421439163718E-10,-1.6879416645172052E-9,5.005450341379327E-10,1.618751736765737E-10,2.1336343350467723E-9,1.3604416747352764E-9,8.793442949320923E-10,1.6444700329551041E-9,-3.0598358472174513E-10,2.4714942033448465E-9,5.855511842248755E-10,-9.847995750703524E-10,8.398350117053246E-10,-5.549126377523715E-10,-1.5971496710432294E-9,-1.997749798277197E-9,1.8938383112256365E-10,1.0001415947375807E-9,-7.151977306148876E-11,-5.69343044339951E-10,8.070818528624599E-10,3.255289857670503E-10,-1.473632370109182E-9,-3.751699380612582E-9,-2.011332745753999E-9,-2.608267658883896E-9,-1.962956897202527E-9,-6.196732185745911E-10,-2.2700953083316482E-10,4.5454344736005796E-10,-4.210108771639271E-10,2.8985346882346605E-10,9.393281611056313E-10,-6.257155264759324E-10,-1.1429076463136024E-9,5.431387027469668E-10,2.0415945089508676E-9,-6.744595759151935E-10,7.271912775062911E-10,3.8983447526081436E-10,7.213837263004079E-11,-3.1172735492869217E-9,-1.4928503810515822E-9,-8.16779420721655E-10,-1.2974611107865935E-9,2.5648799520903105E-11,-2.347640764978731E-9,2.840919923284624E-9,-3.279735913135897E-10,-6.914437446689998E-10,-1.561961954786088E-9,-4.462191215045531E-9,-2.393669274118825E-9,-2.2958585916623163E-9,-2.0570555321005045E-9,-9.468602114940272E-10,-1.2490610175770896E-9,-1.77908129661615E-9,2.570166585186573E-10,1.7463278201391855E-9,8.015487582221976E-10,-1.6201919181897572E-9,-6.16748264682908E-10,-1.701377055965626E-10,7.959973476143894E-10,1.9700387300113853E-10,-2.1986742079601906E-9,-7.322071232037461E-10,4.29921682633548E-10,-8.430360333966594E-10,-1.2920360754315881E-9,-2.2678239051424765E-9,-1.1251371308662696E-9,-3.6031618813725237E-10,-2.895219007013946E-9,-6.857187637990651E-10,6.523401390603057E-10,-1.2760530002538697E-9,-2.4337700164840234E-9,-7.624563597460834E-10,-9.581178805638076E-10,3.322938462260435E-10,-2.069800380607401E-9,-7.061945738432123E-10,7.979233631808355E-10,-9.576544582777137E-10,6.831289260431638E-10,-3.909202406347555E-10,8.959979172704515E-10,-4.1591320087248405E-10,1.9454626469386327E-9,6.31629031573127E-10,8.230806913794661E-10,4.323921711421216E-10,-8.30590571774848E-11,5.1136475275723226E-11,-1.5687989148109843E-9,-1.9953932202176332E-9,-5.247010165722522E-10,-1.3750957064707029E-9,-1.9812051726575024E-9,-1.2098350346331766E-9,-1.339901074701346E-9,-2.9876707745893674E-9,1.544166153832834E-9,1.2670282822308972E-11,-3.974724907149169E-9,-3.916136094080441E-9,-1.9682115572417262E-9,-3.1590309844442833E-9,-2.96116760051112E-10,-1.874150345852653E-9,-2.1636738901749036E-9,-1.351526014431038E-9,-5.042991654905244E-10,1.552252945337703E-9,3.844847573314928E-10,-7.67329940550207E-10,1.7255304357874428E-10,-4.5366450925585255E-10,-7.011031797100933E-10,-1.1054356752570103E-9,3.4251766801086636E-10,3.5930180733142724E-10,-1.3856217922194808E-9,-1.0552698512331679E-9,7.610784281054082E-10,-4.760126815971927E-10,-2.7065316796774854E-9,-4.369833558991471E-10,-2.1507413995356084E-9,-1.989928365934437E-9,-1.9561533376187835E-10,-1.1667984081480858E-9,-1.5290516883773412E-9,-8.836619159697193E-10,-2.588547188862367E-9,-6.256730305754076E-10,1.7419653402441422E-9,-1.9315057362321267E-9,-1.1158228823461522E-9,2.1660767682210053E-9,1.9024986338571753E-9,3.6893078201714956E-10,1.1883144895601624E-9,-6.79508839687579E-10,-1.0983638075765125E-9,1.2158960187118224E-10,-1.7010651274273092E-10,1.4266976885804765E-9,1.4010825410710734E-9,-2.2977126315454048E-10,-8.160695364354117E-11,-1.0205360522908036E-9,-1.2676270464653152E-9,-2.2958308950197323E-9,-2.356440403550616E-9,-1.5819553202473754E-9,-2.7169511836950043E-9,-1.2205659624115974E-9,-5.752224810825362E-10,-1.5154244702610555E-9,-4.031044650265516E-9,-5.817556855476207E-10,-1.996681680084242E-9,-1.1465478489627203E-9,-6.154643989510484E-10,-1.3271556558105865E-9,7.276226303006036E-10,7.720254615662418E-10,-5.134120319839352E-10,2.667903788102448E-10,1.4503433333488927E-9,-6.421784548463481E-10,-5.867699878753766E-10,2.236218206139004E-9,-1.1545986790889077E-9,2.3640486166104533E-10,-5.549512142127982E-10,2.0110580274704478E-9,-1.8344775432492203E-9,-1.954036812578498E-9,-1.2612933528447413E-9,-2.9072057080038246E-9,-3.0421668525714426E-9,-1.8877158373214856E-9,-8.948998955121043E-10,-1.3452055590387713E-9,1.2234592542391644E-9,-4.337502889443715E-10,-1.7190707341106746E-9,-2.398187686907082E-9,5.557799056322483E-11,-8.178933054143089E-11,2.882658659916784E-10,8.852663895692821E-10,-1.398141252436402E-9,-1.0801152618968196E-9,-5.712441475884445E-10,6.231757700890348E-10,1.891975112999519E-9,-6.764622180126944E-10,-1.5223258015292847E-9,4.6028355489114795E-10,-9.603031787098925E-10,2.5787602062675387E-10,2.3667151326956066E-9,-8.923193450952823E-10,-1.1442936089817825E-10,-5.386873501307815E-10,-1.808350262331664E-9,-1.639115099367587E-9,-2.7336301828938324E-9,1.4141429697338146E-9,-1.9776506049310245E-9,1.7229938210492676E-9,-3.467712650975642E-10,-1.4715825436042052E-9,-1.2902175444274422E-9,-2.390131450107369E-9,-5.900645880466763E-10,1.0314888306959758E-10,8.74617821660311E-11,-1.802601475028607E-9,-1.273958393349744E-9,-1.2131263399411301E-9,-5.078359561096548E-10,1.525585789662938E-9,-1.1408522460549653E-9,1.8638272394239207E-9,4.3632951710079504E-10,-1.5327760837365947E-9,-9.49516533644147E-10,3.349029881369074E-10,3.7676228366276736E-10,3.5040342581069026E-10,1.4606006193022843E-10,-1.0164132852318203E-9,-2.5950956619804623E-9,9.67331169487656E-10,-1.942540417469447E-9,-6.024700688141062E-10,-9.395463407894547E-10,2.5192478857075276E-9,5.84844898816791E-10,6.777508559235722E-10,-1.7251721801438634E-9,2.5230742650736026E-10,-2.2981202310828575E-9,-1.0632636952855478E-9,-5.379424311560834E-10,4.169657247069323E-10,6.269655914886427E-10,5.869593331411082E-10,4.060433726344019E-10,6.114941291265879E-10,6.815532490179469E-10,-1.4320358512050755E-10,-1.2653621502389904E-9,-8.276255224604369E-10,1.5416585141403982E-9,-6.617022506316902E-10,-5.905289906284433E-11,-1.3398079836581633E-9,-5.601753082077019E-10,8.433922878225033E-10,-2.1211153424004522E-9,-6.370216102991926E-10,-2.348391277957105E-9,3.7201815949548015E-10,2.188744982497128E-10,-4.34718907304525E-10,-1.858775343625984E-10,-8.518989880070646E-10,9.413782669797007E-11,-3.1658479955593962E-9,-1.680409185026297E-9,-9.771084673444754E-10,-8.424794938241817E-10,-1.0000360980400164E-9,1.2731081705601354E-9,3.289632878181288E-10,-3.997672274302704E-10,8.194940712129261E-11,1.0505366719281314E-9,3.3267463432315736E-10,-1.3773586299292188E-9,-5.499878884318806E-10,-6.920272127362093E-10,1.15526290229747E-10,-1.117769992797494E-9,-9.461425222164239E-10,-8.399674028155561E-11,-9.342312866022179E-10,-6.091212835423739E-10,-8.557705361936105E-10,-1.2410152370951768E-9,-1.4111110385475068E-9,1.9018722730578338E-9,4.3973152447135307E-10,-1.5653626587931533E-9,-7.618867287641195E-10,6.089812960099774E-10,-8.019845577614805E-10,-2.466655010945312E-9,-3.0811982239373177E-9,-1.0762070611792122E-9,4.5583171386644446E-10,-8.084852720908993E-12,-1.675719715392421E-9,-3.477220677618565E-10,-3.1782089508077393E-10,-8.694003767328426E-10,-2.1014862099562565E-10,-5.44253115726245E-10,6.513669504772476E-10,6.005367837282699E-10,-7.041514249481436E-10,-4.714432904207964E-10,-1.2417340163323187E-9,-1.1487708917593978E-9,-3.8350432843642513E-10,-5.610735431413219E-10,-3.5107958774598724E-10,5.099372725493992E-10,-1.6716419377861048E-9,-2.450131573156012E-9,-2.168321010036316E-9,-2.8804699677029684E-9,-1.3997099117629516E-9,-8.461024389349329E-10,-1.469966598564984E-10,-2.52482722861174E-9,5.865433216497095E-10,-1.3645209225182514E-9,-4.596796664569819E-11,9.147824432477797E-10,1.9299993750297913E-9,5.636216136770188E-11,-1.3762137488758042E-9,-6.05866200016592E-10,-6.607756981040997E-10,1.9362897154124904E-9,-2.940257756207645E-10,-9.140470213759796E-10,-1.0910278773904033E-9,-9.302259731258288E-10,2.708251636534105E-10,-8.10542824601063E-10,-6.222779798695505E-10,-1.0190448270268718E-9,7.968452806360236E-10,-1.6389701604173768E-9,-1.0445655893804337E-9,-4.2972011791224345E-9,-2.405497276197708E-9,-2.622484123424916E-9,-1.5306085979577228E-9,-2.1296797994508343E-9,6.993919161205235E-11,-2.338755571804788E-9,-2.0644036812548647E-9,-1.6895000843903543E-9,1.5608784474635931E-9,-6.99755942170081E-10,-1.4566347586955598E-9,1.320232947475479E-9,2.51604294263737E-10,1.4842054926479426E-9,4.899244647564734E-10,-1.5613034334222225E-9,2.5687642831542036E-9,-1.775341777448789E-10,8.169656412898437E-10,-1.8803160970337282E-9,-3.1371895817565253E-9,2.0642323474037133E-9,-9.216778488293335E-10,-2.557397093371522E-9,-1.2183674573403596E-9,-6.613607446829592E-10,-8.160174736084526E-10,-9.211348097120736E-10,-5.875025882259415E-10,-5.228849882696331E-10,5.644006587819035E-10,7.14185712841893E-10,3.990918518245547E-10,-3.2920868846564076E-11,1.2542297684263928E-9,-4.780781647696259E-10,-1.8115866527526508E-9,-4.883749058258142E-10,-2.3903911156251928E-9,-1.971379344530988E-9,-6.657860854556879E-10,-1.2718741514530386E-9,-7.673421341583402E-10,-8.644437655160951E-10,1.6317133901140586E-10,-5.68135408185491E-10,-1.1094873717740091E-9,4.597272523762995E-10,3.206079241852069E-10,-1.9641442159184944E-9,2.015133136405692E-10,-5.027619869642207E-10,-7.509187176041928E-10,-3.41057919398232E-10,-1.6443885082132673E-11,4.347617405662083E-10,-6.167616434081522E-11,9.541237927953092E-10,-1.8357066751728802E-10,-1.4256594424638656E-9,-1.841631242476328E-9,-2.7068006638323483E-9,1.0575721909771897E-9,-5.847589503324883E-10,-9.819227764917232E-10,1.2688981275275526E-9,1.982746062953412E-9,-1.6461526959050111E-9,1.0398188465399979E-9,1.2255997709017313E-9,-2.4620958032183103E-9,-3.0542773915190124E-10,6.327993880124732E-10,1.8225087379745001E-9,-3.098243973325322E-10,8.629047982845287E-10,3.6731141557616314E-10,2.254165669279416E-9,-4.209853946863277E-10,-8.533227115249408E-10,1.4165866489459363E-9,1.0706671639077379E-9,-1.6585708785462038E-9,1.7829482002612641E-9,7.502848715937274E-10,-8.247016743813271E-10,4.1518092554315765E-11,6.390885756688729E-10,-3.3525709988226955E-10,-1.1074740267975736E-9,-7.556200200373607E-10,6.264903223855712E-10,7.562823581792183E-10,-2.388549720423245E-9,-8.77251957605855E-10,-5.370764058186684E-10,1.7681798699944166E-9,-1.8532705667876764E-9,-8.585589241232372E-10,1.8939269497054775E-9,7.898936922595263E-10,-1.6189137133865681E-9,1.6328814579320898E-9,-1.2171042631511353E-9,2.2157218406977316E-9,-1.1076959224899938E-9,-1.5409559888499333E-9,1.2999382198570867E-9,-1.3685282937466826E-9,-3.813538163989492E-10,-2.5426549848599525E-10,5.265472538898254E-10,-6.71941507197863E-10,1.2570699398156819E-9,-7.79917683637735E-10,1.5822840944295942E-9,-1.1369895017022553E-9,6.557759538573313E-10,-1.3352031402179262E-10,4.02443553758276E-10,-7.860503610905007E-10,4.045642399554115E-10,-6.317452553788631E-10,-1.3884905688559688E-9,-1.1500729632257824E-9,1.3539459576813551E-9,1.1937467955433795E-9]},"totalBatches":2448,"totalItems":12240000,"recordSignalMetrics":false},"f0bf3ed8-9135-4602-bfbf-ec683494f62e":{"class":"com.simiacryptus.mindseye.layers.java.MonitoringWrapperLayer","id":"f0bf3ed8-9135-4602-bfbf-ec683494f62e","isFrozen":false,"name":"FullyConnectedLayer/2731f4f0-15b8-4d99-bfa1-d1dca6d9893a","inner":{"class":"com.simiacryptus.mindseye.layers.java.FullyConnectedLayer","id":"2731f4f0-15b8-4d99-bfa1-d1dca6d9893a","isFrozen":false,"name":"FullyConnectedLayer/2731f4f0-15b8-4d99-bfa1-d1dca6d9893a","outputDims":[10],"inputDims":[28,28,1],"weights":[[1.842921705910216E-4,5.332153549302944E-4,5.16064414830288E-4,1.2135258458590392E-4,6.44608186904277E-5,-4.4640722040592697E-4,-1.3875540783806433E-4,-4.995897477230407E-5,3.991249481001474E-4,-3.9391357471308216E-4,4.322120920140695E-4,-8.483339554786232E-5,-4.436245803722677E-5,2.3420106963307057E-4,-1.9494131895494857E-4,-2.914644628074932E-4,4.903989216814811E-4,1.286447040523436E-5,2.684260583979097E-4,1.4291264795180932E-4,1.5116981390881235E-4,-1.3772973990109396E-4,-9.489107742413036E-5,-2.4842715045109447E-4,-1.1008017838961506E-5,3.491782983066373E-4,-2.661294664045911E-4,5.007004033292385E-4,-2.3204388688258292E-4,5.423441486918265E-4,2.836108034873229E-4,-2.950053742401128E-5,3.165748130348676E-4,2.394855658506405E-6,-3.198982391903921E-4,-1.4445873886071646E-4,-2.847656628050197E-4,2.0740447520927794E-4,-1.4733010137774787E-4,-2.9884410682809746E-4,3.1500324960513306E-4,4.068290172143477E-4,4.083215087691746E-4,-3.7809706832063526E-4,9.387496882536483E-5,4.19930827798362E-4,8.13209544828865E-5,-1.9913253635247632E-4,-3.41597795124565E-4,2.5262062176965335E-4,5.380154865641558E-4,4.894962561965741E-4,7.833840101835544E-5,-2.0178621302815297E-4,4.361782429078357E-4,2.478230358468501E-4,-3.962581858951261E-4,3.697913095322201E-5,-3.0283270320693756E-4,-2.059104269686286E-4,1.1483592466359636E-4,-1.7744258291768335E-4,-1.546868369990592E-5,3.591049473354289E-4,1.136889550969224E-4,5.412342866341031E-4,2.9206458721234854E-4,1.0028923686105503E-5,-2.801285057595813E-4,-4.0896775229834134E-4,-2.778562033672092E-4,2.6980514773345006E-4,-5.391040762664112E-5,3.0035318150076646E-4,4.98140659690883E-4,-1.9047743649866963E-4,1.0729250233367324E-5,-2.644515961429065E-4,-4.2690607552857727E-4,7.312505285029436E-5,5.120052740181107E-4,-2.2532986568660036E-4,-4.033103683544634E-4,1.5680786830917257E-4,-3.8915172265882077E-4,-1.0226740604151272E-4,-2.4244840699247868E-4,4.98629394683111E-4,-1.3442115416335856E-4,2.2309397090927065E-4,4.2413034089770394E-4,8.061012926697714E-5,-2.838389962989723E-4,-6.801487589840747E-6,-2.6075750478609343E-4,4.5779307327298627E-4,4.891417082676189E-4,-2.950932855912925E-4,2.681171517533831E-4,-3.164280244061724E-4,-2.013983425553755E-4,-2.840628068695914E-4,3.65262820008062E-4,3.125744620454475E-5,-9.205430868366777E-6,4.889952204200095E-4,2.66924396439808E-4,5.361952728548865E-4,5.35444178484334E-4,5.112034290664449E-4,-3.422785922926263E-4,-2.557895298307308E-4,2.5927724092217195E-4,5.356570089177274E-4,8.997897703627441E-5,7.937840826307862E-5,-2.3379682301878082E-4,-1.1239828617848896E-4,4.0729736680709076E-4,-3.2719216371951713E-4,3.492020567239257E-4,-1.4536371391717074E-4,-1.7458992401466457E-4,-4.212832419889742E-4,-3.9393413946722187E-4,-6.405945290754989E-5,-3.3663136852381183E-4,-3.2869270941300946E-4,4.609659815309978E-4,-1.5668450951129332E-4,-1.7442639088605897E-4,3.874253211381604E-4,1.2000544818949728E-6,-5.738460741921204E-6,-1.4314725786845862E-4,-5.63371075938848E-5,3.300243987345167E-4,-3.5086954531441034E-4,-2.4060926737130308E-4,-7.59416445169417E-5,-1.031802986995472E-4,-1.5683636058849793E-4,-4.200530122322672E-4,-1.057451465799957E-4,5.031575537178882E-4,-2.602645757523198E-4,9.989309858711776E-5,2.84110101722869E-4,-2.958024416246991E-4,2.900490178339446E-4,-4.4129515627874957E-4,-3.3069462069207177E-4,-1.4609892714389415E-4,4.4141895889898426E-4,-9.9022735916517E-5,3.7495242802294837E-4,5.010145746610333E-4,-1.2170694568077332E-4,4.6933508393769347E-4,2.750427518564494E-4,1.4459633386554248E-4,-3.41727142680702E-4,-1.7398872636678584E-4,4.8187724680078957E-4,2.591026303898273E-4,4.887453154353377E-4,4.2733314132990856E-4,-1.279129635681228E-4,3.1476221323876335E-4,-1.7512531227268434E-4,-3.3473028412524963E-4,1.210957121094472E-4,1.7294250820790045E-5,-3.3885331952661975E-4,-4.306381512275454E-4,3.9657540046758295E-4,-1.5794086094133013E-4,2.934242130792854E-4,1.5160889317822015E-4,-9.388188164343455E-5,1.614803113287137E-4,8.53943695219602E-5,2.8122962314504216E-4,-3.291625559577804E-4,-1.1929757797504241E-4,2.888356668710921E-4,3.278150887373677E-4,-1.2713199556432263E-4,2.0213182628935417E-4,-3.8851668088261314E-4,-4.716792336268768E-6,-1.157655042886096E-4,-2.5264869186073565E-4,3.134608476783832E-4,3.232841569963554E-5,3.229499458650386E-4,-4.161962961329987E-4,-2.0410482350973578E-4,5.1173839527687E-4,-3.894087634450584E-4,-4.2991617092928496E-4,4.262186571920094E-4,4.938685504145822E-4,-4.1286683224624643E-4,2.2265072931968265E-4,1.1151022222302614E-4,-3.3507640734878026E-4,1.3630762232767665E-4,-3.350071438081507E-4,4.476566447915713E-4,-1.9053304045035091E-4,1.3839728121379057E-4,-2.967831372951793E-4,-3.458885749252294E-4,5.5970956063605164E-5,-3.803255600528094E-4,2.6298785997105754E-4,4.282504272943811E-4,1.817447712356183E-5,2.0956804757213488E-4,-3.7632671505878146E-4,5.235587519919327E-4,-1.9604707152650835E-4,-3.258807261563542E-5,-1.9829675844101045E-4,-1.7292407233140516E-4,-3.4644739152262633E-4,-3.526994791525224E-4,3.784418412958671E-4,3.2021985346533487E-4,3.592925795247085E-4,-4.082566028431505E-4,-3.2533115994015806E-5,3.8899930969267185E-4,4.168582300141719E-4,3.1246533944709416E-5,4.5772315402450934E-4,1.5608289825877524E-4,-4.1245987404087214E-5,3.595441429814776E-5,3.2650381947279145E-4,1.6017079285621965E-4,-5.4340919351524506E-5,-1.1855025508861925E-4,-9.528336050930248E-5,-2.3311895200458295E-4,2.793977285198939E-4,3.5516155304390055E-4,-3.6760117449036753E-4,3.694225676521675E-4,-8.369067421568562E-5,-3.721605856658422E-4,3.56099800527023E-4,4.1747662965554543E-4,4.317761294611454E-4,1.2858611097418753E-4,-2.0011515831042247E-4,-1.9417056145954484E-5,-1.397575532165459E-4,-3.7780540203755195E-4,-3.6082137874543865E-4,-4.1979685425031003E-4,3.6916829475858507E-4,-3.348498112652091E-4,2.4674759347618986E-4,1.0593856010498025E-4,5.10543902304319E-5,-2.5539685906027905E-5,3.633236567313201E-4,-2.820532299375563E-4,-1.7688753901644628E-4,-1.6504260314144272E-4,5.090349377663114E-4,-1.1905104685915174E-4,-2.846392498140935E-4,-3.380779277183479E-4,5.370334311925387E-5,-3.848062778026184E-4,-1.889986201564214E-4,4.7723806626304296E-4,-3.189177432014534E-4,4.2163944904086446E-4,2.3556355547791713E-4,7.278963036153245E-5,2.4562028531695154E-4,1.8866692449117352E-4,4.1710347625803176E-4,-2.6754102109352584E-4,-3.9344821951528027E-4,-4.100130430293411E-4,-3.796434774491976E-4,8.308272897862455E-5,-3.807228661810999E-4,-9.195717302374961E-5,-1.8079218325246882E-4,1.2041417965746553E-4,3.5093899430463393E-4,-2.624158407279157E-4,-3.8773199000576773E-4,-7.937185644080464E-5,1.542296217602079E-4,-2.1476771472443706E-4,-1.4180058756858275E-5,-2.7961808962756625E-4,2.4494152302468117E-4,1.6883571491391989E-4,-9.568372999655173E-5,1.6445113597495672E-4,3.222088721101317E-4,4.125437064371603E-4,-3.88385932272277E-4,3.0726992171628336E-4,-9.97190169550363E-5,3.7467033165666927E-4,5.249074776057627E-4,-4.492047665045573E-4,-3.1154035813425485E-4,-4.276858159899475E-4,-2.4727304384562836E-4,4.214424497788478E-4,-2.2716660928886646E-5,-3.550600802988677E-6,-5.9623682059201715E-5,-6.76561405938906E-5,-1.1280295606152066E-4,2.0670128081295703E-4,3.2294941000297024E-5,2.6599869198418044E-4,7.472560718957771E-5,-3.0257243968811754E-4,4.229354730144166E-4,-2.1931858700745813E-4,7.085839644612305E-5,-3.482854638121882E-4,5.970296439576037E-5,-1.5509923160050802E-4,2.454438437674441E-4,5.251410315346122E-4,-3.439220694535594E-4,1.7936253742565204E-4,3.074396847806446E-4,-4.2454886425951336E-4,-1.1556177825481012E-4,-1.2048687889674276E-5,1.454182629382333E-5,4.250362891215232E-4,-4.2024942135114775E-4,-1.3056560110144045E-4,3.5850985177434644E-4,-4.2521448703312817E-4,-1.8658398835332175E-4,-1.6572376302122034E-4,-7.668336683003939E-5,-3.178802141281533E-4,3.34970160284841E-4,3.741530602320455E-4,1.4948464220191927E-4,-2.628550575816712E-4,-2.1923221664971225E-4,4.299523572090712E-4,4.7990592077151685E-4,-4.0967437760547007E-4,3.4608353428930346E-4,-1.9983029683107972E-4,5.167747818829955E-4,-2.7004777236657275E-5,1.8565897058302834E-4,-2.536796388433171E-4,-1.3703648043454335E-4,9.473660501532536E-5,2.5221639492526137E-4,4.5078587761318177E-4,-1.0156741016244712E-4,1.5867069383510935E-4,2.460681525789495E-4,-1.7539100426317212E-4,4.332838533164923E-4,-2.542130177192733E-4,4.1498793704116495E-4,-1.5097412997478263E-4,1.4646069147960844E-4,3.4242847907474405E-4,-3.827617722607824E-4,3.374792253988228E-4,-3.5279046319499523E-4,-1.1908325832275138E-4,-3.1861182434794326E-4,1.546270379865647E-4,-4.0183454182025116E-4,3.674883049913644E-5,2.113836637314097E-4,3.636150581917517E-4,-3.759925577055292E-4,3.7815632605967827E-4,9.118535333617732E-5,-1.0726010735329722E-4,2.1371899728599633E-4,7.041725702565911E-5,4.020441939666991E-4,-4.1300952653045735E-4,-2.109380673337977E-4,2.0395529588646273E-4,-1.472602649803946E-4,-3.0792244228659816E-4,3.7489599105860517E-4,-1.2164905812017059E-5,3.621736735974396E-5,-3.5386168762217764E-4,2.6360791061542796E-4,-3.377164214079312E-4,-2.693869541944614E-4,4.0050821327594875E-5,4.956755475210678E-4,3.6652551821984955E-4,-2.967233416724442E-4,1.346051780178767E-6,2.5507293637609175E-4,-1.2214446122813034E-4,-6.718419564538281E-5,3.181955658705765E-4,-3.9199834416726517E-4,4.4099321639687995E-4,-9.529833889125833E-5,3.5071396635995164E-4,-3.325167882212767E-4,5.203068292781128E-4,-2.743772086601461E-4,2.2407017821211045E-4,-3.403814849691293E-4,-5.83632021887779E-5,-1.0319189870138488E-4,5.447457818172524E-4,-4.1093850966534163E-4,-8.140453951167276E-5,-9.626784687775826E-5,1.6693160326679573E-5,4.992528002726253E-4,4.932406015966497E-4,-2.1467374837353127E-4,-1.0038942790437642E-4,1.3514511164878013E-4,-1.7969351727099392E-4,5.06653966641296E-4,1.460811537530861E-4,2.253080265561117E-4,2.340766383059225E-4,4.12382154887285E-4,3.2071073987913944E-4,-2.7679948419041665E-4,5.131975541568358E-4,4.1050633920533303E-4,-3.412357235150791E-4,2.2602806609839097E-5,3.122796409671902E-5,3.751832738566756E-4,1.5313641988817298E-4,4.193535292592915E-4,2.157243641320033E-4,3.901906273810577E-4,-1.236128792027669E-4,-4.0964878812626643E-4,5.073315977903672E-4,2.0699161436737605E-4,-8.474700993500263E-5,-1.979957733098506E-4,-2.7600102407546005E-5,-1.260265680529791E-4,-3.586150640908385E-4,-1.9611364380164804E-4,3.9575327970631874E-5,-2.1399923080788632E-4,5.213747113537526E-4,-1.3174432149278112E-4,2.2892710128580353E-5,-1.609496589760236E-4,3.695243061030864E-4,1.4192921386628468E-4,-1.1229686120345632E-4,5.461425482937516E-4,-4.495703000337262E-4,2.0369621343948392E-4,-4.09490095088782E-4,-1.8343298347970168E-4,-4.326686272833829E-6,-9.642462143633988E-5,3.1369134622524574E-4,4.219584894825602E-4,-2.1452533859128936E-4,-2.393171095791901E-4,-2.0928596678334487E-4,2.4232485983127995E-5,4.494216282569395E-5,-3.425792083780725E-4,4.6846198590964726E-4,-2.2057052934877194E-4,-2.431763146684158E-4,3.957673488743682E-4,4.078486859611772E-4,-4.1332717536302495E-4,1.638516977331201E-4,-4.3197345446615144E-4,4.229902287431027E-4,3.7361022785436794E-4,-1.4168281306467935E-4,-2.122401484303606E-4,-2.066680105739172E-4,-9.952816515806203E-5,-2.493590959811207E-4,-9.541769123227247E-5,-1.114961360900718E-4,-1.1076417951777976E-4,-2.801662102263838E-4,-4.585153183563288E-5,-3.8859185634072535E-5,5.324243744035523E-4,-4.350647073901327E-4,5.356735112520312E-4,7.060882174494878E-5,-1.7549194688468582E-4,2.8569919962614037E-4,-9.521643504753472E-5,-1.913698656403648E-4,-3.808298411528219E-4,-2.983480381854023E-4,1.968957890151154E-4,6.864419983960973E-5,-1.4906144794680292E-4,3.564644644710423E-4,5.716453098475855E-5,2.7403718710149703E-4,-3.043083864604523E-4,-1.1665634079280096E-4,1.246930457753082E-4,-2.9344895197005327E-4,-2.5200709051161963E-4,3.1569332626256793E-4,-1.8732338411040685E-4,2.9851390577932045E-4,-2.902202742954363E-4,-4.476835644516105E-4,-1.8011284002544077E-4,-2.6690336098990786E-4,-1.4140278547539726E-4,1.1508965613845479E-4,-1.259185003619343E-4,-2.448304721578697E-4,-1.5265911248043133E-4,4.737946102454007E-5,1.965652421272E-4,2.1562047531224616E-4,1.002514908643748E-4,1.345955469905794E-4,3.5093060478928186E-4,-1.173076389013798E-4,1.4149388345565106E-6,1.0965903910816434E-4,-1.576356899644018E-4,-2.1989390427562956E-4,4.5835353580671567E-4,5.176644558642278E-4,-4.476222615511737E-4,3.5051920413848176E-4,-1.3163227102720658E-4,5.942437601697899E-5,3.5758644732729154E-4,-3.973598958238326E-4,-1.1232164295980406E-4,2.3924328167203432E-4,1.6920933301400109E-4,7.60592467052204E-5,2.7124650137397467E-4,-2.215430633742373E-4,-7.511289013390973E-5,-1.0692527672028802E-4,2.1519374230006522E-4,-4.3085520782251994E-4,-2.5516232543077566E-4,1.5694409062225716E-4,2.364796351589629E-4,2.799055337405994E-4,-4.4575499446966507E-4,-1.0603111546838704E-4,-4.288839654221845E-4,2.928338941997951E-4,3.9661547013370207E-5,5.335647546367014E-4,3.736909109644504E-4,5.878849162602797E-5,2.8771070604080497E-4,2.3275469432577464E-4,-9.500183332718518E-5,1.710239137437679E-4,1.3120651347415748E-4,3.5423342781505586E-4,3.756105512635212E-4,-3.793182983768653E-4,4.720759487570113E-4,2.861388825681771E-4,-1.275310258732806E-4,-3.706566897742849E-4,2.9873259440679274E-5,1.7734282739091843E-4,3.9800372194113607E-4,2.765532538774523E-4,2.9409481450505596E-4,2.1724154987137195E-4,-3.2808296756565357E-4,2.936198808095493E-4,-4.196343465468595E-5,-3.8849747188201634E-4,2.8677383823751357E-4,4.142619733048732E-4,-7.924532074342079E-5,3.723796339228506E-5,4.433860470477537E-4,-3.714123311675532E-5,7.644901214222136E-5,4.016297435246701E-4,-2.2712388114053315E-4,-2.9551872675347444E-4,3.4960915044025863E-4,4.887185213465591E-4,3.3700217200409553E-6,3.04341158228757E-4,-3.247682882984815E-4,3.137738831449249E-4,-2.3370632602602074E-4,-1.7081774032248642E-4,-1.7008171671344726E-4,-4.3866747288198667E-4,5.322170863409082E-4,-1.6941270635115112E-4,-1.0208398791388955E-4,-8.42439580172252E-5,2.0073073745830662E-4,-3.4979609225727575E-4,3.752486356857473E-4,-1.737889392631987E-4,-1.9181576804182788E-4,1.250554964468885E-4,-1.2657110406250215E-4,-3.7384293975067934E-4,2.3048766851037214E-4,-4.1725159152188426E-4,-2.272016684270342E-4,2.2126292961028695E-4,-8.60874539423717E-5,3.094536551852531E-4,-3.1204778400226185E-4,4.313438722657118E-4,-1.412975062863462E-4,1.3512749076988358E-4,4.6309383606382037E-4,4.1638235209982035E-4,2.2863592702279908E-4,-2.775937273561423E-4,2.8374310008517343E-6,-8.582687664785177E-6,-2.3932952913786177E-4,3.1128453899088957E-4,3.76126341314758E-4,3.939374483868179E-5,-4.263312145442325E-4,2.488288294454038E-4,-1.185231946917161E-4,4.902722877866676E-4,-1.7342257840485887E-4,-1.1317802969122803E-4,-2.7224745111279196E-4,3.3874387362363726E-4,2.382931040959431E-4,-4.2879573918521856E-4,-2.9316795177962483E-4,-1.8962391555030529E-6,-3.8147868739478626E-4,1.4195422970974888E-4,2.683852947281718E-4,-2.610189573443091E-4,-3.264397270638475E-4,-2.280189991452788E-4,1.0541072143929452E-4,-2.3614230519822946E-4,-5.774266406583541E-5,3.544144177560551E-4,3.723240917247761E-4,-2.1759666614867886E-4,-4.385625470335787E-5,-4.0408372416841394E-4,2.854401985149812E-4,2.8569886477140474E-4,-3.3044973466595624E-4,-3.5119165492954187E-5,2.3318984190026618E-4,6.098129416857414E-6,-1.360278653228626E-4,3.0376552606267026E-4,-1.8668255564375247E-4,3.175037097659216E-5,2.479174927883522E-5,1.5587385469524767E-5,4.359505196635348E-4,-1.6869916530201994E-5,-3.134259430487579E-4,2.1553179524082285E-4,3.662874417983779E-4,4.1597083484923135E-4,2.3261332634056872E-4,-2.4286892355177166E-4,1.836210571475317E-4,1.2295255164251206E-4,-2.2443626216292364E-4,-3.828755399535429E-4,-1.5261074406698174E-4,2.6970100329291733E-4,2.833950420405388E-4,-1.4843197262532764E-4,2.2205977787746975E-4,4.7079983290483906E-4,3.1565354605266044E-4,-3.235397376162424E-4,-8.552702111152156E-5,5.34964991913137E-4,7.840611426194122E-6,4.508198024036304E-4,-3.8849684855081116E-4,-1.604562227642882E-4,1.8792875164440472E-4,-1.4526262368482664E-4,4.3641522377791994E-5,-1.2786337690415402E-4,3.6802456858528237E-4,1.0251746360073297E-4,5.014350843919027E-4,4.917818162476436E-5,-2.1674931828585928E-4,2.366076176747031E-5,-2.377136062166436E-4,-3.508333041356663E-4,-4.5497274689791596E-4,1.832169431223155E-4,4.259341705966236E-4,-1.0107500047018161E-4,4.3063795441903707E-4,1.8418292070558316E-4,1.643804289594912E-4,5.023855640636947E-4,-2.284785695792356E-4,-2.443188779032146E-4,-2.2037613550233133E-4,3.147404593663999E-4,-2.483764274217168E-4,-3.4618102069937357E-4,5.5600828919544695E-5,4.579946484721771E-4,2.703092656116468E-6,-1.0122394874854646E-4,5.127976275914588E-4,-7.454672177820449E-5,5.210755251840045E-4,2.880719288768139E-4,-4.041666707872831E-4,-1.0114889452431957E-4,-3.484170484039749E-4,-2.1066404866442769E-4,1.2252146858568976E-4,-2.512648219524901E-4,-1.976870911679732E-4,5.169589827804235E-4,2.1769040391111385E-4,-8.220050324439797E-5,-4.1330826480541813E-4,-2.118034699531171E-4,1.465224545612302E-4,-3.120760403016283E-4,9.578716865244373E-6,-3.9335402969267746E-4,-6.876161669930118E-5,3.811986490353194E-4,-1.5829455710207903E-4,-4.514072098055694E-4,4.907518572595275E-4,4.107999282301549E-5,3.7225739717202435E-4,4.472005592272263E-4],[4.27393096942843E-4,-3.520616944071641E-4,2.585300621080611E-4,2.8669974581649224E-4,-2.719080907863935E-4,-1.572022271257076E-4,-1.561503498557564E-4,5.436532918412287E-4,-1.5312481610083988E-4,-2.6513826240057403E-4,5.048216248129325E-4,1.3299239130106438E-4,-2.689133363042533E-4,3.9049044851367326E-4,-1.4849829846409052E-4,-3.441066245671666E-4,-2.983323449885185E-4,-4.384673232857629E-4,-2.977710976127E-4,4.1452593591037834E-4,8.766289206443996E-5,-3.353275864512111E-4,1.1486012046292714E-4,2.479701342925578E-4,-1.0206000134862139E-4,-2.261367241144002E-4,7.518822266304492E-5,-1.4716615637322064E-4,2.5239098737745645E-4,4.331816938176481E-4,-4.005138609411106E-4,-3.543959427400641E-4,3.4053884711221646E-4,4.5793770883424944E-4,-8.471151534231976E-5,9.421075639477495E-5,-3.537239614429677E-4,3.1399171025974903E-4,4.132712565518193E-4,3.436403838587937E-4,1.0474274444338696E-4,-1.4256966801770758E-4,-2.1706975464620546E-4,4.0897854278874304E-4,2.637657373083761E-4,5.401658711946569E-4,5.451998729979475E-4,-3.208933081876912E-4,-6.026271696130532E-5,3.9847819289862694E-4,2.0356571583999156E-4,5.471758942190394E-5,1.789842943118844E-4,5.441241234405455E-4,4.736177755283338E-4,-3.2748665965779604E-6,4.900284029021115E-4,1.6500203552842213E-5,2.729690400557436E-4,-9.70338394573954E-5,-1.779641559716784E-4,-2.5841917168078766E-4,1.6447884722275546E-4,-3.536594735649369E-5,3.7520644954027566E-4,1.0169115211923072E-4,-4.191080539445416E-4,-1.7797918752924353E-4,2.2317616696872593E-4,2.673758873255208E-4,1.292950014264905E-4,-2.461412299747456E-5,1.55562190616595E-5,-2.8205837606686625E-4,2.1837631185375666E-4,-3.388339339715159E-4,2.6481116491443036E-4,2.7467337461495234E-5,3.867417036080813E-4,1.597309609823036E-4,-3.143526980367924E-4,5.00910242682328E-4,1.0387500110094345E-4,-5.324510591052939E-5,1.7058106663037163E-4,2.9214816631987735E-4,-8.806811746505308E-5,2.0308631212857182E-4,-3.1543583706813375E-4,-2.0521699580519092E-4,1.8523481479111736E-4,5.204815866201169E-4,-2.2362326072190004E-4,-2.0769477912595935E-4,-7.240446608647331E-5,2.85630140487926E-4,2.799557886064756E-4,4.1936565582569675E-4,-1.1333444175457233E-5,6.910878920756787E-5,5.157551207244677E-4,3.796374892650167E-4,3.8001378243437246E-4,3.395212897450419E-4,-2.658525039697128E-4,2.84388104299168E-4,1.441325783517685E-4,-2.3125093134059306E-4,3.2210513229501516E-4,2.659077015109607E-4,-2.696693216645528E-4,-3.177587826462096E-4,9.158578130188754E-6,-2.5633250479999706E-4,-1.7534158974471172E-4,3.9923874565664857E-4,-2.5631005860520634E-4,-2.4611723387119814E-4,-2.8738661188383325E-4,4.147373967484145E-4,5.409687589499012E-4,-5.9019593277620565E-5,1.7028173728552592E-4,-8.17795203351515E-5,1.5208367556850054E-4,1.7147384560290252E-5,3.7869441675105164E-4,4.0370742439535035E-4,2.1432472564678412E-4,-1.7035997223289112E-4,8.72267711084049E-5,-1.7224376178883108E-4,1.7554597554019183E-4,-1.4209877711577866E-4,5.400939353219547E-4,-3.0339655634018544E-5,-1.307984654367736E-4,3.87363902580031E-4,2.186409410019623E-5,-2.621934887566377E-4,1.73909231650828E-4,4.933680093048161E-4,3.736653328238501E-5,-3.488662003028959E-5,-5.4126780443063924E-5,-1.3678390360102717E-4,-3.880982492741102E-4,4.546252482119898E-4,2.3743957843193883E-5,-8.50615985199177E-5,-1.741595191008556E-4,5.165220803991622E-4,2.279028771383777E-5,1.677272187381009E-4,4.603158561304433E-4,1.346432645145436E-4,2.4803360353942936E-4,4.0974415657583403E-4,-3.218151406605022E-4,-1.4016308325788868E-4,7.090572960842417E-5,5.076976794534743E-4,1.6865846906123215E-4,-1.0807514320985292E-4,4.3500218643433827E-4,2.9679890702038737E-4,-1.7790410459444695E-4,-3.5049717974267665E-4,-6.621637245059588E-5,3.4927841636216996E-4,4.369131270261334E-4,-3.585281006566147E-4,3.7598593040817234E-4,4.031873792587513E-4,3.9914738178538204E-4,2.6423876085320864E-4,5.241249795688867E-5,-3.0191498205414566E-4,4.85704224031208E-4,-3.6947709357678234E-4,-3.443648218545752E-4,-3.3700062150364505E-4,1.272395145787411E-5,-6.242009244271977E-6,-1.9117631324330116E-4,2.2060674522708524E-4,-4.3104416502839395E-4,-2.9546355225170236E-4,1.80263503375934E-4,3.081557610560622E-4,-3.0028920228305096E-4,3.129599695054053E-4,2.1416834009932076E-4,-2.6762639408793674E-4,-2.6975001244345926E-4,1.492978731021156E-4,-1.3480216931042384E-4,-1.5192859006368605E-4,4.3708480802866055E-4,-3.943099088524426E-4,1.730823109209757E-4,3.902268376347216E-4,5.817524856113118E-4,4.413943934055963E-4,-9.305916939541384E-5,-1.846501697505298E-4,-3.9874534297377014E-4,1.1442682919422522E-4,2.4765880415866787E-4,4.344954930466901E-5,1.180926179931403E-4,1.5244603293735148E-4,1.5434421933868176E-4,-3.4236241487019145E-4,6.342679103983545E-5,4.475045447679026E-4,-1.7495698023205648E-4,-1.388740837711474E-4,-2.559562541258955E-4,3.3536202362761627E-4,1.530515547952353E-4,1.8919550566207742E-4,8.885357159921468E-4,-4.634302896168289E-4,-3.76471301861408E-4,2.5824588019371944E-4,-4.181295130248733E-4,4.2131902368449563E-4,-2.764049562128781E-4,5.066600069951793E-4,2.0582562297959155E-4,-7.905762205749441E-5,2.2045024253642995E-4,-1.1429765577760886E-4,2.4371577489780016E-5,-5.307228001202001E-5,-4.0313892383279005E-5,2.1302713483657454E-5,-3.647439639820917E-4,2.982508175178671E-4,-1.3639948904009308E-4,-2.3713364282117316E-4,7.407014840693797E-4,-3.056780360702604E-5,2.418032730234542E-4,-2.533293368618375E-4,4.39745038583394E-4,4.0122258953691236E-4,-3.5037628938041515E-4,-1.272656042941621E-4,2.3189215845296525E-4,1.0316867239132088E-4,3.074843155534098E-4,-8.267572812661468E-5,-2.887159585293539E-5,4.698258900431022E-4,4.541742460299176E-4,3.431976529602565E-4,1.4171792208778183E-4,4.636301982696364E-4,-3.254764586408951E-4,-2.383461881862839E-5,5.341911747599905E-4,4.6289720256050367E-4,3.51743316775505E-4,2.665259588080989E-4,3.4507772488843655E-4,4.4946171216003983E-4,-2.980742064634884E-4,1.7591008641991543E-4,-2.646154023907443E-4,-4.215457630211501E-4,1.1072489389441055E-4,1.4856937880227013E-4,-4.0411190189317345E-4,-4.569562424789167E-4,-8.219111399085434E-5,-1.4323065986916048E-4,-2.2419646042194413E-4,2.762695739439118E-4,-2.835237049286912E-4,1.1819735047125249E-4,6.142676664551854E-4,-1.4967786914702968E-4,3.5641337424206673E-4,-7.098510697908326E-5,2.5836430658288498E-5,5.599965114052245E-5,2.9626201340671475E-4,-4.016093048007864E-4,1.8933894912881257E-4,2.4162379673767266E-4,-4.424178998795528E-5,3.481095967472739E-4,-3.6460814005571035E-4,-3.0405298157219854E-4,3.6836679684397624E-4,-2.0958574175068326E-4,4.613171234636314E-4,-3.1469068115423367E-4,-7.705258683627969E-5,5.242412432946225E-4,-3.6033195159273324E-4,4.930215847306435E-4,7.210312415599887E-5,-2.0308276003830878E-4,-2.7460915826774216E-4,4.700747966736418E-4,-1.3819088641977423E-4,3.269784907901755E-4,-2.8059754846763285E-4,-2.950419339559922E-4,1.5452998999610916E-4,1.456985289707331E-4,-1.0257109357195517E-5,7.957758904905372E-5,2.2088351832669003E-4,3.2734567757995226E-4,4.959267440953776E-4,-1.7572979945143156E-5,-2.3521749633998666E-4,2.2919625310189608E-4,-4.330424290137162E-6,2.2901201099883277E-4,4.056838366875278E-4,8.926084884406592E-5,1.3128968862888561E-4,1.7568702817605852E-4,-1.963833773725811E-4,-7.205185071546986E-5,3.0084366416095005E-4,6.151316957023708E-5,-3.284736252197401E-4,5.26067683893197E-4,-1.540527550504552E-4,-3.86921933869167E-4,3.2883847311440065E-4,2.18623248273826E-4,-3.2113360838951767E-4,-5.213608238977788E-5,3.8486641593379466E-4,1.2461237587790074E-4,-6.143186867510788E-6,1.265691501282592E-4,8.815025948721302E-5,2.621737599332295E-4,-7.735574372455913E-5,2.960230573353738E-4,4.260632809987528E-4,-4.294038566781476E-4,4.057396327034882E-4,-2.1105777896637608E-4,2.576006826518262E-4,-3.1430663503930704E-4,-6.299123198504128E-5,3.430332609726009E-4,9.010234411932154E-5,-4.3796712365166187E-4,-1.5326941425382863E-5,-2.2995521213861294E-4,-1.823475976632236E-5,3.7329335259051795E-4,3.334377526725812E-4,1.916873383398403E-4,4.51163744179589E-4,2.6584759107314376E-4,-2.7040287177894167E-4,8.99401509163947E-6,-1.1685694454661721E-4,-8.035013567624186E-5,3.7386441718450006E-4,5.3307653441638245E-5,2.6219631301009676E-4,-1.75159789865721E-4,3.8889589405329147E-4,-1.7533713973214062E-4,8.932365664101871E-5,-4.3284381290718414E-4,2.2272577564760947E-5,-1.0736392133850811E-4,-3.188232801238856E-4,-1.9343419048138918E-4,-2.918593622615023E-4,3.37720624543215E-4,3.0918976773159577E-4,-2.4310846755844562E-4,3.837496164333262E-4,-3.4638942941746476E-4,3.7988346523422725E-4,2.0209874779052327E-4,-3.2438272982168666E-5,4.3936112294957336E-4,-2.956205188517001E-4,4.5090433490588646E-4,1.1871785514777572E-4,-1.9837510425817957E-4,-1.2535638936147568E-4,4.079925277200193E-4,4.0497938235522536E-4,3.2309060389080113E-4,4.4477653486891584E-4,3.1144338245298975E-4,3.004535059982698E-5,7.233321762094266E-5,-3.547992241666276E-4,4.3880567887603526E-4,4.1409629694870713E-4,4.8241149870994235E-4,-9.040981728943025E-5,6.033789455036828E-4,2.1535981398233033E-4,5.130796816107111E-4,-3.125660757773175E-5,-8.736847049784327E-6,4.494621618898186E-4,4.7427238386645547E-4,1.3237552713466963E-4,3.355857891376743E-4,4.0216514290791386E-5,3.57227957165273E-4,-2.91896631422857E-4,-4.5704453026138936E-4,-2.7207126106627106E-4,2.4022632166628848E-4,4.6216223573037734E-4,1.1010482835915484E-4,-2.397093051909117E-5,-2.5939056249935907E-4,2.3708650212301131E-4,3.5071071719686316E-4,4.319001655809219E-4,-7.586277254611309E-5,1.3941103203705252E-4,4.1855444294402084E-4,1.4007270258575007E-5,-3.903742743276967E-5,-3.233164366640217E-4,1.2541123521092457E-4,6.81697826840924E-5,2.4481607479378154E-4,-1.6275288933726753E-5,-2.2464039375216823E-4,-1.7024460523944117E-4,3.203951352299132E-4,1.4610961542105646E-4,3.000596411820137E-4,7.795539768429974E-5,-3.793370250791554E-5,9.141647425174634E-4,1.9867961982203696E-4,-5.128893240365791E-5,1.2684344934708248E-4,3.1534628763255155E-4,-4.312385668986414E-4,3.5294109423913035E-6,1.3369886923389015E-4,3.213124261032558E-5,-2.2518124307524815E-5,1.8552516390557574E-4,5.506182636993614E-4,-2.587880738879684E-4,-4.671261616689551E-4,-7.884429247717068E-5,3.661354147579659E-5,3.049524084522598E-4,3.081899217302422E-4,5.628142849382505E-5,-2.862908406968568E-4,7.546144989357885E-4,4.8706910294658905E-4,4.76093250857161E-5,-2.9786697590023127E-4,3.1406013271064327E-4,-3.113468866871923E-4,-1.2479748579396815E-4,-4.527328660715717E-4,-2.2378278848965227E-4,2.612660695281631E-4,7.934057655961887E-4,1.0272147938367381E-4,-2.467822788165424E-4,-3.3660141488165167E-4,3.164356089164509E-4,-4.0264532878824953E-4,-4.336785333213082E-4,-2.7210134420791767E-5,-1.3761691465773957E-4,3.0975198150867504E-4,9.54219909778909E-4,4.4863001762632037E-4,-4.6098019153130427E-4,2.335555838681046E-4,2.608477550575239E-4,-9.082054501567745E-5,-2.2220882575223392E-4,-3.5610308742183613E-4,3.997479294628145E-4,4.7340286056601335E-4,3.129141996797425E-5,-1.7332411155223767E-4,1.545295101637142E-4,-3.1861291823351897E-4,1.3428887041679939E-4,-3.0054212215369124E-4,1.393455459627639E-5,-2.94923706544194E-4,-3.667397924686168E-4,-4.128811913401212E-4,6.319440877636599E-4,-4.5930872434893814E-5,-2.718252349340508E-4,-4.867344812738893E-4,3.8805852161275303E-4,8.281034634070112E-6,-2.470592950867575E-4,-1.509935289428519E-4,-9.792304882258304E-5,3.066140758221219E-5,2.223714703481892E-4,-6.513227261701112E-5,-4.4311609112438193E-4,4.559380969633085E-4,7.881540624229869E-4,2.3399455639893256E-6,-4.916929765153096E-4,-2.8344217360557616E-4,2.0355453198875125E-4,1.0402703858244998E-4,5.257688442952836E-4,-3.6507891659534654E-5,-8.207511781182328E-6,4.1739802831925973E-4,4.922634013541203E-4,7.009346448985939E-7,-2.5935091858968244E-4,-2.0846472004034842E-4,3.585634578070715E-4,-2.0246526671463565E-4,2.450599666660344E-4,-8.71972136722598E-5,-1.9400995040336582E-4,-4.3071930815743935E-5,3.149864653969465E-4,4.0429962633882114E-4,-4.8815950964598145E-4,-3.8353249498788836E-4,-3.8280498942038394E-4,3.690636538452598E-4,1.6184637169062229E-4,-1.74641678590046E-4,-1.9959453343990012E-4,6.243412649491249E-4,2.429786828952891E-4,-4.8546246840623744E-4,-1.8514009993524677E-4,2.7047070661601064E-4,-1.0943494853281476E-4,5.497224295326145E-4,-1.1186293812044817E-4,-4.8124653538871557E-4,4.0250772623724626E-4,4.0370661981415593E-4,5.898804323106116E-4,-3.708594093994852E-4,4.6395228659598886E-4,-1.0773805197116274E-4,-2.6631263729769784E-4,-4.2477959902849734E-4,4.2932664944735706E-4,-5.455719004064175E-5,-3.7654802264742396E-4,2.1835257080754522E-4,2.1003595715723328E-5,-2.7723818879470244E-4,-3.979717014888355E-4,3.2083217835622514E-4,-4.006871925033788E-4,-3.12101505605653E-4,1.3007639888251016E-4,-4.5567429511220316E-4,3.6254173984940523E-4,-3.650058627383358E-4,4.0133574646054274E-4,-9.393367773955164E-5,-3.702807722738197E-5,4.778749122043212E-4,3.720377973554599E-4,-2.2301191692929335E-4,2.657263115008998E-4,5.065188557498741E-5,5.025076806697473E-4,6.264016822686855E-6,-4.0114622709806026E-4,2.041565827726373E-5,3.764873889750066E-4,-1.6794950891087592E-5,-1.2391259807845376E-4,3.099099317816112E-4,-4.163918806522554E-4,4.4797442212337E-4,-3.114494794776733E-4,5.986957739772324E-5,3.1501658391536755E-4,-4.308152624739906E-4,2.6866357881459227E-4,2.4313682471965753E-4,-2.616948544922298E-4,-2.8409912663121577E-4,-3.545023834132595E-4,4.290276824044465E-4,-5.757265314207631E-5,1.0369444301819975E-4,4.4226960530584924E-4,3.462908753520946E-4,9.47241679357681E-5,1.356068489875932E-4,-1.889196467501949E-4,3.2040272094378456E-4,1.650185643336051E-4,5.68664848479368E-5,5.185066841084702E-4,-7.460493792485478E-6,4.3824687216952556E-4,-1.9216927604080866E-4,3.9232430208595E-4,1.7126362226483344E-4,-1.979775344473179E-4,1.2951439657003E-4,-4.287141610808736E-4,2.9378527244520146E-4,2.895126245549601E-4,4.7844111009548164E-4,-2.3649842628614812E-4,4.4983286515728923E-4,3.9168335464766685E-4,-1.824187822693599E-4,4.232928893823512E-4,1.7829655492654557E-4,1.2522449770770215E-4,-4.3274680576764744E-5,4.791330949035597E-4,-1.7093821015141622E-4,-2.4318191677264204E-4,9.128856318871902E-5,4.648757191720457E-5,4.781887321091848E-4,-2.82067397980088E-4,-2.1215668721554805E-4,2.1800360758440112E-4,5.321743323547367E-4,4.8596420367442544E-4,-1.9065527588833E-4,5.163496470256678E-6,-1.8843366571046712E-4,1.4977526384238438E-4,2.906113132619179E-4,-5.06035346572035E-5,4.756961466187776E-4,4.784639000448918E-4,2.256110649760805E-4,4.6615473243583023E-4,-4.0951962395099813E-4,4.896748520265875E-4,1.6870074770997502E-4,2.4958057041584624E-4,3.709075741663385E-4,-3.100841792052539E-4,-1.739173824700863E-4,4.748058455105542E-4,-1.8197415814899033E-4,-3.9559440146339024E-4,-3.242761678720799E-4,5.143730658414328E-4,4.982483853469966E-4,-6.095626544575585E-5,1.7448333468969725E-4,3.855520999556734E-4,1.2946130186483967E-4,4.52465836706456E-4,3.450267269833461E-5,-3.4688147756174303E-4,-3.4762287624820525E-4,2.114743769097494E-4,4.644995952149816E-4,-4.3321160684792334E-4,2.59258249672834E-4,2.177859907454857E-4,-3.804133358437839E-4,1.26285084243356E-4,-8.881198199869196E-7,5.449750796475595E-4,-3.4117944912445035E-4,1.4169350515142392E-4,-4.1969120811290536E-4,1.452532114569653E-4,1.021797926531135E-4,2.690398227179437E-4,3.6778098904076656E-4,2.321387614822115E-4,2.1743422466505521E-4,-3.426405575749219E-4,-3.6875036697193406E-4,1.0851227933838102E-4,2.274622321665394E-5,-2.203644961643832E-4,1.2840093803631006E-4,-5.5961552387291766E-5,-5.528802215104449E-4,1.0248337731250238E-4,5.399789567273346E-4,-4.5040973317277425E-5,-1.8798735068946258E-4,-2.1448347494617992E-4,-2.62469196046756E-4,8.831613673149903E-5,-2.1754987032234665E-4,1.7302686666428676E-4,1.1731415667345018E-4,6.959585305413991E-4,1.3020369710779072E-4,2.704104764596383E-4,-2.1551493823973074E-4,4.66701469852538E-5,2.453489378692319E-4,-3.087427490300032E-4,-4.446005533815154E-5,-1.159785114554577E-4,3.162345001990706E-4,4.743173074756273E-4,4.1346870346033843E-4,1.0320940496081288E-4,3.09445840980143E-4,-1.1333422722095034E-4,-8.931192746946707E-5,-4.471072778698072E-4,-2.8363936521030197E-4,1.7890474614402812E-4,2.175145295482769E-4,9.986803814535856E-4,6.445203311960652E-4,-3.097087005018922E-4,1.412526652037054E-4,-4.4846224354597435E-4,-3.379391404509808E-4,3.203818238644863E-4,-3.7612541651369446E-4,3.038206331549439E-4,-2.41155002283415E-5,2.8731329982531234E-4,3.958862944218068E-4,-7.18379281076728E-4,3.647731678913306E-4,1.2245662988447247E-4,-7.041854670230174E-4,5.842809310480308E-4,4.665749502800023E-5,-1.4490964949962718E-4,-2.5100395463304635E-4,7.528185398459826E-4,7.174417199234531E-4,1.9567644752826853E-4,1.4480119108522428E-5,3.388362458976069E-4,3.092725257033387E-5,4.988173688774989E-4,-5.376217912437914E-4,3.97329950452515E-4,1.663559529858238E-5,9.054000669426646E-4,-1.6340463646570425E-4,-4.670926120536605E-4,1.1550767040461514E-4,-2.293256734205289E-4,-6.458826023409819E-5,1.1000481550420382E-4,-5.655235763492881E-4,4.3757392507060065E-4,-1.643187338465357E-4,6.19590706039722E-4,-6.227580359511094E-5,-6.13488523617926E-4,-1.2916747071478992E-4,-1.5753547270570562E-4,-1.2313521929353347E-4],[6.48015663475455E-4,-8.230871137717475E-5,2.4624646930938637E-4,2.525405205755389E-5,1.5089435728737684E-4,-1.4158221629744132E-4,-7.621802117373163E-5,-2.7569618056768306E-4,4.6551363090776557E-4,-1.7585773912226623E-4,8.592688823303249E-5,-8.710328048747728E-4,-3.565425836054403E-5,4.181865282844226E-4,4.8061876226229206E-4,5.151100509667244E-4,-3.562105749990628E-4,2.7418822973708984E-4,1.1534864955314077E-4,-1.4848679273787117E-4,5.713728441531413E-4,-8.599555964776272E-4,5.810028279938529E-4,-6.957620203512394E-5,-7.089710573157056E-5,2.9600974883750656E-4,6.135386019055357E-5,7.436498047653829E-4,2.2062667716176655E-5,-5.565342378547102E-4,4.872041817313738E-4,9.118042584960352E-5,3.1039163588128294E-4,2.7181974806134027E-4,-4.7143650398546533E-4,-1.232537534165872E-4,3.812893918008499E-4,-2.3430276866186943E-5,2.9551397307003407E-4,-6.612069050707753E-5,1.6018760760248013E-4,-6.809176796111727E-5,-1.6928025740288162E-4,4.09957134073393E-4,4.311573923247927E-4,2.9484428839453124E-4,1.515961391219032E-4,3.6287013740184316E-4,-4.4866702867079553E-4,1.2579562016116984E-4,-2.9094054051574534E-4,-4.3114579501851556E-4,-5.457897237939604E-5,-8.242901885414458E-5,2.539386557997513E-4,-2.0634639880547404E-4,9.040556166190677E-6,7.355379779081169E-4,4.760403904545123E-4,-3.180990323069368E-4,-1.5279222998771427E-4,-5.451479202993849E-4,-2.7122533340582665E-4,4.068422512730686E-4,1.9695316663250484E-4,7.570663584782633E-5,-8.54663486910839E-5,-3.797274160970896E-5,-4.006191973911225E-4,-4.4028829174795007E-4,1.2867792921102865E-4,-5.301222087878857E-4,-2.811521163456832E-4,6.650495270851416E-5,-4.761659164147264E-4,2.8235057034911587E-4,5.683227739195561E-4,5.721117314152265E-4,-4.345660551858449E-4,4.5709613665898853E-4,4.932038188085799E-4,-2.106110627439361E-5,6.024209253695404E-5,-3.085775377259281E-4,-8.376407940414113E-5,-3.2287196652605593E-4,-3.303252166977871E-4,-3.533579841682832E-4,-2.7317842555526025E-4,1.598814733339294E-4,1.865698989784711E-4,2.3723353112127806E-4,3.575413392932302E-4,3.011825294796505E-4,9.61886552717624E-6,2.981262433224909E-4,2.092531923042358E-4,-1.987657372183641E-4,-1.7254927745144545E-4,2.2275239284795824E-4,-3.4860934320479805E-5,3.7753242190982895E-5,1.7809272275025694E-4,2.943964001916408E-4,1.411846490283754E-4,2.6375398797545376E-4,-6.33464556454108E-5,-1.9089572835447654E-4,-3.3094678722437774E-4,5.31009624614342E-4,-4.175539207812951E-4,-9.921353904554385E-5,-1.608030737161968E-5,-4.1324960099246123E-4,2.0743924901710917E-4,4.13403557470281E-4,-8.253968612276749E-5,5.080731701074715E-4,2.253702202442173E-4,1.252038020112678E-4,4.057245849957558E-4,1.9981689146541932E-4,1.6318555032240577E-4,1.0726447826020091E-4,2.246795021778301E-4,-1.1470778625987154E-4,4.925735552788297E-4,5.395508361501572E-4,-4.104563003178642E-4,5.009054272779971E-4,5.079709793844104E-4,3.9752771017864897E-4,-9.935497982157641E-5,-1.5553806110779012E-4,4.794207705506367E-5,4.518203219704812E-4,3.517000890965913E-4,4.678503180276373E-4,-2.456893085896627E-4,-1.5607510832106548E-4,1.0067206042208623E-4,-3.9803958124099705E-4,-1.1885760067682802E-4,4.5611761056589415E-4,-4.4828403178149363E-4,-7.807741557602518E-5,1.0852107099240497E-4,-3.801292410245869E-4,4.579394957885412E-4,-2.955236719860654E-4,4.8247224858022586E-4,2.7795131561117486E-4,9.653223847476773E-5,-4.139836372455043E-4,4.5679746111171256E-4,-2.6074852425209827E-4,-4.7186529949206424E-5,-1.6841438450859432E-4,-1.9654994643094963E-4,-2.3941946135602103E-4,4.109341847305535E-4,-1.880176490368249E-4,3.9708037796256284E-4,5.3744428843260727E-5,1.1532282666935864E-4,5.97483489947458E-4,3.662134548144578E-4,-3.965764439095765E-4,-1.8386773913296446E-4,-4.115157663517828E-5,-1.3661855213167712E-5,1.1966755941399387E-4,3.06220483597008E-4,3.7069568216826343E-4,5.450107631008839E-4,1.9749994383349168E-4,-2.674237455998906E-4,-4.2754606040710266E-4,3.8653924435927384E-4,2.0315874621038582E-4,-1.8640860110902255E-4,-3.357887115097045E-4,4.640474938033356E-5,-4.994518327527677E-4,1.0952226501020813E-4,5.230488108033275E-4,-1.780056948774402E-4,3.1069912749460775E-4,2.800270016568772E-4,-2.263133542866713E-4,4.120246674629717E-4,2.2454815821285092E-4,-4.4419962801318203E-4,-1.874181838823934E-4,1.7218757378752338E-4,4.1672575779690303E-4,-2.1166636685281937E-4,9.157494535610188E-6,-5.958977500124549E-5,-2.1320546371193588E-6,-1.2015820151213582E-4,1.6936189229858748E-4,-3.754427120489202E-4,2.5047678712889154E-4,6.047581426681034E-4,4.5413738812469413E-4,2.207318855793304E-4,4.2890351481314595E-4,3.160697955259154E-5,-1.822147330708162E-4,-7.879488453994054E-5,-5.297123225054863E-4,2.413921550879275E-5,-5.672829268086378E-4,6.341511747624281E-4,6.415664181901194E-4,1.1635709973099757E-4,6.130700362061119E-5,-3.9764439704347785E-4,-3.79030999682122E-4,1.6226063473450897E-4,-3.1770740878868695E-4,-3.710038753881862E-4,1.70105761144637E-5,6.768085897376374E-4,3.2630792083160825E-4,-2.0925673106213588E-4,-3.3665962520858353E-4,-3.699229259453079E-4,-2.553524853294664E-4,1.923768574061163E-4,-6.541779454199191E-4,3.346474009690158E-4,-8.252936109407083E-5,2.0996629282983543E-4,5.841490111010756E-4,-9.317894615752033E-5,1.787298803971296E-4,-1.9459498753603236E-4,-2.732305881038994E-4,-1.1919310171098949E-4,-5.580253763637042E-4,2.930291578868598E-4,2.7811707434504614E-5,5.658143116871009E-5,3.906821838975683E-5,-4.6475171674174523E-4,2.0301582008563248E-4,2.8067177510739474E-4,-2.0507347786122995E-4,1.2930035825835955E-4,-2.177507567252106E-4,2.721028088479237E-4,-2.052274181459023E-4,4.3673022671236744E-4,2.344495428263417E-4,-6.133842786827672E-4,-1.799760971017485E-5,-5.20579298172235E-4,-8.98651871764978E-4,2.0275549240530985E-4,-2.1876289003067E-4,6.38365177906212E-4,2.6586195825280045E-4,-5.138845446249382E-5,6.710194679025572E-4,-5.480459008602871E-4,4.0204971907947747E-4,-3.470884674941592E-4,-2.9975573680241164E-4,4.6355117587565934E-4,5.131644506624277E-4,4.182837399292612E-4,-1.8505528541545318E-4,7.707145869449049E-4,6.008398518715715E-4,-9.204732922207978E-4,1.1313564199313662E-4,-4.424329350722536E-4,-2.0116064628557104E-4,4.9027659907322556E-5,3.395817784465835E-4,5.707406335384264E-4,-2.1277251367301755E-4,1.5275236490567667E-4,-1.1300455592114343E-4,-1.2057717146594301E-4,-1.4465995163045784E-4,-3.0317884272395163E-4,-6.47662189606105E-4,8.577214974933574E-4,1.7564080647361154E-4,-9.994430403516017E-5,-3.713229804393742E-5,4.719539675717815E-4,-1.810021606893026E-4,3.958957250346723E-4,3.1502339588772716E-4,-1.1940752052358003E-4,-2.8599568467139737E-4,8.055389942452768E-6,-4.480091939334346E-4,5.342553317065379E-5,2.117498021030703E-5,4.274697983572171E-4,-1.2310853590975645E-7,2.4942725514135697E-4,1.6121680139655398E-5,6.675926688476439E-5,1.2169320351540176E-4,-2.5488947258241543E-8,-3.170859790187303E-4,4.0404119101329503E-4,-1.6625260592720542E-4,-1.0053211948755007E-5,3.830735514264922E-4,5.831715562236141E-4,5.075855629655516E-4,-4.467659508058677E-4,9.693059029353394E-5,2.919273766368907E-4,-4.7449746559221983E-4,1.5211906697676944E-4,5.12927192182251E-4,3.328002075631173E-4,-1.062025891147006E-4,1.4379933321352257E-4,4.1931818355329497E-4,-1.666904252910188E-4,-2.574792133575671E-4,4.058137974122946E-4,2.6848598972101065E-5,-2.888234950384205E-4,-3.036609860755214E-4,-1.4595400256751286E-4,-4.1929406150231774E-4,6.365532925644254E-4,1.731997707847893E-4,5.655256604481217E-5,-8.967676592880623E-5,-2.3316244985317877E-4,1.6346088784500139E-4,-8.730991865897555E-5,-3.961968203666123E-4,-2.804961940973498E-4,1.3941868908091506E-4,6.950604246180356E-5,9.086818045445266E-4,-3.082119944905134E-4,-2.2565849919684372E-4,2.224834374568087E-4,-8.329556104422937E-5,-2.4232995340392886E-4,-3.9472358208645687E-4,3.8095135982179994E-4,-1.4079382342931977E-4,8.023402053094342E-5,7.094839104234984E-4,-3.6958933418662656E-5,2.3699316478621482E-4,-1.2404352813036776E-4,4.209180340091852E-4,3.112594037924637E-4,4.983061066325387E-4,9.321844831403494E-5,2.9660394227011306E-4,4.420137468839456E-4,4.2443042446224796E-4,-1.2069461277744358E-4,-1.4086458891373422E-4,-2.8652971521942665E-4,2.1301219468616657E-4,-2.4974330163548853E-4,-1.112541665753998E-4,4.5527900966282116E-4,4.2945211988407276E-4,-2.8148177303604604E-5,-1.68953325570229E-4,-2.962025793776446E-4,3.45653753061336E-4,-2.3251142137188386E-4,3.1902508184714057E-4,-2.7764065927900838E-5,-3.9359163073073434E-4,-1.3274929125530513E-5,-1.347946750807254E-4,-1.4643617613729863E-4,1.738746726112857E-4,4.539156943924472E-4,-1.3973170039620925E-4,-3.4326904275711084E-4,4.838591729147207E-4,-3.123725319539997E-5,-1.9619178823072165E-4,-1.6701676672713702E-4,-4.167029795887531E-4,-3.470891628286001E-4,-1.0353481545978093E-4,-3.9033090227325214E-4,4.4357592457285196E-4,-1.1239199501613923E-4,3.2039167766335494E-5,4.54609320996272E-5,-4.4180423841882327E-4,2.5055548146736385E-5,-1.510502947524291E-4,4.409616219010676E-4,-1.412696307153468E-4,2.5758769182588395E-4,-1.4491585702776288E-4,3.0319265664867644E-4,1.0298426403192718E-4,-4.024942170253153E-4,5.2321542087998766E-5,-2.4206772829225994E-4,1.0035181541673635E-4,3.751176374028775E-4,4.6925514828831123E-4,2.6203662792707475E-4,-2.4295378712039178E-4,5.335187332156938E-4,3.9203511851153397E-4,4.37215715220727E-4,-1.3066526789715164E-4,-1.3516641861641008E-4,3.753439663681702E-4,-6.0032316784181315E-5,-7.462657759711253E-5,8.687552934937779E-5,-2.9973684513200175E-4,1.7301635171134254E-4,-1.7081207748955614E-4,-2.0601005248573458E-4,2.544850655603221E-4,-1.6731453115932185E-4,6.203761545095E-4,5.097302056069575E-4,-1.1190806312488771E-4,-1.5706319208743177E-5,-4.9557709766484694E-5,-1.8208282033561943E-5,-9.156638497705986E-5,-3.6238629814630606E-4,1.9728336862826753E-4,1.2508329686396048E-4,-8.841090770769964E-5,1.544322488387508E-4,3.3950298301283773E-4,-1.9671676724797012E-4,1.731036920128831E-4,3.7028213223651003E-4,-1.1254096955663207E-4,-1.858577635029574E-4,-4.7822487363883843E-4,6.338748714773849E-4,-1.4433056102035503E-4,5.276491264183922E-4,2.2574221228902023E-4,2.930269397073351E-4,2.0158123061061274E-4,-5.062634653487039E-4,4.1241672093272094E-4,-2.956817929477488E-4,-6.576744293479019E-5,1.91733296865145E-4,3.6801444990894013E-4,3.53070445126464E-4,6.95613077890207E-5,-1.8073392045311808E-4,3.57435019617428E-4,-3.359932792736274E-4,6.878458615963964E-5,-5.146760104840015E-4,2.6078971920056584E-4,3.1516443645015916E-4,7.15388296432789E-5,-1.848303277134988E-4,3.871711224598664E-4,-1.7256808092887567E-4,7.502066394166677E-4,2.3301179960628508E-4,1.5495003793610193E-4,-1.487969206482628E-4,-7.031915928768034E-4,1.8813155613390888E-4,3.3058260102934327E-4,-3.07016469087884E-4,2.888030182111806E-4,-2.6900070319199096E-5,4.6051077677024775E-4,2.653865127990417E-4,3.457749559034043E-5,4.5880118813725454E-5,-5.891358389638796E-4,4.749645489635466E-4,5.417269624905735E-4,2.6640178569329654E-4,5.936643066363204E-4,3.510781687009751E-4,1.1531103448748914E-4,3.7545815240607366E-4,3.261132564003762E-4,-2.3511601081386324E-4,-6.625391224688846E-4,-2.4229369151662882E-4,2.72480216505132E-4,-3.4772987940429186E-4,-7.707622994263548E-5,-1.2178657199445658E-4,1.9527080401428266E-4,-2.204229291079597E-4,4.0524238473016097E-4,8.232639962674277E-5,-4.512137512357103E-4,1.6378287469170856E-4,3.2842593460848005E-4,-8.141488772158468E-4,3.2329124620347874E-4,-3.4635897780528504E-4,2.46422831304265E-4,6.258838601073971E-4,5.620284284007824E-4,2.523758385246911E-4,1.3814655141392574E-4,4.4801672874472264E-4,3.8591587557122356E-4,-3.336716329661379E-4,-2.3028396839610814E-4,-2.9806555493910717E-4,4.1774876505971796E-4,-2.3275328089602843E-4,1.7182488468710287E-4,9.517776779548615E-5,3.0692977471428887E-4,-2.518668476618064E-4,1.2789942443622272E-4,-9.411899858472953E-4,2.0455518976900307E-4,-3.8675052964252737E-4,-2.3465824364717546E-4,-1.8323552042922236E-4,8.682123464290922E-4,-1.5914926304483765E-4,1.3394354300168165E-4,-1.9059082733327215E-4,5.683762786472668E-4,-8.92859581867458E-4,2.7109077041805816E-4,1.7041227765632932E-4,-3.1119977487250916E-5,-3.270380734226499E-6,6.747861635366696E-4,3.186790725910713E-4,-8.077180992452417E-5,1.597602369454306E-4,5.169208936490295E-5,-4.3768987092115264E-4,4.2532716860535177E-4,-4.369068554620061E-4,3.126826320107918E-6,3.360212117868578E-4,9.098203449986361E-4,2.5327088191860007E-5,3.129837255663638E-4,1.2227963399799003E-4,4.8589139310259986E-4,-6.229814137380949E-5,3.491518142958427E-4,-1.3323025290933271E-4,4.236330933079432E-4,-1.981346910883469E-4,5.501101359351665E-4,6.702204917052236E-5,2.0979035699021892E-4,-1.6872810845468326E-4,8.025031671704759E-5,-2.3919222151834603E-4,-6.517409912333059E-5,-7.083614568556376E-4,3.276606564390352E-4,-3.257409385550058E-4,-1.2853586729212412E-4,8.695477002944121E-4,2.4152041593638907E-4,-7.738431538023576E-5,6.275144030888926E-4,1.44851383168595E-4,7.824131493297689E-4,-3.576814906446999E-4,-1.0101777959186175E-4,-1.6360229979454357E-4,-7.062169047881921E-5,7.243459824352696E-4,4.1755026217550227E-4,-2.982330939562479E-4,5.9812229436138554E-5,5.09375295269987E-4,6.14773235315216E-5,-7.499503254392949E-4,4.379601246799748E-4,1.1824925099156398E-4,1.9147039590281846E-4,4.780549430539389E-4,-8.56953305830501E-5,-3.3162107431746027E-4,5.542919948567862E-4,5.295514404626251E-4,0.0010245515503245744,-1.5799121216245775E-4,-2.655128385233228E-4,2.4692351936652263E-4,-2.9803084068948376E-4,-2.222646278336815E-4,-3.5137124250124777E-4,2.7433627251674146E-4,-3.279836289590854E-4,9.669464787287678E-6,3.439756026581245E-4,-1.1385126629174631E-4,-5.03843885917718E-4,1.1767214935419348E-4,-2.6244392857507347E-5,2.3695396493571822E-4,2.682165936694856E-4,2.2627104181876E-5,1.6926126827563338E-4,1.2857467257682407E-4,0.0011132943249349855,-1.0964470359355737E-4,4.200821112484598E-4,2.1810601065860215E-4,9.67384709665585E-5,-3.0209478541088833E-4,-3.263320228615253E-4,2.1974861570740292E-4,4.5059871967707246E-4,2.0711788549858997E-4,9.286151024494282E-4,1.3869967044192208E-4,2.660618209863522E-4,3.8731566829859436E-4,1.6158496077236167E-4,-3.6115443968926624E-6,3.052546546248445E-5,-4.361010485298888E-4,4.8129133207189094E-4,5.003878115433368E-4,-1.0269301461620575E-4,-2.9926325051055894E-4,1.2038584053040068E-5,1.7782109355777428E-5,-1.6562313006443323E-4,-3.5179249814688433E-4,-3.873536972848231E-5,9.12355305551775E-5,-1.7503086836672316E-4,-2.8620722385715413E-4,2.695711598769474E-4,2.890977809868787E-4,4.4868666367064E-4,-7.281607581500639E-5,-2.2228819178665287E-4,-1.4007715089131903E-4,-3.6841774729203967E-4,-4.4857665585766463E-4,-2.850398222944726E-4,5.489027422334306E-4,5.18823204764645E-4,4.3491619898050794E-4,-1.3020993281819451E-4,-9.63819444764492E-5,-4.251741386536276E-4,4.554700012398585E-4,-4.014431981378161E-4,-1.2406463649189818E-4,4.390033736087392E-4,2.948988831717053E-4,-4.289700627083211E-5,2.45615082136633E-4,-1.3475979450953407E-4,3.2708926276877194E-5,1.7216009168051846E-4,-6.954777981044888E-6,1.6104810023239596E-4,4.931398465735878E-4,-7.547256758215887E-5,-3.3075677093285E-4,4.951309647905356E-5,-1.2796595408255773E-4,3.0992995816000774E-4,-1.5930744672880125E-4,-4.2304016772977545E-5,-1.557642181508365E-4,2.7051001857281734E-4,-3.3445140346075345E-4,2.758977438411934E-4,-5.6984792618834867E-5,1.528887486425913E-4,-8.792636647245886E-5,-4.091898131812557E-4,4.991912102787761E-5,3.5254279697702156E-4,5.033751074840988E-5,-3.472927712260076E-4,-2.0629029694286294E-4,-4.0166044048093376E-4,1.7273786468260117E-5,5.096282722112596E-4,5.266224954220452E-4,5.645632363049943E-4,-7.48161169032256E-5,4.4476759869426996E-5,3.4829088867341563E-4,-2.9227915288198685E-4,3.6724243156930383E-4,1.0413325681173957E-4,-3.719903313593566E-4,2.5095157886842394E-5,7.364510625381448E-5,2.935412991454291E-5,-2.8436875428672787E-4,-2.4686703253257994E-4,-6.708977812779399E-5,4.125971374083823E-4,4.79453524956786E-4,5.861065861698976E-4,-2.5877881339308366E-4,-1.312545400795257E-4,6.089026375905257E-5,7.311761711539994E-4,2.1346414498459073E-5,3.224722422330969E-4,4.265286795230276E-4,-1.8609779594260252E-4,-1.7245759408550875E-4,-3.7185923367843684E-5,2.5933841271116875E-4,-8.921549085430794E-5,-1.7691419849549225E-4,-5.548644298062856E-6,4.832904462526103E-5,-3.1818916516007146E-4,1.393554044388781E-4,3.14886394129396E-4,-1.3897377555446238E-5,-2.2168760635920732E-4,1.7594946539132086E-4,-4.405331761348855E-4,1.3318788237968047E-4,3.4619942871857263E-4,3.355718620454509E-4,-5.319663031122464E-4,4.0822175902103266E-4,-1.403900518547955E-4,-2.8342424775842424E-4,5.441832769942905E-4,-2.726854865885783E-4,2.8495067687111657E-4,-4.8734258831716786E-4,0.0010306563678348492,2.2652372867020825E-4,-3.8413120312408815E-4,7.63719957704052E-5,-4.913778314457469E-4,-2.7584514814523814E-4,8.576418987011464E-5,3.8209871985175995E-4,2.9970933834248505E-4,-2.0813216309959766E-4,5.152464404078448E-4,6.412997692590211E-5,-1.116687418402631E-4,3.7473223759338335E-4,-1.9935050859807088E-4,-4.6336240762917264E-5,-2.3816249470204722E-4,-2.16376290524359E-4,1.5424286426715756E-4,-4.053474957559821E-4,9.573860660134453E-4,2.4560576000761894E-4,-1.75456180179329E-4,-3.805906285199326E-4,-4.579469309604652E-4],[-1.1867578105094155E-4,-5.192043014683296E-4,-6.251654344998439E-4,5.233483269034071E-4,-1.6832332442924075E-4,1.7919827679808225E-4,2.7949597545245405E-4,3.972343622705154E-4,-2.161128630199603E-4,2.5794767568189954E-5,-4.029212772642115E-4,-1.616544102009564E-4,-1.8759212862985128E-4,6.045554152469489E-5,-3.863856581302282E-4,1.0942979917346609E-4,9.742695297646838E-5,4.4963550968115296E-4,4.8448427129106343E-4,3.7194711071924196E-4,1.5561383477058792E-4,-2.789269967639338E-4,-5.937633231281725E-4,-2.914534572053159E-4,-3.886582177910734E-4,7.808538171260572E-4,3.4858305814265553E-4,8.665306033441632E-4,4.913459022694553E-4,2.540608694460933E-4,-3.6664787878538046E-5,-1.4158596842083762E-4,-5.653851268826455E-4,3.6255400416638314E-5,1.0754977008858284E-4,4.384316723668149E-4,-2.749350974110067E-4,5.212674645197978E-4,9.88657902976398E-5,4.7054234392936536E-4,3.9223093435538834E-5,-2.0568066719519283E-4,-0.0011649942646425491,-1.8023747410119816E-4,-3.116042656899039E-4,2.457423098271783E-4,8.17433940674916E-5,9.362775642923833E-4,3.2134591989970037E-4,3.3896891455960213E-4,1.1735072183002199E-4,7.099566056758593E-4,-6.09459312308308E-4,-3.2015675031420035E-4,-5.183392015200175E-4,3.488295815893512E-4,2.560864701572402E-6,2.969242641791646E-4,6.562107300838994E-4,-6.963832427489291E-5,-9.600349984868472E-5,-1.0917575904867896E-4,-6.991809175598763E-4,-2.2526916035069014E-4,-7.614646165376564E-4,8.41981156492636E-4,-5.285788281185432E-4,7.049653577596383E-4,2.4781057192424152E-5,-1.318660851547088E-4,5.2215419309666545E-5,-6.594627431951335E-5,2.88963208700794E-4,-1.26134944551532E-4,-0.0011265306948965049,1.41563196637714E-4,1.7106315805012862E-4,6.242107328932329E-4,2.017151512104189E-4,-1.5045815187740436E-4,3.986213899411754E-4,-8.864514377122671E-5,-1.3403135913394942E-4,4.742298196278392E-4,-0.0010101262580947965,3.0786057359086043E-4,5.242098391247472E-4,-1.9203182527560678E-4,6.031698793068414E-4,5.7719137790580575E-5,2.3168400169187173E-4,6.017206187549664E-4,-2.4740650453889955E-5,6.996667974141969E-4,-3.3478669370506E-4,-6.260008369967802E-5,4.5317627352996784E-4,3.3463273855925836E-4,-4.09397670553992E-5,6.191598733113003E-5,1.9308987925798271E-4,-3.1687405209649273E-4,-8.424289004707015E-5,3.491583100871698E-4,-7.973960553706486E-4,4.852796587034628E-4,2.627048733558428E-4,-1.426658580222033E-4,-1.3195774488202768E-4,-4.698315396467127E-4,-4.70165194526045E-4,-4.706769593371367E-4,-2.428217952485273E-4,2.460281595512527E-4,-6.925718405148182E-4,4.814944698065389E-4,-1.0189511814038766E-4,-3.929696842614131E-4,1.6809385248294672E-4,2.2672143837269994E-4,-8.96130769996509E-5,4.155341574957974E-4,-3.7037934438725266E-4,5.352711150278856E-4,-5.28663542636148E-4,-3.295685352750586E-4,2.4749377524310875E-4,-3.396109560387067E-4,2.8355220915790536E-4,-2.4904369785967343E-4,1.112609676695983E-4,-1.277554696403256E-5,1.8906490381487485E-4,5.021475539739952E-4,-4.52605239894571E-4,-2.918281562572124E-4,2.7505144430217606E-4,-3.5489860752518595E-4,2.917618921722158E-4,3.913294432094942E-4,-6.334917362078604E-5,2.4237807884941142E-4,-1.2059187140718202E-4,7.293479882503759E-5,1.7852908468022756E-4,2.3931595918032374E-7,4.7507104787207645E-4,6.719850638637763E-5,6.709049611006186E-5,-5.236166299460233E-5,-2.2574729502687868E-4,4.7989286594506543E-4,1.4590301407349185E-4,3.275819202861181E-4,2.7495121619956753E-4,-2.926305538579449E-4,4.570102084179606E-6,-2.9361317609073343E-4,3.1793799493088195E-4,-3.7345346069542033E-4,4.9125706525428414E-5,5.448405101114959E-4,5.356263156641022E-4,2.25026147691146E-4,2.442229527158764E-4,9.232792123873387E-5,-1.664839022075616E-4,-1.662728488830169E-4,1.494067964858039E-4,-7.569101409097992E-5,5.035426284276273E-4,-2.550232923052719E-4,-1.9034606383444084E-4,-1.5903999242306233E-4,-1.4030266812190294E-4,-1.3136677011599607E-4,-1.8359484844259605E-4,1.886720926596311E-4,-1.5413967871282606E-4,1.7683447118490726E-4,2.9767286119148923E-4,-4.068102262017422E-4,4.6664001863321465E-4,-3.378948199906267E-4,-3.3215630480610544E-4,-6.586834325752304E-7,-1.614236436401358E-4,3.488524052358754E-4,2.49605556276514E-4,5.090600846359797E-4,-3.747913567857089E-4,-1.1000201914140395E-4,2.407232956471783E-5,-2.648459423540561E-4,-6.616742136415532E-5,3.738914983459701E-4,-5.389030425205083E-5,4.819142324316692E-5,-2.8759680683414007E-4,3.3174133420380616E-4,-1.1638126434714619E-4,-1.7049549563738994E-4,2.761998408385741E-4,-4.5897292888093163E-4,2.4441138363597134E-4,5.361864908131218E-4,3.9940337177418495E-4,2.066974696990781E-4,-1.609730805362328E-4,-4.2935419125470224E-4,3.9320702035096725E-5,5.834987089460722E-4,4.862808331895007E-4,3.8893696159740646E-4,3.981566931838681E-4,-2.607873632013735E-4,-3.27699665713428E-4,2.092823528248553E-4,3.604798934183096E-4,2.1004449263617697E-4,2.9956116627449515E-5,5.648349806894881E-4,3.5231169918014836E-4,3.50086490872032E-4,4.68147410794045E-4,1.312564400264136E-4,-9.664275023193859E-5,-3.5222755829666426E-4,-3.372759766368166E-4,-2.950670691791652E-4,3.945867281605992E-4,-5.467228268756387E-6,-1.8590356425281395E-4,1.0848003868462234E-4,-3.289367390568557E-4,2.216801847052005E-4,8.995806177045799E-5,-2.1666835203085617E-4,-7.70015155261089E-5,-1.3615065675445E-4,2.953494810099092E-4,3.489041687324902E-5,-3.8720718039846443E-4,-5.98306480157935E-6,4.269563188672617E-5,2.7602931539543634E-4,3.6271715734774397E-4,-4.0423370257894006E-4,2.4314977057304194E-4,-1.0934541510345156E-4,-4.6525369243516124E-4,-2.2125028016523065E-4,2.505705768220002E-4,-3.726041836236427E-5,-4.5753278519903255E-4,7.244675145182673E-4,-1.84044461130615E-4,-2.0377478859879742E-4,-2.822498558190244E-4,-3.338637444205658E-4,-9.517808838965337E-6,-9.243528000517054E-5,-2.8065259109328645E-4,5.712742872016811E-4,-3.296185274445996E-4,8.835701612214828E-4,5.405919181397598E-4,7.143321519156992E-4,-1.8656168816756315E-4,-4.02328916896602E-4,-3.779852551331591E-5,-8.710819370871013E-4,3.9209738661993176E-4,1.1379281239293312E-5,2.2986945723630357E-4,1.250646831651517E-4,5.883404470212864E-4,2.9672637027116717E-4,6.015760702174246E-4,-4.388694409028267E-4,-2.6820195789765174E-4,-1.1641691015726582E-4,-2.484766135266276E-4,4.368429776556173E-4,-5.916369562866738E-7,7.992635676027055E-4,1.8274227229538197E-4,1.1216016015103117E-4,4.541239909107078E-4,-7.593436407972981E-4,7.523465899614306E-5,-2.270453023660516E-4,-3.8323412078340003E-4,6.389247779867196E-4,2.0660433609718685E-4,5.034142213056443E-4,2.4633719367018445E-4,2.732376823567506E-4,-1.6189800988782125E-4,-2.497241272579037E-4,-2.2230654022610546E-4,-1.2763981614771633E-4,-5.732312718370305E-4,1.42937027040096E-4,-4.525565677173473E-5,8.478540217873634E-4,1.2425519669820614E-5,5.841128129037105E-4,6.131582684206076E-4,4.317658229015122E-4,1.1330219965116841E-4,6.490910939962776E-5,-9.241313734493838E-5,-1.8377478941090143E-5,-3.36296452828852E-4,0.0011298048304338253,-8.064700207528068E-5,2.566361258433471E-4,-1.9207783813284204E-4,4.1580747652420245E-4,-3.541785253689031E-4,-3.7487101745765285E-5,-9.018572604210536E-5,1.4324537213125793E-4,-5.572400085548278E-4,6.609977162579333E-4,-4.4357430299806703E-4,-1.9239695521084478E-4,5.02143236336624E-4,1.6615834197353336E-4,4.4808541992117463E-4,1.8922340634963499E-4,-6.748707163503913E-4,-3.667406297604129E-4,-4.3630729610466876E-4,7.898555268284692E-4,-8.036743561047921E-4,-1.8042413869604618E-4,-9.078966358867171E-5,5.112572689920776E-4,4.793138756932193E-5,-1.2648599073156172E-4,2.4182833128491872E-4,-6.694473762069067E-5,-6.471465346474131E-4,7.458793997345265E-4,-6.917904660158126E-4,-2.401839574997721E-4,4.5933597328421876E-5,-1.3717112290662997E-4,5.099136276256934E-4,3.932655618978799E-4,4.4564056132927703E-4,-1.5036415746311424E-4,-0.0010791901984246737,3.881748004127514E-4,-9.700833593249011E-5,1.732669825881514E-4,3.769690280999977E-4,-5.044073778524438E-4,1.7240422778156935E-4,-6.206572761789498E-5,1.5031598271185404E-4,9.234754052600341E-5,-4.8708437620847273E-4,1.682569442483405E-4,3.2170934738228883E-4,5.485897143019533E-5,1.6461100198848002E-4,-6.388444124517802E-4,-4.630083333809793E-5,3.623366141466018E-4,-1.0809453692031891E-4,-2.949488249821109E-5,-1.8451303358338477E-4,3.246819172914908E-4,4.3910967001958135E-4,4.4126066486211514E-4,7.680196680912554E-4,-4.8800380334073826E-5,-2.547180156439117E-4,-5.331307426370313E-5,-1.3015732180700362E-4,-2.8368725486018618E-5,-2.3369871668048193E-4,-5.9968064023786326E-5,6.023820248147653E-4,-3.863851740044608E-4,1.1638842634208755E-4,-6.709719436845353E-4,-1.4107633842456053E-4,-5.023609915914741E-4,5.1279540954928E-4,5.783343252954228E-4,-6.231892240779344E-4,-3.337356859833527E-4,3.579581831214861E-4,-4.6553542735709973E-4,4.1164857101860303E-4,2.952798098675254E-4,1.820866716142224E-4,7.373317435525221E-6,-2.9367064170291726E-4,3.554115422145668E-4,-3.495370772537634E-6,2.916730128505272E-4,3.934072076881136E-4,-2.6808792778916287E-5,-3.2766959898820083E-4,-5.269572007846769E-4,3.296862555149407E-4,-2.196683680270718E-4,-3.978400492949712E-4,1.3188217821011048E-4,-5.0994427246983005E-5,2.186746072741806E-4,1.410677751244356E-5,-2.10415274007418E-4,2.934391848345312E-4,1.5385091311989472E-4,3.737114953095186E-4,2.406481852051938E-5,-4.6930452392945877E-4,4.5683955117581154E-4,-5.791881165113303E-5,1.500647928689372E-4,3.0958022790082793E-4,4.944181778495825E-4,1.6128611289593925E-4,4.5769744192330206E-4,1.2091379173567801E-4,-7.834455288191559E-5,-2.2339220623749918E-4,-2.9923172296916024E-4,-3.0500539983871586E-4,2.639898719376381E-4,3.171829787673384E-4,3.342931065141482E-4,-3.1426355983798804E-4,-4.356876589396527E-4,8.456945152339034E-5,-2.893279683641435E-4,-7.813013311791833E-5,1.4151179795516454E-4,-4.0164144822866805E-4,-2.357323826688948E-4,-1.8685222162598869E-4,-2.168867322877276E-4,-2.884720726270483E-4,-3.6658290415914546E-4,4.079147692641804E-5,-1.063428390800205E-4,5.262606509526227E-5,4.987098486259877E-4,-1.948253100346065E-4,-2.382269403742186E-4,2.08846367035137E-4,2.561270392531358E-4,-2.6995040948458516E-4,2.2817203651395195E-4,-3.0266658834248806E-4,2.952395742661871E-5,-1.0414948528300933E-4,4.240221539463199E-5,3.799110767507958E-4,-1.880827682143069E-4,5.068087461686356E-4,1.0723079515661286E-4,-2.6659660426170206E-4,-4.3627170724715885E-4,-1.472642535746105E-4,1.0354806562147106E-5,-1.7916373469144663E-4,7.665600247689412E-5,-2.654900037935237E-4,-2.1112485602154315E-4,-2.900135178775568E-4,-4.869352338755366E-5,3.146630537199807E-4,3.266471479896668E-4,-1.0377057241899211E-4,-4.286887478199484E-4,4.2884681332617235E-5,1.407591684959919E-4,-4.042461458464233E-4,-4.256658424954575E-5,-1.883997221426976E-4,2.855248286248112E-4,4.768487511790261E-4,3.7347969047272307E-4,3.4251856838005595E-4,2.1514430856818683E-4,1.9396301497760424E-4,2.206767810343908E-4,1.885545318599999E-4,7.161705423895829E-4,-2.1416318892946595E-4,-1.938831321945242E-4,1.587236668459171E-4,-2.4870385227282303E-4,1.051079531278808E-4,2.975594732735337E-4,4.929080804849504E-4,-4.106032902105554E-4,1.687053627658439E-4,7.284057050205321E-4,5.418566292589856E-4,-8.590778524956015E-5,-4.289177524959935E-4,1.596288708376845E-5,2.270404903954451E-4,7.314446230194335E-5,-3.745737615064989E-4,-2.217657121680387E-4,-2.4022787261712553E-4,7.129363707506597E-4,-3.593524082828265E-4,-3.727900874460098E-5,1.9182513042680563E-4,-3.0596276984628834E-4,1.3279904730183634E-4,4.278849413125248E-5,-4.198144771347694E-4,6.34216097814385E-4,3.47173258421694E-4,1.4374466857189108E-4,2.648204903582167E-4,5.716320173802394E-4,-9.74476764893866E-5,1.1233100514195136E-4,1.1366813161970584E-4,-6.35085222987288E-4,2.1889867051511658E-4,1.734938602345354E-4,-2.6696715929070547E-4,1.5293898127668892E-4,5.094345364962149E-5,-3.634223977455177E-5,-2.2337222639523494E-4,-5.190707400174381E-4,-6.024971811491354E-5,-9.70849693040369E-4,4.2421175119782624E-4,1.207654857621801E-4,3.345157099560638E-4,2.6662756792524976E-4,4.995555632387643E-7,1.7429373667418626E-4,-3.4112642184148965E-5,-8.292586975763083E-4,7.74978022401745E-6,-5.4588156245452E-4,1.7133571623537382E-4,7.764097654227399E-4,-1.8578194633410978E-4,5.718702098921968E-4,1.0998442090017875E-5,8.446836739401101E-4,6.512942354493634E-4,-6.400485574810311E-4,-5.069905588372157E-4,-0.0010166687788043056,2.623148989065678E-4,6.017599580111131E-4,1.3198844621633586E-4,5.39670320192793E-4,3.707816301498322E-4,3.325138879977222E-4,-4.77558210241682E-5,-4.795520407203344E-4,-6.768676999469726E-4,-9.314775686498205E-5,2.6583768865075827E-4,8.07994500291951E-4,2.1850342879218223E-4,1.6320318726671144E-4,4.014666765278938E-5,4.1841561712677806E-4,-2.228898815066046E-4,4.215275381279756E-4,-3.164455578319444E-4,1.772929112414264E-4,-3.4934922776731097E-4,1.2329177004313842E-4,4.8142804680480856E-4,7.890294221117293E-6,3.5553312951527947E-4,-2.9597477350817527E-4,3.080259095402731E-4,7.837869076803846E-4,-6.06738711690763E-4,4.886123484191511E-4,-1.384451878811388E-4,-6.365691321731138E-5,3.9162360783441026E-4,7.62593234735609E-4,-3.1985745753108214E-4,-2.174094432395052E-4,-1.5336105650608383E-4,0.0011082853849491289,1.2158805700313782E-4,1.1349071793589034E-4,-4.800668274687919E-4,-2.9272463000440776E-4,-7.327206868491248E-4,1.7235901405787828E-4,1.0960838770970305E-4,-5.095846469791227E-4,-1.37835393627582E-4,6.440003031427918E-4,-4.929244010133099E-4,7.420192121258208E-4,-3.8027240585474203E-4,1.1811598868682869E-4,-6.868867944991015E-4,6.657004067049388E-4,-6.588415054565365E-4,2.7594464492384385E-4,-4.603414401137531E-4,-2.599353610063353E-4,-3.7981328739521516E-4,5.136504391745728E-4,-9.705287338832959E-5,-6.080870232426267E-4,-5.136493796046383E-4,8.321261840037905E-4,-2.545900194610974E-4,3.394227623009253E-4,-1.7539116734529355E-4,9.728142075871374E-5,-4.2065561199035323E-4,-1.6673508467481742E-4,-1.0437711231427268E-4,-5.279024981739907E-4,-8.043724916388002E-4,6.740472565538372E-4,1.1431907463915232E-4,6.35996463293191E-5,7.079727303916418E-4,-7.772018689599943E-4,4.5285548208131817E-4,6.636266517262525E-5,-1.1927589475850626E-4,-5.488436436955364E-4,-9.053701086503956E-4,5.920713696206236E-4,-1.4290706674538402E-4,-2.287918895395177E-5,1.7945443482639218E-4,-7.103001222590506E-4,-3.930655715354567E-4,3.9021959511832455E-4,-3.1578766294037998E-6,-7.687513975924226E-5,-4.014313318945942E-5,7.479391466033777E-5,5.074850460199553E-4,2.000637899429682E-4,9.197222897561301E-4,1.6874673337228765E-4,1.8310915251319992E-4,-7.695949842270444E-5,4.1986495783625176E-4,-4.282098082026178E-4,-3.7196826767588057E-4,4.4276854393497824E-4,2.6434492087938426E-4,-4.822873823661123E-5,8.686093657136943E-6,-7.417268076745705E-5,-8.602418722575189E-5,9.585902281570255E-5,-3.13573162096192E-5,-2.3602615252400134E-4,-2.7360404413723357E-4,3.356435020725726E-4,5.143566514979486E-4,-4.221930139982492E-4,6.893466853058648E-4,3.668204761384121E-4,2.68742112033308E-4,4.181766466982209E-4,3.161086786255637E-5,-8.759212231851847E-5,4.757394294286764E-4,3.518120355105087E-4,6.554111984919979E-4,1.7339899449796172E-4,-2.4413387051133216E-4,4.3863198898717924E-4,3.752083498744725E-4,-1.4506268647286748E-4,-1.2321249000598155E-4,-1.3472817651897145E-4,3.158823182729343E-4,1.957585203902448E-4,1.2673345390961028E-4,5.507882244829592E-5,-9.410025445240303E-5,-3.614156976945825E-4,-4.1656824110246083E-4,4.947507471046094E-4,-2.959720361138848E-4,-4.8878340417807314E-5,2.7584765806114227E-4,2.83229783979268E-4,-3.8348272096069944E-4,-2.139240929480087E-4,-1.198264847162401E-5,1.572814050232257E-4,-2.099936579682364E-4,-1.9469329323870304E-5,3.2693559753437293E-4,3.4359289135523315E-4,1.2917796870127512E-6,2.9105396851829144E-4,-2.813972559067763E-4,3.089030834907481E-4,4.0815755799862574E-4,4.809343797436398E-4,3.921104737246181E-4,8.239652644590036E-5,-2.718347035832011E-4,2.8543185180114557E-4,-1.8910845442603291E-4,6.51813810458184E-5,-3.885150131412816E-4,4.759792069352611E-4,-1.943786163412075E-4,2.4805225756515444E-4,6.717944562033974E-5,1.4889861421361501E-5,1.447927315679476E-4,5.050660056624632E-4,-4.196514889922042E-4,5.576968335699008E-5,2.9591011026348354E-4,9.719428684943889E-5,-1.003256847374152E-4,2.725674768754042E-4,-1.9167169623281576E-4,1.7094994845636297E-4,-3.512698178160871E-4,4.012623578291238E-4,3.525291530125612E-4,2.361926845930192E-4,-3.0293070534855677E-4,-3.72842072070871E-4,1.0096465818873712E-4,-3.276543729778392E-4,1.8034498584595577E-6,4.080811796208264E-4,2.9241359595795057E-4,3.8611956013419774E-4,-3.6960412809366463E-4,5.852484771038052E-5,8.93862664357866E-5,-4.3722813629160534E-4,4.6302413772458974E-4,3.364108887248409E-4,-1.975699608919357E-4,5.024171880374935E-6,5.262542714379824E-4,3.0693261218590087E-4,1.1148565192423356E-4,5.100839749825544E-4,-4.191869343703021E-4,3.614663605174274E-4,1.7593551025177118E-4,-1.1359826800240103E-4,-2.749716549427999E-4,3.763637789645246E-4,4.081467839877393E-5,5.152950157125256E-4,4.902426867889976E-4,1.6321444272429398E-4,-1.9081690755341218E-4,2.248080376633739E-5,1.7757853703942428E-4,-4.7931421527924517E-4,-2.2455039940640957E-4,2.9551972452815985E-4,8.413386292515749E-6,1.6339451120835514E-4],[-4.914040773659633E-4,6.164287966048992E-4,2.9628860864355544E-4,5.101850512062033E-4,1.5584774423792332E-4,-1.0102257145641719E-4,2.790264315029521E-4,-2.925499979097635E-4,9.792798201081553E-5,5.758079091387628E-4,1.136634107052553E-4,-9.455878337757034E-5,-3.812030536089534E-4,6.585176206142567E-5,1.8728760897779596E-4,-4.978498676384049E-4,-1.799753598593617E-4,-3.5246238217614463E-4,2.581019638584981E-4,-3.7791714993023315E-5,1.9544063505344962E-4,5.036012047134179E-4,-1.7819562869367034E-4,5.181017656031614E-4,7.759060044733822E-5,-6.344643718797106E-4,-8.592341867139159E-4,-2.819488968969715E-4,4.6049606513360946E-4,4.2043049461501264E-4,2.2378418497715325E-5,4.026045828893476E-4,4.6823891172755847E-4,1.605107382668179E-4,6.498619821957987E-4,-5.194666020161846E-4,-5.133997288400343E-4,-3.387436298551099E-4,2.943342476532266E-4,3.538744342478209E-4,4.633198224409805E-4,5.455196511063251E-4,2.5051818620910405E-4,8.179814711755474E-4,4.3148937526366174E-4,-3.5864843341471957E-4,-6.607582571767792E-4,-9.98509454219781E-4,8.19256193645612E-4,7.611181448306353E-4,-5.606309954711609E-5,3.62917561645414E-4,2.4936484027281207E-4,6.07615642315245E-4,5.312614768134897E-5,-2.752812107862902E-4,-7.67657883063149E-4,-2.375414279081598E-4,4.11042730853808E-5,0.0010321665850008806,3.264376705230518E-5,1.6699424887411355E-4,-8.505581316529658E-5,5.066475781245413E-4,1.0893549825797404E-4,-6.21689855799931E-4,-6.817821731529584E-4,7.673628708332023E-5,2.081705404921827E-4,8.889156514186405E-4,2.0911592810823827E-4,3.0780062638029377E-4,1.8579214326074555E-4,-2.2041554602012924E-4,4.1400806037814465E-4,2.101131323545675E-4,-6.029036384701263E-4,5.634203290683429E-4,-3.484386045568435E-4,8.582287611085971E-4,-1.39351475304524E-4,1.7223896308572368E-4,4.5464886827056156E-4,-6.225386254125002E-4,-3.3168006954483007E-4,0.0010337801720140237,-4.7054642609165113E-4,8.136552172973416E-4,-6.117324470781975E-4,5.089803524950321E-4,1.560798658687446E-4,-1.4738236293927292E-4,-2.0529060060583696E-5,2.2887805544382438E-4,-5.106986030430874E-4,9.96385867360552E-4,-5.014676083487269E-4,1.4108366172156002E-4,1.9635725054660075E-4,-5.318506574643452E-4,-1.1647464943517489E-4,-1.0347273224668518E-4,-1.5613540027408922E-4,1.0645983001108928E-4,-6.691650981040621E-4,6.973231939608899E-5,4.0426472881622085E-4,9.609063257894544E-4,2.1557088392690523E-7,1.9957540096946484E-4,-4.4648019422285825E-4,8.817629500289107E-4,1.7025501159233111E-4,-2.867459789943982E-4,-2.5899012224749675E-4,3.205614731604391E-4,2.7394294493266396E-4,7.000984762460692E-4,4.537975114979388E-4,-8.695627130110888E-4,-4.322577003193996E-4,2.306332895119613E-4,3.512402657972241E-4,2.813595075982018E-4,-1.4480124743973739E-4,-1.4520074088379803E-4,-2.329400367370155E-4,2.549863751248422E-4,1.62143748080015E-4,-9.714495251709386E-4,-5.287795432355888E-5,7.621159589172546E-4,-2.81615310850048E-4,7.340414849220998E-4,1.51216331881996E-4,-4.5741860338551177E-4,4.276148555993417E-4,-1.2529331767839299E-4,3.114242970942362E-4,-2.181031026697045E-4,9.379541142498102E-5,1.9081529827980176E-4,2.2947329409019602E-4,6.970619027892129E-4,2.3240561877879197E-4,-1.352679301383467E-4,3.908885537177187E-4,-2.4159819643791177E-4,8.856242513568159E-5,-7.00479967471027E-4,-1.2917901125111033E-4,6.97689687519624E-4,4.6542891401908957E-4,5.541920547686949E-4,3.42788142460585E-4,1.5662891210718177E-4,-1.4691374229628884E-4,-4.712647595887556E-4,1.706983958198464E-4,-1.2644432334073645E-4,1.1622400340850285E-4,1.419386816465091E-4,5.577419032241019E-4,-4.330661246631208E-5,5.227232777621616E-4,3.1120211711941953E-4,3.4963193258053665E-4,-1.0412130044724323E-4,3.4254944756528354E-4,-9.14098511380583E-5,2.6963128854283193E-4,2.4093992165602317E-4,3.8462348267450963E-4,2.1570538650214876E-4,1.5121545233855808E-4,3.8264407985830857E-4,2.252174949330537E-4,3.0349078098458837E-4,4.5152089751269834E-4,1.8079636273339253E-4,-4.3643853032559457E-7,-3.181790411225461E-4,1.5218280685928726E-4,1.560288055127501E-4,-1.534216211675565E-5,1.671982177101262E-4,1.986906583438925E-5,-1.056167805492345E-4,-3.233062079288196E-5,-1.0784468250950232E-4,-2.7148155908390227E-5,3.9433432931464243E-4,5.163741454797782E-4,2.747712428896904E-4,-1.272154151171136E-4,-3.3202985472860226E-4,-1.716256065888027E-4,1.238055005941395E-5,3.663491220836973E-5,-1.5720032656916597E-4,2.0162954132596592E-4,4.727029247805343E-4,-1.6229232331958847E-4,1.2289561420405257E-5,1.6934483358272044E-4,-3.721544531748251E-5,-1.8736443102976565E-4,-3.3855288874991E-4,-2.1262387675128618E-4,2.562335320032129E-4,1.8663386434026412E-4,6.578345023441105E-5,-2.6984076657973104E-4,-1.0496334725931975E-6,3.111076840685106E-5,-4.328013834251023E-4,-3.6939608472230336E-4,-2.745999085845614E-4,-1.2973582127711673E-4,4.98948949527491E-4,-3.91756936408575E-4,-3.8179398529032026E-4,2.5589217974097636E-4,-2.9392219673902585E-4,4.7407175554912815E-4,-2.841005312567229E-4,-3.952820897716761E-4,4.95729765640426E-4,2.8053460033938013E-4,-2.9021741233495665E-4,3.0503758674963686E-4,1.8558440481580165E-4,-1.8708520279686278E-5,3.343088303485961E-4,1.1909793237306522E-4,3.3232014024745703E-4,3.277641755796433E-4,-5.577442946645152E-5,7.088839114154606E-5,-1.3368663491166344E-4,5.468916787199883E-4,-6.701913440054476E-5,-2.8072166471396085E-4,-4.247306599799421E-4,-3.479833676782546E-4,5.004124436322747E-4,9.190968101893178E-5,-3.5761586361494473E-4,2.3666781472389764E-4,5.38423413167338E-4,-1.3586769430427894E-4,-3.703621628242281E-4,-3.38463607361921E-6,4.914460569254869E-4,-1.0561349629935828E-4,2.450394622389957E-4,-9.991517795525942E-5,-1.0906606808629133E-4,-1.3771906140274705E-4,-2.457491738357976E-4,3.453991333239989E-5,-6.316712901601201E-5,3.0054708901244484E-4,-3.0792228175772704E-4,-3.705197609804651E-4,3.7534171844018593E-4,-3.2609128209158873E-4,-3.410262717685527E-4,-1.9503679046861347E-4,-8.339331722242531E-5,-2.8267954876047E-5,7.111949375699198E-5,1.6026012253576033E-4,-5.721296046759912E-5,-2.8484681257176476E-4,-9.825468678718304E-5,3.258044561548649E-4,1.6348426529860395E-4,4.3099753828803206E-4,-1.3780832638226413E-4,4.101711130316881E-4,4.324917902683907E-4,-1.6871504230210222E-4,1.4396894181973375E-5,-5.360102423248287E-5,-1.7535124718597223E-4,-5.367474274789767E-4,-3.9889755290257567E-4,4.865035005268013E-4,-3.212035730205247E-4,-3.340978416443858E-4,2.207914067090424E-4,-4.983588293425625E-5,-1.0588089777202497E-4,3.670769220359442E-4,-3.656046145177292E-4,-8.168398795057639E-5,1.2775061267209363E-4,7.100440794157478E-5,-1.842917360073556E-4,3.6328255619490956E-4,-9.890497174643136E-5,2.0965798862033873E-4,7.937397245482813E-4,4.3798735886147854E-4,-4.447875972589464E-4,-3.382251600752511E-4,-7.710490874139579E-4,4.900887723954323E-4,9.079521083215701E-4,3.8277919681839267E-4,-2.515220309784078E-4,2.42748038879697E-4,6.940156777550486E-4,3.4797125200699706E-4,3.4876587913197186E-5,-7.254045077998428E-4,-3.575524305496435E-4,6.241326143512868E-4,5.406784386821763E-4,4.1351662119552547E-4,-2.9710003625997057E-5,1.7900951998678274E-4,4.809999498913976E-5,6.30483886659991E-4,-1.9236919630080614E-4,-4.716929753621589E-4,-5.449616096751415E-4,3.221321296162964E-4,5.73179726014217E-4,-1.6354557680206338E-4,-7.353112056145504E-4,-4.637767852374746E-5,-1.2006021320308332E-4,-1.197282417096187E-5,-8.681128411489012E-5,-7.400502930911054E-4,-3.0363520011184085E-4,8.341918192079922E-4,5.598999731440705E-4,4.857658383084101E-4,-4.14271921450881E-4,3.06945707481072E-4,-1.279572751779696E-4,4.028086300768411E-4,-6.004801974092451E-4,-1.5627268139337014E-4,5.466011415507547E-4,-1.317447260853777E-4,0.001082416062311734,1.706695552259289E-4,4.326153259034637E-5,8.725711264739469E-4,-4.739324232184506E-5,-1.2418043955160306E-4,8.849220898173581E-4,-9.135379750781139E-4,1.2143732817975834E-4,1.220615097996283E-5,9.113955296806107E-4,-2.983897895165147E-4,-2.2514696040851779E-4,3.79685650591285E-5,1.6011038201227636E-5,-1.1298387806111455E-4,0.0013907196286390222,-5.565726931193432E-4,5.515153548934249E-4,-6.851716179219946E-4,-2.7754814598164E-4,-2.9489847530190995E-4,-7.693891133930432E-4,-3.774633502091818E-5,-2.644181852641242E-4,-9.068696532141057E-4,8.553794231227391E-4,1.0406789383892858E-4,7.35375817206672E-4,-2.428392500552874E-4,-4.486742116137126E-4,-4.687735531019319E-4,-4.892580407906704E-4,-2.093761853342838E-4,4.5498974555666734E-4,-3.0028405323731267E-4,1.6869191331261271E-4,-6.932005278765137E-5,4.8347942473614034E-4,7.582792145113829E-4,8.843280553804088E-5,-6.685987513321922E-4,5.334170799831097E-4,3.850639910264208E-4,4.570300976203592E-4,-3.350822705656376E-4,-4.0733257816998996E-4,-1.316714511841619E-4,6.314770995251553E-4,8.019702758560066E-4,-5.206413277582271E-4,2.5214098003512324E-4,1.637725875666613E-4,4.564209460781397E-4,7.837089407522247E-4,-3.75260106602533E-4,-2.2865336274368406E-5,-7.937277743055579E-5,4.476216916398406E-5,1.0334771957993703E-6,-8.050835226356298E-4,-4.42821018603843E-4,1.2990718197022338E-4,-5.4249506366141036E-5,2.6786294031719185E-4,1.644189648405476E-4,-4.267038416117457E-4,-2.3126383393363094E-4,1.1912886287280415E-4,3.489751314643098E-4,-3.1648974204371324E-4,-4.593434789607028E-5,8.325774260157189E-4,5.1405653408228E-4,4.292892801549832E-4,8.143006325106002E-4,-1.4666144190388056E-4,-7.232926422031615E-5,1.5135049607067073E-4,-1.4047573858395933E-4,-4.132788278258371E-4,-3.331096788163221E-4,4.196650185343121E-4,2.875826933086222E-4,1.8919292809442713E-4,8.640232380064526E-4,1.9246418636099507E-4,2.4811060862593045E-5,3.1446738068576364E-4,-8.062458584001447E-5,-6.111499041170646E-4,3.536447233686015E-4,-1.6797756763848633E-4,-3.005120078567681E-4,1.3491624797594605E-4,8.692950922124022E-4,-3.3488752579495203E-4,-2.342806682217417E-5,3.494329137260765E-5,-4.6732063099221E-4,-6.507323557950835E-4,4.69348825134326E-4,4.2832782527522337E-4,-3.0029717671542456E-4,3.2712060550209207E-4,8.011170778579577E-4,-3.7340851442606933E-4,-3.267312761527993E-4,-5.772837859218896E-5,-1.2702449114008408E-4,-6.705187464960789E-5,-2.715604086456718E-4,2.1732874241352956E-4,4.32122853631233E-4,-3.93113163888184E-4,3.2841788403052634E-5,-5.33507089570546E-5,-1.8979756902057687E-4,-4.707406375353971E-4,-3.564423535283907E-5,1.6840676333356182E-4,4.680825723439354E-4,-3.44015492873304E-4,-3.269806927037535E-5,3.207648658085218E-4,-2.1427576378888402E-4,-1.9783803585476895E-4,-1.3417202003523161E-4,-4.091252558151982E-4,-1.9800703302947574E-4,5.41077572601992E-4,1.5932038436703046E-4,2.405264808787834E-4,-2.9289062372070775E-4,8.167516726150134E-5,5.386154811604841E-4,1.1469499500999666E-4,-3.937745712765263E-4,-3.680238430286452E-4,5.073288486294305E-4,1.622209468324761E-4,5.330868036921399E-4,-2.2388264505239402E-4,-2.079445996545546E-4,-1.458644049601266E-4,2.3366626705404302E-4,-1.3208689120883306E-4,2.623823308369438E-4,-4.368995137219152E-4,-4.23954215045638E-4,4.8635112262704545E-4,4.073032164962554E-4,-4.246400953300474E-4,4.596495455014856E-4,-3.052593346068256E-4,1.918019922181527E-4,-4.1110156230720154E-4,1.4887205513195047E-4,-3.7817533065250415E-4,2.894475312273845E-4,2.4354909646527186E-4,-3.201700047721117E-4,7.392127861477598E-5,2.603793229482836E-4,-1.0058911346802996E-4,-1.426966980423553E-4,-1.2969468188702473E-4,-1.652150674685722E-4,3.116392302783171E-4,-1.2403239934548067E-4,-3.137629204720666E-5,-1.4130114064703866E-5,1.0356648163913487E-4,-2.433934481351436E-5,-9.827316972641401E-5,1.8253820571512258E-4,3.8240280967317654E-4,-4.0270347233563645E-4,4.0351920802630877E-4,5.112815801298361E-4,-1.7115599040214383E-4,4.5981548807876645E-4,-3.32294585830669E-4,-2.902189171733727E-4,4.087389859653642E-4,-4.297897310434488E-4,1.4237169025336908E-4,-2.585368480482907E-4,-2.553400206081373E-4,6.725672789928773E-5,-2.1806965262738065E-4,-3.13332591298826E-4,2.6735870214181164E-4,3.5783868747565575E-4,-3.357910833564447E-4,-3.6531118948309187E-4,-2.919663767468502E-4,-3.02032498741765E-4,1.7315353276940544E-4,-3.2365614704377117E-4,-3.7903064166592627E-4,3.555706830726402E-4,-1.938818792457644E-4,3.663654791788086E-4,4.5961193700670363E-4,-1.373562705523105E-4,-3.6134919153316835E-4,-4.0431206641556406E-4,2.92244796906722E-4,4.477593199228602E-4,1.6252481870874516E-4,-1.5131417420428012E-5,-2.0063185245803143E-4,1.3286185218964618E-4,7.30469280927823E-4,4.038494616822626E-4,