{
  "class": "com.simiacryptus.mindseye.network.PipelineNetwork",
  "id": "09d4eb72-e04b-4c17-8e5a-03508dac1c89",
  "isFrozen": false,
  "name": "PipelineNetwork/09d4eb72-e04b-4c17-8e5a-03508dac1c89",
  "inputs": [
    "5a6a3761-f5be-4f7c-99dd-8156c5ec7f2a"
  ],
  "nodes": {
    "54f3d809-6797-4450-a750-76ea0a33ee86": "4cc308a1-c664-499c-8466-f6c598f21d5a",
    "74ee715f-2b07-4388-979a-9735d19ea53c": "ccbff0ad-1e5d-44c5-a8e1-afcfe96b897d",
    "2883185d-0bd6-4062-b449-194aecb5f8f4": "146ca3e3-7e3f-4662-90a7-9878a60b502c",
    "273f2f65-9ca1-4d7d-bb0b-f7ce64675539": "ef4f8e47-d99c-43e4-92c5-62bc4f511d10",
    "c5549cd8-01aa-40dd-8860-b19c5f395270": "42592c6c-0cb4-4300-a817-b4d2d2fec0db",
    "c52969f5-5857-4d2c-bd76-086b34c15466": "c4322a88-fbb6-44d8-a1cf-bbe2d00685ab",
    "b35de86c-d36e-4440-b84e-39a8ee74878e": "37e9461d-c270-4923-9628-9d086a0217a4",
    "0149bd9c-a6e3-4322-8879-cbd685207f30": "79b4e0b1-60cf-4d78-a4b9-c0b4bf55cd92",
    "868993a4-e929-4a91-a527-62f856065a02": "08a33ce3-19bd-47d0-8398-4b18e90fd634"
  },
  "layers": {
    "4cc308a1-c664-499c-8466-f6c598f21d5a": {
      "class": "com.simiacryptus.mindseye.layers.java.FullyConnectedLayer",
      "id": "4cc308a1-c664-499c-8466-f6c598f21d5a",
      "isFrozen": false,
      "name": "FullyConnectedLayer/4cc308a1-c664-499c-8466-f6c598f21d5a",
      "outputDims": [
        10
      ],
      "inputDims": [
        5,
        5,
        3
      ],
      "weights": [
        [
          -0.09160000000000001,
          0.0616,
          0.0238,
          -0.0086,
          0.094,
          0.015600000000000001,
          -0.056600000000000004,
          -0.041400000000000006,
          -0.0362,
          0.043,
          0.0048000000000000004,
          -0.01,
          0.0664,
          -0.08580000000000002,
          -0.0714,
          0.08180000000000001,
          0.045,
          0.0014000000000000002,
          0.013200000000000002,
          -0.09780000000000001,
          -0.007,
          0.07060000000000001,
          0.0164,
          0.002,
          0.038400000000000004,
          -0.0128,
          0.0318,
          0.0926,
          -0.0088,
          -2.0E-4,
          0.027,
          0.0816,
          -0.056400000000000006,
          -0.0646,
          -0.0644,
          -0.033600000000000005,
          -0.030400000000000003,
          -0.09240000000000001,
          -0.040400000000000005,
          0.021,
          -0.0558,
          0.055600000000000004,
          -0.06280000000000001,
          -0.062,
          -0.059800000000000006,
          0.08380000000000001,
          -0.0426,
          0.0558,
          0.023200000000000002,
          0.0806,
          0.0626,
          0.0854,
          -0.07780000000000001,
          0.0946,
          0.0172,
          0.050800000000000005,
          -0.033,
          -0.094,
          -0.047400000000000005,
          -0.006600000000000001,
          0.08380000000000001,
          -0.0526,
          0.0,
          0.048,
          -0.0432,
          -0.0548,
          -0.0708,
          -0.039400000000000004,
          -0.0606,
          -0.0244,
          -0.0842,
          -0.027200000000000002,
          -0.0932,
          0.062,
          0.008400000000000001
        ],
        [
          0.092,
          -0.08360000000000001,
          0.0334,
          0.0134,
          -0.0048000000000000004,
          0.0122,
          0.033,
          -0.022,
          -0.0034000000000000002,
          0.0698,
          0.0492,
          -0.06,
          -0.040400000000000005,
          0.0646,
          0.0796,
          0.077,
          -0.042,
          -0.022,
          0.071,
          -0.023200000000000002,
          0.039,
          -0.015600000000000001,
          -0.091,
          -0.09880000000000001,
          -0.0032,
          -0.0108,
          -0.0302,
          -0.033800000000000004,
          -0.06380000000000001,
          -0.082,
          0.0286,
          0.0864,
          0.09340000000000001,
          -0.0702,
          0.003,
          0.0408,
          0.062200000000000005,
          0.06180000000000001,
          0.038,
          0.0732,
          -0.046,
          -0.0108,
          0.018,
          0.006600000000000001,
          -0.06720000000000001,
          -0.008400000000000001,
          0.013600000000000001,
          -0.0722,
          0.0024000000000000002,
          0.036800000000000006,
          0.06180000000000001,
          -6.000000000000001E-4,
          0.03780000000000001,
          0.036,
          -0.0762,
          0.021200000000000004,
          0.043800000000000006,
          -0.0048000000000000004,
          0.05280000000000001,
          -0.09140000000000001,
          0.073,
          0.0332,
          0.0048000000000000004,
          0.05040000000000001,
          0.033800000000000004,
          0.032,
          -0.07560000000000001,
          0.0012000000000000001,
          0.061,
          0.07640000000000001,
          -0.0302,
          0.030600000000000002,
          -0.048600000000000004,
          -0.0476,
          -0.04240000000000001
        ],
        [
          -0.09960000000000001,
          -0.0054,
          -0.075,
          0.0704,
          0.032,
          0.054400000000000004,
          0.0198,
          0.0144,
          -0.027800000000000002,
          -0.0826,
          -0.008400000000000001,
          -0.0902,
          0.0454,
          0.0268,
          0.0268,
          0.0762,
          -0.037,
          -0.041,
          0.051800000000000006,
          0.0482,
          -0.0742,
          0.0974,
          -0.049800000000000004,
          0.0024000000000000002,
          0.0386,
          -0.049800000000000004,
          -0.013,
          -0.026200000000000005,
          0.024,
          -0.09240000000000001,
          -0.0718,
          -0.059800000000000006,
          0.07579999999999999,
          -0.040600000000000004,
          0.073,
          0.0284,
          -0.07460000000000001,
          0.038400000000000004,
          -0.024200000000000003,
          -0.0842,
          0.01,
          -0.0682,
          -0.09380000000000001,
          -0.0058000000000000005,
          -0.0558,
          0.0148,
          0.006600000000000001,
          -0.0966,
          0.025,
          0.006,
          0.0488,
          -0.061200000000000004,
          -0.0258,
          -0.0322,
          -0.0398,
          -0.0516,
          -0.0488,
          0.0454,
          0.0816,
          0.0674,
          0.022200000000000004,
          0.089,
          0.0038000000000000004,
          0.09620000000000001,
          0.0976,
          0.0024000000000000002,
          0.09240000000000001,
          0.068,
          -0.088,
          0.0208,
          0.015600000000000001,
          -0.05040000000000001,
          0.027200000000000002,
          -0.07660000000000002,
          -0.031
        ],
        [
          0.07260000000000001,
          0.08760000000000001,
          -0.09160000000000001,
          -0.012,
          -0.04240000000000001,
          0.06080000000000001,
          -0.0204,
          -0.07579999999999999,
          -0.0154,
          -0.0068000000000000005,
          0.0234,
          0.083,
          0.054200000000000005,
          -0.093,
          8.0E-4,
          0.005600000000000001,
          0.0604,
          -0.0926,
          -0.0644,
          0.038200000000000005,
          0.0148,
          -0.016800000000000002,
          0.044,
          0.030400000000000003,
          0.09060000000000001,
          0.0582,
          0.06180000000000001,
          -0.0918,
          -0.081,
          0.05740000000000001,
          -0.049,
          0.0658,
          -0.0054,
          0.0244,
          0.011,
          -0.007,
          0.0256,
          -0.0298,
          0.0436,
          -0.07660000000000002,
          -0.0974,
          0.0,
          0.0842,
          -0.022200000000000004,
          0.006,
          0.0898,
          -0.0122,
          -0.0592,
          -0.0786,
          -0.09140000000000001,
          0.0258,
          0.040600000000000004,
          2.0E-4,
          0.0388,
          -0.09860000000000001,
          -0.037200000000000004,
          0.0014000000000000002,
          0.08680000000000002,
          0.032,
          0.0952,
          0.0124,
          -0.0356,
          0.0884,
          -0.05840000000000001,
          -0.0526,
          -0.0488,
          0.04580000000000001,
          -0.06760000000000001,
          0.064,
          0.0302,
          -0.0742,
          0.0318,
          0.09140000000000001,
          -0.0772,
          -0.062
        ],
        [
          -0.0256,
          0.06380000000000001,
          -0.0476,
          0.09620000000000001,
          0.035,
          -0.0952,
          -0.048400000000000006,
          0.006600000000000001,
          0.036800000000000006,
          0.0506,
          0.0626,
          -0.08780000000000002,
          0.0568,
          -0.067,
          0.027,
          0.058,
          -0.004600000000000001,
          0.025400000000000002,
          -0.023600000000000003,
          0.0722,
          -0.04580000000000001,
          0.062400000000000004,
          0.051,
          -0.0028000000000000004,
          0.025,
          -0.0658,
          -0.0984,
          -0.026600000000000002,
          0.062200000000000005,
          0.08860000000000001,
          0.0586,
          -0.09620000000000001,
          0.07,
          0.09480000000000001,
          -0.096,
          -0.067,
          0.05040000000000001,
          -0.0854,
          0.021200000000000004,
          -0.0804,
          -0.0268,
          0.048400000000000006,
          0.0576,
          -0.043800000000000006,
          -0.09160000000000001,
          0.069,
          -0.0124,
          0.0874,
          -0.007600000000000001,
          -0.0316,
          -0.008,
          0.0632,
          0.0218,
          -0.023,
          0.0826,
          -0.057800000000000004,
          -0.0188,
          0.012,
          -0.0772,
          -0.069,
          0.091,
          -0.082,
          0.08560000000000001,
          -0.026200000000000005,
          0.0064,
          -0.0548,
          -0.0492,
          -0.0626,
          -0.06960000000000001,
          -0.093,
          0.093,
          -0.001,
          -0.060200000000000004,
          0.030600000000000002,
          -0.009
        ],
        [
          0.0466,
          -0.025200000000000004,
          -0.037200000000000004,
          0.011200000000000002,
          -0.05140000000000001,
          -0.09060000000000001,
          -0.019600000000000003,
          0.0124,
          0.08080000000000001,
          -0.05040000000000001,
          0.09980000000000001,
          -0.039,
          -0.0074,
          0.0826,
          -0.002,
          0.0572,
          -0.0408,
          -0.08560000000000001,
          0.033,
          -0.0176,
          0.096,
          -0.011600000000000001,
          0.0028000000000000004,
          -0.025400000000000002,
          0.022,
          0.0898,
          -0.0398,
          0.0956,
          -0.037200000000000004,
          -0.039400000000000004,
          0.0994,
          -0.0302,
          0.08940000000000001,
          -0.08280000000000001,
          -0.09240000000000001,
          0.052,
          -0.092,
          -0.075,
          0.0796,
          -0.07560000000000001,
          0.0072,
          0.065,
          -0.008,
          0.010600000000000002,
          0.0028000000000000004,
          0.0268,
          0.07,
          0.027600000000000003,
          -0.049400000000000006,
          0.0108,
          0.01,
          -0.0932,
          -0.07780000000000001,
          -0.0108,
          -0.06620000000000001,
          0.07379999999999999,
          -0.0016,
          -0.0086,
          -0.0144,
          0.051,
          4.0E-4,
          0.0218,
          0.06,
          -0.037200000000000004,
          -0.001,
          -0.0974,
          -0.0702,
          -0.0362,
          -0.035,
          0.054400000000000004,
          -0.09,
          -0.0402,
          0.0512,
          -0.035,
          0.012600000000000002
        ],
        [
          0.081,
          -0.0832,
          0.0478,
          0.0052,
          -0.0026,
          0.06380000000000001,
          0.07579999999999999,
          0.004600000000000001,
          -0.0194,
          2.0E-4,
          0.05940000000000001,
          0.036800000000000006,
          0.009200000000000002,
          0.08940000000000001,
          -0.0442,
          0.0038000000000000004,
          0.079,
          -0.0568,
          -0.030600000000000002,
          -0.036,
          -0.0724,
          0.095,
          0.025200000000000004,
          0.0086,
          -0.0814,
          -0.0154,
          0.075,
          -0.08940000000000001,
          0.038400000000000004,
          -0.031400000000000004,
          -0.06620000000000001,
          -0.007,
          0.025,
          -0.0218,
          0.0206,
          0.0176,
          0.0366,
          -0.0734,
          -0.08,
          -0.09580000000000001,
          -0.093,
          -0.056400000000000006,
          0.06380000000000001,
          0.036800000000000006,
          0.0476,
          -0.007600000000000001,
          0.053200000000000004,
          -0.0992,
          0.0422,
          0.06380000000000001,
          0.0692,
          -0.0402,
          -0.0028000000000000004,
          -0.048400000000000006,
          0.016800000000000002,
          0.0728,
          -0.047200000000000006,
          0.0228,
          0.0274,
          0.040600000000000004,
          0.08560000000000001,
          0.0942,
          0.0912,
          0.0102,
          0.062200000000000005,
          0.055400000000000005,
          0.0572,
          -0.023600000000000003,
          0.08220000000000001,
          -0.0188,
          0.0244,
          0.09040000000000001,
          -0.0134,
          0.0318,
          -0.021
        ],
        [
          0.058800000000000005,
          -0.0664,
          -0.0974,
          0.07460000000000001,
          0.07,
          -0.0012000000000000001,
          0.021,
          0.037399999999999996,
          0.0316,
          -0.026,
          0.009200000000000002,
          0.044800000000000006,
          -0.05140000000000001,
          -0.08560000000000001,
          -0.0298,
          -0.07980000000000001,
          -0.0344,
          0.0606,
          -0.053,
          -0.0874,
          -0.07440000000000001,
          0.0656,
          -0.076,
          0.075,
          -0.092,
          -0.06080000000000001,
          0.04340000000000001,
          -0.09480000000000001,
          -0.0682,
          0.058800000000000005,
          0.010600000000000002,
          -0.016,
          -0.0668,
          0.049800000000000004,
          -0.011,
          -0.0694,
          -0.0172,
          -0.0674,
          0.025200000000000004,
          0.0284,
          0.0182,
          -0.035800000000000005,
          0.059,
          -0.0832,
          -0.0862,
          -0.054400000000000004,
          -0.031200000000000002,
          0.08940000000000001,
          0.045,
          0.04440000000000001,
          0.07680000000000001,
          0.0036,
          0.033,
          -0.0632,
          0.053,
          0.057,
          0.060200000000000004,
          -0.025200000000000004,
          -0.09040000000000001,
          0.07,
          -0.039,
          0.015600000000000001,
          0.0346,
          -0.0852,
          -0.038,
          0.086,
          -0.0198,
          0.050800000000000005,
          0.008,
          0.0664,
          -0.0104,
          -0.062400000000000004,
          0.0396,
          0.0752,
          0.089
        ],
        [
          0.023600000000000003,
          -0.0966,
          -0.0346,
          -0.0626,
          -0.0816,
          -0.024,
          0.0352,
          0.031200000000000002,
          0.059,
          -0.0332,
          0.063,
          0.037200000000000004,
          0.08180000000000001,
          -0.0966,
          0.06,
          -0.027,
          -0.07160000000000001,
          -0.053,
          -0.0178,
          -0.044800000000000006,
          -0.0268,
          -0.067,
          -0.0792,
          -0.005600000000000001,
          -0.08180000000000001,
          0.0632,
          -0.011600000000000001,
          0.0154,
          0.094,
          -0.036800000000000006,
          0.07940000000000001,
          -0.031200000000000002,
          0.0874,
          -0.0526,
          0.027200000000000002,
          -0.0694,
          -0.09240000000000001,
          -0.046400000000000004,
          0.0188,
          -0.033,
          0.0742,
          0.049,
          -0.043800000000000006,
          -0.077,
          -0.06340000000000001,
          -0.0496,
          0.013200000000000002,
          0.035800000000000005,
          -0.07579999999999999,
          0.09960000000000001,
          -0.092,
          -0.008,
          -0.026200000000000005,
          -0.027800000000000002,
          -0.0344,
          -0.0522,
          -0.0052,
          -0.0274,
          0.055200000000000006,
          -0.012600000000000002,
          0.0646,
          0.09140000000000001,
          0.036800000000000006,
          -0.0256,
          0.0316,
          0.051800000000000006,
          -0.0014000000000000002,
          0.02,
          0.073,
          -0.07360000000000001,
          0.08940000000000001,
          -0.0864,
          -0.07660000000000002,
          0.046400000000000004,
          0.0718
        ],
        [
          -0.0952,
          -0.0238,
          0.0176,
          -0.013200000000000002,
          0.024200000000000003,
          -0.0692,
          -0.0926,
          -0.0012000000000000001,
          0.0158,
          -0.019,
          0.025200000000000004,
          0.0712,
          0.0274,
          0.089,
          -0.062200000000000005,
          -0.0892,
          -0.093,
          -0.026600000000000002,
          0.0142,
          -0.047200000000000006,
          -0.06420000000000001,
          0.040600000000000004,
          -0.095,
          0.0558,
          -0.031200000000000002,
          -0.09620000000000001,
          0.079,
          -0.001,
          -0.0114,
          0.0918,
          0.041800000000000004,
          -0.063,
          0.0318,
          0.0204,
          0.0654,
          0.038400000000000004,
          0.028,
          -0.026,
          -0.018600000000000002,
          -0.0086,
          0.06280000000000001,
          0.023600000000000003,
          -0.046,
          -0.0274,
          -0.08680000000000002,
          0.0154,
          -0.0614,
          -0.0114,
          0.0862,
          -0.022,
          0.010600000000000002,
          0.0148,
          -0.056600000000000004,
          0.057,
          -0.04,
          -0.063,
          0.0072,
          0.0478,
          -0.087,
          -0.030400000000000003,
          0.0796,
          0.0476,
          -0.06620000000000001,
          -0.062200000000000005,
          -0.07780000000000001,
          0.0704,
          0.0328,
          -0.0328,
          0.002,
          0.075,
          0.095,
          0.079,
          -0.0722,
          -0.022400000000000003,
          -0.055200000000000006
        ]
      ]
    },
    "ccbff0ad-1e5d-44c5-a8e1-afcfe96b897d": {
      "class": "com.simiacryptus.mindseye.layers.java.BiasLayer",
      "id": "ccbff0ad-1e5d-44c5-a8e1-afcfe96b897d",
      "isFrozen": false,
      "name": "BiasLayer/ccbff0ad-1e5d-44c5-a8e1-afcfe96b897d",
      "bias": [
        0.0,
        0.0,
        0.0,
        0.0,
        0.0,
        0.0,
        0.0,
        0.0,
        0.0,
        0.0
      ]
    },
    "146ca3e3-7e3f-4662-90a7-9878a60b502c": {
      "class": "com.simiacryptus.mindseye.layers.java.SigmoidActivationLayer",
      "id": "146ca3e3-7e3f-4662-90a7-9878a60b502c",
      "isFrozen": true,
      "name": "SigmoidActivationLayer/146ca3e3-7e3f-4662-90a7-9878a60b502c",
      "balanced": true
    },
    "ef4f8e47-d99c-43e4-92c5-62bc4f511d10": {
      "class": "com.simiacryptus.mindseye.layers.java.FullyConnectedLayer",
      "id": "ef4f8e47-d99c-43e4-92c5-62bc4f511d10",
      "isFrozen": false,
      "name": "FullyConnectedLayer/ef4f8e47-d99c-43e4-92c5-62bc4f511d10",
      "outputDims": [
        10
      ],
      "inputDims": [
        10
      ],
      "weights": [
        [
          0.0604,
          0.08460000000000001,
          0.09680000000000001,
          -0.060200000000000004,
          0.0704,
          -0.0734,
          0.0032,
          -0.062200000000000005,
          0.0078000000000000005,
          -0.049800000000000004
        ],
        [
          0.043,
          -0.0256,
          0.0658,
          0.09040000000000001,
          -0.0176,
          0.089,
          0.05,
          0.066,
          -0.07980000000000001,
          0.0656
        ],
        [
          -0.06,
          -0.0258,
          -0.0238,
          0.054,
          0.08880000000000002,
          -0.0506,
          0.001,
          0.0356,
          -0.055200000000000006,
          -0.0614
        ],
        [
          0.0946,
          0.04340000000000001,
          0.062400000000000004,
          -0.05740000000000001,
          0.032,
          0.008400000000000001,
          -0.05940000000000001,
          0.0154,
          0.0422,
          -0.0942
        ],
        [
          0.04240000000000001,
          0.0558,
          0.0342,
          -0.0684,
          -0.08880000000000002,
          -0.0664,
          0.09680000000000001,
          -0.068,
          -0.044,
          0.07940000000000001
        ],
        [
          0.0068000000000000005,
          0.09780000000000001,
          0.046400000000000004,
          -0.066,
          0.004,
          -0.07260000000000001,
          -8.0E-4,
          0.028200000000000003,
          0.0454,
          0.052
        ],
        [
          0.051,
          0.0568,
          0.093,
          0.0946,
          0.0456,
          0.0882,
          -0.05840000000000001,
          0.0038000000000000004,
          0.087,
          -0.012
        ],
        [
          0.058,
          0.008400000000000001,
          -0.017400000000000002,
          0.0456,
          0.08380000000000001,
          0.0892,
          -0.047200000000000006,
          0.08680000000000002,
          0.0654,
          0.08020000000000001
        ],
        [
          -0.0318,
          0.08860000000000001,
          -0.06620000000000001,
          0.014600000000000002,
          -0.034,
          -0.02,
          0.038,
          0.08880000000000002,
          0.013600000000000001,
          0.0324
        ],
        [
          0.0176,
          -0.055400000000000005,
          -0.039400000000000004,
          -0.0616,
          -0.053,
          -0.0172,
          0.07460000000000001,
          0.021200000000000004,
          0.07660000000000002,
          -0.0308
        ]
      ]
    },
    "42592c6c-0cb4-4300-a817-b4d2d2fec0db": {
      "class": "com.simiacryptus.mindseye.layers.java.BiasLayer",
      "id": "42592c6c-0cb4-4300-a817-b4d2d2fec0db",
      "isFrozen": false,
      "name": "BiasLayer/42592c6c-0cb4-4300-a817-b4d2d2fec0db",
      "bias": [
        0.0,
        0.0,
        0.0,
        0.0,
        0.0,
        0.0,
        0.0,
        0.0,
        0.0,
        0.0
      ]
    },
    "c4322a88-fbb6-44d8-a1cf-bbe2d00685ab": {
      "class": "com.simiacryptus.mindseye.layers.java.SigmoidActivationLayer",
      "id": "c4322a88-fbb6-44d8-a1cf-bbe2d00685ab",
      "isFrozen": true,
      "name": "SigmoidActivationLayer/c4322a88-fbb6-44d8-a1cf-bbe2d00685ab",
      "balanced": true
    },
    "37e9461d-c270-4923-9628-9d086a0217a4": {
      "class": "com.simiacryptus.mindseye.layers.java.FullyConnectedLayer",
      "id": "37e9461d-c270-4923-9628-9d086a0217a4",
      "isFrozen": false,
      "name": "FullyConnectedLayer/37e9461d-c270-4923-9628-9d086a0217a4",
      "outputDims": [
        10
      ],
      "inputDims": [
        10
      ],
      "weights": [
        [
          -0.069,
          -0.026200000000000005,
          -0.037200000000000004,
          -0.09140000000000001,
          -0.08,
          -0.08580000000000002,
          0.08380000000000001,
          0.0576,
          0.038,
          -0.07260000000000001
        ],
        [
          0.0614,
          -0.09620000000000001,
          0.038200000000000005,
          -0.08940000000000001,
          -0.0576,
          -0.0648,
          0.09880000000000001,
          0.0208,
          0.0718,
          -0.09720000000000001
        ],
        [
          -0.026400000000000003,
          2.0E-4,
          -0.0516,
          0.0182,
          0.0734,
          0.06340000000000001,
          0.0296,
          0.09860000000000001,
          0.0522,
          0.03780000000000001
        ],
        [
          -0.0068000000000000005,
          0.0114,
          -0.066,
          0.0012000000000000001,
          -0.022200000000000004,
          -0.0816,
          0.0908,
          -0.0028000000000000004,
          -0.0592,
          -0.0512
        ],
        [
          0.047400000000000005,
          0.0606,
          -0.016,
          0.08780000000000002,
          0.035,
          0.07840000000000001,
          0.0636,
          0.09060000000000001,
          -0.07540000000000001,
          -0.08560000000000001
        ],
        [
          0.0664,
          -0.033800000000000004,
          0.0826,
          -0.018600000000000002,
          -0.0692,
          0.029400000000000003,
          0.0632,
          0.01,
          0.056600000000000004,
          0.034800000000000005
        ],
        [
          0.09780000000000001,
          -0.0426,
          -0.07379999999999999,
          0.019200000000000002,
          -0.09960000000000001,
          0.042800000000000005,
          -0.07740000000000001,
          0.07680000000000001,
          0.0852,
          0.067
        ],
        [
          -0.030400000000000003,
          0.0018,
          -0.057,
          -0.05740000000000001,
          0.046400000000000004,
          -0.067,
          -0.07479999999999999,
          0.0636,
          0.04240000000000001,
          -0.0416
        ],
        [
          -0.0922,
          0.0656,
          -0.058800000000000005,
          -0.0016,
          0.018600000000000002,
          -2.0E-4,
          -0.0178,
          0.07579999999999999,
          -0.05280000000000001,
          0.0918
        ],
        [
          0.076,
          0.0032,
          0.08960000000000001,
          -0.007,
          -0.04,
          0.0616,
          -0.0396,
          0.07640000000000001,
          -0.0078000000000000005,
          -0.07840000000000001
        ]
      ]
    },
    "79b4e0b1-60cf-4d78-a4b9-c0b4bf55cd92": {
      "class": "com.simiacryptus.mindseye.layers.java.BiasLayer",
      "id": "79b4e0b1-60cf-4d78-a4b9-c0b4bf55cd92",
      "isFrozen": false,
      "name": "BiasLayer/79b4e0b1-60cf-4d78-a4b9-c0b4bf55cd92",
      "bias": [
        0.0,
        0.0,
        0.0,
        0.0,
        0.0,
        0.0,
        0.0,
        0.0,
        0.0,
        0.0
      ]
    },
    "08a33ce3-19bd-47d0-8398-4b18e90fd634": {
      "class": "com.simiacryptus.mindseye.layers.java.SigmoidActivationLayer",
      "id": "08a33ce3-19bd-47d0-8398-4b18e90fd634",
      "isFrozen": true,
      "name": "SigmoidActivationLayer/08a33ce3-19bd-47d0-8398-4b18e90fd634",
      "balanced": true
    }
  },
  "links": {
    "54f3d809-6797-4450-a750-76ea0a33ee86": [
      "5a6a3761-f5be-4f7c-99dd-8156c5ec7f2a"
    ],
    "74ee715f-2b07-4388-979a-9735d19ea53c": [
      "54f3d809-6797-4450-a750-76ea0a33ee86"
    ],
    "2883185d-0bd6-4062-b449-194aecb5f8f4": [
      "74ee715f-2b07-4388-979a-9735d19ea53c"
    ],
    "273f2f65-9ca1-4d7d-bb0b-f7ce64675539": [
      "2883185d-0bd6-4062-b449-194aecb5f8f4"
    ],
    "c5549cd8-01aa-40dd-8860-b19c5f395270": [
      "273f2f65-9ca1-4d7d-bb0b-f7ce64675539"
    ],
    "c52969f5-5857-4d2c-bd76-086b34c15466": [
      "c5549cd8-01aa-40dd-8860-b19c5f395270"
    ],
    "b35de86c-d36e-4440-b84e-39a8ee74878e": [
      "c52969f5-5857-4d2c-bd76-086b34c15466"
    ],
    "0149bd9c-a6e3-4322-8879-cbd685207f30": [
      "b35de86c-d36e-4440-b84e-39a8ee74878e"
    ],
    "868993a4-e929-4a91-a527-62f856065a02": [
      "0149bd9c-a6e3-4322-8879-cbd685207f30"
    ]
  },
  "labels": {},
  "head": "868993a4-e929-4a91-a527-62f856065a02"
}