{
  "class": "com.simiacryptus.mindseye.network.PipelineNetwork",
  "id": "02f6020b-e976-4574-bcb2-0cebc8a47310",
  "isFrozen": false,
  "name": "PipelineNetwork/02f6020b-e976-4574-bcb2-0cebc8a47310",
  "inputs": [
    "6deb0b8b-cf68-4922-ba05-27f062f6b8d4"
  ],
  "nodes": {
    "e8a4c6ec-c31e-4e37-aa36-feb49f6f2eff": "9b6d1235-1014-41b1-aadf-ababbc6e3e5d",
    "de798a15-2f24-4f46-9665-8dd9476f6ad4": "1434a951-026f-4a7c-9264-28c1be23fccf",
    "51ffe4e1-7a5d-4ca0-b99c-ae47f6b330bd": "6561d568-2dca-4226-8f0d-18548372b524",
    "bc0393c2-6e9c-4e28-ae81-7e538138e296": "f759f61b-433d-43a1-80bf-1f27b63fd091",
    "3c4859aa-b82e-4c83-b321-3d08fc60f901": "10c99121-cf89-448a-b0fb-a97e3c6fa24f",
    "7d4f7a7f-e311-42c1-aee3-b045b48afdf7": "3a7677b2-e63a-4fe2-ade3-7694ccb23438",
    "31a91dda-2601-47eb-a95b-33f239acfb02": "2dd53a93-6192-4658-b9e1-d0d7e699c0ac",
    "67609261-5cc9-4d1b-ac5c-5f60f945754a": "0ca1d424-f327-4026-91c8-9e90e27efa66",
    "9dbd1d25-1f71-46fe-abde-baae52cdd3b4": "b16e29f5-3d46-42b4-9f47-c277a58afe04",
    "c6eecb5f-74eb-4224-ae0c-e2630216a227": "376581d7-faed-40ce-8cf8-cdc87b420087",
    "6857ab46-4850-4c0a-92f9-b48dc1a2ca89": "ab847799-14fc-428b-9029-74ee754b3334",
    "575e0a00-24ba-4d1a-87a6-462297ae7642": "dd050439-6a19-4fd6-886c-2e987af95b66"
  },
  "layers": {
    "9b6d1235-1014-41b1-aadf-ababbc6e3e5d": {
      "class": "com.simiacryptus.mindseye.layers.java.FullyConnectedLayer",
      "id": "9b6d1235-1014-41b1-aadf-ababbc6e3e5d",
      "isFrozen": false,
      "name": "FullyConnectedLayer/9b6d1235-1014-41b1-aadf-ababbc6e3e5d",
      "outputDims": [
        10
      ],
      "inputDims": [
        5,
        5,
        3
      ],
      "weights": [
        [
          -0.0144,
          -0.0722,
          -0.029200000000000004,
          0.0256,
          0.051800000000000006,
          -0.0512,
          0.0328,
          0.0454,
          -0.085,
          0.019600000000000003,
          0.0356,
          0.0632,
          -0.0302,
          -0.0134,
          0.0772,
          -0.023,
          -0.0086,
          -0.0082,
          -0.0478,
          0.0104,
          -0.0722,
          -0.027200000000000002,
          0.023200000000000002,
          -0.009,
          0.0364,
          0.09440000000000001,
          -0.07479999999999999,
          0.081,
          -0.042,
          0.048400000000000006,
          -0.011800000000000001,
          0.0874,
          -0.048,
          0.071,
          0.067,
          -0.0702,
          -0.029200000000000004,
          -0.028,
          -0.0692,
          -0.05380000000000001,
          -0.0032,
          0.056600000000000004,
          0.054400000000000004,
          -0.0446,
          -0.0694,
          0.07360000000000001,
          -0.0182,
          0.07740000000000001,
          -0.049,
          0.06280000000000001,
          0.024,
          -0.0054,
          -0.011600000000000001,
          0.0342,
          0.0316,
          -0.08,
          0.026600000000000002,
          0.08680000000000002,
          0.0572,
          -0.091,
          0.013200000000000002,
          -0.044800000000000006,
          0.09620000000000001,
          0.033,
          -0.026,
          -0.09860000000000001,
          0.0356,
          -0.0956,
          0.031400000000000004,
          0.0908,
          -0.0362,
          0.07460000000000001,
          0.067,
          -0.0604,
          0.0956
        ],
        [
          0.0656,
          -0.022200000000000004,
          -0.0258,
          0.0402,
          -0.013,
          -0.051800000000000006,
          0.03,
          0.046400000000000004,
          0.054200000000000005,
          0.01,
          -0.0912,
          -0.08940000000000001,
          0.0688,
          -0.030400000000000003,
          0.047400000000000005,
          0.012600000000000002,
          -0.0436,
          0.0388,
          0.037200000000000004,
          -0.046,
          -0.0094,
          -0.0436,
          -0.0884,
          0.0032,
          0.0604,
          0.09060000000000001,
          -0.032600000000000004,
          -0.048400000000000006,
          0.015600000000000001,
          0.0228,
          0.0274,
          0.09,
          -0.08680000000000002,
          -0.09060000000000001,
          0.0082,
          -0.085,
          -0.009600000000000001,
          0.081,
          -0.0182,
          -0.07740000000000001,
          -0.0026,
          -0.06960000000000001,
          -0.099,
          -0.08220000000000001,
          -0.062,
          0.07479999999999999,
          0.0488,
          -0.037,
          -0.094,
          -0.0442,
          -0.09160000000000001,
          0.0718,
          -0.0586,
          -0.0902,
          -0.0244,
          -0.0154,
          0.0442,
          -0.0936,
          -0.0654,
          0.0228,
          0.0654,
          -0.09160000000000001,
          -0.0454,
          0.027200000000000002,
          0.0204,
          0.0244,
          0.014600000000000002,
          0.08880000000000002,
          -0.08180000000000001,
          0.0562,
          0.08760000000000001,
          0.059,
          0.020200000000000003,
          0.09440000000000001,
          0.0796
        ],
        [
          0.0776,
          0.0872,
          0.09280000000000001,
          -0.0804,
          -0.0644,
          -0.076,
          0.027600000000000003,
          -0.026200000000000005,
          -0.0298,
          -0.025,
          0.08020000000000001,
          0.030400000000000003,
          0.0062,
          0.0918,
          -0.07160000000000001,
          -0.0422,
          0.0646,
          -0.013200000000000002,
          0.058800000000000005,
          0.0208,
          0.031400000000000004,
          -0.07479999999999999,
          -0.007600000000000001,
          0.059,
          -0.0548,
          0.031200000000000002,
          0.09480000000000001,
          0.035,
          0.0416,
          0.036,
          0.0238,
          -0.08020000000000001,
          0.07660000000000002,
          0.07840000000000001,
          -0.08280000000000001,
          0.0902,
          0.0936,
          0.029400000000000003,
          -0.0208,
          -0.011600000000000001,
          -0.0456,
          -0.09480000000000001,
          0.026200000000000005,
          0.0074,
          -0.0148,
          6.000000000000001E-4,
          0.0072,
          0.0796,
          -0.05280000000000001,
          -0.034800000000000005,
          0.077,
          0.07840000000000001,
          -0.05740000000000001,
          0.0942,
          -0.020200000000000003,
          0.056,
          0.045200000000000004,
          0.09440000000000001,
          -0.08580000000000002,
          0.099,
          -0.0936,
          0.0356,
          0.0034000000000000002,
          0.09060000000000001,
          -0.04240000000000001,
          0.066,
          -0.0678,
          -0.0698,
          -0.058,
          0.050800000000000005,
          0.0684,
          0.0216,
          0.09060000000000001,
          -0.061200000000000004,
          -0.096
        ],
        [
          0.09140000000000001,
          -0.0834,
          -0.048600000000000004,
          -0.0482,
          0.047400000000000005,
          -0.0124,
          0.08680000000000002,
          0.09340000000000001,
          -0.0872,
          0.06080000000000001,
          -0.0128,
          -0.07940000000000001,
          -0.0432,
          -0.015200000000000002,
          0.001,
          -0.029400000000000003,
          -0.084,
          -0.07379999999999999,
          0.0832,
          0.0844,
          -0.0814,
          0.0488,
          0.011,
          0.0054,
          0.011,
          -0.055400000000000005,
          -0.0162,
          0.08580000000000002,
          -0.0844,
          0.097,
          -0.09620000000000001,
          -0.07980000000000001,
          -0.026600000000000002,
          -0.0834,
          -0.0416,
          0.032,
          -0.043800000000000006,
          0.05140000000000001,
          0.09480000000000001,
          0.0522,
          -0.022200000000000004,
          -0.09340000000000001,
          0.07440000000000001,
          0.0646,
          -0.09060000000000001,
          0.016,
          -0.0912,
          -0.08080000000000001,
          0.04580000000000001,
          -0.08880000000000002,
          -0.0582,
          -0.044800000000000006,
          0.07579999999999999,
          4.0E-4,
          -0.07579999999999999,
          0.006600000000000001,
          -0.0814,
          -0.0054,
          0.07780000000000001,
          0.018,
          -0.0354,
          0.005,
          0.048400000000000006,
          0.062400000000000004,
          -0.015200000000000002,
          -0.0984,
          -0.064,
          -0.0258,
          -0.0352,
          -0.0102,
          0.0024000000000000002,
          0.08880000000000002,
          -0.0694,
          0.0386,
          -0.08880000000000002
        ],
        [
          -0.08760000000000001,
          -0.0824,
          0.09860000000000001,
          -0.001,
          0.0648,
          0.0274,
          0.08940000000000001,
          -0.06520000000000001,
          0.0234,
          -0.084,
          -0.0956,
          -0.0708,
          0.07360000000000001,
          -0.0356,
          0.079,
          0.04440000000000001,
          0.032600000000000004,
          -0.0712,
          0.0344,
          -0.0012000000000000001,
          -0.0296,
          0.0342,
          -0.0108,
          0.07980000000000001,
          -0.0274,
          0.0476,
          0.07640000000000001,
          -0.008400000000000001,
          -0.0204,
          -0.093,
          0.07560000000000001,
          0.0408,
          -0.054200000000000005,
          0.026400000000000003,
          0.023200000000000002,
          -0.08180000000000001,
          -0.022400000000000003,
          -0.08380000000000001,
          -0.022400000000000003,
          -0.06380000000000001,
          0.013600000000000001,
          0.0912,
          0.09780000000000001,
          0.09440000000000001,
          0.0172,
          -0.05240000000000001,
          0.0204,
          -0.06280000000000001,
          0.022,
          0.07579999999999999,
          -0.027600000000000003,
          0.064,
          0.018400000000000003,
          0.09440000000000001,
          -0.054200000000000005,
          0.029400000000000003,
          -0.05740000000000001,
          -0.004200000000000001,
          0.0792,
          -0.060200000000000004,
          0.019200000000000002,
          0.059,
          0.07440000000000001,
          -0.049,
          -0.035,
          0.077,
          -0.0154,
          -0.0964,
          0.036800000000000006,
          -0.0144,
          -0.0658,
          -0.0298,
          -0.002,
          0.018400000000000003,
          0.037
        ],
        [
          -6.000000000000001E-4,
          -0.0782,
          0.019,
          -0.016800000000000002,
          -0.040600000000000004,
          0.007,
          -0.0616,
          0.092,
          0.0416,
          0.038200000000000005,
          0.041,
          -0.0892,
          0.082,
          -0.0016,
          0.0908,
          0.086,
          0.09880000000000001,
          -0.0488,
          0.0416,
          -0.08220000000000001,
          -0.006600000000000001,
          -0.08760000000000001,
          -0.039200000000000006,
          0.0318,
          0.020200000000000003,
          -0.08940000000000001,
          0.040600000000000004,
          0.0204,
          -0.064,
          -0.0412,
          0.0644,
          -0.005,
          0.0714,
          -0.096,
          -0.0704,
          0.054200000000000005,
          -0.0052,
          -0.09880000000000001,
          0.026200000000000005,
          -0.0796,
          -0.0164,
          -0.08680000000000002,
          -0.0776,
          -0.088,
          -0.04340000000000001,
          0.0154,
          0.035800000000000005,
          0.054400000000000004,
          0.057,
          0.0022,
          0.026,
          -0.0656,
          -0.078,
          0.0364,
          -0.0852,
          -0.0308,
          -0.0654,
          -0.019600000000000003,
          -0.047200000000000006,
          0.09780000000000001,
          0.09480000000000001,
          -0.097,
          -0.010600000000000002,
          -0.078,
          0.047,
          0.0702,
          0.04580000000000001,
          -0.065,
          -0.0582,
          0.019,
          -0.0354,
          0.06280000000000001,
          -0.0166,
          -0.0898,
          0.036800000000000006
        ],
        [
          0.0682,
          0.09480000000000001,
          0.06080000000000001,
          0.08780000000000002,
          -0.057,
          -0.064,
          0.059,
          -0.07160000000000001,
          0.0974,
          -0.0114,
          -0.0366,
          0.03780000000000001,
          -0.0328,
          -0.0586,
          -0.0864,
          0.031200000000000002,
          0.09480000000000001,
          -0.005600000000000001,
          0.0816,
          -0.058800000000000005,
          0.0558,
          -0.0702,
          0.0228,
          -0.019600000000000003,
          0.0028000000000000004,
          0.0218,
          0.06520000000000001,
          0.040600000000000004,
          -0.0546,
          0.019600000000000003,
          -0.07940000000000001,
          -0.016800000000000002,
          -0.0188,
          0.0476,
          -0.0354,
          -0.06860000000000001,
          -0.09580000000000001,
          -0.0288,
          0.07640000000000001,
          -0.001,
          -0.06180000000000001,
          0.062400000000000004,
          0.0966,
          0.047200000000000006,
          -0.006600000000000001,
          -0.006600000000000001,
          -0.08480000000000001,
          0.013600000000000001,
          -0.0344,
          -0.0842,
          0.06960000000000001,
          0.091,
          -0.041400000000000006,
          0.0874,
          -0.067,
          0.026200000000000005,
          -0.004,
          -0.07680000000000001,
          0.09980000000000001,
          0.0492,
          -0.0912,
          0.015200000000000002,
          0.0258,
          -0.09880000000000001,
          -0.0012000000000000001,
          -0.056400000000000006,
          0.0022,
          -0.030400000000000003,
          0.0708,
          -0.0772,
          0.08,
          -0.0734,
          0.023600000000000003,
          0.0268,
          0.0062
        ],
        [
          -0.09580000000000001,
          -0.0674,
          -0.0244,
          -0.085,
          0.0614,
          0.0984,
          0.013200000000000002,
          -0.07360000000000001,
          -0.0104,
          -0.028,
          -0.0034000000000000002,
          0.08,
          0.011,
          0.06,
          -0.022600000000000002,
          -0.04,
          -0.0316,
          -0.0806,
          0.013600000000000001,
          0.079,
          0.0108,
          -0.0806,
          0.0366,
          -0.0402,
          -0.045200000000000004,
          -0.0792,
          -0.0302,
          0.09620000000000001,
          0.0052,
          -0.055400000000000005,
          -0.0148,
          0.008400000000000001,
          -0.027200000000000002,
          -0.008,
          -0.07840000000000001,
          0.0416,
          -0.059800000000000006,
          0.0286,
          0.0334,
          -0.056600000000000004,
          -0.0852,
          -0.038,
          0.0072,
          -0.0688,
          -0.0666,
          0.021,
          -0.0816,
          -0.07260000000000001,
          -0.087,
          -0.046200000000000005,
          0.0718,
          -0.024200000000000003,
          0.0416,
          0.050800000000000005,
          0.0708,
          -0.074,
          0.0154,
          -0.015600000000000001,
          -0.08940000000000001,
          0.057,
          -0.0712,
          -0.0114,
          0.07460000000000001,
          0.08020000000000001,
          0.0454,
          0.0322,
          -0.05040000000000001,
          -0.067,
          0.0162,
          -0.0488,
          -0.08880000000000002,
          0.065,
          -0.0478,
          0.010600000000000002,
          0.0088
        ],
        [
          -0.09280000000000001,
          -0.09060000000000001,
          0.0022,
          0.09960000000000001,
          -0.0534,
          -0.0086,
          -0.09340000000000001,
          0.014,
          -0.046,
          -0.031400000000000004,
          0.0204,
          -0.041,
          -0.0854,
          -0.005,
          -0.0286,
          0.08580000000000002,
          0.0994,
          0.0994,
          -0.031400000000000004,
          -0.09620000000000001,
          0.0926,
          0.098,
          -0.0576,
          -0.05740000000000001,
          -0.023,
          0.0656,
          -0.099,
          0.0022,
          -0.0072,
          -0.0582,
          -0.084,
          0.0804,
          0.053200000000000004,
          0.0654,
          -0.0562,
          0.07980000000000001,
          0.06180000000000001,
          -0.016,
          0.08860000000000001,
          -0.07740000000000001,
          0.07740000000000001,
          -0.0742,
          -0.05380000000000001,
          0.0678,
          -0.0882,
          0.0776,
          -0.033800000000000004,
          0.084,
          -0.026600000000000002,
          0.09960000000000001,
          -0.0728,
          0.0454,
          0.023,
          -0.08020000000000001,
          0.0946,
          0.05240000000000001,
          -0.08020000000000001,
          0.0402,
          0.06520000000000001,
          0.05840000000000001,
          0.0468,
          0.082,
          -0.0032,
          0.0702,
          0.0124,
          -0.0436,
          -0.0332,
          -0.0568,
          -0.0204,
          0.0068000000000000005,
          -0.007600000000000001,
          0.05280000000000001,
          0.0844,
          -0.07440000000000001,
          0.07160000000000001
        ],
        [
          -0.0918,
          -0.058,
          0.0946,
          0.037,
          -0.0572,
          -0.0992,
          0.04,
          0.0942,
          0.0512,
          0.0176,
          0.044800000000000006,
          -0.09540000000000001,
          0.0442,
          0.083,
          0.009600000000000001,
          0.012,
          0.089,
          0.014600000000000002,
          0.0346,
          -0.0154,
          -0.0918,
          -0.0646,
          -0.0852,
          0.012,
          0.0712,
          -0.016,
          -0.0974,
          -0.0064,
          0.0398,
          0.027800000000000002,
          -0.06720000000000001,
          -0.022600000000000002,
          -0.005,
          -0.041,
          -0.07740000000000001,
          -0.059800000000000006,
          -0.0154,
          -0.0228,
          0.02,
          0.0026,
          -0.0468,
          0.0194,
          0.0436,
          -0.061,
          -0.072,
          0.039200000000000006,
          0.08480000000000001,
          0.058,
          0.0342,
          -0.06720000000000001,
          0.0432,
          0.0724,
          -0.047200000000000006,
          -0.0064,
          0.09860000000000001,
          0.0932,
          0.040600000000000004,
          0.07579999999999999,
          -0.08960000000000001,
          -0.0648,
          -0.06860000000000001,
          0.004,
          0.048600000000000004,
          0.005600000000000001,
          -0.0416,
          0.068,
          0.0548,
          0.08960000000000001,
          -0.015600000000000001,
          -0.0912,
          -0.079,
          0.013600000000000001,
          0.0898,
          -0.0832,
          0.013800000000000002
        ]
      ]
    },
    "1434a951-026f-4a7c-9264-28c1be23fccf": {
      "class": "com.simiacryptus.mindseye.layers.java.BiasLayer",
      "id": "1434a951-026f-4a7c-9264-28c1be23fccf",
      "isFrozen": false,
      "name": "BiasLayer/1434a951-026f-4a7c-9264-28c1be23fccf",
      "bias": [
        0.0,
        0.0,
        0.0,
        0.0,
        0.0,
        0.0,
        0.0,
        0.0,
        0.0,
        0.0
      ]
    },
    "6561d568-2dca-4226-8f0d-18548372b524": {
      "class": "com.simiacryptus.mindseye.layers.java.SigmoidActivationLayer",
      "id": "6561d568-2dca-4226-8f0d-18548372b524",
      "isFrozen": true,
      "name": "SigmoidActivationLayer/6561d568-2dca-4226-8f0d-18548372b524",
      "balanced": true
    },
    "f759f61b-433d-43a1-80bf-1f27b63fd091": {
      "class": "com.simiacryptus.mindseye.layers.java.FullyConnectedLayer",
      "id": "f759f61b-433d-43a1-80bf-1f27b63fd091",
      "isFrozen": false,
      "name": "FullyConnectedLayer/f759f61b-433d-43a1-80bf-1f27b63fd091",
      "outputDims": [
        10
      ],
      "inputDims": [
        10
      ],
      "weights": [
        [
          -0.0018,
          0.0558,
          0.014600000000000002,
          0.0028000000000000004,
          -0.0956,
          0.0086,
          -0.050800000000000005,
          -0.0616,
          -0.0882,
          0.0426
        ],
        [
          -0.0044,
          -0.038400000000000004,
          -0.0648,
          -0.0792,
          -0.07640000000000001,
          -0.0052,
          0.0362,
          0.0234,
          0.005600000000000001,
          0.06280000000000001
        ],
        [
          -0.066,
          0.072,
          0.088,
          0.0926,
          0.073,
          -0.021,
          0.042,
          0.029200000000000004,
          -0.0632,
          0.062
        ],
        [
          -0.0864,
          0.0898,
          0.07940000000000001,
          0.007600000000000001,
          -0.0194,
          0.0204,
          0.035800000000000005,
          -0.0274,
          0.0456,
          -0.0942
        ],
        [
          0.0712,
          -0.0482,
          0.053200000000000004,
          0.036,
          -0.0592,
          0.0158,
          0.0862,
          -0.0468,
          -0.07680000000000001,
          0.014600000000000002
        ],
        [
          0.024200000000000003,
          -0.053,
          -0.05740000000000001,
          -0.019600000000000003,
          0.062200000000000005,
          0.07379999999999999,
          0.0832,
          0.045,
          -0.017,
          -0.0732
        ],
        [
          -0.0728,
          -0.0396,
          -0.0316,
          0.0992,
          -0.06760000000000001,
          -0.020200000000000003,
          -0.0108,
          0.019,
          -0.05040000000000001,
          -0.027200000000000002
        ],
        [
          -0.0742,
          0.0032,
          0.08080000000000001,
          0.0984,
          -0.0234,
          0.049800000000000004,
          -0.0592,
          0.059,
          0.0862,
          -0.0512
        ],
        [
          -0.0626,
          -0.0616,
          -0.048600000000000004,
          -0.038,
          -0.06420000000000001,
          -0.0058000000000000005,
          -0.012,
          0.0654,
          0.005,
          0.0476
        ],
        [
          -0.04340000000000001,
          0.049400000000000006,
          0.0052,
          0.0362,
          -0.0512,
          0.0054,
          0.09040000000000001,
          -0.013600000000000001,
          -0.0614,
          0.0656
        ]
      ]
    },
    "10c99121-cf89-448a-b0fb-a97e3c6fa24f": {
      "class": "com.simiacryptus.mindseye.layers.java.BiasLayer",
      "id": "10c99121-cf89-448a-b0fb-a97e3c6fa24f",
      "isFrozen": false,
      "name": "BiasLayer/10c99121-cf89-448a-b0fb-a97e3c6fa24f",
      "bias": [
        0.0,
        0.0,
        0.0,
        0.0,
        0.0,
        0.0,
        0.0,
        0.0,
        0.0,
        0.0
      ]
    },
    "3a7677b2-e63a-4fe2-ade3-7694ccb23438": {
      "class": "com.simiacryptus.mindseye.layers.java.SigmoidActivationLayer",
      "id": "3a7677b2-e63a-4fe2-ade3-7694ccb23438",
      "isFrozen": true,
      "name": "SigmoidActivationLayer/3a7677b2-e63a-4fe2-ade3-7694ccb23438",
      "balanced": true
    },
    "2dd53a93-6192-4658-b9e1-d0d7e699c0ac": {
      "class": "com.simiacryptus.mindseye.layers.java.FullyConnectedLayer",
      "id": "2dd53a93-6192-4658-b9e1-d0d7e699c0ac",
      "isFrozen": false,
      "name": "FullyConnectedLayer/2dd53a93-6192-4658-b9e1-d0d7e699c0ac",
      "outputDims": [
        10
      ],
      "inputDims": [
        10
      ],
      "weights": [
        [
          -0.022200000000000004,
          0.08940000000000001,
          -0.027800000000000002,
          0.072,
          -0.0364,
          0.029400000000000003,
          -0.0688,
          0.09680000000000001,
          0.014,
          0.089
        ],
        [
          -0.020200000000000003,
          -0.017,
          -0.059,
          -0.07680000000000001,
          -0.0234,
          -0.047,
          -0.0806,
          0.094,
          0.08960000000000001,
          0.0586
        ],
        [
          -0.026,
          0.062400000000000004,
          -0.07440000000000001,
          -0.05280000000000001,
          0.057,
          0.028,
          -0.0586,
          0.0318,
          0.019200000000000002,
          0.0144
        ],
        [
          0.0616,
          0.0592,
          0.019200000000000002,
          0.03780000000000001,
          0.081,
          0.045200000000000004,
          0.020200000000000003,
          -0.0678,
          -0.033600000000000005,
          -0.030600000000000002
        ],
        [
          0.0206,
          0.052,
          0.0128,
          -0.0478,
          0.02,
          0.0852,
          -0.045,
          -4.0E-4,
          0.0468,
          -0.063
        ],
        [
          0.07540000000000001,
          0.099,
          0.0688,
          -0.0352,
          0.0426,
          -0.054400000000000004,
          -0.022400000000000003,
          0.025,
          -0.0302,
          -0.046400000000000004
        ],
        [
          0.07060000000000001,
          -0.095,
          0.033600000000000005,
          0.0936,
          0.0068000000000000005,
          -0.0198,
          -0.042,
          0.030600000000000002,
          0.023600000000000003,
          -0.073
        ],
        [
          -0.0592,
          0.014600000000000002,
          0.0148,
          0.096,
          -0.0148,
          -0.0454,
          -0.0562,
          0.05240000000000001,
          0.093,
          -0.054200000000000005
        ],
        [
          -0.0496,
          0.0936,
          0.059800000000000006,
          -0.09480000000000001,
          -0.0324,
          -0.0814,
          0.0396,
          0.0952,
          -0.0548,
          0.08760000000000001
        ],
        [
          -0.0664,
          -0.0302,
          -0.0688,
          0.0512,
          0.09820000000000001,
          0.032,
          -0.07880000000000001,
          0.09620000000000001,
          -0.0102,
          -0.0882
        ]
      ]
    },
    "0ca1d424-f327-4026-91c8-9e90e27efa66": {
      "class": "com.simiacryptus.mindseye.layers.java.BiasLayer",
      "id": "0ca1d424-f327-4026-91c8-9e90e27efa66",
      "isFrozen": false,
      "name": "BiasLayer/0ca1d424-f327-4026-91c8-9e90e27efa66",
      "bias": [
        0.0,
        0.0,
        0.0,
        0.0,
        0.0,
        0.0,
        0.0,
        0.0,
        0.0,
        0.0
      ]
    },
    "b16e29f5-3d46-42b4-9f47-c277a58afe04": {
      "class": "com.simiacryptus.mindseye.layers.java.SigmoidActivationLayer",
      "id": "b16e29f5-3d46-42b4-9f47-c277a58afe04",
      "isFrozen": true,
      "name": "SigmoidActivationLayer/b16e29f5-3d46-42b4-9f47-c277a58afe04",
      "balanced": true
    },
    "376581d7-faed-40ce-8cf8-cdc87b420087": {
      "class": "com.simiacryptus.mindseye.layers.java.FullyConnectedLayer",
      "id": "376581d7-faed-40ce-8cf8-cdc87b420087",
      "isFrozen": false,
      "name": "FullyConnectedLayer/376581d7-faed-40ce-8cf8-cdc87b420087",
      "outputDims": [
        10
      ],
      "inputDims": [
        10
      ],
      "weights": [
        [
          0.004200000000000001,
          -0.038200000000000005,
          0.07060000000000001,
          0.030600000000000002,
          0.0908,
          0.0284,
          0.0742,
          0.07780000000000001,
          -0.043800000000000006,
          -0.052
        ],
        [
          0.09140000000000001,
          0.0512,
          0.0058000000000000005,
          0.09540000000000001,
          0.09440000000000001,
          -0.001,
          -0.0208,
          0.0712,
          -0.004600000000000001,
          0.0456
        ],
        [
          -0.019,
          0.062400000000000004,
          -0.0466,
          0.09380000000000001,
          -0.027,
          0.086,
          0.021400000000000002,
          -0.048400000000000006,
          0.0772,
          -0.062400000000000004
        ],
        [
          -0.014600000000000002,
          0.07540000000000001,
          0.07780000000000001,
          -0.0882,
          -0.0208,
          0.0026,
          -0.059,
          -0.053200000000000004,
          0.0148,
          -0.025
        ],
        [
          -0.07560000000000001,
          0.0684,
          -0.05940000000000001,
          -0.028200000000000003,
          -0.053200000000000004,
          0.0946,
          0.067,
          -0.0388,
          -0.0692,
          -0.0752
        ],
        [
          0.0816,
          -0.07,
          0.09440000000000001,
          -0.0834,
          0.041800000000000004,
          -8.0E-4,
          0.027200000000000002,
          0.023600000000000003,
          -0.0682,
          -0.011600000000000001
        ],
        [
          0.045200000000000004,
          -0.0926,
          0.046,
          0.027600000000000003,
          0.0804,
          0.019200000000000002,
          0.031200000000000002,
          0.0844,
          -0.0034000000000000002,
          -0.07160000000000001
        ],
        [
          0.0172,
          0.06280000000000001,
          -8.0E-4,
          0.047400000000000005,
          0.09240000000000001,
          -0.029,
          -0.09620000000000001,
          -0.0694,
          -0.0432,
          0.0108
        ],
        [
          -0.076,
          0.023600000000000003,
          -0.07740000000000001,
          0.0104,
          0.054200000000000005,
          0.023600000000000003,
          0.073,
          -0.039,
          -0.0308,
          0.0044
        ],
        [
          0.095,
          -0.08680000000000002,
          -0.040400000000000005,
          -0.06280000000000001,
          -0.077,
          -0.07460000000000001,
          -0.032600000000000004,
          0.034800000000000005,
          -0.0772,
          0.058
        ]
      ]
    },
    "ab847799-14fc-428b-9029-74ee754b3334": {
      "class": "com.simiacryptus.mindseye.layers.java.BiasLayer",
      "id": "ab847799-14fc-428b-9029-74ee754b3334",
      "isFrozen": false,
      "name": "BiasLayer/ab847799-14fc-428b-9029-74ee754b3334",
      "bias": [
        0.0,
        0.0,
        0.0,
        0.0,
        0.0,
        0.0,
        0.0,
        0.0,
        0.0,
        0.0
      ]
    },
    "dd050439-6a19-4fd6-886c-2e987af95b66": {
      "class": "com.simiacryptus.mindseye.layers.java.SigmoidActivationLayer",
      "id": "dd050439-6a19-4fd6-886c-2e987af95b66",
      "isFrozen": true,
      "name": "SigmoidActivationLayer/dd050439-6a19-4fd6-886c-2e987af95b66",
      "balanced": true
    }
  },
  "links": {
    "e8a4c6ec-c31e-4e37-aa36-feb49f6f2eff": [
      "6deb0b8b-cf68-4922-ba05-27f062f6b8d4"
    ],
    "de798a15-2f24-4f46-9665-8dd9476f6ad4": [
      "e8a4c6ec-c31e-4e37-aa36-feb49f6f2eff"
    ],
    "51ffe4e1-7a5d-4ca0-b99c-ae47f6b330bd": [
      "de798a15-2f24-4f46-9665-8dd9476f6ad4"
    ],
    "bc0393c2-6e9c-4e28-ae81-7e538138e296": [
      "51ffe4e1-7a5d-4ca0-b99c-ae47f6b330bd"
    ],
    "3c4859aa-b82e-4c83-b321-3d08fc60f901": [
      "bc0393c2-6e9c-4e28-ae81-7e538138e296"
    ],
    "7d4f7a7f-e311-42c1-aee3-b045b48afdf7": [
      "3c4859aa-b82e-4c83-b321-3d08fc60f901"
    ],
    "31a91dda-2601-47eb-a95b-33f239acfb02": [
      "7d4f7a7f-e311-42c1-aee3-b045b48afdf7"
    ],
    "67609261-5cc9-4d1b-ac5c-5f60f945754a": [
      "31a91dda-2601-47eb-a95b-33f239acfb02"
    ],
    "9dbd1d25-1f71-46fe-abde-baae52cdd3b4": [
      "67609261-5cc9-4d1b-ac5c-5f60f945754a"
    ],
    "c6eecb5f-74eb-4224-ae0c-e2630216a227": [
      "9dbd1d25-1f71-46fe-abde-baae52cdd3b4"
    ],
    "6857ab46-4850-4c0a-92f9-b48dc1a2ca89": [
      "c6eecb5f-74eb-4224-ae0c-e2630216a227"
    ],
    "575e0a00-24ba-4d1a-87a6-462297ae7642": [
      "6857ab46-4850-4c0a-92f9-b48dc1a2ca89"
    ]
  },
  "labels": {},
  "head": "575e0a00-24ba-4d1a-87a6-462297ae7642"
}