{
  "class": "com.simiacryptus.mindseye.network.PipelineNetwork",
  "id": "8b7f8650-43ca-4123-b0ae-423b24761ca9",
  "isFrozen": false,
  "name": "PipelineNetwork/8b7f8650-43ca-4123-b0ae-423b24761ca9",
  "inputs": [
    "23c663af-c3dd-4b4b-a1f0-63e22ff93b4d"
  ],
  "nodes": {
    "bf9f5bf6-a941-458e-890d-6da11d5c2749": "10c5735e-8a17-413c-a2ef-f8a46d7164a9",
    "725fe5d1-fcfe-4ef8-99b7-30cba0b26d59": "b72389b0-dbfd-46ea-a6b0-157a0bec1d25",
    "31b8e0b8-22ab-4a26-920b-da0f37956280": "dc514e44-20dd-4c6d-9a93-4b2f173cfd96"
  },
  "layers": {
    "10c5735e-8a17-413c-a2ef-f8a46d7164a9": {
      "class": "com.simiacryptus.mindseye.layers.java.FullyConnectedLayer",
      "id": "10c5735e-8a17-413c-a2ef-f8a46d7164a9",
      "isFrozen": false,
      "name": "FullyConnectedLayer/10c5735e-8a17-413c-a2ef-f8a46d7164a9",
      "outputDims": [
        10
      ],
      "inputDims": [
        5,
        5,
        3
      ],
      "weights": [
        [
          0.062,
          -0.0228,
          0.072,
          -0.028,
          0.08780000000000002,
          -0.05040000000000001,
          0.06960000000000001,
          0.031,
          0.073,
          -0.0094,
          0.0506,
          -0.0032,
          0.0036,
          -0.08360000000000001,
          -0.026,
          0.014,
          -0.012600000000000002,
          -0.0586,
          0.021,
          0.0044,
          -0.06620000000000001,
          -0.013200000000000002,
          0.0496,
          -0.0718,
          -0.029,
          -0.04,
          0.0218,
          -0.0526,
          0.071,
          -0.09280000000000001,
          -0.08460000000000001,
          -0.0166,
          0.0776,
          0.09,
          0.0734,
          -0.003,
          -0.08660000000000001,
          0.043800000000000006,
          0.04240000000000001,
          0.046400000000000004,
          0.0844,
          -0.09880000000000001,
          0.028,
          0.0796,
          0.0826,
          -0.0516,
          0.0862,
          -0.0204,
          -0.046200000000000005,
          -0.047400000000000005,
          -0.003,
          -0.050800000000000005,
          -0.087,
          -0.045200000000000004,
          -0.017400000000000002,
          0.08220000000000001,
          -0.0432,
          -0.022,
          0.0548,
          -0.0324,
          0.045200000000000004,
          0.0308,
          0.054200000000000005,
          -0.074,
          -0.046200000000000005,
          0.0182,
          0.0454,
          0.0826,
          4.0E-4,
          -0.08860000000000001,
          -0.08280000000000001,
          0.0568,
          0.037399999999999996,
          0.0454,
          -0.0074
        ],
        [
          0.08780000000000002,
          0.0322,
          0.0376,
          0.087,
          0.046200000000000005,
          -0.09720000000000001,
          -0.031200000000000002,
          0.093,
          -0.079,
          -0.0922,
          -0.0722,
          0.0026,
          0.0512,
          0.016800000000000002,
          -0.0806,
          -0.032,
          -0.059800000000000006,
          -0.0874,
          0.098,
          -0.0178,
          0.049800000000000004,
          -0.035800000000000005,
          -0.07579999999999999,
          -0.05140000000000001,
          -0.037,
          -0.09280000000000001,
          -0.0388,
          0.013600000000000001,
          0.011,
          -0.079,
          0.07740000000000001,
          -0.02,
          -0.049400000000000006,
          -0.095,
          -0.037399999999999996,
          0.0952,
          0.0626,
          -0.022200000000000004,
          -0.094,
          0.059,
          0.060200000000000004,
          0.07540000000000001,
          0.0854,
          -0.041400000000000006,
          -0.0694,
          0.0488,
          -0.015,
          -0.057800000000000004,
          -0.0644,
          -0.0614,
          0.0796,
          0.0658,
          -0.0824,
          -0.09960000000000001,
          -0.0702,
          -0.006,
          -0.09340000000000001,
          0.09060000000000001,
          -0.03780000000000001,
          0.0786,
          -0.0576,
          0.0912,
          0.0512,
          -0.072,
          -0.08380000000000001,
          0.097,
          0.019,
          -0.08360000000000001,
          0.09960000000000001,
          -0.0086,
          -0.0288,
          -0.087,
          -0.0684,
          -0.057800000000000004,
          -0.0492
        ],
        [
          -0.0728,
          -0.0034000000000000002,
          -0.015600000000000001,
          0.0684,
          0.0656,
          -0.058800000000000005,
          -0.042,
          -2.0E-4,
          -0.07360000000000001,
          0.0182,
          -0.048400000000000006,
          0.0038000000000000004,
          -0.0298,
          0.07,
          0.0208,
          0.055400000000000005,
          0.0208,
          -0.0616,
          0.06620000000000001,
          -0.041,
          -0.0684,
          0.031400000000000004,
          -0.09380000000000001,
          -0.0654,
          -0.028,
          0.0412,
          -0.0128,
          -0.0816,
          0.0328,
          0.05040000000000001,
          0.0992,
          0.02,
          0.0864,
          -0.0492,
          -0.05040000000000001,
          0.0796,
          -0.0832,
          -0.0874,
          0.08380000000000001,
          0.0332,
          -0.0752,
          -0.055,
          -0.0058000000000000005,
          0.0318,
          -0.07780000000000001,
          0.055200000000000006,
          0.08220000000000001,
          0.009600000000000001,
          -0.05040000000000001,
          0.0298,
          0.0558,
          -0.0476,
          -0.06860000000000001,
          0.0178,
          -0.0426,
          -0.0316,
          0.0502,
          -0.081,
          -0.0466,
          -0.037,
          0.051800000000000006,
          0.0826,
          -0.0688,
          0.0308,
          0.0246,
          -0.027,
          -0.009,
          0.0164,
          -0.05840000000000001,
          -0.047400000000000005,
          0.09540000000000001,
          0.015200000000000002,
          -0.055400000000000005,
          0.0144,
          -0.05
        ],
        [
          -0.066,
          0.061,
          0.022600000000000002,
          0.010600000000000002,
          -0.0352,
          -0.0054,
          0.0218,
          -0.077,
          -0.055200000000000006,
          -0.031400000000000004,
          0.0844,
          -0.07260000000000001,
          0.0316,
          0.0218,
          0.04240000000000001,
          0.027,
          0.0248,
          -0.07440000000000001,
          -0.0334,
          -0.091,
          -0.049400000000000006,
          -0.027600000000000003,
          -0.0604,
          0.0892,
          0.051800000000000006,
          -0.095,
          -0.0366,
          -0.026,
          -0.08080000000000001,
          0.0632,
          -0.0044,
          0.0072,
          0.0356,
          0.055,
          0.0632,
          0.0028000000000000004,
          -0.0688,
          -0.0154,
          -0.0974,
          -0.009600000000000001,
          0.08020000000000001,
          -0.041800000000000004,
          0.0862,
          0.024,
          -0.047400000000000005,
          -0.05840000000000001,
          0.056,
          -0.046400000000000004,
          -0.09980000000000001,
          -0.026600000000000002,
          -0.034,
          0.09880000000000001,
          0.019200000000000002,
          -0.04580000000000001,
          -0.0864,
          0.001,
          0.0206,
          0.022,
          0.09580000000000001,
          -0.0396,
          -0.06340000000000001,
          -0.031400000000000004,
          -0.051800000000000006,
          -0.0852,
          0.0082,
          0.0908,
          0.0864,
          -0.0712,
          -0.0724,
          -0.05,
          -0.06760000000000001,
          -0.0546,
          -0.0614,
          -0.0734,
          0.023600000000000003
        ],
        [
          0.07560000000000001,
          0.0078000000000000005,
          0.0936,
          0.0728,
          -0.062400000000000004,
          0.0616,
          -0.059,
          -0.0032,
          0.023200000000000002,
          -0.039400000000000004,
          0.0874,
          -0.08680000000000002,
          -0.08580000000000002,
          -0.0154,
          0.09340000000000001,
          0.032600000000000004,
          -0.061200000000000004,
          0.0546,
          -0.029200000000000004,
          0.09880000000000001,
          0.0656,
          0.017,
          0.046400000000000004,
          0.032,
          -0.07680000000000001,
          -0.0792,
          0.014,
          -0.0742,
          0.093,
          -0.041400000000000006,
          0.0032,
          -0.08660000000000001,
          -0.0334,
          0.07060000000000001,
          -0.048400000000000006,
          0.0454,
          0.0062,
          -0.0178,
          0.0234,
          0.0102,
          -0.024200000000000003,
          0.0302,
          0.011,
          0.0668,
          -0.042,
          0.0534,
          0.085,
          0.092,
          0.09060000000000001,
          -0.0912,
          -0.028,
          0.035,
          -0.0488,
          0.0324,
          -0.0966,
          0.0712,
          0.0908,
          0.05740000000000001,
          0.050800000000000005,
          -0.0302,
          -0.057800000000000004,
          0.06720000000000001,
          -0.0234,
          6.000000000000001E-4,
          0.056600000000000004,
          -0.0328,
          0.056600000000000004,
          0.07940000000000001,
          0.037,
          0.046400000000000004,
          0.08560000000000001,
          0.0094,
          0.0422,
          0.0022,
          -0.075
        ],
        [
          0.0692,
          0.09820000000000001,
          0.053,
          0.0134,
          0.0522,
          0.005600000000000001,
          0.0024000000000000002,
          0.025,
          0.002,
          0.067,
          0.0466,
          -0.031400000000000004,
          -0.013200000000000002,
          0.09720000000000001,
          -0.07980000000000001,
          -0.09380000000000001,
          0.09160000000000001,
          0.021,
          0.037399999999999996,
          -0.0032,
          0.0088,
          0.066,
          -0.071,
          0.035,
          -0.030600000000000002,
          -0.0952,
          -0.016800000000000002,
          0.07479999999999999,
          0.09060000000000001,
          0.0322,
          0.038,
          0.0134,
          0.0844,
          -0.0216,
          0.056,
          -0.009600000000000001,
          0.0362,
          -0.057800000000000004,
          0.061200000000000004,
          0.0782,
          0.0698,
          -0.0062,
          -0.07660000000000002,
          -0.099,
          -0.06280000000000001,
          -0.07680000000000001,
          0.0344,
          -0.0048000000000000004,
          -0.013200000000000002,
          0.08860000000000001,
          0.004600000000000001,
          -0.0984,
          -0.0454,
          -0.089,
          -0.0912,
          0.0814,
          -0.039400000000000004,
          0.003,
          -0.028200000000000003,
          -0.0088,
          0.0038000000000000004,
          0.019600000000000003,
          -0.07260000000000001,
          0.063,
          0.0648,
          -0.0108,
          0.011,
          0.032600000000000004,
          -0.055600000000000004,
          -0.0698,
          0.0908,
          -0.075,
          0.0984,
          0.0902,
          0.0674
        ],
        [
          -0.053200000000000004,
          0.028,
          -0.012,
          0.062,
          -0.0238,
          0.062200000000000005,
          -0.062200000000000005,
          0.03780000000000001,
          0.089,
          0.015200000000000002,
          0.013800000000000002,
          -0.082,
          0.0244,
          0.028,
          -0.051,
          0.0426,
          -0.0054,
          0.09140000000000001,
          0.066,
          0.08960000000000001,
          -0.073,
          -0.0926,
          -0.08660000000000001,
          -0.04,
          -0.06420000000000001,
          0.0826,
          -0.062400000000000004,
          -0.073,
          -0.004600000000000001,
          0.0128,
          -0.0854,
          -0.0102,
          -0.0316,
          -0.0354,
          -0.0548,
          -0.048,
          -0.07660000000000002,
          -0.0366,
          0.0816,
          -0.09580000000000001,
          -0.08560000000000001,
          -0.09040000000000001,
          -0.0964,
          -0.0872,
          -0.088,
          0.014,
          0.0536,
          -0.0732,
          -0.08180000000000001,
          -0.012,
          0.001,
          -0.030600000000000002,
          -0.03780000000000001,
          -0.012,
          0.0722,
          0.0466,
          -0.0546,
          0.0684,
          -0.099,
          -0.041400000000000006,
          -0.08860000000000001,
          -0.089,
          -0.0884,
          -0.019200000000000002,
          0.04240000000000001,
          0.033800000000000004,
          -0.05,
          0.0606,
          -0.0402,
          0.028200000000000003,
          0.01,
          -0.0734,
          -0.09240000000000001,
          0.033600000000000005,
          -0.0288
        ],
        [
          0.07940000000000001,
          0.0862,
          -0.0048000000000000004,
          -0.06280000000000001,
          -0.018400000000000003,
          -0.0576,
          0.035,
          -0.0158,
          0.009,
          -0.0288,
          -0.09240000000000001,
          0.0316,
          -0.049,
          0.061200000000000004,
          -0.0104,
          -0.0166,
          -0.09860000000000001,
          0.06420000000000001,
          -0.07460000000000001,
          0.051,
          -0.0308,
          0.028200000000000003,
          -0.068,
          0.0,
          -0.0854,
          -0.0274,
          0.0724,
          0.065,
          0.023600000000000003,
          -0.006600000000000001,
          -0.09880000000000001,
          0.056,
          0.06860000000000001,
          -0.06520000000000001,
          0.004,
          -0.0718,
          0.044800000000000006,
          0.023600000000000003,
          -0.04340000000000001,
          0.06420000000000001,
          0.0094,
          -0.0884,
          0.058,
          0.07560000000000001,
          -0.043,
          0.07840000000000001,
          -0.04580000000000001,
          -0.055200000000000006,
          -0.06760000000000001,
          0.008,
          -0.027200000000000002,
          -0.0742,
          -0.0752,
          -0.0238,
          0.0204,
          -0.04,
          0.0852,
          0.038400000000000004,
          0.008,
          -0.04,
          -0.0626,
          0.077,
          0.08,
          -0.0016,
          -0.0854,
          0.0792,
          -0.0178,
          0.08360000000000001,
          -0.0926,
          0.0824,
          -0.0204,
          0.012600000000000002,
          0.0362,
          0.033600000000000005,
          0.0666
        ],
        [
          -0.017400000000000002,
          -0.07260000000000001,
          -0.0022,
          -0.011600000000000001,
          0.0412,
          0.0666,
          0.06380000000000001,
          0.0806,
          0.0792,
          -0.014,
          -0.06420000000000001,
          -0.077,
          -0.0064,
          -0.0422,
          0.08120000000000001,
          -0.012,
          -0.097,
          -0.0344,
          -0.054400000000000004,
          0.0694,
          0.0984,
          0.0182,
          -0.0182,
          -0.07880000000000001,
          -0.0492,
          0.062400000000000004,
          0.06,
          -0.0416,
          0.094,
          -0.0088,
          -0.0792,
          0.0734,
          -0.0082,
          -0.07460000000000001,
          0.0852,
          -0.0466,
          -0.0592,
          0.04340000000000001,
          -0.08460000000000001,
          0.08660000000000001,
          0.0102,
          -0.09780000000000001,
          0.06080000000000001,
          -0.0296,
          -0.064,
          -0.017400000000000002,
          0.06340000000000001,
          0.0674,
          -0.008400000000000001,
          0.011800000000000001,
          -0.034,
          -0.008400000000000001,
          0.09860000000000001,
          0.0296,
          0.07260000000000001,
          0.09880000000000001,
          -0.029200000000000004,
          -0.093,
          0.0526,
          -0.0104,
          -0.06960000000000001,
          -0.048,
          -0.007,
          0.05840000000000001,
          -0.0844,
          -0.06720000000000001,
          0.08880000000000002,
          -0.062,
          -0.0694,
          -0.0342,
          0.0072,
          -0.0124,
          -0.0976,
          0.023200000000000002,
          0.009800000000000001
        ],
        [
          -0.085,
          0.001,
          -0.0298,
          0.0166,
          6.000000000000001E-4,
          0.0692,
          -0.0832,
          0.018600000000000002,
          -0.058800000000000005,
          -0.071,
          -0.0946,
          -0.0656,
          -0.0832,
          -0.0884,
          -0.0862,
          -0.09440000000000001,
          -0.0562,
          0.024200000000000003,
          0.05040000000000001,
          0.057,
          -0.097,
          0.05940000000000001,
          -0.055400000000000005,
          0.0964,
          0.06860000000000001,
          -0.07840000000000001,
          0.0416,
          0.038400000000000004,
          0.016,
          -0.025400000000000002,
          -0.043800000000000006,
          0.034,
          -0.056,
          -0.0522,
          -0.08940000000000001,
          -0.08020000000000001,
          0.08,
          -0.0288,
          -0.07560000000000001,
          0.0476,
          -0.0932,
          0.08,
          0.042800000000000005,
          -0.0446,
          -0.0302,
          -0.036800000000000006,
          -0.004200000000000001,
          -0.011600000000000001,
          0.0712,
          0.027800000000000002,
          0.0082,
          0.061200000000000004,
          0.029,
          -0.0596,
          0.068,
          -0.06340000000000001,
          0.043,
          -0.09380000000000001,
          0.05380000000000001,
          -0.015600000000000001,
          -0.055400000000000005,
          -0.0898,
          0.0832,
          -0.0044,
          0.0308,
          -0.025400000000000002,
          -0.0646,
          0.0942,
          0.026200000000000005,
          -0.08560000000000001,
          -0.0592,
          0.026600000000000002,
          -0.009200000000000002,
          0.015200000000000002,
          -0.0376
        ]
      ]
    },
    "b72389b0-dbfd-46ea-a6b0-157a0bec1d25": {
      "class": "com.simiacryptus.mindseye.layers.java.BiasLayer",
      "id": "b72389b0-dbfd-46ea-a6b0-157a0bec1d25",
      "isFrozen": false,
      "name": "BiasLayer/b72389b0-dbfd-46ea-a6b0-157a0bec1d25",
      "bias": [
        0.0,
        0.0,
        0.0,
        0.0,
        0.0,
        0.0,
        0.0,
        0.0,
        0.0,
        0.0
      ]
    },
    "dc514e44-20dd-4c6d-9a93-4b2f173cfd96": {
      "class": "com.simiacryptus.mindseye.layers.java.SigmoidActivationLayer",
      "id": "dc514e44-20dd-4c6d-9a93-4b2f173cfd96",
      "isFrozen": true,
      "name": "SigmoidActivationLayer/dc514e44-20dd-4c6d-9a93-4b2f173cfd96",
      "balanced": true
    }
  },
  "links": {
    "bf9f5bf6-a941-458e-890d-6da11d5c2749": [
      "23c663af-c3dd-4b4b-a1f0-63e22ff93b4d"
    ],
    "725fe5d1-fcfe-4ef8-99b7-30cba0b26d59": [
      "bf9f5bf6-a941-458e-890d-6da11d5c2749"
    ],
    "31b8e0b8-22ab-4a26-920b-da0f37956280": [
      "725fe5d1-fcfe-4ef8-99b7-30cba0b26d59"
    ]
  },
  "labels": {},
  "head": "31b8e0b8-22ab-4a26-920b-da0f37956280"
}