{
  "class": "com.simiacryptus.mindseye.network.PipelineNetwork",
  "id": "241296ce-45f3-409e-9b3b-3d43baa48df0",
  "isFrozen": false,
  "name": "PipelineNetwork/241296ce-45f3-409e-9b3b-3d43baa48df0",
  "inputs": [
    "3dc6ec6f-a897-43c6-9a35-be4a114e14a5"
  ],
  "nodes": {
    "0c5e3016-a8b4-49a0-ac74-ccf608e58ff8": "e1b8b947-cf40-4334-a3b4-367220e1289a",
    "c8875f3a-c426-4e10-93e4-b71e0d634476": "7613340c-1ad3-4c8f-9f85-551bab6281c0",
    "5319bf3a-fc5d-46ce-8424-9326f6d38839": "c90422f3-615c-4bbe-b6f4-c8affab48e3b",
    "a21f92d0-40e9-4999-be10-bdf9dc7d3560": "bada4d71-0a3c-47e4-819e-eb701001a4fd",
    "23cb140e-f2a8-4b48-b04e-379d84d0aad6": "185c7a81-96c9-438e-b132-d0820b8131db",
    "9b3a7cb4-72de-43c6-8932-906ddc3d5701": "81498c78-a221-4e1c-a1ce-1309f18dd1d2"
  },
  "layers": {
    "e1b8b947-cf40-4334-a3b4-367220e1289a": {
      "class": "com.simiacryptus.mindseye.layers.java.FullyConnectedLayer",
      "id": "e1b8b947-cf40-4334-a3b4-367220e1289a",
      "isFrozen": false,
      "name": "FullyConnectedLayer/e1b8b947-cf40-4334-a3b4-367220e1289a",
      "outputDims": [
        10
      ],
      "inputDims": [
        5,
        5,
        3
      ],
      "weights": [
        [
          -0.024200000000000003,
          0.0244,
          0.045,
          -0.0632,
          -0.07560000000000001,
          0.086,
          -0.0734,
          -0.0148,
          0.024200000000000003,
          0.078,
          0.09720000000000001,
          -0.0036,
          0.027,
          -0.015200000000000002,
          0.09280000000000001,
          -0.034800000000000005,
          0.082,
          0.0154,
          -0.07579999999999999,
          -0.04340000000000001,
          0.033800000000000004,
          -0.022600000000000002,
          0.0646,
          -0.05280000000000001,
          0.0644,
          0.0454,
          0.054,
          0.05380000000000001,
          0.0412,
          0.0546,
          0.057,
          -0.0248,
          0.0334,
          -0.009800000000000001,
          0.0068000000000000005,
          0.0298,
          -0.0984,
          0.09340000000000001,
          -0.05,
          -0.0632,
          0.09480000000000001,
          -0.045,
          -0.0038000000000000004,
          -0.0038000000000000004,
          -0.0956,
          0.08,
          0.0324,
          -0.0366,
          -0.054,
          -0.0596,
          -0.048,
          -0.08280000000000001,
          0.055200000000000006,
          -0.011,
          -0.09140000000000001,
          -0.0796,
          0.0692,
          -0.0228,
          -0.0342,
          -0.07560000000000001,
          -0.07060000000000001,
          -0.0134,
          -0.075,
          -0.036,
          -0.07660000000000002,
          -0.08480000000000001,
          0.0852,
          -0.030400000000000003,
          0.08760000000000001,
          0.0512,
          -0.029400000000000003,
          0.008,
          -0.0834,
          0.014600000000000002,
          0.009200000000000002
        ],
        [
          0.0952,
          0.031,
          -0.0218,
          0.0708,
          0.0256,
          0.059800000000000006,
          -0.027800000000000002,
          0.09140000000000001,
          0.093,
          -0.04,
          0.0446,
          -0.027800000000000002,
          0.0684,
          0.0712,
          -0.0386,
          -0.0526,
          -0.0832,
          -0.042,
          -0.0256,
          -0.0356,
          -0.07,
          0.026600000000000002,
          -0.019,
          -0.056600000000000004,
          0.05240000000000001,
          -0.039,
          0.0216,
          -0.07060000000000001,
          -0.0142,
          8.0E-4,
          0.06380000000000001,
          0.006,
          0.093,
          0.0352,
          -0.0228,
          0.09340000000000001,
          -0.031,
          -0.0218,
          0.0162,
          -0.041,
          -0.0244,
          0.07460000000000001,
          0.08680000000000002,
          0.0352,
          -0.0134,
          -0.0892,
          0.0062,
          0.0534,
          0.0864,
          -0.092,
          0.07640000000000001,
          0.05380000000000001,
          0.0308,
          0.0068000000000000005,
          -0.040400000000000005,
          0.0466,
          0.0302,
          0.0044,
          0.0558,
          0.0964,
          -0.04580000000000001,
          -0.046200000000000005,
          0.039,
          -0.07460000000000001,
          0.0984,
          0.09440000000000001,
          -0.08880000000000002,
          -0.058,
          -0.022,
          -0.067,
          -0.06420000000000001,
          0.027800000000000002,
          0.0386,
          0.055,
          -0.0874
        ],
        [
          0.0218,
          -0.027,
          -0.095,
          -0.033800000000000004,
          0.028200000000000003,
          0.092,
          -0.07460000000000001,
          0.09980000000000001,
          0.0974,
          -0.0478,
          -0.011600000000000001,
          0.041,
          -0.04,
          0.0182,
          0.0052,
          0.01,
          0.0194,
          -0.0762,
          -0.0024000000000000002,
          0.0412,
          -0.0644,
          -0.04440000000000001,
          0.08380000000000001,
          0.0102,
          0.047,
          -0.07560000000000001,
          -0.038,
          0.048400000000000006,
          0.0922,
          -0.0936,
          0.021400000000000002,
          0.022600000000000002,
          -0.039200000000000006,
          -0.08680000000000002,
          0.0586,
          -0.0032,
          0.0824,
          -0.0442,
          -0.08940000000000001,
          -0.09340000000000001,
          0.0154,
          -0.03,
          -0.0898,
          -0.0248,
          0.026,
          0.0308,
          0.0322,
          -0.053,
          -0.034800000000000005,
          0.011600000000000001,
          0.013600000000000001,
          -0.031400000000000004,
          -0.0898,
          0.033800000000000004,
          0.013,
          4.0E-4,
          0.08940000000000001,
          -0.063,
          0.035,
          0.09880000000000001,
          0.073,
          0.0052,
          0.013600000000000001,
          -0.059800000000000006,
          0.07360000000000001,
          0.068,
          0.05280000000000001,
          0.0874,
          0.002,
          -0.0416,
          -0.0238,
          -0.05840000000000001,
          -0.011200000000000002,
          -0.051800000000000006,
          0.0718
        ],
        [
          -0.06620000000000001,
          0.011600000000000001,
          0.041800000000000004,
          -0.023,
          0.022,
          0.0522,
          -0.071,
          -0.064,
          0.06180000000000001,
          -0.0482,
          0.0702,
          0.0238,
          -0.0204,
          0.08180000000000001,
          -0.0216,
          0.039,
          0.08780000000000002,
          0.0956,
          -0.0108,
          0.007600000000000001,
          0.05740000000000001,
          -0.0442,
          0.0206,
          -0.084,
          0.0688,
          0.0178,
          0.0328,
          0.0704,
          -0.0158,
          -0.091,
          0.0208,
          8.0E-4,
          0.064,
          0.08020000000000001,
          0.0026,
          0.0678,
          -0.009800000000000001,
          0.041400000000000006,
          -0.09720000000000001,
          -0.092,
          0.06620000000000001,
          0.0488,
          0.1,
          -0.07540000000000001,
          -0.0742,
          0.013,
          0.0936,
          -0.041800000000000004,
          0.0162,
          -0.0354,
          0.088,
          0.0074,
          -0.0992,
          -0.0614,
          0.0576,
          -0.04,
          0.0826,
          -0.0816,
          0.032,
          -0.0806,
          0.07060000000000001,
          -0.0568,
          0.023600000000000003,
          0.0454,
          -0.046200000000000005,
          0.040600000000000004,
          -0.0318,
          0.09380000000000001,
          -0.08020000000000001,
          0.029400000000000003,
          -0.067,
          0.0158,
          -0.0028000000000000004,
          0.0052,
          -0.043800000000000006
        ],
        [
          0.004200000000000001,
          -0.025,
          0.0666,
          0.0912,
          -0.0844,
          0.0188,
          -0.009600000000000001,
          -0.036800000000000006,
          0.0664,
          0.0562,
          -0.09240000000000001,
          0.007,
          -0.089,
          -0.055400000000000005,
          -0.0708,
          -0.08880000000000002,
          -0.0158,
          -0.0426,
          -0.05040000000000001,
          -0.0668,
          -0.014600000000000002,
          0.0386,
          0.0922,
          -0.0164,
          -0.0308,
          0.033800000000000004,
          -0.0728,
          0.084,
          -0.09140000000000001,
          0.004,
          -0.011600000000000001,
          0.0188,
          0.035,
          0.06080000000000001,
          0.029400000000000003,
          0.0086,
          -0.07980000000000001,
          0.0316,
          0.0684,
          0.0614,
          -0.035,
          -0.035,
          -0.085,
          0.0354,
          0.004,
          0.0172,
          0.0216,
          -0.028200000000000003,
          -0.0198,
          0.004600000000000001,
          0.0722,
          0.042800000000000005,
          -0.061,
          -0.08960000000000001,
          0.022600000000000002,
          -0.09780000000000001,
          -0.09680000000000001,
          -0.0218,
          -0.0154,
          -0.019,
          -8.0E-4,
          0.052,
          0.0604,
          0.07440000000000001,
          -0.0842,
          0.052,
          -0.0194,
          0.09040000000000001,
          -0.0068000000000000005,
          -0.072,
          -0.048,
          0.0318,
          -0.035,
          0.049400000000000006,
          -0.0422
        ],
        [
          -0.0734,
          0.092,
          -0.013200000000000002,
          -0.03,
          0.062200000000000005,
          0.006,
          0.0636,
          -0.07579999999999999,
          0.076,
          0.013800000000000002,
          0.044,
          0.004200000000000001,
          -0.0204,
          0.0912,
          -0.04240000000000001,
          0.023600000000000003,
          0.034800000000000005,
          -0.022600000000000002,
          0.08080000000000001,
          -0.0488,
          -0.09820000000000001,
          -0.0918,
          0.08220000000000001,
          -0.058800000000000005,
          -0.0286,
          -0.0162,
          0.0,
          -0.085,
          -0.0298,
          0.030400000000000003,
          -0.006600000000000001,
          -0.06860000000000001,
          0.0742,
          0.084,
          0.0238,
          -0.007,
          -0.0482,
          0.0826,
          -0.0362,
          -0.06,
          -0.046,
          0.09440000000000001,
          -0.07880000000000001,
          -0.09160000000000001,
          0.041400000000000006,
          0.0592,
          -0.09340000000000001,
          -0.0446,
          -0.099,
          -0.0824,
          0.061,
          0.0286,
          -0.0606,
          0.08940000000000001,
          0.051800000000000006,
          -0.09380000000000001,
          0.0344,
          -0.0062,
          -0.006600000000000001,
          -0.0128,
          -0.0786,
          -0.0942,
          -0.048400000000000006,
          -0.0596,
          0.0722,
          0.046200000000000005,
          -0.07,
          -0.0456,
          -0.0178,
          -0.0572,
          -0.0346,
          0.08120000000000001,
          -0.017400000000000002,
          0.09980000000000001,
          0.018400000000000003
        ],
        [
          0.0054,
          -0.0698,
          0.05940000000000001,
          0.022400000000000003,
          -0.08360000000000001,
          0.0024000000000000002,
          0.0102,
          0.0872,
          0.0422,
          -0.0012000000000000001,
          0.07440000000000001,
          0.0388,
          -0.038400000000000004,
          0.035800000000000005,
          0.0032,
          0.0354,
          0.0656,
          0.049800000000000004,
          -0.023200000000000002,
          -0.073,
          0.0256,
          0.1,
          0.0596,
          0.029200000000000004,
          0.06520000000000001,
          0.0178,
          0.0386,
          0.0036,
          -0.09380000000000001,
          0.0014000000000000002,
          -0.0074,
          0.05240000000000001,
          0.08280000000000001,
          -0.012600000000000002,
          -0.06180000000000001,
          -0.0912,
          0.020200000000000003,
          0.0356,
          0.09720000000000001,
          0.036800000000000006,
          -0.0698,
          -0.0976,
          -0.0328,
          -0.093,
          0.08660000000000001,
          -0.056,
          0.026200000000000005,
          0.044,
          -0.08280000000000001,
          -0.0038000000000000004,
          0.0274,
          -0.0172,
          0.0324,
          -0.0576,
          0.0576,
          0.0506,
          -0.0926,
          0.0632,
          0.0108,
          -0.063,
          0.0062,
          -0.0548,
          0.047,
          -0.021400000000000002,
          0.063,
          -0.050800000000000005,
          -0.0018,
          0.062,
          -0.0244,
          -0.08380000000000001,
          0.0362,
          -0.0228,
          -0.0582,
          8.0E-4,
          -0.085
        ],
        [
          0.021400000000000002,
          0.0596,
          -0.0708,
          0.06340000000000001,
          0.019600000000000003,
          -0.0016,
          -0.0082,
          0.0882,
          0.0206,
          0.0234,
          -0.036800000000000006,
          -0.060200000000000004,
          -0.07880000000000001,
          0.06420000000000001,
          -0.03780000000000001,
          0.0512,
          0.09720000000000001,
          0.0708,
          0.056,
          0.096,
          0.0034000000000000002,
          0.028200000000000003,
          0.07379999999999999,
          -0.07160000000000001,
          0.020200000000000003,
          0.0052,
          -0.031,
          -0.0422,
          0.099,
          -0.014,
          -0.0792,
          0.009600000000000001,
          0.0182,
          0.022200000000000004,
          0.0466,
          -0.0028000000000000004,
          -0.0476,
          -0.08220000000000001,
          -0.058800000000000005,
          -0.007600000000000001,
          0.0932,
          -0.089,
          0.015600000000000001,
          0.036,
          -0.07780000000000001,
          0.0044,
          0.037,
          -0.03,
          -0.033600000000000005,
          0.011,
          -0.0386,
          -0.032600000000000004,
          0.0606,
          -0.053,
          -0.0912,
          0.09280000000000001,
          -0.013200000000000002,
          0.0154,
          0.0796,
          -0.0216,
          -0.05280000000000001,
          -0.025,
          0.06420000000000001,
          -0.0708,
          -0.07640000000000001,
          0.04440000000000001,
          -0.051800000000000006,
          0.0016,
          -0.022600000000000002,
          -0.0268,
          0.056600000000000004,
          -0.061,
          -0.064,
          0.06860000000000001,
          -0.055
        ],
        [
          0.0402,
          0.0102,
          -0.041400000000000006,
          0.0182,
          -0.0206,
          0.0844,
          0.0692,
          -0.0966,
          -0.0154,
          0.0108,
          -0.05940000000000001,
          -0.021200000000000004,
          -0.0104,
          0.029200000000000004,
          -0.026600000000000002,
          0.011600000000000001,
          -0.04440000000000001,
          0.09340000000000001,
          -0.047200000000000006,
          0.0632,
          0.032600000000000004,
          -0.06620000000000001,
          0.032,
          0.011200000000000002,
          -0.050800000000000005,
          0.0852,
          -0.0872,
          0.02,
          0.0632,
          -0.021,
          0.05140000000000001,
          -0.0694,
          -0.0114,
          -0.0408,
          0.0688,
          -0.0708,
          0.07560000000000001,
          -0.0366,
          -0.05380000000000001,
          0.0172,
          -0.0796,
          0.07,
          0.0302,
          -0.0534,
          0.0702,
          0.058,
          0.0028000000000000004,
          -0.082,
          0.04240000000000001,
          0.0052,
          -0.06,
          0.0144,
          0.0668,
          -0.09160000000000001,
          0.085,
          0.06,
          0.018,
          0.075,
          0.062200000000000005,
          0.0268,
          -0.05280000000000001,
          0.0922,
          -0.02,
          -0.006,
          -0.0786,
          -0.032,
          0.012,
          -0.0014000000000000002,
          0.066,
          -0.0752,
          -0.0946,
          -0.040400000000000005,
          -0.0356,
          -0.07360000000000001,
          0.027600000000000003
        ],
        [
          -0.0256,
          0.046,
          -0.06620000000000001,
          -0.0684,
          0.017,
          -0.0318,
          -0.0288,
          0.026400000000000003,
          -0.09140000000000001,
          -0.098,
          -0.0932,
          0.051,
          -0.009600000000000001,
          -0.0922,
          0.062400000000000004,
          -0.0526,
          -0.0334,
          -0.043800000000000006,
          0.049800000000000004,
          -0.0032,
          -0.0976,
          -0.08380000000000001,
          0.038,
          -0.087,
          0.0576,
          -0.0796,
          -0.07880000000000001,
          0.0432,
          -0.0964,
          -0.0522,
          0.009800000000000001,
          0.0256,
          -0.0082,
          -0.0478,
          -0.061200000000000004,
          0.025,
          0.0874,
          0.062,
          0.0648,
          0.0102,
          0.059800000000000006,
          -0.093,
          -0.0718,
          0.0952,
          0.0742,
          0.06180000000000001,
          -0.029200000000000004,
          -0.02,
          -0.0396,
          0.0522,
          0.0704,
          -0.0412,
          0.0482,
          0.077,
          -0.028200000000000003,
          -0.09540000000000001,
          0.0062,
          0.023600000000000003,
          -0.0172,
          0.0082,
          -0.031,
          0.0964,
          -0.0666,
          0.009800000000000001,
          -0.0354,
          0.021,
          0.0826,
          -0.06860000000000001,
          0.061200000000000004,
          -0.062200000000000005,
          -0.021400000000000002,
          0.0104,
          0.009,
          -0.041400000000000006,
          -0.049400000000000006
        ]
      ]
    },
    "7613340c-1ad3-4c8f-9f85-551bab6281c0": {
      "class": "com.simiacryptus.mindseye.layers.java.BiasLayer",
      "id": "7613340c-1ad3-4c8f-9f85-551bab6281c0",
      "isFrozen": false,
      "name": "BiasLayer/7613340c-1ad3-4c8f-9f85-551bab6281c0",
      "bias": [
        0.0,
        0.0,
        0.0,
        0.0,
        0.0,
        0.0,
        0.0,
        0.0,
        0.0,
        0.0
      ]
    },
    "c90422f3-615c-4bbe-b6f4-c8affab48e3b": {
      "class": "com.simiacryptus.mindseye.layers.java.SigmoidActivationLayer",
      "id": "c90422f3-615c-4bbe-b6f4-c8affab48e3b",
      "isFrozen": true,
      "name": "SigmoidActivationLayer/c90422f3-615c-4bbe-b6f4-c8affab48e3b",
      "balanced": true
    },
    "bada4d71-0a3c-47e4-819e-eb701001a4fd": {
      "class": "com.simiacryptus.mindseye.layers.java.FullyConnectedLayer",
      "id": "bada4d71-0a3c-47e4-819e-eb701001a4fd",
      "isFrozen": false,
      "name": "FullyConnectedLayer/bada4d71-0a3c-47e4-819e-eb701001a4fd",
      "outputDims": [
        10
      ],
      "inputDims": [
        10
      ],
      "weights": [
        [
          0.0286,
          -0.0582,
          -0.008,
          -0.0412,
          -0.029400000000000003,
          0.029400000000000003,
          0.014,
          -0.052,
          0.009,
          0.06720000000000001
        ],
        [
          -0.02,
          0.0124,
          0.0932,
          0.0792,
          0.0936,
          0.06760000000000001,
          0.0668,
          0.0154,
          0.0194,
          -0.0718
        ],
        [
          -0.033,
          -0.099,
          -0.0324,
          0.0108,
          -0.022200000000000004,
          0.04580000000000001,
          -0.064,
          0.068,
          0.0762,
          0.0682
        ],
        [
          0.07680000000000001,
          -0.0454,
          0.065,
          0.032600000000000004,
          0.009800000000000001,
          -0.06760000000000001,
          0.09980000000000001,
          0.0346,
          0.099,
          -0.0102
        ],
        [
          0.018400000000000003,
          0.0692,
          0.010600000000000002,
          0.0344,
          0.061,
          0.049800000000000004,
          0.07160000000000001,
          0.0028000000000000004,
          0.014,
          0.09440000000000001
        ],
        [
          0.050800000000000005,
          0.020200000000000003,
          -0.0604,
          0.0974,
          -0.051800000000000006,
          -0.0592,
          0.0274,
          -0.0234,
          -0.011800000000000001,
          0.076
        ],
        [
          0.0712,
          0.023200000000000002,
          -0.031200000000000002,
          -0.004200000000000001,
          -0.0014000000000000002,
          -0.0548,
          -0.039200000000000006,
          0.0874,
          -0.0476,
          -0.05240000000000001
        ],
        [
          -0.0068000000000000005,
          0.025400000000000002,
          0.038,
          -0.0936,
          -0.0302,
          -0.095,
          -0.034800000000000005,
          0.027,
          -0.013,
          -0.0852
        ],
        [
          -0.06180000000000001,
          -0.0074,
          -0.0082,
          0.029200000000000004,
          0.0804,
          -0.0568,
          0.08580000000000002,
          -0.0782,
          0.0044,
          -0.0842
        ],
        [
          0.0844,
          -0.025,
          -0.0442,
          0.035800000000000005,
          0.0772,
          0.094,
          0.019200000000000002,
          -0.09340000000000001,
          -0.007600000000000001,
          0.024200000000000003
        ]
      ]
    },
    "185c7a81-96c9-438e-b132-d0820b8131db": {
      "class": "com.simiacryptus.mindseye.layers.java.BiasLayer",
      "id": "185c7a81-96c9-438e-b132-d0820b8131db",
      "isFrozen": false,
      "name": "BiasLayer/185c7a81-96c9-438e-b132-d0820b8131db",
      "bias": [
        0.0,
        0.0,
        0.0,
        0.0,
        0.0,
        0.0,
        0.0,
        0.0,
        0.0,
        0.0
      ]
    },
    "81498c78-a221-4e1c-a1ce-1309f18dd1d2": {
      "class": "com.simiacryptus.mindseye.layers.java.SigmoidActivationLayer",
      "id": "81498c78-a221-4e1c-a1ce-1309f18dd1d2",
      "isFrozen": true,
      "name": "SigmoidActivationLayer/81498c78-a221-4e1c-a1ce-1309f18dd1d2",
      "balanced": true
    }
  },
  "links": {
    "0c5e3016-a8b4-49a0-ac74-ccf608e58ff8": [
      "3dc6ec6f-a897-43c6-9a35-be4a114e14a5"
    ],
    "c8875f3a-c426-4e10-93e4-b71e0d634476": [
      "0c5e3016-a8b4-49a0-ac74-ccf608e58ff8"
    ],
    "5319bf3a-fc5d-46ce-8424-9326f6d38839": [
      "c8875f3a-c426-4e10-93e4-b71e0d634476"
    ],
    "a21f92d0-40e9-4999-be10-bdf9dc7d3560": [
      "5319bf3a-fc5d-46ce-8424-9326f6d38839"
    ],
    "23cb140e-f2a8-4b48-b04e-379d84d0aad6": [
      "a21f92d0-40e9-4999-be10-bdf9dc7d3560"
    ],
    "9b3a7cb4-72de-43c6-8932-906ddc3d5701": [
      "23cb140e-f2a8-4b48-b04e-379d84d0aad6"
    ]
  },
  "labels": {},
  "head": "9b3a7cb4-72de-43c6-8932-906ddc3d5701"
}