{"class":"com.simiacryptus.mindseye.network.PipelineNetwork","id":"79d73b81-fbf8-4332-8846-276d23c67c6b","isFrozen":false,"name":"PipelineNetwork/79d73b81-fbf8-4332-8846-276d23c67c6b","inputs":["dbc915af-7793-422c-b3f9-7c54f12e147a"],"nodes":{"9f759185-efb5-4e08-ba98-8297966de904":"2bcbeb33-ac3a-4e12-bb27-33936c1b80de","d06521a5-61e0-4d87-8971-0cbe128afa80":"3209e73e-bd9a-426b-a9bd-54fd52220951","92b46e02-c76e-4cb3-9212-f2d60a06dbee":"3ebabeef-1b9b-492d-87c8-46f01ea3dc13","13477243-7a61-4f3e-9fb1-563095a24f39":"c8b3c4bf-f9ae-422a-bb24-4de7422cabf3","53fe6693-1777-4c6e-b060-fa3e29a9c2ea":"2c7d72d2-7bf9-49a9-87bd-024970cc9fbb","6b2b0ed8-2e66-43c4-96df-e83857e8403c":"08d7250d-9cf6-4c51-82c7-c57fa29d74ab"},"layers":{"2bcbeb33-ac3a-4e12-bb27-33936c1b80de":{"class":"com.simiacryptus.mindseye.layers.java.MonitoringWrapperLayer","id":"2bcbeb33-ac3a-4e12-bb27-33936c1b80de","isFrozen":false,"name":"ConvolutionLayer/b496776b-b232-47d7-85d5-4101badc5e16","inner":{"class":"com.simiacryptus.mindseye.layers.cudnn.ConvolutionLayer","id":"b496776b-b232-47d7-85d5-4101badc5e16","isFrozen":false,"name":"ConvolutionLayer/b496776b-b232-47d7-85d5-4101badc5e16","filter":[[[0.12047939100640193,0.003248020608566051,-2.9845176951749267E-5],[0.03292891385645536,2.5639752258690503E-5,-4.944994674137501E-8],[0.006989924578257319,3.877843726486153E-6,3.102156575388852E-5]],[[0.15433516538407355,0.2675438592078769,0.20811300820533327],[0.21984682521702664,0.2939525059354073,0.18318384032704452],[0.2581940163331033,0.31630807621664236,0.17921096238831913]],[[0.20489050355772867,0.1738150792131766,0.17185500853570318],[0.041613136717205686,0.0216187549584124,0.0655114005731167],[1.697087244408681E-4,1.8988791138334734E-4,0.004564449635879219]],[[0.21491030505555236,0.24762274991743077,0.18838233759784095],[0.318404745164103,0.2936803856651123,0.14034739674198052],[0.3750528949991664,0.2747484778587049,0.02539240197702884]],[[-0.14488998820372165,-0.10568724459554961,-0.008533409238238306],[0.07601612225779768,0.03419975321132692,0.004972076906783046],[0.24209289280272095,0.16514807192431188,0.06070654275428204]]],"strideX":1,"strideY":1},"totalBatches":636,"totalItems":3180000,"recordSignalMetrics":false},"3209e73e-bd9a-426b-a9bd-54fd52220951":{"class":"com.simiacryptus.mindseye.layers.java.MonitoringWrapperLayer","id":"3209e73e-bd9a-426b-a9bd-54fd52220951","isFrozen":false,"name":"PoolingLayer/3a29dd11-57a9-4677-b7f8-db402508cf59","inner":{"class":"com.simiacryptus.mindseye.layers.cudnn.PoolingLayer","id":"3a29dd11-57a9-4677-b7f8-db402508cf59","isFrozen":false,"name":"PoolingLayer/3a29dd11-57a9-4677-b7f8-db402508cf59","mode":0,"windowX":2,"windowY":2,"paddingX":0,"paddingY":0,"strideX":2,"strideY":2},"totalBatches":636,"totalItems":3180000,"recordSignalMetrics":false},"3ebabeef-1b9b-492d-87c8-46f01ea3dc13":{"class":"com.simiacryptus.mindseye.layers.java.MonitoringWrapperLayer","id":"3ebabeef-1b9b-492d-87c8-46f01ea3dc13","isFrozen":true,"name":"ReLuActivationLayer/899d3085-e32f-4f38-aeb8-44fb6ee0245f","inner":{"class":"com.simiacryptus.mindseye.layers.java.ReLuActivationLayer","id":"899d3085-e32f-4f38-aeb8-44fb6ee0245f","isFrozen":true,"name":"ReLuActivationLayer/899d3085-e32f-4f38-aeb8-44fb6ee0245f","weights":[1.0]},"totalBatches":636,"totalItems":3180000,"recordSignalMetrics":false},"c8b3c4bf-f9ae-422a-bb24-4de7422cabf3":{"class":"com.simiacryptus.mindseye.layers.java.MonitoringWrapperLayer","id":"c8b3c4bf-f9ae-422a-bb24-4de7422cabf3","isFrozen":false,"name":"BiasLayer/6fdb1dd7-cf08-4e61-9945-c5b44c31affb","inner":{"class":"com.simiacryptus.mindseye.layers.java.BiasLayer","id":"6fdb1dd7-cf08-4e61-9945-c5b44c31affb","isFrozen":false,"name":"BiasLayer/6fdb1dd7-cf08-4e61-9945-c5b44c31affb","bias":[2.752172291713888E-5,-1.9920880823664463E-5,9.860471245648852E-6,1.1811415563528427E-5,-7.914181118806071E-5,-2.307073356187442E-5,-5.366950088932204E-5,-3.6374603367452587E-5,9.760325307872452E-6,5.5917209329056556E-6,-1.4874293749080492E-5,1.4204994550173775E-5,-2.8484308181911655E-5,-3.720923259017569E-5,7.847695167955993E-5,3.375402234380156E-5,1.3078865997913622E-5,1.6748992071959022E-6,3.026084510178221E-5,-5.549009177605648E-6,2.47418775268368E-6,-1.0723999520450956E-5,3.6926224747807386E-5,-1.9369422474419686E-5,-6.671182248182037E-6,-1.1115711889962084E-5,2.341846733299904E-5,-2.7567982076123568E-5,-3.628890218264634E-5,4.057288601928545E-5,-6.0177059275960344E-5,-9.88176195233418E-6,-1.5195048046009699E-5,-1.0450355664605995E-5,-1.5388688494848467E-5,-5.3398636970020104E-5,-6.563251798304487E-5,3.0760851411884995E-5,1.9300093474727943E-5,5.1084894786044874E-5,4.348025386060679E-5,-2.5831348688363397E-5,-5.519817972732564E-5,3.3489523551956045E-5,4.440854941191304E-5,7.74119896534639E-6,-3.43880817609654E-5,-3.803105546808427E-5,5.8679977529728914E-5,6.654145099369052E-6,-6.252894282281313E-6,2.036913570525105E-5,-4.583515226644717E-5,-1.5743273642645342E-5,4.993597213173909E-5,-2.5082125902769023E-5,1.3218478594405783E-5,-6.253081642099349E-5,-3.203379357682865E-6,-2.1698518417104558E-5,-5.835003943081804E-5,2.0615318355235808E-5,-7.262110059628364E-6,5.66580597038237E-5,3.918001415022202E-5,-4.497649007957968E-5,-4.062768551224186E-5,-3.727793138358053E-7,1.3995045315586313E-5,-1.0174769192820062E-5,3.212268347977706E-5,-4.832223676875396E-5,-3.903499398577996E-5,-2.8580330717102035E-6,2.2587611768378715E-5,4.720047176564565E-6,1.350803739244898E-5,5.690985842026785E-6,4.3639254963291955E-5,4.473965818331763E-6,-4.443256605659402E-6,1.4426819140040651E-5,2.9501502076424877E-5,-5.250639112092748E-5,-5.7050137235296834E-5,7.476321660711349E-6,2.6342779943966812E-5,-9.622148093686716E-6,1.9532078609706237E-5,-5.5989074570106155E-5,4.8952849932497566E-5,-5.5875795837653254E-5,4.4881862919697435E-6,-3.488968156710088E-6,2.7488221229019094E-5,-1.8489828386685072E-5,5.415479189924915E-5,-1.1975666567463226E-5,2.0508345078161637E-5,2.6961505403685274E-5,1.3035498552167973E-5,2.7668592152400946E-5,6.0391360169126374E-5,-1.654070701412222E-5,4.6741850066292306E-5,4.526260007719547E-5,6.41551703658802E-5,4.303792549181538E-5,-3.916736814525549E-5,-1.3025982830652315E-5,1.1390333350696811E-5,6.84956291992681E-5,5.338385013209326E-5,4.717289056261158E-5,3.650968368489609E-5,-7.124622395387449E-5,3.288834763116259E-5,-3.207906330929965E-5,-2.166633661306668E-5,-6.179573833383386E-5,5.6863484892791746E-5,-3.9266763880450634E-5,-4.767120305053279E-5,-5.898351946532509E-5,-2.296236246684267E-5,2.961870124539041E-5,2.9629423689450474E-5,3.8184548955016995E-5,-2.2620920925121206E-5,-2.1835202947999613E-5,8.174602349779267E-6,2.520538940516272E-6,2.030465741319007E-5,-5.49823382266214E-5,-4.4431882779756E-5,1.6768707172272E-5,-2.0368874031138544E-5,4.634170472959227E-5,-5.0645256167493964E-6,-4.995071155042387E-5,2.9290029177738824E-5,-5.2633205631435025E-5,-1.2973585921505845E-5,5.862507042093695E-5,-4.123711471931733E-6,-1.447320546842103E-5,4.251477636530963E-7,-2.6107109776556666E-5,-2.08083362823425E-5,4.8608638328412744E-5,1.78895326277368E-6,4.189872619711721E-5,3.0963452684757784E-5,4.606324705370814E-5,6.309530044964311E-6,-1.766676181367111E-6,2.7572330399866262E-5,2.3397892060264957E-5,-5.668062932673164E-5,-1.1389342303196468E-5,-4.336483006942502E-5,2.3623967444956422E-5,-3.662265157149538E-5,4.130581859195427E-5,-2.9819368029120305E-6,-4.7729788690280595E-5,5.3042954495758526E-5,-4.0090754935345124E-5,-6.947294223874405E-6,-1.1487549856476176E-5,3.5424797825623203E-6,2.7773551677295053E-5,-4.34369384813145E-5,-8.454873470566435E-5,-4.084945844652596E-5,-1.5954681298742008E-6,-1.1551665218044488E-5,-4.4833958003111006E-5,-2.657498560938196E-5,2.9140903641565525E-5,8.48604287222468E-6,4.114263288245246E-5,-5.673881833808084E-7,-5.2760226695522796E-5,-5.491520989978556E-6,1.3702817704062165E-5,1.4664428820451184E-5,3.3425323229215155E-5,-7.842178032834684E-6,2.8862092485972513E-5,5.356994846748928E-5,-1.889435240268582E-5,1.9756986881819858E-5,5.4490814663085135E-5,-6.624753571514563E-6,1.9771859974716646E-5,2.9954577674380775E-5,-2.649543720488273E-5,-5.890623588534786E-5,-2.734718630062347E-5,5.391697792089071E-6,-6.326132572225427E-5,2.339284537556085E-5,-7.223486449487664E-6,-4.594343673067936E-5,-4.0344561034209126E-5,2.8942233812445366E-5,-8.595751777771049E-6,-6.272293158823918E-5,-3.0136944430925433E-5,-3.5728445633201755E-5,-2.5461892456786995E-5,-1.0403982814401789E-5,-1.8371337397601188E-5,-1.4637594043988483E-5,-2.675509143839383E-5,-1.5907712888974075E-5,5.679146287947674E-6,-6.288921291464718E-5,7.346308878658062E-5,6.777341311225141E-5,-5.802415551315646E-5,-4.392986598885411E-6,-3.733407525073393E-5,-5.978482211707053E-5,-1.3046088259251799E-5,4.1579293235113305E-5,-4.7076074379685626E-5,2.435446403836309E-5,-7.532006981764557E-6,-3.5892086446154517E-5,-3.156192113542633E-5,1.987085997670815E-5,-2.618880597518861E-5,5.990943870860606E-6,4.95390813444055E-5,5.3125749859950396E-5,4.587791026250858E-5,-4.551107096627676E-5,-3.2016163583194706E-5,-1.8313612373908505E-5,-5.411930273983031E-5,-4.773185201362547E-5,-4.746213880518888E-5,-4.6187246592543765E-5,-3.7413256472175744E-6,-1.2686167286536213E-5,2.8297115453614534E-5,-2.8372156750194763E-5,-2.828570849126985E-5,-6.5478658655238E-5,-1.298502857397912E-5,2.1987896586421115E-5,1.0289218053774138E-5,1.7754855516916986E-5,1.0706362934727992E-5,-2.2739131247961827E-6,-5.178669798464891E-5,-1.1711766693383028E-5,2.096345021723925E-5,6.59222591454799E-5,6.62324444449248E-6,-1.562664708055445E-5,-8.450064197252953E-5,-2.5352439671284793E-5,-3.2316770307210764E-6,2.001465165887709E-5,-6.678542758167461E-6,-1.751999112169149E-5,3.370822163894539E-5,2.4998399329078004E-5,1.7447047425301317E-5,-4.8608011030260174E-5,1.3937295253961061E-5,-4.257858588994051E-5,2.522137329679957E-5,8.552250169743688E-6,-7.300467531281112E-5,-2.213216067988271E-6,8.00680817288E-6,1.6590277656681764E-5,-4.2438048402334315E-5,9.76829918172946E-6,-2.989003703237714E-6,-3.960973378305726E-5,-1.853202237016473E-5,-5.315514475724156E-5,3.358238628545114E-5,-5.2439568755546285E-5,1.2034114971130339E-6,1.0148023297308227E-6,2.795696426867923E-6,1.8961889616054322E-5,-1.4848076904834747E-5,-5.943486899403747E-5,2.1711895029678484E-5,4.431789472082442E-5,1.5184443621043948E-5,1.1765829536715405E-5,-8.397314640944092E-6,3.233628246573077E-5,9.527595615307274E-6,1.643483307399298E-5,-9.870575357662906E-6,-5.685619187484813E-5,-1.3754138152774476E-5,-3.6689406634370585E-5,-2.7189797188130812E-5,-2.895168950014708E-5,8.448170521124438E-6,-3.901097550376698E-5,5.822457339497396E-6,-3.532929025832942E-5,7.2084015966297476E-6,-9.847956480050536E-7,-3.876360097085356E-5,-4.575335673984581E-5,-3.6918360781500664E-5,-3.772530728360884E-7,6.620786849075465E-5,-4.0451257662412114E-5,7.918110930300038E-5,1.501518246683198E-6,3.070138917990663E-5,-4.738359328623875E-5,6.465504639126631E-7,-1.719313306849122E-5,-9.03415946432599E-6,-1.5893497286370289E-6,4.541958602638985E-5,1.9819004692646538E-5,-7.166818401238986E-5,4.6098620054534794E-5,-2.7272563541596115E-5,4.750098173161041E-6,7.14606844304147E-5,-8.18469842137807E-6,-3.532124092633692E-5,-5.9468379442944235E-5,3.3864399115801965E-5,3.21662197075473E-6,7.422318028395451E-5,2.677127094935284E-5,-1.4618835220949875E-5,2.0763367171728678E-5,-1.582929374604912E-5,-2.2488347430895572E-5,7.351613015769796E-6,-1.888163247514827E-5,-3.258923338131133E-5,6.0023398426852645E-5,-1.2539076540770681E-5,9.748238304148333E-6,2.9869053161429626E-5,-9.058459836051928E-6,4.48728762201413E-5,5.531646491794945E-5,-5.375443011709493E-5,6.506899329227561E-5,-1.731967286381973E-5,-2.9724881146942905E-5,-2.2329592483579856E-5,-6.400355767743688E-6,-4.3728050967026354E-5,2.348769634643306E-6,-7.481077960868713E-6,-2.1759427893404326E-5,-1.560796854016735E-5,-1.3859314037454594E-5,-6.697774058681231E-5,2.013666585021151E-6,-3.448055262644962E-5,-2.3334349115937637E-5,9.27079990563047E-6,-5.233850561621826E-5,-3.437911869186441E-5,-4.286158878440417E-5,6.586453475404013E-7,-3.952518996877835E-5,3.684104456551333E-5,2.9278990795847754E-5,-3.2930339490132985E-5,8.113357658240337E-5,-1.0463686949160443E-5,-9.603911109084043E-6,-2.9384599063569677E-5,-1.580757269679971E-5,-1.482077177255444E-5,-1.18332599459347E-5,4.6971122650298176E-5,1.5559686242130275E-5,3.861711800928306E-6,-4.03980061591247E-6,-4.4853277045547615E-5,-6.502994185876072E-5,-4.2604367895128465E-5,-3.917568762386254E-5,3.965294128174824E-5,-2.3354273704360056E-5,-6.79591717528421E-5,-2.607834689930949E-5,2.824033053181178E-5,-1.0702675026559204E-5,-3.956595700638612E-5,3.0646677409190364E-5,2.8150151752870046E-5,2.016479466870668E-5,-5.099252879245541E-5,-1.9914151244493115E-5,-5.6976008998011435E-6,-1.9165420286681902E-5,3.797494183772831E-5,-3.130030244133524E-5,-3.009940393023171E-5,-5.816973624389924E-5,3.3523691069583466E-5,2.0048620244262246E-5,-9.289981794278333E-6,9.208736519794793E-6,-1.7197342520654792E-5,3.3605984723998396E-5,5.778766767697814E-5,-2.63949772964439E-5,1.9559077534929147E-5,-3.386695123860297E-5,-2.967909627921951E-6,-6.113307459679226E-5,-1.3411436966242123E-5,2.8386717938726084E-5,3.58591806463618E-5,4.327925236624824E-5,-1.4263034592518491E-6,4.54819682202387E-5,2.6999000874324955E-5,-2.9549563179368935E-5,-6.066728757900515E-5,-5.3388934696255444E-5,1.0790117503664667E-5,2.8672502346022675E-5,-5.66134214745089E-7,3.137375615105214E-5,1.1960593948998299E-5,-5.732462463914133E-5,8.337982778368997E-6,-3.304616805564965E-7,3.631548867475689E-5,-7.244652810122954E-5,1.2778299126191678E-5,1.973109988807957E-5,3.629227875696027E-5,-2.3874854813786853E-6,3.827256488909249E-5,6.916123822991161E-5,-2.2530169158521142E-6,-3.5764335987061115E-5,-1.1604912034528531E-7,4.035477595000629E-5,-8.699347534314066E-7,-1.987000067149182E-5,-1.2876201295874898E-5,2.960403053769964E-5,-3.74000773317653E-5,-2.7212267562220183E-6,-2.7129557512992133E-5,-4.7964318918951005E-5,1.6427590654753745E-5,-4.241044150673329E-5,-3.143328969856012E-5,-1.3339238661027305E-5,-7.060027329976045E-6,-2.1375630291827825E-5,-1.677776318809954E-5,-4.3286172033329157E-5,3.4511187206583076E-5,8.644518491355839E-7,9.245426616943485E-6,-2.4486543259326975E-5,-1.1528149703982858E-5,-6.663719798108551E-6,-7.053375493377623E-5,-1.1187194897736204E-5,3.873525305529861E-5,-4.258983320378899E-6,-5.714509437219926E-5,7.59336589127243E-5,1.4892756623697827E-5,-2.5853707693689676E-5,1.3426089692867174E-5,-2.4831108905945273E-5,3.881921605931293E-6,-1.6091289543536828E-6,-4.8232129426787764E-5,-1.0669544680904757E-5,-2.986463275978645E-5,-1.4294630571945442E-5,4.0990310692285666E-5,-5.30951019848537E-6,7.131261603814416E-5,-4.52509857398874E-5,7.5086377994502285E-6,-1.480619105144133E-5,2.490588702556236E-5,1.6675469847199628E-5,-1.5794459795213813E-5,-6.282439148677488E-5,3.3366926244644106E-5,5.15523520723012E-5,-3.823494003465105E-5,-3.1796741912780816E-5,-2.680458605289708E-5,6.1287879480563484E-6,-5.3257267419035675E-5,2.869519481101577E-6,-3.8571035830985796E-5,2.7615689862704663E-5,1.0011378521577134E-5,4.8183796092923655E-5,4.4922142346336197E-5,-1.749586022372809E-5,3.4400968437037034E-5,3.713349989071617E-5,-1.3449818423255557E-5,-2.2087674266109496E-5,-1.3321663988980187E-5,2.5643076186753115E-6,-7.41774754618833E-6,3.455920034947396E-5,-8.158258442001578E-6,-1.1997566725836346E-5,-1.6033436752352617E-5,-1.707228383364328E-5,-4.8572756022764366E-5,-2.4614854245565227E-5,-2.1156589090328942E-5,7.791832682596315E-6,1.924631824137474E-5,-1.5547917982375667E-5,-4.478091001309997E-6,-2.2226980771174263E-5,-1.64036922400534E-5,2.6120799644678385E-5,-4.6761763656457204E-5,1.3368986560748856E-5,4.727975496097139E-5,1.861242227426982E-5,2.315075280000049E-5,-2.454766810170151E-5,-2.9382249440890287E-5,1.95650662427005E-5,3.978597958689928E-5,3.5018568537298636E-5,-4.000796491508039E-5,-5.24944046093608E-5,9.697448011277162E-6,2.0153005834831135E-5,4.849935204791106E-6,4.698830036297055E-5,4.635225132602105E-6,-4.097909694888222E-5,1.1835420053466307E-5,-3.767442102786116E-5,2.3379824402844277E-5,8.58279834219776E-6,-4.1769824815471524E-5,-8.186681728304481E-5,-3.9777503394021605E-5,-3.1116775545544037E-6,-9.558863063062365E-6,-9.655623415500153E-6,1.4148628508455113E-5,-1.3068371322002444E-5,3.6447780567748436E-5,2.6001947193945845E-6,3.394066288109389E-5,-4.6136029266410794E-5,5.477962554560788E-5,1.1206844410768807E-5,-2.7141878400248866E-5,-2.2892449116817267E-5,-7.65386196560288E-6,-4.000043949072682E-5,2.1777161150491204E-5,-1.3091663617907007E-5,-2.7596459905012065E-5,-3.171932127523813E-5,-3.5323135839142215E-5,-3.683366790418917E-5,6.173565026703667E-5,1.9177830905130666E-5,-6.376630387535023E-5,3.078824352267408E-5,3.2624287689377717E-5,-5.330326615619756E-5,-1.6690134745169796E-5,3.7336012607497806E-5,4.3712096992211664E-5,4.2423072043946516E-5,-5.3233074633174644E-5,-1.0331374668501304E-5,-4.6164435977410803E-5,2.865538381164485E-5,5.214711114257033E-5,-1.0115178800378655E-5,1.036376340317148E-5,-1.2597080690872552E-5,3.3094513541770786E-5,-3.30587809098129E-5,-1.2142820345666632E-5,1.4935836887756652E-5,1.0546142995301484E-5,-2.9284680582819166E-5,-8.632042282134987E-6,2.2212374343240586E-5,-2.4366206500399777E-6,-5.787075687937629E-5,-1.6996529693010558E-5,3.551318286215514E-5,4.6788651533954934E-5,-3.747631227706254E-5,-4.373280646655762E-5,-7.963553011140741E-5,6.715268632520674E-6,2.2928436216453436E-5,-1.5636257773183804E-5,6.976419186521881E-5,-1.0566914639278622E-5,1.2888570207378374E-5,7.922669621034509E-5,5.507479235785268E-5,4.085074584245997E-5,3.329809939470741E-5,-1.5283241531509907E-5,-5.7521045263903574E-5,3.17658429635089E-5,6.837815279690145E-5,-3.26384903317133E-5,-1.7425489511800668E-6,5.3391893172004453E-5,-2.818042160201549E-5,-1.6239884099717973E-5,-2.4073292199206896E-5,-1.3235234177639599E-5,1.2178539432564561E-5,-5.984976524267316E-5,-1.0673971654587778E-7,-1.500183263177457E-5,-5.687720820514658E-6,-2.149247347618579E-5,5.9934568651525064E-5,1.3301159546112521E-5,3.416465147087812E-5,6.123743287673806E-5,-1.234417240768478E-6,5.824687856702661E-6,1.3999017344955544E-5,7.54798046084636E-5,-2.6392296520771337E-5,2.531540757722489E-5,1.9885597277696848E-5,-9.81549250473363E-6,-2.525945377517089E-6,-1.2822641931042861E-5,3.619388955180694E-5,-1.3077985970242116E-5,-4.2101826215147075E-5,-3.491997736153324E-6,4.2829862884237356E-5,-1.3555320688290591E-5,-2.3299165365246166E-5,3.0386931829840808E-5,2.742603617590873E-5,-4.921213692217661E-5,-3.20619943918562E-5,3.8728236802731164E-5,2.1050050146119763E-5,3.756041579876839E-5,1.8089761484522854E-5,6.229276370719917E-5,2.877578737163506E-5,-7.498373343879139E-5,2.7987989608013704E-5,-6.552981085404649E-5,-3.335154688728037E-6,-1.4513456818627684E-5,-5.3711422472631654E-5,-5.252431075021606E-5,2.0344162692749464E-5,4.7279613072806E-5,4.027164946155037E-6,3.0077468346254393E-6,-6.092724680408868E-6,-1.548673207582383E-5,-1.4658497983517118E-5,4.167153718557095E-5,6.283352394795532E-6,-5.51157041016769E-5,2.515909067183518E-5,-2.449974982645118E-5,5.014314784537814E-5,-2.929767233603077E-5,4.182889639374752E-5,-1.818948915792793E-5,4.622806568949029E-5,-9.01613198984916E-6,-1.118005674723752E-8,5.364725629658108E-5,5.210888155060709E-6,5.938724746726916E-6,-4.845308199052351E-5,-2.314609865126159E-5,7.234832812789804E-5,-1.5919382003234307E-5,7.964745136279109E-5,3.6398352612217283E-5,2.1824677851834833E-5,-1.3804149543273674E-5,1.9459577103738994E-5,3.9963610233609056E-5,-3.123564995809054E-5,5.7411418902660243E-5,-3.788384316339327E-5,1.7788998656656214E-5,1.959626081771097E-5,3.85028708380013E-5,-1.4818745995792012E-5,-3.309749743444884E-5,4.369929837320535E-6,2.0447058066004095E-5,-1.713985647909058E-5,-3.843872457257724E-5,9.502768181386243E-6,-1.79979247000309E-5,-4.695943121665696E-5,7.10970431189704E-5,4.521447619766994E-5,-2.639095393435755E-5,3.3570209708241514E-5,1.761230171191596E-5,-4.589801220139919E-5,-2.2343766032557268E-5,-3.983566440848696E-5,1.911282632264371E-5,-2.3034024969019965E-5,-1.713652111904169E-5,-4.9969379844466206E-5,-2.864256645322666E-5,-5.879712570469768E-5,5.627054479994766E-5,-6.471610329879828E-5,-6.62560876595339E-5,-3.219482206284713E-5,-1.4713232873240237E-5,5.607311427413548E-5,-3.3150774915238287E-5,5.891185987668489E-5,1.7137695793530887E-5,2.4255506692496355E-5,4.9263455381645755E-5,-2.7496363490659598E-5,-1.4616221180491476E-5,-3.170104818753941E-5,-7.353732708185105E-6,5.40397356532334E-5,4.790048657872224E-5,4.473124382648357E-6,5.592878972077317E-5,-3.229943858612851E-5,6.565054738676054E-6,2.7080201220751666E-6,8.175639828829417E-6,-2.6755808304087048E-5,-2.3390365667490375E-5,-2.891308520795263E-5,-1.221958300699531E-6,1.560376528478588E-5,-1.4116299149872029E-5,-2.5664779668471E-6,-3.320411764408246E-5,2.5324154634001845E-5,-2.2342949617776924E-5,-2.589056119341643E-5,-4.9593095571737296E-5,4.839272409163899E-5,5.324883943040815E-5,4.405063520060941E-5,-2.789839615037765E-5,-1.910968154761186E-5,-1.431005773185142E-5,2.8559815937344947E-5,1.583104145322506E-5,-1.6857397313533654E-5,1.1876331273975954E-5,-1.7042103293393614E-5,-2.401093600216075E-5,2.856205643678279E-6,1.5849117080397816E-5,-2.4662556135583293E-5,9.133809613786372E-6,2.4901042081547452E-5,6.263261939549883E-8,-1.7308768603442313E-5,-4.789349102124141E-6,-4.818340720969153E-5,1.9371295521700774E-5,-1.2166381270089112E-5,4.153000615230324E-5,1.5634047161636958E-5,-2.80372189940813E-5,5.385804272050086E-5,-4.689861389842267E-5,-5.2702805235502386E-5,-5.4756037533896254E-5,-4.641734926290791E-5,1.2049040426198782E-5,-6.36201891085781E-5,3.159497563020088E-5,-1.4726590332752228E-5,-5.373598486741476E-5,3.909528610823113E-5,-2.868181079829999E-5,3.5991733764837797E-6,-1.065575272525365E-5,-1.0179936017831427E-5,-5.7024929773213886E-5,7.189918182009047E-5,4.434461552840088E-5,3.3124382338778696E-5,3.4447662063379825E-5,-3.5208352910007064E-5,2.227926056596191E-5,5.6173657914940984E-5,1.5178255865520563E-5,5.568497998369053E-6,-1.6398032709096155E-5,9.724921377974436E-6,1.3855083743855995E-5,-6.27726568790529E-5,-4.8867387867975786E-5,2.2452407833347766E-5,3.938872092864546E-5,2.661377987518911E-5,-6.222264808478502E-5,-7.078961570082865E-6,-1.6070445035879046E-5,-2.8041032599852625E-5,-2.077729108465628E-6,-1.6793077937095735E-5,-7.046349626630587E-5,-3.4975375728670246E-5,1.3148692674804498E-5,1.8106133235892E-5,-4.4539912652111804E-5,3.8145479763419595E-6,4.093472177954646E-5,6.655137615401854E-5,6.615878837019381E-6,-1.0419007426675929E-5,3.238901948365389E-5,7.003695914456601E-6,2.642289227967145E-5,6.201562996254385E-5,-6.293148444101211E-5,-5.691843530177725E-5,-9.368108903591366E-7,1.6639165527063574E-5,-1.4111812896036074E-5,-5.495260899382884E-5,1.8836887769025128E-6,-4.518362569020065E-6,-7.855140072122997E-6,-4.8259339778231694E-5,-1.1972971090917607E-5,5.649294449902781E-6,-3.789190364932684E-5,4.240473638061971E-5,2.4488161125413216E-5,-2.0825423181210775E-5,4.88262884507531E-5,3.079684518523261E-5,1.537118310940627E-5,3.46942372124436E-5,1.6178059279185513E-5,5.2440539459072295E-5,2.2083030353963057E-6,1.3167633206389413E-5,-2.202968031317567E-6,7.405725184430904E-6,1.1636271304706206E-5,-6.0909037588310945E-5,-2.9640661176182605E-5,-1.8034019109249905E-5,-2.4402090553030177E-5,7.249347591538079E-6,1.6052996802481348E-5,6.223777975895994E-5,-2.0558685790775542E-5,-5.6862269665178193E-5,-1.4356888207326615E-5,2.133021047124505E-6,-4.759905591988557E-6,5.8864790535175974E-5,6.6936454913836396E-6,1.9004585951958276E-6,5.940954777199464E-6,2.3800603496787997E-5,8.328020682000466E-5,-3.3785372209376245E-5,1.3771027230686104E-5,-2.9213857909399652E-5,-6.543187688132363E-5,1.5069526940790006E-5,-2.782484807426068E-5,5.0189751112289936E-5,-2.2001798741112695E-5,-4.390727907437899E-5,-2.3913153697657465E-5,7.290099173210263E-8,6.161543863753798E-6,3.734262328541756E-5,9.196174046090584E-6,1.6503008394535746E-5,-1.770243950931086E-5,-6.171544706992715E-5,-4.151721263553419E-6,-1.4641244765168394E-5,-4.738319034212254E-5,-5.608088245638333E-5,-7.433129919639883E-6,2.2817824828072585E-5,-1.3216873456292366E-6,-2.4779212641660524E-6,1.3427086018316848E-5,-1.2831424374811623E-5,6.071462055243018E-6,-5.295143344516007E-5,1.7148925307783265E-5,-2.6555857019118665E-5,3.165436525838195E-5,3.3242764959465473E-7,1.2991789599732901E-5,1.5767752181101797E-5,-2.1039091102982264E-5,-4.334079339963611E-5,1.719891643038574E-5,8.526007929513289E-6,-1.6744090112705855E-5,1.3154017015076256E-5,4.014197714831912E-6,-9.22075932194631E-6,2.7704890879808053E-5,-1.5947484681052985E-6,-1.2374562064277284E-5,1.2842110568685938E-5,-1.4412031773447978E-5,-2.2143411175412557E-5,-7.091959608177774E-6,-1.0653003876626699E-5,4.8586008276334024E-5,-2.9051699789097793E-5,3.253386403936727E-5,-6.0049223464990816E-5,-6.114446921921921E-5,2.825908034664705E-6,-2.342929037083103E-5,-1.4114360188625578E-5,2.6749946892615956E-5,-6.232089199157227E-5,4.7210839287776475E-5,-2.310152172774529E-6,-1.9721071050882134E-6,-3.0156877172274226E-5,4.8871800062198214E-5,2.1123387079102638E-5,1.791837720809617E-5,4.8971879846859035E-5,-1.0784015414658411E-5,-3.6761467087986225E-5,-2.9731131274818964E-6,-4.039196455189835E-5,-4.1541494522332576E-5]},"totalBatches":636,"totalItems":3180000,"recordSignalMetrics":false},"2c7d72d2-7bf9-49a9-87bd-024970cc9fbb":{"class":"com.simiacryptus.mindseye.layers.java.MonitoringWrapperLayer","id":"2c7d72d2-7bf9-49a9-87bd-024970cc9fbb","isFrozen":false,"name":"FullyConnectedLayer/a5253e99-2a6f-4b63-8553-bea0ce741398","inner":{"class":"com.simiacryptus.mindseye.layers.java.FullyConnectedLayer","id":"a5253e99-2a6f-4b63-8553-bea0ce741398","isFrozen":false,"name":"FullyConnectedLayer/a5253e99-2a6f-4b63-8553-bea0ce741398","outputDims":[10],"inputDims":[14,14,5],"weights":[[-2.66144449911502E-4,-2.1598640736750345E-5,5.002313589586077E-4,4.1955019844421026E-4,-2.535122117414093E-5,-1.6241538816684855E-4,-1.8603155363880624E-4,4.730622691255747E-4,-2.652926586046669E-4,9.409503513253779E-5,-2.824071300478981E-4,1.467947963719222E-4,-3.5153210448803747E-4,-9.665838327677884E-5,-7.737643796798588E-5,4.058474016218583E-4,2.7903312581077573E-4,-3.591462379474331E-4,2.0448561495585573E-5,-2.3281509081944852E-4,-3.1422866699241134E-4,3.873877457154066E-4,1.3285065696257435E-4,3.171728290639585E-4,-4.0066666219747165E-4,4.8057783745906357E-4,-2.3244961299849663E-4,3.635393905375511E-4,3.22442569282E-4,-1.5638570668800004E-4,-2.116973229469791E-4,4.34954291669591E-4,5.076860809659903E-4,3.4035377426226183E-4,1.2023308334614838E-4,5.259652106146262E-4,1.3972248204329466E-4,4.1447293697479174E-4,-3.270434326394014E-4,-1.0512299411817333E-4,-2.936497610381488E-4,-3.947541369396578E-4,-1.2212351577011743E-5,2.481837393275485E-4,4.197113198614771E-4,5.075774062423446E-4,-1.5443340031910178E-4,7.101661684803262E-6,-1.713225245309046E-5,2.6724741461925757E-4,3.4344596157858347E-4,-3.553810541929257E-4,1.5510705172607734E-4,-7.13445606138019E-5,1.8974406551468777E-4,-3.1442756426052523E-4,2.0822936767674147E-4,-2.270335161522343E-4,2.003911814722383E-4,-3.266268685058587E-4,4.611609385724352E-4,-2.2623508224109821E-4,5.452268527494936E-4,-3.471519239659273E-4,-4.41791764511068E-4,4.1005080738590067E-4,-1.3734041698547323E-4,-3.6381669872147184E-4,-3.9735389767098586E-4,4.385276477933089E-4,-6.91155686577478E-5,-9.077460123912707E-5,3.932807732235779E-4,3.1129782128055863E-4,5.253825216299118E-4,1.792186873732909E-4,3.5199424131664386E-4,-2.4849056545486915E-4,-8.140452775317396E-5,9.957255331789302E-5,-1.3093098205076042E-4,4.4009386937398065E-4,5.407262012206474E-4,4.1055168360191677E-4,3.928200959222651E-4,4.696412191622245E-4,3.7850380279902625E-5,3.7673254299347056E-4,-1.2575221472404077E-4,-1.651130322426805E-4,-1.8975724063073054E-4,5.003894403835311E-4,-4.21010386325859E-4,2.507634145442753E-4,2.3253087520526142E-4,5.177921779116249E-4,9.735970321761217E-5,1.5860260773475947E-4,3.0416436615792055E-4,4.2024248794461416E-4,-3.2292473405553124E-4,-3.562338650068295E-4,-5.040308315951125E-5,-1.0269406347759629E-5,-2.1381262687915502E-4,-1.0937278878891438E-5,-4.121409822415275E-4,5.189078075473386E-4,1.349459771546263E-4,-2.370127430022409E-4,5.126180553017319E-4,1.0919792411603641E-5,-1.4804383980851282E-4,-1.6869090225625915E-5,-3.680462274455694E-4,-1.5435980139616033E-4,1.878237171427651E-4,-1.4450526066625763E-4,-1.468291515536638E-4,5.233189599599011E-4,5.485981743083897E-4,1.9773598734476773E-4,3.2214004169736117E-4,1.392481416690754E-4,-9.662689833115742E-5,5.290925919868084E-4,-3.6905645903971627E-4,-2.0246612927023056E-4,3.9600655946302367E-4,-3.676340420504714E-4,6.093689977631062E-5,-1.24409056360119E-4,1.4215623307076646E-5,-5.333114554161031E-5,-2.3913373132427072E-4,3.1307425819761194E-4,-1.0101022346650823E-4,3.10920171430445E-5,3.3387406135126273E-4,2.878914005854027E-4,4.672394758615056E-5,5.454242986306294E-4,-2.220047580650966E-4,1.7836193950764332E-4,3.0802275572963694E-4,-3.465603255694396E-4,-3.457859119517356E-4,4.8619715132204854E-4,1.9412163040528955E-4,-1.2068714745567363E-4,-1.2399296544564903E-4,2.7329622685401964E-4,2.862795439689853E-4,5.125006144678016E-4,3.192101334713962E-4,-4.4984376165741017E-4,-1.8925078117968118E-4,-2.986544323180028E-4,4.8567981088742696E-4,-4.7815518219017606E-5,-3.662537975565348E-4,1.0310207760627859E-5,-3.9847836066340904E-4,2.0511935502390722E-4,2.3301580364623286E-4,-4.951912907676371E-5,-1.3942105790944122E-4,7.007103537017992E-5,-3.5466854218416783E-4,3.410252970285764E-4,-3.761087126908775E-4,2.3119321620713326E-4,-2.156679267128996E-4,-3.808612478847909E-4,2.8015925174944154E-4,3.6710314726099666E-4,3.567786783118651E-4,1.6479556191838427E-4,-2.529632519128373E-4,-3.6590854582024476E-4,-1.322916144152552E-4,4.811036001549732E-4,-1.7907044382216048E-4,4.892542501530471E-4,-3.6428852880285154E-4,6.868991427217653E-5,3.021258934032404E-4,-4.002886941741235E-4,5.073724843438959E-4,6.405030782416816E-5,5.425972752658144E-4,9.077161134879529E-5,4.437322637002057E-4,2.085029786874951E-4,5.263968334909073E-4,-1.8554705236469991E-4,2.17980486929832E-4,-2.587480892484249E-4,3.12277271919699E-4,2.407754458464531E-4,-1.8323674551018446E-4,-9.39015807846732E-5,-3.493370174943805E-5,4.6352216259315075E-5,-1.9441782677420973E-4,-9.681563880781368E-6,-2.6449604613969983E-4,-2.3848555527030216E-5,-3.273605296565166E-4,-1.0331942541018138E-4,2.223964167457555E-4,-5.9998857077798934E-5,2.4376817206047554E-4,-2.472788587835521E-4,-2.9085624975464596E-5,1.896901470931442E-4,5.243690622361617E-4,3.31689240304524E-4,-1.3162184781410931E-4,-3.8339069720292175E-4,-1.255020203675384E-4,5.286785091402916E-4,-3.0259826559359215E-4,2.6143139309225673E-4,8.539320152407366E-5,2.908846243327482E-4,5.495234053130147E-4,2.2693785936350088E-4,3.617174808162819E-5,-3.23544865374479E-5,8.871809395102964E-5,1.5945774416145856E-4,5.527961179649045E-4,4.677943970597343E-4,5.052092264432314E-4,1.2577675488181076E-4,-4.1845426437089737E-4,-3.0982113135138187E-4,3.427987056128673E-4,4.45343258882277E-4,4.830025550918276E-5,1.3692492996144422E-4,4.3162363391285386E-4,-1.1890506555428452E-4,-2.459247394496124E-4,2.0003645749832395E-4,-2.3972458936714035E-4,-2.2302626741757702E-4,2.2964445735795396E-4,-3.6235690234346827E-4,5.478767360809274E-4,2.7471451217915083E-4,3.554837326833801E-4,2.539497179315584E-4,-1.9791350217422728E-4,4.8032276166867826E-4,8.785532318180339E-6,2.597958727056871E-4,5.385858288342549E-4,2.512710048685587E-4,-3.220409963642232E-4,2.7396427942562567E-4,4.877088325142582E-4,-3.188515908836319E-4,3.2225788801169375E-4,-1.5163712529178138E-4,-7.231881805653345E-5,1.987262165233528E-4,2.544254773752954E-4,6.0087965200600145E-5,3.1649398408048956E-4,7.920727552360216E-5,4.370662810613597E-4,-3.3089439823450525E-4,7.780940187569205E-5,3.8272824570573195E-4,4.707172785491144E-4,4.3418863543617694E-4,2.424984046625564E-5,4.360485835363247E-4,-2.2378086661262834E-4,3.577724838136491E-5,3.869992621213032E-5,-3.505291410850835E-4,-4.391857825584738E-4,5.300403958070207E-4,-3.648811678299199E-4,-3.068540691600688E-4,-2.1841086370148343E-4,4.290419222031652E-4,1.0153900048904635E-4,4.488000779623065E-4,-3.393998816765551E-4,1.5095051792980058E-5,1.6920182683853802E-4,-1.3552960089726593E-5,8.131884023860077E-5,-1.5668708958886326E-4,2.73222025159671E-4,-3.8250324723448854E-4,1.2667114998539793E-4,-2.13444595503849E-4,2.1792911248110002E-4,-2.616125898099992E-4,2.3696927041943726E-4,4.012548684380462E-4,3.0734517117963117E-4,-6.911598383288543E-5,1.7663094265342629E-4,-1.134424510602392E-4,-3.0424556187124986E-4,-5.407409738017301E-5,2.7987049360048735E-4,2.0367263566078972E-4,2.8859140463886266E-4,-1.038481541332386E-4,-3.124035904617435E-4,-1.752232764566201E-4,3.023646630576915E-4,1.3317053835628712E-4,4.957818186414784E-4,-1.2006783245165058E-4,1.7777232240270236E-4,4.244840172260403E-4,7.912788331804023E-5,6.221684246380806E-6,-1.2776584246671069E-4,1.3280273530065623E-4,3.565536599021903E-4,1.005947712637489E-4,2.520509445056608E-4,1.7357929290015052E-4,2.9859778894275824E-4,3.767067455150024E-4,4.153648177312183E-4,6.0631256857321195E-5,-1.289562798317974E-4,-1.8368076328552604E-4,5.024914279593165E-4,4.5523591562102145E-4,-2.9654735552457336E-4,-1.768893182793847E-4,3.7832402258833277E-4,1.4173707644794353E-4,3.396109458999248E-4,-1.3521257546001097E-4,-3.119028529941103E-4,-2.592817591458266E-4,1.4061648989926496E-4,-2.3055009876579488E-4,-2.600520662086151E-4,-4.147101068563608E-4,-3.4837025424755327E-4,-4.6757024568302525E-5,-2.8913621296882972E-5,2.2589943172814108E-4,-3.3568955023901317E-4,-1.790222383174154E-4,2.9383229465863164E-4,1.998543372397889E-5,1.87619590463702E-4,-2.727613780296954E-4,5.210656693976136E-4,2.1609717152774814E-4,-4.4457039293449616E-5,5.15756451131804E-4,9.358426208524973E-5,-1.0171266342582941E-4,4.6414224308943217E-4,2.2614053587111728E-5,-4.035750512298248E-5,3.6243354612715294E-4,4.85034912950423E-4,2.250548982959997E-4,-2.800095479987766E-4,-1.8962449565168959E-4,-2.255034450423997E-4,-4.484497070241696E-4,-5.3303935856718456E-5,4.3092267311131905E-4,-1.7092112794059327E-4,2.89602514709536E-4,-3.3512462621669147E-4,-4.343161710712677E-4,-4.1381477937301245E-4,2.2217453801647513E-4,1.7933040641247212E-4,2.6463840409448355E-4,2.69676724073648E-4,-7.814407414918881E-5,-1.948826462247876E-4,5.185243791806444E-4,1.1543423895134658E-4,4.427706205764543E-4,-5.360120192323963E-5,-4.375054028463145E-5,2.982010825840315E-4,3.045589915327898E-4,6.435737287960562E-5,4.6410241525564366E-4,4.69192451143388E-4,4.971655948224022E-4,-1.2885578392364018E-4,-3.920172397465956E-4,1.9197134787398855E-4,-1.1819262471583401E-5,-1.1674957567572171E-4,3.866347445656838E-4,3.7235672715514736E-4,-1.0221720060860023E-4,9.348775874050823E-6,-2.0084426089737547E-4,-3.413735759313152E-4,3.0178717742189453E-4,-7.963096611829365E-5,2.54623327675903E-4,-1.1855774631913591E-4,-7.808678573595063E-5,-4.4517829669485614E-4,1.814009793980994E-4,2.2583993274297488E-4,-3.6656041911827566E-4,9.089026319936036E-5,-1.2145918792003826E-4,5.346328435353718E-4,2.477228022618349E-4,-3.426418428022938E-4,1.8541277384412065E-4,1.0616416591405781E-4,5.225630469959812E-5,3.351863285207469E-5,4.6254506836207335E-4,3.976417483432433E-5,4.878877039531881E-4,-1.1940499625817131E-4,1.3254525927301967E-4,-8.90916256082724E-5,-1.6627324180174433E-4,-3.5511176228882226E-4,3.54079589281389E-4,4.152463659892888E-4,4.24877494839745E-4,1.8997938303437506E-4,3.6342516834688066E-4,-1.665735469461732E-4,-7.480919255831342E-5,1.2452108623936024E-4,2.452618319515189E-4,3.457801043354466E-4,5.537120827097129E-5,5.5061130797067737E-5,4.5575258141527695E-5,3.832810848276837E-4,4.694741119493336E-4,-4.239972897128914E-5,-8.175539279382654E-5,3.2351323094679407E-4,2.337019902927026E-4,2.6983049773133904E-4,1.8555484600876277E-4,4.463795166223044E-4,-2.2471295485985442E-4,-2.883211416930931E-5,4.158054021411623E-4,-1.2197568115101844E-4,3.0693808725015386E-4,-2.7785320221147825E-4,-1.5070122664404342E-4,-1.1137608530833204E-4,-9.185208706732709E-5,4.3689639751688685E-4,-4.3008310564647995E-4,-1.1852686808494375E-4,3.7753498101073945E-4,4.2086269893154224E-4,-1.966403680837756E-4,4.333485072340456E-4,1.9112777408148258E-5,-2.158247518563657E-4,5.619921224948663E-4,-1.237720337323948E-4,2.93360156307094E-4,3.45144525590307E-5,4.4627396633202944E-4,-6.051496615518723E-5,-3.0307813357250345E-4,-1.1158658055138928E-4,4.5570514467908294E-4,4.869687720493184E-4,-2.1509929632235832E-4,2.677743705889273E-4,5.382650082085632E-4,-4.2120322432044697E-4,3.320016025305471E-4,4.248192921902878E-4,4.7814126195593596E-4,1.540081036158284E-4,-3.760540882919212E-4,8.630697345259017E-5,-2.303663154170015E-4,-8.832387891305573E-5,-7.601903127860357E-5,1.3130263216462934E-4,3.6305961897155554E-4,1.6990913221949465E-4,-4.241550425580546E-5,1.0353921538482621E-4,-1.6870219016223593E-4,3.0614702921120425E-4,-2.968736485325301E-4,-4.3532102728360985E-4,4.546535002715726E-4,2.0018591803932684E-4,-1.7028848061498034E-4,-2.0793121526367227E-4,2.3088789279516862E-4,-2.6326806084032403E-4,-1.4900286444196185E-4,1.582721178929513E-4,1.30824233384872E-4,-3.1531324158588644E-5,-4.437092833749464E-4,-1.1908727602225066E-4,5.224733066026119E-4,3.1580327577826413E-4,2.856806148115566E-4,-2.292182458906926E-4,4.997762155922123E-4,-3.9698318143316603E-7,1.2673355700691232E-4,-3.7517739289091563E-4,2.8949859469202795E-5,5.081296808586304E-4,6.093102344096618E-5,-1.0866544806107792E-5,2.797992267168723E-4,1.3628598963858142E-5,3.666725694719448E-4,3.924784173367168E-4,3.676963203149978E-4,-7.57608710601171E-5,3.0571951105770704E-4,-2.611656394152691E-4,5.928181167717457E-5,3.636834403088041E-4,-8.12866820528623E-5,-3.8863140036496087E-4,3.8056827787565415E-4,-3.5239049599056243E-4,-3.7710970884388147E-4,-2.900060198506069E-4,5.422652875119273E-5,2.4226881399305097E-6,-2.1983440948408517E-4,2.608172707413081E-4,4.262241566580982E-4,1.1391180336122974E-4,7.77864193217364E-6,-3.7289435623511877E-6,-4.167759739094719E-4,-2.5582482072576695E-4,5.200233375273134E-5,-7.034920864684951E-5,-4.1728190266696475E-4,3.453421406811277E-4,-3.5390261862768864E-4,-1.0499496799351067E-4,-3.9848571478249574E-4,1.6163263493604297E-4,-1.4165127117712382E-5,4.5240527620445315E-4,-2.474123247413907E-4,4.935266766486364E-4,8.237379884967328E-5,4.4383615507576584E-4,4.462247005822957E-4,-5.224010010793983E-5,-1.7531035193046966E-4,-9.999581114530437E-5,-4.4284924617970074E-4,4.969054046049494E-4,-1.4269692080011074E-4,4.661812810222942E-4,9.096311051585497E-5,-3.5842582394892005E-4,-1.0350427369513549E-4,2.2544019582235422E-4,2.502850439880465E-4,2.6345387190052053E-5,4.928623363939337E-4,2.8480604454388754E-4,1.1741626691999242E-4,5.3621854078788E-4,5.395173461094259E-4,1.8846170441649948E-4,1.9391768547463516E-4,-3.1832446368046575E-4,-2.457287590541024E-4,4.5625146154107784E-4,5.168254283060651E-4,4.4383054647419243E-4,-3.260929775741475E-4,-2.6327401618071456E-4,-2.369788109803081E-4,-1.1677572219272772E-4,5.426170440115903E-4,-5.0345433945660106E-5,1.51367155397565E-4,5.441794889367818E-4,-3.241436269947422E-4,3.057072451654675E-4,3.359469996025302E-4,-2.008531845759596E-4,-1.1599899478709249E-4,-1.365656600939734E-4,-1.4071538761490907E-6,5.242348086934878E-4,-4.072802867552544E-4,2.524047308048719E-4,-3.3170251646720256E-5,-3.671889444393065E-4,-2.5832623575855175E-6,2.652557640116847E-4,3.0952118320781976E-5,4.6664504566396525E-4,1.4154803275983686E-4,2.665308871769854E-4,3.494412536639563E-4,-2.1118918549673798E-4,1.4507789894002178E-5,2.976965581470417E-4,3.5927866662904687E-4,-6.527471740711008E-5,2.4657565549452825E-4,-6.347054282820925E-5,-3.2509132707527567E-4,3.817391409419858E-4,2.470118670474583E-4,5.123829149097583E-5,-2.468934751319176E-4,2.0123706383579908E-4,5.41923626177826E-4,2.5915978383157E-4,2.752597794976842E-5,3.241802674745656E-4,8.818913887144289E-5,-4.828366136458213E-4,5.51238564078108E-4,4.691174187694464E-4,2.4241228457822173E-4,2.476816406004412E-4,-3.7801506192898385E-4,-2.6170188719122317E-6,-2.1560049149934918E-4,3.4217820722791094E-4,5.4123434105950165E-5,-3.601595662793155E-4,1.187340816398545E-4,4.453985803848934E-4,-2.3916932923872159E-4,-2.8583434548073517E-4,-1.7773313241940935E-4,-2.3169013623677972E-4,3.883895507535363E-4,-1.395340896867837E-4,4.979331307106749E-4,2.8259885393470177E-4,3.4943802104392234E-4,3.469746130039765E-4,5.411463468312493E-4,6.730884291774546E-5,4.780995046519565E-5,2.2391028804560187E-4,7.999266522272074E-5,5.134514300740922E-4,1.2317838688962398E-5,1.4277231604617599E-5,2.5808365121132856E-4,2.4751996626709235E-4,-1.7910241802525026E-4,2.1339261507512955E-4,4.5663222636252535E-4,6.835193045960464E-5,-3.103651320816017E-4,3.8553594558017964E-4,1.6135550370100697E-4,3.483512000075591E-4,-1.0298909599121553E-4,4.010982370035363E-5,3.4768714486231274E-4,4.6961615857154534E-4,2.7259420197393703E-5,8.535573560785113E-6,3.3229583452674174E-4,-2.9765996431840337E-4,4.797860938258772E-4,3.8852500221560034E-4,3.542308333696478E-4,-2.5244023221858327E-4,-1.6731159558081436E-4,2.7458737479342646E-4,5.005871447384236E-4,5.303243557415714E-4,-2.0012660241926182E-5,-1.2973081623275445E-4,2.2305487971883053E-4,4.632352107155716E-4,4.849585443895268E-4,8.981392166210025E-5,-5.4342693621754565E-5,-3.8788879178748884E-4,-1.9674393076608628E-4,1.3353297527762183E-4,-2.760598046890583E-5,4.558870194700434E-4,2.2351517060191156E-4,-1.480220754162198E-4,-2.216262122488676E-4,-1.1795479116961823E-4,4.126609260575384E-4,3.2972250377353874E-4,-1.1400457606127324E-4,4.455043331985242E-4,4.107299249225889E-4,4.4944344894598726E-4,2.40816541614367E-4,2.189487028545648E-4,-2.4872886014447483E-4,2.0211821475657826E-4,-1.2367797506441594E-4,4.214035092431398E-4,-1.4529239800709995E-4,-3.8809243449442794E-4,3.87079646321197E-5,-1.2747580573262992E-4,-7.676362649648109E-5,-3.5217672739856613E-4,-3.963653346252292E-4,-1.3778960843982088E-4,-2.0734024236433003E-4,-1.6169755121453672E-4,-1.7124679729704122E-4,-4.724189439012274E-4,5.056600684604992E-4,4.9357230776093726E-5,-3.5877500438961414E-4,-1.2855285539876868E-4,-1.4597886543057194E-4,-4.3198784113640065E-4,4.6616989962504194E-4,-9.534678220088885E-5,3.5498597419784684E-4,-2.5568299011092453E-4,-4.72035427313709E-4,-2.9230417129612115E-5,2.672585485511255E-4,5.222340040516205E-4,-2.55942088036669E-4,1.5638106889900665E-4,4.72209694838294E-4,2.252618857738625E-4,4.4934704547481077E-4,2.0827786510150908E-4,-1.6327378303124734E-4,2.3157151624455383E-4,2.1138075982930912E-4,-2.3299021537852592E-4,-2.3896215487463298E-4,-3.5149525451055066E-4,2.5135466394741665E-4,-3.8090623552683896E-5,2.8135814465055195E-4,-3.94254275257263E-4,-2.286621914763549E-4,4.403873209144775E-4,1.2703230112733258E-4,5.18242979033841E-4,2.814855206545439E-5,-2.181646081702386E-4,2.1857490730812235E-4,-1.374313725073865E-4,4.922958707365299E-4,4.18432776529952E-5,1.6105617599251147E-4,4.9459565310194586E-5,-2.3514710968465394E-5,-2.6843301550264983E-5,4.84785416733369E-4,4.5225715068046557E-4,4.8577769127693436E-4,2.700489684776525E-4,4.4949547080151264E-4,2.1489805722574843E-4,2.792303933538406E-4,-4.525637625963982E-4,4.7871104074333177E-4,-1.0885855516147391E-4,1.1213044131730889E-5,3.288755186908047E-4,1.6085578858534584E-4,4.658176249497806E-4,1.2640513584803747E-4,-3.796585144306325E-6,-3.906422124625133E-4,-2.1726886808077792E-4,1.8569422064380003E-4,-8.247608068858226E-6,4.092683037690677E-5,2.362835489112551E-4,-4.389066000014185E-4,3.075632197454577E-4,4.838543223779527E-4,2.2203808100448597E-4,4.1103602048785153E-4,-9.657565177608906E-5,5.144745280248085E-4,-1.4573818720194003E-4,1.1318870747628746E-4,-1.915687485983629E-4,-2.1330902601599168E-4,4.7084752919025E-4,4.5727504276997814E-4,1.5356113089596318E-4,-9.409528805892207E-5,-2.5941503177454985E-5,2.8331883051302436E-4,-2.1849353149492912E-4,3.995346938581217E-4,-3.1255594833202815E-4,-2.0293660621102482E-4,5.386534461452947E-4,-2.624581024310361E-4,5.173908771349625E-4,-1.322098822204887E-4,5.002265256741988E-4,4.730521999958932E-5,1.8204904214956535E-4,-2.1178470809970698E-4,3.649778919849901E-4,-3.421929424613064E-5,-1.442288531929357E-5,-3.6654094152872846E-4,2.802049897997859E-4,1.89943489438163E-4,1.6496762241758917E-4,1.8344561524925317E-4,3.9968835274198204E-4,-7.291646804476178E-5,1.4660900166425567E-4,3.140463948513034E-4,3.0226816167313664E-4,1.6489617732316078E-4,3.9162067955071927E-4,3.0162468080903153E-5,1.6193166045730387E-4,2.4254146678984406E-4,-3.0355196635250826E-4,1.3003604547815947E-4,-4.498591542086663E-4,-3.4136805399794407E-4,3.390064825988486E-4,-4.6701129371090174E-5,3.529899716226327E-4,3.991216557391305E-4,1.6490861820279387E-4,-3.76761731849789E-4,1.3215585251128413E-4,1.9804127829269353E-4,-1.1522598076933178E-4,5.059393326245407E-4,-2.034628669620271E-4,1.2332118519781118E-4,-1.538125246903863E-4,5.207365785576097E-4,-4.0274012840112324E-4,3.961654873000643E-4,-5.40375913156761E-5,-1.4438945492973148E-4,5.3812944483688794E-5,3.796220078905165E-5,3.24194154811523E-4,1.1406561722103668E-4,1.2133428699781448E-4,-3.430039619123199E-4,4.9064117801887E-4,-7.936460477108439E-5,-4.299138460940266E-4,-3.828083655781799E-4,-4.598694441080835E-4,-7.524259217028986E-5,4.5247279218763617E-4,-4.287666738784353E-4,-2.0267584391100245E-4,-9.445539325448494E-5,-3.9240703958158833E-4,4.924413735051633E-4,-6.483857772300238E-5,2.7891217658199656E-4,-5.0492083223380814E-5,-2.3213874333805873E-4,-3.407343974154578E-4,1.793129980812499E-4,-4.3484126623171093E-4,1.6180007409022405E-5,4.015668516486272E-4,-3.7256618271336387E-4,5.169602787431742E-5,1.6854146353372824E-4,4.252483956008667E-5,-2.920560297910502E-4,2.5224775683422744E-4,-3.054958299960087E-4,3.022766661425474E-4,-1.9814336177518245E-4,-2.2858220863957473E-4,4.487034027999307E-4,6.566747766304212E-5,2.3644676727243379E-4,-3.8011330590690306E-4,3.3882218398114647E-4,1.7490057003164612E-4,2.652845747746871E-4,-2.260115943383495E-4,3.9328167694048413E-4,-2.889961157753457E-4,3.583089620038817E-4,3.081399579120172E-4,5.583233946986079E-4,5.093250199895753E-4,3.550442386840074E-4,1.4852552836170537E-4,5.214887332897102E-7,-2.9227574794572623E-4,2.1883868320171588E-4,5.466214941378157E-4,-6.240599132894074E-5,2.690949361387176E-4,-8.617828443641802E-5,3.443157591883862E-4,-1.5204780578778436E-4,-1.607331583237097E-4,5.106991395392599E-4,-4.1763497515984616E-4,5.170848188920767E-4,-9.799289536828903E-5,1.5947768101304627E-4,-2.4325100066496645E-4,-1.4912981471022562E-4,5.026670446922762E-4,3.476314269983671E-4,3.583028077382597E-4,-7.065661894991138E-6,5.001328542940635E-4,-2.5787738144185125E-4,5.395478584281264E-4,2.6684616304787753E-5,-3.6589296159829674E-4,-4.1486718883327597E-4,1.9269558141249283E-4,-4.5233112507108705E-4,2.664191444744863E-4,3.752634887186342E-4,-3.6509505899384867E-4,-1.9747016811339478E-4,3.2957598895429213E-4,-3.223105831620243E-4,3.3747916787525256E-4,5.028230098062623E-4,2.053717554759616E-4,-2.306452254189582E-4,4.082364322817477E-4,-1.2359832414085778E-4,3.836682564706785E-4,-2.15666069701996E-5,1.877895082569589E-4,-9.003162985630317E-5,-4.264321596567921E-4,-5.197539456601706E-5,2.295163785610266E-4,1.0374316995170523E-4],[-6.962551725447832E-5,1.9953126138563698E-4,-2.4810142748583436E-4,-3.286748201714893E-4,2.2975096981624665E-4,-7.869706773861521E-5,2.027866821809458E-4,-1.1833974306328609E-4,-5.7997327260956806E-5,1.3341241376445568E-4,-3.463105399939304E-4,-4.985299415843829E-5,3.9208961080887937E-4,-1.2287423625952823E-5,-1.1350879677280148E-4,-4.0381634620660845E-4,1.3771928584830587E-4,3.620439633954274E-4,-2.471359688741591E-4,-3.974466653176875E-4,1.0820346358351558E-4,1.3917310802870879E-4,-1.697452430003964E-4,4.760999921273313E-4,1.242059897254949E-4,1.241069936267475E-4,-1.1291213845822064E-4,-1.1660160694595106E-5,-4.368172246568685E-4,2.437339182196762E-4,1.884772252803439E-5,2.2273127666949923E-4,1.814053735412224E-4,1.8001087332914685E-4,-1.586492405139379E-4,-2.5122052205749917E-5,-2.460561325442649E-4,1.7787533832881993E-4,-2.750460104757741E-4,4.461318026231743E-4,2.631859347597838E-4,4.28635557241775E-4,-2.3353625761953633E-4,-4.241168294959215E-5,1.3335600356471622E-5,-3.5722664361366766E-4,3.911835171776108E-4,-1.2891031973333574E-4,2.3271298810354513E-4,1.6156503866042113E-4,3.951505379441234E-5,-1.8430182848843833E-4,-1.3878173915792116E-4,1.5356485142042664E-4,-1.1161520128611337E-4,3.326651828498444E-5,-3.36766636072725E-4,-1.8687862563845093E-5,4.530063050434569E-4,1.7949435926709487E-4,3.677961986276383E-4,5.76156923106894E-4,-3.527840067953603E-4,-2.396254218175285E-4,-2.2803350157662075E-4,3.4073589474876786E-5,2.781359230469614E-4,2.542167114078881E-4,4.340792017656793E-4,-1.8661001800112856E-4,4.0911585587778526E-5,2.3989903671310108E-4,1.1055008650032982E-4,-3.3142949997174E-4,2.390919540248146E-4,-3.8915374414113884E-4,-3.216243803807894E-4,1.9667245345020529E-4,8.640208662615279E-5,9.215818894463122E-5,-7.994084097300957E-5,4.060383238008073E-4,1.4116530086448318E-4,2.811873787211873E-5,-4.095430649028162E-4,-3.725021666533333E-4,-7.352598518375373E-5,-1.414394854868528E-4,3.4846345428270827E-4,5.870637287337072E-6,-1.1235063886962762E-4,3.845755037858658E-4,-3.941005304411624E-4,1.3249828559815398E-4,5.020954335247238E-4,-7.8421283052904E-5,-2.4402079941783557E-4,1.3167543125592308E-4,-1.2574386346161345E-4,-2.901456421349282E-4,5.385799202548469E-4,-3.359455045815822E-4,3.861433251048653E-4,2.0038523539634594E-4,-4.1868261529039554E-4,2.549072599329011E-4,-2.745636799095366E-4,8.58868169879016E-5,-2.4717810983832753E-4,-1.5165824314518906E-4,-2.9719594980393146E-4,-2.4930902247867774E-5,-1.706922268210671E-4,-1.442955170679395E-4,-2.6563486373067807E-4,2.80945493638409E-4,-1.5716406301728315E-4,2.4306840626270052E-4,-4.1007577789392823E-4,5.023695036033313E-4,4.26315058219243E-4,-6.36883110472187E-5,-1.6013354776609452E-4,-3.246712155186788E-4,-2.9094751296252885E-4,-1.6453727723900256E-4,-3.4679856406593756E-4,-3.591565317861029E-4,-3.4107452472814003E-4,-3.350570573826825E-4,4.3483809615215834E-4,4.758015538702259E-4,-3.4048370765451684E-4,4.949441233420493E-4,-1.8209580681735087E-4,-3.073340726241735E-4,2.125788148571259E-4,-3.708915487371034E-4,2.7743328588559894E-4,-6.295245983449522E-5,3.9197331430020775E-5,2.4892112494100214E-4,2.4287667297530197E-4,1.57948451316401E-4,1.0341130310502581E-4,-3.8575382939371746E-4,4.985276457338345E-4,4.8808520353781917E-4,-1.5528097387588672E-4,9.20202425114661E-5,-4.5779819087662574E-5,3.32727591890336E-4,-2.1964148583781084E-4,2.056055236563534E-4,-3.3890999294248516E-4,-4.685958303163649E-5,4.478484897133118E-4,3.231387097118094E-4,2.0965755908920207E-4,-2.214579143787044E-4,3.4865367437796144E-5,2.4160095323414264E-6,-6.279056192068712E-5,7.008119880082389E-5,1.4423678006819318E-4,-3.89844264563759E-4,1.517966954159082E-4,3.3122942640636036E-4,-1.3412105167247873E-4,3.2484911861839146E-5,4.0791273787745854E-4,-4.156031839111629E-4,-4.3203432925839326E-4,-4.5734358399458856E-4,4.387638736269149E-4,3.5058065977802835E-4,-1.2493949631992121E-4,-3.774524064546142E-4,-3.7948640145963827E-4,3.8355950871062143E-4,-2.2728007962147955E-4,1.6878599722857496E-4,5.8341128642876966E-5,4.923372023218395E-4,6.584278625464875E-5,-2.1010362774459245E-4,-1.7898834960743514E-4,-7.129919322640155E-5,1.0791736323067436E-4,-3.107321637965095E-4,-2.6091582596443077E-4,-4.805230929119616E-5,2.49084326389227E-4,2.13828123157261E-4,4.154280174915057E-4,3.5872165712696205E-4,-2.842151311214959E-4,1.9523133015882438E-4,-1.3771872267547458E-4,2.2174427294208268E-4,-3.910261435431232E-4,-9.257175977944188E-5,-4.317210339907053E-4,3.9450715602145676E-4,5.237775846263093E-4,8.428330170051886E-5,2.484658758061102E-4,-1.822541564193035E-4,-2.417503022448024E-4,-1.3226858954272852E-4,-2.4386977595196926E-4,-4.3367101102299545E-4,1.842801894834523E-4,1.8643422483757865E-4,-3.6026906053019406E-4,4.1487403557361575E-4,1.1665102347854057E-4,2.0654647395943138E-4,-2.7740608341757656E-4,1.33401674585066E-4,1.956183435226456E-4,4.7398758764868155E-4,1.1199896229634068E-4,-2.449214004223614E-4,1.8702958182853995E-4,-2.829123970777512E-4,4.8754209061305573E-4,4.9472661172823695E-5,-3.1168173687130737E-4,3.752626683053894E-4,2.2343160322360207E-4,-1.4607745612002783E-4,3.493740381408261E-4,2.8390130382102593E-4,-1.1120515166915498E-4,3.2860088902794915E-4,-1.8536312206466268E-4,-3.8141767335976074E-4,3.466090385497968E-4,-2.1930750866775317E-4,-4.258034265852047E-4,-1.94903846354073E-4,4.851744864062491E-6,8.323307496454306E-5,1.696417051928942E-5,5.227134300785398E-4,-1.7559323436635565E-4,1.8543942817938726E-4,-1.0498083117249372E-4,-3.844616946271693E-4,-3.241436649052573E-4,-2.99609708396584E-4,-9.886009385828594E-5,4.472754470580445E-4,-3.3784775337809364E-4,5.004955961153275E-4,-4.219895804611278E-4,2.032126808574552E-4,2.287267249196844E-4,4.089840028171472E-4,-4.2767877011759575E-4,-3.315936360122804E-4,3.2750268765566355E-4,-2.0420289559747642E-4,-4.0760512170084424E-4,-2.1405234703785944E-4,4.1287152113177254E-4,-3.940319551551549E-4,6.0775235933441465E-5,-3.086923454661911E-4,-1.1681067760661641E-4,5.483024628224538E-4,-3.3351730915496267E-4,-3.3369028437943443E-4,-4.2698101188144754E-5,3.073392436827239E-4,-3.138983600640263E-4,-1.1811549098311026E-5,-1.2125043271248677E-4,4.6982224922911613E-4,-2.692436233244555E-4,3.0375218740244785E-4,-3.9176752371027985E-4,-4.386570235777217E-4,-1.6844100598547853E-6,-6.609556432569462E-5,1.838087941710612E-5,-1.5317213394996842E-4,3.708657693052781E-4,-4.716995109821725E-6,5.2746222807208636E-5,4.4435494693742354E-4,-1.9964111322462615E-4,8.687913795655567E-6,2.1779659742894497E-4,-7.642542340977506E-5,1.7314401060152657E-4,-4.3475967246066983E-4,5.5837221939599674E-5,-5.613115437243695E-6,3.6207227770124846E-4,-3.2188458209684586E-4,1.4398573178668072E-4,2.513127791465165E-4,-2.2681736579475043E-4,1.3068942475528723E-4,-1.8507889002149203E-4,2.1665095330664644E-4,-2.021525607904317E-4,-1.5472765482307907E-4,-1.938869478236319E-4,9.989790290938387E-6,-2.670314713264962E-4,8.274972160681237E-5,-4.5898440718528555E-4,4.2975696704125886E-4,3.791865160998241E-5,-1.688740911082169E-4,3.820996741459165E-4,-4.013048037050393E-4,-1.8655174118517725E-4,9.917572990219717E-5,1.737079011719454E-4,4.4634296258469133E-4,-3.777626502643488E-5,7.158507519977788E-5,-1.167552584180025E-4,1.9281506328754184E-4,1.3605615387424731E-4,-1.7971096823806806E-4,4.2777640039876595E-4,1.4891718832576388E-4,-2.7702569583864866E-5,-2.1593244253753306E-5,2.607529900676229E-4,2.0401820513118568E-4,-2.587067623377821E-4,-1.1890961111858897E-4,-4.0339241381613157E-4,1.5420006838233127E-4,-2.694275237967725E-4,2.5415496207349285E-4,-3.7738482827939756E-5,-2.8604412455642176E-4,3.706472009947558E-4,-5.7489284675420855E-5,7.095461517890705E-6,1.7953009024232645E-4,3.4886633549318345E-4,6.345083463246373E-5,3.1213931519820967E-4,-2.549271060957235E-4,2.99658343710977E-4,4.442621286746043E-4,2.2708180133375928E-5,5.225332831978529E-4,-3.7669143226366113E-4,3.6788432655550547E-4,2.458635545368611E-4,4.7865105441396375E-4,5.133605133922471E-5,-1.8915562700745728E-4,5.467772560039398E-4,5.190293967537331E-4,-3.134685530882081E-4,2.8002301984949776E-4,2.8409344725675227E-4,-3.6708707422507643E-4,3.7017515017614803E-4,2.0068658161010716E-4,1.090298709060799E-4,1.5171144251303773E-4,3.0625413365365753E-4,-2.899090226949474E-4,2.3308027273670696E-4,-6.375178819006287E-5,-3.794907680538974E-4,-3.6263239112384115E-4,-2.6089485127729113E-4,-2.9691502767986553E-4,-2.781085741153976E-5,-3.209234361031782E-4,4.015992401063634E-5,-2.1031473008923277E-4,6.529591842650365E-6,2.5303746047327646E-5,2.636610095736476E-4,5.229468177305406E-4,-2.3490718247612828E-4,-2.889891039577038E-4,-3.916299748062224E-4,4.0754925461329545E-4,-1.795793537039619E-4,-6.0532656385224395E-5,-3.935217303529E-4,-6.709922047145147E-5,-6.0955392591147324E-5,-1.6805763687292735E-4,-2.458491739883877E-4,4.6854147790746886E-4,-1.0745555144163324E-4,1.7479240962213927E-4,-1.6988691783383396E-5,5.434585521427392E-4,-1.5948024958803718E-4,3.775041308152823E-4,-2.2120123570691937E-4,1.144641556436108E-4,4.70786590640136E-4,-2.4504408662259986E-4,1.0394429839222669E-4,-2.9467370425300695E-4,3.6491225639471243E-4,4.222021979969367E-5,-4.97708039349405E-5,4.010786629898219E-4,-2.934473124155688E-4,4.349789260843254E-4,-1.6885506701503728E-5,4.576787420147576E-4,-4.461949455698707E-4,3.95844175271516E-4,3.71846326346781E-4,-3.7423403415776996E-4,-2.4305404554241574E-4,2.5291643951488353E-4,-3.7252577507457225E-4,5.103483444431604E-4,-2.4046972722543682E-4,-3.599328650318434E-4,1.690518612365635E-4,-3.2504970828423047E-4,2.76949992712919E-4,1.5543625718149837E-5,-4.1153419867118277E-4,5.430586791266953E-4,1.5127696747496816E-4,3.741016225409028E-4,-2.982450250996537E-4,-3.1733426155674437E-4,2.1938372620202448E-4,-1.7235524344967822E-5,-3.1354790918252566E-4,-1.511939519126632E-4,4.349903963876126E-4,2.9803396875715415E-4,-2.3853939778918266E-4,5.318403510184394E-4,-1.1497969472076767E-4,5.059584122138606E-4,3.968382492972134E-4,4.177715064932211E-4,-3.152049045781993E-4,1.711575184108691E-4,-1.2168819404317049E-4,-1.0591677445244912E-4,-4.1719480840530344E-4,2.6147895322129177E-4,2.3468981377725264E-4,-4.410729315080311E-4,-5.254253392853147E-5,2.811989386554695E-4,-2.620766584194505E-4,4.743930662755015E-4,5.112910745754867E-4,4.6302637405901576E-4,-5.3912486849756135E-5,7.681744104828269E-5,2.3482356769750592E-4,1.1592859370602874E-4,6.052308760561831E-5,2.3130393658664012E-4,-2.544482984881368E-4,-2.2102325079673994E-4,4.979108383001184E-4,3.478690377906255E-4,3.6000264233010295E-4,-3.7284378238703356E-4,3.9526068543895536E-4,1.9585602899086405E-5,5.550970121048539E-4,2.0863924692517626E-4,8.144846839387045E-5,3.443882646635348E-4,-8.838246357031905E-5,2.6786996631010827E-4,-3.3115409779877636E-4,-2.2192743171383278E-4,-4.339383194881824E-5,-6.682124675687588E-5,-3.543542035257254E-4,-2.3590227730173403E-4,-1.4350870489323532E-4,5.106611157362792E-4,3.085427904817573E-5,2.2438910596649008E-4,4.836331350673735E-4,2.9459834296916086E-4,-3.501147786124699E-4,-4.2298363729151815E-4,-3.4031432833918113E-4,-2.2867059924261597E-4,3.30753379639132E-4,1.5814185717664083E-4,1.1635349413460705E-4,-1.378605546614171E-4,4.156643921631727E-4,-1.2989132821069095E-4,1.861393443326252E-4,2.6500453771886843E-5,-3.748491759973504E-5,5.452885607895898E-4,2.9592109830593978E-5,-7.221036705400937E-5,3.7961479910502144E-5,1.9295112792253258E-4,-3.9859007485083776E-4,4.458007294673607E-4,-3.653630657029246E-4,-1.3840741129582696E-4,-3.47772401035904E-4,3.901116718798443E-4,3.91645913157078E-4,3.6319254373701725E-4,-4.0066193193556655E-4,4.909966194683275E-4,1.0763069460549953E-4,2.1734330986202845E-4,2.4035842375592193E-4,2.804306737531271E-4,3.568263532656687E-4,3.595393913673116E-4,3.245579516250648E-4,-1.9110081453505367E-5,1.7980192909214154E-4,-2.91568719649715E-4,2.2171665340399077E-4,2.965445504907648E-4,3.198897558408797E-4,9.986603046563428E-5,-2.076859231341975E-4,3.5401953830673975E-4,2.901265390410696E-4,6.0056115278016397E-5,4.387610187787106E-4,-1.1466503843920203E-4,-3.555476086876347E-4,1.8271573516985388E-4,3.2768285971392417E-4,3.7346779592450604E-4,-1.9497810680838758E-4,4.126388651177489E-4,-1.3089386845769712E-4,3.990097041542948E-4,3.6664802886474227E-4,-3.474604064315879E-4,7.836993920484417E-5,-4.149246018341232E-4,5.241368306664833E-4,1.5734820573650102E-4,-4.323493687080965E-5,4.069996752542974E-4,4.907056362795025E-4,-1.328971363983107E-4,-3.9078043903874825E-4,1.4734094072304182E-4,1.396023037529578E-4,-4.4893375359683895E-4,2.8071912307587205E-4,2.9351823354761413E-4,-1.5971734515717796E-4,-1.21438432209437E-4,6.479454267418997E-5,-1.7889257267722638E-4,1.0070030076613863E-4,-8.261019188703587E-5,-9.306793627191493E-5,3.361303735320296E-4,1.215413537447463E-4,-2.1601198686969965E-4,4.258748762304171E-4,3.9078824552938685E-4,2.3182544880661685E-4,2.714416214559251E-4,-4.459671339024451E-6,-1.2165796476651282E-4,1.4137969370208627E-5,-2.0976179695493123E-4,5.275476283927752E-4,4.5842765095038997E-4,3.8192029548380377E-4,1.112058307494978E-4,1.5328264908516743E-5,4.8252329738367113E-4,3.4475500699319956E-4,-1.0726174335657692E-4,-2.738524024679739E-4,3.7955173753615715E-4,8.06557639504093E-5,-1.9500118761430607E-4,-3.975755140901437E-4,-1.5772733272175683E-4,-3.714896130918098E-4,-2.024065421595498E-4,-3.0297752186235147E-4,5.62237658246666E-4,2.4346695702288928E-4,-7.099746251188923E-5,4.633372591731196E-4,2.419313747382034E-4,-1.5024553012427425E-4,-9.156473217463896E-5,-2.7838302569614703E-4,-2.538184289115721E-4,4.488918837298322E-4,-2.1040323529918428E-4,5.116254914291995E-4,-1.6638381567496942E-4,4.885411972164565E-4,2.653069443849204E-5,2.828160132993885E-4,-1.5796453860324774E-4,-1.742381743212201E-4,-4.1121912522917967E-4,4.265860603549539E-4,1.2491863096221174E-4,1.2615915355695826E-4,-3.1793577339623376E-4,4.650141883461754E-4,-3.377986374679674E-4,-3.0837516746079035E-5,2.546757353883447E-4,4.8313104277575644E-4,2.0051509899049138E-4,6.296767752552033E-5,-5.802276579928843E-5,4.483550417693268E-4,5.093270134329012E-4,2.4127043085610413E-4,-7.53313626300311E-5,1.9082520149743627E-4,4.912542013909702E-5,9.745606184813365E-5,1.4959457080208652E-4,-2.4850854444389707E-4,5.549468820500509E-4,-1.3953090414017564E-4,-4.1676228570919094E-4,-3.7035054737012564E-5,-4.071793136497721E-4,5.084466703038039E-4,4.994950583320144E-4,4.913776509114802E-4,3.472425150194216E-7,2.828338385863878E-4,-4.047212984000581E-6,-4.860757242948319E-5,3.6472399982908363E-4,-3.914825263680191E-4,-1.7878631306917218E-5,3.546502334022783E-4,-2.247735090147748E-4,5.375259397860773E-5,4.133960358798794E-4,6.238286292190945E-5,-1.6340984695950548E-4,-2.345338810673566E-4,3.562403671261546E-4,3.61425942153358E-4,-1.4409307079589332E-4,-2.9924939836667447E-4,-4.1172679303215536E-4,4.034863559807916E-5,-1.8184134000646149E-4,-3.002767590203926E-4,3.015304600575236E-4,-5.536411205445548E-5,1.4542480711769894E-4,-2.8857765397561827E-4,1.673442515723783E-4,1.0131105443818323E-4,5.089302197122935E-4,-3.8590326565617056E-4,1.2028200353734888E-4,-2.901726336165566E-4,3.021626370411779E-5,2.905942700446723E-4,4.2934037776120183E-4,1.5544352316990458E-5,4.916905560501409E-4,4.123339846195582E-4,-2.4911313685702064E-4,-9.619428924388279E-5,2.5035813252003775E-4,3.893324920611748E-4,1.7803708417566007E-4,4.0515214959917223E-4,4.2098152192243063E-5,-2.9563776918291238E-5,5.163248397720136E-4,-3.651789655263086E-4,1.2215961345107495E-4,2.63765306833844E-4,-3.3843127456827706E-4,3.216330273961881E-4,2.993532275103335E-6,1.3891834046849729E-5,-2.6644160545210286E-4,4.095804138864343E-4,6.891592869847846E-5,2.3030937703154365E-4,3.7286274593253054E-4,-1.861247558729248E-4,1.2554874306447694E-5,-1.244747759375962E-4,5.111402845140716E-4,4.079189924100772E-4,-3.512560820681643E-4,2.7283016133463776E-4,-3.535698927208238E-4,5.408013455973182E-4,1.412043657607805E-4,3.095101859105864E-5,6.37789189394443E-5,1.68949765872353E-4,3.5292083966657534E-5,2.886192940821805E-4,-2.9303012552476973E-4,-3.4062518101139955E-4,2.268717843917783E-4,1.6945518794508316E-4,2.2117438214732123E-4,-1.2073117617117072E-4,-1.490492789459371E-4,2.5954049463510506E-4,-2.4073052742626502E-4,4.002463937926271E-4,1.5587928427100047E-4,3.5391592215533744E-4,4.1124445269371835E-4,2.2288204944245784E-4,-1.7767050016632914E-4,4.931286492931114E-4,-3.725064171208577E-4,2.2502098841461717E-4,4.4221923175253035E-4,3.445370647502346E-4,5.638517513819847E-4,-2.732812382188251E-4,-1.8082304889529044E-4,-3.553061943696102E-4,-4.2528432309468453E-4,-6.535077959836464E-5,-2.513749010220154E-4,5.033118672285009E-4,4.659157358722998E-4,4.953520055395901E-5,-2.886461920379627E-4,2.3712907162956668E-4,1.8684486501803604E-4,3.550147769474455E-4,-1.240476843346147E-4,6.792872755126715E-6,-1.2622151504153658E-4,-1.2586048797514178E-4,5.421944915417504E-4,1.0270037531139096E-4,5.309673887496163E-4,5.112117430777719E-4,-5.927187966021532E-5,-6.0060008889822124E-5,-2.7696924350289624E-4,-2.3590471388030372E-4,-1.4577196012855847E-4,2.853701867769286E-4,-4.2420011835217085E-4,1.8442442770337197E-4,6.59359808056639E-5,-3.371277173528644E-4,5.376613592668607E-4,7.465505025314391E-5,1.168915379789087E-5,-1.7468624171743005E-4,-6.603154506618531E-5,1.6923857693252275E-4,1.275234478099073E-4,-2.627861135567519E-4,-2.9883136523182276E-4,8.168136180986467E-5,-4.076937584327021E-4,-1.306676211197657E-4,1.77772699167069E-4,4.1965390425348787E-4,-4.247021854711677E-4,3.9369068956551095E-4,5.060995127877758E-4,-3.567492317618396E-4,-4.177957728718389E-5,4.960328782199843E-4,5.085850279451951E-4,-4.733915722189465E-5,-3.90049829905107E-4,-3.949333737580423E-4,1.8665855856791127E-4,3.3873194870568654E-4,-2.5230745927065553E-4,-2.032665597899406E-4,-2.864244297763899E-4,3.7934784703545326E-4,-1.0511999972121839E-4,2.6245414533647166E-4,1.1163661030350249E-4,-3.002939859530482E-4,4.370298530777269E-4,-1.3970208091195686E-4,-1.2104946581073277E-4,5.153047671630142E-4,2.4926707299300905E-4,3.8995317594310255E-4,-2.9929214316297225E-4,3.985775101282597E-4,3.1784972786286984E-4,3.8086987282670706E-4,-1.5905486427257863E-4,-1.1297712424381356E-4,2.0899944108874273E-4,3.1030516976343896E-4,2.151208766080345E-4,5.432378666786421E-4,-3.795081369504337E-4,-4.2263446930886105E-4,2.8938291586998904E-4,2.606072849920759E-4,-3.1683505102577026E-4,-2.6023989971001846E-4,-3.915123238035582E-4,1.0420842838940609E-4,-1.3451150196555528E-4,3.0699665580566777E-4,-1.4587684096339882E-4,-1.401085492593744E-4,3.6219149810737814E-4,-2.3407667816850437E-4,3.875250663868281E-4,1.8505191019156794E-4,5.364722023597245E-4,1.4426337414534432E-4,1.693093244278846E-4,-3.8680592972811263E-4,4.0295581514516673E-4,-1.2034125281666239E-4,-2.7318708687517344E-4,3.9106309050405497E-4,-3.445748581030564E-4,-3.8974851395630556E-4,3.073443253115302E-4,-1.9755621671705396E-4,-1.1966218559125488E-4,5.155161763689188E-4,-4.397081939372158E-4,6.910946628116611E-5,1.290428532905946E-4,-2.6733861326742165E-4,2.883703180374649E-4,-6.79899280309233E-5,3.387636163946108E-4,4.5493504940491056E-4,1.1045883861283737E-4,-2.726500039476766E-4,1.2493795102273847E-4,-3.0929434267808567E-4,2.9153231412008265E-4,-3.673492970025463E-4,-4.277730967537416E-4,-2.1085807146936753E-4,1.2619064570639315E-4,3.9888323125687725E-4,-3.0424655003225004E-4,1.4114904256030611E-5,3.1091363731301586E-5,-2.1268655981613007E-4,-1.6555179076304527E-4,-2.9356022342256512E-5,4.920283465742142E-4,-2.5332604423965994E-5,-3.035856746899023E-4,-3.737813590111034E-4,4.2255223630655045E-5,-7.405425993866046E-5,2.4498358427807075E-4,-2.6635611605733804E-4,2.3688258776188324E-4,1.4615975485567385E-4,-4.068369524215681E-4,-3.4601136006093557E-4,-1.2352943998705012E-4,-2.5890455503478003E-4,4.866453969772983E-4,-1.4434519177459932E-5,2.8815716178686097E-4,1.4992878119773605E-4,4.922208001955945E-5,2.4447761429884215E-4,2.343520813898357E-4,-1.9703599121747548E-4,9.008170020165654E-5,-2.143718266296154E-4,-4.290947848745171E-4,-2.7860900294924536E-5,5.20129402504181E-4,3.1112794309569985E-6,2.207568964639667E-5,-4.772758154106352E-5,-2.8685034292516885E-4,9.443066010382092E-5,-1.991762283563144E-4,-2.515999558704282E-4,4.7922348667615454E-4,-4.286640263753772E-4,-2.691385861516198E-4,1.423106829076919E-4,2.8865301975924387E-4,3.4464345760232143E-4,2.847488576098069E-4,-3.428587919791334E-4,-1.4695141874084686E-4,-3.915823768493339E-4,4.708534963200012E-4,-1.8602014751995915E-4,-8.29923059544766E-5,-8.498602110670966E-5,1.879870073095752E-4,4.903297923028513E-4,-8.988017381130289E-5,2.813547658728594E-4,2.218586294736003E-4,-2.2218773584286992E-4,-3.779154470849197E-4,4.067394451568287E-4,3.7121550367777287E-4,4.298701072921732E-4,4.574967805569208E-4,9.963485715059669E-5,-7.346339364593944E-5,1.200969296783385E-4,3.216091116405076E-4,1.0273242834041909E-4,-7.866066480368362E-5,-4.224698581325125E-4,-6.185719176285696E-5,-2.1429130767661108E-4,5.3036863737149E-4,-2.1603834403817988E-4,-2.1881341884996767E-4,1.8667415679935462E-4,-6.382067565782961E-5,-2.6428304452081843E-4,1.820208282142148E-4,6.744059944888973E-5,-9.842099757237395E-5,3.650874262278928E-4,-8.908571036284359E-5,-2.3523301578475054E-4,3.5182216060763885E-4,1.0039972380861909E-4,8.036985464164188E-5,5.002774745743121E-4,4.004411991056706E-4,-6.603796244753868E-5,3.8802510649282076E-4,2.7616440195966447E-4,3.305068433698478E-4,-1.23008094051409E-4,2.0255523789613502E-4,5.478045381391031E-4,1.527666744845847E-4,-1.470547808178314E-4,3.097367762373204E-4,2.9639559022516505E-4,-3.907275547256184E-4],[4.054133138071377E-4,2.4309877392616943E-4,-5.331448992774372E-5,-1.22816553056037E-4,3.035473476328218E-4,-8.039220661418394E-5,1.386468263670569E-4,2.1699241787656576E-4,-9.26574576870184E-5,-2.8299250426777655E-4,3.6475424852021635E-4,-3.799944785384991E-4,2.467570109340534E-4,4.896826956215438E-4,-2.3579071948124297E-4,1.2313279007182694E-4,-2.5205006411549768E-5,4.81470420234971E-4,2.1977294356011169E-4,-4.042268257306561E-4,-1.956330385336557E-4,-4.1167782659485875E-4,-1.5269541869666428E-4,4.8452376999052446E-4,4.923504043753067E-4,4.5073284451480587E-4,-1.0344324625136665E-4,5.492184060623653E-4,6.35485949521533E-5,1.0432254427848033E-4,9.981115153705416E-5,-1.4306215871136182E-4,-4.178163622995365E-4,-1.8559290151007706E-4,4.9547253591539666E-5,4.964361293804206E-4,-2.1578001494951783E-4,4.2283860621684856E-4,-2.2241151939318986E-4,4.700566585669542E-4,-4.456030970675574E-4,-5.167499117694868E-5,4.448142536335719E-4,2.6411341879273086E-4,-3.3882303871293117E-4,-1.871020753341093E-4,-7.52904361132307E-5,-1.3003192098604593E-4,4.593958950594706E-4,-3.9685954147952783E-4,3.016284324940852E-4,-1.4628998451663816E-4,2.609972666087106E-5,7.179453352897452E-5,3.06630066996661E-4,5.277793566052199E-4,-3.603738757860252E-4,-4.18448298764936E-4,6.79722839280197E-5,2.25120978877486E-4,4.3394423435068905E-4,4.1391662726532243E-4,-3.857758410101323E-4,3.6818951360689925E-4,1.711212253424272E-5,3.083611513063227E-4,-1.849350696604188E-4,7.778146265024427E-5,1.671567105849004E-4,4.467401724559147E-5,-1.5017623643484964E-4,-4.4913329751656645E-4,-1.911465582256635E-4,4.4721492769124216E-4,4.1630436922583344E-4,-2.709324779943064E-4,-1.1747971848893183E-4,4.745984805362781E-4,-1.496491106616386E-4,1.343989966452081E-4,9.382305210968484E-5,-4.44592763058575E-4,4.503071768223965E-4,-1.3693787654436534E-4,-3.630745909010153E-4,-3.570044667030213E-5,1.4918386495098846E-5,1.7954255744889638E-4,3.923548455931431E-4,5.358304536641823E-4,1.7177491701088576E-4,-4.1998909635078435E-4,4.52725074820875E-4,-2.936509440939346E-4,4.129599541325592E-5,-1.6185982022488612E-4,-3.375426542023309E-4,-3.143027309656215E-4,3.818204793640889E-4,1.4215745133130584E-4,3.8766829161591E-4,3.21325154144477E-4,4.699431881761325E-4,5.321913899914657E-4,4.713390180337312E-4,-5.431700268541017E-5,2.2391284516923437E-4,4.235607222552795E-4,1.4461483682358559E-5,3.670452649130484E-4,-1.5616326223171175E-6,1.9398523638619906E-4,-9.655748812461239E-5,2.1391670618237693E-4,4.047882843125677E-5,3.971659504686182E-4,5.392669662380777E-4,2.8331763234942125E-4,-5.115295755730638E-5,2.9200436598214656E-4,2.4132304841527097E-4,-3.942800425351141E-4,6.366146755106606E-5,-2.644465634347979E-4,-4.340281525540443E-4,3.662225212924158E-4,5.036823360713656E-4,-3.8639487711456514E-4,1.5763721159321335E-4,-3.882118172245911E-4,-2.7352693602079124E-6,-2.8557891685822723E-4,-3.483916979649854E-4,7.75580560199056E-5,-2.7737131308330353E-4,2.647557752153907E-4,-3.0139402524998165E-4,3.7415903966788225E-4,-1.1239992344084856E-4,5.289975049688605E-4,1.40137974592042E-4,-5.163333824315111E-5,3.93928369871065E-4,-3.993416887501018E-4,4.6788656759884925E-4,4.49635076118062E-4,-1.7546068745992948E-4,3.678982964002032E-4,3.311657187902619E-4,-2.0227896935549858E-4,-1.7983929155072318E-4,-1.2847589933048255E-4,8.175926754334322E-5,5.198537917383457E-4,4.4834061721027327E-4,1.7503010854758082E-4,-4.4099439194427743E-4,3.1672911536433524E-4,3.571794842840764E-4,2.7400835769188572E-5,-4.197031871167189E-5,-7.202306079736272E-5,1.2667033068087616E-4,-1.6403859473212821E-4,-4.456420718519545E-4,-5.859326072762201E-6,4.77923899574603E-4,-4.4055846630554335E-4,-2.5288821213540657E-4,-2.0015827391333212E-4,2.4771586812855805E-4,-4.412214444672292E-4,-3.602954852976336E-6,5.236534937162838E-4,1.4505955662726493E-4,-2.450909337059878E-4,-2.895015603616264E-4,3.470457430653725E-4,3.09427647818365E-4,-2.5307624190714273E-5,-7.848917882733712E-5,-1.2288188079685272E-4,-2.441822270340087E-4,-1.8526996600440486E-4,3.157748127945693E-4,-2.1764898302931062E-4,-4.71047517411763E-5,-4.3133254755862267E-4,4.927675855424244E-4,2.1277880143707258E-4,-1.79834350957538E-4,-1.5351486045685835E-4,-1.329349588377712E-4,1.6672883843699588E-4,-2.6876886643883877E-4,4.221714252302841E-4,5.089393346178879E-4,4.239320208578514E-4,-2.3632116997886112E-4,2.7645665808185795E-4,-2.7790167768981046E-4,-2.4374360909950089E-4,1.1291532860616258E-4,5.372987149666647E-4,-5.115508725115535E-4,4.003562958609009E-5,1.7411245123094983E-6,3.696376991709064E-4,-3.1287045523312124E-5,2.6324901806820585E-4,-1.8503881021716547E-4,3.8163940289946235E-4,-4.7048524982733366E-5,-3.004401191459544E-4,-2.012442866440141E-4,1.862934018550797E-4,1.7249579600506814E-4,-4.929765549746927E-4,2.113699860298812E-5,-3.8427326822822156E-4,-1.5219338531010458E-6,-4.303987303773811E-4,4.2225535303066445E-4,1.3405805227072182E-4,-1.8303733689983248E-4,1.79527524054516E-4,1.5537033339681856E-5,-5.07589908125468E-4,3.480951192303606E-4,-2.968327745935471E-4,2.101331522959025E-4,4.915230117241859E-4,8.780760260781745E-5,-3.5666393809237083E-4,3.8880771535983215E-4,-3.9557069377662565E-4,8.173659769874177E-4,3.269598571073933E-4,3.0625097728760787E-4,-5.084927240088257E-4,2.3707175640179002E-4,2.909371378700188E-4,4.778547627032287E-5,1.4345232500760137E-4,2.1938198527800714E-5,-4.116078383971197E-4,3.7912832971790907E-4,5.048057980024576E-4,-2.0990132356221957E-4,1.385498456516515E-5,2.914731039756114E-4,-2.6252760982295383E-4,-1.5751203854421234E-4,-3.783769897068806E-5,5.094399605966198E-4,5.555177898388003E-4,-2.7205105745809724E-4,-9.692978713005396E-5,9.684069389798406E-5,-2.1459977920618303E-4,-4.0691978329407635E-4,4.0247118464966833E-4,3.890199942655695E-4,4.908705467602072E-4,2.4057629617028136E-4,5.21427160744418E-4,-7.795773083796668E-5,-2.1088285323395267E-4,-2.988532640071112E-4,5.120847217395052E-5,-3.4099126086692384E-4,-1.925916614866621E-4,9.951028385560108E-5,-1.1866236809315297E-4,3.394493945436976E-4,2.643327687144594E-4,1.655526106802648E-4,-1.0051305978156919E-4,-3.005060521043664E-4,-1.80561962789056E-4,-3.744273917793954E-4,-4.142459844728374E-4,2.2306556258909499E-4,-2.7239239970942814E-4,2.5474932205996547E-4,1.4901833211052168E-4,4.882806873369379E-5,-3.628985557606864E-4,1.2263515748524295E-4,-1.806326736953473E-4,8.465259362619252E-5,2.6772643005987034E-4,1.5854705259211248E-4,4.5696926745143914E-5,-6.012299674338262E-5,5.188551771729005E-4,4.853454098716167E-4,-5.7720703707917495E-5,-9.219832254408594E-6,-2.9520062430921415E-4,1.0670369650454607E-4,1.2197860544209476E-4,-3.682967948029192E-4,4.5423738415807365E-4,-3.975349396983355E-4,-3.8776377602737E-4,2.7708023202372464E-4,7.72312278176411E-5,-4.3239658586789135E-4,3.5231704317956257E-4,-2.9816398109392105E-4,-3.028748166516385E-4,1.0118933581447377E-4,2.3400004634334428E-4,-2.866612474682996E-5,4.5399692393091764E-4,-4.4698613561353436E-4,4.867777522143396E-4,1.1550371784186144E-4,7.011896574402398E-5,-1.2966034726718598E-4,1.708726123350556E-4,5.345040237979183E-4,2.4644332651235887E-4,-2.0173123552115124E-4,8.52452146144441E-5,-1.0153957457949434E-4,2.6202624611061724E-4,-4.436517347446068E-4,-1.6776083294588846E-4,1.7813097218134213E-4,-1.0423721685336914E-4,5.069748997896415E-4,2.3013681990965317E-4,-6.841222079023899E-5,8.393815744220136E-5,2.4088829070833057E-4,1.3595843701492622E-4,-1.1597957689924865E-4,-6.012241138253007E-4,2.448604824138621E-4,-2.4308773168245663E-4,-3.704359951633428E-5,4.4332045733279195E-4,2.4950809372169307E-4,-1.4471101277798207E-4,3.3446308833985763E-4,-1.5476560144543248E-4,2.7414015475633934E-4,-4.62742014603591E-5,2.9165466440722967E-4,-2.7129120172924323E-4,4.889146227614065E-4,9.731012922689683E-5,-6.245300968730239E-4,-2.6619912417827953E-4,-2.3514412265186505E-4,-5.594996046901151E-4,3.504179269430705E-4,-5.384716743377534E-4,-2.524849897206461E-4,4.733152668022513E-4,-5.5669953802493345E-5,-1.37646920474975E-4,2.398694429077041E-4,2.6072305927286546E-5,-2.086868878517323E-5,-6.439655511324672E-4,5.263141958588273E-4,-8.59398969226828E-6,4.2099126396860854E-4,-2.4831695842773165E-4,3.4982348997467474E-4,-1.1019369082299373E-4,4.134848127537323E-4,-4.0329499755893935E-5,7.97366750757244E-5,4.665990364411457E-5,3.388415378124845E-4,1.6643060416928675E-4,2.5364866400270973E-4,2.3169358476557236E-4,-3.0140705513101044E-4,2.6956488187758964E-4,1.684948495410864E-4,2.381922496228837E-4,3.318365811632863E-4,-5.63298829065417E-4,2.1453096413145604E-4,1.5729859887382813E-4,-9.468186405673463E-5,4.80086860813253E-4,3.422023826445757E-4,-3.891108373168889E-4,4.5985985555706645E-4,-5.043356635657569E-5,2.1194663835164522E-4,-4.101921936017464E-4,-8.227948983709988E-5,-2.778522791456529E-4,-1.7101354995134016E-4,2.9248067975169717E-4,3.226457322685458E-4,2.7821840546436507E-5,-3.856967918852498E-4,-1.2874360425893852E-4,2.6927839783775007E-4,1.53068742778932E-4,-2.268820212291378E-4,-2.0337218747501859E-4,5.090095488690842E-5,3.2931951419226424E-4,-2.035974496314946E-4,3.259519320968433E-4,4.343651193426689E-4,-1.6437079987368066E-4,-3.229650531786498E-5,1.0916152704736869E-4,-4.399563235580699E-4,3.0993394240292276E-4,-3.5716966493275356E-4,-4.2380866917570765E-4,2.1916877645186068E-4,-2.811904667355439E-4,5.469662418221335E-4,-2.972491135262961E-4,3.4303066584634114E-4,-3.783993357910122E-4,-3.037931317465402E-5,-4.624902879918629E-5,1.0969267135503894E-4,-9.52956890798969E-5,-3.426643728461788E-4,-2.3168269132862253E-4,4.732443282898863E-4,1.5146594820744934E-4,4.504291226424414E-4,3.314496930624403E-4,4.614797747118196E-4,1.5461747581287623E-4,1.6147344405408544E-4,-3.618230196038981E-4,-2.3684528316594595E-4,-1.2164427910113301E-4,3.5480957961208314E-4,-3.623084046770674E-4,-6.49939495517422E-5,1.5662801652413912E-4,1.1481544526539724E-4,2.3344626410459984E-4,-6.0578806621764696E-6,-3.025023775616554E-4,6.563403994316702E-5,-1.0464136129360672E-4,5.381916849228652E-4,3.070223895400563E-4,-1.3129886104727356E-4,6.394936437696968E-4,4.217446028223255E-4,-4.406469597853596E-5,8.121039024864669E-5,-5.502727730144675E-4,5.467727048560432E-4,7.664184819521193E-4,-3.57877904314689E-4,3.146659632989748E-4,4.0037321635987303E-4,3.334785276282566E-4,-5.242453875194233E-5,9.986795652544194E-5,1.8829491200849995E-4,-6.388343209169889E-4,5.07209542524694E-4,1.7852232140451282E-5,-2.620007109557844E-5,-1.268582176637017E-4,2.732330906142837E-4,-1.0405249429553622E-4,4.755425051443544E-4,-1.361226944338914E-4,-2.4196726200755278E-4,-4.099218781240951E-4,1.6855738190407963E-4,4.1436625613625717E-4,-7.170614335269582E-4,2.1027294971426115E-4,-3.9624867420849056E-4,-9.715246140030674E-5,5.657683928126323E-4,2.260342174527982E-5,3.35105242695098E-4,2.701372900474548E-4,-1.4516142245864488E-4,5.442609655391381E-4,-4.0824525449974295E-4,3.053306780278294E-4,-1.8083659157403002E-4,-3.591384486495627E-5,3.1535468926454876E-4,7.746223732913945E-4,1.5579149083580116E-4,2.4316759303349212E-5,4.5050002316766787E-4,4.1754688521633885E-4,-5.93825050797897E-4,3.0932921215371653E-4,1.624896129689001E-4,-2.680736490073502E-4,-1.1637345507891028E-4,1.8217882365519303E-4,1.674532145351911E-4,1.3247488516547831E-4,3.886870105675474E-4,-2.2898771962874117E-4,-2.6073918287170596E-4,-1.1129985206507994E-4,3.6358984904946506E-5,-7.540871067448548E-5,3.8270966513854945E-4,-3.305626629098774E-5,4.8620696354183767E-4,-3.0282074680900865E-4,-3.348199530217624E-4,-2.7461965146001254E-4,6.137132325177853E-4,3.2623546712414044E-4,-6.552367066040482E-5,-3.921616450509938E-5,4.56197016370578E-4,1.7815257793405995E-4,8.343310163870125E-5,-3.969660544770806E-4,-1.7987522085245164E-4,-1.4995581618311283E-4,6.223824311594431E-5,3.5590681069143707E-4,1.6883628098522926E-4,-8.280382888516298E-5,4.910852496203312E-4,-1.2869441019307362E-4,-7.892911328492403E-5,-4.8364921831863997E-4,3.2428920376736774E-5,1.3174844663211335E-4,4.8788954834744924E-4,8.254718601999451E-4,-3.531936003339711E-4,3.940010518867917E-4,-4.264252456230034E-5,3.6030815524210286E-4,-2.965742837737401E-4,1.627153842427359E-4,-1.4652536109972732E-4,-2.8410908183575253E-4,2.5063799043639306E-4,5.29869698164787E-4,-3.2306820978453736E-5,5.315162097426478E-4,-4.154960262119333E-5,4.958292373113305E-4,-2.30148821442066E-4,4.975478695936204E-4,9.133554152345618E-5,-2.641516817934036E-4,-5.7900723728726125E-6,2.5109043660002906E-4,2.721634579189552E-4,-7.357241569388501E-5,-3.514151484697058E-4,1.415349395377633E-4,-4.1606737435762416E-4,-2.886110862496718E-5,3.7514566110858407E-4,3.6780109289803856E-4,-1.1189649168608987E-4,-1.0791732193723988E-4,-3.677889743562576E-4,2.5748993683836425E-5,-3.620516931893109E-4,-2.6157182413096946E-4,3.7208263403532254E-4,1.3791272134102182E-4,-3.281072824271475E-4,3.8998375166823476E-4,-2.2262257486721436E-4,2.5153319189680706E-4,-3.5998504096681176E-4,7.20781048311245E-4,-7.960991655917968E-6,9.218156109076846E-5,-1.9684965237986972E-4,-3.586618212173294E-4,-1.3200277739051515E-4,2.460236097556873E-4,-2.775081060728346E-4,-2.648192310656561E-4,3.705229196249405E-4,6.17102962371905E-4,1.5271859369314937E-4,-3.34035480972798E-4,4.248532121787666E-4,-3.448627547513952E-5,1.867829379523068E-5,2.4163820921892514E-4,3.297489868796795E-4,2.7322478364810737E-4,3.708771646410919E-5,1.314198767957251E-4,1.8768150184778236E-4,4.3265477224205647E-4,4.928154215378156E-4,-6.306573606914827E-4,-5.184825794688189E-5,-6.206900298924948E-4,-4.562355077689396E-4,5.831270691402509E-4,4.3566699069946325E-4,2.5979477122940953E-4,-4.7267937546330955E-5,5.460362757428627E-4,1.1452165548165777E-4,-4.654913979081681E-5,-5.611972669369499E-4,-2.4886028749332086E-5,2.274946116262145E-5,2.0790788268022575E-4,2.497610751814629E-4,3.846154018321245E-5,-9.360502248700458E-5,2.3173700995745528E-4,7.27195445174859E-5,6.402851387496555E-4,1.5020975111066447E-4,3.710560167953954E-4,-2.965191692456214E-4,1.4433113227119323E-5,5.511830880501359E-5,5.969531604419621E-4,-4.797475674132046E-5,6.653829242433989E-4,2.1072163478547153E-4,6.379789842012055E-4,7.852373027519255E-5,6.01747350417411E-4,-2.900429598346002E-4,-1.775708924733843E-4,-8.016016582224082E-4,8.498162008846605E-4,2.466260160960964E-4,2.283928529728446E-4,2.52891633460316E-4,-2.2904437470178576E-4,4.964173728525134E-4,-2.275830073500434E-4,2.4347812389072048E-4,-3.2730521945659456E-4,-6.351045550251108E-4,6.166712866949861E-4,-4.290067410857547E-4,3.0925203677778713E-4,2.791942406473056E-4,-1.9306583411178165E-4,-1.5730743752775578E-4,3.4895678064176995E-5,9.876187355897782E-6,2.4121471276417452E-4,-3.881618148376002E-4,2.3745861061590234E-4,5.231823700973544E-4,2.9898942861368652E-5,5.9182153939787E-4,-4.705132268140496E-4,-3.2852848502912274E-4,2.6792363211327473E-5,3.115436483302488E-4,8.437560844632887E-4,-2.0624339195031899E-4,-3.352705795374849E-4,6.383537043658065E-4,4.669335661181899E-5,5.046524478606152E-4,-1.6901824225209986E-4,-4.989146395622781E-4,-3.0483133559632545E-4,-4.4302519447494835E-4,7.556633839498936E-4,3.1754132398432343E-4,3.6820737618733406E-4,-1.415225096379025E-4,-1.79842766970467E-4,1.9457394640894817E-4,3.942244417257761E-4,-1.3548208766781268E-4,-7.776109567064151E-5,1.8337705546246042E-4,6.043247224630133E-4,2.0091975675425142E-4,-5.6097459565408205E-5,1.6989585740505162E-4,-2.1225623920329508E-4,-3.443392986032425E-4,5.233905587883122E-4,-3.470306369900623E-4,-3.128291503999776E-4,3.0760115746598655E-4,3.5178431882940033E-4,-1.8049920762352954E-4,4.3482412347664485E-5,-7.20176672341037E-5,2.7311259661420975E-4,4.8088421611587655E-4,-1.0020927131927163E-4,-1.1030493665192843E-4,5.166227633632327E-4,3.140755272686104E-5,-1.2110225141834391E-4,5.270741981822217E-4,1.629284705163882E-4,4.33975702181811E-4,4.81559026541584E-4,3.9292193153801086E-4,-4.4044647518904533E-4,2.7490856482764356E-5,4.4766636327843294E-4,-4.268625126707828E-5,-3.4908540127161165E-4,7.487800062823443E-5,1.400861171104061E-4,-1.760060364937077E-4,4.024465895695159E-4,2.7567536932662437E-4,1.6668037157200482E-4,1.528705751718256E-4,-2.1127148587518846E-4,-2.7393871224442966E-4,-5.5783781635869105E-5,-2.2167700086789374E-4,1.9848666271960605E-4,4.640485441344789E-4,5.777324829087163E-4,7.257896976620155E-6,1.0673226383760305E-5,9.570400453089992E-5,-3.752802589889394E-4,1.1268819838804578E-4,4.195012739119076E-4,-1.4847858109279688E-4,6.735049827280898E-5,-2.5881576137019784E-5,3.637592472081994E-5,9.640067376063429E-5,-1.3016201631923458E-4,-4.2412392158808665E-4,-7.000353212100686E-4,4.5970791347792607E-4,5.125206476958127E-4,-4.311153120684164E-5,3.172390125665421E-4,6.42601870365976E-4,1.0312410058684664E-4,4.8196036712673795E-4,-1.270212161154124E-4,-5.490240377451607E-4,-3.0136044431120784E-5,-3.494226919303455E-4,7.535626125270143E-4,3.705980114408615E-5,4.004408067521599E-4,-1.0859697797112866E-4,2.9103812712997685E-5,-2.8452373246256024E-4,5.732994005784719E-4,-2.829451210702586E-4,2.4160789867176005E-4,-3.55755404440464E-4,-2.478717763606594E-4,2.4970578879474845E-4,6.369314664898059E-4,-3.8148273168900034E-4,-9.233921308124123E-5,1.740906099363569E-4,-1.8853880495766086E-4,-3.3789197636432326E-4,1.5966984828720624E-4,2.0541866521282953E-4,-2.4804785330945407E-4,-9.989435098754619E-5,1.2561066911570952E-4,-6.289038125312094E-5,-1.2090778923669743E-4,3.51189370660247E-4,1.849287001165952E-4,-1.2994427779836523E-4,-2.7082401848273914E-5,6.301913667667176E-4,-3.207239754577884E-4,-6.085767797215125E-4,5.11972967909647E-4,2.6048644801709097E-4,-2.9146638490287898E-5,3.7476650058672773E-4,-2.3801523837693893E-4,1.5600129272452776E-4,-2.4156562860804646E-4,6.152199065613306E-5,-4.7445558095786025E-4,1.9067532272784126E-4,2.2204958647832883E-4,-1.7924940977505967E-4,3.262350977136902E-4,-9.732568204413521E-5,-3.727818680596289E-4,-5.0204793585496426E-5,-2.345563559234511E-4,1.0093667572166772E-4,4.785737314090969E-4,-3.7963331484099923E-4,-3.0329548109507624E-4,2.3561084140928134E-4,-4.4479111140046507E-4,-3.087191691979147E-4,-1.8743443559309962E-4,1.439735975776015E-4,-1.0403146206379306E-5,4.991115100033608E-4,-2.257813374094234E-4,3.611318610141437E-4,3.1195514345943107E-4,2.3182989422831004E-4,3.4823374044990954E-4,3.0969444159903594E-4,1.994008362343581E-4,-7.182664516828864E-5,-1.9196618419420534E-4,-2.817001890501821E-4,3.8835982736690655E-4,4.6136462380862235E-4,4.928907761924761E-4,-4.576199620986345E-5,3.17085558553595E-4,5.344592463759748E-4,3.661697362688952E-4,-3.1019959351264874E-4,-2.8400089687595433E-4,3.7489272956765053E-4,3.1625243224797856E-4,3.039099222791986E-4,4.392029092288019E-4,5.916934498845775E-5,-2.3446929965058368E-4,-1.0228029266721328E-4,-3.284047942454507E-4,3.0100997230274985E-4,1.0351691250299235E-5,-4.025739290090996E-4,1.3615274733504067E-4,5.220777013698396E-4,3.083436508696911E-5,3.24192078358345E-4,6.28211510391303E-5,7.261021596294746E-6,1.4814762420045478E-4,3.257952674118068E-4,-1.9582453172874322E-4,-1.144831891268212E-4,-1.9172134500666852E-5,-6.920200829370053E-5,-2.490116003417614E-4,5.4690197758318456E-5,4.937623295350253E-4,1.2678807519985984E-4,-3.838341778459162E-4,-6.680558711389821E-4,-6.235855714617931E-4,4.1280840398305526E-4,-1.0628458966952194E-4,4.835442271520336E-6,3.769339743070135E-4,8.967539528337125E-6,5.819664153938921E-4,-1.0131324578197408E-4,-6.438365791182026E-4,-7.904745699570716E-4,5.0176141899568364E-5,2.617865692702837E-4,7.115805035401166E-4,-2.1757280375496455E-4,-8.934180394525208E-5,1.9578744701798535E-4,4.762281639851183E-4,-6.691262480657352E-5,-5.590195260883668E-4,-3.755039275854898E-4,3.357988744308146E-4,1.2823520054092835E-4,8.251446316158312E-4,2.89764925015774E-4,-4.697548801556218E-4,-1.8911656542304267E-4,-1.0887357062466598E-4,-8.816039319045575E-5,-3.0743179257539496E-6,-6.796531920092253E-4,2.8272162059342896E-4,3.7745015693103926E-5,4.916774158080002E-4,2.0196940952769363E-4,-4.672355118710778E-4,8.250290203543871E-4,-2.2248832776188503E-4,-7.572427127487546E-4,6.648852209017077E-4,1.9604895939390364E-4,6.620944184506501E-4,-2.217423288906623E-4,-4.7240802397480137E-4,-3.827980966165981E-4,-3.2981460479396095E-4,-2.9394318096433203E-5,-1.319726680056809E-4,-5.689254527675927E-4,-3.216041530450879E-4,3.029321272189472E-4,5.90128718588951E-4,6.037658422242868E-4,8.874809862326961E-5,-3.717806105393987E-4,6.734794560098777E-4,8.25842937244709E-5,5.473113326691799E-4,-2.496485762952319E-4,-2.888657473469729E-4,1.2299867252254983E-4,1.9649793665821086E-4,-1.1216297946245473E-4,-2.7028350724241584E-4,-3.1102251858497844E-4,2.7070039842267606E-4,-1.9794719601837156E-4,3.8263105669664546E-4,7.006225432500289E-4,1.5095417910906866E-4,-1.1354626822024228E-4,-5.491567280342237E-5,1.6323898480862348E-5,1.3767310516436595E-4,3.897885515096712E-5,2.69392482512603E-4,-2.4408001518437007E-4,-3.085085749208704E-5,5.457974861648434E-4,-7.381187229601167E-5,-3.5048780698086827E-4,-2.937092231441539E-4,-3.473856127847463E-4,9.665698736991598E-5,2.6021112692879223E-4,4.976169087747531E-4,-1.910630124004545E-4,-4.3203783609725694E-4,-7.545941069780149E-5,4.461640244212591E-4,4.3698021433550806E-4,-2.2704732101449428E-4,-7.101077301430311E-5,8.640904811404358E-5,-1.255118388435333E-4,-4.5581940383257534E-4,-7.721958894803167E-7,-1.9620691953993517E-4,2.3528928662114578E-4,9.4779760392648E-5,-3.3534946295026724E-4,-1.3226604872310598E-4,-4.285210796466375E-4,4.710756638141401E-4,3.4543135925248924E-4,-5.525275318657402E-5,1.1882290701709023E-4,-1.1186906677659632E-4],[1.3203587794057228E-4,-4.195257400368073E-4,1.6984572444366788E-4,-4.290048213305996E-5,-3.5995850668993823E-4,2.3308105493852405E-4,1.356086371033438E-4,6.465504003351299E-5,4.148425789262475E-4,5.083046276409633E-4,1.3278192797342717E-6,1.1066901919950018E-4,-2.2438323105879266E-4,3.282066843068418E-4,-3.7648673186655796E-4,-1.6909951754735588E-4,-4.595860655461403E-5,-2.8080030320999514E-4,5.084353299212425E-4,-3.4207814681175617E-4,4.537966706654029E-5,4.2812186070248113E-4,-4.581343428251694E-4,-2.674283773722043E-4,1.1625759609267226E-4,-1.0275178601798142E-4,5.089790590514208E-4,2.4476877878034666E-4,3.526995221899729E-4,1.6227305408079274E-4,5.692803239192983E-5,-5.928327000716679E-5,9.727894964759546E-5,-5.058362458797302E-4,7.965522556258989E-4,-1.6105783105657012E-4,-1.2122195065485561E-4,2.629828166375964E-4,-9.026635546433916E-5,1.632568213458478E-4,1.454057377267653E-4,-5.366938324395921E-4,-5.908767888843305E-6,2.650965658013747E-4,8.11712593168753E-4,-3.037215056297348E-4,-8.490577323552708E-5,-4.903578625501982E-4,2.2942244485831375E-4,8.760424058136582E-5,2.5091778100963644E-4,-4.471790632665889E-4,5.4853659658984E-5,-1.855496976565215E-4,7.464895557443938E-4,1.8505085629849232E-4,6.251786482829857E-4,-8.032985527194324E-5,5.939279393030484E-4,3.19729982566086E-4,-2.3352241470993472E-4,9.65397519565983E-4,2.072526400505797E-4,1.0510821470154617E-4,1.3861697119144672E-4,2.8740792260304176E-4,-1.0463737519790803E-4,-6.64271583229532E-4,2.5497721002775954E-4,2.2144368397762564E-4,-0.001043900235811555,0.0010416217535512047,7.913374901942076E-5,4.379567187964016E-4,-1.1173848216057527E-4,3.2294507295189587E-4,3.619671068477772E-4,-3.4796652652171957E-4,4.5020966012014954E-4,-3.1097038970889356E-4,-9.333010361032077E-4,-3.428147704257215E-4,-3.439191672389546E-4,-3.0000190081251E-4,1.8421090510341079E-4,-5.617152599898137E-4,4.7022496097372897E-4,5.216228731913067E-4,2.0142406627289626E-4,7.453527610305947E-4,-3.8194853722588683E-4,-3.770436667528649E-4,-2.1279287556896854E-4,2.571190097600477E-4,4.265156466223509E-4,-1.0827698156524214E-4,5.023002998395674E-4,-2.0688007197769217E-4,-3.4072949798346085E-4,-1.868885264824703E-4,7.146387811780569E-4,-5.555121354187146E-4,-4.583602032440596E-4,-4.0377774047041336E-4,-8.28668528701455E-6,2.537808018905275E-4,-9.229175571105337E-6,-2.4097617399622043E-4,-4.3769584126837163E-4,1.9084488867502156E-5,4.6270443999066E-4,-3.171640297569609E-4,-4.0117512242851056E-4,-2.469891947770879E-4,4.594636992077189E-4,-3.3659259135293855E-4,4.0084465277065456E-4,-4.34915411740674E-4,-3.766488105289169E-4,-1.9630952162897928E-4,-1.1259243695495857E-4,-1.2081932711682086E-4,-9.836939436964181E-5,4.328612550235499E-4,2.074267313665183E-4,2.5972632263841945E-4,4.60900628276239E-4,2.648008088022873E-4,4.885128714044396E-4,2.1628945341094993E-5,-3.536956782859867E-4,-3.2144805376627464E-4,-2.0179804651012875E-4,4.7712374369914E-4,8.856729101293762E-5,4.032540434398841E-5,-4.0999388602217223E-4,-6.969659603083315E-5,-2.8852454088664327E-4,-1.0615334331440738E-4,1.7705287512770712E-4,4.8671045653728114E-5,2.407792299866896E-4,9.661022319999472E-6,-2.773730152514908E-4,5.355153266802293E-4,-2.292717022447687E-4,-1.4164576352043975E-4,-3.109125521270918E-4,-4.451630617058934E-4,-4.531905215963413E-4,4.917250389859183E-4,1.0416596422082713E-5,1.5364570231058338E-4,5.288466182015507E-4,4.8729004229237135E-4,4.1671443612266624E-4,4.8003781882653836E-4,1.4020962434373708E-4,2.3627184539009658E-4,2.2980924596341883E-4,-3.4935751687353736E-4,3.101133976108368E-4,3.30562645890341E-4,-6.959399816500225E-5,9.385794978414213E-5,4.5518088558662705E-4,-1.1863785718400464E-4,3.458978621523723E-4,-5.139238094670455E-6,3.125529092050038E-4,-8.718695992211951E-5,3.649473625651176E-4,-3.693149367783886E-4,3.569146468463655E-4,-2.552920462165652E-6,8.040567202982914E-5,9.412743245430059E-5,-4.2293866531849093E-4,4.585207959672034E-5,1.0273174219968718E-4,-2.3697359422759912E-4,5.950771916190103E-4,9.967644358491453E-5,4.442247861221926E-4,1.3690036048381358E-4,5.675083900301276E-4,-2.8158038240787996E-4,3.596337916610317E-4,2.8766817815376007E-4,-2.1373392777576945E-4,1.1552027517832017E-4,6.458755266784986E-4,-6.071765931930125E-4,3.0530767250797476E-4,-2.0492830246639072E-4,1.0188047426613959E-4,-6.182592958812982E-4,1.364673050319579E-4,3.1769508002243513E-4,-5.140786032926341E-4,3.9010759446077075E-4,-4.475843718977234E-5,-1.6073062621256654E-4,7.238950716307135E-4,-5.734414323473501E-4,1.5473733053093664E-4,-4.545847650117837E-4,7.022723712429151E-4,2.494269170037916E-4,-7.975504581961992E-5,1.2940574073657763E-5,1.0069406852385188E-4,-5.521682776632121E-4,4.5408190261009567E-4,-1.9588480696758432E-4,-1.9629059711299217E-4,-2.4824621098475536E-4,-2.128227335265392E-4,-4.0154616743999825E-4,-4.766504918885441E-4,-5.275848047750567E-4,5.055204336642542E-4,-7.370565761516611E-5,-4.3349031083769694E-5,3.087137135102338E-4,-4.140557852740299E-4,3.687031110910484E-4,3.29737676937293E-4,5.274180157832269E-4,1.4493972192663015E-4,-8.222892324047067E-4,5.386709615374185E-4,3.9111217220022017E-4,1.6097642751649517E-4,3.9259177802323874E-5,3.2098182101806465E-4,-2.7058599458285824E-5,-6.686023284117248E-4,-1.2485793328813585E-4,3.075485572809403E-4,-2.672751550369436E-4,1.410318554465418E-4,5.398468274316372E-4,8.199753282332102E-5,-4.451551462001594E-5,6.414166100506879E-4,2.6636959469809505E-4,-9.291676579361723E-5,2.677847170574781E-5,1.0306697128308534E-4,3.419427833612381E-4,3.584776901382818E-4,-3.554709462127419E-4,4.900835524045785E-5,-4.1023727014070314E-4,-1.6652162843505954E-4,1.5921456931905444E-4,-2.0210572973001462E-4,-1.326654287810156E-4,2.8809011322471884E-4,-3.4766758117448453E-4,-1.8304820969552077E-4,2.7484985373407304E-4,-2.8900390012360957E-4,3.7235734016244815E-4,-5.104382157126231E-5,-2.098052619967053E-4,-3.9013115191051357E-4,-5.004029504693164E-7,-4.161290895854759E-5,5.214910114778894E-4,-4.164254289296389E-4,-1.7314267517653698E-4,-1.235906780238203E-4,-3.2156265420615866E-4,3.3788751588025473E-4,3.6709319839744027E-4,-4.4920801038229397E-4,4.763618163223264E-4,-4.26401982928639E-4,-1.2343163086149972E-4,-1.4281908106786577E-5,-5.446836333902092E-5,-5.993578275317193E-6,-1.1732676476977005E-4,4.162737992398162E-4,3.98156840498944E-4,-1.5964764830397876E-4,4.678316951844943E-4,-4.2947164977164146E-5,1.313478971846668E-4,2.3133346592878607E-4,-2.2024313293479407E-4,3.484843216804469E-4,-3.85411732658214E-4,4.4349021312819917E-4,-7.423364392949492E-5,-2.3065674990446612E-4,2.5851734483771133E-4,6.170209341850687E-4,-1.5218882207125163E-4,1.7950000775629414E-4,-2.3883003773953254E-4,-3.654986156425625E-4,6.371371789645326E-4,3.224865926723853E-4,-4.4318725919402334E-4,-1.4436161926134063E-4,1.4311645645223274E-4,1.3288648595589654E-4,-3.1819089747056584E-4,6.464630801110389E-4,2.0218876603212343E-5,-1.755722707052501E-4,-2.722854675321385E-5,-2.8907362818331276E-4,2.2226234522943503E-4,1.2737919902856335E-4,-2.7483023498027574E-4,1.880052840637731E-4,-1.8774563319488936E-4,1.8604811698372405E-4,-6.207693711485064E-4,-1.7301846222656303E-4,3.6141367458619676E-5,1.3921575053331577E-4,1.3674605394546177E-4,4.986218642970785E-4,-1.0490999491053107E-4,3.8836963742240214E-4,1.4170545396818954E-4,5.511077612186587E-5,-1.2813511654044305E-4,2.990750646299735E-4,3.273975311003214E-5,4.822947029182994E-4,7.740753892706183E-5,2.3679694822025047E-4,-2.1272638396657088E-4,-5.548826112942359E-4,6.795069106528276E-4,6.463993107222343E-4,-6.195489308888424E-4,-2.582901895895611E-4,3.954485333063839E-5,2.8426979497848053E-4,2.8033943849927265E-4,4.349530197980276E-4,3.772458617637484E-4,2.583469759434902E-4,7.094223994832965E-4,3.0130335544781934E-4,-5.837541467026404E-4,3.0785705104686815E-4,-3.427545135073543E-4,-1.7386686146712262E-5,-1.454003147816491E-4,-3.268032695621417E-4,-3.2966801110978906E-4,7.413479145665204E-5,-2.9411102578389477E-4,-8.777225009201618E-6,2.2900223091507448E-4,4.441716999774893E-4,-2.222853107022506E-4,-8.426891959503997E-5,4.5954161912511115E-4,-1.9844613637350918E-4,-2.607519130658019E-4,4.097253062865434E-4,-7.163288914366104E-4,-6.445530055249774E-5,3.117792066965071E-4,7.086473127318287E-5,4.882860085023564E-4,8.139706305139699E-4,-2.7750640758978767E-4,-3.902214070374215E-5,1.67646052119394E-4,1.9949675169244352E-4,1.2326441497846264E-4,1.9149276947622146E-4,2.5070920993355313E-4,-4.4567137595813607E-4,-1.112493518871093E-4,5.918601692272243E-4,-4.895266301373081E-4,-2.4898813147467805E-4,-4.775370709331937E-4,-1.3060941049518663E-4,-1.3901079361778546E-4,5.118177016810986E-4,-4.0351459966549006E-4,4.0457028867615116E-4,3.0915308816715543E-4,2.737253147796672E-4,1.1530588401020377E-4,-3.9433485554294967E-4,-4.203662383522349E-4,5.487389245761378E-4,1.5133694596453337E-4,1.172419439871997E-4,2.2226578559747377E-4,1.2142190641945482E-4,1.4073213433340399E-4,-2.9128544544049673E-4,3.5123222486603073E-4,4.792465999554662E-4,1.1038029570709657E-4,-2.2047727147852993E-4,4.4482777457331674E-4,4.923929297306139E-4,2.90816982670333E-4,2.388819358549523E-4,-3.3384194124136814E-4,1.695094258892432E-5,2.2860781082241602E-4,-4.3895615096888003E-4,2.838097387118665E-4,2.3985296820616775E-4,-3.4107679538366805E-4,-1.8477665135300912E-4,2.3179180687071701E-4,-7.437474454980078E-5,-2.3856346984390024E-4,2.6367790621850245E-4,3.1694152571455143E-4,3.0642051880765716E-4,5.236487596068427E-4,-7.210894866795818E-5,-4.35468421957228E-4,1.6550021772395812E-4,4.960447301435655E-5,3.3045321552447205E-4,-2.1741733602477004E-4,4.453132602531243E-4,-1.686920356190194E-4,8.178552638696887E-5,-3.4830455862241256E-5,2.9448791445805557E-4,-4.5621292472141224E-4,8.94039482593392E-5,1.5453839339734353E-4,3.16337754732847E-5,3.6741979833680174E-4,-5.819238319669345E-4,-1.8811767849286976E-4,2.1864989301210006E-5,-2.9910055686192854E-4,-3.7370406733726536E-5,2.1406974670735762E-4,5.256714004113295E-4,4.243879140662924E-4,-4.288791503215186E-4,