{"class":"com.simiacryptus.mindseye.network.PipelineNetwork","id":"0ef4f6c4-b1cd-44b4-b08a-09daf2182a97","isFrozen":false,"name":"PipelineNetwork/0ef4f6c4-b1cd-44b4-b08a-09daf2182a97","inputs":["3acb73df-1e49-4dae-8f23-de35e3dcba30","724d621d-a319-44bc-a4e5-e0540301a7fb"],"nodes":{"1794e8f9-c32a-40e4-b0bc-29a68e3554a7":"15ad5d6d-4936-404e-b061-9184d3f3c612","c3646c6e-4f49-410f-9f4f-23cd970f1e79":"4b8e554c-ad9c-481d-8d26-d2200ac5d816","6af227a0-50bd-4436-a605-0e098160597b":"2dfe4f63-0d30-4778-84b4-ade220cadbd4","9269379e-c59d-4e40-b92d-eab3c11c3e2f":"906c5840-7ac4-4003-96c4-9b56a0dcd96b","b81bf8fc-9727-4187-afa6-6f0667eaf5f7":"57e272f4-17d5-432e-bc9a-1a84b701db7a","dec2e4c1-50ea-4008-ac29-c324dfc320ee":"23393245-59cd-4836-87db-0fad6c13d732","c67f77e4-1119-44c7-9ee8-21cfd4a40c48":"a5a222db-b169-4e2d-9517-b84df4916995"},"layers":{"15ad5d6d-4936-404e-b061-9184d3f3c612":{"class":"com.simiacryptus.mindseye.network.PipelineNetwork","id":"15ad5d6d-4936-404e-b061-9184d3f3c612","isFrozen":false,"name":"PipelineNetwork/15ad5d6d-4936-404e-b061-9184d3f3c612","inputs":["ccfb75a9-7e77-4090-9896-3a88b97b273c"],"nodes":{"9ce03212-43b0-4fec-aa22-1951de6c5b3c":"f5063e54-0336-4a83-9f06-379039b84ac3","e8b3e4b6-5b94-434d-a312-b6b3b4958ab4":"7838a26c-2595-494b-aae3-e86d7d5e65d8","64bca106-50ca-4a1c-a5cd-60d991481889":"aee1a107-7422-415e-8399-42d1eab39ba4","3cb3af52-6762-43c0-a3cd-7f5d3fbc3011":"89b8ea46-ecf1-492d-861d-6dbea06518a1","e3bd9efe-df89-4347-80d4-9399e579454f":"b76bf500-84d6-4073-b7bb-254e3ee05cc8"},"layers":{"f5063e54-0336-4a83-9f06-379039b84ac3":{"class":"com.simiacryptus.mindseye.layers.java.MonitoringWrapperLayer","id":"f5063e54-0336-4a83-9f06-379039b84ac3","isFrozen":false,"name":"FullyConnectedLayer/88d9d53d-007e-4457-bd43-f53bf1ad7b7c","inner":{"class":"com.simiacryptus.mindseye.layers.java.FullyConnectedLayer","id":"88d9d53d-007e-4457-bd43-f53bf1ad7b7c","isFrozen":false,"name":"FullyConnectedLayer/88d9d53d-007e-4457-bd43-f53bf1ad7b7c","outputDims":[28,28,5],"inputDims":[10],"weights":[[0.0032235086474043753,-4.6367098968989733E-7,-6.669103813625407E-6,8.613077199134542E-6,-0.01256075251561839,-7.208079824666587E-7,4.841129798343968E-5,-5.76952208097723E-7,1.2595379050935825E-5,7.700723964103949E-4],[4.144326956484557E-6,-1.548766684164566E-6,0.0022726543687264125,3.8256309610466165E-5,0.0020526717191680682,5.937831604846543E-6,1.7527133322890986E-5,4.5808196236464665E-5,-2.000605553529644E-5,-5.477977770759149E-4],[3.0552732827119654E-5,-0.0014036623414824482,-5.998872018954381E-6,-4.380743191168283E-4,0.007691148867567991,-3.64893853685686E-5,3.493990674530753E-4,2.2247723698761413E-4,1.8606148392918644E-6,-5.343184734101631E-5],[-2.812909346385863E-7,-5.822506072388009E-6,-9.374317476134027E-6,-8.12532941896868E-6,-1.8595502127568475E-5,4.66152187603913E-6,-8.226025922232397E-5,-3.891159856298384E-4,5.295401787893924E-4,2.7178181597209715E-4],[4.1429664108215473E-4,0.0013073484230819493,1.6391546906385996E-4,8.865106395094519E-4,8.150993900770466E-4,8.201562778095903E-4,3.6112855724847377E-4,1.11206309009947E-4,-9.683705291511547E-5,-8.554246307248563E-6],[-2.439588514729826E-5,-3.4255876283204795E-5,1.4880294386110854E-4,-2.6631409098392467E-5,4.1175870467582534E-5,-0.0015790167499975122,0.001978252195414709,-2.8084633817227507E-5,4.7059581669920615E-6,0.0012547022103299858],[-1.1478032187566524E-5,-3.5933788534045646E-5,-4.03375889043627E-5,9.065639470446214E-5,-0.0014798744585771198,-0.0060311030000640255,-0.016926705047251245,-0.021212601766272713,-0.03466955460103216,-0.023501763711393897],[-0.03996658530588736,-0.03398488370144709,-0.02979361079724105,-0.003709208658490049,-0.007298963860371033,0.0042175177904208785,0.003823666567261567,0.004100941455418218,0.00543121318545093,0.001896239621952772],[-8.986693698319925E-5,5.017303129349407E-4,-1.6022291695625963E-5,-0.0019944990975932263,-3.2965466288381923E-6,-7.3335743957944245E-6,-3.022406882092586E-5,-4.112837780562718E-4,-3.8012182163406146E-5,-6.820948027494697E-5],[-1.9506522786794166E-4,-5.631772039921685E-4,-0.0018989008509828753,-0.015818236095023606,-0.04127311577826049,-0.05888567838390508,-0.04753805068470871,-0.08526018754454268,-0.11161270275870218,-0.11996914143864365],[-0.12386066622540945,-0.0874249497723232,-0.0419065891629561,0.009704097885771657,0.014518455548540686,0.005114518973832606,0.005786288778707794,0.0058015483655039935,0.0029544997805056733,0.001211334896914414],[-4.5159676823083546E-5,-1.5624331584322376E-5,1.069449686043264E-5,2.3745422376129762E-6,-4.485718949393746E-4,-3.638720210796524E-5,-1.7411113951175413E-4,-3.4518104299246187E-4,9.239115054701024E-4,0.0034943835824617856],[0.0012362400212032995,0.0016577561478182375,-0.010124660006672588,-0.007785819404952001,-0.04927332564218767,-0.16238816099068407,-0.18403439430965451,-0.18440104513334657,-0.114331808603376,-0.007979646762294667],[-0.020200659901749102,-0.008197928979414298,0.004565809807588549,0.008120957565532454,0.003923755951689464,0.00230351502804822,0.0038838761027446323,3.630359776937081E-6,-1.828695305024584E-5,0.0017165267331341006],[-1.9486908394369385E-5,-8.243078854119983E-6,-5.924406991197663E-5,0.004965107457480766,2.3571466478936477E-4,0.014210723117897272,0.023040909375664047,0.053848542187015895,0.08769837320765651,0.06830837962113533],[0.14414218197266057,0.1578892528354604,0.12967310788942968,0.11142969021329766,-0.14402958072830158,0.08071422348326608,0.19807801524252897,-0.04433187131082202,0.2374408445185906,0.2975758266426786],[0.05175164022888493,0.029422738306163237,0.01869787836297069,0.01950941845047716,0.017979749747232203,0.0019384248615654078,-6.392858022974078E-5,-1.2795405865703237E-5,8.480704909006871E-6,1.824290849735077E-4],[3.39994572796473E-4,0.003327373860972217,0.020286905260268308,0.05363036509725575,0.102677003686976,0.15092047620702914,0.17446603854319725,0.24365681283514995,0.24739252722480878,0.11044587359999616],[0.21068846453556578,0.15955588263208914,0.43927645753150896,0.07008595992302181,0.3307950656529043,0.6083169172183122,-0.015700917650698844,0.39062726226788286,0.17208841371592917,0.04275334565974713],[0.0132907225878391,0.02583030230987265,0.03185338303027337,0.006988589068869221,-1.4656774153085187E-4,-4.648520776897977E-5,-0.014942381119823486,7.742723687923754E-5,3.4687615972180965E-4,0.008872839348377898],[0.01993557531445256,0.05511331279375514,0.12446773053587691,0.18605676101551644,0.14476570646576567,0.1095036994187218,-0.014932148759077682,-0.22489247003756707,-0.09117791492452261,-0.2452216649541569],[-0.17188297315379653,-0.03848210752476352,0.026430758493823283,0.5131940175383721,0.3488731528239353,0.3589142968631701,0.1761073096825431,0.002119474430516867,-0.04835166627705807,-0.001465845269172161],[0.020428487750705,0.0077331549326385505,-5.099961944768367E-4,-7.734973306697463E-5,-1.1506508623064894E-5,-3.712101120713025E-5,4.419309472420575E-4,0.00783274807301393,0.04087838015360398,0.10430497602991366],[0.1415513315911232,0.1513878402764327,0.037159276751421,-0.2200004376228913,-0.23867584518936766,0.06522658242950372,0.26693294506128423,-0.05092145285191943,0.5994227403036121,0.20711050197762926],[0.6399952957483946,0.39684087533808976,0.6069708691879946,0.2192819065744925,0.16718643240714512,-0.09523294399505665,-0.15641013633261938,-0.056287492330664386,0.001555643833369406,0.008193852160619988],[-5.078233137990886E-4,1.0010542781517236E-5,-4.755384598636249E-5,-5.356127916279402E-5,0.012148762212896392,0.02251389449356093,0.07596377386040437,0.09949244814030951,0.11711841989079919,0.04796332722064282],[-0.16436432814151855,-0.3217309592168782,-0.30967401401972267,0.21087363378746254,-0.0621093029477857,0.8509951977836506,0.22896691133377708,0.20858651972195502,0.41404263469684643,0.45398606945789644],[0.3474094718804031,0.3554669661517545,0.17748531718282354,-0.2408441371621006,-0.21847126537009287,-0.07352062593068158,-0.011170051634191651,-2.4886330857448177E-4,-3.66984920599972E-4,-4.992130938235517E-4],[-8.00180671768327E-5,0.003192471919533259,0.010244892879490167,0.047842990490085266,0.0587597267842055,0.08901681955766935,0.0630386638324073,-0.06295963679605505,-0.27377199940599256,-0.28734613349728805],[-0.12336170668187223,0.28240721221871146,0.5432151941476955,0.5266098701279082,0.3367491602164099,0.3061288185438748,0.17796865302188633,0.23130374033491982,0.28728242553541644,0.4561180618349384],[0.32627138550065604,0.16303943091021483,-0.20608768160683688,-0.08473019981192148,-0.012651042823440872,-2.1569137105590026E-4,-4.5531141316224575E-4,-6.096006719593086E-4,0.006053018189187786,0.004613355048521064],[0.011070323200544734,0.023916771975144017,0.04642846025093965,0.0721519844191158,0.01331162806538393,-0.13001305095468418,-0.24310872093481162,-0.1727499463620654,-0.02090055890130704,0.39855366964519084],[0.35579757808764795,0.4413415170986168,0.20471245622877976,0.18559974290293937,0.08835265641703591,0.2928692468644178,0.11692911945188583,0.7906395642052456,0.40900988390421616,0.08340662104244653],[-0.18175648201157432,-0.13585119812445953,-0.02656098521585311,8.60030857509465E-4,-2.8959933860689392E-5,7.196427647059613E-4,3.005001362508821E-4,9.380446191700919E-4,0.010806227876059919,0.015706451468083193],[0.022811059968646075,0.03974800432547431,-0.04045096768019818,-0.15685348184352432,-0.1395983128486831,0.1390907562902079,0.27394882695900014,0.4980001701557297,0.7920130590059117,0.4178596153674498],[0.2417803045039017,0.12663149981536806,0.46636625059483483,0.24723349362607436,-0.22013839947863775,-0.07854782416416085,0.7428300223645927,0.06430835982159706,-0.1913631988582504,-0.1692503230635414],[-0.03238271580585462,0.002504486321007064,1.0673330831387207E-4,-5.083832517157863E-5,3.555928143766632E-5,5.3530165326901824E-5,0.004911669921434258,0.011118973082242717,0.012382331573973513,0.007685338944232336],[-0.08600106561407042,-0.11231577655347985,0.1269156918109083,0.009161168257215111,0.26833199039142963,0.797763558401481,0.5348293184204664,0.34329935308206544,0.04504028682231272,0.3437234744131226],[-0.3193431521280382,-0.7486549489931387,0.04895188776626455,0.9883251042197524,0.16302947078185745,-0.024396117854978975,-0.21549387766679273,-0.19182372195872766,-0.0489071714983096,-4.3040298007446785E-5],[4.80905293135156E-4,-7.4517931278416286E-6,1.2296834888805914E-4,-1.0506870733338386E-4,0.004227172365190163,0.008074080434947508,0.010573115526141728,-0.021353743903331415,-0.11844979961918634,-0.04989329496414991],[0.29388210702633066,0.4537112673566717,0.5924041809480136,0.3345759543836203,0.21675986205144077,0.07001246239201885,0.3261319850633437,-0.1413415919885949,-0.8008630848464127,-0.6340232956808942],[0.6758431451496426,1.5091262289205767,0.2534519128244104,0.004243754447107674,-0.19799934424391225,-0.21816095074418654,-0.08088761821886044,6.997935425654353E-4,-3.689861825608638E-4,0.001980379147195741],[-4.8947436562263135E-6,-6.622257829756419E-5,0.0014400745548557566,0.0021403826472095617,0.004764060910871034,-0.04092333756247988,-0.1720709371383931,-0.02369265614466935,0.16644980090715936,0.2649485824644048],[0.26630040219211915,0.1861860099822301,0.1918157225247904,-0.6149257703244413,0.11910526358205697,-0.7209318798137743,0.41911263118315323,0.09343857451912696,0.7862764648668292,1.1214983235304354],[0.564434353003026,-0.020032894131532544,-0.22761288171401212,-0.2297531402874461,-0.059244885287166114,-3.1514676801418825E-4,-0.002093302228654326,0.009273505019416832,1.5435422837892894E-5,1.5328141389968858E-5],[3.0533277876367953E-6,8.950693820293715E-4,0.0019878116336589993,-0.05150506888114182,-0.07875850290220904,0.12302889621131444,0.18949626276101014,0.2878091691155598,0.16015284939243507,0.0619351729481855],[-0.3857432995474979,-1.153990738856672,-0.3988134723002888,-0.5221693955657373,-0.15449517471551955,0.4454412832902461,1.1494198884102038,0.8875060541280013,0.3909634506275413,-0.02354675368944465],[-0.24516536525097948,-0.1958042951027379,-0.042557424070075886,-0.002568741350922276,-0.0037897041056267275,1.3977208692251026E-5,-2.037984518474337E-5,-6.338276522193316E-6,4.9198376230824434E-5,2.920150316735525E-4],[-0.0018159528405884292,-0.044387153264782965,-0.059379070130379484,0.022078169239239234,0.10958120595226913,0.24524119065274883,-0.02623178718604527,-0.326918627641112,-0.20205589735816473,-0.8898280030867072],[-1.0547236587019508,-0.4732247136102611,-0.12490689356747689,0.7542079598907605,1.2946211748300722,0.974943426140827,0.27657329197005337,-0.07293561275716086,-0.13725233511618662,-0.11085916192322336],[-0.03846490798018593,-0.0052914188489089275,-0.003566850264593487,-1.6223263795570947E-4,-2.4430354987851433E-5,1.007280494998235E-4,3.318205267619762E-4,5.330136922654711E-4,5.451011204673422E-4,-0.021134731412339007],[0.008507065870160672,0.07862905530659815,0.19470649411922897,-0.08720395528904681,-0.08710841081636951,-0.48476553810268724,-0.9425120849263975,-0.8679458986769724,-0.2815406823449584,-0.2521146256572683],[-0.0773861174764917,0.29780893266035413,0.8135439676466572,0.14492119916828097,0.10599680367363869,-0.08978042183640271,-0.09524717040253694,-0.06143357057396924,-0.012886775084494099,-0.0035804108825471005],[-4.728616707151363E-4,2.1767571434796424E-5,-3.622017565485496E-4,0.002269668474142735,0.0018394322426238245,9.453669524456016E-4,0.011789137805905308,0.019816897830182152,0.13272096103440903,0.10280381988570648],[-0.06846367335318339,0.04597933166834892,-0.15579110288825843,-0.47905318779540373,-0.7543638717211028,-1.1810691156214608,-0.40562995700308435,0.053180570369920174,0.9308006283809953,0.6579166873526515],[0.7488133621654104,0.17605211434405893,0.09156011031100275,-0.052867449177650426,-0.06202338132801108,-0.009835766376823407,-0.0021689767385633697,-0.002388494129018176,1.7634855154389492E-4,5.385696133742573E-6],[-2.7506420483492586E-5,0.0021143268097914203,0.002475234696985864,0.0034141698026349055,0.03229671157115162,0.0742790798073192,0.08815643998871184,0.34954780164436083,0.18223271700010754,0.038582523683306044],[-0.1445814043586693,-0.3029249173962082,-0.3866196486976409,0.16472260981330167,0.5005902584904799,0.6480677584174557,-0.33524929617506316,0.7059790042460193,-0.25178889367478174,0.0613997574723838],[-0.019430395384204924,-0.03307048040637654,-0.014497088214965275,0.00555469302663939,-0.0012062761139735247,-0.0023039125743277247,1.6927184281531213E-5,-9.085755908063573E-4,2.5170255317569154E-5,5.210246157902265E-4],[0.003373935304239136,0.0019510285061943963,0.0352155078402709,0.09500440740945389,0.19225318628825286,0.2868446300484876,0.08882879618353741,0.33778354283089174,-0.1881593188609963,-0.4562076968705873],[-0.8784619701092159,-0.7432676382805048,0.34510531909741854,0.6793205932383996,0.4959589066871712,0.36017641633860586,0.04230380249409817,0.030649038780352664,-0.021640777641020126,-0.02078137120149286],[-0.002559962342020359,-0.0010542032887944281,5.2896049482982466E-5,2.2221062407024473E-4,1.937029225247466E-5,-0.0014183844365694845,2.3888085933397953E-5,1.1484305899273997E-4,0.0025663009885224727,0.0033123568010959776],[0.008276452806468052,0.04636598618104372,0.2061506329186064,0.3670607084025737,0.47206172753277836,0.39109773343233767,0.8842443559998091,0.8639951606391668,-0.47272242267867903,0.48824566358203153],[0.5672559741369501,0.2842590194575212,0.3086565638748499,0.19775736065713728,0.13045659373666726,0.03664823335816893,0.006799147109187795,-0.009902134388335287,-0.006843409330061716,-0.004717605295070987],[-0.0028348263411787384,1.0996554057795898E-4,2.1353918424703243E-5,0.010177940526067365,0.008784912376828949,1.242849119744337E-4,0.0011428895307781376,0.0048573804481517185,0.004552859447815034,0.020051675877378574],[0.04813684506565242,0.12572313080411482,0.2779775621676159,0.3342851840898842,-0.09755000853205816,0.7244862848839775,0.2724879206007341,0.44855492863275803,0.3006284868919033,0.17969971176941593],[0.14161029275341094,0.062472771772597704,0.08352262167327873,0.05557050957989939,0.028729078210911457,0.0015083860672808523,-0.005234788686363925,-0.004150240316026512,-4.4208478924733955E-4,1.6999875906568916E-4],[1.0926593099433393E-5,3.5603451716112884E-5,1.666877942238389E-5,6.393535088907217E-6,3.2808232788881744E-4,0.0018082919671751224,9.539648406741722E-4,0.001997103889215961,0.004966966771132376,0.011663207162018794],[0.025049993870035828,0.003455085173275531,-0.09027817669808882,-0.04173969768509164,0.10414716506057005,0.12920624373390407,0.1050142983386042,0.0980596590850003,0.05984616788782489,0.021149155514564658],[0.01742644289815378,0.020850186916920834,0.03155748871979213,0.01592384685993929,0.002396114145113958,-3.5001649860822E-4,-1.9675074026499737E-4,9.086021887388353E-5,1.3299902229539566E-5,-8.975494064245437E-4],[0.004935761994000272,2.8636263278826493E-5,1.5702461740387976E-5,1.0478963525708184E-5,-1.4149802309394244E-6,-4.907737214419257E-5,-0.0011580284144558314,-0.015357609929834933,-0.04430758197458062,-0.1001009087414402],[-0.09951078859186352,-0.01327440560574258,0.07388449645591981,0.14152651892151252,0.09683602375657667,0.05277065777109511,0.04255502161558396,0.042692572041299455,0.011223035402132904,0.004551502635726866],[0.005744183470314772,0.005449380444229913,-1.9878138302298755E-4,-1.713107795732099E-4,6.856318334200661E-6,8.864995128285962E-6,2.652936578402669E-5,2.552425978278281E-7,-4.4645710093329E-5,5.954233219352664E-5],[1.3017629449713649E-5,2.7973024118268426E-5,-4.9972017390562435E-5,-9.255714635412047E-5,-0.0017549552332513534,-0.015254954800517284,-0.00920870080223263,-0.015940647037101345,-0.0065154927562283225,0.014015898132439395],[0.04070583483868587,0.0533978100639652,0.046869401575479815,0.0346238309292415,0.03949775610431509,0.008543096775842557,0.004292064428600858,2.0461582850397618E-4,3.968707875623814E-4,1.5961594363434384E-4],[1.3747585280282106E-4,-8.610997204773982E-5,-3.2547211110767104E-5,9.941251621418314E-7,4.0675183887742394E-5,4.801681577032896E-5,0.0033712679747161813,2.065816132663924E-5,-2.2976434247420464E-6,-1.1810026448258077E-5],[-6.481622434015158E-6,-1.1583115067322749E-4,2.3586690086520006E-5,9.736578685947518E-4,0.0013726074410314703,6.778148839007463E-5,9.621159926138478E-5,3.2113782693160944E-4,-0.001040602804307161,-6.279572157326019E-4],[0.002684774868040184,0.007167135751713435,0.01695423031252241,0.0010901530348024638,8.076067715134308E-4,-1.3454480225690284E-4,1.117272500189504E-4,0.002524113198703996,2.8944646423392515E-5,-1.6172648491128398E-4],[-3.389827313087326E-5,3.313090132538474E-7,7.700645577004783E-5,0.022016938914881115,-0.0067520318870729545,0.002087229511111509,4.227577329897037E-4,0.0012973683028674574,0.0059919718323534635,-2.7196704904914857E-6],[0.0024197051349468235,9.698576908899087E-6,0.017391076765187252,-1.3526992371137975E-6,2.0423156143629585E-5,-8.138078086144575E-6,5.2391633591039735E-5,1.2866676870642836E-5,9.846775121964444E-5,0.0014750199968045629],[2.397730245934082E-5,3.196659720882753E-5,2.8071566143893674E-5,2.8797778747272758E-5,2.942271922774239E-5,4.570719249369501E-6,1.0828028204436662E-6,-1.747329036754371E-6,-3.6931394377702766E-5,-4.168385186950309E-5],[0.004689495071225593,0.01004814255221885,-1.4558450261222944E-5,3.148378134645855E-5,1.644553614937664E-5,-7.184551276770313E-6,3.342302252093411E-5,-4.3655745744735063E-7,-2.046569976722463E-5,1.2357200152164486E-5],[2.1863955820881215E-5,-3.7538651156937005E-4,-4.359061645303025E-4,6.566300223343839E-4,3.052916615283599E-4,0.0015408451808183042,4.250611028166685E-4,-0.0030827749068767923,0.0010122314496284464,8.18519506288025E-4],[3.233859518662779E-4,2.133168324623539E-5,2.1762139003521708E-4,-6.497518897612149E-5,-5.446682376216218E-5,2.128661207308068E-5,1.5072311165594584E-4,-3.632559697935305E-5,4.758089486994254E-5,-8.50923818526062E-6],[0.0017150360398083464,1.8038539023857113E-6,-2.4627663834768635E-6,-8.133077730257926E-6,-1.4801640318785502E-5,-3.753958677407546E-5,-4.025127888578892E-5,-5.087612656895427E-4,-0.001493372771622375,-0.0061131689565616576],[-0.016941589651128606,-0.021272745148770467,-0.02991738538569631,-0.024659079415996148,-0.04012689056429189,-0.034128956566798506,-0.01857466946194658,-0.0035473306025705824,-0.007494846540223041,0.0025070838413752414],[0.004927617329468004,0.004160264257977626,0.005490164666328587,0.0018799429693367902,0.0013890669835877213,5.17611919857493E-4,-1.6939217287766476E-5,1.802152241329776E-5,0.0016740154884928346,6.709313941943095E-6],[-2.6692648633584284E-5,-2.8724600066134543E-6,-4.3803891595845115E-5,-0.003934111019979707,-9.15896618420539E-5,-8.485035987705943E-4,-0.00629500214913906,-0.027640141614129612,-0.04206864405623751,-0.04421705372508803],[-0.04832011208476898,-0.08686193065702949,-0.10820112862307756,-0.11026961029361636,-0.07477977951712181,-0.0916577792205135,-0.0508764098623562,0.008200457351029514,0.011785326945102212,0.005188683430890506],[0.006374446819844191,0.00614558662061175,-1.0386448166252473E-5,8.246412926275657E-4,-3.035631705766868E-5,-2.630689303440943E-5,0.0028956341996390833,3.25378022041493E-6,-7.557386493714532E-6,1.0032374055437017E-5],[-1.6223810713954993E-4,-1.8827124952149337E-5,0.0012084194247984144,0.001240891604350466,0.0062049201006504065,-0.0020658334201157013,-0.010485411593703359,-0.012583512892676792,-0.04227916157990373,-0.12249788387209112],[-0.24803269364316638,-0.05498132000408758,-0.11365718716358654,-0.0816728827844604,-0.018430663670807708,-0.006682802773448918,0.004873128751602485,0.007069311129925173,0.0034485336906408272,0.003500730961533954],[0.00414421103885293,7.875203106453087E-5,5.800737722100685E-5,1.7269396107781086E-4,4.831166610467497E-6,4.142827105969722E-6,-4.00768955562785E-5,-1.531873840464754E-4,0.00602695354426521,0.013568605315998393],[0.024234472740805264,0.05658822799743362,0.08185338153624065,0.13446249266670623,0.1465679820676706,0.16934441756794882,-0.012856295075848678,-0.07306506310050134,-0.04628261838246212,-0.05040993815876727],[0.23442131073324696,0.2765635388623867,-0.12027896793735203,-0.05608575182113135,0.01666181589079012,0.0380306873541859,0.03020212972517147,0.025897661394709236,0.013614178383457336,0.0016382680407355681],[-7.13335919636756E-5,7.092459266512742E-6,-1.909406101820615E-5,1.855693753737899E-4,0.016654662360346614,0.002855089798262763,0.009423527164792726,0.027202368853737308,0.0946119811221237,0.13626742151505009],[0.205376134969529,0.2469983862676439,0.20302810431576881,0.19468539661594952,-0.17997472703536327,-0.23692075905416823,-0.0208893459461377,0.36193736960351747,-4.790405155482083E-5,-0.05322176185995467],[0.09876355340287929,0.027231545036567793,0.20714108952502314,0.05376299178106333,0.014274942747501709,0.030025208495812614,0.02259176814813687,0.00619840573637973,-1.477053893653545E-4,3.321501491168588E-5],[1.391297066511425E-5,1.1130944051516613E-4,3.5069228172198303E-4,0.007375189923355202,0.01935994368160396,0.05714729292246898,0.11173767898959011,0.14497571293063974,0.12875870626983743,0.13185981487736506],[0.10771916788043523,-0.15621492420590397,0.003784126806634353,-0.13347475507956283,0.30676963247780226,0.712351578241109,0.5239220406852071,0.5672148992600682,0.7698648082903156,0.32404790450824444],[0.23231978645659815,-0.0023651357580594863,-0.05039434950862543,0.001931706271765438,0.018761486837595806,0.007713709989422005,-4.207673391769799E-4,-3.689460067997621E-5,-1.5868516824499224E-5,-2.723043706692667E-4],[5.669874606837984E-4,0.007978334067861874,0.04438751442987571,0.09726147501798489,0.13796735831961274,0.12453576159068737,0.04894690138057877,-0.10309758480977312,-0.20775907685728798,0.09294948963685322],[0.04465522183573353,0.35868488932242,0.08790544137519017,0.7112701061970903,0.6608219952889226,0.45620586570944155,0.40329100216129354,0.5950509638198784,0.040584721818134044,-0.126903327334076],[-0.16373986413041908,-0.031813241482626355,0.002009825521918101,0.0060713442738138685,-2.1405251427421496E-4,4.868754010517534E-5,-4.990510543635269E-5,-8.007590244298794E-5,0.012525829782646521,0.022860952876634023],[0.062980014248606,0.11499697523165364,0.10442247470704716,0.04999956105019611,-0.165349632132242,-0.4178777894047618,-0.2973854197801531,-0.16003663265064283,0.19402749113207396,0.29807795337247667],[1.0198854866624167,0.23251327473486982,0.7356441056318999,0.30833192088552436,0.34740794625757615,0.37188069375632504,0.2900778385854611,-0.09943097882192399,-0.1674214534246951,-0.07441757624848697],[-0.0134927681470567,-1.7340258235731522E-4,-3.8004273859854705E-4,-5.083648790572005E-4,1.4622216091965618E-4,0.004656578849157154,0.01745465759026911,0.03046924549445792,0.056743815524280435,0.10482834508217036],[0.06632485630597715,-0.06448063722191232,-0.267494206629657,-0.1745936156847351,-0.18949244155903142,-0.07435887608456883,0.4638699067890329,0.45473270727649273,0.3287494012987405,0.33236959520126275],[0.1952894913703911,0.4201649031769657,0.3282264303591221,0.5949778944139383,-0.3120043982247275,-0.08592037894751012,-0.1863519075211095,-0.07612431516497926,-0.01673522332519115,-3.0217970085939035E-4],[-5.926632626354052E-4,-6.223659430910277E-4,2.986184160874557E-4,0.006384913949691352,0.011765813390859251,0.027649260102527586,0.05044918381231297,0.0788378946678911,0.01643978407780211,-0.13510488036475146],[-0.2135511981209977,-0.21234114441862662,0.19349547207369272,0.42151542924084956,0.24842711000770915,0.4307066614681467,0.19644712414339643,0.19713088861004396,0.08600316497591153,0.3105681720413111],[-0.08624721868863566,-0.48510051169904883,0.6294065897442562,0.1497130986042941,-0.15768207215124827,-0.1354680606638615,-0.0283756152681239,7.834874975091277E-4,-2.068933596854398E-5,7.307605826264357E-4],[-5.471854358665302E-4,-2.7787759846557294E-6,0.011388072910781375,0.01618370098897854,0.023407271976362647,0.04367416776899717,-0.04026824990692779,-0.1514669859728414,-0.1565100718978785,-0.04420516992258283],[0.025420483407922436,0.47386632622874264,0.5899144624477407,0.5322395996086854,0.22103917461844577,0.11120573467363984,-0.2215358788892368,0.22486097069562405,-0.009288265333090842,-0.2536328825232258],[0.038400140713302534,-0.01628807235311323,-0.21239067770030579,-0.1672661694492318,-0.04062451599765603,5.83442468164506E-4,2.0631779313364396E-4,8.804940967918636E-4,1.2471930188834598E-5,5.780632646827167E-5],[0.0050940456953940914,0.01144721630615545,0.012676365969152538,0.007935165144132202,-0.08639144761040095,-0.13187207484011995,-0.01904597334280792,0.010935899816973314,0.6820628307627322,0.7502775056922798],[0.5543173210140634,0.3690300321824998,0.029161527566556458,-0.5371451033301771,0.03428797692765459,-0.6477997297375374,0.4090870079429481,0.5101234265824016,0.6494075349258014,0.30578880808568],[-0.24963602154072448,-0.2184724557453731,-0.05297226721095028,9.784619503030445E-4,3.434562589991816E-4,-0.0010363929357420725,-1.090516030569605E-6,-1.2669788250507498E-4,0.004317054142949565,0.008285786971894018],[0.011630221394972426,-0.02151065464096786,-0.10059046126650711,-0.018035872130978896,0.035797497442562685,0.18183966536043542,0.5895876547727588,0.38554695577612824,0.2794014331510718,-0.09016334228128048],[-0.6541128350501116,0.007385717474271597,-0.7691986426079517,-0.6325110835942266,1.0612692774050547,0.8740395027146476,0.7361344099012277,0.0054375080420051925,-0.2119762147445922,-0.24900211618470705],[-0.08366078199585868,0.0014716047444079505,-3.409244674987922E-4,2.0667350902505E-6,-2.3349325684542588E-4,-5.898081626867425E-5,0.0014125089955511125,0.0022346474282387355,0.0047392375614717965,-0.043591121989797435],[-0.12248557477072204,0.034353673779430084,0.2530849326858494,0.3786513551167674,0.4885132626112138,0.20863162919456696,0.1370352382332874,-0.3216722417426334,-0.8416858112723268,-0.1826086853099569],[-0.6770623204853542,0.6552385474769287,0.1882399708503393,0.27228629150225125,0.8125762281103863,-0.02364210671338058,-0.23019123462149513,-0.21828999447271843,-0.06371045305483032,-2.8457715970014313E-4],[-0.0021324187437036434,3.186750518053323E-5,-2.04891999842374E-5,8.417138729346469E-6,6.987273488656034E-6,0.0010157324459711477,0.002042812552515025,-0.0779895517801207,-0.08299983591260271,0.04750304147917149],[0.15349199650075426,0.30849064959332473,0.23778926493945374,0.061861619935211144,-0.38183851543574043,-1.13604900554012,-1.2986729638377084,-0.4949883820704944,-0.05380587432813268,0.6120129541016698],[1.0175326918013905,0.47099744852288844,0.20480195716940613,-0.025442921515315107,-0.18470325244511512,-0.1768790968402957,-0.04303221426787347,-0.002860290164322951,-0.003864239876844803,2.706564793096092E-6],[6.125077205291666E-4,-1.414239278864324E-5,4.7688732909246816E-5,3.716116110371417E-4,-0.001713204255891368,-0.049166790509650886,-0.06613536523814935,0.05794856535145465,0.1745822939728589,0.017475556969276645],[-0.04850914516424278,-0.3400096111934332,-0.739856236310966,-0.830654903299163,-0.6275094248125817,-0.5306734454826476,0.13572945179182863,0.16714298364033733,0.9431007307918926,0.9174699956361009],[0.1857050100103923,-0.08451453910763586,-0.14714989372290188,-0.11705727512504777,-0.03362951929833519,-0.005010946610441829,-0.003641047411920673,-1.5076046587812685E-5,3.787367734099412E-5,1.0394429861102453E-4],[3.6123887333343606E-4,2.7828469806363E-4,-0.0010246124194429039,-0.015815875482004603,0.014620841995797041,0.09333296579974892,0.18799912357189436,0.0605014990964679,-0.22705294115589725,-0.2803614716402005],[-0.8409143446843749,-0.6858693492994503,-0.844400556154437,-0.2130907486871062,0.4627263608364575,0.9180080897051681,0.3121572321524553,0.2929721010839179,0.21786691706130795,-0.060132939822912596],[-0.10609059931937322,-0.04402833141479171,-0.013547303517492091,-0.0036919740541785802,1.8344071376138628E-4,3.443809765640079E-5,-0.005461526285141073,0.002254951524713769,0.001879438556136294,0.0010068602947664884],[0.0111553246897378,0.01822168286796564,0.05387107484606424,0.2654724347723383,0.07488727863102349,-0.010474571689686515,-0.1734791558220853,-0.7976661331922181,-0.6842057774891562,-0.22243669126259502],[-0.5954283229708739,-0.14247879920062653,0.8637243349479644,-0.5044780559438438,0.41344654815795445,-0.0021000876096249465,0.04401001030227503,-0.060965082385162156,-0.04665834708690508,-0.014097886825873287],[-0.0019405796381455863,-0.0010769612827547833,-3.030296753507051E-4,2.0909559657167624E-5,-2.4991351010260224E-5,0.0022096243230283067,0.002449944740956819,0.002830857383635057,0.042828296187036395,0.05778826054841557],[0.19780581367942981,0.23948960315590906,0.16594413035362357,-0.07545921133868519,-0.4852685527902064,-0.344683952708304,-0.8916213936775282,-1.240946145976089,-0.6033322290162976,0.8359942760828882],[1.085366072690695,0.5252380615253238,-0.30391027568040574,0.061237431320158416,0.05144037131596939,-0.0446771433106992,-0.014536698403140685,0.0056516954651527115,-0.0012241602777150963,-0.0023378253839962952],[-3.9333105942310084E-5,3.1561324861351174E-4,-0.003908814326587495,3.298464551427415E-4,0.0033164839397879595,0.0023144105752176767,0.042351862483338595,0.08470838488380592,0.253339878467063,0.31473760329804684],[0.12730919252150363,0.29112146889578777,0.2705006677538143,0.042214810768176826,0.45633281216174526,0.21645340610290342,0.8279986693153403,0.13944435582171424,0.21345613622847015,-0.15749262060975394],[0.3928217378302169,0.01022643710829764,-0.0011202131071420401,-0.02015606800513547,-0.002562118043243473,-7.832583183564125E-4,-0.004678028986215018,-0.002618962095277565,9.03400770861386E-6,4.9835950327761905E-5],[2.486227314940365E-5,6.697210246760455E-5,0.0025772402494739295,0.00344155229768382,0.007458670912495389,0.062332743985723,0.21071845925362567,0.38254229836811615,0.4123689745710572,0.6991547402027555],[0.47726365033218526,-0.7357226795535492,-0.3309995980904394,0.7472181252208163,0.49261993784297936,0.30353725015362204,0.3857422908759877,0.22315985284969117,0.12699212150306852,0.0644073459634843],[-0.0013401925258960394,-0.008336814634574363,-0.006855695359378078,-0.004801013129496439,-0.002905221465202394,1.2588399814567367E-4,8.847473488676686E-6,-7.693488627025065E-5,3.709473823288024E-5,1.275510114735248E-4],[0.0011270577943665984,0.004970613314643641,0.0046048086049083154,0.019851119695890478,0.05787325701846237,0.07628195507329281,0.30177463362858103,0.26589513091178235,0.289655734251364,0.3206914532097922],[0.2010688065426671,0.3349488918491329,0.33333476005516205,0.1875727549345714,0.15921865742064462,0.08481360386866854,0.06304294476014592,0.052641240255048426,0.02643438083125609,0.001656307108322633],[-0.005442292892413119,-0.002871931913799099,-4.882943692745468E-4,-1.3625292098513327E-4,2.2243325068860593E-5,4.085127018822187E-5,2.890654824210002E-5,3.76563358501659E-6,2.3074171030766164E-4,0.0018421564480335124],[9.259159428886733E-4,0.002041086412393464,0.004862143644352071,0.01637521734025601,0.02271250822918138,0.005449733567167779,-0.10463170776430636,-0.03465806554964625,0.16510228743442565,0.16669741284465547],[0.08918584647875819,0.04857109291066911,0.05340929423873773,0.03457163951911193,0.016600888287584558,0.025631278078405005,0.01908075354436049,0.013081897480614233,8.54154002763475E-4,-2.2541831387836993E-4],[5.350788388164202E-5,8.829161349660795E-5,1.679905256670226E-5,-2.062369494998586E-5,2.655744865970131E-5,2.31706149611025E-5,-2.8218340927514105E-5,-3.7590065216807267E-6,1.9918650651291994E-5,-5.4823008950332595E-5],[-7.102255065420804E-4,-0.01622523568510633,-0.04178516212039204,-0.10809802164999505,-0.10526936739585131,-0.01373220197472948,0.08925710263941816,0.13204001284653616,0.09664999784574213,0.0594707004550408],[0.07391585329992553,0.044170608187018484,0.0115034754233403,0.005197149609195237,0.012417012664179064,0.00839440213725287,-8.070832046659933E-5,-1.4910443232111904E-4,1.4173845561005187E-5,1.2226857387877456E-5],[2.7011490237568598E-5,1.1979714227030928E-5,2.5774703232307504E-5,-6.216048710318625E-7,1.913552883644051E-5,-4.296450062489511E-5,-5.14561366550654E-5,-1.6502527252504088E-4,-0.0038878509751073534,-0.00944826355538036],[-0.009533460844128643,-0.020233395445916,-0.006607890791939382,0.014427378668728882,0.042133547050105594,0.0636847639000351,0.05215026801198005,0.03487351459932302,0.021998965251338386,0.014603144303385114],[0.0043903356300133535,1.466337488036967E-4,4.1224799925566945E-4,1.3679929785046286E-4,1.1635944238565257E-4,-1.0617612959022322E-5,-3.342261341484779E-5,3.781466397842632E-5,2.0646494913868532E-5,5.107461330837384E-5],[0.0012744837004536283,-7.63792025342714E-6,0.006890914884399627,0.0018397930683594255,-2.36933526894008E-5,-1.5148691937961524E-4,-2.289569995603582E-4,-7.14605511644541E-4,4.159430387321558E-4,-1.4355571597810267E-4],[8.542178813402941E-6,-1.6313606812776418E-4,0.00232766991773063,0.005403732044685659,0.013929347458288452,0.007586973275098566,0.003126818719655318,0.0010497402814005953,4.945649387548344E-4,-1.365554828241907E-4],[0.005080838783675109,0.003286004452990769,3.17858241998039E-4,-1.6596878338143208E-4,0.003335771462028003,-6.3364714868565235E-6,7.28763905248405E-5,-0.013403219707420975,-5.039252436646462E-4,-5.477996516989815E-6],[0.001394685969481112,5.135569767149296E-6,-0.008767561538513005,-2.10629522863154E-6,3.588409442831321E-6,-0.019584848247899377,5.118628931021092E-6,-3.646185072799998E-6,1.022098408685827E-5,-7.128596587762946E-6],[1.1434240102596375E-4,9.869316822991127E-5,-1.728598317082898E-5,1.9101509412009106E-4,5.134300371742857E-5,2.0912416943140657E-5,-1.4744539842358905E-5,3.896023608840992E-5,3.455956777044134E-5,-1.8161415239427635E-5],[2.6722261511585003E-6,3.4718049999315494E-8,-3.555367134362432E-5,-4.344966106748087E-5,-0.004584092546916965,-0.002894302020937918,-1.893282832430538E-5,1.8927493524832004E-5,-5.207664728502029E-6,-3.947996465856421E-6],[2.3356060449415315E-5,-1.6560439965278725E-6,2.3852044292458408E-5,1.452405193369065E-5,6.333296709537138E-5,-3.829163392810823E-4,3.9936551243829047E-4,4.06270220279956E-4,3.8556117722046663E-4,0.0012252715422880849],[1.7258817462152416E-4,0.0010269621531724408,8.321108787628593E-4,8.548343384316913E-4,3.092824998448296E-4,2.960229225284117E-5,1.9819828739377953E-5,-3.451728073989598E-6,-3.846299179291725E-5,-3.2453062690437655E-5],[1.4949738133659382E-4,-2.24988327073347E-5,4.117867281344757E-5,-2.5355379438681213E-5,-0.006753058986217767,1.9166955567337225E-5,2.7774814171941802E-5,-7.55487302749992E-6,-1.4509314992909143E-5,-3.482832671283042E-5],[-2.5881507358643896E-5,-5.303978137615039E-4,-0.0015725694463941124,-0.0060594085064655115,-0.02116946218322855,-0.025711842442613746,-0.028142102101098763,-0.02407633309811696,-0.04003739202373858,-0.03285967566457862],[-0.019749021060726426,-0.010890913218463999,-0.005771078746126844,0.0022474600561060497,0.006645769451274974,0.004093804435151974,0.00546020398685404,0.0019572773684089243,0.0013698701501183418,5.153429834994807E-4],[-1.9848839842258157E-5,1.8144912496353544E-5,2.0974238979259317E-6,1.3552341278479521E-5,-2.5956454976039835E-5,-3.0058475971772245E-6,-4.01273523823228E-5,-1.0365369496767872E-4,-1.000304264498251E-4,-5.938987091063145E-5],[-0.005916019048744216,-0.023331694831374178,-0.04361084747790212,-0.04456663162712858,-0.04786201418136916,-0.08601325002923493,-0.10683956395923,-0.11464082318449538,-0.09644375986751307,-0.0833291756788396],[-0.04632744832731191,0.006807703260758216,0.019015443345679044,0.00523059780466483,0.00796941638890192,0.006014129336206541,-2.1078218180684237E-5,0.001223265183726885,-4.019084872001742E-5,-3.988497066501481E-5],[1.0254977940458518E-5,-7.458145155331497E-4,-6.437177185481002E-6,-2.59967811146467E-5,-1.6714682923450885E-4,-2.2485083101238284E-4,0.0012337168193454942,0.0013683119381714467,0.005689864234294356,9.145208553822976E-4],[-0.010194149920147343,-0.007420588014905406,-0.04309332454834301,-0.17127223019836876,-0.24930143900663096,-0.08832036903095529,-0.163773969496316,-0.007427634714033378,-0.016958896717819794,-0.0028404638024163466],[0.008020610826353919,0.005964794260073486,0.005060494347162907,0.0035353195696824543,0.00418197304109985,3.73562274786971E-5,1.8417891642432566E-5,-5.671852849687954E-5,1.7115911079896586E-5,2.6579899955911338E-5],[-3.5091631739720276E-5,-2.0293814513735849E-4,0.0016773807011354024,0.011831882199056393,0.02921784377818053,0.054621753222328734,0.0731992395078639,0.07016583671475243,0.14550782171171034,0.16788355520092854],[0.12935599521272953,-0.05687421457371211,-0.2823764301675684,-0.06852807446515337,0.21494721218935992,0.2148650131780934,-0.11371872116867167,-0.063493824588832,0.029503613815352624,0.02997633048058247],[0.015461205984055969,0.023456474842243738,0.012500608156817698,0.0018789622759702233,-6.348037814466461E-5,0.004454729041908612,0.0032407815201728803,1.8183534390263538E-4,2.733705892658571E-4,0.002472163200898958],[0.00954493899438358,0.027801787932469207,0.0985900278913819,0.13181293476961745,0.22263275829163276,0.21362736581949693,0.25853274124637765,0.043999593315226834,0.13635131742893777,0.1092208861517581],[-0.18326476426979268,0.475970296451139,0.3839772475899059,-0.022807956147371522,0.8525952288707932,0.04333504096495022,0.07171539674352352,0.033374330660638656,0.014178038784516829,0.029549317975362182],[0.027830383646996384,0.0059515093731993185,-1.4564846091790043E-4,-2.7762708742205735E-5,3.658780756905219E-4,1.1299809442558652E-4,3.6612519531944646E-4,0.005680616775347563,0.020895645778013484,0.0745002349431188],[0.1118436559137506,0.14974755081381086,0.15716756968519352,0.166765353523979,-0.08371815633364024,-0.14749205018956082,-0.11978513818878288,-0.06448337053218423,-0.1325528476100158,0.49387573751956826],[0.6584653691999666,0.431753993400048,0.3340375046068576,0.19995857110841367,0.23781376935436216,-0.012789129387367601,-0.03506452229757836,0.0026953892138166513,0.01755546659300735,0.012209885612230478],[-6.278327017695501E-4,-5.191810162901711E-5,-0.0014926478706572064,-1.6363127779131715E-4,3.531640401677548E-4,0.007994089005750205,0.043234969756442566,0.1002288450769366,0.12868312367270135,0.15932506162263216],[0.04455565615409969,-0.23137046697391336,-0.33112340873257967,-0.26762953332793854,0.23108079927423364,0.5217550760384099,0.6658171731827192,0.1799711474349521,0.29296914609822555,0.24831236601254839],[0.42634057093643357,0.40156363639694975,0.19944353435759077,-0.06305107407910444,-0.17427590361979078,-0.04190148308377142,0.0016064026199392044,0.0057793342601269405,8.919389355292209E-4,4.866578759950274E-5],[-4.277266067866676E-5,-3.23006868668508E-5,0.012201791197679692,0.02256590282861571,0.07154955222172221,0.10122936625574645,0.11945692198609495,0.05251954609711055,-0.16461757145063477,-0.29068382310471214],[-0.20242464842019117,-0.19526066236102047,-0.04382164817468679,0.5239365403767458,1.0059133865475933,0.7757262081184703,0.37251672477099373,0.42821890744646746,0.37568538890782827,0.27878344313094977],[0.3140612598935103,-0.18677033257444653,-0.21899159098767051,-0.07098653355965577,-0.013712127384987921,-1.976147816373904E-4,-4.702301098323658E-4,-5.041526456007207E-4,9.214277387228235E-5,0.0031827190618899334],[0.01794191143826481,0.019906256509623507,0.07738837810617437,0.09028998396345651,0.06470083358024795,-0.0615500524258934,-0.28674397734162305,-0.3082804417904047,-0.12601568732083354,-0.11306163220127607],[0.4881521378509665,0.5391558686354057,0.18715476520106528,0.312094534572847,0.2071804172142074,0.24067617778130881,0.40148632939596646,0.2578174997459416,-0.2710015688203868,-0.032025090375005776],[-0.17442725580821605,-0.07665322863466419,-0.013390019289018897,-3.7488943302965656E-4,-4.237406306700721E-4,-6.186639198797765E-4,0.0010050881310099489,0.004634462480305721,0.011996388662419318,0.024554521617065776],[0.04517384776320863,0.06721338782080571,0.01505131145436352,-0.127668706422918,-0.2382335525469915,-0.09361024722563177,-0.08911480493314665,0.14951535416608677,0.7806615780331839,0.4663245480573788],[0.22347026267831963,0.21058883141834248,0.0847894847173743,-0.008815683556189865,0.0017085153779628874,-0.35341567816551633,0.7943200359698132,0.10971288419914799,-0.16582263544408582,-0.12902742134683867],[-0.026984260643904474,-2.6753475598204784E-4,-2.7371517329953702E-5,7.303131824695285E-4,-0.001196990871516099,9.168411858094291E-5,0.01073971457682138,0.015980913650677834,0.030685435097467226,0.03809597675475473],[-0.04120974209630215,-0.15668249108806884,-0.1072456441004384,-0.09204285859849726,0.042222872030100514,0.5930911630194927,0.6412935006044063,0.47937672632980666,0.2586816901656619,-0.012784727770735516],[0.5509690847416211,-0.3095434673466716,-0.18482372931214303,0.20685881899892958,0.774384516945324,-0.009068555663141395,-0.24739217222421764,-0.16498084914517525,-0.04172529997724145,0.0011211423348429664],[9.71784883203614E-5,0.0018262735558231072,-0.009465370798210467,3.617794579010387E-5,0.005187066373744333,0.011163776069196723,0.01223709520096158,0.008051736469074004,-0.08664301997588676,-0.11394807963567881],[-0.034749175790016455,-0.01228114913927656,0.5255086902068787,0.7716462028309176,0.4269131500784677,0.39674280712079985,0.04186219397917142,0.1283302299108087,0.80128525369231,-0.7248320636214924],[-0.5361248948986624,-0.48518056274358085,0.27176390331622036,-0.011692617863139021,-0.19397335149720896,-0.19794892440712702,-0.05807456585643699,0.0014689643923356962,4.0304300450963925E-4,-7.639279070608743E-6],[-2.9370826485394337E-6,-1.3673115846680358E-4,0.0042490952347085395,0.008149500033077375,0.011145844175465455,-0.02057677210145464,-0.09399141394426475,-0.04725564241515106,0.11546953211333834,0.15738843980143655],[0.6015016625073144,0.5071694751461878,0.26182298604037724,0.09782998790854289,-0.5520486307301159,0.3513942965912033,-0.662208385870973,-0.5809669893139622,0.7034844411640194,0.7954853482757656],[0.22224014910029913,0.010592087279760617,-0.24098863703825504,-0.24001511909737938,-0.07193123989483487,0.0011475688926595746,-3.319874165103313E-4,-2.1301805740403788E-5,-4.254598941975701E-6,-4.708133365938386E-5],[0.0013380491871523691,0.0022327968345580546,0.004524811035969324,-0.045555746102085334,-0.11811924758152072,0.06503204235957137,0.1408837688666744,0.3516487698001081,0.19359397971240463,0.15023240009316585],[0.12980964839124615,-0.6650321409876115,-0.9929275387890358,-0.30904083922275405,-0.5921793863553383,0.1048389571822254,1.0051063065338994,1.1111292418269945,0.6601179140019587,-0.026711987142975444],[-0.23242579237799427,-0.21489103878424676,-0.0691564894423577,-2.3882550068394978E-4,-0.0021231626301584324,3.2722684486250994E-5,-8.931113610458473E-4,1.127976128815347E-5,2.2344960992266525E-5,6.499335301788111E-4],[0.0020966105281891023,-0.07269300434537852,-0.12850938832792352,0.032957510047202605,0.23061753843200875,0.3017541972175466,0.22259129422312487,0.08487253265389928,-0.2502733875178608,-0.1162271421540332],[-0.22022046316733304,-0.6226853558492125,-0.1584219379479535,0.5347461353678407,0.9289658855543782,0.4993250730183936,0.26537363241302436,-0.03800099380098963,-0.23602299356315168,-0.16239509287069664],[-0.05787233355065549,-0.002427354044902882,-0.003822958193381615,1.8142676837189353E-5,-2.2477488381863805E-5,8.207021045599621E-6,3.636324731227653E-5,2.4050804828766307E-4,-0.0018783863076213786,-0.059321145389456174],[-0.07213116969638637,0.03304825787494088,0.15210387897440827,-0.004992470307707531,-0.035482919693442534,-0.31152267363234987,-0.2379911635129983,-0.9990817503980436,-0.6609366799669535,-0.5299854193196456],[-0.11150674651571817,0.6372947898936359,0.33053339578181207,0.39524041013841005,0.5331426577313096,-0.02543707592500862,-0.1392569523704686,-0.12165150698149838,-0.03273121023973898,-0.00658331651887626],[-0.003573849792607803,-1.679895957970119E-5,2.5844556399853937E-5,1.0387586523811696E-4,3.802744683423226E-4,-4.35741248945246E-5,-0.0012829004702359708,-0.005944143265409328,0.010653368150845222,-0.008963055959895775],[0.050977298463672764,-0.09489485145370574,-0.21853010493766842,-0.31666140261545656,-0.9674485619680586,-0.7077930988774825,-0.8900322313999697,-0.15714480027533717,-0.07139722466841031,0.06381962221460609],[0.6147543788792984,0.6397852391155039,0.0566383473817294,6.668319469513143E-4,-0.10534725588842306,-0.05742158579972081,-0.017634640019000922,-0.0035700035216380613,-5.171198442031817E-4,-2.1758467193598455E-5],[1.3440163737174833E-5,0.0022171334482951983,0.0017813152848184831,9.649357250520338E-4,0.01612122018480226,0.018819314998203034,0.12962667555582702,0.054097396113726076,0.07858925446610282,-0.014255391174058803],[-0.30269864532103913,-0.6395127728380087,-0.5439488108357793,-0.7074883579510732,-0.873409241537684,-0.20258739927566102,-0.2468532234060014,-0.1435344853046936,0.06123490127894871,0.06881972984927189],[0.0711868532617357,-0.06027607480363218,-0.04170719492627015,-0.009979970950139166,-0.0019119218298343328,-0.002379277364372601,2.2427636854897528E-4,-1.118643561938504E-5,-1.9073421900943013E-5,0.002228458984410251],[0.002365422980292457,0.0029875093291017395,0.03288811992048602,0.0657956413214395,0.09360453444239872,0.14003241371844893,0.06651257021380395,-0.0063579209607162734,-0.313052628823031,-0.16897570016184296],[-0.47820291550219174,0.19653963615861184,-0.6777675465869173,0.6691252412992651,-0.377357416714467,0.7325720975424048,-0.15357417318609382,0.3130737264827397,0.048815231156855016,-0.03128054588721343],[-0.014652544317603433,0.004217701655875434,-0.001441894997091801,-0.002323083094347057,-3.9259240807764244E-5,3.281188857553756E-4,2.846680524776629E-5,3.244609329826268E-4,0.004484051487453644,0.0019863050043150065],[0.026943541475398132,0.12043790506230588,0.22617665824633698,0.2736949184850072,0.35055263570644424,0.15825983170178579,-0.06343391386370009,-0.5938240230108975,-0.7928138491622662,0.7557142177658811],[0.2808931863695795,0.07783684588747365,0.1764450831284994,0.5230699441709009,0.11808189750412715,0.23634740794870954,0.05075108331980441,-0.014301991077493411,-0.0022287996195894987,-0.0011474025576235732],[-0.005950732894094443,-0.0023107960324696983,1.5410404871193074E-4,3.735411697661933E-4,-1.8275320811090846E-4,7.6037202557856654E-6,0.002349656245853436,0.003339313725666661,0.00564554413167931,0.08090700126141],[0.19238263044491352,0.38963742039633487,0.5640858424374249,0.017803998564504327,-0.39746595456715567,1.2222067062363282,0.07262670972875628,0.542186439633677,0.3012253928702172,0.3510734820815263],[0.38244690523399033,0.17893136206014457,0.14456207019348882,0.0470945147321294,-0.002435192194883433,-0.008472161319648267,-0.006881400834106641,-0.005937184218404868,-0.0028860460219928626,8.590853596477018E-5],[-7.081943780613688E-5,-4.652500192945791E-5,-4.9974654238602226E-6,1.1926752725872444E-5,0.0011297806257379328,0.00480044862241301,0.004693764844689621,0.01265080038637735,0.05288398845038624,0.1280247969461325],[0.27828863551009425,0.3305849454114292,0.4240411319949089,0.8421947890831237,0.4265580026684732,0.35567040063569705,0.3597182639149608,0.2513897650684433,0.11666331953417991,0.08658687615427879],[0.06307838227779222,0.04211689197143775,0.03442948909332019,5.116998571143849E-4,-0.005474707380632025,-0.0014251378668800763,-0.002188316410211615,-5.03163263205657E-7,-1.1392214852378664E-5,2.4188588023608487E-5],[8.922888892150054E-4,4.745375557917799E-6,3.2540398618774013E-4,0.0018304018034820983,9.329172105772652E-4,0.002143885316418346,0.004585177470986381,0.014969256517774523,0.022547292510175374,0.007724099409552087],[-0.10910615608909197,0.04478864529927126,0.10621364536619957,0.13200090876226941,0.0905451535169716,0.0718567356213763,0.05282362981834348,0.031188045586456433,0.021509007697269954,0.02052914702959387],[0.02227973008922958,0.016626305763055366,0.0016147579995551466,-2.341952494102453E-4,-1.264825238290035E-5,9.605759006142705E-5,1.4301914389609763E-5,-0.006074170918291669,3.052436037405139E-6,1.7393219165358057E-5],[-1.0207828040990015E-6,8.700798772242981E-4,3.868530506418141E-5,-6.341723384337569E-5,-7.739933901611522E-4,-0.01593350825650308,-0.0494964730918926,-0.09119209217051677,-0.10041667488888638,-0.013161794495294797],[0.08112830482150388,0.13343125221184682,0.1002539800841227,0.05247384060392685,0.06992505306351418,0.03344688997930383,0.011199950701677923,0.005010771187262985,0.006687726965535929,0.0034153066516292878],[-1.628381136201013E-4,-9.153727851491975E-5,3.5796944635896083E-7,1.694938170337237E-5,1.7768588044799056E-5,2.3603485423415394E-4,3.223078970803268E-5,4.98115186878946E-5,1.89883308581216E-5,-5.4023661284056554E-5],[-5.153961257259924E-5,-1.4688459059298078E-4,-0.0014730708570833053,-0.01531197245723101,-0.009317732818919294,-0.015054166185790977,-0.006041795162155138,0.014377664673275455,0.04147725513562401,0.054707186500519034],[0.048284803883072915,0.04381884268116495,0.04357960395091998,0.02751344584385155,0.002841517776880321,0.0010446825849970154,4.0826121230582216E-4,2.3053713484708175E-4,1.391752443459344E-4,-1.7870710961542558E-5],[-1.711542224175043E-5,1.658305311762639E-5,5.603712844261325E-6,-0.0077298727709123344,0.01172135678467617,-0.006305170960593273,-1.9939241393991262E-6,-0.0045743112826699215,-4.746841812409234E-6,1.0032889817490566E-5],[-2.3523483905129407E-4,-6.174302920889817E-4,5.388931593981858E-6,1.5232516138565248E-4,-1.352560250916613E-4,-2.1254330216806936E-4,-7.484830165706695E-4,-7.782078161158906E-4,0.013256342034771969,0.005181081074447118],[0.002369272434970171,0.0011085154052201916,0.004094985180213306,2.0401436988286848E-5,1.0477933345752656E-5,7.741404401435708E-4,0.007698299250345735,-1.6430317069953077E-4,-9.85192219182504E-4,4.083459861330916E-6],[7.353464119707828E-5,-0.005731079648956642,0.003202440603080994,-1.6071109836736185E-5,7.081162339573488E-7,7.180935036806036E-6,8.547603669089408E-6,-4.0069405875827134E-6,0.0015434071722438825,1.0227509472255259E-5],[-2.4207201005705262E-5,-8.48744604573938E-6,4.258339817926915E-5,-9.06169411166894E-6,3.836148554134944E-5,4.827693462185149E-6,2.719670075390966E-4,3.07426816141609E-4,1.0197771183971909E-4,2.41659829774313E-5],[-8.774199091747077E-6,3.420175163134458E-5,2.8468098314222675E-5,-2.2403761809349797E-5,4.9892994008616275E-6,-2.90186673183583E-9,-3.514645913199179E-5,-4.53259285858066E-5,-3.662681764856324E-5,0.003482269420916317],[-1.9978709085172778E-5,-4.380583948962124E-6,-6.400540513256701E-6,6.069442135861244E-6,-4.6477214118909095E-6,1.4768239566702123E-5,-1.90368659707409E-5,1.430513337078682E-5,-4.802776597719875E-5,-4.13151697285999E-4],[5.163388566015761E-4,4.0516931682961163E-4,8.637345175581045E-4,0.0010620939642391543,-0.0024561056613919435,-0.0032816860020220234,-6.836423925525164E-4,5.608729174119433E-4,3.161932865142884E-4,6.149171897556972E-5],[-1.3518591354543506E-4,-3.021703737168006E-5,-1.8196233390700012E-5,-3.081506960905299E-5,1.5099541958035133E-4,-3.097150182040516E-5,4.408190333517904E-5,-3.0965418164721565E-5,-8.277616247251242E-6,2.1191348986888454E-5],[-1.3663077359916434E-5,-8.448256341723384E-6,-9.160129062275038E-6,-3.878147951611249E-5,-2.5631218528420588E-5,-5.030755309340275E-4,-0.0015065103310111785,-0.006094011270545445,-0.016660973784314564,-0.021678056379095378],[-0.009943128480741604,-0.024073148805559646,-0.04042686565271936,-0.03316598380508166,-0.025272739204296322,-0.00358433310341001,-0.01194236065266408,0.0023068088510011958,0.004283004989671246,0.004167877517200842],[0.005197256003415774,0.0019021770320402302,0.001375595024076365,5.080573187264864E-4,-1.8205503245440745E-5,3.8151387486960515E-5,0.005524989818833775,-1.558602718017319E-5,-2.41747313718716E-5,-3.72723541434334E-6],[-4.009958043444552E-5,-5.8856083277040015E-5,-5.065450012498527E-5,-6.958016896092519E-5,-0.0017399540519128797,-0.016291196252138894,-0.04450572971353357,-0.04190820108668196,-0.047888334687610445,-0.08623869203753567],[-0.10720409721126586,-0.17147947694955545,-0.09673749804940304,-0.08218543347423499,-0.03928312725670759,0.01278169486192168,0.012568976451055841,0.005166738789810674,0.006331243000246185,0.005974460554146085],[0.002636796462919559,8.43189800037244E-4,-4.16972567966282E-5,0.013526811226938261,2.3231453098310785E-5,3.6824028904009437E-6,-6.290896736654771E-6,-5.371587708757395E-5,-1.4670895831642226E-4,-1.7815694698192035E-4],[0.0012353292250080093,0.003441910254496224,0.005249257757335413,-0.0018848441396781264,-0.008654368812481788,-0.012075189595158643,-0.04521549151646571,-0.1414729494492085,-0.21691578485241425,-0.24573702952784326],[-0.12723150229473584,-0.06622529357174448,-0.02444747991051152,0.0027416826314371626,0.005164680217998626,0.008592863698586507,0.004934888608569153,0.002630690093756766,0.004222031041402271,3.083557053142204E-5],[-8.347899200284226E-6,-0.008493419237522426,7.917289089592763E-6,-4.736810538378442E-6,-6.5196062358865945E-6,-1.2922421028693567E-4,0.0037562468460245737,0.01179717984686795,0.02278521664229457,0.046118853597395454],[0.08278186723100014,0.1269821062514723,0.12216772135272741,0.17045720773760992,0.09718282097979798,-0.2052344489647716,-0.18993940091038627,-0.07606676254247674,0.2451790763631577,0.006526429416098952],[-0.13964298991750654,-0.046312374426465415,0.04065981275905541,0.038863839384805525,0.02352245956008251,0.024158754989575947,0.009600989718268817,7.091657870227537E-4,1.8678040794264017E-5,-0.0032000734019993174],[-1.5254389461047329E-5,1.8339986470398994E-4,3.341705443292678E-4,0.0029226154448813756,0.010070362483236908,0.03301238552934861,0.0859882461261492,0.13121941561437026,0.20764357647329448,0.2435922100220589],[0.23363643428287262,0.334898661325695,0.517384378037306,0.22320076257939475,0.18390763547806444,0.2277550786247599,0.5128506396595472,0.12849355674168023,-0.012472653400342738,0.4206414023313068],[0.0653086845505406,0.036269282342202176,0.014903812836420553,0.029631354923657788,0.02929140666500331,0.007528375684264286,-3.8536685818385503E-4,-0.0023478544896663057,-9.509487085915404E-7,1.3270203844406285E-4],[3.4583046786703536E-4,0.008410996419017082,0.02273737450934506,0.05707826077457921,0.1300817385128071,0.18023024558910922,0.1893369930863601,0.10064306842010894,-0.006352885241607243,-0.13409977043711496],[-0.1868559599988343,-0.19129617494287285,-0.10257298680513519,0.429845727804062,0.2407142225689044,0.45391728378844454,0.3492748207988975,0.2737905160417915,0.19370077153828139,-5.8683361744894585E-5],[-0.05280273549364252,0.0024485448356909674,0.020707457425878654,0.011954212662672013,-9.337725176304104E-4,6.4748915674749E-5,0.007135524292459993,-3.1757525405009255E-5,5.57298085684148E-4,0.00954114487594874],[0.06260014491879078,0.09462751417362304,0.1270761556189991,0.15736541860832068,0.035993079968465874,-0.1981205741799074,-0.19428902677909088,-0.3170559913537695,-0.12751844492173206,0.11626221794588099],[0.08942788336611747,0.658985081748146,0.301693888547359,0.46828639956293316,0.6005357367065337,0.5701524950621909,0.3146361739263488,-0.11202592414694575,-0.15987210004759123,-0.05595851233468832],[0.0020664388253139247,0.005640898120404628,8.902018073047921E-4,3.988407043137184E-5,-0.005732341192080413,4.514481778416308E-4,0.012351354314938731,0.02299159803558646,0.08263903932553114,0.11754110661555635],[0.11970730184233597,0.05547317231851388,-0.1610195289770837,-0.368397262567169,0.11406195570214593,0.14649663222116627,0.3191597741110607,0.8003148134332464,0.3441444195882575,0.7685920992184742],[0.5438716087996346,0.40709532325822456,0.4827439137183364,0.6308973717713466,-0.16624945507483654,-0.2854188353368968,-0.2039479911598447,-0.08624272069536328,-0.013586065731587445,-1.2231640533558392E-4],[-4.5979651590148467E-4,-0.010406378225897761,1.1584090206854156E-5,0.0031993052750309585,0.020620845226907117,0.02082051859147368,0.06265118652053572,0.08055340631809894,0.06951005019920335,-0.06506968776898873],[-0.26839152755650303,-0.19825135148034445,-0.09521162420098679,-0.09016279080792691,0.2132147974127293,0.6639928291627909,0.1736007829587419,0.28115166142738707,0.20701020114538005,0.3751160134059189],[0.2044206387100534,0.07139927205134337,-0.21981374550767255,0.20975030621389776,-0.17266691474478252,-0.07313741257713091,-0.012046392902869418,-1.274687376760261E-4,-9.565507617079097E-5,-6.17834809678197E-4],[0.0010077195993905485,0.004654091523492979,0.012071788250394245,0.02411530738836757,0.05768682198449365,0.0723881389488585,0.01525758104147552,-0.137840504055569,-0.20127725939010613,-0.20268727502765296],[-0.047699322223974744,0.3001363108911666,0.24766265745985377,0.43961312040589945,0.20757669598181,0.21464691273316475,0.08728170165093602,-0.023084622428495037,-0.10186146086077909,0.7396186202837305],[-0.31601753520452197,0.22310406832439766,-0.16939053955097957,-0.13428196210302637,-0.02700003660887207,5.024295588252173E-4,1.5974283275065415E-4,-1.9273442938675737E-4,2.9728491941019856E-4,0.001943662235288437],[0.01010380815893288,0.016057568708283034,0.021459284400247764,0.04117083594587434,-0.040361611963749,-0.15938153420187345,-0.12541769680358963,-0.0943903263316537,0.024672594404452897,0.44026676561779116],[0.761282761248175,0.4349946174595387,0.2768119022775682,0.09439747771135443,-0.22226955867290582,-0.3275279669648862,-0.6386942981678697,0.33802770349163047,0.0704840922353826,0.07724366209450341],[-0.21810232849912795,-0.16900978714359458,-0.032622150388265284,0.0019769627671212377,2.2679748966579372E-4,0.004781509411804771,0.0022944472474408727,5.509895304425088E-5,0.0051584659409805835,0.011062757380547286],[0.013549012712350579,0.007955732119623703,-0.08794552567245531,-0.12733083709817397,-0.0016715662302355773,0.3267371510170947,0.32528059300296597,0.7220921304647635,0.45621558387832695,0.38142914187973226],[-0.055348353443593304,0.2121022414773742,0.6399024613105452,0.7114157474100746,0.00182664931083053,0.29768328576209974,-0.1677403148539244,0.1480995582712061,-0.24446494621886808,-0.19857454911543762],[-0.04973048213318268,0.0010381332223385908,5.286112201953453E-4,-6.913670837301893E-6,0.004356986029475241,-1.1347944495778567E-4,0.004150901275705915,0.00815938338449538,0.010627534152364301,-0.02162928069343942],[-0.12365633527034221,-0.03035325810095707,0.09189473774815347,0.4397201304927779,0.5248528002840325,0.47708568561193704,0.27426809187726703,0.07087936759259346,-0.618507278091326,-0.317829863629762],[0.3380668774229284,1.4994611151671686,0.7861331232076614,0.46064818672739116,0.7045819087593328,-0.02781611049442835,-0.2164546771985398,-0.2175207198872767,-0.07734547041807155,6.277010159779948E-4],[-4.099989147591903E-4,0.006083958929244941,5.636074936743478E-6,1.784576150557051E-5,0.0014486177215606623,0.0021356472840805035,0.004738844118540425,-0.045851661632471744,-0.08696846069504344,0.013155494791071866],[0.18089526311567716,0.36418172309904223,0.4688099026813375,0.2864153681310121,0.14057363538019896,0.042688238209791195,-0.9713526179850946,0.02647556806330415,-0.6845074764636249,1.3445872706039164],[1.1916041178485524,0.9596674364008513,0.14815126886252902,-0.001336634857240848,-0.2500788758050739,-0.2270554331972295,-0.07147413622310722,-1.5970216250009377E-4,-0.002125549462464135,3.226605145963106E-5],[-1.3282302605642047E-6,1.3127666753314745E-5,2.1882538335965684E-5,6.61517048014765E-4,0.002008755899205182,-0.05168659974726642,-0.15360028955496904,0.15624618959660272,0.21790431024125997,0.4288429606809721],[0.2739144159838549,0.05786415171412329,-0.28134984400230606,-0.10756226844002845,-1.2808621749058808,-0.5673547894020445,0.20058645738348924,0.5254151075945487,0.6313862608713577,0.9892227841449781],[0.4805100581203203,-0.031028408727957306,-0.2103744222107912,-0.17732620507546748,-0.0388361026870267,-0.002760279581912509,-0.003813244335726675,2.0573935088645425E-6,-0.0011779951175524656,-3.0882194230851055E-5],[5.6682752129969116E-5,2.561591884358439E-4,-0.001844324326879194,-0.03510480602566899,-0.05080869038197331,0.030095525613983903,0.15841468668710668,0.03664824216413757,-0.039936754577402644,-0.34183036569486824],[-0.191181051415173,-1.108066722661782,-0.5360810788428317,-0.26829986786969207,-0.10959235979430078,0.8049613838305685,0.8780217499201765,0.3569831323131925,0.1298592378779322,-0.04840877723977504],[-0.14420621056896252,-0.11710705442048751,-0.03238263770076072,-0.006539443512213201,-0.003402539710384158,3.710770314700602E-5,0.011957648765182748,1.0394685724762E-4,3.5273896181051834E-4,4.1925989990697956E-5],[-6.980069127552342E-4,-0.016393312851836556,0.007583137689615507,0.14996371387012805,0.056143456655740887,0.07523994412226098,-0.2784982200343413,-0.49292375456303184,-0.4993632839540115,-0.9248126290126382],[-0.8672489898883163,-0.14833668596037852,0.4873569544040488,0.8275436843128215,0.25695329147645773,-0.013747795839077221,0.10351971509352242,0.02494098339048509,-0.10093551897035348,-0.059772385607093685],[-0.013819261769601535,-0.003683500619320637,2.3040452181215671E-4,2.2950098482021338E-5,-1.0881342519965346E-5,0.0022230467219152244,0.0018472154183167583,9.494221161730914E-4,0.018194490846996998,0.016191277557410344],[0.13960662887654007,0.06282754497321007,0.02656866402621882,0.05189902348166221,-0.15361061328189585,-0.6564910422038436,-1.0017082452653048,-0.44656671081337473,-0.8165414359430846,-0.006963095237012389],[0.9547752320446903,-0.3688061311069379,-0.0036718571636965894,0.06942396656248923,0.08920243071212419,-0.06140080878546484,-0.041622839242347394,-0.012125735099543808,-0.002292297404432911,-0.002384600634330294],[2.0076378197411612E-4,0.0015574038624170347,0.0066084185128971705,0.002365602398032534,0.0024239782504305806,0.005196493733805896,0.043788031468658624,0.057654116506312594,0.15407250270510903,0.18137971213871265],[0.15893380736307086,-0.08257346549079572,-0.07684142675067177,-0.3190587358179253,-0.8417839733878741,-0.9696921419302521,-0.7298860579201213,-0.5478828339214941,-0.33801394343855684,-0.02521051894919467],[0.3061559250301983,0.3586369987304095,0.06071505302244436,-0.03419774873579008,-0.010108935040580453,0.005588103992497725,-0.0012297932311755857,-0.00232598115319439,-5.357455078136329E-5,1.706453532118174E-4],[2.604066144119816E-5,5.330000928240157E-4,0.004452485619038717,0.002258559885250346,0.03585686836150869,0.11499162526120335,0.2564140459353966,0.25894866311119985,0.20960192513543036,-0.12018865748672598],[-0.17090680674615794,0.16329516259899413,-0.8861704825886071,-0.14810928845421245,-0.6748432383321146,0.5102849111987077,0.1439189474442522,0.379945000769755,0.38706575077033023,0.0706055021719153],[-0.02082722427293316,-0.019350540080927858,-0.0022702443610268376,-8.5556959822343E-4,-0.005010685210983374,-0.0023044783482235906,4.126818667411105E-6,3.687295312491481E-4,2.496957135786266E-5,1.1105916961729473E-4],[0.0024644992288409425,0.0033682902544370638,0.01012184266770098,0.06148766124002234,0.19595794013903872,0.36178420014397966,0.6186879154270594,0.7375862221820142,-0.26707661538046223,-0.8843989674562948],[0.5606782905840576,0.270421012497206,0.5816674770275284,0.38537927054292415,0.27423857115824696,0.2651572546193088,0.13650009737476765,0.0729607771859843,0.008567234153324325,-0.00921911069136957],[-0.007154037185379268,-0.004926611552688642,-0.002875276366409559,-1.8268411449448964E-4,-4.8604579080550355E-5,-0.002701348450519379,-0.009823393753138482,8.956941978100136E-6,0.0011193430494436728,0.0048851925704433965],[0.004591203485202132,0.009391987035661615,0.052848053342851094,0.13069278165834478,0.19000357608614307,0.26217856138865714,0.2708856981027689,0.2159608493327082,0.5822948199319926,0.42277052536419535],[0.37148084245343477,0.16911395880276894,0.19849747962220865,0.05993064178189884,0.07630093181976831,0.05177858671226418,0.03732877209741936,0.003005010205818956,-0.00567397427606052,-0.003890522529359761],[-4.710023430361141E-4,-1.2508825563185267E-6,2.6519373940430173E-5,3.104067689871726E-4,0.0014509803925034511,2.6790973569252793E-5,2.3067366721875386E-4,0.001729153871657891,9.075799420228716E-4,0.002014939909334507],[0.0046700171913262745,0.010160241655345506,0.0219731943146531,0.0034330881085673547,-0.09285134595894912,0.06695124581183737,0.14374114959202539,0.21758807692782464,0.12977497138415325,0.07372579719303646],[0.052066913030016856,0.03341275070500015,0.01903619507998913,0.017870376778222598,0.023409906237899496,0.013437109454195892,0.00242699109919364,-4.1430548137919964E-4,6.777816186294651E-5,9.667058882106095E-5],[3.0019226963992737E-5,0.005804713526988713,-1.1625143752337438E-5,-7.984424008686948E-6,2.1510590698495335E-5,1.6535925394104834E-5,4.285643024210651E-6,-4.713764745184334E-5,-0.0010960916212988383,-0.015755468774723533],[-0.05397110190011442,-0.10459930535685764,-0.09311069265591122,-0.013844382926999792,0.07471794290189933,0.15321147452001188,0.09382683360675505,0.07664775730362607,0.06105269942933061,0.04503256034883673],[0.01144216015656752,0.004507089013993909,0.006470494625488169,0.005552538083283279,9.62901987875607E-6,9.575296807961427E-4,0.0014914297370629142,1.7780461525612977E-5,-6.003735865585927E-6,7.158272639843068E-6],[2.2438964486472433E-5,5.7239495430434726E-5,1.8899224418929163E-5,1.0222477330457271E-4,-5.121428704711526E-5,-1.6684706983145683E-4,-0.0020613997275589816,-0.010351282351107405,-0.011344596936450102,-0.014932392008973673],[-0.010479659350996937,0.014021964218117529,0.04102705214557315,0.05394811782178149,0.04748418543125397,0.03628459120305096,0.032739111849736824,0.018487504910842837,0.0021757879915185064,1.794934454527605E-4],[4.0190132950366955E-4,1.6278370109627137E-4,1.5796135574966215E-4,-1.5769672113472317E-5,-3.3819952820699215E-5,1.592616565196954E-5,1.805566886541382E-5,4.553263021689383E-5,2.58492323909615E-6,1.4983577358800057E-5],[-2.260799372621006E-6,-8.736412005559205E-6,-3.442998654257062E-4,-1.4764703426779373E-4,-2.5526718949233696E-4,-7.222398840986274E-4,6.365154352279686E-5,1.9170778948502266E-6,-1.3044332139653254E-4,-1.5372588537779634E-4],[-2.8348409799753676E-4,0.005267499380154132,0.00904041201057464,0.007109037121667611,0.005791289362197702,0.0011053207869096532,0.0020631657921176367,6.100494437376579E-5,-0.001085757336421883,2.6298194990393456E-4],[3.221272917546974E-4,-1.6340632904145278E-4,-8.691368282328885E-6,-7.124543501037746E-5,7.669074573403511E-5,0.01923170321516736,-0.007996050500410272,0.004754401214088794,0.002490809457319564,-9.626394208315146E-7],[-6.325419582057305E-6,7.573602721679179E-4,0.003966504918641136,1.826074527117978E-6,1.5036666890056466E-6,-1.8165528660710694E-5,-6.467234715626183E-4,1.9054094762638773E-5,2.2527469554092477E-4,-5.469693147829876E-6],[2.844440684750563E-4,2.9191750335190794E-4,0.0015544532550966481,1.7790063916678866E-5,7.916898652736195E-4,2.7246792975487733E-5,3.461913960134467E-5,-2.2147234044950693E-5,-0.0013144599206760125,0.0013797804556181558],[-3.1671893922288984E-5,-3.872054728842021E-5,-3.4618581008845445E-5,0.022370025766599876,3.401268241142344E-5,-2.2857775303552693E-5,2.9871476332747418E-5,3.3402472827755095E-6,-6.746199432817306E-6,1.5943567951713494E-5],[-4.5433178299171295E-6,5.1053526832647413E-5,-4.198984461861308E-5,-3.7134696508213453E-4,3.368137085610936E-4,4.256773747421561E-4,4.937940115893858E-4,7.062613409593852E-4,6.181424870502102E-4,5.972030909195556E-4],[9.524084200099907E-4,7.036899586044729E-4,3.2220506095695487E-4,2.8070794891929725E-5,2.033302139238122E-4,-5.512222754554082E-5,-9.524701566773912E-6,-3.495420310033573E-5,1.6310308484420808E-4,-3.124182810067435E-5],[4.150867565789119E-5,-3.988339065395803E-5,2.340863905923083E-5,-1.8287111835444344E-5,2.140504195128026E-5,-7.728581256770029E-6,-1.0128498409530002E-5,-3.852073621568621E-5,-2.35833346944336E-5,-4.8671073872196354E-4],[-0.0014702019050943482,-0.005876242893640702,-0.015301856295310307,-0.022750132208350708,-0.009923423183498647,-0.024035260001456747,-0.03973102103247407,-0.03219043433565229,-0.019687196087133683,-0.003646986495269108],[-0.005355470140408221,0.002174038659346721,0.0036755747919036373,0.0015503566934847166,0.005440908046223731,0.0018925292040393757,0.001366430446480564,5.183866295193904E-4,-1.6258188902325266E-5,2.5771363834831127E-5],[-5.385747548666612E-6,-4.971157540716645E-6,-2.0645363855716498E-5,-2.9360386606172223E-6,-3.757455933042693E-5,7.665112689691993E-5,-2.15118748104808E-4,6.607965889394925E-5,-0.0017904430309606592,-0.02375053826508622],[-0.041332426985305634,-0.04478775047994298,-0.049930742178764025,-0.08490167512748217,-0.10619150835864502,-0.10108724450901516,-0.09197917793945622,-0.057766673385228874,-0.04288015846003353,0.0034957745356687807],[0.011111295869436285,0.007352096187400797,0.006390204026331709,0.005916606965603324,0.0028072728595631147,8.266567295119852E-4,-1.7045333558539537E-5,-7.277144292224541E-6,0.0032636174934163103,4.688416725207932E-6],[-5.907933515211966E-6,-4.0595994799977664E-5,-1.4070715652990867E-4,-2.682046140690663E-4,0.001221524434705911,0.0033968804618506325,8.982689897350523E-4,0.0016949381360752862,-0.01001206552232932,-0.00823315650167332],[-0.04373769327061494,-0.15415531344969352,-0.20766338126642306,-0.2364688998315373,-0.056508656400265464,-0.006320264994907886,-0.017776719601543766,-0.0033602469111859838,0.005674918126573795,0.006707933020791462],[0.004007767868224857,0.0034113136904855255,0.001113497463209478,4.351140475773594E-5,-8.90828384270315E-5,-5.846345389613853E-5,-0.0022170252907234606,2.533225898729844E-6,-2.0513265040347794E-5,4.512611484393312E-4],[0.002744977945496558,0.010667010166088326,0.034297324151806786,0.05165203066272642,0.07867334878061837,0.12296537516511406,0.13854054536856975,0.1219969039608995,-0.008448173561734985,-0.06397014309688244],[0.21998987452903768,-0.08046132039204901,0.07025143222602302,-0.013665542455434922,-0.1356737704375387,-0.058483470229202486,0.05897652348738759,0.028973204961711598,0.022806053938933493,0.02279955022199682],[0.008934407699524824,5.207062946574685E-4,-6.115670923949978E-5,-1.2273490795193985E-5,-0.002463042215635263,1.760699976314438E-4,3.181869652637645E-4,0.002880602244499135,0.009547921367592804,0.039039576436389396],[0.08853980099687205,0.16685474369562603,0.1881424059208802,0.21485345504167855,0.24125013037080062,0.18288876735896267,0.1155543463436194,0.09380643862932299,-0.005574460074830964,0.2884275388183045],[0.31771365331434276,0.4039469336653642,0.48733945478459856,0.03907719044800754,0.19685686704096017,0.03468452875038128,0.014643263403217862,0.02921416983224054,0.021613424448012095,-6.504126073356834E-4],[-1.4747814232322443E-4,-6.131019974999761E-5,2.7419885126682445E-5,-1.8407484278130308E-5,3.131587007170158E-4,0.006995133028289002,0.023127701572983647,0.05547375126090344,0.12614638603890568,0.1566946682978928],[0.17140228692182297,0.11940511227959096,0.055910048924114726,0.12040482196113544,-0.26189898767600556,-0.03567548954048022,0.1687043217267442,0.35066981101857686,-0.0139519610431596,0.2500222464582434],[0.32556123009670596,0.41792447355725887,0.20054808155368603,0.005759728729664932,-0.05872976092723247,3.4622279194752544E-4,0.01961591155220677,0.013804267266401386,-5.245999479834832E-4,-1.472946712515467E-4],[-1.3235152827868004E-5,1.1470728779927857E-4,7.090239080131381E-4,0.008986094480674015,0.04306401280513642,0.09357637889989831,0.13761191659977823,0.15191178562081448,0.049406490863928815,-0.17251174926303944],[-0.33146293133394666,-0.012716159945858108,-0.2981538954399885,-0.1188164209904145,0.7311988365091805,0.6650549227679375,0.2721243105465725,0.3834844457859804,0.3884161597413708,0.6007835213308278],[0.3189111558554035,-0.06940485054362999,-0.17695721615224794,-0.052298553973897,0.0017721979596234151,0.004461338513654095,9.235282891501914E-4,4.70813395187624E-5,-4.8388701595412516E-5,-1.478962144450386E-4],[0.0030801978723206053,0.022625323688626964,0.06760061954606328,0.10715614998456081,0.1087576775100545,0.051274481553930426,-0.1511083053182008,-0.3881745433515972,-0.03331705976310514,0.16076036462386403],[0.3976979057231512,0.38202695214159677,0.39514044665919146,0.30971989583382803,0.35409758909432276,0.41197318121345716,0.33589812252225976,0.31459501940640827,0.36189412098708745,-0.08371662051632882],[-0.21642561374260622,-0.08233373618980709,-0.013315964254133521,-6.515469323129829E-5,6.12182286001438E-4,-5.065375390598516E-4,-8.590424908329261E-4,0.003103177003209222,0.013813321952305455,0.033771411917872196],[0.06842647740947458,0.09762690600161583,0.06250075520970828,-0.05932068608372858,-0.24952714761240308,-0.1593356940233195,-0.07806188253427364,0.23798529712598013,0.2528982883703123,0.626637252212818],[0.2864097920043682,0.3228779491487558,0.18644747099366202,0.24418234584724116,0.30176627645862275,0.1469068324721146,-0.1512170118677614,-0.12315273366387203,-0.17866572561371105,-0.07290560698720262],[-0.012433900871075891,-1.5537401096776327E-4,-4.4104431783746894E-4,-6.030193571994952E-4,-0.0013831939889755813,0.004565371658017985,0.01180712148688623,0.022839765018379986,0.05674548330741562,0.07055962537099648],[0.011569089063642748,-0.12820495990048406,-0.2198675744441212,-0.12495733911027383,-0.05339423392538842,0.12658380299142669,0.5198999670023036,0.4495418611096276,0.20172997894437006,0.21872855732800073],[0.25475370647653245,0.2704215171490756,0.1041730913132111,0.364704437296355,0.26113859616427526,-0.13432609707164508,-0.1551494009267449,-0.12453706398486973,-0.027778889729978395,6.115944706827437E-4],[2.552440881360528E-4,-0.001483721197434921,3.044922693181604E-4,0.0019089302150776413,0.011127614463547375,0.01586219612720426,0.036416587353143196,0.039336010169702,-0.04023507809763231,-0.14608676732825465],[-0.12854310638591507,-0.025966872756948242,0.4185316603340292,0.5768744890108612,0.6167684232058842,0.4394480681517432,0.2155373381362805,0.12504972297103772,-0.19019911942847478,-0.3432243155413238],[-0.1408425729650873,0.820044782802062,0.6636836015891017,0.17414767574672785,-0.21010978792407037,-0.18638736555931001,-0.03413497388903062,8.063916242980927E-4,8.999632116207042E-5,-0.002614760952741287],[0.0010671056335300644,7.244887148579707E-5,0.005000434089270761,0.011102378010019828,0.012210210979772066,0.007882272028109656,-0.08588519288606265,-0.1158592399461778,-0.03098199032008198,0.36770454665541935],[0.38321755001318053,0.8130308813775747,0.5714855988379635,0.3779040213885441,-0.13414966247342486,-0.03754990118567814,0.443102043128392,0.5049425479440471,0.3511728489706489,-0.22838940270855987],[0.14316813299262163,-0.028214125246721674,-0.19278445409916148,-0.19432620238889467,-0.05061253501062995,3.730692611020396E-4,4.1138497787800946E-4,-1.1487729751474046E-5,-0.00419829046289449,-1.0821376411561405E-4],[0.0027673753957048602,0.008011193818572246,0.010536858043371351,-0.020522607749477676,-0.12748750839022324,-0.025482525907536413,0.2523275996491083,0.11700556792312589,0.39931667125218784,0.42577970284825845],[0.2763366609858311,0.15888680782391643,-0.6611146735867605,0.33247339059388664,0.8115745142204718,-0.6234304883093643,0.6133967334240618,0.945191638784641,0.0322667827651304,0.006593931255277792],[-0.22062296367777778,-0.23573398253661443,-0.07913969334162468,0.0010259801596523344,-4.0848479537369424E-4,2.297505478670408E-6,6.25595627684808E-6,1.2600233060975488E-5,0.0013130197500676817,0.0020616751640721125],[0.004633568098288619,-0.042296932983015983,-0.08776188359627782,0.027090465091485348,0.1327346348252803,0.405473169462862,0.40171354974255347,0.2656094384622124,0.1470686053049714,-0.29134361731951386],[-0.5976550003736003,-0.48621740828683446,-0.6507833349053583,1.0638910218955862,0.165474280667469,1.1484303401385567,0.27429873788132053,0.0022330285400197912,-0.24377776641002422,-0.23245250525767133],[-0.06849827076958306,-2.749160029715781E-4,-0.002146382717358202,0.0014201980703878237,-9.911722185977361E-6,-2.027226053049381E-5,4.844433571439903E-6,7.172604775838053E-4,0.0020193046800767544,-0.05077103777825355],[-0.11954703767952288,0.01302482962353237,0.06960813542483311,0.16727441760265496,0.1626746501729502,0.04637621978285881,-0.011526244556511488,-0.10849451863431855,-0.22312407980906235,-0.6959158027327298],[-0.22423038039958917,0.668793384108696,1.2370996943799035,1.060855703286419,0.05197343336568848,-0.02256573775401336,-0.2100418064915526,-0.15960667712425425,-0.04382714979273,-0.002413807456331547],[-0.003864714992253021,2.1960984007843103E-6,-0.004919342850266374,-2.8295299954883678E-5,6.98110178533153E-5,1.975565470401705E-4,-0.001574742609272543,-0.03953508197186577,-0.060077924760529595,0.10541679377048846],[0.23638995161933166,0.18252170961438488,-0.049380421975193635,-0.3706860727636515,-0.8011805645279138,-1.005331801377771,-1.0383961100386192,-0.25431141960396786,0.23977009482619696,0.6898119956845707],[1.2414227249692342,0.4610669946089485,0.13783754975900547,-0.039797679115745915,-0.1858337907579118,-0.1161834567228056,-0.04513466750423134,-0.0050760797698359205,-0.0036165887205334714,-0.002000655017449626],[3.123736352276048E-5,8.745001076512574E-5,2.0392983800542345E-4,8.349806506631211E-5,-0.0012824344160476146,-0.015460466508410781,-0.02714442848431859,0.1414374390232295,0.14809916659964573,-0.09317438393506586],[-0.26539517947696234,-0.4844611525810124,-0.6982721833866463,-0.7858618570438272,-0.643430513569931,-0.2151215086432603,0.470212582683741,0.7557422135171019,0.8263958099756776,0.5337405552266148],[0.31875352994284506,0.014686395193956512,-0.11414152937190791,-0.057178716935921435,-0.02066293929307451,-0.003672159842362105,-6.268957491664261E-4,0.016767692112252364,-7.153350197390201E-5,0.0020872511583042196],[0.0020432003138899303,0.0010416462845086218,0.012723687037656691,0.013982460981836892,0.0701643558923441,0.10224896914315361,0.2575139921009667,0.04433768788234353,-0.36204598677400596,-0.6456337406513742],[-0.744955822212704,-1.1781692095871672,-0.08629639543648739,-0.11783888081729492,0.16815311380339906,0.6892216255461772,0.7547545134505249,-0.008198154487817643,0.052316334971815176,-0.06113853509623231],[-0.06153396986329353,-0.010890911665628384,-0.0021103467411512523,-0.001807270263544795,1.9941556210735555E-4,-9.901592631132657E-7,-2.876537706246377E-5,0.002215007507115084,0.002330085270650446,0.0032021475394846638],[0.0278775174166619,0.0628597304641323,0.15451787777064008,0.1532456383235013,0.12413021335287303,-0.014886421359486892,-0.26553162373183903,-0.5283487519871682,-0.6487986896870159,-1.428182248572895],[0.3983264925326486,-0.3846068281652027,0.8528989481994596,-0.10635261330090351,0.23602933903217516,0.06390945706188063,-0.019366666420279992,-0.04475892520185629,-0.013597853273288793,0.004475652012444575],[-0.0029021480017006477,-0.0013248792175145887,1.2247102756115015E-5,8.798281747007198E-5,2.5747909666562382E-5,4.866864445650294E-4,0.004187526501610771,0.0020616575903618798,0.025254208901568563,0.09800716314692128],[0.20696604118593676,0.37239199499884884,0.1211624937979296,-0.197494819655415,-0.15075969090079883,-0.5301835252489744,0.62498699548143,-0.06190745303993111,0.3737420599943001,-0.10479764211990042],[0.34259233971214537,-0.1435330625504955,0.06554750092820293,0.054903747874485605,-0.017955958036296772,-0.020766780479976522,-0.002343409955065931,-5.44294097762892E-4,-0.00481162120666404,-0.0025734063758291554],[1.8683478666446022E-5,0.0025325591775002595,2.3958155522372436E-5,9.795132756155366E-5,0.0024662878252613035,0.0032875151835699734,0.005436191436801163,0.057338114487388306,0.146510598008433,0.33595218576976227],[0.5452491503132754,0.8091766886960348,1.369891434175214,1.3665893702831473,1.352036413650048,0.053685968767165845,0.39848973961541406,0.3158858655686818,0.30562565046901063,0.27967213151843384],[0.16033608204302255,0.039486093430223475,-0.0031764978985692246,-0.008345252010182741,-0.007191469970672911,-0.004881977088764922,-8.579500717997207E-4,1.1882198015777788E-4,-4.218382353329173E-6,0.0038479641356684424],[2.4098081024276076E-5,-1.3454522520445027E-5,0.0010971388106033807,0.004858300570772237,0.0045102964672054865,0.010628710913745676,0.03154794573608798,0.10720463692634077,0.2955769300176913,0.31238791148546324],[0.28752565413691955,-0.511574529506394,0.2644456638992338,0.35367336289989204,0.30276418097491525,0.13056042524423594,0.14860533359645306,0.11487951063945626,0.08751079481863354,0.03287779817297861],[0.025158956182174157,0.0011106888441099689,-0.0065396476881293495,-0.0028930805561791315,-4.1586901549147483E-4,-2.5139959012478573E-6,2.970768507503331E-5,2.90992429557138E-5,1.3092832935908137E-5,3.4413240701388065E-6],[2.4541144605343265E-4,0.0018181464670042247,9.032776610920459E-4,0.002016856239536101,0.004598017767772378,0.01607778625506111,0.024827896564638158,0.004357974716897314,-0.10074788813429973,0.07222075952857471],[0.14002429968845584,0.16046130266035225,0.11106846565406901,0.082640756443468,0.06189107577456188,0.022957412440364987,0.021530748999273933,0.02277414622825651,0.023539893804854297,0.012999998002328452],[9.66077706079725E-4,-2.0970240587547457E-4,9.173429975504368E-6,8.705095931847385E-5,3.550569590769636E-5,9.809922901414414E-4,4.360560813529746E-6,6.05343516574769E-5,-2.1964738095733213E-5,-1.921022450223652E-5],[2.2617511831686846E-6,-5.304288089156599E-5,-0.0015592236261552468,-0.015112581678998644,-0.05776607720368173,-0.11558933195964056,-0.09681893737712334,-0.013762376687963396,0.07336957280406232,0.1342526864849702],[0.09184501150238998,0.050013849963231174,0.05456019651757646,0.04286538058095307,0.01441660268415719,0.006432592073112503,0.009165996760310696,0.005492923007699094,-1.2081326770376519E-4,1.1667466599874847E-5],[-2.3188804143797065E-8,2.0866997636750232E-5,1.9096338010636524E-5,7.889013519678538E-6,-0.006302402390229983,-2.8907801456774305E-5,1.5606738616871573E-5,-5.1003366921474106E-5,-5.162855476742593E-5,-1.7452610435151825E-4],[-0.0016081758698960151,-0.014617118610999255,-0.009998647449206588,-0.01729079765548376,-0.008309634290009589,0.014426455172172005,0.04105964001872405,0.05427765381526382,0.04790824020083018,0.033840293716829124],[0.02257829565062044,0.014577527594728162,0.002444368579213056,1.7237496037435148E-4,3.8971016303517426E-4,1.5095477374187585E-4,1.681169363579974E-4,-3.278812331814724E-5,-1.7483673964713792E-5,-3.4186601443819174E-5],[4.1071145692175535E-5,4.032133224139429E-5,-0.0014735736458070872,2.2289618228620782E-5,-3.989506735182453E-6,-1.070491077175673E-5,2.1093471664512917E-5,-1.3876217129751983E-4,-2.1524399860218068E-4,-6.670526818267828E-4],[2.781191086522732E-4,-1.612346173731363E-4,-3.7193601166213926E-4,2.0381951071420275E-5,-3.479760585265468E-4,0.005147072665467474,0.0021270306626860434,0.03577652386794454,0.002603463767898383,0.0010972169334836602],[-2.043127655161372E-4,-1.4920338488904052E-4,0.0013126941331546558,2.7448402185956155E-4,3.2028666991396765E-4,-0.010037007395325216,-7.196322987225571E-7,0.002539724584191551,7.309696682006859E-5,0.009664716188926769],[0.0013867292676438808,1.044829726967556E-5,2.6699919588660797E-5,-1.1766797342524087E-5,-0.004118634596548987,-4.513326793372371E-6,0.0011049673008461795,-8.715145908293572E-6,-3.561416861778423E-5,2.134151343025588E-4],[6.237612644082144E-5,7.029442257712043E-6,-0.0013633859122930184,-2.000127402480556E-5,-0.0015573381689530652,6.242099463668314E-5,2.4633889508221223E-5,-8.44132961916385E-5,-4.2200514787748436E-5,-0.008863504629247454],[-8.899146402625788E-5,-0.0012661203092036253,1.2046368495781377E-5,-0.01012131591773093,0.0013171620240284986,1.1649514642746535E-5,-0.0015892085570053751,-0.0020285307657975206,1.3466494666081062E-5,-1.4262776621755996E-5],[-4.325282620843422E-6,-1.0148342609032485E-5,-4.071543916156E-6,-1.1585811921329202E-5,1.5932611920065687E-5,-1.1807590671068442E-5,4.023180474518403E-5,-6.933253403229284E-5,-1.990414463402667E-4,-6.631785839183459E-5],[-2.629762817613467E-4,-9.010787109224828E-4,-2.4559140988463836E-4,-7.3229294292206E-4,-6.484921205360224E-4,-5.434897749787987E-4,-2.3341062507118847E-4,-2.3078323267176616E-4,-1.5136500554043385E-4,-1.748791440742613E-4],[-1.5563567469017729E-4,1.052942534059584E-5,3.424073045732668E-4,-4.638371718688976E-5,6.855615322879856E-5,9.619451322287992E-4,-0.003520698481048951,-1.5047683402315466E-5,-1.2969727476302458E-6,2.475069809671671E-4],[1.605750319013845E-5,-2.8575038362389535E-5,2.448614204867835E-5,-1.60543865994751E-4,5.138429409687728E-4,7.712705872071283E-4,0.00901413206638482,0.016128606791607058,0.0332474405555579,0.02494039194600838],[0.03907495432130439,0.02830553066607043,0.02305160887172097,0.004197928978909494,0.013029467155889622,0.02034537244903903,0.006279848888310795,0.008601934442069305,0.013790369904949543,0.006188782471205743],[-1.4695493539600683E-4,0.001101989439216791,3.570889594516733E-5,-0.0012169409639971617,9.154811223788347E-6,1.7355770952408E-5,-7.623856099581009E-7,-6.9174284734935E-4,-5.346326385606822E-5,2.887735790999052E-5],[-1.0789666144666179E-4,-6.360013629727861E-4,0.004202411987998189,0.012548265538089121,0.0389715678914781,0.07791976707126096,0.06987191370750896,0.09775571300109244,0.10911313719178178,0.14556157728961483],[0.1431858531989312,0.12662234132282807,0.10568097178871648,0.06172325334963496,0.04011524844616349,0.018294685469470103,0.013746596008243099,0.011588849239755434,0.005421133835299502,0.0025083693279667465],[8.763967438082238E-6,1.4592655020486173E-6,8.949389026410061E-6,-1.0902387017525776E-6,-6.101207351159814E-5,-5.1395835588899266E-5,-1.778993481840593E-4,-2.4554178629066284E-4,0.0020544440189873597,0.0176841647473538],[0.01742420534287146,0.15031685235776238,0.18505233831292864,0.14304777002052615,0.23538617833763556,0.32375565948276835,0.2636203350166145,0.20654015711040466,0.15378602273837724,0.20961960758761647],[0.11369646227635323,0.16164092516987041,0.1178156801268778,0.05946801943669851,0.014134114015047822,0.0070962703137004085,0.006191667977051207,9.305458693285134E-4,5.4937560907429166E-5,-8.847796285333443E-5],[6.881809864598589E-6,1.6541331742171764E-5,-1.8693934553786889E-6,0.007400610407995099,-2.967511473372529E-5,0.012621434262463102,0.02659264050764643,0.0807656564310864,0.16282389136426859,0.15634988228081084],[0.3410669895559889,0.34517895563492185,0.35391720089559636,0.2265070424150287,0.1042807107147129,-0.16895230044470963,0.15816512375098635,-0.05764661728864302,0.22447841651644002,0.3683669890725016],[0.2747134773934126,0.1825592865693266,0.07941504279272255,0.04150143125669993,0.0212630446718232,0.002643534925785464,-2.2064785732993376E-5,1.744401836153372E-5,-3.521263582438191E-5,5.7600065078818146E-5],[1.2400333473266566E-4,0.0011944553467472959,0.009653444043963972,0.025620543224874722,0.0533010676428671,0.09456007589309745,0.12751143164882678,0.1441420847001273,0.16061954071638104,0.08144466344357086],[-0.29806974030981553,-0.29410083825807487,-0.4750991877014837,-0.5046159270257112,-0.40427611447195894,-0.7128917415698833,-0.41305555587719434,0.05275435786025586,0.1938535755095105,0.15097334300546597],[0.08252034505499563,0.05099789244709564,0.02543943337553937,0.0021503675626811268,-1.4695115294469257E-4,-1.6014746002339573E-5,-0.008280308617051346,3.5234552427719585E-5,5.081905629182208E-5,0.002358408149556221],[0.0028368645522828077,0.005299835571847515,0.0066122514319392695,-0.012440755651301942,-0.03762474039673771,-0.21335081379768236,-0.6234987352611538,-0.09119828619396539,-0.26877179296041115,-0.7072150211482316],[-0.6860701217970001,-0.5556554832736126,-0.2975266811509985,-0.5829299029227415,-0.8082064789980604,-0.5885073944380813,-0.05027518182581252,0.010718088586007852,0.04904555533433224,0.054498230755363926],[0.016020752222067496,0.0028188031140766855,-3.775680471712062E-4,-6.077080191800986E-5,7.859373769637896E-5,-4.770709595087831E-5,2.354991920086446E-4,0.0022671785282850567,0.0011282991819597072,-0.017767973154755493],[-0.05400429355879947,-0.12477149080406687,-0.23954287473334035,-0.39328247304726865,-0.8759692853283627,-0.7473578906422518,-0.7401194398976142,-0.48919684198299646,-0.8892035136174056,-0.35772204834716353],[-0.6252027867619697,-0.33453004618657756,-0.29464914937421743,-0.44672553043116486,-0.6936666420533629,-0.1957974769934734,0.013606171114604815,0.04894493563026607,0.0233021375780096,0.01076265094987511],[-5.131798576255419E-4,1.980350213524479E-5,1.5160192904159059E-5,-1.4272672021955747E-4,0.0026304633452251427,0.006765938792177462,0.0010814170456237644,-0.019629139181936983,-0.0719778971047289,-0.17356867098246104],[-0.3765130381415335,-0.49369948247817225,-0.18759515457634246,-0.6255071213259958,-0.5536158195855057,-0.6815248878780089,-0.0931001570255601,-0.32296106082283965,0.047588210146615836,0.21852377797961844],[-0.16381461227738442,-0.15253228754322798,-0.04991599680226985,-0.28863002697966617,8.910337045110663E-4,0.02700241308942982,0.016097739963926005,0.004728399539785594,-4.6477555223258676E-4,7.836023123153804E-4],[-1.707002508621501E-5,0.0025010352038487373,0.0040908642962613675,0.012817957370570551,0.009499695757657913,-0.002050614375830601,-0.03135659964933914,-0.13182182062541864,-0.3121117299209851,-0.42449385103027976],[-0.41267675281112903,-0.3354441620642741,-0.12046556057416725,0.10737545428847207,0.07767625138974885,-0.015492194614983853,0.16917755452102543,0.07210895350377255,-0.010655850488356409,-0.15202664219327672],[-0.445669521957817,-0.10737094891071432,-0.007864944263493545,0.049720211001476056,0.005129211773019925,4.296256391786487E-4,-1.9460965103587207E-4,1.9164919178109177E-4,0.0035514575433611964,0.0029195213403194935],[0.003605423366795768,0.006785727045366056,0.010255434049462204,0.02133485236814173,0.019082218254542507,-0.0800211166331841,-0.2732033531733294,-0.3258530400320549,-0.2921218635982473,-0.03437847597713577],[-0.007670652283840512,0.17965183133482915,0.0944929653799639,0.05560587312985175,0.05089349507451989,-0.4826415916663152,-0.1634957350992629,0.022061265420695118,-0.18884118145699003,-0.0946841723388402],[0.011972546033078606,0.04332837564014376,0.016144417791082704,-9.606579074686484E-4,-2.3751718439739248E-4,1.918479758857712E-4,4.376459025281279E-4,5.431427240899715E-4,0.0021377911952648516,0.003922417852700492],[0.005947309031138597,0.040482332853686014,0.065005260444096,-0.02419338250681438,-0.16262709456897845,-0.2069648404584946,-0.09336700501381738,0.18675379817639387,0.3600268155421169,0.21252266177675463],[0.03524232328485146,0.11215441403111026,-0.21296213410159487,-0.6589523966826574,-0.5251310006016516,-0.564603663874662,0.034532392320638955,-0.022649082363381135,0.051530267104720355,0.056302975391835416],[0.014181025398150915,-1.5271838448980196E-4,-5.262934976154728E-5,-3.081782669955919E-5,-5.27176373538834E-5,7.48936135331303E-5,5.217690270292964E-4,0.003272646310303231,0.0054864374221279735,0.05028552501113777],[0.10866856791019563,0.0635642566816858,0.015982230080475345,0.06459388735933358,0.1584739249862366,0.3411757644374169,-0.00512005893053774,-0.0144079861880067,0.054666526572394875,-0.17885062537263516],[-0.10719710271629504,-0.4576977959156954,-0.11168140831385136,-0.45223772543708846,0.12681662714345218,0.11414300547634114,0.09401639769209592,0.06747231322926678,0.020486090289353248,3.4314344188693245E-4],[2.9807895964095797E-5,-6.4728931184004485E-6,-9.179917991599617E-4,2.893182036264282E-5,0.0015135493503291605,0.0031435100459876126,0.009888087301339166,0.056015364144404764,0.15890898025843037,0.19989628301967424],[0.12604867096622183,0.19966562994559509,0.26469777166620834,0.05704763918813664,0.4585254098642342,0.04044055097165026,0.09560951658493438,-0.46337752802745014,-0.5135829154516759,-0.3629475982301234],[0.5335373367121853,0.22432258963386198,0.27838979177588974,0.15161878663683945,0.08616435805292452,0.07193267015291889,0.03126842653172015,8.62271641673918E-4,7.81323962899952E-5,3.068915852224241E-4],[-6.6495472375408625E-6,1.6000622112910458E-5,9.707898472909725E-4,8.044984519564396E-4,0.01035902364652273,0.08224722731386076,0.17760199341010702,0.32810744349304666,0.4429019686926989,0.4671154693600741],[0.30253216174908737,0.25144775865247376,0.11275945278123269,0.30906096454845455,0.16079411787907064,-0.44085404080024887,-0.29621993925721823,0.573521081605242,0.440948946552662,0.43301744041463447],[0.2953846089162912,0.17163146913309,0.07696348150794186,0.06813927712162762,0.03876904374962743,0.001827195598615935,0.0013401517882913262,-5.524868099338313E-4,-1.217770768924852E-5,-2.182633959070501E-6],[3.693270180616512E-5,3.6969590415165764E-4,0.013088644408899688,0.11689965100813572,0.3198994605260455,0.37176998507222986,0.554051427768343,0.40082846945461365,0.3292611387593871,0.20234699455645733],[0.37987702844065363,0.0831993544492199,0.1745163901086162,-0.432610551142393,-0.5542944209884793,-0.34896400969837915,0.16391947207413674,0.4945865272843561,0.3131979187442916,0.11848208828633341],[0.08359488540463915,0.06031238770845576,0.03176322074342894,0.002687795460023487,0.002190372442122364,1.2598361255668456E-5,1.2264731062600613E-5,2.9163719419917226E-6,1.0764434569246034E-4,0.0013453009524547713],[0.047622377509322855,0.1966737096499139,0.3366637446391268,0.324139330414478,0.2470130155030004,0.28201126575518415,0.22135739129789023,0.29539738886789735,0.11294736306107632,-0.032547678463853646],[-0.3373948746229707,-1.0185244674443645,0.07877981835279438,-0.2215039705761885,0.22858235004478883,0.3631688496585764,0.4311186374889569,0.14227891593991418,0.0766055524860847,0.07073242049515188],[0.03712129575437408,0.00486410508855912,0.002069922006083092,-2.8599452111856476E-5,-0.003355391193796882,-5.3204121975521054E-5,1.9000202499351305E-4,0.0034311341328745943,0.09363853682439756,0.2603423032080368],[0.3626417008880113,0.15255868597183447,0.1893740537441928,0.21871301406412497,0.15121792014012078,0.2432953527475762,0.13404073572191824,-0.12649983650908248,-0.06933548027754878,-0.8726201206641083],[0.22984807186253958,0.13918509315758532,0.26945651942614673,0.4165212237007822,0.36909381891492754,0.26227077680439964,0.10499768016265323,0.07209947466573767,0.02532552317879459,0.005901179567668195],[3.9353468884591435E-4,-8.270019668154116E-5,2.7983807492831033E-5,-5.918730207770175E-4,2.3588249651366127E-4,0.007582605700122576,0.09348823781924608,0.2735231002948568,0.3240605331272744,0.4209110422479686],[0.39152379947702803,0.205359723520921,0.03668489519959786,0.04691202216760663,0.2401747635131565,-0.6072419873169946,-1.1606263816941613,-0.8771826048531707,-0.4533223475159939,-0.25185138123835366],[0.16309829420009442,0.6276828305347715,0.41994386794779553,0.21433220609114145,0.13148287020772315,0.05353091257871681,0.026199660267553108,0.013311140506509422,-6.726481452376369E-5,8.294415348554242E-6],[9.543842478746562E-6,-6.968176768379729E-4,-1.5026225625124426E-4,0.0060835844718140405,0.08131574240535626,0.2399697995947211,0.2198285653594809,0.5481210541814004,0.1312981172648621,8.310347686021759E-4],[-0.3155585768350933,-0.11733139684384145,0.4382072750436675,0.15333283064558606,-1.0354892111442286,-0.6349586862056266,0.09876360430644741,0.43116570997054615,0.42986414277392193,0.35280571570546215],[0.290214205561762,0.14904720009628764,0.09466566974746447,0.04614493870830763,0.029335306112530494,0.01227452148729004,6.547332515573815E-4,-0.0025832263717009887,7.968698068442337E-6,-1.0547667306384021E-4],[-3.3929052411991556E-4,9.061833699725457E-4,0.03715111866026832,0.10801386126368204,0.14369515604115243,0.17756838069666536,0.13649646507195315,-0.3169467442184804,0.1787178257650503,-0.36568375362727895],[-1.03804219688784,-1.1854393353910144,-0.5844868855760564,-0.43168566391103075,0.22033936550557193,0.3254143840132965,0.31952991419045473,0.1955941844127716,0.1638667486168328,0.10197290598460862],[0.04138041676049489,0.03435057875751048,-4.84636788953524E-4,-6.348538134335535E-4,-4.4991117598852616E-5,-0.0032633863673416125,1.0021969454400323E-5,-3.1573515671155656E-6,1.266700441164408E-4,-5.470641255227402E-5],[0.0017957818710085632,0.014545724598445265,0.024055841864289156,-0.037750734910693605,-0.1425359524171604,-0.25363428110635483,-0.049696561618877144,-0.07590248084320747,-1.0708604938783928,-0.13656534863055494],[-0.5574797030904562,-0.3284078409697666,0.10258601952806384,0.20139846412259071,0.15509429880946346,0.09489280113128098,0.07022377555782933,0.035280974610780086,0.02332875394958011,0.015556926296842761],[0.006293195210047506,-3.783646240315476E-4,-7.129479085723724E-5,-0.0128575314076636,0.003349360758737626,4.6542046705697E-5,2.546172470887647E-4,-8.722196008638724E-4,-0.002773944605178664,-0.015983792942519878],[-0.02439803108198152,-0.07038673864043933,-0.21037751405563618,-0.41906289438325134,-0.5657530762059585,-0.5846039690331565,-0.9582831180674916,-0.8127183714650924,-0.48872156678084333,-0.2547747937037225],[0.07947203715541057,0.1590689330285516,0.16226390355787587,0.08938837115075063,0.04435574021790045,0.013248386146588242,0.009122723143933139,0.007764518080893819,8.7232666548804E-4,-4.446618335364996E-4],[-4.5662890647001243E-5,-3.6364157108340666E-5,7.371953875664302E-6,2.3649620994355598E-5,2.3849717078318363E-4,-3.6628488472163236E-4,-0.003899691855484372,-0.007322135642776892,-0.01059702260792571,-0.03527303780123955],[-0.11908551823661641,-0.21901324212631224,-0.3574950890935461,-0.4350984215556931,-0.48656828801382795,-0.3984489790737601,-0.20817558377909762,-0.05026332738031131,0.07621557570655274,0.08702164009727391],[0.10029461015625954,0.07259543537137014,0.05704182275599911,0.013695492619694353,7.888579065463829E-4,7.345675910724335E-4,1.784633086737223E-4,-1.1459398820507114E-4,-2.494374757036847E-5,0.0010187786733337493],[-5.499632867468655E-4,-4.118847587133556E-5,5.199916043846013E-5,6.537573654468764E-6,-4.342211247827975E-4,-0.0021865347908540727,-0.011233639753600122,-0.05708517025148145,-0.08830354173320092,-0.19599200407933487],[-0.33140788583310093,-0.36075312628560274,-0.29940589925630257,-0.24723883714853365,-0.08807009951502005,0.0049246989155844936,0.04061799252630884,0.08838002914709747,0.04731390773285548,0.030377788817428024],[0.009238795456743028,0.004133475187281274,-2.940272720680358E-6,9.391594494845806E-6,7.205885028242291E-5,3.943264785725248E-6,2.7604477874073065E-5,-3.854976943759794E-5,0.001083232973507706,-1.1369222251837613E-5],[1.1352528729723685E-5,