{"class":"com.simiacryptus.mindseye.network.PipelineNetwork","id":"4a799f75-30ff-4128-b612-a66277a3a5ae","isFrozen":false,"name":"PipelineNetwork/4a799f75-30ff-4128-b612-a66277a3a5ae","inputs":["28c0ded9-19a3-49fa-96c9-ea43c3250688"],"nodes":{"4ea00505-b9b3-4be2-bde2-d8020f9aac31":"7d6eb9fc-2ee7-45b3-a4a2-acf70ef18d7f","b71329bd-2d5c-45ce-939d-a73549c02ed0":"6befc6de-d6b0-49b1-8832-2ebd531f13db","649763cc-210b-4172-bc48-3feb2363a1b7":"93038f55-110a-43fd-844b-35871282f2a1"},"layers":{"7d6eb9fc-2ee7-45b3-a4a2-acf70ef18d7f":{"class":"com.simiacryptus.mindseye.layers.java.MonitoringWrapperLayer","id":"7d6eb9fc-2ee7-45b3-a4a2-acf70ef18d7f","isFrozen":false,"name":"BiasLayer/d20dabc0-5734-4796-9484-06fa5feb4b10","inner":{"class":"com.simiacryptus.mindseye.layers.java.BiasLayer","id":"d20dabc0-5734-4796-9484-06fa5feb4b10","isFrozen":false,"name":"BiasLayer/d20dabc0-5734-4796-9484-06fa5feb4b10","bias":[5.065495805040863E-8,-1.276137856159669E-8,3.1746420466909786E-8,-3.6271462167565023E-8,-5.627227935799459E-9,-2.598090470898233E-8,9.120356855506477E-9,1.543937901385003E-8,-1.9921362542189386E-8,2.3592032552877768E-8,8.072483484025506E-9,1.554751203916111E-9,9.688424613741859E-9,-9.01776121637055E-9,7.645324618356773E-10,-2.4901567993096994E-8,2.981363811129336E-9,4.1081908186788944E-8,-1.3110555175354489E-8,-3.8764177216703555E-8,3.723743329349933E-9,3.82427970431793E-8,1.8236823505097426E-8,2.650964238601466E-10,-2.7742302750747617E-8,-4.4853884766144706E-10,1.8663645412198056E-8,-4.41464787953924E-9,2.5494290860666667E-8,3.1738589923643466E-8,3.748205731814382E-8,-1.43815197246852E-8,5.085029199059032E-9,2.8755258696978402E-8,-2.019016244606221E-8,2.7134939847062254E-8,8.2362592983946E-9,-3.3553804081149695E-8,-5.484518258153473E-9,-1.0966393582913076E-9,4.8793748037382237E-8,3.041489139669514E-8,-6.957102410111992E-9,8.778531711150853E-9,-2.8692282125292264E-8,-1.913380955459489E-8,-1.0551017423629321E-8,1.989876666559794E-8,-5.955162772929866E-9,-2.7647003429435987E-8,2.2080522232347845E-8,-1.7305564925581422E-8,-1.0983536511675828E-9,8.832311189217853E-10,9.543471669573096E-9,-3.963545003537215E-8,-2.481213418246908E-8,2.2901235795189095E-8,-2.731643206000623E-8,-3.347203551208076E-8,2.186973373032941E-8,-3.9177017194816965E-8,-2.3591312812442295E-8,-1.2038481243397445E-8,6.244017314335746E-9,2.0682311003957304E-8,-3.611044052199913E-8,2.8547495735764277E-9,7.846001544112066E-9,-2.3781641104892668E-8,-1.1133182911153718E-8,-1.4625015831636788E-8,3.258052707862024E-9,1.7846225410627956E-8,2.7369333104644074E-8,9.065690679705397E-9,-2.8947402233031473E-8,-1.7671992493882096E-8,1.2087717256606252E-8,-1.625951212708635E-8,-2.6577033932617925E-8,2.4778748147761773E-8,-2.651653246879841E-8,-8.444934079239053E-9,2.52377670193681E-8,-3.65103644672973E-8,-4.6381132400296726E-8,2.6059043772813372E-8,6.156996530468426E-9,9.5618113021985E-9,3.239716614158682E-8,1.9958712351692696E-9,-2.5043039678661317E-10,3.149726257532896E-8,-8.011507174919645E-9,-1.783925664510646E-8,-2.022964886045603E-8,1.1489184917883106E-8,-8.353769148374349E-10,4.1227795164781897E-8,5.0147830234862654E-8,9.212733584025293E-9,7.145212100170937E-10,2.1069216604206665E-8,3.516226402177967E-8,-1.972202566675401E-9,5.165205805838117E-9,1.0168419323159257E-8,8.5962980724681E-9,2.047692832352981E-9,-9.04809043156798E-9,-3.269849399128823E-8,-1.2466683844709693E-8,-1.2325265123164379E-8,3.7169542680661174E-9,-1.0909642629731301E-8,4.399682011034177E-9,3.139126923223742E-8,-4.129453824648539E-8,3.015012340547726E-8,7.097553905604069E-9,-3.111567233874714E-8,-6.175076604499412E-9,-1.4817553397934575E-8,-3.272811457614357E-8,-3.032690997682137E-8,-3.897499683351E-8,-3.5323830296254853E-8,3.25658521707334E-8,1.2610310606726679E-8,3.665945494228506E-9,2.789586824970831E-8,-2.255723117358889E-8,4.6147302124122765E-8,1.1635293052301052E-8,1.1814331375056817E-8,3.8363972888004007E-8,-1.474720885712909E-8,2.427559338900279E-8,-9.749119287885055E-9,1.2202255160646468E-9,7.012616256032747E-9,-2.414918567009566E-9,-5.866052256240571E-10,-1.8714352747214572E-8,-1.9519027555375055E-9,-3.824928923948546E-8,-3.8700958074224455E-8,6.830677483970529E-9,4.3802450723335063E-8,-1.56663805023449E-8,2.5400976976443074E-8,6.282352794031579E-10,-4.558781091644242E-8,-7.651701762706318E-8,-3.8695112605822686E-8,-5.0198445985540136E-8,-5.83290811474169E-8,1.2385530722205735E-8,-1.0311210380426747E-8,1.8476099863166627E-8,2.2240889604873746E-8,4.1721876827588434E-8,7.797862968439111E-8,5.8553286850498986E-8,2.9871433609720116E-8,-1.4029078984982312E-8,1.2685725141843982E-8,-1.854351547978347E-8,-8.309668006819075E-9,-2.6774519332262658E-8,1.83605730853583E-9,-5.353771714483521E-8,-8.71930012086915E-9,3.464782622310449E-8,2.2791084252759415E-8,5.075047692379104E-9,2.6224130368274913E-8,1.9414632099896893E-8,-2.3754627018250096E-8,-6.558283636878654E-8,-7.37948287543285E-10,-5.922575897670503E-8,-5.7053116831658285E-8,-4.8837513339329456E-8,-4.8600552993763455E-8,1.3408069893424684E-8,-3.459636432287638E-8,-1.8814008913021467E-8,-2.6453272171325106E-9,6.453871607269775E-8,6.768354343544465E-8,3.464081421337321E-8,5.1834886727871635E-8,-2.7446837589439963E-8,2.1976892667679882E-8,-6.282057051406121E-9,-4.1128165330157884E-8,2.297082447442794E-8,-2.028867121092815E-8,2.2202747289166082E-8,-1.691418151956417E-8,-5.610423481131842E-9,-1.0853374692996431E-9,-4.410208004002375E-9,1.736179444556174E-8,6.161485064363777E-9,2.4663805717679537E-8,9.757400956793891E-9,-2.2415328840985355E-8,-2.0881591693363816E-8,-6.041985733166964E-8,-5.90856168900623E-8,8.254427385250749E-9,-3.445894362720925E-8,1.010527336061108E-8,4.2979595024882756E-8,2.05577432654976E-8,8.024026172368218E-9,1.0580270151895629E-8,3.078442453131864E-8,7.39303415235773E-8,-2.3475261483326485E-10,2.2416499329485623E-8,-1.6440559669092355E-8,3.943135619917816E-9,-8.308588863465502E-9,-2.4143861693133992E-8,-1.3765143542150097E-8,-1.2764510297201924E-8,-2.9069825357528417E-8,-5.487508081980498E-9,3.4794948115231034E-10,9.95302200955839E-9,9.486485652376862E-9,4.848879856329676E-8,-2.0992260526261045E-8,-4.029074805909515E-8,-7.94129624290595E-9,-8.598272106944679E-9,-3.011047892713786E-8,3.451415351181423E-9,-1.8488505021881116E-8,-2.937292354499133E-8,-1.4409277917465863E-9,-8.598617504262599E-11,7.556704482934455E-9,4.824320068990257E-8,1.0852545577943519E-7,6.946107573263483E-8,3.3726510272089334E-8,2.7755643033564385E-8,-1.62746165840054E-8,-2.075922802114726E-8,-7.557250582117081E-9,-2.2042772846136074E-9,-1.8624275567063012E-8,-2.915225551957621E-8,-3.889707256866293E-8,6.664006266897147E-9,-6.365914956982746E-10,1.098179952543743E-8,-3.1914392277867884E-8,2.3327122111514882E-8,3.930436877680912E-8,1.2497324879579024E-8,2.6890094341813675E-8,1.264248191873978E-8,-7.137800535488135E-9,-2.483313142391193E-8,-1.581792663873882E-8,-5.0105867395564015E-8,1.947416491639662E-9,-1.765065011553404E-8,-1.473396859279215E-8,5.0876446341728105E-8,1.234219585597187E-7,1.1797268216917289E-7,-9.045289109775164E-9,-2.0472302373414084E-8,1.880697834222764E-8,2.1565802326661446E-9,1.8893745925789305E-8,3.974546922875281E-8,1.4802448163056982E-8,-1.78437006808771E-8,-3.622192645731386E-9,-4.6441132997506995E-8,-2.6673866980270255E-8,6.418927502458747E-9,1.1703447548776423E-8,3.700280483767426E-8,5.815193108899485E-9,3.336321373559928E-8,1.7901183747504327E-8,4.476705147168069E-8,5.936608629665722E-8,-3.470024153646083E-9,-1.6060110045333188E-8,-4.3053528141258346E-8,-5.9134124810934685E-8,-2.2693557847284264E-8,-2.5442380478967872E-8,3.926784333513804E-8,5.226337184884279E-8,6.700392506657666E-8,-5.4089015285405E-9,-1.3018050516335139E-8,2.3976556876426054E-8,-1.6934479266408172E-8,1.3971982491733458E-8,1.4432828109202706E-8,9.979521776082068E-9,7.4061614164341204E-9,-2.3273629315218264E-8,-2.3133718235218422E-8,1.1976678853790166E-8,-2.6450188206714998E-8,-3.7787335211163015E-8,-3.0664550551223737E-9,3.418491973081461E-8,-1.3274069079259678E-8,6.149041919088905E-9,5.270638572343564E-8,6.624194535166569E-9,-1.6611192103646734E-8,-4.12780165944051E-8,-7.008796563267336E-8,-1.0316297100923792E-7,-9.271143180352849E-8,-8.633770351027426E-8,-1.052909466206844E-7,-1.5138554662233087E-8,3.912182820268164E-8,4.5423828687425154E-8,5.429853558363363E-9,-5.124488583855123E-8,-2.4992293021438017E-8,-1.6380116025428825E-8,2.3320523330527004E-8,1.947198055829518E-8,8.347072840141082E-9,9.095616329986792E-9,1.1263620493332538E-8,-1.868149361587783E-8,-3.0865230650845935E-8,4.5069410102438996E-8,3.343497994344349E-8,5.050063833368181E-9,-4.4444999262651525E-8,-3.72895184260346E-8,-1.5933688951505662E-8,-5.1290051685225174E-8,-3.434470805963336E-8,-6.563837061859017E-8,-5.954900266246001E-8,-1.1584902517677998E-7,-1.5859060046223538E-7,-1.3186483657832973E-7,-1.0057001269894948E-7,-5.5799456874334085E-8,1.883939230630373E-9,1.6798370925618005E-8,-1.0901767678127977E-8,-3.911599901715668E-8,-4.980406937142989E-8,1.2632177571888241E-8,5.567379789822916E-9,7.487577840668464E-9,3.2758695556732787E-9,-7.910547731172876E-9,2.5492219299287627E-10,-1.47471926375517E-9,-4.1424120459531535E-9,2.0067662059569504E-8,-2.9418332721623455E-9,-4.069345274424258E-8,-7.912105830620807E-8,-2.4205400911154985E-8,-5.033830790083116E-8,-6.97033200253471E-8,-4.271624896087436E-8,-4.036413721526833E-8,-5.140129162719615E-8,-5.790697576756053E-8,-4.674383186696368E-8,-4.7587536736462775E-8,-1.0285399090406412E-7,-5.0633574739136585E-8,1.2678700154656402E-8,-3.128827734787251E-8,-1.43092425243665E-8,2.929218158363371E-8,2.1438115360917857E-8,-1.0591137075244714E-8,4.392883248342154E-8,6.056124597513102E-8,1.5959302381178704E-8,-6.011076382208416E-9,3.6025885017180734E-8,7.367616186932961E-8,4.116021289705986E-8,1.572859379115924E-8,-9.959999374559373E-9,-5.044958729631668E-8,-4.1827009027008315E-8,-5.7809203979982207E-8,-2.2271886570645292E-8,-2.371888067104789E-8,-5.288655336040037E-8,-9.517042953496499E-9,2.4156182677827336E-8,3.764182011171314E-8,4.166455359665217E-10,4.9937823234784384E-8,-2.6296294807631966E-8,-1.758210016715977E-8,9.531506683711452E-11,2.6477853909026773E-8,-1.2128844854909406E-8,-2.73916802006547E-8,-3.374523053820125E-8,1.6778457878484216E-9,1.4038722764273242E-8,-2.87552774989684E-9,7.289115773068398E-10,1.970321998366745E-8,-1.2399013866977468E-8,-3.169585018522541E-8,2.5028484264208366E-8,3.6932444467743188E-9,-1.792736479729644E-8,-8.661958101872292E-8,-5.512941533000467E-8,-4.151832995592825E-8,-3.4534775278618355E-8,-3.027107773951082E-8,1.755889110410615E-8,2.558775430401826E-8,1.353655456603554E-8,6.654576281035558E-8,3.0631425292992466E-8,7.70981592372679E-9,-9.395970380886787E-9,5.1644397796869036E-8,1.1440611343161048E-8,-1.1055565382888845E-8,1.812551941266565E-8,-4.4342587889205056E-8,4.35426347125648E-8,-2.0692555460499303E-9,4.266032375200594E-9,2.198871952731394E-8,-7.95769970765858E-9,3.494242292273638E-8,-1.8068980342838658E-8,-5.2221424614956174E-8,-5.472864966818557E-8,-5.854582497555865E-8,-6.201976462615858E-8,-4.2795219165577955E-8,-3.487408985423777E-8,-3.878249932889876E-8,4.713833152095347E-9,-1.86171313057793E-8,1.501816176351147E-8,4.5932194630505776E-8,4.040059470171054E-8,2.6223364197660425E-8,1.6072600037404372E-8,4.408873396967797E-8,1.0602581643277345E-8,1.2473322584580872E-8,3.362362315371935E-8,-2.908539962203309E-8,1.3339145866219103E-8,1.7727120861221744E-8,-3.7066659912513866E-8,1.0138125594691768E-8,1.7737196190710866E-8,-2.473158472090478E-8,4.6892319529901595E-8,2.615543088086967E-8,-4.2436616936272303E-8,-7.954004738628995E-8,-1.1510310872361148E-7,-7.96455178199639E-8,-8.636325020981018E-8,-7.819613137324497E-8,-5.229399520372889E-8,3.461429835371294E-8,-1.688677347610202E-9,8.84192288083338E-9,-1.60532998050345E-8,3.057031036138696E-8,4.908109736941212E-8,2.612265423705357E-8,1.8469553081225132E-8,1.9643258359613577E-8,2.5690480214400564E-8,-1.0668475618636633E-8,1.4859384477014288E-8,1.4521845758287338E-8,-4.6125876437051914E-8,1.2827251359497204E-8,3.0702590385793056E-8,1.9674031381480943E-8,1.0509095126746365E-8,3.289040397635857E-8,4.398336332650019E-8,5.354214445511896E-8,-3.3101568151523946E-8,-3.2722124266989927E-8,-6.525610846203618E-8,-1.240194719401921E-7,-1.051060247925044E-7,-8.072096296967983E-9,5.2592791881293745E-8,2.4250390755419565E-8,2.7206140271331464E-8,-9.559989603993172E-9,4.473401734771442E-8,-1.2946011278497676E-8,-5.3079332020423615E-9,5.1210034582656254E-8,-2.464493734747955E-8,1.8067423410406228E-8,5.202182230215964E-8,3.461185996956238E-8,2.8525094477880612E-8,-9.91365427439356E-11,-5.142271261937271E-8,-6.059469373939662E-9,5.4869824238876765E-9,-1.3135263193678677E-8,-9.692372921293358E-9,3.532237641026635E-8,-1.4582806385912947E-8,5.404044330082705E-8,-1.3565319388907639E-8,-1.6534982953221322E-8,-3.890572407378015E-8,6.581827024662477E-9,-2.2203974464310493E-8,1.7039595553495846E-8,5.2952413569237586E-8,6.126091340022891E-8,1.9688115412279223E-8,6.884840569333024E-10,2.847592311673102E-9,-1.4551623290254159E-8,-3.196705698016166E-8,-4.243540088681067E-8,8.202094998001904E-9,-2.9752446344805114E-8,1.348793166812224E-8,2.1861925512077785E-8,5.826692541912627E-8,-1.7179209124653354E-8,-5.289173924397438E-9,1.0882861019775044E-8,-3.5492467624919605E-8,2.6049495131298153E-8,3.600675378114982E-8,5.019250011508069E-8,3.8570716158010036E-8,2.9658651482026183E-8,-1.577256240214113E-8,3.0943981844561854E-8,-9.746154709613048E-9,-1.3412027851602429E-9,2.568093193318452E-8,2.2515722064349876E-8,6.00736628727509E-9,4.256525528505139E-8,1.3650085898990392E-8,-1.1207500001386618E-9,-1.567898828110328E-8,-6.186480401003688E-9,-1.3451361413113912E-8,-3.014256447831358E-8,9.7135564744855E-9,-6.326978176353259E-9,9.838861984544814E-9,3.4138922150239253E-8,-2.221949212966448E-8,3.401820904371625E-8,-1.8357044231392094E-8,6.845911091110284E-9,1.5560508824488217E-8,1.0585481606721079E-8,4.0760957421424196E-8,5.731279463281927E-9,-5.734544084264909E-10,8.90742550227023E-9,-3.852824854187294E-8,2.1853075425857016E-8,-6.562765405272846E-10,2.900223129303031E-8,2.7529048593501315E-8,-6.310916554692027E-11,-3.81009353961096E-9,-2.0911322433905877E-8,-1.3416650655964234E-8,3.442846073709822E-8,-9.88691784253868E-10,-3.4845243145627794E-9,1.5674587056543688E-8,-7.1735933128084894E-9,3.173590520142743E-8,1.653400974143383E-8,8.795501721443522E-9,1.675278743915288E-8,2.651062363000701E-8,9.705017299793187E-9,-6.365124965429901E-8,-4.6510710393292094E-8,3.540826686142286E-8,6.002170547945866E-10,-4.13348774723411E-8,4.190906668597307E-8,7.5179047220091E-9,-7.966989320744232E-11,7.234473197419708E-9,2.310882742473734E-8,4.45934996040579E-9,-1.4091847192163133E-8,-1.1279847265208686E-8,-3.7717256727135674E-8,-3.325991756883204E-8,-1.6599597677770903E-8,-1.263242896518539E-8,2.316478099356817E-8,2.3496277102182415E-8,-3.108158205930856E-8,6.204691921214625E-9,-3.014949678481959E-8,1.3171943406972314E-8,-1.37366108534824E-9,2.000421241585309E-8,-1.2042222082348913E-8,-2.1071743157241594E-8,1.3806064513774733E-8,2.5801982611316618E-8,-5.274593779852397E-9,1.2764277274405007E-8,-1.6256045355960538E-8,-1.8863842693321857E-8,5.052857156943669E-8,2.0015691229074293E-8,3.7522078992092655E-8,1.611020538512804E-8,-1.0873722568843906E-8,1.2949133491981448E-9,2.364440878166783E-8,-2.2577653429202567E-8,-2.714365603830213E-8,-3.673295793627311E-8,-3.716383371843922E-8,-2.3655717181486228E-8,-1.1649367241449374E-8,-7.427061138542343E-9,-4.375438581948723E-9,8.561785580056452E-9,-8.13468947836079E-9,1.1040010855766973E-8,-4.7527395184986096E-8,-2.5133777527427303E-8,1.9189578422293196E-8,2.630853269302497E-8,8.262122451076872E-9,6.760517206257976E-9,1.598963744722242E-8,-2.905478037508787E-9,3.2251906475623134E-8,-6.9456649466767925E-9,2.2062675984494856E-8,3.0512075984030008E-9,3.194233332515846E-8,4.738853294881325E-8,-6.061508451348553E-9,1.996643253197087E-8,3.174522269722189E-8,5.118272218426803E-9,1.4152585707917405E-8,3.0092005738255475E-8,5.739034667356252E-9,-1.508092086928427E-8,2.9028914379513854E-9,2.1711162743727853E-8,-9.94975961724048E-9,-2.2333878809406358E-8,2.868406005055652E-9,-1.2100544273419817E-8,4.557716567631613E-8,-9.147229498849616E-9,2.0015956414051183E-8,9.905677975411822E-10,-3.3614856941249786E-8,2.412675492805092E-8,6.105724180427378E-9,-1.9451806996344377E-8,-9.439260024505692E-9,5.484182843721292E-9,1.6221845169735336E-8,1.4050769037547992E-8,3.345549610731231E-8,-3.8025418306157196E-10,-1.6394424134264886E-10,4.3425540260540783E-8,3.619819714745094E-8,5.484895904206689E-8,2.713807830028064E-8,3.464718870351128E-8,9.636546388772952E-9,8.11820740490821E-9,-2.663795055383555E-9,1.937814256159828E-8,-3.813654938470163E-9,-2.595867109458604E-8,3.857457007310003E-8,1.990299363128055E-8,-1.5443335917013783E-8,-1.9233233447794465E-8,-5.077597758539512E-8,-5.329361193274689E-9,2.698337182955455E-8,1.771174913497261E-8,-1.9102601884779188E-8,2.08492882589175E-8,5.594823719246845E-10,6.249613423448765E-9,-5.340856043133677E-9,1.0399356137728089E-8,1.178238870499532E-9,-3.311797575948539E-8,-7.796659033543981E-9,-1.569884119294806E-8,4.571806319432649E-8,2.1267144862651124E-8,-8.34160569939189E-9,3.339979196474584E-8,-1.693157201862792E-9,2.5302340486688035E-8,-1.4277365572659304E-8,3.406133131278951E-8,-2.758757719737039E-9,2.0828965542139338E-8,3.546139025462421E-8,3.616920720451444E-8,3.420859539061623E-9,-3.6154039773303265E-8,-8.568896782103506E-9,1.2175028985913464E-8,-1.922631016203929E-9,-1.6393088069574752E-8,-1.8672217607201008E-8,6.454181596384097E-10,2.1936333811008393E-8,-3.097596241246603E-8,-2.1108480830345072E-8,1.254828621531188E-8,4.77707105953025E-8,8.507529633335736E-9,-1.3638673137598129E-8,-2.692474692799725E-8,-6.0223016659795705E-9,5.126333380531039E-8,-7.003134814506072E-9,-1.6577539126704482E-8,7.034261866574692E-9,2.2522259732609567E-9,-8.171403064306459E-9,-1.4585220508425649E-8,2.0944327625005413E-8,-3.408827256200633E-8,2.4119464359358606E-9,3.782330541720238E-8,3.352738812218126E-8,7.960688304149615E-9,-4.091516891537212E-9,-1.0421979209644198E-9,-1.4071882862997024E-8,3.206626745141826E-8]},"totalBatches":6174,"totalItems":3087000,"recordSignalMetrics":true},"6befc6de-d6b0-49b1-8832-2ebd531f13db":{"class":"com.simiacryptus.mindseye.layers.java.MonitoringWrapperLayer","id":"6befc6de-d6b0-49b1-8832-2ebd531f13db","isFrozen":false,"name":"FullyConnectedLayer/a3c5ccef-2145-414f-b80f-5153bc002fb3","inner":{"class":"com.simiacryptus.mindseye.layers.java.FullyConnectedLayer","id":"a3c5ccef-2145-414f-b80f-5153bc002fb3","isFrozen":false,"name":"FullyConnectedLayer/a3c5ccef-2145-414f-b80f-5153bc002fb3","outputDims":[10],"inputDims":[28,28,1],"weights":[[-7.684443496900034E-5,8.295481258406242E-5,-2.1882090118541516E-4,-3.8997424695336045E-4,4.93237641292441E-4,4.2232769701532513E-4,-3.208765051430991E-4,3.400615244762444E-4,-2.574228364465017E-4,-1.3196267359171917E-4,-2.945205448618652E-4,-2.158017896933446E-4,1.0374902814946288E-4,-3.3125427842951336E-6,5.136562488422494E-4,1.0657916701308733E-4,1.0130253414548784E-4,-7.598008367794946E-5,3.2244329427540656E-4,1.349031146650089E-4,-4.173274144384731E-4,3.033245434741346E-4,1.6132356257837326E-4,-2.145890758759197E-4,-3.6251036526073894E-4,2.4493545051579296E-4,-4.130606524679374E-4,-3.63539370755387E-4,-2.5818213286857555E-4,-3.390725219987498E-4,5.481748740451634E-4,-3.528112335395382E-4,-2.3412155675864597E-4,-1.7013976062428093E-4,4.832240056374919E-4,-3.1182887860471833E-4,-3.166100545304531E-4,-5.147159871210669E-5,2.2476879987879934E-4,1.0252941145483142E-4,-4.1951751344012267E-4,-3.9136765820206115E-4,-6.491406539690573E-5,-2.7191937520367273E-4,3.6681204248492844E-5,1.72569142488158E-4,-4.4603995012923464E-4,3.80800885771207E-4,4.997398349240121E-4,-6.553605801716845E-5,-6.115759145728556E-5,2.1137845540446573E-4,-1.874132710214171E-4,-2.0236856112978277E-4,-1.3862087239414949E-4,-2.6760593135112597E-4,-3.9902395502604325E-4,-1.740942703147553E-4,1.920502248988964E-4,2.3996017279753683E-4,4.098583080345077E-4,2.692380619938896E-4,-3.351081041236825E-5,3.818557404747988E-4,-2.0387247292188036E-4,3.6919970912447064E-4,-4.42776811704204E-4,-2.6734809686394516E-5,1.9360035866805946E-5,3.2000514074937363E-4,6.153202755841203E-5,-3.856744501775169E-4,-1.3402232042478317E-4,-4.0688272783071514E-4,-1.0016347944433571E-4,-1.905247885311875E-5,2.731004902287645E-4,1.3751254834640022E-4,-3.305399642271795E-4,1.6899787554031293E-4,2.911105136901148E-4,-1.7075774727953082E-4,-1.848661817256985E-5,4.66337584244651E-5,8.882713114167659E-6,-9.342871298451947E-5,2.1346323092768819E-4,-3.94806177043705E-4,-4.690271948467871E-5,4.587291301409744E-4,-4.4403663345356524E-4,-9.517271906911299E-5,-3.2893248305303197E-4,-1.8279392518925745E-4,3.667089379965471E-4,2.755222465229148E-4,2.5804398019286753E-4,3.572537789151646E-4,-6.779223536624216E-6,1.5235289823395552E-5,1.473948482538836E-4,1.8126259177596516E-4,5.485012645444449E-4,1.9001155652117064E-4,3.817782490774714E-4,4.0131561517738285E-4,4.2539587248170105E-4,-9.981022668561885E-5,2.3346351861679312E-4,-1.7705197663142117E-4,-2.72151556634968E-4,3.130675061805949E-4,5.796277877528381E-5,1.7193110417724144E-4,4.3028856758668585E-4,-1.9904351236986457E-5,-2.700085038777692E-4,2.383468498239139E-4,2.196532104571113E-4,-3.210730991971077E-4,3.6203090692836563E-4,-2.1319897969084614E-4,-2.2588992398031436E-4,3.9047787716270377E-4,-4.299154190211338E-5,2.6764208013051107E-4,1.25599932883949E-4,2.896647775348755E-5,-1.4130511467483076E-4,-2.682558110194286E-5,-3.782885710123276E-4,-6.356411428477556E-5,-4.4833061454535827E-4,-3.3784254979080726E-4,-4.1144991962623024E-4,-1.9634604874931385E-4,-3.967882049247881E-4,3.856223442302714E-4,1.996745427126718E-4,-9.035990860428165E-5,-7.381888696894174E-5,-1.4487480253155764E-4,-2.7731019567437434E-4,4.3271366663221264E-4,2.2614977825071968E-5,3.174068341331578E-4,4.333010399125521E-4,2.4981016851452416E-4,1.8687331107011492E-4,9.389502738313284E-5,-3.6604457320641776E-4,3.462689818037401E-4,5.166375994928558E-4,-2.3338098396935895E-4,-9.874207106878338E-5,-3.614547068888333E-4,-3.118569615773977E-4,-1.280858301222434E-4,2.3616827819019476E-4,4.5923883496676754E-4,3.3780218180774773E-4,2.674710608658141E-4,-1.8583342160870836E-4,2.79639031949018E-4,-2.1024499580735175E-4,5.789534842095836E-5,-2.937512751528691E-4,1.3126975497166536E-4,-8.249082290958647E-5,3.154998694369157E-4,9.742293183837938E-7,2.5028534356182823E-4,-8.809426857986077E-5,-4.290619456705907E-4,4.6178730772037627E-4,5.186949767121154E-4,4.87207234626067E-4,-8.984678817993733E-5,-3.0209023089177654E-4,3.262074414294502E-4,-2.1545905120157348E-4,-1.995393842592255E-4,-4.2369268321644347E-4,2.2518897168322992E-4,4.639432578019954E-4,-1.2856048060130761E-4,3.131057664866362E-4,3.2989204426326316E-5,7.154996015250162E-5,6.8785875445462975E-6,1.483375161082237E-4,2.058106423901633E-4,-4.090362589936464E-4,-3.2991194793177795E-4,-2.9013850728363443E-4,-3.910997712789702E-4,2.701482432079832E-4,2.5285926798158194E-4,3.820920175970276E-4,3.1565127166190864E-4,5.041863058828347E-4,1.7773289986679314E-4,2.4313684605215246E-4,1.3137607822453497E-4,1.1213254478164626E-4,-1.629707082906665E-4,-6.430606207189617E-5,-8.408520658461143E-5,-2.880721375976482E-4,-4.991464291643775E-5,4.904146898559826E-4,-9.213137732212132E-5,-3.4913014393554385E-5,5.403016182176535E-4,-3.418589711770795E-5,4.1627521474734666E-4,4.308138239990129E-4,2.126837727093926E-4,-4.176682543571707E-4,-2.6588235223443785E-4,4.102326758270805E-4,-1.101099930701476E-4,-4.0988665803355455E-4,5.371589486567129E-5,-1.572372633973873E-4,1.608726810529097E-4,2.6491731461609955E-5,-1.4829878108160613E-4,-4.205043145078313E-4,3.973236239481878E-5,-1.0863963408780752E-4,-6.765532363430063E-5,2.1760936131622622E-4,5.34758165902186E-4,-4.552050638769127E-5,3.732245475076206E-4,2.3180223723219578E-5,1.956414980132026E-4,3.0710140227716806E-4,2.554440681767537E-4,2.343690297727117E-4,-1.3129633122337117E-4,5.075741957533433E-4,-6.288148555088248E-6,3.5672497888947436E-4,-8.483703123385224E-5,1.757615134657011E-4,-8.436330428408055E-5,3.311199579611001E-4,3.651386164866165E-4,9.673945661579885E-5,-1.7606342993025094E-4,2.349280779236039E-4,-1.5952914274028725E-4,3.859518368995331E-4,-1.333322846083219E-4,-2.521330331494869E-4,5.351664477158503E-4,9.492478239856591E-5,1.2186976710501012E-4,-4.6824182504827986E-5,-1.0312799918583168E-5,5.051997503562833E-4,4.85598973274009E-5,1.5139793882872074E-4,4.516774617130861E-4,-1.7317838435531053E-5,5.258763596943623E-4,3.145757013093239E-4,2.009424836659183E-5,-6.694677114773911E-5,-2.3215841621392485E-5,1.6042369926250408E-4,3.381307560590549E-4,1.8828603435490192E-4,-1.1584931663098118E-4,8.391709755446519E-5,3.487637693255204E-4,1.1460555689684166E-4,-1.6384146617110803E-4,5.35242929508469E-4,5.174641277848975E-4,-4.332154966600376E-4,3.732537296504555E-4,9.028061106164254E-6,9.419392946080243E-5,5.402118758943779E-4,3.858857770171944E-4,-4.451928807011319E-4,1.5901986351466235E-4,-3.5059470772316433E-4,-3.362510917850187E-4,3.467905087635998E-4,-3.883654635985039E-4,3.2898604298861855E-4,2.7304302487514203E-4,5.244039187210528E-4,-4.0158328229672225E-4,-4.153708190389927E-4,5.3820883567966333E-5,-3.401480103669198E-4,-4.422136824346119E-4,-2.006259977245423E-5,-2.8725014907212776E-4,-1.4713800207245627E-4,3.3608861298240893E-4,1.8383954940128265E-4,-4.769894783366334E-6,-4.0876214776512963E-4,3.172591097060215E-5,-3.701535914318741E-4,-3.0887272755166134E-5,6.46133526957939E-6,-1.551512067579154E-4,2.4381553889860048E-4,-2.800837644869674E-5,2.2898872255350513E-4,-3.5988215368331185E-4,2.43883201984814E-4,-2.1243230656136362E-4,-3.8012166563513336E-4,4.4210710684070443E-4,2.2788648968650972E-4,3.008371299611134E-4,-6.883985691585939E-5,5.487839162082318E-4,4.318751202236558E-4,-2.6246708740491307E-4,3.5740613465605036E-4,1.4026033826797574E-4,-2.1692191570120572E-4,2.018001901672873E-4,-1.4542856461486947E-4,4.724548122794978E-4,-7.990022136985373E-5,-6.987129948733557E-5,2.6901531512080797E-4,5.127211487030036E-4,-3.9691876312907855E-4,-2.731707800019992E-4,2.903970680442154E-4,6.628957061328717E-5,3.4363128372692764E-4,3.2165464991276563E-4,3.103621495626132E-4,-1.853028488815308E-4,1.718152369246347E-4,2.147554202588799E-4,2.3369027089351914E-4,1.2280154147799115E-4,5.743480535699859E-5,3.8555928632876425E-4,3.9186240707160866E-4,1.3745531221176233E-4,-5.226947519014962E-5,4.674534217405488E-4,3.7615859974890513E-4,-3.654176125007969E-4,-2.4897813971462687E-4,4.816069997191322E-4,5.319012179470984E-4,-4.2839274612393503E-4,6.988479255154955E-5,-8.98014411289787E-5,-4.152646979766923E-4,2.51200178922293E-4,4.3946126260626837E-4,2.1714382674216989E-4,-2.7496321821736668E-5,-9.885854459914403E-5,-3.939770912803217E-4,1.2090632856833745E-5,-2.953561302820465E-4,4.829468536367661E-4,3.9501621405671543E-4,-2.952053866231926E-5,3.638002111374784E-4,-2.3841118907919819E-4,5.045784843762594E-4,-3.733242901750624E-6,-2.412863750679509E-4,5.236038098975279E-4,-3.6929279437781365E-4,-3.909562832961331E-4,2.5908836447368846E-4,-2.127436532591546E-5,-4.6824240061135036E-6,-1.4911636552956953E-4,1.4876157702115047E-4,3.057989913029831E-4,-3.6912853577655266E-4,1.4085839459733087E-5,4.987574815226656E-4,-1.4160674864544543E-4,-5.564015556906969E-4,2.548336792699024E-4,5.0009978691376776E-5,-4.2994333798575853E-4,3.1367829956732625E-4,-4.482657830385753E-4,4.3644796973037523E-4,4.835815018648117E-4,-2.4719260846536753E-4,1.3492546064981792E-4,-9.490728316330662E-5,5.219693113370467E-4,4.7589912318551794E-4,2.6098012130986223E-4,-3.509466515440278E-4,-4.1031988445620427E-4,-2.454238735508688E-4,-3.009671391741477E-4,4.566387357435271E-4,4.795946768393408E-5,-1.7357571136021016E-4,1.6011022258946366E-4,1.6618360544355418E-4,-2.524392465719688E-4,-4.534511587360796E-4,-1.6083135194894558E-4,2.3856572222532226E-4,3.5688256941484903E-4,-6.5673042873195E-5,4.823129942082237E-4,-1.5337618859038085E-4,3.5137509936870545E-4,-1.3874236754211103E-4,-2.2022793631390873E-4,2.3693248079423852E-4,4.734239000990575E-4,-1.7338573080794196E-4,3.526925292451663E-4,4.877955299957174E-4,-3.1406224819884363E-4,-1.396502115663967E-4,2.1463065360203907E-5,3.698869544962041E-5,1.317184419965802E-4,1.4299460971849923E-4,-4.019677346776698E-4,-1.4614838236912423E-4,-1.3761112693221845E-4,-3.0535051786146126E-4,4.95780851984491E-4,-4.962337431487657E-4,-2.4481299601445696E-4,-1.6866545673950258E-4,-4.294049003864146E-4,4.966222963331271E-5,1.5531850128834755E-4,-2.6779837266286663E-4,7.461337079727574E-5,-6.376205471870136E-5,-1.482811579991748E-4,-4.069020557750828E-4,-1.2637945074010288E-5,-3.619038472597428E-4,-8.938647452587862E-5,4.779437141239057E-4,-4.2250726509674384E-4,1.0724138239917814E-4,1.671606570416161E-4,-8.380896919374136E-5,3.996967869020824E-4,2.1312289738918856E-4,7.691430522745688E-6,3.2782013337404324E-4,1.8374159547499737E-4,2.848107588816911E-4,-3.939205965974523E-4,-1.5692657949546742E-4,-1.4403969053412526E-4,-3.433208528295183E-4,-2.1585962354515935E-4,2.149499621039309E-4,3.636658831551737E-4,-2.1458324647736547E-4,5.138773081800374E-4,1.8648128614772268E-4,-2.4596801141206997E-4,1.1699028930209285E-4,-3.2092668133203476E-4,-7.266485796872684E-7,3.979227917112103E-4,5.178428156658979E-4,-3.346808411633893E-4,-1.453721123592338E-4,4.6411235960890416E-4,-1.1277656580480864E-4,-1.1917745137872942E-4,2.342110087778785E-4,2.5812456254619136E-4,3.270606386600048E-4,1.2969469365970384E-4,3.983080710240786E-4,4.3606931371176826E-5,-1.146786609469721E-4,-3.212344301676898E-4,4.4028965679967943E-4,2.8125538287269774E-4,3.147392801932288E-4,-2.244518980741884E-4,1.2804764733465317E-4,-2.818157907616778E-4,1.1287856108145527E-5,2.2711986263197423E-4,3.294308026552947E-4,-4.262612460782695E-4,-4.0502875447818727E-4,-1.7488998403904042E-4,-7.322599844162661E-5,-1.1829248428988653E-4,4.775460533105367E-4,6.566002825897675E-5,-4.889005477168372E-5,1.4935242467449785E-4,2.9850367619781577E-4,-4.4385099467206853E-4,3.101488178591722E-4,1.6595407949432579E-4,4.261007302629473E-4,1.8540933599394365E-4,5.49470591999363E-4,4.4598107800011583E-4,2.938898830974334E-4,-8.628062198886118E-6,1.2231059866462846E-4,4.470815783049208E-4,7.10082079258562E-5,2.303393687710039E-4,5.997660685845663E-5,-1.7560698444676618E-4,7.144213710898184E-5,-1.983933561966123E-4,-4.341246034843965E-4,3.192069558638853E-4,-1.9102937183729644E-4,2.731323125538086E-4,3.82750056976802E-4,-1.2530098350502342E-4,2.09109166699337E-4,-2.9421179985309164E-4,2.7649780517093004E-4,4.4344228753694066E-4,6.650897106499435E-5,-1.375155873319783E-4,1.5801130826651583E-4,4.6570430864669273E-4,-3.492279794724449E-4,3.5254177963769164E-4,2.441879650868467E-4,-1.070213551881002E-4,8.221944149276483E-5,9.713028891063992E-5,-3.8062908586497605E-4,-3.2867084890850153E-4,1.474884455723848E-4,5.226807274231499E-4,4.93867066462655E-4,2.586115322977705E-4,4.950392829664718E-4,-2.903135202025851E-4,-4.328168460742866E-4,-3.9401889872374803E-4,8.042887248895723E-5,-5.606302916682413E-6,-3.136340573018563E-4,-1.455966949038244E-4,2.867204675367338E-4,2.722309694695097E-5,-4.0283197391349794E-5,-1.8426093062749247E-4,4.1133430382876216E-5,2.2355555267451077E-4,3.830427137258972E-4,1.9323152153325097E-4,-1.5948048242573717E-5,-1.709440258753541E-4,-3.338764007235322E-4,-3.8841347871504385E-5,2.585570752743882E-4,-5.6269012960857525E-5,1.4107506107181934E-4,-1.1895262719158577E-4,1.326234052923859E-4,-7.777993927944512E-5,-3.035608247523854E-4,-1.7859657379882572E-4,3.4968850064355815E-4,3.214275502636122E-4,5.486752311800912E-4,4.237300038071774E-4,-8.41600417679664E-5,-1.0716031818361369E-4,1.6108304015270027E-4,6.908075435550215E-5,-7.353225835405229E-5,-3.598395017609406E-4,4.2702189336795234E-4,5.372538338736834E-4,5.134001832693953E-4,1.6729513462265428E-4,-1.3137704676854315E-4,-3.9662290475444683E-4,1.3864278830563251E-4,5.139733522385732E-4,4.1402969651980256E-4,-3.294907179078169E-4,-2.1490214477203127E-4,4.3215749666605726E-4,-5.641981879907489E-6,-2.0567667553058412E-4,1.5969835410521344E-4,7.41377947586628E-5,5.425769667458607E-4,-3.9067136626034745E-4,-3.1732313369626586E-4,-1.3880566950063533E-4,4.5467812129878994E-4,-4.382234584611104E-4,-8.007855649314219E-5,-1.0184325455065607E-5,-6.669999010163007E-5,-8.167601327166471E-5,-4.02234268497091E-4,6.373910016988638E-5,9.834471117816036E-6,-3.002330627005427E-4,4.0423774738943636E-4,6.885802790853625E-6,3.367429688316615E-4,2.0476676465940808E-4,-4.221716870019918E-4,3.507880323298624E-4,4.445637492057619E-5,3.4004850659947436E-4,6.495209922147736E-4,3.854777263048052E-4,4.894132277406797E-4,8.483301732863764E-5,-9.4218890183194E-5,3.5980207436369055E-4,3.5932914627346044E-4,-1.2432824732954751E-4,-1.048378099287374E-4,1.8705439684298155E-4,1.540530485266271E-4,3.251479827004565E-4,2.3216333315407718E-4,3.89211284285072E-4,-1.2433206016096397E-4,3.498208240782452E-4,4.138696008573306E-5,3.2897208530961324E-4,-7.411623319497221E-5,1.0205001041704929E-4,1.062245298913899E-4,-1.2479794141879788E-4,-3.48335513785341E-4,3.055260221999511E-4,-3.252098199508885E-4,-1.8835245044530324E-4,7.175462430941824E-5,1.851551437750779E-5,-2.239492277981777E-4,-3.0345417867472317E-4,0.001256735506869511,3.0717520093438314E-4,4.222643377092921E-4,2.162170574944736E-4,1.8639227061172204E-4,-4.673910769125339E-5,5.025594326307615E-4,-2.729605880962177E-4,-1.5579518961355554E-4,-6.445253295308961E-6,2.958040129027053E-4,-2.331953057709439E-5,-1.6778098565665685E-6,6.92938281913601E-5,-2.6716289235743983E-4,1.8956508317157997E-4,5.982241230009852E-4,-4.516007551871604E-4,-8.20040188288871E-4,1.8781158655852256E-4,9.631534037437428E-4,5.025546271250244E-5,2.7405436903797236E-4,-3.141531474052713E-4,-7.763976356471346E-5,-5.816665212634186E-5,-3.19216530138705E-5,-2.6309405291064474E-4,-3.982341063827982E-4,-3.1721948811109314E-4,0.001047923368481697,1.8494151956322422E-4,2.6688201023683907E-4,-4.4465688232062724E-4,-7.080823615745713E-5,5.956144262339257E-5,-2.906905750974797E-4,3.9386096715368244E-4,-4.2125299953373014E-4,-5.548544575813365E-4,4.3850656688470917E-4,5.837403922430541E-5,-5.128768961437875E-4,4.0967628740818843E-4,-8.746350551748284E-5,1.1547340169964638E-5,-4.808166304452517E-6,5.880352828857248E-5,-6.074012873527235E-5,1.8357864330904774E-4,8.483606169975047E-4,4.06248261921838E-4,3.896737583985162E-4,2.50817425412654E-4,3.0228301941168936E-5,3.371902867184023E-4,7.875077366262512E-4,5.716377961329504E-5,-6.312574322539846E-4,2.3304208630690393E-4,9.825644918262735E-4,-1.3245175984728832E-4,-2.1541604953916296E-5,1.551196782339805E-4,-1.1639244631050699E-4,4.404238206054881E-4,9.25668031277999E-5,-5.47440480066822E-4,-3.3345342960761494E-4,-2.084918313053223E-4,9.030225936098261E-4,5.308906627767661E-5,-5.076349927435902E-4,-2.4582674423122047E-5,4.354466617230589E-4,-4.761441175036513E-6,-2.4546838312027996E-4,-1.710479606038565E-4,3.835519175143518E-5,6.200289211718271E-4,8.450824981510702E-4,2.012658251804831E-5,-1.9820652422600427E-4,2.617129641575835E-4,-8.212285516939452E-5,-1.001708837770679E-4,4.119500631068269E-5,3.752964062166131E-5,4.365194249504998E-4,-1.4064836550156142E-4,3.785953233503314E-4,1.0299698058867692E-4,-4.2712163987523486E-4,4.0660472254153265E-4,-3.769910292653009E-5,1.2791576104700155E-4,-2.0541156666133652E-4,3.728047130311389E-4,-1.4915706028372525E-4,-2.2328897132019732E-4,6.357102630062429E-4,-3.973571332399553E-4,6.777327425407053E-5,1.0478505383906253E-4,1.9830624073466398E-4,7.07982857484659E-5,-5.023886392774525E-4,-1.5180355529517247E-4,-4.65476414232072E-4,-3.03878220125564E-4,2.1360383282070184E-4,2.4541977754442514E-4,-4.703956397982046E-6,2.7751225388518446E-4,-4.675921893861131E-4,-3.0213287439110546E-4,6.785316868644601E-5,3.1501728153795724E-4],[2.203524603715284E-5,1.794364115005552E-6,8.935971874895365E-5,2.2036260993685847E-4,-2.147567104646954E-4,2.870406354612043E-4,-3.2855784990628065E-4,-1.062963513561326E-4,-3.9745953475631623E-4,8.729514801461578E-5,3.734829873929589E-4,1.0870402706442254E-4,2.8204934553523734E-4,-3.52007858833206E-4,1.7402524322640122E-4,4.0926219519876966E-4,4.3917202970023055E-4,-3.3877507969960166E-4,-3.4681445266616326E-4,5.022371742810685E-4,-9.966446091498778E-5,-2.217995985233496E-4,5.30220494532504E-4,9.00964771084509E-5,-8.428966176228826E-5,2.9819803825062435E-4,1.2490546602416328E-5,-1.76152718446575E-4,4.2563435151124035E-4,-3.4789417646160564E-5,-4.4326210365713803E-4,1.5811545429209712E-4,-3.9854564917849507E-4,4.4938905454748E-4,-1.8113978764042535E-4,2.9565944996913263E-4,9.930508359941206E-5,2.5710892232626433E-4,1.617345649204017E-4,1.1495190856195004E-4,1.247083652366056E-4,-3.3750803241379055E-4,2.0616903892074008E-4,3.103024625118088E-4,3.626617719255196E-4,-1.9116492796928907E-4,2.729294458593652E-4,-2.2126772680078056E-4,3.42255129061075E-4,-2.458399913058874E-4,5.431873629288222E-4,-3.440208138248854E-4,4.60950494938908E-4,1.1305935686044097E-6,-1.7968853002461497E-4,1.1127509400265178E-4,1.47807033035912E-4,3.0491160286017226E-4,1.630492574526296E-4,-3.227488620289201E-4,-2.173886095432442E-4,7.604409408347898E-5,-2.495645204949689E-4,-4.4297095533765916E-5,-3.737396323067314E-4,2.109529064508482E-4,5.201396204561214E-4,2.0256247180712794E-4,2.8074082590537165E-5,-3.593035031119322E-4,2.9559326750486367E-4,-8.63095628907803E-5,-1.37649465871963E-4,-2.3158074832407792E-4,4.563526425750906E-4,4.029518527402675E-4,4.999535245663641E-4,-4.331543661714208E-4,-2.5553893439372703E-4,-2.585696637749402E-5,-4.1831996923589985E-5,-5.0850078565362565E-5,3.8092884380387106E-4,-3.777576767150794E-4,4.56930535829016E-4,1.4465937966176158E-4,-1.139827758232062E-4,1.4040696301637623E-4,-3.9579591521433195E-4,-4.4011064828923925E-4,5.196883141309141E-4,3.8560582197727186E-4,-1.988056367331047E-4,3.398061918457058E-4,-1.865072342652475E-5,4.542613101564436E-4,4.3933370460016655E-4,-2.6992274708722213E-4,2.599684007882749E-4,-3.5522507421486415E-4,-1.5654378644806296E-4,-1.900193370429738E-4,-1.1571556305812921E-4,2.4792597515082117E-4,-2.6074453999954696E-4,9.56089680402803E-5,-3.8621211339771844E-4,5.362211678381128E-4,2.3643808881711832E-5,2.3620080295010462E-4,8.916103634920283E-5,4.113294752107986E-4,-1.9927744380372132E-4,-2.4030647256652107E-4,2.0749436152823418E-4,2.974698696889129E-4,-2.0177188775090648E-4,4.533567647938611E-4,4.589930957490909E-4,-9.506705871581826E-5,-6.670015865073205E-5,4.735690833869124E-4,5.965884853176685E-5,-2.4429393846187074E-4,2.3951801150372285E-5,-3.4257795494124126E-4,-2.661713112746726E-4,4.6517640306481913E-4,6.625147680815966E-5,1.2585868913794917E-4,7.156712504273779E-5,-1.3959927228765967E-4,6.612913717402633E-4,4.5194833604460695E-5,-1.4533081855647474E-4,3.364789872730499E-4,-2.097184036399927E-4,3.891321910049364E-4,3.1243103190216684E-4,2.3598701870755344E-4,2.3387733949065245E-4,3.824372908121416E-4,5.057824421054045E-4,-3.706906334495656E-4,3.177523999903089E-4,2.34980795703036E-4,-2.644518425742843E-4,1.4278592828290316E-4,5.070113368381548E-4,3.8834120821436876E-4,-4.955055022070221E-4,1.6001733939797967E-4,6.146835548502816E-4,-1.5925778223412407E-4,-4.974171665331189E-4,-5.4993712792223256E-5,-1.759915799988818E-4,-6.20904260639148E-4,5.967034331836993E-4,4.0009665377989905E-4,-3.8140081524161895E-4,-1.2983867175964787E-4,4.377120157603045E-4,-4.0926265858334685E-4,-1.866060900551853E-4,-3.0930861310690113E-4,-5.993600830393069E-5,-2.7231325449849904E-4,7.090266332751237E-4,5.047034380983463E-4,-8.67556634033146E-4,-4.646554826301152E-4,8.105820247304768E-4,-1.6442493122606675E-5,-1.6579524767218392E-4,9.858656890030864E-6,-1.7841882144209868E-4,-6.456754980521167E-4,0.001178828508239631,5.80366497692764E-4,-0.001289992547402177,-1.9367320397569696E-4,4.411979603716481E-4,-5.859776517329559E-4,1.674989222215367E-6,-1.9529357180262579E-4,-2.5108808654198306E-4,-1.558390610114635E-4,0.0012907030970915631,9.337701359734841E-4,-6.663071968725497E-4,-4.3649019322846994E-4,9.018825820496554E-4,-1.4507531691381576E-4,-6.689075652214033E-4,-2.311218264143927E-4,6.194637696177913E-5,2.9886316586418225E-5,0.0011768793968167375,4.971701695072557E-4,-0.001178613781490262,-9.540179500230138E-5,6.194461019438333E-4,3.0428910870582577E-4,-1.59869837081184E-4,9.605677072136684E-5,6.063889779953971E-5,7.61156229788101E-4,1.1887817945054346E-4,0.00121476361077304,-6.423961649864019E-4,3.4966273817083196E-4,6.049622726649574E-4,-3.357950506862762E-4,-7.999138442677261E-4,-7.161698379320183E-4,-6.43983658563725E-4,-2.7572434407275686E-4,9.343168837482628E-4,0.0011318120645740627,-0.0010164257396283003,5.226170268500662E-4,3.202723676603207E-4,-1.7944457111901157E-5,-6.681205707343797E-4,-4.4885973448936144E-4,-4.260641993609808E-4,-6.45137850955278E-5,2.0569761887430856E-4,9.373687027431859E-4,-5.9104624984383855E-5,4.2278045597651695E-4,7.387898272826942E-4,-3.7438292317799676E-4,-1.0654275979724728E-4,-3.216549469282328E-4,-6.36121124246815E-4,5.035724433262278E-7,-7.469277297828667E-5,6.479774114199531E-4,-3.0299331761559126E-4,3.11675464334497E-4,0.0011383588738641244,-5.441398847866377E-4,-2.8268858133194804E-4,2.5457122475642727E-4,-4.4901278631518564E-4,3.155765798547054E-4,-7.324843677003751E-4,-1.7204241637271117E-4,-2.936284378864335E-4,3.989059584965075E-4,0.0011542112970186168,-2.1379219114834086E-4,-5.062945663981688E-4,1.9437156064517526E-4,-6.271460157206882E-5,-2.17092855080334E-5,1.0105992218022148E-5,2.0302153814096994E-4,-1.4212087400685815E-4,7.763416407342496E-4,0.001001843173444789,2.1809163615004454E-4,-1.3803679703483203E-4,-3.076826414300073E-4,1.576379175120707E-4,-4.684457694058867E-4,-3.569856998541088E-5,-2.5027643413033695E-4,2.895321755329025E-4,6.102930861387868E-4,6.520984541070964E-4,2.8372779746536084E-4,4.5459389410518197E-4,-1.1510367462689406E-4,1.0674007512402023E-4,4.225756641248753E-4,-4.192475138320407E-5,1.341616574521964E-4,-4.338892386069067E-4,7.075683941875316E-4,2.843647554561141E-4,7.547624875609895E-5,5.120343710268154E-4,-1.6695452556136982E-4,3.6509696194036404E-4,-3.917036960455306E-4,1.9247225795550426E-5,3.7551295183194734E-4,6.120056014984947E-5,4.4480138820599734E-4,2.1815228584057733E-4,1.1790133526152165E-4,1.6096035571062656E-5,4.600047588655102E-4,-2.8733447112733293E-4,4.7930896969257847E-4,-4.002595446956144E-4,5.019269936199099E-4,2.0994049190814737E-4,9.641110252558668E-5,5.836798860074231E-4,1.318562665017436E-4,-1.887524670532702E-4,5.0150834365459E-4,2.2920038517315594E-4,-3.4748848058353E-5,-4.088896035004281E-4,-3.2030011716512627E-4,4.741777802282699E-4,7.27129745348773E-5,-2.568136178870853E-4,-3.705021478353079E-5,-1.1192548096992114E-4,4.8744623311780424E-4,5.031524817131348E-4,4.92839131630819E-4,-4.046989174666922E-4,-1.5012916668173933E-5,9.15907725663162E-5,-1.5042685142729778E-4,-3.0999309188473934E-4,-1.0369243893335326E-4,-8.784908700849038E-5,2.0576977869487422E-4,-3.424698461538595E-5,5.478704427084266E-6,-1.8168449865660428E-4,2.3474629088132785E-5,2.7287182143487774E-4,-4.4939939829653026E-4,-4.3719836117355593E-4,8.935047714262534E-5,1.774537218483894E-4,4.018450233213665E-4,-3.3956198221504236E-6,-1.4793584336205662E-4,3.967988094314535E-5,5.06693590778648E-4,-9.46745694447613E-5,-7.385616497713458E-5,-2.497893733817361E-4,4.0873807150877434E-4,1.570190714718736E-4,3.8221064853684664E-4,3.955793294373252E-5,1.0508546807036831E-5,1.5327214540691194E-4,5.430083550182887E-4,-3.7462098379140277E-4,4.00179780192959E-5,2.8405742708122384E-4,2.4594863582779895E-4,2.39558599812343E-4,-7.280208956091048E-5,-3.810722614365036E-4,-6.221213757498871E-5,4.028685797839369E-4,-2.45098052112167E-4,1.8535725652978557E-4,1.9513331067096942E-5,-4.641074077814279E-5,3.8247078948620296E-4,3.18478016299876E-4,-3.8038126924384044E-4,-1.6815803124427815E-4,-9.173472788419968E-5,-9.921833508780766E-5,3.807836283804474E-4,-1.7493279175081745E-4,8.087721511204106E-5,5.169273057429143E-4,4.189024316434298E-4,2.1691807463293736E-4,4.1818902046687783E-4,5.196086206261138E-4,4.475923056288055E-4,-4.155244338362211E-4,7.045778357773566E-5,-1.1770957550568577E-4,-3.170595957488901E-4,2.3065194819889528E-4,3.6226833732105776E-4,-4.3287627079851806E-4,1.445669602044874E-4,1.0362004968513826E-5,8.926096391670982E-5,2.3454744133362382E-4,7.858681920616619E-4,4.6851297650025634E-4,2.2940801666877794E-4,2.526511220018591E-4,-1.1196581510500072E-4,-4.5744121795650885E-4,-1.6480773976842623E-5,-7.359378253178531E-5,-2.4234798852980873E-4,6.076555665029662E-4,4.6671104395075896E-4,2.814546483144533E-4,-7.912868381801896E-4,1.1105391150822718E-4,3.880986519399439E-4,2.6941001371161055E-4,4.464251988161E-4,2.3502148317833447E-4,3.908025670324764E-4,6.197714703299495E-4,5.62976067931646E-4,1.8609111317655978E-4,6.824991152629585E-5,-1.8270059847800817E-5,-4.00572975101518E-4,-2.773972013993262E-4,-3.7089366372617674E-4,-2.487998846196613E-4,1.659885382881948E-5,1.4038977296667766E-4,7.068893859763582E-4,-4.981121060700984E-4,-4.8246522976743664E-4,5.680094806362699E-4,-1.0218031980800808E-4,-4.0679457286685143E-4,1.2418959146538294E-4,-1.2834085722114846E-4,-4.122151262149461E-5,5.976531142706413E-4,9.870793191516741E-4,-4.5367975450225605E-4,-8.694979630840334E-4,1.5636741337556536E-4,-7.734093699119957E-4,-3.3862465193844126E-4,-7.59951746186468E-5,2.6380451163147326E-5,-1.8207412062556366E-4,0.0010043752601302317,0.0013592828982392216,-5.975879973097986E-4,-1.206862442040708E-4,4.999043806785095E-4,-1.6374628876593782E-4,-1.1087470379864356E-4,-6.141941626979851E-5,-6.562763930821074E-5,-2.5420780997377544E-4,0.001546240972120287,0.0013986051002909416,-9.511142378200013E-4,-3.05701782651046E-4,-2.0788963599232158E-4,-2.9770754004706623E-4,-1.6541207037193298E-4,-4.425446709256855E-4,-2.906380734086012E-4,4.418655143199198E-4,8.027980049476657E-4,0.0016497575477604188,-6.364870251095675E-4,-1.9042359809529863E-4,1.348425032438397E-4,-8.163178262376743E-4,3.6805975755662096E-4,-8.118406347753978E-4,-5.978114078110568E-5,7.28031816847248E-5,0.0014124619567160727,0.0014385631802471689,-0.0010861797491337364,-3.3892364898105567E-4,-3.090412365783724E-4,-3.5701528496556495E-4,4.2871362074489944E-4,-4.0168635128671814E-4,6.139213894087786E-5,6.910891404360122E-4,3.7917508787638134E-4,0.0011746950289191068,-9.02975031482074E-4,-1.4810444173366687E-4,-4.223059369245817E-4,-3.6118286191323E-4,7.84815065419568E-4,-5.82636496034364E-4,1.720771014523198E-4,5.890001362500092E-7,5.965529167203278E-4,0.001358749193923626,-7.827557380866108E-4,6.50505601228671E-4,-2.7736535843820795E-4,-8.75246805954279E-4,0.001168423684757339,-8.728284375850083E-4,9.718313284555764E-5,4.142049525682437E-4,5.139292546287878E-4,0.001166481158317076,-9.260227494035195E-4,8.86413023939486E-4,6.46093513506094E-4,-4.8013748055880483E-4,2.2843438679725204E-4,-5.984464314433401E-4,4.599239506026369E-4,6.963904467880562E-5,5.100155050915365E-4,0.0010930063229969943,-3.3781323722613437E-4,7.805156293080168E-4,3.525754925226341E-4,-2.906763939807348E-4,3.2182931470549944E-4,-0.0014079133296913523,-8.394886981883748E-5,-6.435601212605097E-5,1.3884516064511696E-4,7.080486140545346E-4,-1.7835461609060915E-4,6.011959130055169E-4,6.315618651089507E-4,-4.654398060406713E-4,1.0066665749040197E-4,-2.5225714323408495E-4,-2.521935919833074E-4,5.909502235220924E-4,-4.922489610796777E-4,3.434681229168747E-4,2.824165445345007E-4,7.81790010262465E-4,4.266474714699635E-4,-5.735336841145447E-4,1.5287528298191366E-4,-4.419305257043753E-4,-1.1730417156674904E-4,2.9810125756126306E-4,-4.3526662410649935E-4,4.483254253380974E-5,5.973803849749892E-4,-3.342510852344778E-4,8.936640052003581E-4,-2.2308312329257592E-4,2.659597888648777E-4,-1.4524343505648422E-4,1.948342466123276E-5,2.911247576130949E-4,-3.8355856332930805E-4,-6.206398701799439E-5,4.6109179217586674E-4,6.886551241721016E-4,0.0010388660465540597,-3.979707480063245E-6,-4.113186172287081E-4,-4.18083365533199E-4,-5.97644482391597E-4,2.9257429423661E-5,-0.001077344079454841,-4.938687327947192E-4,2.3369461563863553E-4,1.5432899620128587E-4,5.94439018178783E-4,1.5257792337074145E-5,-2.9658684918932427E-4,-3.5109065499069956E-4,-5.186422205660709E-4,-1.5577667239489315E-4,-6.894977933662934E-4,-5.569657474271217E-5,6.773549820871604E-4,8.940916171572585E-4,4.973146768223534E-4,-1.0273532796434001E-4,1.4046896350654949E-4,2.0980346860784306E-4,4.967813882003859E-5,-4.011509761239059E-4,-1.67303953022034E-4,-5.294406243231374E-4,4.147053825218158E-4,9.029786787030768E-4,2.573947228716522E-4,3.4386552931001645E-4,4.6898511207535766E-5,-3.2647978667979776E-4,2.985321229925124E-4,2.0739633810241888E-4,3.8887896157308364E-4,-4.4709739847529386E-4,-3.3528652982643074E-4,4.3926280135324076E-4,-1.613102774967694E-5,-3.948276812654178E-4,5.163309478065891E-4,4.6248227372631685E-4,1.8618847784711072E-5,-2.0286090412487462E-4,3.8381928974174354E-4,1.9185006113106687E-4,5.120307660068806E-4,1.5766503250005509E-4,-4.156702462677228E-5,5.381248418762597E-4,-7.150608673204044E-5,-1.1196385240963888E-4,1.3427122253891396E-4,3.3497787663947203E-4,-1.081785239139785E-4,-7.848173545812848E-5,4.28129187829574E-5,-2.1579666829251248E-4,-2.3913311801466262E-4,-1.8763074054154618E-4,-1.1676134842985397E-4,4.172003772904128E-4,5.498250266544447E-4,-9.486152833585358E-5,2.00257454930989E-4,4.383681733449794E-4,2.6496747533412494E-4,-1.118523737939738E-4,-4.3188706016051117E-4,1.424365224503201E-4,-2.0669433149874525E-4,-5.889302662105797E-5,4.748370397452111E-4,2.7129464195027706E-4,-3.3033399789310954E-4,-4.366421820991852E-4,3.0995041884318374E-4,-1.5890802075557267E-4,4.69125934347954E-4,-1.884774954685262E-4,-4.026884089409069E-4,1.422513575862017E-6,3.501307435472168E-4,-4.2534166354490357E-4,3.2219848945143626E-5,3.019078484490675E-4,3.2103083610072477E-4,-1.547200687232722E-4,3.1215734373828943E-4,3.593270952446537E-4,-2.3434465947553597E-4,2.2471843750625033E-4,-1.0880646626892927E-4,-3.581906932758809E-4,4.59331182114517E-4,-5.611267608287234E-5,4.953292021478006E-4,4.5064726141515204E-4,2.1307873507424885E-4,-3.867158245194238E-4,4.3526794110321763E-4,-3.9978556664024617E-4,1.3054005056390114E-4,-3.872057411773182E-4,3.083426652669961E-4,7.345825989834384E-4,1.4500102683320874E-4,-1.9242419874076035E-4,1.553342897911611E-4,8.832466969254467E-5,4.3073316118421254E-5,4.1553621631101396E-4,-4.250470052156026E-4,1.871898977290791E-4,-1.7868500365771794E-4,0.0011284522676562273,-2.0164311025567982E-4,2.9669461232761982E-5,2.5733317219642026E-4,-3.0148768500342667E-4,-1.657744101848678E-4,2.0873472006316488E-4,-2.497141113756161E-4,3.31963208867455E-4,-5.7867743720473525E-5,0.00106128275228007,5.415781321910943E-5,-9.123135192748445E-4,-3.4917072407761356E-4,-5.133877769424777E-5,-6.353015233569261E-6,-1.3992853137654925E-4,-4.5286953355939724E-4,-2.79683004831914E-4,5.899566569955697E-4,0.001284121218833799,-2.059896834710314E-4,-9.489745934496286E-4,-3.5788586486652606E-4,3.989242316558475E-4,-3.887207688092053E-5,9.974582517788548E-5,-4.637608340662132E-4,-7.284959567147197E-4,7.684095489125846E-4,7.421953219863244E-4,1.8594921830964679E-4,-3.3106897852957335E-4,-8.59496091898376E-5,-5.6125985737001894E-5,-2.5761799737155576E-4,-4.8754201534839144E-4,-2.7489275362606406E-4,-5.107699061316838E-4,9.999940577603045E-4,7.795705287235555E-4,-4.6549148304949776E-4,2.420401931873886E-4,-1.9550672264401022E-4,2.4240890239633263E-4,-3.376001608873518E-4,-8.55533043130237E-4,2.255554916105772E-4,-5.784856139948015E-4,6.084840894400857E-4,0.0011160843321332474,-5.007507251617123E-4,1.758933485441579E-4,5.159628876819858E-5,-3.8592926386998925E-4,7.759434543559518E-5,-6.627304130889493E-4,5.254365649551683E-4,-5.942597485748837E-4,0.001217464348199796,7.985761453925894E-4,-4.433974888141438E-4,6.339399703353099E-4,-7.946968783876532E-4,-1.8628447195821854E-4,2.2488756242807414E-4,7.399688469567647E-5,1.3186954536866872E-4,-2.4723853036135124E-4,8.500898121101953E-4,3.3229931695904444E-4,-8.650888138172869E-4,2.128745070346626E-4,-4.272337945644795E-4,-4.248692518653255E-4,4.412100970342853E-4,2.670366175685793E-4,9.307653777148317E-4,2.836432422021652E-4,0.0012973154206053366,3.2813397878061237E-4,-8.494741464818182E-4,-1.7781774310711041E-4,-7.635060133223633E-4,-7.284281371951571E-4,4.793511826915819E-4,2.7711512328104995E-4,8.162310159679026E-4,6.930919841386966E-4,6.773058523889709E-4,1.2757115345498233E-4,-3.609005873293045E-4,-5.27825291310368E-4,-1.801527578718495E-4,-0.0016182687774000909,6.590704114709533E-4,-3.9424136985490694E-4,7.497494422595183E-4,4.753537643941133E-4,8.915757320440079E-4,6.409356375539967E-4,-2.523845730539905E-4,1.7161275632191246E-4,-3.968068381021712E-4,-0.0012078713581995196,5.101549456534788E-4,-7.805386667069606E-4,5.69721897467468E-4,3.1883957609880426E-4,0.0010341225729328441,7.78823412852862E-4,2.1890764902395132E-4,2.6569371661022104E-4,-1.2509276152215871E-4,-0.001454078688742482],[6.515939580856291E-4,-0.0012040440529190615,6.56753071474453E-4,3.0509102203536563E-5,8.232027176032012E-4,5.686728643934054E-4,6.853625566865134E-4,3.269827433592003E-4,4.992401771659425E-6,-0.0014907791738798404,0.001067096104457796,-7.798099611117074E-4,8.6520323836925E-4,2.064980782461313E-4,8.043543525970464E-4,1.495794450891899E-4,8.792250012346946E-5,6.03881013334923E-4,5.539618082768012E-4,-0.0010399597894840847,3.831287048885293E-4,-0.0012239869663310777,1.4384017906399782E-4,2.904893340975474E-4,-2.67840682232906E-4,9.447921144430869E-5,-8.859312775228555E-5,3.11258842953162E-5,6.629008084505363E-4,-0.0010881699819816372,2.476649989957201E-4,-7.327276128868643E-4,7.217957415586471E-5,6.726723291067954E-4,-4.340986583489739E-4,-5.719546527904785E-4,4.019658584724121E-4,8.127512985213079E-4,9.588143983888881E-4,-0.001122301184161122,2.4893117640796097E-4,-8.098532930340934E-4,2.583334022992304E-4,0.0014639605356196407,4.361673516184552E-5,-4.073426622337413E-4,5.271341062477131E-4,4.395647046444314E-4,6.652784911958389E-4,-0.0010576533986234335,-3.676194998010632E-5,-9.502097386262929E-4,-1.1140068802459611E-4,5.425276029649443E-4,-6.994123267695042E-4,-8.842405853022488E-4,0.0012323324661466849,4.442570285951289E-4,-7.240441586342619E-6,-2.1936625741812975E-4,-1.5201705309584936E-4,-7.847040373564346E-4,-2.760091577384285E-4,9.289449318293281E-4,-6.908610987358703E-4,-0.0010916462715266702,8.496633368539405E-4,9.484027285553463E-4,7.003731334957252E-4,-8.795399893101733E-5,-6.708241183777505E-4,-9.989073650767701E-5,-5.456615354689795E-4,1.0621931268652996E-4,-7.843568168675324E-4,-9.193429845798331E-5,6.092741237050427E-4,0.0014052416403577779,3.3341743729997403E-4,-3.94122143267216E-4,-3.3425642002679845E-4,-2.6552041243025964E-4,-3.246102235251228E-4,-4.0947511797357873E-4,2.873119397227549E-4,1.6743894611861255E-4,4.286520461560217E-4,9.621794485219313E-4,4.2713417595215944E-4,-1.513130408061075E-4,1.1314079681510971E-4,-2.482841835364645E-4,2.0911588559409196E-4,4.6082543913056226E-4,-9.16037075124946E-5,2.4549869525746307E-4,-1.0384356777036938E-4,-2.782245319470506E-4,4.171594229988783E-4,1.0834519390212727E-4,-4.009506993160892E-5,-2.780651961608517E-4,2.200698870296227E-4,-2.089202973563926E-4,5.436364072896066E-6,5.7938733613417845E-6,-1.6614533454384887E-4,2.0026589021396256E-4,-1.5377918426667907E-5,-4.3637848878049266E-4,-2.201676361317207E-4,-3.126561126710143E-4,-9.60160135483643E-5,-4.2323975064053395E-4,-7.897050014442084E-8,2.9076406222098596E-4,-2.742389722872086E-4,-1.9969952444182123E-4,-8.205038175760926E-5,-3.0952774770585267E-4,-1.8339673504855743E-4,5.494259576456003E-4,-4.4422404814008703E-4,3.767366947933262E-4,-4.511046235356763E-5,2.2156403209857732E-4,1.093529444778383E-5,3.008412322883519E-5,2.950985994250615E-4,1.0664539974284034E-4,4.4442856798924317E-4,-4.284286832789418E-4,-7.371543569199018E-5,-1.4435223839691936E-4,2.814231571895106E-4,-3.1777336140821773E-4,-3.9138180108280203E-4,-2.0238681619902033E-4,-3.8245123703168466E-4,-3.1370527197184127E-4,2.929173517410733E-4,1.1333882437349849E-4,3.6073811347761445E-4,2.848447157474343E-4,4.1890865514181006E-4,6.875189293330266E-4,5.129905870020304E-5,-1.958838401325751E-4,2.0519716939019562E-4,4.235422902522521E-4,-4.137051597282636E-5,-4.924792613727532E-4,4.44227205970796E-4,4.365921039639712E-4,-1.9647940899933757E-4,0.0010514266078075743,4.2412294973890864E-4,-8.613114832426716E-4,-2.3931715523756664E-5,-1.3053332909793714E-4,1.1698214085511183E-4,-1.8408974277996998E-4,3.42565481534724E-4,-2.4300020921782232E-4,4.6519452035835313E-4,6.631392421542495E-4,4.145964295588878E-4,-1.846856610664068E-4,-1.0756831831328805E-4,4.871504100022748E-4,1.7812554688110584E-4,-3.0237283142528243E-4,-5.432381137927975E-4,6.017622865266064E-5,9.624621805436904E-4,6.360778970809987E-4,2.0098581236439387E-4,-6.456854814326412E-4,-3.8181344524877123E-4,7.772700250162888E-4,-6.207734323842676E-4,-5.25502704864126E-4,-4.923698022798591E-4,-3.332355574540634E-4,8.464458336913017E-4,5.156108043106889E-4,2.1806609739354242E-4,-2.896203738255471E-4,-2.581189069259527E-4,5.640621141176698E-4,-1.67434691209019E-4,-0.001178049917393603,6.0546199303370803E-5,-7.829698791251308E-4,5.451436277889051E-4,9.681971253023798E-4,2.3651086978424186E-5,1.0826410202468691E-4,-4.4962597385935085E-4,6.785342449849511E-4,3.094264970783902E-4,-0.0011307011042669438,-7.49130730027814E-4,-0.0011936721311820852,6.587162597585816E-4,7.185552092763993E-4,-2.77784552447683E-4,2.73545378791903E-4,-5.280691891815905E-4,5.487216272185973E-4,-1.8712077597883426E-4,-2.996761820574506E-4,-1.2740381384783248E-5,-4.653575276688611E-4,3.8164851044289265E-4,9.808712140774011E-4,-9.469307366232974E-5,6.457653430227847E-4,-4.443917206783478E-4,4.116339341261999E-4,-2.1726143459047402E-4,-2.1076032583014468E-4,-2.6589058446261336E-4,-1.5457243684508532E-4,2.0721099294449886E-4,6.32973053579861E-4,-3.941470199846162E-4,1.7303409735372686E-4,-6.178474749196438E-4,7.177316968518655E-4,2.6590263699675546E-4,4.666710985313719E-4,4.3055287340124245E-4,-5.937638883874532E-4,6.112109526185161E-4,9.13511568753068E-4,-4.742936463258543E-4,-2.0759375279511067E-4,-5.317734591698466E-4,1.7305330904839104E-5,5.039198515300225E-4,5.223832935922996E-4,3.58308822135781E-4,-5.202795236729134E-4,4.568277345239782E-4,5.978149702704085E-4,-8.086000418423274E-4,2.3483997525178477E-4,-6.8866994728537E-4,-3.400851986648514E-4,-2.1496048859374407E-5,6.164382729178089E-4,4.3412527439360435E-4,-5.8658521996308E-4,3.7628355871878233E-4,8.176603346305614E-4,-0.0015412623998846014,1.9819429472444895E-4,-0.001248347212668708,-7.189050172951591E-4,4.1765298114753205E-4,0.001344593694584386,5.022428965943125E-4,-6.349000931991669E-4,1.252883606168231E-4,2.3633566330720732E-4,-0.0011554224502477635,-1.7165268975972883E-4,-4.4337973578870344E-4,-2.136122632078462E-4,7.009081839287092E-4,6.903317214490485E-4,3.604136635264591E-4,-0.001218068550623508,7.15301271500839E-4,7.169520476767749E-4,-0.001260434709499177,-1.8098157656320547E-4,-5.838330029143625E-4,-1.077447142834219E-4,2.599333008411812E-4,0.0012336326774799325,0.001232863830954814,-7.447956613648401E-4,9.632252162342278E-5,7.016884969685183E-4,-0.00117767883317852,2.7211818613549456E-4,-6.010121921469351E-4,-2.8720777786596057E-5,6.029512785668224E-4,7.295079941278096E-4,0.001181586992756137,-5.617513668560904E-4,1.884425716845845E-4,6.828439562816461E-4,-8.25180589889866E-4,8.04472266344429E-4,-1.9443634247910032E-4,-3.12491818150117E-4,-4.8649716901484543E-4,2.481951956494154E-4,3.4305739571798254E-4,1.3972427259675225E-5,1.202771659811992E-4,5.5648673958044815E-5,4.152197922158227E-5,2.916703505394553E-4,3.5841096389723004E-5,-4.716687284441992E-4,4.720447342712882E-4,-6.523758516049711E-5,2.0044856315551418E-4,5.176599662807196E-4,-3.0879941426869607E-4,2.0689492767646584E-4,2.5454799798784934E-5,1.9182499990644115E-4,-5.331741334220454E-4,3.9917671912253223E-5,4.144336942104624E-4,-1.9915754966160214E-4,7.415603611195696E-4,3.4163216890280903E-4,-1.22665280688554E-4,3.8052203698969334E-5,1.3494024132248346E-4,1.6918130180305346E-4,-2.0982621377452236E-5,-4.0423683492435446E-4,1.6953016666996528E-4,-4.1003413522674515E-4,4.700562338226198E-4,4.8004097760811614E-4,-3.849177964424264E-4,-4.4724513659882473E-4,0.0011580799362348783,7.27480812864157E-4,-5.16086718845271E-4,-2.3627206258117477E-4,-1.5756895588472282E-4,-0.0011057264132349808,-3.491826847471144E-4,2.2160605046276836E-4,-0.0010377220286833994,-0.0010319896397940587,0.001458112171209929,0.0014973194279316974,1.9079590373451385E-4,-4.3339797628815256E-4,4.1700683791171266E-4,-6.017186365478597E-4,-7.86681241467024E-4,-3.6228276927887087E-4,-7.177915502920532E-4,-7.343014899813517E-4,6.935931895040976E-4,0.001515300068489792,1.2133104227506669E-4,-2.8970969164004783E-4,3.402120739568662E-4,-4.5591482593728035E-4,-3.3090171650359564E-4,-1.702760138844204E-4,-3.514147028109859E-4,2.9924771460058264E-4,2.1377176016802E-4,0.0013464598420783213,-3.998274958700678E-4,-1.7592747982500255E-4,-3.2610829626381245E-4,2.588692773055523E-4,-1.5027783495025389E-4,-3.6212888796440803E-4,-1.5986656158449182E-4,3.910962499049249E-4,3.946862869494463E-4,3.798602137844401E-5,-3.832901213157973E-4,-1.2760817972804914E-5,2.317053434602796E-4,-2.0348452748644667E-4,4.8786264817625116E-4,-1.3220703734952935E-5,-6.817725964781496E-5,4.505627485586638E-4,4.703069186410468E-4,2.563764791616005E-4,2.290300237767736E-5,4.0034559864448834E-4,-1.7758195557083926E-4,-3.0414903033540165E-4,-3.060442359767518E-4,-2.2958498533642304E-4,5.488915663734765E-4,4.970688419027999E-4,8.870777018474376E-5,-5.6507271808836844E-5,-2.823262983273731E-4,-4.110877793862313E-6,7.309227573048476E-5,-1.4470117679244118E-6,4.380212882454314E-4,3.469396206011217E-4,3.878650190732279E-4,2.872471129326563E-4,3.159148588071397E-4,-3.557655076744187E-4,-1.277243164628513E-5,-3.7043604763273123E-4,3.5013398306780156E-4,-2.3603415734665595E-4,1.3998061419900383E-4,5.066284934568616E-4,5.23421251640007E-4,2.9102836510300385E-4,-1.9743170738097498E-4,3.3931981876010787E-4,1.3985350718807418E-4,2.3820960027923265E-4,-1.077795148737469E-4,4.604549428256208E-4,-3.7043780578205213E-4,1.9235575605278156E-4,-1.198393210733825E-4,-2.199735924770782E-4,3.0837337906182227E-4,-1.3462489456117507E-4,-4.4303839002400515E-4,8.129233772882808E-5,3.958606914415713E-4,3.953176104068066E-4,-4.0057609851385753E-4,3.7803379969088085E-4,1.3394785829280048E-4,0.0012791734850061392,2.558334115369316E-4,-5.312191483926646E-4,2.59189590235183E-4,7.624284665537892E-4,-4.3068237953331037E-4,-5.505240192113565E-4,-6.458032144347288E-5,-6.155630555562581E-4,4.569254386432831E-4,0.0011257730654686696,1.2694758539369007E-4,-5.27170136104937E-4,3.1174216344393406E-4,2.9091105540613815E-4,-4.648787361371739E-5,-5.770559679158899E-4,1.4967539423521142E-4,-4.507414925589233E-4,0.0012237220177729992,8.689055443080145E-4,5.94012551784242E-4,-2.61748640353708E-4,-3.1436505766307526E-5,7.186216685198906E-4,1.570604379256801E-4,-6.282150350496021E-4,-2.3226019943485736E-4,-5.376023704594577E-4,6.82638559543832E-4,3.408220073541974E-4,5.400225910106459E-4,-1.1711527153564971E-5,3.50952605571237E-5,0.0010450921636627403,4.3466079165522934E-4,-0.0011787618686136384,-4.2707875300339256E-4,-0.0013177219667772932,0.0010163772893815013,2.9833769146253255E-4,-2.505468286708146E-4,7.506582465869234E-4,-5.582464270358602E-5,0.001010923021786008,8.587313933269236E-4,7.832099404362009E-5,2.3243350819734487E-4,-0.0010390132580469806,3.275419426849495E-4,3.149183146334993E-4,-2.089678117724767E-4,6.702726001448251E-4,-3.806355198235949E-4,6.299099744432791E-4,4.6979827474612755E-5,-1.69539533370347E-4,2.549630153018791E-4,-6.770908559009291E-4,4.863301107465794E-4,5.031740418498122E-4,-3.029927154198418E-4,5.24502470193469E-4,-0.001013679698135389,0.0012770213232176995,1.134904533379567E-4,4.5003801534259855E-4,1.5358580492986448E-5,-5.408500065064206E-4,4.1895054557491236E-4,2.4261118840032434E-4,-6.42986738533669E-4,8.384287118735171E-4,-5.516396541812491E-4,0.0014265025811101232,2.1371604615351886E-4,2.692061109422644E-4,2.820983545458586E-4,-8.549118959243604E-5,-3.436806818701609E-4,6.856056739665337E-4,-0.0017493991141349185,6.987983272058329E-4,-5.945128808187796E-4,8.46262625201734E-4,-1.1574766167974355E-4,9.325300035638923E-4,2.941302650712978E-4,-6.509903599481078E-4,6.677973194438015E-4,2.5159906486737067E-4,-9.85868634559557E-4,-3.502268026843548E-4,-8.284071418249067E-4,5.841867228674394E-4,-2.843684511759901E-4,0.0016291669382745176,7.931662815834179E-4,-6.154893775708462E-4,1.8530998982519738E-4,8.727281578902876E-4,-0.0015693163213300848,6.120913187978474E-4,-4.8214015634560366E-4,9.676752325189485E-6,-3.2563861413588803E-4,0.0016619485770595244,3.9935456932205465E-4,-5.084835974674827E-4,-5.802406524323533E-5,4.746776355064588E-4,-0.0016056610559161929,-3.755281778711384E-4,-8.297908706924833E-4,5.366428112795733E-4,2.577890701937079E-4,0.0024294549906962106,8.040311010124477E-4,-8.136554756253184E-4,-1.1763482777692462E-4,5.038933160196555E-4,-0.0013329873335848044,3.284714636412639E-4,-0.0010282332987917322,0.0010874762476595003,3.5642891225909704E-4,0.0024807972344948245,7.983148512271583E-4,-5.268847221390803E-4,-6.754733394800208E-4,2.158819917617683E-4,-0.0010728314658560504,1.6155404155031438E-4,-9.320623005591703E-4,9.103403497204559E-4,-4.7658711398313114E-4,8.656561813294734E-4,5.406365100108122E-4,-3.8923145749627467E-4,-5.245784098353718E-4,-1.2700089023399955E-4,-0.0011284075268132988,-1.0573444669002831E-4,-7.92432345649092E-4,7.686167687303806E-4,2.6896069886789866E-4,2.8897774238856116E-4,0.0010992863282991067,1.769288778900229E-5,-3.740872948464628E-4,3.6634985490023765E-4,-1.878543549643267E-4,1.0330777499177962E-4,-0.0015695555583119017,5.310810789456687E-4,-1.4983049421364393E-4,3.448876996955677E-4,4.725663862823357E-4,2.791407438487376E-4,-7.953852653278171E-5,1.5172773765799615E-4,-5.513942920991424E-4,5.574535064883153E-4,-0.001144585663451777,9.065681964279936E-4,8.990817192167608E-5,1.7545038493279835E-4,1.739309496945692E-4,8.94814013652986E-5,-1.7113203238342778E-4,-3.6101924662683887E-4,-9.473801614990818E-5,5.853214359616111E-4,-4.1330356108071917E-4,-7.52549270702196E-5,3.82216330132737E-4,1.6112419904490957E-5,8.489102075706894E-4,-8.396035632659664E-5,3.654854032646508E-4,-4.782290712898534E-4,0.0012437580319566877,5.475488590511695E-4,-0.0012712049009089618,1.9970724965107776E-4,7.224701992161851E-4,-9.025269523434719E-4,4.0996090917351334E-4,-6.625621221896088E-4,-2.768791415982125E-4,-3.879296947949007E-4,0.001147867615288545,0.0014509879628567246,-2.986799415907235E-4,-3.3493662885107075E-4,0.001067789173854316,-5.782041272603341E-4,2.5982960202193255E-5,-8.1296684764249E-4,-6.307759528285104E-4,-7.021996604548378E-4,9.293659266417478E-5,0.0025183915424017464,3.2432703710801394E-4,-5.656430938364018E-4,9.836885020387239E-4,-5.358457442112163E-4,-6.633445382350377E-4,-4.239572666639842E-5,-3.464552841778972E-4,-5.407107454891919E-4,-2.2438878098450787E-4,0.0019494582101395933,-1.5865917952601008E-5,4.1486661689527825E-5,-1.2531161025427498E-4,-3.1466334167438645E-4,3.0813641665458657E-4,-2.1870173791955675E-4,4.2390598241416085E-4,3.8398757935223407E-4,3.862205256785204E-4,4.751133371414968E-4,-4.3737679583216115E-5,8.399061595661628E-5,1.6522325878175228E-4,5.134450756909172E-5,-9.593058299545733E-5,-2.8050652406498913E-4,-7.765353976062962E-5,1.9850521315832232E-4,-1.067925047577871E-4,4.4212322545101435E-4,-2.6974608064992236E-4,2.0031023878044668E-4,-1.2206528818459442E-4,3.6205649059976115E-4,-2.4910840886019516E-4,4.797835297088022E-4,2.3740740643626428E-4,1.2332621794468744E-5,-3.7908597584450924E-4,1.6372688820792877E-5,2.3161240132811805E-4,-1.926436890396589E-4,3.839473424136826E-4,1.013454845100483E-4,-3.0913454895400625E-4,2.2405021424224889E-4,4.682128995088187E-5,4.598047330577078E-4,-2.9056982646026476E-5,-3.2885952116577826E-4,-5.4372784285162714E-5,2.030841025172172E-4,-3.9285730244029507E-4,4.2904460391803457E-4,-3.6170949981667534E-4,-1.6762105719310617E-4,-1.241987969355683E-4,5.826934902197119E-5,3.512296619052397E-5,4.695259325305317E-5,5.206451432593907E-4,5.813431405412813E-4,4.2427367342266065E-4,-3.3641218132966473E-4,1.5832373861893515E-4,9.311006652803127E-5,5.224638564284675E-4,4.404254818334642E-4,9.84388361206641E-5,-5.425366469135603E-4,-3.067300292301955E-4,2.650150095446434E-4,3.422082807813771E-5,-3.5465001334220866E-4,-1.6157049832452436E-5,-1.9189267287348372E-4,2.7521081319819164E-4,6.210412956464774E-4,1.9169753536771493E-4,-5.187794861532719E-4,1.4565507542393366E-4,4.196921229117225E-4,1.1129177315824492E-4,-5.20575111501026E-4,-6.61533967183688E-4,-5.865986815609967E-4,2.7501235714233783E-4,6.191413202083766E-4,-9.987853891443104E-6,-4.121005943688123E-4,-2.4324665036566366E-4,6.333329485166924E-4,5.122882781268993E-4,-0.0011864770144785416,-2.9076772599939525E-4,-1.672556412150102E-4,7.522908139928523E-4,4.2558246953898157E-4,-8.372251832772939E-5,-7.743241489655522E-4,-3.352809250018203E-4,7.222080716280567E-4,6.679249021307507E-4,-4.3331637128389116E-4,-2.9287967787857013E-4,-5.212676418434994E-4,2.9527456866192646E-4,5.320873251011757E-4,1.1601171873467778E-4,-3.392063127027204E-4,-2.9513884010185144E-4,0.001485459391214756,3.0789600520044434E-4,-2.81110646246538E-4,-2.9659697341290696E-4,-9.8594295985689E-4,7.981079662866246E-5,-2.774553527353221E-4,-4.840946027143241E-4,2.9889178730121486E-4,-1.2273287338528168E-4,7.055533062583422E-4,2.1029241283411734E-4,1.511206168123536E-4,6.605822193597362E-5,-9.99463364324714E-4,8.2508158750881E-5,4.7183205065013956E-4,-2.244350613467734E-4,6.440097743903973E-4,-5.298319173811025E-4,5.757420922542126E-4,5.135231234728797E-4,-2.6219843110742553E-4,3.7032655832385176E-4,-9.949551513622303E-4,0.0012665591882974486,4.6230279519710466E-4,-7.080133859083116E-4,3.04414038005523E-4,-5.83730766046339E-4,6.521885613404302E-4,2.628396299829776E-4,-2.886715909377883E-4,-1.6158619408424826E-4,-0.0011005893144294305],[3.2166465274975734E-4,1.7755075917038134E-5,-6.768669725179783E-4,7.848167701626448E-4,-6.786426056808498E-4,9.046982764088032E-4,-2.635573468378376E-4,-8.502980394205657E-7,3.099756560163709E-4,-4.668981218788328E-4,2.9500900100860216E-4,5.122419745550964E-4,-7.153647363959033E-4,2.6407705854272458E-5,-8.780340917887817E-4,0.0015315938313033288,7.644537415647942E-4,-2.1401679409463394E-4,1.268612484744219E-4,3.0499321276012698E-5,7.239679607915426E-5,7.103073025474118E-4,-9.519419741484106E-4,-1.109945578418998E-4,-7.673319951145741E-4,3.527880842437234E-4,7.718916037057654E-4,4.4686509968357716E-4,7.676023518198416E-4,4.186489776803216E-4,2.6481996637888974E-4,9.223139622633322E-4,-0.0015037633586016967,-3.7722340898737606E-5,-7.915902205801453E-4,7.854103124541003E-4,-1.482481862474725E-4,0.0016924947810182135,9.767364625116088E-4,3.942212089919585E-4,7.497095480995538E-4,7.057251839072838E-4,-0.0013479533838203694,-2.7881927402953726E-4,-0.001275281752754446,0.0011511487069652544,-1.597406521186003E-4,0.0011115585589956518,0.00131396162430303,-3.7396200070420355E-4,8.476079388716963E-6,8.92742705408178E-4,-0.00109528898504482,-3.568613535871072E-4,-9.18254079994655E-4,0.0012958424581524907,5.442986579573095E-4,5.317843982702618E-4,7.369114750276352E-4,3.9379498853350434E-4,-9.562790945604366E-5,8.36308081176598E-4,-0.0010200316753081683,-3.9966633355031624E-4,-0.0019393458548969148,0.00113583372432506,-2.648961901147964E-5,-1.2267552173999778E-5,9.964847875834305E-4,-4.251857930935014E-4,-2.2895246565456494E-4,9.952486964227025E-4,-1.58281634872803E-4,-3.070389891528817E-4,-0.0023218301387595446,0.0017145288423122142,2.1761126507704334E-4,4.090327291221486E-4,4.957392211240639E-4,-4.647236115901766E-4,1.7376696031324147E-4,1.3273784725440895E-4,-1.5044808988612675E-4,1.6675940333476342E-4,-0.0022900359544262426,8.304727998819531E-4,8.423980404788632E-4,2.4197606746105675E-5,6.123880642398468E-4,-7.484874279194297E-5,-5.606027748374748E-6,9.062183732394006E-4,-7.083222414211694E-4,6.720218624213011E-4,-0.0010577716371469959,2.7069158934026516E-4,1.5754736831842935E-4,-3.8164077178591424E-4,3.024741699921338E-4,-7.550704538869947E-4,-2.1724534024102838E-4,5.621528950134313E-4,1.2570936387438302E-4,8.287578883329641E-4,-0.0015908375852155142,2.3483845265390559E-4,4.328718709218758E-4,8.415227840461024E-4,0.0011234598687216517,-3.2433158395383973E-4,-2.606078457865656E-4,4.7874257797416445E-4,-1.0199475887140052E-4,9.21193034123187E-4,-0.0010661501126900794,6.65077824194092E-5,8.1355044403254E-4,-6.369896201830494E-4,0.0011349096292064178,-9.963514266904355E-4,9.900758388078867E-5,-0.0014187554114937083,5.463527227752202E-4,0.0024648085321225793,-7.312234611309877E-4,-1.1631228170175583E-4,0.0014136796961834969,-8.547282530421115E-4,3.332577366816943E-4,-0.0011927056012151073,-9.656286425682486E-4,-3.8520374572908464E-4,-1.6785836378015344E-5,0.003551287855692266,-3.93375502532705E-4,5.473649954537611E-5,8.734339478096794E-4,-1.3780639113261387E-4,-5.289035097884727E-4,-6.594760660787852E-4,1.2811101247496738E-4,-1.2880195942320405E-4,4.858875456994915E-4,0.0020836341408571653,-3.21751693115985E-5,2.4966900671812914E-4,2.2180619438320735E-4,7.60866255452498E-5,3.474675391758462E-4,2.815986017051692E-4,4.537067713113855E-4,-2.3251145030342405E-4,-2.763519146002249E-4,3.9505349035956206E-4,-2.757470001220341E-4,2.6056316401282443E-4,-1.212624820761608E-4,-1.2406876866694636E-4,-2.38275579724467E-6,-4.098984229603119E-4,2.686395130825038E-4,3.410047773817839E-4,-4.3444313143805756E-4,5.075407082726966E-4,1.0635913690631848E-4,-1.886544219078781E-4,-3.293166305116845E-4,4.3360214949429655E-4,6.762718542790217E-5,5.079558794018847E-4,2.072535543929209E-4,-2.6464547715252163E-5,4.755000521780935E-4,-1.5223897774455523E-4,1.496347065643419E-4,4.643943712312403E-4,3.6631502567674624E-4,4.541193921083254E-4,2.0426199488004474E-4,-4.4361738552790636E-4,-4.0835139022127814E-4,-1.539442232674072E-4,-3.765882336915657E-4,1.0596845417014778E-4,1.1982676912565456E-5,2.4377160143631966E-4,4.8619485717531756E-4,-3.122818386597065E-4,3.0779112666125437E-4,4.7572790130851183E-4,4.978349341662365E-5,4.7522326661492544E-4,2.6883918428971293E-4,3.5340785715445204E-4,-2.9124413260365216E-5,3.9011746155389633E-4,4.7534550936621334E-4,6.98391801597412E-5,2.5149925567757212E-5,-3.935932214734653E-4,-3.910805654240191E-4,3.723374008834134E-4,-2.9394459123294474E-4,-7.979126154625599E-5,1.006111461347743E-4,9.282544058090873E-4,2.9605450704692746E-5,-1.673996134687509E-4,7.812065315635446E-5,2.7739213644696717E-4,7.735317542085971E-4,0.00130369319751807,-6.49094090535859E-4,-8.460590579137562E-4,-4.939559098246778E-4,9.559783069466074E-4,-4.688631359343662E-5,-3.8538216293022235E-4,-5.368660179811242E-4,-2.3607466749935344E-4,5.263927112871593E-4,5.419406254145526E-4,1.296463298353704E-4,-0.0013320134573814005,-4.4010129590359127E-4,0.0011590254598461542,3.2473147553586625E-4,-5.367482146738133E-4,-3.563607788905871E-4,-3.063826653450225E-4,4.163750326236526E-4,4.1163237718544525E-4,2.449597206645921E-4,-1.414751789512061E-4,-4.098915557523472E-4,7.867619103222186E-4,0.0012956855203112546,1.3982498004215722E-4,-1.3423148580748697E-4,-8.426441558606023E-4,-2.897661829824059E-4,5.93110277978434E-4,-2.958855487579483E-4,4.2753937819125457E-4,-6.275726513879564E-4,7.1840481608503E-4,4.882378297550754E-4,-1.1851665762214317E-4,-2.901948587900681E-4,-6.71406232897579E-4,2.442901828123441E-4,1.3755699379476184E-4,-7.572050992497341E-5,8.545459433966685E-4,-7.002387397491158E-4,5.738486582207331E-4,0.00100681717647698,5.402226097318908E-4,-2.6713996143591965E-4,-6.781370131619635E-4,-2.081609146847795E-6,-1.4641663385317396E-4,-1.2644747855537083E-4,6.276478195858301E-4,-4.1393539323148165E-4,2.4244264680752743E-4,7.960700895357699E-4,-4.023757793044374E-4,9.53425636680063E-5,-0.001120238791039291,0.0011383220131831137,-3.753679396133042E-4,-3.041594534111825E-4,5.939865248358347E-4,-0.0010356834155058885,1.8440499726760006E-4,9.713141585595251E-4,6.183346006231798E-4,5.972359005175234E-5,8.23375645632683E-5,3.697174894242457E-4,-0.0013209511596633376,-3.2479962767482175E-4,0.0013550851425750666,-5.019426330746296E-4,7.980532964055638E-4,8.170043485694136E-4,2.793398650877276E-4,4.24426814562773E-4,2.0651117427754494E-5,5.699194375480642E-4,-9.034618920254764E-4,-4.3987059748547324E-4,0.0014224592349499658,-5.902763283332316E-4,7.287673499126631E-4,4.044863488406902E-4,7.101775433789509E-5,7.823088213105701E-4,3.20888464676044E-4,4.62115852081273E-4,-1.4726537554568347E-4,-9.7237600357868E-4,2.7653053631365943E-4,-7.551541749610338E-4,8.189876321427674E-4,3.752020915663848E-6,4.821009463817253E-4,2.908627858085891E-4,4.766321770493331E-4,6.576282482490477E-4,8.293368033194561E-4,-0.0018620968631142655,-5.262856112004964E-4,-9.23445618727118E-4,0.0013017927699342285,-0.0010986937101145962,6.625822663835237E-4,-3.5656364123486594E-4,0.0013459377098500643,3.684764493419707E-4,0.0011434094826793834,-0.0015677473270079626,-0.001607961011448243,-9.367791058610352E-4,0.001621600235649808,-0.001717766190310423,7.705973927745755E-4,5.799194174036748E-4,5.526025414109941E-4,2.6902352874857397E-4,6.273631704726732E-4,-2.517451881017247E-4,-0.0011307761585574244,-0.0019751817500725,0.0017231376519742585,-5.182971318329728E-4,-4.7050882390832407E-4,9.223824647123976E-4,-2.0256996709755624E-4,1.111195434580305E-4,3.663431168751779E-4,-4.37310277321594E-4,-8.20709595268419E-4,-0.0018689425413756127,0.0014966744329569903,2.536074787513984E-4,7.735872614069816E-5,0.001344508592459979,-2.0662983792101643E-4,2.681693052122913E-4,0.001073073952782452,-2.6358147708281556E-4,-3.206950810912776E-4,-0.0024719517719358182,0.0014630362201645817,7.634228916441128E-5,1.403098432567894E-4,8.151867529507594E-4,-0.0011540096997165001,1.0967423946911454E-4,6.061769777789055E-4,1.2174845680391646E-5,-4.630730021089622E-4,-0.0018016290792817035,9.828505371769053E-4,7.561115565081996E-4,-7.870441683445302E-5,7.001175324430207E-4,-6.996588224382291E-4,4.621272890086543E-6,0.001490651640791245,-1.7290937512422138E-4,2.968307373069576E-4,-0.0012806503526316636,8.597435412282662E-4,1.7443258645971196E-4,1.5472497870517467E-4,9.440107615268051E-5,-7.064132768119141E-4,-1.8913976989722644E-4,9.763123636177235E-4,1.0181774005484225E-4,7.667499518958173E-4,-0.0015373049580409898,4.440808662622484E-4,7.934169965922183E-4,-2.7033596416677465E-4,2.0945854132391415E-4,-8.849370300741838E-4,-2.673761846558824E-4,5.148462314057402E-4,-3.210860925747099E-5,7.668180143998439E-4,-0.0011609401803477407,9.390458911762243E-4,0.0011811133878787006,-2.630776293266668E-4,0.0012481292771847506,-0.001078580959561887,-4.495363885714227E-4,-1.661128737911184E-4,-3.064710150868719E-4,0.0028758263659328697,-7.942619708334553E-4,-7.447736504359244E-5,0.0015090284336456256,-7.711494926702839E-4,2.4140428575424266E-4,-4.3262714882326143E-4,-1.9915681408943427E-4,-5.279175526759862E-4,-7.06496148291337E-4,0.003830549044655932,-0.0011208677730030446,-7.922265362661197E-4,9.705072054794594E-5,-8.558605561789194E-4,-6.775745317054245E-4,-1.8045469449942976E-4,1.6434709542552321E-4,-3.7945719811462305E-4,-2.762691319239812E-4,0.003081940071001435,-2.3342934103071994E-4,-3.002392041630598E-4,-2.7628731023363534E-4,-1.1815144557426218E-4,-3.358681042639849E-4,-4.462779381429833E-4,3.281405423683601E-4,1.70967298940714E-4,-5.649434342048749E-4,4.174745120640273E-4,1.0824836594926598E-4,-5.3324753050622876E-5,3.36038526655405E-4,-2.984955697785182E-4,-3.595109076186602E-4,4.3828135874309523E-4,-1.4357591845460608E-4,-1.4230335449545996E-4,2.0620697347913057E-4,-2.5232978820648936E-4,4.0894489740780805E-5,-1.7874311451545588E-4,2.4020974635156748E-4,-2.1366284239489298E-4,-4.4394574218966027E-4,-2.1629639843583038E-4,3.227667350000125E-4,-3.092604499151976E-5,9.85670169822617E-5,3.5224710618467605E-4,-3.013509495575841E-4,1.1989785909081955E-5,7.337330134287785E-5,3.1669114194014146E-5,-2.101757036629182E-4,-3.6865436736638205E-4,1.2964484652136618E-4,-2.6534458605439174E-4,5.250550416782009E-4,3.554741436730318E-4,-2.7864869220343986E-5,7.489828530763257E-5,3.44297990491504E-4,-1.1473095368552287E-4,2.1144199227429634E-5,-2.496886447991869E-4,3.862530957447373E-4,3.2133224409309574E-4,2.5334575011399604E-5,2.4985291406197636E-5,2.9015001898935656E-4,5.835243858516295E-4,-2.583150790013353E-4,-1.8349657480122217E-4,3.3356047210360263E-4,-3.1193258943217403E-4,-1.4465248657830198E-5,-3.2732406854402034E-5,3.1242275678855236E-5,2.0523814393194804E-4,3.4582296701986454E-4,8.299558593437808E-4,-4.32624585898216E-4,-6.208953116315074E-4,-1.638983421143901E-5,-1.9475991814035012E-4,-4.085566900233901E-4,3.4072567660343365E-4,-2.2875558224431678E-4,-6.151469772375682E-5,-1.7060473651985572E-4,0.0010489740324618401,2.921880426031313E-4,-6.592886215046446E-4,-3.261660965228533E-5,-4.555911906432504E-4,5.569686213835577E-4,5.140316114250245E-4,-8.404764511622374E-4,-3.186833482488305E-4,-5.780628877940349E-4,0.0011162575886577584,7.64226255992369E-4,5.797352544637035E-4,-3.8389240311429194E-4,1.7731898783870012E-5,7.89118255372778E-4,3.137746033598196E-4,-3.96754206289236E-4,-2.9750248158208766E-5,-2.9194386430502476E-4,4.051593690386477E-4,4.3455656891275084E-4,9.77413384789097E-4,-2.323557402673986E-4,-4.112392296084762E-4,-2.0533039191194687E-4,-6.653446307216283E-4,1.2202652145453647E-6,6.397182281924179E-4,4.3587229446455947E-4,-1.5899271541538642E-5,0.0012107295822193374,6.113807619033024E-4,1.8358191269304616E-4,-0.0010768481330063365,-2.3624484775812359E-4,-7.878042476237147E-4,-6.045168853237467E-5,0.0011742199102301155,1.1612439053153353E-5,-4.381971002991878E-4,9.794109124908299E-4,4.876466086765279E-4,1.389600445424812E-4,-7.226955439728991E-4,-7.40376952985958E-4,-0.0018717060839888887,9.737710547553786E-5,9.566938441616032E-4,-2.6618681762093804E-4,2.7080407124366074E-4,6.332993084456819E-4,2.707878883503897E-4,-5.0732104354823036E-5,-4.166512998832752E-4,-2.668436528151708E-4,-0.0017040698712695568,1.5302609142447865E-4,0.0012654010941814044,-5.477406677553488E-5,8.983811903534604E-6,7.663375745365201E-4,6.752104911609989E-4,3.556428397570788E-4,-4.4018507444486954E-4,-5.989173559700718E-4,-0.0019099464661603896,8.169464325866021E-5,0.001447544562003748,-3.161754711026195E-4,1.0917356613016142E-4,7.958424219303297E-4,7.325726296464936E-4,-1.2891949837165516E-4,-2.151245972197454E-4,-6.397560679814163E-4,-0.0016889592512285658,6.518567299101928E-4,0.0010011865377943098,-7.949104583740239E-4,-1.8422494830925987E-4,6.63732374499113E-4,3.886083603620333E-4,6.127431274887698E-4,0.00109932415506062,-8.803260972246541E-4,-3.2768120674607373E-4,-8.44975609192088E-4,0.0011027837628423327,-3.7028625762299883E-4,0.001078649184356668,3.9412864398992757E-4,-3.560318640104493E-4,-5.402373734725375E-5,0.002219393528054322,-1.972856248582261E-4,7.396136630126765E-4,-0.002585857871636311,1.555462483735688E-4,-0.0010717430338859236,0.001131011319499361,-1.9131364630696764E-4,-1.6950631055344482E-4,-1.4141203515831747E-4,0.0021960041488333984,2.8726956907207667E-4,0.0012295918828562668,-4.614638986392354E-4,-2.6273731234812634E-4,-0.0014297615279716467,0.001886529405256144,-9.774239226234972E-4,-4.906202106576012E-4,-6.787789886749172E-4,0.0010011500520059427,1.3682407288965863E-5,7.973782931405014E-4,-7.512801374273712E-5,-8.105421039193854E-4,-0.002102249479151713,0.002429216129559331,-0.0012050653701987065,7.765644439225061E-5,0.0011909567925601006,2.0611881902428864E-4,5.208160097188542E-4,4.931962474846365E-4,4.970256561457201E-4,-9.22547012149972E-4,-0.0019389402278177333,0.0017539850138892203,-3.9525400706634127E-4,1.6963300179027087E-4,5.64502406244809E-4,-1.334905587722204E-4,3.4709496299943946E-4,8.342884948467596E-4,-1.6756983209162624E-6,-4.326903444543826E-4,-0.001864987601890921,0.0012047251334633502,1.1389182410711718E-4,1.3416609682567803E-4,4.1577190398903467E-4,-3.364619590149922E-4,-4.499898863615303E-5,4.463019487675611E-4,2.679014954157564E-4,-0.0011090437411050624,-0.0015843164700727853,0.0016897375445916504,3.2010395983927444E-4,3.212004517697104E-4,4.489483425466349E-4,-0.001309278485661525,-1.6277426234430047E-4,7.184666304420659E-4,-4.8322417929085525E-4,-9.798504771421042E-4,-7.431210427955998E-4,0.0014226206142082234,1.9290208869382754E-4,3.7140679077486363E-4,2.0051280902954143E-4,-7.354812033287105E-4,6.433816170529667E-5,6.447714347892319E-4,-7.255343405484634E-5,-2.797915380085696E-4,-0.0011204761147626788,0.001105665539201074,1.7006081547875493E-4,-1.3048642096541687E-4,9.650434228778899E-4,-9.165272901023781E-4,-4.104013621844392E-5,-1.0438619822474106E-4,-8.180118676111781E-4,5.672421009458308E-4,-0.0010860691154628988,9.717718317545653E-4,9.909453666095813E-4,-4.2987348708196997E-4,0.0017930053464480322,-2.109592612837845E-4,-3.657012065928874E-4,-7.709527425584202E-4,-6.88116144085815E-4,0.0022398828174851216,-3.5180330734892634E-4,-3.3578881456503354E-4,4.4289500479714766E-4,-1.9492697716440156E-4,9.206629609842928E-4,-8.790064302401768E-4,-7.275010522536472E-4,-4.2814843766607E-4,-4.701798058207258E-4,0.003202148374422768,-0.0011353868681354014,-1.9217512567026537E-4,2.0602005442640445E-4,-7.068259885875936E-4,-9.326798462447346E-4,1.5612405072738835E-4,3.009977528146279E-4,3.472128426890663E-4,-4.956283066655249E-4,0.0029246835282112256,-3.657768981871493E-4,3.735807742378652E-4,7.873586483890784E-6,-3.1612852539955995E-4,2.459497935922549E-4,-4.635502469115379E-4,6.762097312996381E-5,1.7938096055112194E-4,5.280211637782033E-6,9.15886284907073E-4,-6.219138213018205E-4,-4.18440928452923E-4,2.847727836803874E-4,-4.039337396215437E-4,-5.71639740662732E-5,6.0944757931709566E-5,2.5318701699334877E-4,-3.945506894228577E-4,2.9509839509003045E-4,-2.5552993963257986E-4,-2.819738512569525E-4,2.2450169718367526E-4,1.6590643257368752E-4,3.773669026139492E-4,-2.471973522173909E-4,1.2560000364609812E-4,-3.7410709702781264E-4,-3.292268278981063E-4,3.4253217747318864E-4,1.1282234800913723E-4,-2.5222148445829093E-4,-1.2751561259781642E-4,-2.9851763883263066E-4,-1.3421278378326915E-5,-5.435127742169608E-5,-2.447467184056938E-4,-4.0127425206119756E-4,-3.756940296353728E-4,1.1990322457114401E-4,-2.454103824240173E-4,-3.1062637604819876E-4,4.502767426835124E-4,2.8018675472976824E-4,8.42040704844223E-5,5.358429343491427E-4,1.670324254545204E-4,2.9416128015708577E-4,-2.8519820920455165E-4,1.6698370629432305E-4,5.244133665664871E-4,3.898544769788246E-4,4.390290972790671E-4,2.3439299572276207E-4,9.193243458460496E-5,-1.2844591258158214E-4,3.3978314157454214E-5,-7.71105312327654E-5,1.37007033221866E-4,1.3669141389534533E-4,-2.1694424842379293E-4,4.6537242826581405E-5,0.0011053926570215639,-2.1873196877946754E-4,-4.672730539925107E-5,-5.953077946479805E-7,-5.044436404504734E-4,-3.0517947495475693E-4,5.85811690865176E-4,-1.9987586088975997E-4,4.69834323228268E-5,-3.2311170880876125E-4,0.0010501139112180774,2.0830281833982613E-4,-1.0714341997857526E-4,2.494743829365185E-4,2.540800509406382E-4,-4.039458644646804E-4,-0.0011027381908276315,-4.618379386140904E-4,4.6797349644789153E-4],[-3.7600537310110134E-5,6.326772572778868E-4,8.172682516586319E-4,0.0012705955324285193,3.6897976126613804E-4,-2.047032495856754E-4,-3.502153821004696E-4,-5.967058840259988E-4,-2.0380217023881046E-4,7.304547259984534E-4,-4.5802724975780654E-5,5.908348216678314E-4,0.0010913015665546,0.0011188094502384554,3.31024589844249E-4,-4.703051298951152E-4,-0.0010499768739268415,-0.0020612178145050348,2.174092186962831E-5,6.918062555006512E-4,7.562606091752303E-4,7.087157613126063E-4,9.507554479079243E-4,0.0011570215964676913,-3.503542204748209E-4,-1.9246320347353818E-4,-0.0010477839905772318,-0.0017781411976146501,9.006446418380285E-4,9.75139426749983E-4,1.2951656801383295E-4,5.429258789052917E-5,5.717666852055619E-4,0.0012924775076309748,-9.361068258230022E-5,-7.827972261824192E-4,-0.002023963925948386,-0.0012080576874316745,7.267113733265428E-4,9.579200727423466E-4,5.445662684105876E-4,2.4096001329330612E-4,0.001376688268557745,6.026356149055201E-4,-2.066761161014191E-4,-0.0011336359073176392,-0.0019393732916884853,-0.0010164447859618607,0.0015083421205764971,4.863517941506027E-4,8.68505013723893E-6,5.780915203026151E-4,0.0010034956027634022,0.0012879186875713732,-1.9021736365983484E-4,-8.752157163304097E-4,-0.0016169609902812005,-8.685487052950544E-4,8.002453786485489E-4,7.859567550051748E-4,-1.0473435440263809E-5,-4.3008158466434926E-5,8.873755379258505E-4,0.001064137543689312,-2.92005156528336E-4,-4.930307624254141E-4,-0.002419668148400457,-4.655395823814343E-5,0.0014534973587824102,0.001346062973082797,5.916772675084806E-4,1.5940413618843857E-4,5.383026931698191E-4,2.951565340403986E-4,-7.148632150701541E-5,6.903603263508314E-4,-0.00297489117886898,2.225546057706166E-4,-0.0015088143927486529,0.001458318439618554,8.013244663788711E-4,-5.438915847727159E-5,9.880989154219886E-4,-1.1437734655565694E-4,-9.737895954688737E-4,0.0025871246315275595,-0.0015522532758653895,9.618012919523374E-4,-0.002829001885459119,3.7248725435117284E-4,-9.856727273112188E-4,0.001040898218074429,9.833432728696846E-4,1.1425864384903995E-4,-0.001722833933984099,0.002132987859814624,-0.0011936136450588618,5.25471826552069E-4,-1.3684283521197703E-4,-2.0996086168624176E-4,-0.0018749499747654564,0.001631981719696993,-3.9735198187918543E-4,6.775851777967477E-4,-0.002020472496309166,7.301761144057858E-4,-3.881102411205246E-4,5.489262892827331E-4,0.0013531693228211665,-8.44608107132539E-4,-0.0011151548512162114,0.0018082301774865975,-4.39346793824226E-4,9.213777090361639E-4,-2.6775440671821194E-4,-2.575176484548386E-5,-6.731135987039277E-4,9.333137956737687E-4,4.554425971886284E-4,-0.001100747625334434,-0.0010730909083534461,0.001954031432384608,-6.555568138421101E-4,0.001187511668450671,-7.367292691406121E-5,-4.8310626081421546E-4,-3.873807369396235E-4,1.5130435427996303E-4,-3.1633437014733047E-4,-9.718794981268601E-4,-7.661274386282668E-4,0.0014136214213522325,-5.624074966925986E-4,7.07119257889889E-4,8.510587231749573E-4,-2.508881966349594E-4,3.125441998284205E-4,5.852705393882272E-4,-3.4067727631660973E-4,-0.0014199383371025231,-9.143303434562524E-4,6.071338489720216E-4,-8.058572283431102E-5,4.83385881436916E-4,6.567883231312338E-4,-0.0011530121828611142,4.189523698943077E-5,9.500955754309593E-4,-1.642483447855845E-4,-0.0018725859649010627,-3.898403114740633E-4,0.0013878416543040646,4.1512460356031474E-4,0.001757841899018868,0.0010463512139489066,-5.131165738255402E-4,2.7371328807105174E-4,-3.7194502483666294E-4,-2.569315312657238E-4,-0.002195548374198581,1.2812546783343043E-4,9.87638395219169E-4,8.183052772893872E-5,8.448647066980184E-4,0.0013415872704460078,-2.1039592224186777E-4,-2.7772326786832E-4,-4.2048961801419843E-4,-9.903577050606149E-5,-0.0013852277136406428,5.605429004738892E-4,4.841567368927305E-5,6.362849161501618E-4,6.896448688384439E-4,0.0011747752959694422,-3.8735939775797856E-4,-3.4266969266853015E-4,-7.700445056062902E-5,-0.0010613613421473318,-6.626476056272479E-4,6.999237966108565E-4,-2.7808118980675734E-4,0.0014025340687615758,3.698306055694128E-4,0.0012840749012143096,-6.227773185434084E-5,-6.13763014275857E-4,1.662113833727432E-4,-7.82908061822212E-4,0.001174606186948266,9.526087649121105E-5,9.88547576322124E-5,8.737322894753084E-4,-2.0131711462385382E-4,-2.600681830921576E-4,3.9278766641816514E-4,1.5897645476983078E-4,1.9050698554764998E-4,-3.861484329504105E-4,0.001408352001882569,-2.72530191030425E-4,1.7050583637091672E-4,1.0387183233090072E-5,-6.153079559271746E-4,2.690966566817244E-4,-1.4510061254543435E-4,2.1020954431309242E-4,1.3368554143292126E-4,-3.1341785529184144E-4,7.804560271881951E-4,-4.6322463263538406E-4,-1.5895307763060882E-4,-3.2110746672799105E-4,-3.356140512567723E-4,-2.783740089332321E-4,2.2113138589140673E-4,4.954756206246333E-4,3.8932095723766724E-4,5.238528211802936E-4,-7.839280833569449E-5,2.1794646948278002E-4,2.7857349004572996E-4,5.839484608818693E-5,-2.626741982430014E-4,5.018578956734844E-4,-2.4518206821019995E-4,-4.281269230982824E-4,1.8698778528925106E-4,3.3672834757121856E-4,-1.8359501505560893E-4,3.2189897389634707E-4,-2.8908228490372997E-4,5.141796580685584E-4,-1.3193551915451743E-4,-3.704109422373478E-6,2.7182546379675096E-4,-3.9825360871486054E-5,-9.699849347465328E-5,-8.375499260101699E-5,-1.84611699626461E-4,4.666510679650454E-4,5.865006598224779E-4,4.6127035282263266E-4,1.262644007112992E-4,3.599730486512421E-4,-4.1308237983605286E-4,4.2731036316033083E-4,2.7040132530784384E-4,3.201327108180389E-5,9.048066632495429E-5,2.855108501062974E-4,0.001019973479043397,4.805674879176115E-4,-1.7209116644404117E-4,1.0635680237307991E-4,-3.8310320101799395E-4,2.4000786196208567E-4,-3.4552032636334877E-4,-5.556697781832472E-4,-1.5421646393197122E-4,-3.619810956326778E-4,0.001165906931680132,-4.165437582740266E-4,1.9893169659048151E-4,-5.498782089504055E-4,-2.849737901922118E-4,-2.023713487307265E-4,1.8643230798913E-4,-4.455485041545113E-4,1.6197281181564924E-4,1.2136711735605417E-4,0.0010391685323153357,-4.011453098020945E-6,0.0010037560614209844,1.2253372403541756E-4,-3.527915273164728E-4,-0.0011705379732105175,-4.665827793040154E-4,1.7152969393292045E-4,5.339083653316441E-4,2.8426560068773584E-4,4.185880229912038E-4,4.622050689126268E-4,6.882853331460975E-4,6.872922167133031E-4,3.002412052391991E-4,-0.0022318815570137917,-7.79604996767738E-4,6.132480023231818E-4,0.0015118004912456043,8.527794300193627E-4,2.4100873335506322E-4,7.400694988904924E-4,7.905566890279682E-4,3.393749067869288E-4,-3.767702175407859E-4,-0.0028140512740684994,-0.001193110168172334,0.0011922783217938537,9.993013249660352E-4,7.060089748500207E-4,6.109938644739216E-4,2.9431162384528094E-4,5.781656418753277E-4,3.8605432683146737E-4,-2.974282862328426E-4,-0.002062304836092841,-0.0015706323904941663,0.0010243313338280603,3.3473353857401544E-4,1.6644837091632123E-4,9.04016078174152E-4,4.3453307560107485E-4,0.001004555346602791,1.4052269843111366E-4,-5.331265712420754E-4,-0.0021359236094002174,-5.388221120443112E-4,0.0015022155921393361,-1.0357791488051561E-4,5.834034629234887E-4,9.872633116956327E-5,4.4864906812660274E-4,0.0011177443864400622,2.3232299241150104E-4,-7.410501907869822E-4,-0.0018519997186733344,-1.2405675772722484E-4,0.0012420996266014979,0.001021604761887132,2.607855239059265E-4,-2.2142031924302842E-4,-5.745575920317242E-4,9.934947160676012E-4,2.1905694773844577E-4,-7.980157401314368E-4,-0.002021577124970908,1.330188886156076E-4,0.002284544209224068,0.0012845885156553079,8.496323420581667E-4,-4.930059770363345E-4,-8.840653788890081E-5,7.824812342150873E-4,1.0014513968423E-4,2.694636706065079E-6,-0.0020091210204873015,-4.426139133516928E-5,0.0019952846842239452,0.001291120082203604,9.048893485783397E-4,-0.001528842985352486,3.80783901137731E-4,-7.018304279989157E-4,-4.464512961228802E-4,0.0010022169053212763,-0.001632023924598747,8.560871607900697E-4,1.1860497459006449E-4,0.0019251877614942785,6.35032065395218E-4,-0.0021647699456630383,0.0016902182079651887,2.622779288463862E-4,-0.002035638663716189,0.0031782338566478,-0.0017746393389065178,0.0013415475843588972,-0.001480752225429462,1.5492517734878346E-4,-9.520058389711747E-4,-0.0010311652563778084,7.99800543844459E-4,9.172187388601098E-4,-0.002090249414856869,0.0022499887351707763,-0.0012763863138757318,7.878743635350819E-4,9.418927923818829E-4,-3.174643632420129E-4,-0.0012373874137715083,0.0011333419321456137,3.4215805108017586E-4,8.810821448401583E-4,-0.00194254633003744,2.1414799079989632E-4,-0.0015141547789724178,6.081661700084219E-4,0.0013807714876196075,-0.0015145274051580528,2.0363576885770257E-4,0.0018069213833073713,1.3545990241371606E-4,0.0012037201620228935,-8.268420193191651E-4,7.326800464751691E-4,-5.278852775991038E-4,6.498158351133652E-4,1.376344170635076E-4,-0.001327946778822126,-1.924279964229917E-4,0.0013215377643901655,-2.219172623038176E-4,0.0013703618089765306,-9.56777716371567E-5,-3.093016409244459E-4,-8.369424742037934E-4,2.7737062939294085E-4,-2.2131658323571446E-4,-0.0011493739878527267,-8.417511674071769E-4,0.0012194901701817282,8.228290950033698E-5,8.869467966911893E-4,-3.50528867971992E-5,-3.2271403519949267E-4,3.2517945829383174E-4,-3.9285606147747526E-4,3.701802507023799E-4,-0.001247308279266372,-4.308490484933543E-4,2.579180346321067E-4,2.3569121614587204E-4,0.0013138143323467252,1.3886115404484402E-4,-8.961896639729733E-4,1.5463420767077647E-4,-5.72989334177068E-4,-1.240830830934752E-4,-0.0015623378659794362,-4.088240603952197E-4,2.3932439065434838E-4,8.517809299817763E-4,0.0017116106083678868,7.933228886681484E-4,-6.409265452601314E-4,-2.879229654357015E-4,-6.252461736570944E-4,3.2913621660243326E-4,-0.0024633148146320145,6.02679233004543E-4,-6.983233547545933E-5,0.0013740832096784017,0.0017978282940422396,0.001321920246681418,-5.572587354864374E-4,-2.137505051352394E-4,-2.345162951932074E-4,1.7689754232765615E-5,-0.0027438913682433824,0.0011170938179032646,1.944753795749392E-4,0.0012171561763557914,9.205869339296717E-4,0.0016738409267531115,2.249902551923946E-4,-6.272235177788465E-4,-1.6881312752010287E-4,-7.203520187125565E-4,-0.0022180077762733105,0.0018226765072399589,-4.038599205003234E-5,0.0011356606726286747,1.203096164117444E-4,8.900339087058841E-4,-2.975775950670971E-4,2.464020607250754E-4,9.762858452105356E-5,-3.477177440757607E-4,-9.812154746411427E-4,1.765438757751235E-4,-6.462315750279745E-4,7.408633894658026E-4,4.3250737865157484E-5,4.201854029032155E-4,2.5201362152279405E-4,3.9373461160298914E-4,1.8995267349628564E-4,1.0273889979462476E-5,4.98797574431619E-4,-4.94651239125436E-4,4.0058799556896125E-4,6.5940012493942E-4,-5.988680029590326E-4,-3.9531521808817586E-4,3.5333756620421346E-4,7.864818282247873E-4,-3.652369980108511E-4,1.4027741355587733E-4,6.671092595307767E-4,-7.270364198217948E-5,-7.115451419841955E-5,4.940461823732195E-4,-2.662981742891795E-4,-4.4160204609980944E-4,-3.817911173202115E-4,-5.6560424314991604E-5,-2.3291726679336308E-4,-5.6169574571414824E-5,1.8550256275265992E-4,4.7046373167531545E-4,-2.708347727533462E-4,2.74738933949683E-4,2.948326738384832E-5,5.498345264071597E-4,2.617945084737862E-4,-3.201239576346828E-4,3.516736858775716E-4,1.8581651183298975E-4,2.580636659383464E-5,5.124174856357838E-4,-2.9177530950651756E-4,5.188588973029168E-4,3.6183726225040406E-5,-2.1669167768984557E-4,-4.1955662658609905E-4,-1.0233339140809343E-4,1.6336807524808383E-4,-4.555199953040853E-4,-4.2304564222810857E-4,2.313036947327854E-4,2.0170389784641472E-4,4.3367719729710475E-4,3.917408906776085E-4,4.950646959858457E-4,3.887726611157497E-5,4.753368650591306E-4,4.180157076448342E-4,-3.0623057555468833E-4,-2.470748851792635E-4,1.5198378558308093E-5,7.144588194603851E-4,-3.7738452607890004E-4,-3.1453206438916226E-4,2.1878987084218926E-4,3.962568313810612E-4,-9.84823830848736E-5,-2.7624244475755994E-4,2.1707728257226665E-4,-3.1070637654147915E-4,1.0160145170029536E-4,9.438947929254236E-4,-9.859305938719542E-5,-2.2337972500721724E-4,-3.7729465131873696E-6,4.83922606169398E-4,-0.0010048697856027409,-4.217637933866072E-4,-2.998623717567463E-4,1.505180645111762E-4,-2.829511737461222E-4,4.4851136331911396E-4,-2.144794868381145E-4,0.001372440654005504,4.354857364720718E-5,5.354650807721877E-5,-0.002068960885686438,-6.487215914216097E-4,1.8555510656079413E-4,3.482065871650683E-4,3.905585280798671E-4,8.506617233240779E-4,1.3949289036589958E-5,0.0016902205544223206,7.427617928888504E-4,1.1016750293806121E-4,-0.0025735338542659364,-9.777612356078927E-4,9.803371842218892E-4,2.1134999839859153E-4,0.001381326515325684,-9.617914256406899E-5,-3.4717328062566067E-4,0.001249276605408856,8.360786320736768E-4,-7.25433739019633E-4,-0.0015771537649610934,-0.0012505323919865116,0.00152066386648527,5.98031768325936E-4,5.722710460891055E-4,5.120331083935655E-4,-1.9680806225583847E-5,6.696145548932563E-4,5.356068356935179E-4,-4.255263536709916E-4,-0.0013139751788181849,-6.514509714075046E-4,0.0012683185897818434,2.775044179577351E-4,4.059967923207102E-4,-3.9558502109902173E-4,-3.118858730722524E-4,3.070311213556536E-4,7.075619796975224E-5,-0.0011071242446688374,